dx1,dy1,dz1,dx2,dy2,dz2,azm1_cf,ele1_cf,azm2_cf,ele2_cf,azm1_an,ele1_an,azm2_an,ele2_an,tdoa_bias,time
0.9485103282120664,-2.5796677805024926,-2.1491864646747523,-4.099713286882056,-2.382062646973036,-0.13919472508753217,110.32171917072348,38.07589884109551,27.332010798343557,5.468129115952252,144.72904518831015,48.467356343443946,109.12196306628334,70.47717455911786,-4.277075883421279,3.0389883518218994
0.9485669601294158,-2.5797272011966896,-2.1492892724298316,-4.099656654964707,-2.382122067667233,-0.13929753284261132,110.26874562265743,37.90323814188355,27.322087783141072,5.414055440851275,144.73022173991072,48.46739591867745,109.12638164858909,70.47772861817948,-4.2349887906196955,3.057692050933838
0.9483766855395499,-2.5797681353798687,-2.149413272338677,-4.099846929554573,-2.382163001850412,-0.13942153275145705,110.46154101561655,37.71670933575523,27.51065657394289,5.424889828735927,144.7292838891297,48.46376822532149,109.12983431117947,70.47661222648743,-4.234855070379915,3.0774459838867188
0.9485149112147693,-2.5797223738501334,-2.1492841719026785,-4.099708703879354,-2.3821172403206767,-0.1392924323154583,110.275095449082,37.902151985381614,27.372805266463015,5.357340538898948,144.72964922974757,48.46670138847874,109.1258396389118,70.4774011716034,-4.427287828329305,3.0980031490325928
0.9485928863769537,-2.5797267220447035,-2.1492725148045535,-4.09963072871717,-2.382121588515247,-0.1392807752173335,110.171950483803,37.9923836723721,27.25824090026482,5.3710622533554595,144.7302677659953,48.46789846932277,109.12596023754553,70.47793139866887,-4.291309418995096,3.1167654991149902
0.9484845885338296,-2.579671597108705,-2.1492507579155764,-4.099739026560293,-2.3820664635792483,-0.13925901832835622,110.44997709840123,37.92762916601165,27.44053304000601,5.4949049724145285,144.72965225764173,48.46646370866897,109.12405592737893,70.4768373853507,-4.220784145244745,3.137423515319824
0.9485188953997961,-2.579651999304158,-2.1492656785242996,-4.099704719694326,-2.382046865774701,-0.13927393893707962,110.28937681823072,37.96646736343319,27.3343293390106,5.423727942793532,144.7305758012139,48.46678250496632,109.1246142287802,70.47678357201801,-4.253669862757097,3.157924175262451
0.9484353993101962,-2.5797328945249207,-2.149313557668406,-4.099788215783927,-2.382127760995464,-0.13932181808118563,110.40320870331307,38.196006780044556,27.33943579971984,5.567095221067297,144.7290325047513,48.46536147525435,109.12645081001237,70.47694834229131,-4.187937481449047,3.1772091388702393
0.9484966730591118,-2.57970597043274,-2.1492476694930263,-4.099726942035011,-2.3821008369032834,-0.13925592990580635,110.45083569230484,38.097784108674,27.380608177591036,5.573378076003635,144.72917500612624,48.46672214788245,109.12432323920098,70.47726222895649,-4.408474923587375,3.2149648666381836
0.9484588443751343,-2.579732598966266,-2.149322636688415,-4.099764770718989,-2.382127465436809,-0.13933089710119473,110.46832361567878,37.904069264682185,27.45128137470647,5.5074190176419435,144.72943168701997,48.46561287609189,109.126907613068,70.47704694365282,-4.056599782458872,3.239210367202759
0.9483490955759752,-2.5796725372959473,-2.14924083369526,-4.099874519518147,-2.3820674037664906,-0.13924909410804018,110.42445242706991,38.13183849349804,27.418703064899155,5.492052013869949,144.7279896606097,48.46465241193815,109.1228783962827,70.47610859475432,-4.253467248509081,3.258975028991699
0.9484637248367958,-2.57969419244114,-2.149285815003088,-4.099759890257327,-2.382089058911683,-0.13929407541586794,110.4882081897181,37.99820798946297,27.408021891177967,5.58729968474826,144.72957038814445,48.46591926297812,109.12533286296645,70.4768203661288,-4.460066590750051,3.296905279159546
0.9484326972895023,-2.579653322735721,-2.1492260975364297,-4.09979091780462,-2.382048189206264,-0.13923435794920958,110.32450066631985,37.981596383612434,27.34863111622855,5.451660090088362,144.72901212768087,48.465910662650636,109.12272278709996,70.47644545327574,-4.2582406264147,3.3379039764404297
0.9485076881159431,-2.5797537461565843,-2.1492910285936713,-4.099715926978179,-2.3821486126271276,-0.13929928900645133,110.19238886681846,37.96446693504918,27.299883066220513,5.345852269867415,144.72915528880395,48.46660063808977,109.1263041150016,70.47765032184317,-4.422599484507851,3.357966423034668
0.9485142519278282,-2.5797935100862674,-2.149290205084232,-4.099709363166294,-2.382188376556811,-0.13929846549701183,110.32566431966737,37.90229393895003,27.373948315221412,5.423074192296354,144.72856194890014,48.46677274759794,109.12666217896155,70.47808967099571,-4.422615889772402,3.3789188861846924
0.9484886187294921,-2.579695043086864,-2.149291954462374,-4.099734996364631,-2.3820899095574073,-0.13930021487515384,110.31506569810615,38.02402633759495,27.346365623904724,5.443178187863632,144.7299231199396,48.46621771874942,109.12570714230884,70.47694918906642,-4.422564439408554,3.3980653285980225
0.9484138728605969,-2.5797570788687225,-2.149350912638722,-4.099809742233526,-2.382151945339266,-0.13935917305150197,110.45563205013762,37.887776917482114,27.472135135787102,5.46563547962864,144.72895131057876,48.464791427939424,109.12781674163817,70.47693529436725,-4.263008672208583,3.418832778930664
0.9485008418354282,-2.5796921057876334,-2.14923089184224,-4.099722773258694,-2.382086972258177,-0.1392391522550196,110.35569825905986,38.12670493305905,27.32091052598224,5.527197878282503,144.7291999719931,48.466895685688584,109.1236493989559,70.47720655830106,-4.272405337352335,3.438016891479492
0.9485078274814516,-2.5796873839183867,-2.1492543891403293,-4.099715787612672,-2.38208225038893,-0.1392626495531093,110.3127807853047,38.13551520180386,27.348532289109848,5.436666286236739,144.72970385525176,48.46678759560449,109.12446312042572,70.47711554007455,-4.295884895908024,3.460545539855957
0.9484683703931549,-2.5797031688680283,-2.1492245337958114,-4.099755244700968,-2.3820980353385717,-0.1392327942085914,110.33176799226219,38.083604377589594,27.350840064913424,5.45876476373812,144.72856422276885,48.4665149865636,109.12332396989181,70.4771547775593,-4.234833103413457,3.4799535274505615
0.9484624386395688,-2.5796654426017014,-2.149350911910622,-4.099761176454554,-2.3820603090722448,-0.13935917232340214,110.34493562887408,38.00563466570263,27.38659880419988,5.430158611623067,144.73099546267431,48.46530206275808,109.12732245652256,70.47629315532285,-4.4272538625225994,3.4992189407348633
0.9485330809050017,-2.5796671743931583,-2.149276412622265,-4.099690534189121,-2.3820620408637017,-0.13928467303504527,110.43500012072855,37.96573621483417,27.425298018817188,5.494538755210083,144.73064271523043,48.466918962309926,109.12520501540942,70.47697865447428,-4.2818464340343425,3.5182607173919678
0.9484732787035404,-2.579774054389893,-2.149319339488819,-4.099750336390582,-2.3821689208604364,-0.13932759990159876,110.47993361257365,37.889638669817174,27.440183526392822,5.537574100606625,144.7288609258927,48.46591901424966,109.1272439696015,70.47755698704115,-4.309979582614366,3.538512706756592
0.9485046914275739,-2.579695927007101,-2.149295148859711,-4.099718923666549,-2.3820907934776443,-0.13930340927249124,110.53078529056103,37.880302070381425,27.458334251674064,5.577340689589646,144.73013393095033,48.466417482993286,109.12592515127467,70.47703846163154,-4.19268823799628,3.559129238128662
0.9485194164301605,-2.5797554402586105,-2.149262088657097,-4.099704198663963,-2.382150306729154,-0.13927034906987693,110.39945684196175,37.94430038955937,27.39285679551774,5.492741921675173,144.72882751029607,48.46701070639845,109.12539260826041,70.47783715125902,-4.1363985717180265,3.579242706298828
0.9485052390568638,-2.5797172950884755,-2.1493039288027864,-4.099718376037259,-2.382112161559019,-0.13931218921556612,110.29190916775792,37.9097755365408,27.339784818288646,5.42208056955798,144.7299190454852,48.46639089841501,109.12641743298919,70.47722476400642,-4.136397961904306,3.5988361835479736
0.948478409024816,-2.5798012238506196,-2.149379592525758,-4.099745206069307,-2.382196090321163,-0.13938785293853792,110.4592429795406,37.76968466576538,27.484368667009782,5.454839192699577,144.72936571501577,48.46553542555756,109.12959240781223,70.4776446441096,-4.136431772283921,3.619785785675049
0.9484543600946775,-2.5796748931778564,-2.1492611703875024,-4.099769254999446,-2.3820697596483997,-0.13926943080028234,110.40467691427303,38.02202282834998,27.401998085758404,5.486722847481143,144.72941807918787,48.465959372293575,109.12425597252123,70.47666087088086,-4.13630501706537,3.6386942863464355
0.9485260069452583,-2.5796987791096577,-2.1492798679678735,-4.0996976081488645,-2.382093645580201,-0.13928812838065338,110.3102331784772,38.00997217320798,27.343098254369142,5.440498130480758,144.7300960775414,48.466849266274195,109.12555499468603,70.47724308642393,-4.2208547256067135,3.6785600185394287
0.9485283303134195,-2.5796700405967514,-2.1492414021798356,-4.0996952847807036,-2.382064907067295,-0.13924966259261554,110.26337099674852,38.03673954417014,27.28621361040187,5.452297134004106,144.73002311537104,48.46715151206187,109.12399156234142,70.47710474341753,-4.220827983623945,3.699755907058716
0.9484370785296705,-2.5796820833862366,-2.149282943475078,-4.099786536564452,-2.38207694985678,-0.13929120388785776,110.36850083298145,37.959446949113705,27.39375048404503,5.451415373034025,144.7294318901276,48.465548095547675,109.1249626542089,70.47655696418703,-4.295820011004646,3.7230446338653564
0.9484766560742284,-2.579679821535403,-2.14930953133609,-4.099746959019894,-2.3820746880059462,-0.13931779174886988,110.48516299492235,38.027429842955364,27.4526803341486,5.525375976702806,144.73030197310862,48.46587474865368,109.12610725318022,70.47666569364645,-4.295880036261815,3.732544183731079
0.9484572190871821,-2.579638167569682,-2.14925295183094,-4.099766396006941,-2.382033034040225,-0.1392612122437199,110.49384640118605,37.95479875652475,27.461746431135413,5.523808436010883,144.72993151889403,48.46600059189385,109.12367083085765,70.47633793071172,-4.1972879273127415,3.7726004123687744
0.9484706077773424,-2.5797729318389364,-2.149348323716758,-4.099753007316781,-2.38216779830948,-0.139356584129538,110.44398380125479,37.8739015273443,27.416132457588724,5.522532296318763,144.72928020508544,48.465636394855395,109.1282183040626,70.47742743333481,-4.300609606320313,3.820354700088501
0.9485135558091704,-2.5796864651120903,-2.14931224137698,-4.099710059284952,-2.3820813315826337,-0.13932050178975985,110.32921288845927,37.99581451018433,27.340112234756376,5.469070446300748,144.73064143058403,48.46638067939665,109.12648821683396,70.4769333687472,-4.324075682575343,3.879634380340576
0.9485231494955182,-2.5797290508498394,-2.149264707811743,-4.0997004655986045,-2.3821239173203828,-0.13927296822452293,110.32025963911998,37.85391634265578,27.354709649763965,5.439016127772877,144.72934160996567,48.46699230449986,109.12527690399318,70.4775843861696,-4.08009697333488,3.8997111320495605
0.9484847167412038,-2.5797340407943827,-2.1492448305291334,-4.0997388983529195,-2.382128907264926,-0.13925309094191307,110.41208873558399,37.893658950389245,27.435602844835326,5.453725357898028,144.72853898396596,48.46663040756724,109.12439478993909,70.47748569644396,-4.23956298161545,3.918936252593994
0.9483655734026883,-2.5796746081246904,-2.149325513552394,-4.0998580416914345,-2.3820694745952338,-0.13933377396517377,110.48688109935242,38.05328990274832,27.431662376307056,5.556471632388337,144.72939544644197,48.464176408293504,109.12592242183943,70.47592244121316,-4.239460857624444,3.9377708435058594
0.9485097129256739,-2.5797251563418984,-2.1493301665509046,-4.099713902168449,-2.3821200228124417,-0.13933842696368431,110.3214100103445,38.05340908139695,27.305024551147735,5.505347940670955,144.73022892231037,48.466247873790806,109.12741951858013,70.47723590014944,-4.239639333320213,3.9586405754089355
0.9484693417638463,-2.5797044558369677,-2.14931865883919,-4.0997542733302765,-2.382099322307511,-0.13932691925196972,110.44107005851599,37.91710991282554,27.41667809708938,5.516007645056518,144.72995151968217,48.465741245858425,109.12659098775276,70.47683865009648,-4.061294777572826,3.998136043548584
0.9486271847319823,-2.5797349933163467,-2.1492444217402706,-4.099596430362141,-2.38212985978689,-0.1392526821530507,110.18887409540126,37.983284884234955,27.221126328895,5.440092681439794,144.7300942658151,48.46862943216178,109.12527558270914,70.47831006880386,-3.948835565709763,4.017094850540161
0.9485528017645555,-2.5797204731987593,-2.149252923895887,-4.099670813329567,-2.3821153396693027,-0.13926118430866707,110.18513168283704,38.02939141803502,27.234092944901,5.419567731785203,144.72963588222245,48.46749033791725,109.12498001138553,70.47770949935945,-4.2396418638654865,4.036156892776489
0.9485247371793617,-2.5796601442355676,-2.1493218069984414,-4.099698877914761,-2.382055010706111,-0.13933006741122117,110.33584826365362,37.93861493847707,27.36965351772018,5.4387886573448725,144.731340002926,48.46640835013199,109.12665928584175,70.47669911287873,-4.234944001706152,4.058434724807739
0.9484288832343071,-2.5797227662117197,-2.149238622187309,-4.099794731859816,-2.382117632682263,-0.13924688260008913,110.48462516380339,37.98299096115811,27.431582463974028,5.553101588988042,144.728014146192,48.46588029168413,109.12373501054327,70.47707589785269,-4.234801155085911,4.077800989151001
0.9485162097744808,-2.5797707066266304,-2.149344733578141,-4.099707405319642,-2.382165573097174,-0.13935299399092096,110.35157908631528,37.84290628106209,27.418636376740775,5.3986660254569,144.7297682347534,48.466300599322174,109.12835887123612,70.47767820659352,-4.277199823194554,4.108487367630005
0.9485613566413038,-2.5796665453226018,-2.1492331303055274,-4.099662258452819,-2.382061411793145,-0.13924139071830738,110.38011091774271,38.15733928720963,27.35454379604085,5.51372985208605,144.73032333833342,48.46767667870242,109.12388109221128,70.4772876244387,-4.159867106508623,4.117044687271118
0.9484694767471624,-2.579754512421453,-2.1493030599747445,-4.0997541383469605,-2.3821493788919965,-0.13931132038752442,110.53980056519832,38.267860071390025,27.397388035833043,5.667185538779635,144.7288983936286,48.465966341144025,109.12648836218386,70.47739709397264,-4.347495315147495,4.1366283893585205
0.9484742304904987,-2.5797489361314487,-2.1492730220849943,-4.099749384603625,-2.382143802601992,-0.13928128249777408,110.42495528389294,38.01741013323375,27.38426194839034,5.537293769041251,144.72859664715955,48.46627459928397,109.12543236335874,70.47747506514426,-4.075359389097445,4.158265590667725
0.9484875453370172,-2.579676918934524,-2.1492683645138557,-4.099736069757106,-2.3820717854050675,-0.13927662492663556,110.39354558563076,37.93299550976392,27.362788120613807,5.522717880868853,144.72985893624173,48.46636718455177,109.12472846878609,70.47684507623627,-4.075354702326649,4.17694354057312
0.9484859654170645,-2.579719752584092,-2.1493181444054184,-4.099737649677058,-2.382114619054635,-0.13932640481819814,110.41886217756074,37.90549656591162,27.39038570166854,5.521411296084387,144.72987638974476,48.46600642932048,109.12680965091722,70.47708885232423,-4.197378181691736,4.240643501281738
0.9485050260971781,-2.579709128208632,-2.149282500926188,-4.099718588996945,-2.3821039946791753,-0.13929076133896792,110.46646163838473,38.10075487952466,27.373930494198596,5.602336916180641,144.72973277678364,48.46655263536112,109.12560528998429,70.47721778227057,-4.26306072581032,4.259807586669922
0.9485341009313604,-2.5797155263653235,-2.1492210225195914,-4.099689514162763,-2.382110392835867,-0.13922928293237102,110.38711563089583,38.14299625639644,27.321289473176407,5.566893874637698,144.72903648433842,48.46748715453683,109.12371914654697,70.47766650007175,-4.225525450595221,4.279255390167236
0.9484599567297904,-2.5797112599447214,-2.149357437503077,-4.099763658364332,-2.3821061264152648,-0.1393656979158568,110.36721615398274,37.95863158125529,27.39386614680346,5.45069987213839,144.73031158808234,48.465297105159415,109.12793056769787,70.47671547731088,-4.370964620999094,4.2986602783203125
0.9484530894346292,-2.5797325138830383,-2.1493277290989123,-4.099770525659494,-2.3821273803535816,-0.13933598951169238,110.56475215398017,38.049497043058786,27.4384587855964,5.647961855986378,144.72944500189635,48.46548945336271,109.12704688005051,70.47699513204877,-4.155123642949473,4.324110507965088
0.9484644373124131,-2.57975563838226,-2.14930321220211,-4.09975917778171,-2.3821505048528033,-0.13931147261488966,110.56669384928317,37.971424801144444,27.456889949575206,5.6273149966827525,144.72882636247067,48.465896612971335,109.12647204217231,70.4773790808105,-4.234887235494281,4.331734895706177
0.9484646942770592,-2.579743535898291,-2.1493408516007024,-4.099758920817064,-2.3821384023688346,-0.13934911201348224,110.46940605246101,37.888679507232304,27.433453163671494,5.5322987367104535,144.72958709364613,48.465562102307615,109.1276679762246,70.47712531223861,-4.295899931789409,4.361643314361572
0.948495363935729,-2.5797658125053586,-2.1493245938292946,-4.099728251158394,-2.382160678975902,-0.13933285424207437,110.4886136854971,37.96081967225465,27.425357310240717,5.567196236865482,144.72931890514184,48.46616880804604,109.12749120077667,70.47758170144306,-4.281855242649598,4.411778450012207
0.9484954903659613,-2.5797024858193613,-2.1492101020598757,-4.099728124728162,-2.3820973522899047,-0.1392183624726555,110.38996308012645,38.149696180051144,27.316497544960814,5.57688661938756,144.72866133632294,48.46701436374528,109.12298849734903,70.47735404719224,-4.2723895235031515,4.51203989982605
0.9484244783252183,-2.5797395990865106,-2.1493067506022014,-4.099799136768905,-2.382134465557054,-0.13931501101498156,110.4312715716137,37.84991874460702,27.449925697923174,5.461830738402767,144.72870031390184,48.46527811231646,109.12620609712138,70.47697746162797,-4.281758025072354,4.559065580368042
0.9484754536324687,-2.5796652181747306,-2.149167321887686,-4.099748161461655,-2.382060084645274,-0.1391755823004658,110.28209847169175,38.183561388823655,27.311396543680125,5.444102432078356,144.72841700154706,48.46702414362759,109.12106287174113,70.47701778592368,-4.314558660792176,4.593505382537842
0.9484811380840088,-2.579736333876848,-2.149317587980089,-4.099742477010114,-2.3821312003473913,-0.13932584839286888,110.37161328842657,37.89510362008164,27.373113138606474,5.483099241351264,144.72954207506666,48.465974123899336,109.12690452700578,70.47722963376268,-4.2489853429961055,4.6359171867370605
0.9484529971201594,-2.5796723593882738,-2.1493037774418315,-4.099770617973963,-2.382067225858817,-0.13931203785461155,110.26962475941465,37.97227464927486,27.32004564310829,5.418641059535786,144.7300773372139,48.46557814563537,109.12569650781451,70.47647621589563,-4.33338224865481,4.65769624710083
0.9483975341766369,-2.5797091082132786,-2.1493390193090867,-4.099826080917486,-2.382103974683822,-0.13934727972186647,110.50840601326733,37.862566713480994,27.490687851134652,5.509021141338905,144.72938253674528,48.464574049806046,109.1268874636127,70.47640301954355,-4.347423907202328,4.677260160446167
0.94846156368949,-2.579751373008575,-2.149295672343655,-4.099762051404633,-2.3821462394791184,-0.13930393275643488,110.43494437136773,37.922290971966135,27.416554715744223,5.509242806340927,144.7287527241331,48.46591178784205,109.12615675451315,70.47734668408219,-4.155118938229755,4.696233034133911
0.9484464736486262,-2.5797030759866337,-2.149329886593369,-4.099777141445497,-2.382097942457177,-0.13933814700614913,110.49307544014546,37.944805569252615,27.422232566927466,5.576445983412954,144.72988780255164,48.465324459981865,109.1268243077694,70.47665434384162,-4.25363736484565,4.715654611587524
0.948417646509012,-2.5797140712275084,-2.1492311234131853,-4.099805968585111,-2.3821089376980518,-0.1392393838259653,110.49048471600408,38.01948114734783,27.445314346423064,5.5427276160302394,144.72792137082317,48.465769906057155,109.12333061533118,70.47695116357167,-4.225398725963418,4.735476970672607
0.9484579772904091,-2.579718693486989,-2.1493176500018474,-4.0997656378037135,-2.3821135599575323,-0.13932591041462705,110.44962077837295,37.958845409869255,27.433221703289355,5.506097072314726,144.72957666222226,48.465616927043406,109.12660918333968,70.47692020673641,-4.225496401526189,4.755844354629517
0.9484932633762859,-2.579712327347526,-2.149296756383409,-4.099730351717837,-2.3821071938180696,-0.13930501679618873,110.53139429973358,37.98728892805912,27.463604532605572,5.571411486533119,144.72976165835598,48.46627431222417,109.12605208198799,70.47713205174863,-4.225522723444734,4.7794036865234375
0.9484643977924856,-2.5797146372855515,-2.14927921642375,-4.099759217301637,-2.382109503756095,-0.13928747683652984,110.44562858284651,38.00749372678344,27.384275632567366,5.563365403030487,144.72914371015372,48.46602175394143,109.12528692821917,70.47705279085106,-4.328698742883381,4.798535108566284
0.9484470916886614,-2.579702917613885,-2.149272406254966,-4.0997765234054615,-2.3820977840844284,-0.13928066666774605,110.45011444358963,37.98638731813892,27.41969730237227,5.523472307925717,144.7290437110932,48.465815071307844,109.12484223863505,70.47686061571088,-4.328672306476809,4.820883750915527
0.9483917138167228,-2.579721677107351,-2.1493272369168315,-4.0998319012774,-2.382116543577894,-0.13933549732961156,110.63089781154807,38.078603427228906,27.47936441403295,5.680994007999313,144.72893651506507,48.46461462994245,109.1265537045731,70.47653778306437,-4.262961211808451,4.8333868980407715
0.9484660262530444,-2.5797268407984144,-2.149257163511384,-4.099757588841078,-2.3821217072689578,-0.13926542392416386,110.40171088718013,38.03523313706869,27.354272892071492,5.545375188071717,144.72863362049623,48.46625207852493,109.12464171464191,70.47726291825124,-4.286464712883948,4.851661205291748
0.9484998078545268,-2.579729519304164,-2.149316664080288,-4.099723807239596,-2.3821243857747074,-0.13932492449306788,110.45138349836199,37.87889518041636,27.43354168385574,5.507695046456676,144.72984705116343,48.46623058826707,109.12692959375589,70.477271129938,-4.286538632464271,4.881536960601807
0.9484911475804694,-2.579767398605182,-2.149347018924966,-4.099732467513654,-2.3821622650757255,-0.13935527933774608,110.40094964019688,37.892252722220945,27.398527030467974,5.489063919102869,144.72957915037605,48.46592458702187,109.12825300654968,70.47749381523977,-4.127035912107802,4.891329526901245
0.9484616594467861,-2.579740358600952,-2.149256570693849,-4.099761955647336,-2.3821352250714956,-0.13926483110662877,110.33435771293925,38.11753845087601,27.321727855026253,5.5008153834045785,144.72835422974444,48.46622086826137,109.12471156824768,70.4773757202225,-4.056566064876686,4.9367077350616455
0.9484293175679599,-2.5797152620061437,-2.149281836746105,-4.099794297526163,-2.382110128476687,-0.1392900971588851,110.37524308343167,37.97392614139058,27.40337157432343,5.448607669218693,144.7287840521368,48.465509966451386,109.12516451702649,70.476849477663,-4.20667466124058,4.95711350440979
0.9485116232200757,-2.579672024225505,-2.14920637850117,-4.099711991874047,-2.3820668906960485,-0.1392146389139497,110.25749207178345,38.103975161572706,27.31386096605117,5.409217849748474,144.72928546868297,48.467215210245605,109.12269557801847,70.47715375351976,-4.272398442717179,4.977405786514282
0.9485574424769301,-2.5796429110704358,-2.149245333507857,-4.099666172617193,-2.382037777540979,-0.13925359392063685,110.15422864091087,38.23037230183251,27.222120742382646,5.393741307471844,144.73084982137107,48.46747591724288,109.12407266137896,70.47698476916537,-4.131713654245557,4.998230218887329
0.9484989791123013,-2.5796831793171338,-2.149314634070664,-4.099724635981822,-2.382078045787677,-0.13932289448344373,110.2019393697345,37.923993101805806,27.310517768850907,5.343010637358181,144.73056963258296,48.466150543668626,109.12645154026497,70.47680868056653,-4.272450229923124,5.052119255065918
0.9485148244038997,-2.579650689766771,-2.1492347731467545,-4.099708790690223,-2.382045556237314,-0.13924303355953443,110.38605777313546,37.92286239587977,27.38550813346134,5.482245022173223,144.73009334151368,48.46698242200189,109.12351045973536,70.47685704721877,-4.155119842039717,5.140281677246094
0.9484939444037521,-2.579671888143601,-2.1492854790829115,-4.099729670690371,-2.3820667546141445,-0.13929373949569132,110.27685649102034,37.966171570560746,27.332470271410084,5.411055749436297,144.73026662557027,48.46630386628138,109.12531546589803,70.47677029603693,-4.112904579274087,5.1711037158966064
0.9484461013454879,-2.5796948363709684,-2.149304057583543,-4.099777513748635,-2.382089702841512,-0.1393123179963229,110.26223779197295,38.001665999927496,27.331208888803715,5.39541072350694,144.72963561367217,48.46552075097772,109.12585863048581,70.47666136749534,-4.112866566158173,5.192512035369873
0.9484649687482194,-2.579756758832639,-2.1493194563384557,-4.0997586463459035,-2.3821516253031825,-0.13932771675123565,110.30753483090675,37.96754534112084,27.329608683653625,5.457208085723885,144.7290550368129,48.465769833242064,109.12704593970149,70.47733560712032,-4.112911721923341,5.211162090301514
0.948437462561881,-2.579643915253084,-2.1492762310775033,-4.099786152532242,-2.3820387817236273,-0.1392844914902834,110.31785836525975,38.18299974510338,27.305327733179453,5.49894965630258,144.7299640113841,48.465539378890654,109.12440156582295,70.47620006742216,-4.150362586271328,5.379419565200806
0.9486328024687531,-2.5797372384127017,-2.1492837607270667,-4.09959081262537,-2.382132104883245,-0.1392920211398466,110.33255897668647,38.00072018697353,27.343333170899232,5.468168942049305,144.73070370090522,48.4683821206506,109.12668840422967,70.4782248179953,-4.267905379411729,5.399916648864746
0.9484915020647402,-2.5797093974359835,-2.1493559970520413,-4.099732113029383,-2.382104263906527,-0.1393642574648214,110.28454644642461,37.81321658873405,27.361494048001543,5.384864961756593,144.73066999381933,48.46574722949421,109.12806099465466,70.47688199468877,-4.2443216598824485,5.431805610656738
0.948498866964516,-2.579644908657069,-2.1492115322747924,-4.099724748129606,-2.3820397751276126,-0.13921979268757248,110.39783813668164,38.084120763242055,27.36333701633204,5.525626534479173,144.72966663369544,48.46694342822347,109.12255849403373,70.47679054975706,-4.225463103275938,5.496124029159546
0.9484864133200703,-2.5797206278251585,-2.1493327595584053,-4.099737201774053,-2.382115494295702,-0.1393410199711854,110.38171682075527,37.958580989124016,27.41795286199217,5.437849517739682,144.7300839760208,48.46589169093651,109.12732465024233,70.47704823342607,-4.225538030294185,5.516900300979614
0.9485460766141476,-2.5797339669539823,-2.149288184418967,-4.099677538479975,-2.3821288334245256,-0.1392964448317468,110.46275234735383,37.89224061956516,27.414063258332668,5.546652982719452,144.72986318035979,48.467125266369905,109.12627290903413,70.47768114349275,-4.225582829222108,5.560445308685303
0.9484825107539423,-2.5797052249287256,-2.1492946747706885,-4.099741104340181,-2.382100091399269,-0.1393029351834682,110.38576060125172,37.89037245539871,27.393479451431553,5.474047835317926,144.72972850079782,48.46612819228284,109.12585155685541,70.477006807318,-4.267733439278089,5.576166391372681
0.9485037042338844,-2.579631237344323,-2.1492817119901493,-4.099719910860238,-2.3820261038148662,-0.13928997240292923,110.45289371482505,37.98665719084306,27.405701533491275,5.54256107684623,144.73098709280902,48.466397076028066,109.12489282012669,70.47643154154025,-4.267732364362555,5.598381519317627
0.9484909254882072,-2.5797714559657554,-2.1493294875718982,-4.099732689605916,-2.3821663224362988,-0.13933774798467835,110.37611553196446,37.96198706054976,27.380047114443563,5.480673510299893,144.72924966395752,48.4660760474602,109.12768159676162,70.47759558249244,-4.197402733995041,5.617408514022827
0.9485559593933757,-2.579741685587196,-2.1493047432280745,-4.099667655700747,-2.3821365520577396,-0.13931300364085453,110.36134143273075,38.03797152901013,27.285568069813163,5.581230543254873,144.73009154959533,48.46713887863627,109.1269732559884,70.47775613909704,-4.295981997866988,5.661179780960083
0.9484730777511317,-2.5796143109067047,-2.1493008833006724,-4.099750537342992,-2.382009177377248,-0.1393091437134523,110.42264085356402,37.959844252941814,27.326257200559496,5.606514910159293,144.73121105477924,48.465776371766594,109.12521701685459,70.4760187240063,-4.295855359377578,5.670417070388794
0.9484027969670572,-2.5796819055301192,-2.149336688538065,-4.099820818127066,-2.3820767720006626,-0.1393449489508451,110.64231128165805,37.81812340154162,27.553681651209533,5.600459184812497,144.729853418242,48.46461707276914,109.12660330472634,70.47616842366705,-4.272353592824604,5.811691761016846
0.9483629510233307,-2.5796455367728477,-2.1493308282877956,-4.099860664070793,-2.382040403243391,-0.13933908870057554,110.60397098158013,37.928178260607666,27.540772354827997,5.566657217792782,144.72992329433015,48.464041479445264,109.12583692009942,70.47559690296956,-4.122159788993072,5.830342531204224
0.9484759218791412,-2.579825321069673,-2.1494179917478773,-4.099747693214981,-2.3822201875402165,-0.13942625216065707,110.37256459779181,37.90887887111253,27.431625661563704,5.411861175893204,144.72951218585143,48.465222918944605,109.13111219730436,70.477735670715,-4.019163352683021,5.850000858306885
0.9485603884035638,-2.579701280299467,-2.14923872121253,-4.099663226690559,-2.3820961467700106,-0.13924698162530996,110.47088317303722,37.95699255082294,27.45714607780177,5.499728579773227,144.72982452521478,48.4676802816461,109.1243700128579,70.47761072948444,-4.239637599369216,5.891559839248657
0.9485329636103395,-2.5797415433711968,-2.1493189499489835,-4.099690651483783,-2.38213640984174,-0.13932721036176332,110.38932175291959,37.90120986509437,27.379475873661697,5.497055915433311,144.7300503034387,48.46669759936868,109.1273194056995,70.4775729238878,-4.347573688411275,5.9133758544921875
0.9484903539360514,-2.579720597528576,-2.1493551175725916,-4.099733261158072,-2.382115463999119,-0.1393633779853714,110.39607065095512,37.873094622186905,27.40716193581413,5.470570047344316,144.73046008077347,48.46575920148558,109.12812084558601,70.47699093771986,-4.347541528233434,5.933293104171753
0.9484995178773885,-2.579741193765617,-2.1494108552758426,-4.099724097216734,-2.3821360602361605,-0.1394191156886227,110.43215835398176,37.89600541451495,27.40220113883306,5.524612632979437,144.7310505038812,48.465457813433446,109.13028131225913,70.47705171719817,-4.347589521402673,5.952671051025391
0.9484577646992933,-2.5797438492288034,-2.1493231803281265,-4.09976585039483,-2.3821387156993468,-0.13933144074090653,110.37227797052672,37.877974819192126,27.425646525877834,5.416562563444377,144.72924284200423,48.46561395691545,109.12701745774032,70.47715172074174,-4.309957046219317,5.972321033477783
0.9484071349748764,-2.5796890928141294,-2.149348726420853,-4.099816480119246,-2.3820839592846728,-0.13935698683363293,110.50497193216034,37.89207510595969,27.4763928355071,5.522480987325951,144.7299620125852,48.46459004925624,109.1271083708979,70.47622250182945,-4.309901524742016,5.9917919635772705
0.9484177905363247,-2.57972622098432,-2.1493247249241674,-4.099805824557798,-2.3821210874548635,-0.1393329853369472,110.38901419293221,37.83983648655617,27.429486527145404,5.433517118430635,144.72911314102177,48.465009037066444,109.12666876419563,70.47674116387246,-4.234839882937177,6.010823726654053
0.9484737872409685,-2.579681269191162,-2.1492945543172906,-4.099749827853154,-2.3820761356617055,-0.1393028147300704,110.4493486906567,37.84987085393621,27.455525161099743,5.47567379188927,144.73002402031887,48.46596292716654,109.12558489047018,70.47671708211237,-4.17857402273637,6.0592029094696045
0.9484165703775072,-2.5797512763115558,-2.149444895350056,-4.0998070447166155,-2.382146142782099,-0.13945315576283576,110.4285797741578,37.93788854436444,27.461205237404478,5.44556702182228,144.73047205333302,48.464030005523924,109.13102779245834,70.47655832475907,-4.309983408632233,6.1300108432769775
0.9483996997854045,-2.5797124336531962,-2.149311188859948,-4.099823915308718,-2.3821073001237396,-0.13931944927272794,110.4147757005576,37.98930106938274,27.425260777682823,5.472103759274003,144.72893858049616,48.46484398221872,109.12596900740785,70.47654768086664,-4.347410829979024,6.15273642539978
0.9485294237814941,-2.579741684868046,-2.1492956892567285,-4.099694191312629,-2.3821365513385895,-0.13930394966950865,110.50734467144903,37.85059340086379,27.45368907794089,5.553795179702302,144.72966338984935,48.466843479368116,109.12649547792768,70.47763682728026,-4.347556055028072,6.172255516052246
0.9485481762719032,-2.5797448633292746,-2.1493102949048617,-4.09967543882222,-2.382139729799818,-0.13931855531764153,110.35795143321843,38.027076727071005,27.31482110428785,5.539471562872815,144.73003558890582,48.46698923677653,109.1271441217425,70.4777238513456,-4.319436123413656,6.1938722133636475
0.9484380708773394,-2.579677219725907,-2.1492073637539897,-4.099785544216783,-2.3820720861964504,-0.13921562416676947,110.29968623009496,38.096284202250196,27.320662140468823,5.456025832462504,144.72840050704164,48.46618712710982,109.1223171064845,70.47678247348219,-4.197248692053851,6.213901996612549
0.9484582384311246,-2.5796508694026437,-2.149292551030305,-4.099765376662998,-2.382045735873187,-0.13930081144308487,110.38995605686873,37.99341077333489,27.4121943473183,5.45430880377327,144.7303219804624,48.46570604574919,109.1251547429195,70.47633043189923,-4.2207738095816705,6.236252784729004
0.9483871569271245,-2.579690281940093,-2.1493390606192238,-4.099836458166998,-2.3820851484106362,-0.13934732103200384,110.58643420753127,37.999040863717205,27.54446090803095,5.539735966014769,144.72957781017888,48.46439373786127,109.12666067051902,70.47615475034308,-4.258263923458711,6.255600929260254
0.9484713193376111,-2.5797866301185413,-2.14937482281522,-4.099752295756511,-2.3821814965890846,-0.1393830832279999,110.48265147564149,37.89356500924163,27.461921122146393,5.513840444728145,144.72945634972936,48.46544930309623,109.12925672323537,70.47747471418694,-4.300629208554344,6.274850368499756
0.9484469342471411,-2.579715891083157,-2.1493669819456858,-4.099776680846982,-2.3821107575537,-0.13937524235846582,110.37014749357279,38.076929710626366,27.363122139451953,5.494468005754092,144.73023302318663,48.46504332450897,109.1282192900255,70.47665366599561,-4.375648601297053,6.296451568603516
0.9484443638871087,-2.5797513948559425,-2.1493031964952016,-4.099779251207014,-2.382146261326486,-0.13931145690798136,110.35426718433912,37.93373044491449,27.386520511202303,5.444110105635972,144.72867371147032,48.465607989061226,109.1263096805745,70.47722196523823,-4.394383563679303,6.327293157577515
0.9484416864937693,-2.5796844983961793,-2.1492859522306955,-4.099781928600354,-2.3820793648667227,-0.1392942126434754,110.39925662686011,37.95880145246467,27.407535986986584,5.473344173102717,144.72948786765141,48.46559179741297,109.12511619600527,70.47659680500561,-4.352128700946021,6.33729887008667
0.9484898149238694,-2.579648248557185,-2.1492178588834245,-4.099733800170253,-2.3820431150277286,-0.13922611929620438,110.35516509761165,38.14574365334427,27.33696676675073,5.504875846259547,144.72960546640547,48.4667698190666,109.12274963585124,70.47674989581468,-4.328675878141654,6.350255012512207
0.9484705232666828,-2.5797478726491923,-2.1492970397659854,-4.09975309182744,-2.3821427391197356,-0.13930530017876552,110.35605499438275,37.86439248590603,27.398532579935598,5.43027166555597,144.72892974682546,48.46601924839982,109.12622930331383,70.47735785368562,-4.4788605115505895,6.372950315475464
0.948525669539181,-2.5797067166773275,-2.1492726430142453,-4.099697945554942,-2.382101583147871,-0.1392809034270251,110.24908248555717,38.090513669766615,27.260360367095316,5.468431419049248,144.7298545494625,48.46691980286301,109.12537243595804,70.477346482432,-4.159859268786619,6.392938613891602
0.9485225507981483,-2.579714451691197,-2.1492841647572627,-4.099701064295974,-2.3821093181617403,-0.13929242517004267,110.31412145911682,37.96298558452902,27.315567174734067,5.481524753741243,144.72986394083063,48.466793753468366,109.12581807324314,70.47736532641947,-4.159864319123374,6.413123369216919
0.9484971727460738,-2.579660796463924,-2.149305319420684,-4.099726442348049,-2.3820556629344676,-0.13931357983346396,110.4407834228995,37.98323336860893,27.416935812921153,5.513505983167703,144.7307793352634,48.46616212340771,109.12592415799134,70.4766069100825,-4.28651268381829,6.435338973999023
0.9484824303267367,-2.5796506532206105,-2.1492378048972647,-4.099741184767386,-2.382045519691154,-0.1392460653100447,110.44234815236103,38.21716413621482,27.400672219666784,5.535233876085045,144.72978037816992,48.46650355126498,109.12341325057818,70.47666096932004,-4.356830318343988,6.4565749168396
0.9484804190664684,-2.579616553280825,-2.1492428647301676,-4.099743196027655,-2.382011419751368,-0.13925112514294746,110.25520519541861,38.15898014539891,27.3453090218095,5.365679292033854,144.73039392262257,48.46637004753183,109.12327907964598,70.47628936406144,-4.300521796385215,6.495081186294556
0.9484956971946952,-2.5796805358824275,-2.149248189835348,-4.099727917899427,-2.382075402352971,-0.13925645024812797,110.39913031349359,38.03369138744547,27.42196000056445,5.453174876739788,144.72959011904692,48.46665721240032,109.12411407322826,70.47699961692521,-4.263023217352348,6.513702869415283
0.9484174056867132,-2.579761648448252,-2.149268831575663,-4.09980620940741,-2.3821565149187953,-0.1392770919884431,110.40510258207374,37.964073594208436,27.396605169704134,5.497067909784511,144.72769644244178,48.465537924951704,109.12504454359996,70.477293100581,-4.262965618574676,6.533088207244873
0.9485409859726988,-2.5796308332853455,-2.149234991731773,-4.099682629121424,-2.382025699755889,-0.13924325214455305,110.33348386368561,38.06728000655696,27.310614970987345,5.509911330345029,144.7307126714092,48.46731010090474,109.1235082196084,70.47680639745701,-4.239596658957582,6.577430009841919
0.9484767189437004,-2.57977285369186,-2.1493832936822366,-4.099746896150423,-2.3821677201624034,-0.13939155409501647,110.3723715785445,37.88631616281628,27.40863029910151,5.4397312286706,144.72986839089174,48.46542838946535,109.1294630375063,70.47733720377107,-4.239644327043577,6.60955548286438
0.9484319220115422,-2.57964563616795,-2.1492623222011016,-4.09979169308258,-2.3820405026384934,-0.13927058261388156,110.49799530514481,37.906112274409146,27.485631821244098,5.499098193719134,144.7296678456382,48.465581705739375,109.12390184787435,70.47623514410036,-4.211341734825881,6.711054563522339
0.9485125496172477,-2.579766512195841,-2.1493794137775692,-4.099711065476875,-2.3821613786663844,-0.13938767419034906,110.36654228068639,37.75955153831329,27.419669587558978,5.417024841352415,144.7303116380936,48.46595068152429,109.12949700282094,70.47749192543762,-4.263139734963736,6.730588674545288
0.9485062936908304,-2.579757042205817,-2.149369398195746,-4.0997173214032925,-2.3821519086763603,-0.13937765860852586,110.25927416974154,37.841563648674146,27.338550904462117,5.382925162224897,144.7302493715974,48.4659296925838,109.12902993083102,70.47739680948895,-4.202131788510867,6.750861883163452
0.9483914874340573,-2.5797304696150247,-2.1493315835721054,-4.099832127660066,-2.382125336085568,-0.13933984398488533,110.5514866080425,37.97836182771,27.505698048530046,5.545525480580217,144.72885399714423,48.46459121515804,109.12677878629643,70.47660925333088,-4.201972872292695,6.770140647888184
0.9485432785497863,-2.5796567074868078,-2.149291339317527,-4.099680336544337,-2.382051573957351,-0.1392995997303069,110.28352196642119,37.906743934837074,27.32917107551939,5.4227474103682844,144.73114934077122,48.46691713001028,109.12569287272754,70.47687879378157,-4.202104219241274,6.7936224937438965
0.9485053151940259,-2.5797131159714946,-2.1493350721947913,-4.099718299900097,-2.382107982442038,-0.13934333260757123,110.40389198175187,38.06153960538108,27.359825316413733,5.540790881343654,144.73045104502208,48.466122961264574,109.12745684967284,70.47707255073796,-4.220867002243685,6.84656286239624
0.9484526143281047,-2.5797487652636604,-2.1493632496334683,-4.099771000766018,-2.3821436317342037,-0.13937151004624804,110.31589662950311,37.963994219960725,27.351309599496577,5.440459589840395,144.72969999257052,48.46521477550416,109.12841155331981,70.4770291868115,-4.192681555115808,6.856473684310913
0.9485280099830615,-2.579674944255299,-2.149339475765619,-4.099695605111061,-2.3820698107258425,-0.13934773617839874,110.47652971794243,38.246014986432606,27.385628157532757,5.598994530406369,144.7313952486586,48.46633320889361,109.12741833677211,70.47680347404395,-3.9909902474841705,6.868941783905029
0.948461302469443,-2.579689197392438,-2.1492510846588573,-4.09976231262468,-2.3820840638629814,-0.13925934507163698,110.31107185823335,38.13224488148989,27.3245972191101,5.46596308524447,144.72910997487995,48.46616753592159,109.12407527244487,70.47687987498266,-4.2019951759441225,7.076732397079468
0.9484239543983817,-2.5798061918851936,-2.149399108560473,-4.099799660695741,-2.382201058355737,-0.13940736897325273,110.4770735475221,37.84044590892295,27.475738025600755,5.490331968152949,144.72897110309714,48.46461878265941,109.12997040187003,70.47731423183541,-4.291210605682698,7.10440993309021
0.9485283582553652,-2.579689190349886,-2.149330631864768,-4.099695256838758,-2.3820840568204296,-0.13933889227754787,110.33812594897819,37.90784580336096,27.398521173620818,5.405104082874872,144.7310335542537,48.466438565688094,109.12723899297403,70.4769798375277,-4.258419139328263,7.113964557647705
0.9485307990172918,-2.57968254652712,-2.1492366176418276,-4.099692816076831,-2.3820774129976634,-0.1392448780546074,110.42684185499681,38.03448660262216,27.391335174010806,5.527656434593452,144.7297737706819,48.467249271210456,109.12395042313864,70.47726132032743,-4.169221908524275,7.135445833206177
0.9484676610507281,-2.5796488401967186,-2.1493077823635955,-4.0997559540433945,-2.382043706667262,-0.13931604277637566,110.51744307136359,38.02319131185839,27.43948885016871,5.58338468758245,144.7306858146164,48.465706382781775,109.12572160926526,70.47630971675288,-4.169183929442422,7.15458869934082
0.9483712997322729,-2.579790438005577,-2.1494607004222335,-4.09985231536185,-2.3821853044761205,-0.13946896083501353,110.46695294514916,37.85628204638866,27.45622587544302,5.503626091509101,144.72956183820105,48.46333611521148,109.13163205868413,70.47663659659977,-4.211423583112321,7.1767964363098145
0.9483850472100681,-2.579671833957069,-2.149313972759835,-4.0998385678840545,-2.3820667004276124,-0.13932223317261513,110.72859940375666,37.89328380823604,27.579335473967763,5.678377964873756,144.72948523592598,48.46454065963899,109.12562106273396,70.47604679859073,-4.356769387967557,7.198801517486572
0.948382100991394,-2.579774250772072,-2.1493864261908784,-4.099841514102729,-2.3821691172426154,-0.13939468660365842,110.52228099816449,37.8598000356632,27.49470500198374,5.524120726819668,144.72884466836086,48.464080518948556,109.12899434078913,70.47679994467562,-4.286456440695435,7.276116847991943
0.9484214683818313,-2.579677739907865,-2.149342329870941,-4.099802146712292,-2.3820726063784083,-0.139350590283721,110.5948090432505,37.90051579648972,27.532201670638557,5.5659322664363335,144.73021234193843,48.464823367884,109.12687806659837,70.47621316199226,-4.234842889799851,7.296359539031982
0.9484959883602075,-2.5796844872991596,-2.1493232420790993,-4.099727626733915,-2.382079353769703,-0.13933150249187914,110.36079980359274,38.086844154476914,27.376604947242296,5.463093250333978,144.73064284070347,48.466038876684294,109.12674149996081,70.47677412930962,-4.272452192060882,7.315956354141235
0.9484850009544914,-2.5796753199964204,-2.149285226677282,-4.099738614139632,-2.382070186466964,-0.13929348709006187,110.14864253264615,38.1293420208894,27.265274544012367,5.333280004693986,144.73010745219221,48.466187150608874,109.12528092032683,70.47675456786942,-4.291182113664318,7.335692405700684
0.9485016729752995,-2.5796752485592713,-2.1493703977513916,-4.099721942118824,-2.3820701150298147,-0.13937865816417158,110.36447937683293,38.10216897994366,27.33025322901492,5.527564551240767,144.7315578586099,48.46570574831111,109.12832464695535,70.47654623946026,-4.2724841222907886,7.357001066207886
0.9485242158086538,-2.5796804037882946,-2.1492588643992026,-4.099699399285469,-2.382075270258838,-0.13926712481198245,110.40055977886388,38.0560474167411,27.366832841291327,5.525612233479574,144.7300664847914,48.46696653013456,109.12465895009771,70.47712315898598,-4.244294968649012,7.369819164276123
0.9484671257617503,-2.579665575999224,-2.149210410134242,-4.099756489332373,-2.3820604424697676,-0.13921867054702197,110.33315491952324,38.109666196714386,27.31468531718987,5.505978900146861,144.72895880211746,48.466546730795145,109.1225018714583,70.47682069229766,-4.239506564597741,7.38872218132019
0.9484211704124073,-2.5796280794645394,-2.149258242993541,-4.099802444681716,-2.382022945935083,-0.13926650340632066,110.40911566470052,38.08769141973275,27.44248986287443,5.439728459321015,144.72977692338122,48.46543306967636,109.12354153404608,70.47601211312445,-4.29577463776494,7.4100730419158936
0.9484578089445836,-2.5796452058172323,-2.1492700001632867,-4.09976580614954,-2.3820400722877757,-0.13927826057606651,110.31573670965676,38.04949903930404,27.409171555513726,5.3623174682144485,144.73007548346848,48.465878791762194,109.12432427147434,70.47635131672483,-4.375587297440735,7.42906379699707
0.9484896562981471,-2.57957242663827,-2.1492176304440163,-4.099733958795976,-2.381967293108813,-0.13922589085679635,110.43669962024921,38.27916076626098,27.443194915728007,5.471442733853807,144.7308470053959,48.466629656450976,109.12208183640277,70.4759890435352,-4.469410371603959,7.448297500610352
0.9484456880131307,-2.579695944807142,-2.149266728231188,-4.099777927080992,-2.3820908112776853,-0.13927498864396798,110.52310424420486,37.99938833065474,27.460803592700913,5.564359515489132,144.72905849936777,48.46583020247802,109.12457685993756,70.47680282726199,-4.230138772268679,7.488714218139648
0.9485341255935757,-2.579657134202884,-2.149253316805632,-4.099689489500547,-2.3820520006734274,-0.13926157721841181,110.2916493809746,38.07888586035273,27.282827715623934,5.492752274563886,144.73047639935547,48.46710884252901,109.12432682783756,70.47696598453047,-4.281831690740983,7.508618354797363
0.9484756056397148,-2.5797000498621703,-2.1492356859167216,-4.099748009454408,-2.3820949163327136,-0.13924394632950135,110.290055966954,38.1046073150589,27.293566512740128,5.478693784214919,144.72886120167217,48.4665169284384,109.12372691889527,70.4771251520451,-4.28176504121703,7.52843713760376
0.9484663976176635,-2.5797432690603395,-2.1493566764191043,-4.099757217476459,-2.382138135530883,-0.13936493683188417,110.26260739690399,37.83548302993909,27.342304916873108,5.382570065015555,144.72984531480307,48.465452680525495,109.12822262790544,70.47707609763599,-4.2818358076844865,7.549302577972412
0.9485160781138833,-2.5796981266504977,-2.1493080529860658,-4.099707536980239,-2.382092993121041,-0.13931631339884584,110.3440027142007,37.881986171569956,27.407572496444704,5.401139639387328,144.730415424391,48.466472631392094,109.1264606704083,70.47707966176327,-4.2724693408854515,7.571040868759155
0.9484039544724234,-2.5797676265885667,-2.14933814740609,-4.0998196606217,-2.38216249305911,-0.13934640781887003,110.5215541294983,37.8666818483575,27.467437765740165,5.557473748663496,144.72847856690817,48.464779170544396,109.12740596921857,70.47702988019165,-4.258300816660817,7.588987112045288
0.9484961483301839,-2.5797005884584134,-2.1493354651792465,-4.099727466763939,-2.382095454928957,-0.1393437255920262,110.39287844145748,37.95123890443202,27.40196173467692,5.472311467665529,144.7305613825925,48.46596826564587,109.12730446457431,70.47689313281103,-4.338148158498588,7.619582891464233
0.9485272749825571,-2.5797201549990185,-2.1493284000930815,-4.099696340111565,-2.382115021469562,-0.13933666050586124,110.35943106479813,37.92760255488894,27.375949352834507,5.462597174799923,144.73047931664414,48.46649924841274,109.12742436234493,70.47729225967134,-4.33818401799397,7.628583192825317
0.9485183650074784,-2.5797145974022424,-2.149230182989912,-4.099705250086645,-2.3821094638727858,-0.1392384434026919,110.34114157686932,38.03017109116254,27.32739248851748,5.500545055870449,144.72901360558274,48.46718835585495,109.12392944227987,70.47753478168363,-4.338114960055652,7.6757848262786865
0.9485068806413399,-2.57966521105869,-2.149309888264414,-4.099716734452783,-2.3820600775292333,-0.13931814867719414,110.48530328796349,37.82916998131531,27.471963443288804,5.500258086929302,144.73088205429036,48.46626779571623,109.12618068798928,70.47669038152627,-4.075398251910888,7.700063943862915
0.948476141676708,-2.5796661577296502,-2.1493161408868398,-4.099747473417414,-2.3820610242001936,-0.13932440129961962,110.38808635638927,37.9514042243554,27.40934593702117,5.455893308547675,144.73061907596568,48.46578688703172,109.12621348573482,70.47650217042283,-4.155127296052765,7.709713697433472
0.9484874197415336,-2.5796820554035036,-2.1493370645343717,-4.099736195352589,-2.382076921874047,-0.13934532494715152,110.46717484181865,37.96720941118627,27.400425085644333,5.569954915155025,144.73079322339433,48.46579850072601,109.12714426054013,70.47665167332418,-4.15515615438124,7.72888445854187
0.9485323647766948,-2.579719083049741,-2.149283624233029,-4.099691250317428,-2.3821139495202845,-0.13929188464580886,110.38350359086012,37.96006418492888,27.339641957268498,5.539993187850329,144.72988839995955,48.466944177187685,109.12590074614022,70.47746974255823,-4.258403204979675,7.74992299079895
0.9485648544771355,-2.5797097639012048,-2.1493303975377476,-4.099658760616988,-2.382104630371748,-0.13933865795052727,110.29586142081413,38.080069569938765,27.28200345432222,5.5007747811033365,144.7310957959164,48.466989240025114,109.12763691250757,70.47739543752319,-4.18808894927289,7.772081136703491
0.9484969876529907,-2.5797326598368944,-2.149405095335315,-4.099726627441132,-2.3821275263074377,-0.13941335574809507,110.43196138965588,37.86842756026265,27.391638852682277,5.537898018894873,144.73107728209933,48.46545498469042,109.1299925045883,70.47697213510243,-4.127068376952124,7.79508900642395
0.9484482665008782,-2.5797529532390397,-2.1493416044303655,-4.099775348593244,-2.382147819709583,-0.13934986484314532,110.57546115838701,37.866988863415195,27.4724045899674,5.619868962571446,144.72926161121015,48.46534325033394,109.12767358293686,70.4771233377219,-4.333418180439869,7.814324617385864
0.9483969319826788,-2.579702128163673,-2.1493278231593855,-4.099826683111444,-2.3820969946342165,-0.13933608357216537,110.47732060216073,37.930254437479455,27.434904688265526,5.540528615672495,144.7293243813693,48.46464667674732,109.1264365020576,70.47636935419352,-4.155052690879147,7.838790416717529
0.9485296250366655,-2.579706663122284,-2.149268506029715,-4.099693990057458,-2.3821015295928274,-0.13927676644249526,110.52905924803241,37.98634725272391,27.43047026987565,5.6101331283962095,144.72983778065347,48.46700977101901,109.12525374727413,70.47738323303906,-4.2818472354440456,7.851464033126831
0.9485269654642305,-2.5797324974000744,-2.1493277174437497,-4.099696649629893,-2.3821273638706177,-0.1393359778565295,110.45792245333305,37.89020296394641,27.388020375204235,5.574826157613652,144.73026282575628,48.46652341065574,109.12750615529656,70.47741675203407,-4.178666043942559,7.8708460330963135
0.9486034306918412,-2.5797142412010907,-2.149289825934009,-4.099620184402282,-2.382109107671634,-0.1392980863467892,110.12374092294961,37.972975843731064,27.226672161392905,5.349245876185929,144.73084675428294,48.46787777011093,109.12651509682891,70.47780483289523,-4.324171229905096,7.892025470733643
0.948477726586199,-2.5797692041722926,-2.149351336108583,-4.099745888507924,-2.382164070642836,-0.13935959652136268,110.26927701789965,37.809986843259765,27.36589145807228,5.360929343247837,144.7294650170496,48.46570387257985,109.12833421703412,70.47741996382824,-4.319385933851629,7.913975715637207
0.9485229147776519,-2.579683279329892,-2.149319819918612,-4.099700700316471,-2.382078145800435,-0.13932808033139174,110.39460133541205,37.861580235470825,27.382570609370465,5.498752178684388,144.73090994217853,48.46644219537801,109.12678043708313,70.47692789213711,-4.211487771807493,7.936115741729736
0.9485294677380409,-2.5796967914992686,-2.149349710234199,-4.099694147356082,-2.382091657969812,-0.1393579706469788,110.34901231041037,37.89396430624693,27.360728299833934,5.468463318674287,144.7312041483059,48.46630804351839,109.127970683127,70.47699460583343,-4.164598040705661,7.95786452293396
0.9484587969443927,-2.5796988933845038,-2.1493893323641906,-4.09976481814973,-2.382093759855047,-0.13939759277697034,110.41694857817647,37.803175520893646,27.446249136179837,5.447373453433928,144.73097565739184,48.46499046565539,109.12891701450647,70.4764713862072,-4.159849892266182,7.9683003425598145
0.9484855148426912,-2.5796888319557754,-2.14934723648641,-4.0997381002514315,-2.3820836984263187,-0.13935549689919,110.40675938394915,37.82109946317141,27.406398173182634,5.484738178048307,144.73081176143617,48.46569900121168,109.12754249886767,70.4766726255083,-4.202079003170622,7.992416620254517
0.9485184906267583,-2.579640630788018,-2.149270222984383,-4.099705124467365,-2.3820354972585616,-0.139278483397163,110.28117972723162,38.041763587761196,27.290342916504166,5.469676798143983,144.73082572452736,48.466717738950805,109.12466981052839,70.47665104279238,-4.272436252441022,8.069199800491333
0.9484055366178703,-2.579731805666593,-2.1493940422307753,-4.099818078476252,-2.3821266721371366,-0.13940230264355508,110.54273053426135,37.834438183133145,27.480783604638198,5.567475714669627,144.72991496127878,48.46426629799266,109.12903419129026,70.4764808070889,-4.380312819705534,8.093843936920166
0.9485415398428727,-2.57963874927953,-2.1493065055556975,-4.09968207525125,-2.3820336157500734,-0.13931476596847758,110.27907464594632,38.00659575634482,27.33015835537913,5.415601068114688,144.7316505680504,48.46673241926696,109.12604959596699,70.47663477172269,-4.225565839311368,8.112955331802368
0.94842232528407,-2.5797049160215697,-2.149370466541716,-4.099801289810053,-2.382099782492113,-0.13937872695449627,110.43313995652906,37.92131646038443,27.418724163444985,5.5044295506250975,144.73019281274821,48.46464943795295,109.1280910178142,70.47639068300967,-4.239558892725816,8.135443449020386
0.9485376852981908,-2.579636673795839,-2.1492622875629044,-4.099685929795932,-2.3820315402663823,-0.1392705479756842,110.30819892104437,38.11855016136592,27.35723553936428,5.417967848809904,144.73098543015578,48.46704565423082,109.12448088139637,70.47674912913223,-4.20676767094112,8.16804552078247
0.948458129290769,-2.5796378382622946,-2.1492970650208507,-4.099765485803354,-2.382032704732838,-0.13930532543363058,110.47950943048589,38.00484807382529,27.49263363391547,5.465808414673659,144.7306020546863,48.46564260576724,109.12519665363381,70.4761830167326,-4.197314761987904,8.187604427337646
0.9484244312785541,-2.579693106793162,-2.149399805391097,-4.099799183815569,-2.3820879732637055,-0.13940806580387705,110.55985861610573,37.830445425977345,27.52334925895404,5.533300774108157,144.73084591313386,48.46441097682745,109.12901437320193,70.4761799143399,-4.3193357701537485,8.208526134490967
0.9485528178749607,-2.5797347799231938,-2.149267609725234,-4.099670797219162,-2.382129646393737,-0.13927587013801374,110.32421572721287,37.912378539241494,27.354085412256754,5.444622715123513,144.72961891137177,48.46739373094177,109.12561154048679,70.47780092882581,-4.319413965127136,8.228066205978394
0.948587582619381,-2.579661895797756,-2.1492362821626916,-4.099636032474741,-2.3820567622682995,-0.13924454257547159,110.29758300096312,38.08104936350446,27.315010854731504,5.4580538435972175,144.73073690510506,48.4680086923749,109.12411270599807,70.47737949607459,-4.230274045226837,8.250672340393066
0.9485528836764479,-2.579694397847368,-2.149237304580515,-4.099670731417675,-2.3820892643179112,-0.13924556499329477,110.16715922803606,38.04668111787254,27.25461504466322,5.369262340713043,144.7298335769414,48.467574444066734,109.12421457485151,70.47750386785357,-4.319386684219976,8.281759977340698
0.9484447373540708,-2.5797066816355945,-2.149341440173254,-4.099778877740052,-2.382101548106138,-0.13934970058603408,110.32635634866807,37.9747728618151,27.34039408150421,5.46696740157612,144.72998085992796,48.465209878817475,109.12724374232337,70.47663953179607,-4.080047596693756,8.29138970375061
0.9485134825379309,-2.5796876574052883,-2.1492777692967913,-4.099710132556192,-2.3820825238758316,-0.13928602970957102,110.32956447456144,37.95367585617,27.367705577621507,5.433566414665164,144.73010913781357,48.466671079744906,109.12530792654191,70.47706745916707,-4.0800838350137205,8.310916900634766
0.9485677954071228,-2.579600882362828,-2.1492269210803476,-4.099655819687,-2.381995748833371,-0.13923518149312758,110.34822556482216,38.25845514844048,27.32014009993978,5.515096784059651,144.73138206955508,48.46769777634904,109.12313607967845,70.4766876272696,-4.164546805955528,8.330422401428223
0.9484697211600503,-2.5796916008764605,-2.1493034064748526,-4.099753893934072,-2.382086467347004,-0.13931166688763255,110.51917089907066,37.9801722917556,27.447306508007145,5.576668873666511,144.72994059003764,48.46585080978132,109.12595501410709,70.47676606184459,-4.361556153648801,8.350467681884766
0.9484965432128014,-2.5796780533975303,-2.1493394032316155,-4.099727071881322,-2.3820729198680737,-0.1393476636443956,110.38504844215385,37.890820829341486,27.390591205531777,5.476450760475104,144.73099473854202,48.46589918142545,109.12724699901396,70.47665528779108,-4.361604530176645,8.370525598526001
0.9485527669464269,-2.579736791325175,-2.149297212163897,-4.099670848147696,-2.3821316577957186,-0.13930547257667694,110.44018278048007,38.04697861300828,27.35888672274027,5.5881603041201195,144.7300248530036,48.46714836027839,109.1266508110223,70.477715582595,-4.281897512946145,8.390287160873413
0.9484843185722809,-2.5796874203549236,-2.1493235279201524,-4.099739296521842,-2.382082286825467,-0.13933178833293244,110.51162085845704,37.90843712141469,27.4550134082322,5.557123330989346,144.73046968675476,48.46587857084889,109.12670423289497,70.47673592025019,-4.202063401044217,8.41085171699524
0.9484948532636732,-2.579692229900051,-2.1493358303311334,-4.09972876183045,-2.3820870963705945,-0.13934409074391332,110.4130192483127,37.86517250608209,27.39429453544648,5.508268291311276,144.7306898960728,48.46593165819987,109.12723635535028,70.47680057891418,-4.225542685017597,8.432846546173096
0.9484822220004543,-2.5796666098597063,-2.149263904898938,-4.099741393093669,-2.3820614763302497,-0.13927216531171796,110.47492562872281,37.92072131537262,27.460962688647232,5.500820991243867,144.72990328793432,48.46631108246355,109.12445177295946,70.47672710591978,-4.225480063818036,8.454866170883179
0.9484799409455951,-2.5796684159755405,-2.1493396814064107,-4.099743674148527,-2.382063282446084,-0.13934794181919072,110.4946521721711,37.83769286142726,27.461972856400347,5.526164304437544,144.73097354842244,48.465646717390364,109.12706950379281,70.47646282880088,-4.225522353966234,8.477121829986572
0.9485068840758488,-2.579688521315531,-2.149298218722785,-4.099716731018274,-2.3820833877860745,-0.13930647913556504,110.38558382440374,37.903964905663905,27.398968301398824,5.465933835478863,144.73032555102978,48.466408752778776,109.1259804198071,70.47696576245337,-4.23960868883256,8.487220048904419
0.948590088156295,-2.579756116263819,-2.1492570576063756,-4.0996335269378275,-2.3821509827343625,-0.1392653180191557,110.2011061044565,38.0462920217363,27.25528356886515,5.413152378645881,144.72952396246657,48.46804320766613,109.12566461949677,70.4782652888122,-4.300687822212687,8.507984399795532
0.9484144902474902,-2.579736791384322,-2.1493719771146207,-4.099809124846633,-2.3821316578548655,-0.13938023752740042,110.41830621240716,37.94537957050305,27.427845954471298,5.474317951066087,144.72960446297301,48.464585921479554,109.1283714758656,70.47666038740174,-4.324010113321586,8.541581392288208
0.948482021718001,-2.579735598735079,-2.14931371546692,-4.099741593376121,-2.3821304652056225,-0.13932197587969994,110.33021194088478,37.89243177216499,27.391952735017828,5.405041708003608,144.72950644078733,48.46601762331987,109.12676993544521,70.47724107034581,-4.324052374625522,8.551032304763794
0.948510240648738,-2.579711785447437,-2.149295787295356,-4.099713374445384,-2.3821066519179803,-0.13930404770813573,110.33697213859861,38.06940706525685,27.34833131072726,5.46893837297971,144.72994410087273,48.466519040803185,109.12611957434957,70.47722698062967,-4.361602506059958,8.573078870773315
0.948539190714764,-2.579742713691402,-2.1493708913950305,-4.099684424379359,-2.3821375801619453,-0.1393791518078102,110.21619647977255,37.85691774451049,27.302694698329955,5.372721295265223,144.7308712581538,48.46635111694325,109.1291617140605,70.47743554468032,-4.178707683050991,8.592697143554688
0.9485499524241892,-2.579732597740021,-2.1493089311405753,-4.099673662669934,-2.3821274642105643,-0.13931719155335515,110.31813155621293,37.982863315622865,27.337472111317425,5.458650096165229,144.73023666530122,48.467002914061,109.12700145787059,70.47761577919681,-4.178681163064228,8.611880779266357
0.9484912331248223,-2.5796563169086455,-2.1492784934364164,-4.0997323819693,-2.382051183379189,-0.13928675384919628,110.49755202761627,37.992101786431405,27.42074317740495,5.581533216323741,144.7303888980933,48.466295809733566,109.12492206702957,70.47662341856338,-4.155120022165388,8.63925838470459
0.948488045528515,-2.5796936667854626,-2.149318542299521,-4.099735569565608,-2.382088533256006,-0.1393268027123006,110.47834915515314,37.858337396358415,27.41317201336904,5.568484342045002,144.7303342096217,48.465984081970454,109.12660959154732,70.47683759197548,-4.450729617529715,8.647000789642334
0.948434311087494,-2.5797154194430187,-2.1493825552558463,-4.099789304006629,-2.382110285913562,-0.1393908156686262,110.46837391497827,37.83284373179041,27.420028045187188,5.5488428942815125,144.73033229409347,48.46473513671869,109.12867428060872,70.47652150579496,-4.450711281093813,8.670702457427979
0.9484387145958362,-2.5797436909932006,-2.1493349808320934,-4.099784900498287,-2.382138557463744,-0.13934324124487313,110.4154605688092,37.8131458997938,27.409070469864833,5.49453748743197,144.72920980686806,48.46524805508995,109.12730493444722,70.47699942750654,-4.3287091685213674,8.692516803741455
0.9485343009678362,-2.5796635162649495,-2.1492329831304984,-4.0996893141262865,-2.382058382735493,-0.13924124354327805,110.25701296374974,38.033854878578126,27.244213816453264,5.497867637480302,144.73007146231956,48.46729367839886,109.12368132724421,70.47710329403012,-4.263054118358566,8.712364673614502
0.9485373406430351,-2.579665829060606,-2.149245004183279,-4.099686274451088,-2.382060695531149,-0.13925326459605897,110.36303760059357,37.92747675229063,27.368668367172713,5.474338905652605,144.73024559150284,48.46723962169509,109.12413539360489,70.47710112572035,-4.295907808479643,8.734515905380249
0.9485684616101193,-2.5796901466426245,-2.1493619495458947,-4.0996551534840036,-2.382085013113168,-0.1393702099586747,110.22295014658238,38.04548732871607,27.266059978160825,5.427281762531169,144.73192677310257,48.46673880463196,109.12857821361563,70.47710703194379,-4.305401215661955,8.746643304824829
0.9485128050560114,-2.579757691805094,-2.1493317543419854,-4.099710810038111,-2.3821525582756373,-0.1393400147547651,110.49784177548432,38.01295591676968,27.440593627690316,5.558831405519449,144.72975180032728,48.46633784163382,109.12777640240198,70.47757433609405,-4.328794770558947,8.796750783920288
0.9484292572554975,-2.5797776519886977,-2.149379001988003,-4.099794357838626,-2.382172518459241,-0.13938726240078272,110.49182556709141,37.745985269664246,27.459174768800082,5.530322468725159,144.72920044871705,48.464809027985325,109.12906112773126,70.47712965988404,-4.3287323030603115,8.833073139190674
0.9484838056366767,-2.579802544399551,-2.149380710116643,-4.099739809457446,-2.3821974108700945,-0.13938897052942292,110.36388046810623,37.85313283323343,27.382407798072933,5.463292854407616,144.72942033160788,48.46560400952542,109.12967606983472,70.47768472697504,-4.263116385236048,8.851597785949707
0.9485804988131148,-2.5796814815465607,-2.14931100962331,-4.099643116281008,-2.382076348017104,-0.1393192700360899,110.42219089046756,37.87799508308309,27.378935081415893,5.538085298284263,144.73144610244475,48.467318679816174,109.12681901866847,70.47726992025659,-4.263156639053186,8.872248411178589
0.9484825322516457,-2.579679179743895,-2.1492769118607664,-4.099741082842478,-2.3820740462144383,-0.1392851722735464,110.26387753205186,37.95515982917263,27.35681991232687,5.36310079989027,144.72989319636162,48.46622948208419,109.12501202984,70.47680875733022,-4.253641586574483,8.927783250808716
0.948523011888843,-2.5797091519295074,-2.149277453196734,-4.09970060320528,-2.382104018400051,-0.13928571360951386,110.29476893881525,38.24249077314225,27.29144893507069,5.487280533126883,144.72985651928607,48.46684674202643,109.12554314730878,70.47733864389404,-4.206777087282829,8.947023868560791
0.9484971611706083,-2.579703818640109,-2.1493317316117513,-4.099726453923514,-2.382098685110652,-0.1393399920245312,110.44399625029688,37.874199900212915,27.43325496656571,5.498099712306985,144.73046404488682,48.46601972331651,109.12720994180604,70.4769445977689,-4.263079411283078,8.988078117370605
0.9484579999554452,-2.579776002168685,-2.1493406498898877,-4.099765615138677,-2.3821708686392284,-0.1393489103026677,110.53945487249645,37.926881695500185,27.435791361278227,5.6206441691576705,144.72897622685474,48.465529994310984,109.12790156744371,70.47741354447284,-4.159838716891146,9.0096435546875
0.948501358606959,-2.579808889895055,-2.149390781174977,-4.099722256487164,-2.3822037563655982,-0.13939904158775712,110.60323333565002,37.658361151186,27.517175334225943,5.600106489905722,144.729659832351,48.465776869157565,109.1301882314198,70.47781278701227,-4.281911096682346,9.0299551486969
0.9485543741299622,-2.579740128147607,-2.1493284449820296,-4.099669240964161,-2.3821349946181503,-0.13933670539480963,110.50546383259038,37.81934927859794,27.457585727500046,5.546318260528473,144.73045155807515,48.466914960720146,109.12776820841239,70.47764719860827,-4.30537740987789,9.086518287658691
0.9484229893972427,-2.5797419162824995,-2.1494296494895146,-4.09980062569688,-2.382136782753043,-0.13943790990229443,110.40884536079257,37.84007906368714,27.466005112253793,5.4132607482653725,144.73047061769995,48.46423047440546,109.13046003539596,70.47655527023687,-4.3052879367874,9.108797073364258
0.948607833947084,-2.579668703562517,-2.149275596155387,-4.099615781147039,-2.3820635700330604,-0.1392838565681672,110.29073943604907,38.02040116738192,27.319443158650685,5.443764778518093,144.73143293330168,48.46797479572571,109.12565534762916,70.47742366485596,-4.305390204904608,9.128113508224487
0.9485094339793982,-2.5797188105110322,-2.149276900808932,-4.099714181114725,-2.3821136769815756,-0.1392851612217119,110.2880829488984,38.0114826746526,27.312773677556475,5.451754135876468,144.72953921984347,48.466679168631856,109.12552352281448,70.47735999815477,-4.305291059486124,9.14725136756897
0.9485327292529955,-2.5796804899016204,-2.1492974108813208,-4.099690885841127,-2.3820753563721637,-0.13930567129410076,110.44552952367384,37.97078886796225,27.418978544208628,5.5168254090766755,144.7307316943483,48.46676241999493,109.12604356686533,70.47703560019777,-3.934670654031268,9.17693018913269
0.9484660428777367,-2.5797413294379488,-2.1494001995609797,-4.099757572216387,-2.382136195908492,-0.13940845997375972,110.43799215934368,37.959631906051115,27.43130618870814,5.494820464289509,144.7305195292523,48.46507898959548,109.12970620913556,70.47689986962105,-3.873676901754179,9.186559915542603
0.9485114201001117,-2.5796981127604584,-2.1492747394687024,-4.099712194994011,-2.3820929792310017,-0.13928299988148216,110.4059383907889,38.06813740863209,27.373659969420117,5.524515958059345,144.72986941085142,48.46668692123276,109.12528136182014,70.47717135490494,-4.202068106599056,9.252246141433716
0.9484970136192121,-2.579726013037897,-2.149363399498057,-4.099726601474911,-2.3821208795084403,-0.1393716599108369,110.37687606779534,37.89031864261318,27.412975624587254,5.438277657434317,144.73056773419594,48.46579291182383,109.12849531383237,70.47705384105502,-4.202110367162497,9.271000146865845
0.9484391880394278,-2.57962910221247,-2.1492688222595024,-4.099784427054695,-2.3820239686830136,-0.13927708267228217,110.43538929514652,38.125993208964665,27.446862790236697,5.46772756754448,144.730116644427,48.465598361124556,109.12402777644373,70.47608762890118,-4.230116761285933,9.311993598937988
0.9484748018386282,-2.579698811770716,-2.1493125269635316,-4.099748813255495,-2.3820936782412594,-0.13932078737631148,110.44442591623826,38.02335480674913,27.402618180471467,5.537913732851205,144.73001370137465,48.46585869458497,109.12636419950158,70.47683499345058,-4.464787541997798,9.334934949874878
0.9484550256717781,-2.579676793652405,-2.149276988631881,-4.099768589422345,-2.3820716601229486,-0.13928524904466114,110.458159251746,37.98813742746084,27.411112797946554,5.544217376064832,144.72962909343985,48.465839474693,109.12482276872578,70.47662751487692,-4.155082860474886,9.35627269744873
0.9484724669142108,-2.5796841294868194,-2.149323806134259,-4.099751148179912,-2.3820789959573627,-0.13933206654703928,110.3813865216283,37.861004872324735,27.42423915146033,5.428512215048588,144.73039673668345,48.46570430060829,109.12661147260371,70.47663425545775,-4.169207159667117,9.36626386642456
0.9484272951718347,-2.5796464621850266,-2.1493013011275055,-4.099796319922288,-2.38204132865557,-0.13930956154028531,110.4323536923267,37.94116223970744,27.483759748978898,5.4171212169419976,144.7301818582535,48.465191439944526,109.12522597877987,70.47607846365833,-4.230126420922475,9.409684896469116
0.9485519013306787,-2.579732316473536,-2.14934047638566,-4.099671713763444,-2.3821271829440795,-0.13934873679843962,110.1960608382396,37.94226558141636,27.287103145683737,5.366303169758982,144.7307312750466,48.466765000836645,109.12810032016648,70.47751193172932,-4.291304049635778,9.440491914749146
0.9484494339370597,-2.579728106314401,-2.1493926812800943,-4.099774181157063,-2.3821229727849444,-0.13940094169287406,110.41316000700655,37.763471229615014,27.449193635838427,5.439528292268437,144.73044145656817,48.464885230825004,109.12922829819779,70.47669912215248,-4.2912172621011475,9.452257633209229
0.9484664435949417,-2.5796530968222573,-2.149298163580798,-4.099757171499181,-2.3820479632928007,-0.13930642399357798,110.45720330572867,37.82090370388794,27.47628880730442,5.458440148164345,144.73045952371615,48.46577789934074,109.1254189340736,70.47637966956873,-4.070650481644099,9.47174334526062
0.9485777149535684,-2.579676712549456,-2.149263798998628,-4.099645900140555,-2.3820715790199993,-0.13927205941140777,110.21508120334813,38.000168949905074,27.279940121834926,5.397685717367388,144.7307926613325,48.46766704091542,109.12513018274878,70.4773740090361,-4.145830815253046,9.490707874298096
0.9486145737289333,-2.579668411127167,-2.1493001559898453,-4.0996090413651896,-2.38206327759771,-0.13930841640262526,110.20875417734268,38.20700964011174,27.26234309339382,5.412210094971128,144.73187704201092,48.4678625087287,109.12654274373818,70.47737189842647,-3.9910639796178247,9.510070085525513
0.948625852185121,-2.5796984433222927,-2.1492626526842606,-4.099597762909002,-2.382093309792836,-0.13927091309704065,110.25690953363772,38.27719897382101,27.246523123812278,5.494204745409808,144.7309511998697,48.468390412398996,109.1255790748781,70.47787093610121,-4.263183821961086,9.532197713851929
0.9485030800830252,-2.5797215838798806,-2.1493276341872463,-4.099720535011098,-2.382116450350424,-0.1393358946000262,110.44403766109707,37.96155385145881,27.42390947825029,5.510336801050248,144.7301766352684,48.466169706612334,109.12725973955735,70.4771711941403,-4.286546903334001,9.575310707092285
0.9485176356571645,-2.5797493427415175,-2.149436489825389,-4.099705979436958,-2.382144209212061,-0.13944475023816866,110.33489278801736,37.84104302798181,27.404991239843497,5.3951585458099895,144.7314976920782,48.46551132808125,109.13135000242164,70.47714575223313,-4.216257484701493,9.590043306350708
0.9484984330226627,-2.5797778953166004,-2.149356050035965,-4.09972518207146,-2.3821727617871438,-0.13936431044874498,110.40515600217168,37.69348835154256,27.46683286051248,5.406122782266274,144.72962131586402,48.465970138471775,109.1287014195914,70.47760860983631,-4.300646928103541,9.609347343444824
0.9485124319196137,-2.5797422802243517,-2.1493362264759353,-4.099711183174509,-2.382137146694895,-0.13934448688871512,110.43163931046463,37.71543342039059,27.42565605191555,5.493003182604401,144.7300674619456,48.46626667195288,109.12779451585806,70.47740168214156,-4.230266360218964,9.629534482955933
0.9486264948933238,-2.5797192177255215,-2.1493420411442803,-4.099597120200799,-2.382114084196065,-0.13935030155706019,110.19922259530111,37.81311689095057,27.311165115271564,5.337279465565017,144.73179557851665,48.46777161848167,109.12850480829167,70.47780079877222,-4.230393890973161,9.675783157348633
0.948531336508524,-2.5796046561735038,-2.1493065993520397,-4.099692278585599,-2.381999522644047,-0.1393148597648195,110.26131551428351,37.95442447171442,27.294467523480204,5.4380531945152075,144.7320995774441,48.46652594203042,109.12569299809714,70.47623412022428,-4.361607407440275,9.685959339141846
0.9484753617009138,-2.5796432046107336,-2.149274994280544,-4.099748253393209,-2.382038071081277,-0.13928325469332387,110.32066211924123,38.0237225990346,27.32956832438584,5.470841751835985,144.7303768429099,48.46607885545976,109.12458852771785,70.47641369035938,-4.286465941441526,9.706679821014404
0.9484701757572076,-2.5797197272563848,-2.1493703401258055,-4.099753439336915,-2.382114593726928,-0.13937860053858542,110.45668896344299,37.868322539174535,27.436742012040934,5.5112778218614435,144.730477071833,48.46534748925073,109.1285132461755,70.47681289396782,-4.145781340386678,9.785713195800781
0.9484232536759973,-2.5797301776708936,-2.1493323014944474,-4.099800361418126,-2.382125044141437,-0.13934056190722743,110.35239773028171,37.90540071466228,27.407553056106995,5.414606745413159,144.72922106216197,48.46502922820555,109.12699874156515,70.4767851138349,-4.225468271097839,9.842191457748413
0.9484622721432547,-2.5797156595594193,-2.149368358876566,-4.099761342950869,-2.3821105260299626,-0.13937661928934594,110.49572163807855,37.889458104324184,27.48569972920208,5.498386221435985,144.73042704830846,48.465245998073655,109.12836028298112,70.47673400761614,-4.300598305663863,9.852059125900269
0.9485363021936193,-2.5796937871015153,-2.149325330204824,-4.099687312900503,-2.3820886535720587,-0.13933359061760398,110.27909311319404,37.9692289806532,27.351583286305853,5.389514653904449,144.73096718834978,48.46660270197065,109.12714534361038,70.47709015708955,-4.3944873362653265,9.874760866165161
0.9484865618161507,-2.579729847568598,-2.1493297603432104,-4.099737053277972,-2.3821247140391413,-0.13933802075599017,110.35185723008854,37.89888773348446,27.367055814648484,5.465243659858477,144.72988950075,48.46593593932629,109.12730216736,70.47715224587185,-4.394441977135571,9.889881372451782
0.9484770721017861,-2.5797427752792483,-2.149333818846565,-4.099746542992337,-2.3821376417497917,-0.1393420792593452,110.45884815495313,37.94332346775107,27.413756936603363,5.543648244131683,144.72963217983119,48.46579292914612,109.1274956025044,70.47721334415962,-4.394436642863724,9.90972113609314
0.9485376168857123,-2.579690834283251,-2.149273888985675,-4.099685998208411,-2.3820857007537946,-0.13928214939845462,110.26003263792347,37.966350949123694,27.315708435039177,5.410574155869832,144.73026643551654,48.467047257902045,109.12535176892813,70.47725090704051,-4.394457952567508,9.931835412979126
0.9484885529182461,-2.579623442593461,-2.149306021312133,-4.099735062175877,-2.3820183090640046,-0.13931428172491286,110.30291133098942,37.95478626625332,27.36775256408591,5.398265807964653,144.73130850807294,48.46596668779247,109.12557007604234,70.4761804246804,-4.2489602057854725,9.971806764602661
0.9485022809788668,-2.5796924092841564,-2.1492598259651885,-4.099721334115256,-2.3820872757547,-0.13926808637796848,110.38144401277337,37.95645977626089,27.40655577345499,5.450523811733642,144.7296405713308,48.46667362647979,109.12465998719122,70.47711497115269,-4.145746505009363,9.993835926055908
0.9484641231315232,-2.5797165132361473,-2.149361573257799,-4.099759491962599,-2.3821113797066906,-0.13936983367057867,110.39502060049358,37.95316204914553,27.379585680708328,5.505170059468693,144.73033274305834,48.465330407208015,109.12814495298548,70.47677726394582,-4.216144954983864,10.032988548278809
0.9484787091360747,-2.5796312082545954,-2.149272066729384,-4.099744905958048,-2.3820260747251387,-0.13928032714216398,110.39664990946184,37.96654803323728,27.430557713328948,5.438227722963022,144.7305676700844,48.46612813487645,109.12440402017666,70.47632284654748,-4.21608878550529,10.051692485809326
0.9485046024792156,-2.579619951221272,-2.1493005204560465,-4.099719012614907,-2.3820148176918154,-0.1393087808688266,110.42359302870095,38.056468407705154,27.46623982712649,5.426636463212432,144.73146189190592,48.466231017248134,109.12544969264614,70.47625657129811,-4.216132225674203,10.071212768554688
0.9484811533505182,-2.5796392072305756,-2.1492755997185173,-4.099742461743604,-2.382034073701119,-0.13928386013129704,110.4459344510542,37.98596292891472,27.422326397618868,5.51263118092712,144.73051566704035,48.46614745616459,109.12461073186265,70.4764044954452,-4.216095532301128,10.10215139389038
0.9484736364695303,-2.5797149556306604,-2.14934372602502,-4.099749978624592,-2.382109822101204,-0.13935198643779992,110.48724540227703,37.94414944316576,27.450642811017282,5.5321662896472095,144.73019864789546,48.46561040900773,109.12757444171478,70.47687939643097,-4.21614492394975,10.111878156661987
0.9484559985700178,-2.5797294212456854,-2.149357018028791,-4.099767616524105,-2.3821242877162287,-0.13936527844157093,110.49813565305371,37.89202399560308,27.508439393271477,5.472379670287664,144.7299629557097,48.465278734105496,109.1280493127231,70.47687658612155,-4.126992837753846,10.171982526779175
0.948582793708725,-2.5796502980259794,-2.1492909768627695,-4.099640821385398,-2.382045164496523,-0.13929923727554958,110.34343032233423,38.264425493488915,27.302414104994774,5.533190273191868,144.7316867637389,48.46746136147096,109.12587057097835,70.47704136163502,-4.530570881024648,10.19135308265686
0.948526424408104,-2.579761016015739,-2.149347178301817,-4.099697190686019,-2.3821558824862823,-0.13935543871459677,110.4468788852833,38.05321256662278,27.366902434987573,5.587962913737952,144.7300769250658,48.46640516751155,109.12842261615543,70.4776306019074,-4.314744800799382,10.210889339447021
0.9485068287319098,-2.579723174097363,-2.1493105624186923,-4.0997167863622135,-2.3821180405679065,-0.13931882283147207,110.29514790253583,38.03161592668641,27.339046126654207,5.427516291434683,144.72993848552255,48.4663683340755,109.12670746747133,70.47726924064857,-4.047261777585712,10.2330002784729
0.9484672316196061,-2.5796905109858193,-2.1493306373567473,-4.099756383474517,-2.3820853774563626,-0.13933889776952707,110.46871974476892,37.804614170977146,27.45095039355064,5.507553245922549,144.73033530360908,48.465585490638276,109.12687020820988,70.47664411101228,-4.047220820500238,10.252180337905884
0.9487256648186149,-2.5796773056261153,-2.1493528362248138,-4.099497950275508,-2.3820721720966587,-0.13936109663759383,110.46828437301068,37.89457639907738,27.449232860491406,5.504614170650382,144.7337427999127,48.468991549924304,109.12913054419342,70.47790807000705,-4.047524325836331,10.273757934570312
0.9485122270358528,-2.579681721628316,-2.1493042466884873,-4.09971138805827,-2.3820765880988595,-0.13931250710126714,110.40869836501251,37.94260042907137,27.394604676916593,5.501233132591193,144.73058600134192,48.46642040967778,109.12616269012902,70.4769066127899,-4.056637575611232,10.313175916671753
0.9484676938222283,-2.579730384931259,-2.1493941365850153,-4.099755921271894,-2.3821252514018023,-0.1394023969977954,110.3629493156353,37.79788996914461,27.43274540827147,5.395420944041961,144.73062771583196,48.46513276939661,109.12941201901141,70.4768210465904,-4.441375872013063,10.332761526107788
0.9484786183133396,-2.5797674617035993,-2.149407402701347,-4.0997449967807835,-2.3821623281741426,-0.13941566311412684,110.44622302132257,37.793701119667446,27.42388951677023,5.51597348683472,144.73033604228962,48.46524275618962,109.13026036915565,70.47720822835595,-4.127057115052367,10.37577509880066
0.9485351981879466,-2.5796668949728114,-2.14923995418316,-4.099688416906176,-2.382061761443355,-0.13924821459594006,110.44287911568559,37.979750598040056,27.410943053885404,5.522784534070587,144.7301293590988,48.46725397718037,109.12395696489936,70.47711753756386,-4.126999313849609,10.384972095489502
0.9485110899291591,-2.579688081744879,-2.1493064532918376,-4.099712525164964,-2.382082948215422,-0.1393147137046173,110.38190162705544,37.93963954494882,27.438137723283756,5.410536075473686,144.73050161026237,48.46639771482658,109.12628708046603,70.4769560888545,-4.206775557475338,10.407215356826782
0.9485106535885459,-2.579708666196594,-2.149351359129099,-4.099712961505577,-2.3821035326671374,-0.13935961954187923,110.41753372489848,37.83025594441213,27.42774205027462,5.471108999072258,144.73082513964206,48.466052815799365,109.12801372243109,70.47700047834473,-4.314716920112305,10.43222188949585
0.948501779782736,-2.579737490807416,-2.1493816958507326,-4.099721835311387,-2.3821323572779596,-0.13938995626351228,110.26157958578854,37.85901156030345,27.339935071981778,5.383888597225315,144.7307034545564,48.46572727952913,109.129256454781,70.47713115830874,-4.3147314712165095,10.452243089675903
0.9484776937724941,-2.5797436633561346,-2.1494027840139527,-4.099745921321629,-2.382138529826678,-0.13941104442673277,110.35806218392838,37.806880886910854,27.411072936197062,5.417466188432222,144.73064849251452,48.465224664047454,109.12988825656575,70.47698060718594,-4.164581471078699,10.464995861053467
0.9484528855146424,-2.5797621091081755,-2.149378457696315,-4.099770729579481,-2.382156975578719,-0.13938671810909486,110.47362075056343,37.91166982536969,27.42459705266093,5.550175895454928,144.72970942932164,48.46511559643109,109.12905430391564,70.47711054167092,-4.131701231763429,10.495937585830688
0.9485177948193355,-2.579681345986689,-2.149322238143803,-4.099705820274787,-2.3820762124572323,-0.1393304985565829,110.35390684424767,37.918357804458225,27.384649206480372,5.4433715238255145,144.73092096162577,48.46634668656244,109.12681525361742,70.47687066910986,-4.272475632734466,10.505353212356567
0.9484382355237684,-2.5797105224204993,-2.149245250120547,-4.0997853795703545,-2.3821053888910426,-0.13925351053332713,110.34224257854454,38.08731113345262,27.347361188816176,5.477596936779788,144.72841739090944,48.46593299179378,109.12391563062329,70.47698288472307,-4.272347001097682,10.527437210083008
0.9485182204564944,-2.5797232546339806,-2.149298727508688,-4.0997053946376285,-2.382118121104524,-0.13930698792146767,110.26963596340146,38.07735088319825,27.310264658344806,5.431474102454614,144.72988751946255,48.466627204260895,109.12637044382552,70.47737715748258,-4.249013306373567,10.568780183792114
0.9485585575888125,-2.579662422821925,-2.149306015629279,-4.099665057505311,-2.3820572892924683,-0.13931427604205865,110.3395626701356,38.12760243615953,27.30414684422355,5.5271129634677525,144.73144243008502,48.46701836542804,109.12634437034512,70.47697118633596,-4.249048981889045,10.588202238082886
0.9485595125789852,-2.5796744107342424,-2.1492306225959066,-4.0996641025151375,-2.382069277204786,-0.13923888300868628,110.32458612983561,38.08799243743302,27.287240254042608,5.529170724822327,144.73013636247293,48.46768641675507,109.12385139930419,70.47736492772432,-4.23962548044759,10.607824802398682
0.9485028338076364,-2.5796404354885687,-2.149319518923014,-4.099720781286487,-2.382035301959112,-0.13932777933579407,110.22102834150343,37.94737830988235,27.325385736243327,5.347525983717163,144.73138761886736,48.466084650762376,109.12627266082754,70.47638446323317,-4.248988379274909,10.628397464752197
0.9484294421199706,-2.579736780716533,-2.149476456210995,-4.0997941729741525,-2.382131647187076,-0.13948471662377498,110.37004345205828,37.77094095189478,27.448631274499366,5.385609398874599,144.73132144317893,48.46391861544071,109.1320715084935,70.47637414426556,-4.300629430000569,10.650310277938843
0.9484377724924846,-2.5796686091853482,-2.149293581174516,-4.099785842601638,-2.3820634756558916,-0.13930184158729605,110.59097386448042,37.8055105039153,27.55979247576266,5.524550282998932,144.72981906717314,48.46544370250027,109.12521713178525,70.47638792191582,-4.192604811630317,10.668246030807495
0.9485950506301577,-2.5796613971821922,-2.1492174589645066,-4.099628564463965,-2.3820562636527356,-0.1392257193772866,110.45588233392563,38.07274450262328,27.370467447735223,5.5900224930259315,144.73054825455688,48.46827022515266,109.12350491676847,70.47748403750862,-4.1270528139032505,10.68712043762207
0.9485238303908861,-2.5797282000097503,-2.1493459816387848,-4.099699784703237,-2.3821230664802937,-0.13935424205156488,110.40259052325517,37.98848685118614,27.374293657155103,5.520831126869589,144.73056998175124,48.46631837316916,109.1280798779057,70.4772908053039,-4.169288975569055,10.707072734832764
0.948463343593152,-2.5797119408910243,-2.149371482426667,-4.099760271500971,-2.3821068073615677,-0.13937974283944699,110.44298603957783,37.853765746784866,27.395482281873967,5.546987171188997,144.73054642618027,48.465227925621434,109.12844247220175,70.47669170944732,-4.45542854491364,10.728900671005249
0.9484805975405863,-2.5797643920308144,-2.1493589391172176,-4.0997430175535365,-2.382159258501358,-0.13936719952999746,110.45191392119722,37.9026058197338,27.46808945513996,5.46520397105849,144.72968880582494,48.465671388192945,109.128572757558,70.4773610421667,-4.239632439689192,10.76955509185791
0.948522225534143,-2.579629309213721,-2.149254175175545,-4.09970138955998,-2.3820241756842644,-0.13926243558832488,110.30578782390414,38.093889877982924,27.330174044984336,5.449600521280102,144.730814920024,48.46688377322396,109.12404058276483,70.47661581486953,-4.225510957669362,10.788898706436157
0.9484133063259255,-2.579699972061001,-2.1493762461333588,-4.099810308768197,-2.3820948385315446,-0.13938450654613876,110.53105332616133,37.91549633036968,27.493787921827863,5.534097160353893,144.73026008837357,48.46446560611573,109.1281914419975,70.47626904797077,-4.36153677655964,10.808721542358398
0.9484095163412667,-2.5797185861525103,-2.1493613182873124,-4.099814098752856,-2.3821134526230536,-0.1393695787000922,110.67139076046655,37.771232417387374,27.59743101924356,5.582693870081825,144.72969044871851,48.464572146758194,109.12781428348617,70.47648723754467,-4.220774859431113,10.828163385391235
0.9485133879929002,-2.579635226125956,-2.149297810986983,-4.099710227101223,-2.3820300925964992,-0.13930607139976312,110.62764349602189,38.22912132887817,27.455054362877178,5.702451946220961,144.7312677602908,48.466404882988186,109.12554358635988,70.47646961698017,-4.2208358413767915,10.84924864768982
0.9485223409296828,-2.5797480343556862,-2.1493039409608774,-4.09970127416444,-2.3821429008262296,-0.13931220137365713,110.53909733774108,38.18797653321959,27.3968104866266,5.666543375676337,144.7296031292058,48.4666868333722,109.12679149558407,70.47763076336848,-4.295944838575481,10.869359493255615
0.9485355180407202,-2.5797124467574553,-2.149355866093125,-4.099688097053402,-2.3821073132279986,-0.13936412650590524,110.2255971863732,37.81131282463519,27.318447968706394,5.363555192468206,144.7311051297195,48.466369948031755,109.12835696386043,70.47716433196754,-4.295981829468247,10.912477016448975
0.9484695726060954,-2.5797085701745153,-2.1493722243453175,-4.099754042488027,-2.3821034366450586,-0.13938048475809753,110.3730701190945,37.92343027656573,27.407170606515336,5.440999333502786,144.73068180650623,48.46530265655844,109.12847756414146,70.4766908101023,-4.211463909665345,10.932164430618286
0.9485008083982494,-2.57972313727209,-2.1493337375287886,-4.0997228066958735,-2.3821180037426335,-0.13934199794156849,110.33447409591398,37.93007943089518,27.373575774857272,5.433963336136447,144.73021657795235,48.46608957332847,109.12746982740785,70.47715211224461,-4.225555553529778,10.966831684112549
0.9484553712090507,-2.5796877924671513,-2.1493599260142524,-4.099768243885072,-2.3820826589376947,-0.13936818642703216,110.5019260148448,37.86846675876484,27.486669654550443,5.504569884986701,144.7306836126789,48.46516875877735,109.12778394890599,70.47644500263026,-4.291195230582486,10.989114999771118
0.9484521711848304,-2.5797312519432958,-2.1493469147746165,-4.099771443909292,-2.382126118413839,-0.13935517518739624,110.4381652609264,37.83297652482213,27.400008317328492,5.535321524165433,144.7297404692301,48.465313311107025,109.12769258759788,70.47690902206728,-4.272427389981336,11.044704675674438
0.9484823144222996,-2.5796958983928544,-2.1493333499143743,-4.099741300671823,-2.3820907648633978,-0.1393416103271542,110.47446902339726,37.853517295791036,27.461027263728546,5.501718936235604,144.7304539556947,48.46578375566868,109.12710456298993,70.47677462227145,-4.3193632083663225,11.064546585083008
0.9484907041651001,-2.579720530125531,-2.1493766242950443,-4.099732910929022,-2.3821153965960744,-0.13938488470782395,110.51067198210788,37.850980154275135,27.465709657104025,5.543503520270718,144.73078440922703,48.465583539546586,109.12886496957918,70.47691579715075,-4.169267497315243,11.14574670791626
0.9485394219565979,-2.5796668918248464,-2.1492274627689416,-4.099684193137525,-2.38206175829539,-0.1392357231817215,110.42265519870239,37.980187046285444,27.39872333905686,5.5122596074077155,144.72999067282203,48.4674178917404,109.12355192318493,70.47718602096381,-4.141072063170014,11.165232419967651
0.9484092659242012,-2.5796468847962575,-2.1493339303909775,-4.099814349169922,-2.382041751266801,-0.13934219080375734,110.37013162735131,37.99130724544199,27.400192804320184,5.445360625243222,144.73045984878274,48.464666135346604,109.12624395599207,70.47586379012243,-4.30988525441129,11.184887409210205
0.9484382859778044,-2.57960724973164,-2.149230862423942,-4.099785329116319,-2.3820021162021834,-0.13923912283672177,110.4374578453749,38.04667462614257,27.449657480620818,5.465889757152757,144.7299022722414,48.465863914602494,109.12252169328073,70.47599814841611,-4.20662932633989,11.20448112487793
0.9484440765570652,-2.579705282767011,-2.1493461442026818,-4.0997795385370575,-2.382100149237554,-0.1393544046154616,110.47736747264358,37.978904145599564,27.440509124308406,5.532683147500454,144.73006639204635,48.465158583801944,109.12738987050393,70.47660500264244,-4.173884627562729,11.224475383758545
0.948485885330276,-2.5796950969062165,-2.149380469662037,-4.099737729763847,-2.38208996337676,-0.13938873007481695,110.26357488554365,37.883276387787184,27.369793204211753,5.347108703730401,144.73120632035406,48.46543691624541,109.12874664992295,70.47661944395897,-4.33816159716901,11.2443528175354
0.948507096133846,-2.5796573121960837,-2.14929575910456,-4.0997165189602764,-2.382052178666627,-0.13930401951733995,110.25883934284956,38.037482771383246,27.337123014315555,5.3815273971922615,144.730804508683,48.46637478812663,109.1256255487658,70.47666258799444,-4.422578714691291,11.264692306518555
0.9484644080714888,-2.579704305501147,-2.1493297045788013,-4.099759207022634,-2.3820991719716904,-0.13933796499158113,110.45463980998409,37.834725466994016,27.42720281540477,5.520383681820808,144.73006339781682,48.465579248675816,109.12694033514119,70.47676970868513,-4.422561275847308,11.30624508857727
0.9484650568356525,-2.5796999856488383,-2.1493628058635936,-4.09975855825847,-2.3820948521193817,-0.13937106627637336,110.51673012372473,37.882852963606915,27.47983471266095,5.532729625884283,144.73063311478262,48.465302643315475,109.12804964798826,70.47661239036492,-4.145766422679141,11.328367233276367
0.9484229092339005,-2.579677230840851,-2.149346040293874,-4.099800705860222,-2.3820720973113945,-0.13935430070665408,110.51577446195127,37.92166305508733,27.457010657905343,5.560864731091587,144.73029175931478,48.46481146297953,109.12701070758078,70.4762030893037,-4.427208891179137,11.351372480392456
0.9484471371636358,-2.5796657315130465,-2.1493446728704533,-4.099776477930487,-2.38206059798359,-0.139352933283233,110.51720341276972,37.99509959199767,27.47267377421146,5.541519787273298,144.73072869215795,48.46514079318957,109.1270143379051,70.47623088516654,-4.169186259849482,11.37120532989502
0.9485068065792548,-2.579760863693833,-2.149384329869787,-4.099716808514868,-2.3821557301643765,-0.1393925902825669,110.41840356700739,37.91648751629433,27.38544468403385,5.528507535245401,144.73041393255653,48.46581864525111,109.12958188238211,70.4773849881276,-4.319436348308306,11.390055894851685
0.9484581318458245,-2.5797110681697344,-2.1493124287518723,-4.099765483248298,-2.3821059346402778,-0.13932068916465212,110.31202881252804,37.88043176961402,27.369322743150995,5.410577152011637,144.72962621216675,48.46564882980162,109.12636359877335,70.47686314475243,-4.300559702529606,11.411994934082031
0.9484886877931664,-2.5797179713857235,-2.149375873346174,-4.099734927300957,-2.382112837856267,-0.1393841337589541,110.39358614260338,37.854989654327106,27.41186344492957,5.461456083360414,144.73079300770976,48.46555690058054,109.12880424895818,70.47688128406342,-4.089504084500521,11.450290203094482
0.9485508815227914,-2.579720955116811,-2.149263826094259,-4.099672733571332,-2.3821158215873544,-0.13927208650703912,110.29352094564406,38.07544208464773,27.29232447034953,5.484300663778594,144.72976859570187,48.46737288078982,109.12534867957044,70.47766461696901,-4.220878835195557,11.46997857093811
0.9484974904525934,-2.5796776679694524,-2.1493447995742327,-4.0997261246415295,-2.382072534439996,-0.13935305998701283,110.44442257499337,38.06747328629207,27.374149204419584,5.573885767970511,144.73109168887123,48.4658664490844,109.12743585925843,70.47663764522397,-4.37099188220833,11.489998817443848
0.9484935907289676,-2.579752819281158,-2.149351517957631,-4.099730024365155,-2.3821476857517014,-0.13935977837041064,110.45666307606955,37.88489250065504,27.394855759809488,5.565655980721175,144.7299126972915,48.4658941391425,109.12829681226019,70.47734549413929,-4.44607769078136,11.509538650512695
0.948533380015486,-2.5797640641271427,-2.1493268812784714,-4.099690235078636,-2.382158930597686,-0.13933514169125127,110.45983525316888,37.88283114736278,27.394875199837102,5.5690996268643245,144.7298024123041,48.466678422364936,109.12779161284902,70.47777305407182,-4.305358317782768,11.542687892913818
0.9486421530878715,-2.5796584479136295,-2.1492838673477364,-4.099581462006252,-2.382053314384173,-0.1392921277605163,110.2942515898635,38.025623338562895,27.320459152804546,5.44625054224787,144.73210429287394,48.46836676944389,109.12606538499331,70.47748729154232,-4.3851912140802,11.595346450805664
0.9485062296163556,-2.579571628975687,-2.1492737139519345,-4.099717385477767,-2.3819664954462305,-0.1392819743647143,110.22478783472437,37.99774955784696,27.292131180565022,5.393264588834086,144.7318763828161,48.466389561211294,109.12411432573825,70.47587631271284,-4.300558562491675,11.604680299758911
0.9485019829291976,-2.5797019603397806,-2.149352941232837,-4.0997216321649255,-2.382096826810324,-0.1393612016456167,110.43492393926036,37.884403731625305,27.421674297929513,5.50142475504928,144.7308629072877,48.46590582658749,109.12795608006914,70.47687807419885,-4.263096890792015,11.633035898208618
0.9485248276722404,-2.5796270285474114,-2.14925022076867,-4.099698787421882,-2.382021895017955,-0.13925848118144984,110.46745976887054,38.10850921156166,27.39569514856004,5.57300383553479,144.73082250548902,48.46694916437481,109.12390041501477,70.47662184410257,-4.338113287165678,11.645732164382935
0.9485498020155472,-2.5797206380587503,-2.1493213407897374,-4.099673813078576,-2.3821155045292937,-0.13932960120251744,110.28683611378882,38.03014261734727,27.34803711206387,5.404570655432098,144.7306159071047,48.466874630293546,109.12732503762365,70.4774508080937,-4.113000640121749,11.686606645584106
0.9485597594866257,-2.5797054538205666,-2.149274892478753,-4.099663855607497,-2.38210032029111,-0.13928315289153256,110.25203574919342,37.95427350164422,27.279692433332634,5.446753932752938,144.73028606938738,48.46737568649652,109.12565129528544,70.47752043525837,-4.324110769260473,11.708601474761963
0.9485321462274421,-2.579737595959674,-2.149329432662788,-4.099691468866681,-2.382132462430217,-0.13933769307556815,110.5021826709859,37.98881689091123,27.403662469868664,5.611374440025737,144.73026181705362,48.466590928353334,109.12764194138488,70.47749138516886,-4.277201099952934,11.731486082077026
0.948563035342544,-2.5796965070433315,-2.1493284648838302,-4.099660579751578,-2.382091373513875,-0.13933672529661012,110.32292820302139,37.88843260679316,27.386202006070555,5.40093147737155,144.73126493105764,48.46695554265062,109.12744361438102,70.47725891886746,-4.408595471630292,11.75175929069519
0.948522692647388,-2.579658429111841,-2.1493257374371,-4.0997009224467345,-2.3820532955823843,-0.13933399784987985,110.42021278325076,37.974624877972005,27.422391921836656,5.479659771760197,144.7314039318771,48.46634359504514,109.12676735633563,70.47665626005714,-4.178642460869633,11.773985862731934
0.9485198463374644,-2.57968120129744,-2.1492941443631004,-4.099703768756658,-2.3820760677679833,-0.1393024047758804,110.33619870414024,37.94572123530312,27.401905889947074,5.397867396406959,144.7305288871321,48.46661084324307,109.12585679151671,70.47698080192066,-4.089482818381798,11.783675909042358
0.9483990856104496,-2.5796604364774818,-2.1493570832401407,-4.099824529483673,-2.382055302948025,-0.13936534365292044,110.46092565215575,37.862769942861995,27.465658408600994,5.478918227509248,144.73046814299843,48.46435441166947,109.12709771460419,70.47585933300144,-4.089377618372861,11.804228067398071
0.9486285474509393,-2.579694858464606,-2.1492838109136465,-4.099595067643183,-2.3820897249351494,-0.13929207132642618,110.31630048109258,38.077045123324524,27.300947540340374,5.500809177794188,144.73135416323777,48.46824399209037,109.12629525035888,70.4777751378127,-4.235047887463762,11.824045896530151
0.9485731932911003,-2.5796639460648554,-2.1492697883345335,-4.099650421803022,-2.3820588125353988,-0.13927804874731362,110.34272383553456,38.190255430558494,27.31720101845129,5.513746157032133,144.73104145469455,48.46752996064571,109.12519787482518,70.47719881211692,-4.291270556834841,11.863622903823853
0.9484620173641307,-2.5796457387997096,-2.149255467302156,-4.099761597729993,-2.382040605270253,-0.1392637277149359,110.50401679658364,38.07444034557354,27.443425411109807,5.5602999641230015,144.72989750146837,48.466060607298765,109.12385333410691,70.47643234634995,-4.309898884139033,11.884352684020996
0.9485760716729277,-2.5796134671375386,-2.1492858969353454,-4.099647543421195,-2.382008333608082,-0.13929415734812556,110.27013448830719,38.13613798607185,27.289161130736797,5.455577911666959,144.73214250881728,48.46734197035763,109.1253332091264,70.47665150598472,-4.263120746158812,11.90376353263855
