dx1,dy1,dz1,dx2,dy2,dz2,azm1_cf,ele1_cf,azm2_cf,ele2_cf,azm1_an,ele1_an,azm2_an,ele2_an,tdoa_bias,time
-0.16919995581105102,0.9873539663352076,-0.12645646623425402,2.6700159480714074,-4.988207613902568,-2.3327847332713856,-82.24966963263641,5.8421549671924895,118.26011139978887,22.43060149765921,-146.33023406238772,70.92082488038879,154.9924768309009,66.20030907324339,-0.07889501092850004,11.020756959915161
-0.1691236714505858,0.9873244524597895,-0.12637455648430626,2.6700922324318728,-4.988237127777986,-2.332702823521438,-82.2858815920138,5.7204179654468765,118.28209748578757,22.51276904277869,-146.3328715334741,70.92663292808942,154.99217061777713,66.2013576106015,-0.07881699702511735,11.056301832199097
-0.16917723132713341,0.9873480222680611,-0.12642527523049424,2.670038672555325,-4.988213557969715,-2.332753542267626,-82.2395973816819,5.741785576623888,118.30914199298235,22.505812892002723,-146.3303952556548,70.92290273433657,154.99234046788416,66.20066946746113,-0.09764597149246601,11.081763505935669
-0.16916546955399733,0.9873955641992505,-0.12642987061389813,2.670050434328461,-4.988166016038525,-2.33275813765103,-82.23652958533003,5.789684252810983,118.30061855994856,22.465341261146992,-146.33310643404272,70.92357959166847,154.99320501774156,66.20070639414203,-0.1727909308372464,11.093918085098267
-0.16911354706119144,0.9874059800376478,-0.12642637782824823,2.670102356821267,-4.988155600200128,-2.33275464486538,-82.32361098211022,5.805156094579622,118.17447695599704,22.479214218499727,-146.34034376941736,70.92544268354172,154.99404861230593,66.20104781114141,-0.17277914897545,11.116972208023071
-0.1691615016358398,0.9873670391276814,-0.1264445419305046,2.6700544022466186,-4.988194541110094,-2.3327728089676363,-82.2773634457834,5.990571739017378,118.20841316797181,22.294289947281584,-146.334752409821,70.92269916078207,154.9930588992657,66.20062792231445,-0.17273363536706654,11.14362907409668
-0.16915671568988144,0.9873777382498594,-0.12646144127776943,2.6700591881925773,-4.988183841987916,-2.332789708314901,-82.25100544006926,5.909283455857805,118.25211903911536,22.36782199965166,-146.33720856969876,70.92217871966108,154.99347911208338,66.20053673136125,-0.09767760632170752,11.158490657806396
-0.16914943972646368,0.9873545404567137,-0.1264644718827374,2.670066464155995,-4.988207039781062,-2.3327927389198693,-82.26069148685387,5.953044299251719,118.26366607551509,22.307492728638298,-146.33826447066238,70.92200024169794,154.99330915425148,66.20056079907089,-0.06948028622310964,11.197587966918945
-0.169168747814176,0.9873741185068647,-0.12641361145235508,2.6700471560682826,-4.988187461730911,-2.332741878489487,-82.1985872931505,5.7138684355455265,118.3378296027332,22.543386113028923,-146.3307977715172,70.92399603569919,154.99266989758317,66.20080277381128,-0.15868334169262255,11.224940538406372
-0.1692179362948952,0.9873705175795868,-0.1264213757118271,2.6699979675875634,-4.9881910626581885,-2.3327496427489587,-82.16494500779815,5.761971864664394,118.362823462884,22.49800148030739,-146.32445117907653,70.92209352376695,154.99200970352783,66.20044741137556,-0.1446293213630785,11.237160444259644
-0.16914039424875493,0.9873418127980202,-0.12640833810035776,2.6700755096337034,-4.988219767439755,-2.3327366051374896,-82.24645698628235,5.907096902632203,118.2749468795098,22.353758243359437,-146.3339613883887,70.92474526013537,154.99257854109126,66.20101494161332,-0.14922644637216376,11.264175653457642
-0.1692115281544086,0.9873596781001759,-0.1263938174722796,2.67000437572805,-4.988201902137599,-2.3327220845094114,-82.31533076068729,5.852656145054599,118.2511169208644,22.374116936989648,-146.32256408758957,70.92344966217402,154.9916175862933,66.20068260706128,-0.12115459049350719,11.276216745376587
-0.1691636427365605,0.9873360772128055,-0.12643175403584206,2.670052261145898,-4.98822550302497,-2.332760021072974,-82.27463923111469,5.646253936317607,118.30819964642345,22.581711101624588,-146.33282818093647,70.922882392873,154.99245487267885,66.20070708004378,-0.09761469086777641,11.30123496055603
-0.16920950054248507,0.987349958000989,-0.12645247468081208,2.6700064033399733,-4.988211622236786,-2.332780741717944,-82.23198655987156,5.709026996768814,118.31006014584842,22.54529629893825,-146.32842896410747,70.92067444171153,154.99223670045933,66.2002792880321,-0.09766196636746116,11.31345272064209
-0.1691427780364067,0.9873852500410916,-0.1264256620321314,2.6700731258460517,-4.9881763301966835,-2.332753929069263,-82.299956140974,5.757865186327592,118.22603607787323,22.507057553497912,-146.33582822737233,70.92435237192647,154.99334092470474,66.2008753565427,-0.09769181664616511,11.339218616485596
-0.1691324782970297,0.9873699974555981,-0.12645588594317914,2.6700834255854287,-4.988191582782178,-2.332784152980311,-82.29132558642517,5.738278089890808,118.26804722315252,22.50595145087159,-146.3400528786889,70.92309001333561,154.9936552878993,66.20072456512715,-0.12580107287520548,11.377884149551392
-0.16918782107727104,0.9873695387490617,-0.1264532674483189,2.6700280828051874,-4.9881920414887135,-2.332781534485451,-82.2322135260122,5.746523598208505,118.30567037758517,22.510312473263923,-146.33185369038222,70.92151815606691,154.99282129413348,66.20040513177531,-0.11175905874262604,11.402445793151855
-0.16917101989827424,0.9873761911121657,-0.1264339301933001,2.6700448839841844,-4.98818538912561,-2.3327621972304318,-82.23732531218171,5.556394811129504,118.34883929394958,22.67296798969089,-146.33246858025308,70.92300470470165,154.99291470238182,66.20064463060132,-0.11176579029747558,11.41461968421936
-0.16919441446431466,0.9873855796935098,-0.12643914094964195,2.670021489418144,-4.988176000544266,-2.3327674079867737,-82.18472412261957,5.561039654615255,118.38906723468521,22.676470924762896,-146.32973223233793,70.9221534870739,154.992768561397,66.20046430775663,-0.16809653348732567,11.438904047012329
-0.1692125903095926,0.9873844937272529,-0.12645255496355248,2.670003313572866,-4.988177086510523,-2.332780822000684,-82.21934879426664,5.542237639403175,118.37520473132176,22.681294964250466,-146.32841336659445,70.9209627662117,154.99265744161332,66.20025816661905,-0.1681021287083908,11.476682901382446
-0.1692027600580835,0.9873569855992956,-0.12644504996940634,2.670013143824375,-4.98820459463848,-2.332773317006538,-82.22337679751338,5.743558715975801,118.30759591209936,22.517094858968697,-146.32876083415914,70.92130411658273,154.99233684899067,66.20037279697021,-0.16804879267736172,11.515747547149658
-0.16914386555446131,0.9873591301489923,-0.1264254839599816,2.670072038327997,-4.988202450088783,-2.3327537509971132,-82.23340705668991,5.744189491417933,118.30114021761366,22.514963785834972,-146.33533746033183,70.92403536870687,154.99297202906877,66.20087124682554,-0.07887832999452726,11.540330410003662
-0.1691541685572454,0.9873973611217093,-0.1264622181640081,2.670061735325213,-4.988164219116066,-2.33279048520114,-82.2701580144828,5.732744707274924,118.28658796451067,22.513278236010727,-146.33788783167387,70.92243975529995,154.99378902156423,66.20054582144351,-0.1258616108961359,11.575728178024292
-0.1692184605737833,0.9874018574882371,-0.1264409131698787,2.669997443308675,-4.988159722749538,-2.3327691802070105,-82.18157337681296,5.836231363859512,118.31653870599634,22.44349952988246,-146.32665285361506,70.92151935238047,154.9926634077333,66.20030406569661,-0.1259139480324638,11.605889558792114
-0.1691772739477993,0.9873534376873065,-0.12641816180921275,2.670038629934659,-4.988208142550469,-2.3327464288463444,-82.17532017218862,5.81662961272359,118.32235522570795,22.46407746069635,-146.32976471623977,70.92329289109118,154.99232525368924,66.20071941454029,-0.12580808612998773,11.617703437805176
-0.1691783161094781,0.9873886184833098,-0.12645174061221642,2.6700375877729803,-4.988172961754466,-2.3327800076493483,-82.24589195151405,5.953216858476194,118.25552627319297,22.32183680056112,-146.3333009361403,70.92209261622409,154.99319563245024,66.20047309357217,-0.1258631983541676,11.656057357788086
-0.1691179440914809,0.9872803505649972,-0.12636098795178882,2.6700979597909775,-4.988281229672778,-2.3326892549889204,-82.27471964789183,5.50734845325631,118.32746767139038,22.709129906911496,-146.3318403258246,70.9269457914811,154.99149349939734,66.20149099790733,-0.12565585404407287,11.683420896530151
-0.1691363085471763,0.987412701575439,-0.12644732506256465,2.6700795953352823,-4.9881488786623365,-2.332775592099696,-82.31609125173529,5.57595261329743,118.28428090505668,22.644933716760864,-146.3391918032067,70.92384899939205,154.99406903329896,66.20075983252906,-0.12588214348188664,11.696095943450928
-0.16916826494872983,0.9873784817824764,-0.12645281592571375,2.670047638933729,-4.988183098455299,-2.3327810829628457,-82.28716205682734,5.915881717442808,118.24065525090053,22.342170197899566,-146.33472394485986,70.9222359034831,154.9932171032217,66.20052735034456,-0.14460555927095164,11.722184658050537
-0.1692453857987616,0.9873676875196837,-0.1264482752256234,2.669970518083697,-4.988193892718092,-2.332776542262755,-82.26819910155906,5.98222473477433,118.22268590952326,22.29608427361501,-146.32308997219963,70.91997296799964,154.9919074936134,66.20008902851063,-0.14463393833579374,11.735092878341675
-0.16916660793090682,0.9873810279690456,-0.12644880803036576,2.670049295951552,-4.98818055226873,-2.3327770750674977,-82.21179846382493,5.835226091178231,118.30846061841373,22.43128619564528,-146.33460378311943,70.92250136841635,154.99322591348215,66.20056578395103,-0.14461014972127195,11.760073184967041
-0.16923514068461415,0.9873827409479952,-0.12642602764664365,2.6699807631978443,-4.98817883928978,-2.3327542946837756,-82.2209334921948,5.63260127145267,118.32675215799395,22.618056418559263,-146.32258351471998,70.92148880268297,154.99198379755478,66.2003087242416,-0.14466043595905997,11.772513628005981
-0.16915979734422054,0.9873735940451218,-0.12644369467120758,2.670056106538238,-4.988187986192654,-2.3327719617083393,-82.22427273712225,5.612252338647463,118.3320706953446,22.637370900931497,-146.33499439812027,70.92286388400979,154.99316109661422,66.2006440247964,-0.14459401735152078,11.799505472183228
-0.1691142562393945,0.9874225056319994,-0.12644820130643153,2.670101647643064,-4.988139074605776,-2.3327764683435634,-82.27402707313956,5.6475430333987315,118.26597240735697,22.614816583735397,-146.34255998586974,70.92459058932768,154.99452862784077,66.20088783156078,-0.06958506555596955,11.81995177268982
-0.16915115300357153,0.9873993772977459,-0.12646752042650797,2.670064750878887,-4.98816220294003,-2.3327957874636396,-82.30927012726612,5.752214164856706,118.24153368840022,22.4977919151447,-146.33885927489513,70.92230764879154,154.99392461045895,66.20052652163261,-0.3135327556296392,11.85609745979309
-0.16918043117930737,0.9874008398214509,-0.12643871117288755,2.6700354727031512,-4.988160740416324,-2.332766978210019,-82.24102559122667,5.815233917962089,118.27092736088944,22.4568538487815,-146.33188193234574,70.92277085125899,154.99316942528685,66.2005520260303,0.11808210186799517,11.883540868759155
-0.1691740862676949,0.9874034991302125,-0.12645434114132625,2.670041817614764,-4.988158081107563,-2.332782608178458,-82.24544751951788,5.857299812271048,118.25673759161019,22.4214662794434,-146.3343408984637,70.92226713877189,154.99348839772114,66.20047975401249,0.11808516568804439,11.895246267318726
-0.1692224369367917,0.9874298714390972,-0.12648104042200306,2.669993466945667,-4.9881317087986785,-2.3328093074591347,-82.20871097739872,5.771545319724905,118.29003807790482,22.513136145488897,-146.33031618296047,70.91984498903655,154.99347570924917,66.19999370421579,0.11801551825241674,11.935791015625
-0.16909800863529978,0.9873584752951263,-0.12644953095088798,2.6701178952471585,-4.988203104942649,-2.3327777979880198,-82.32410647656356,5.853382603139147,118.23039290125058,22.390606758315492,-146.3442422366635,70.92430836114976,154.99391792875244,66.20098075341451,0.019683641809065122,11.964160442352295
-0.1691089087102906,0.9873779346131477,-0.12642415034726948,2.670106995172168,-4.988183645624628,-2.3327524173844014,-82.30699600844744,5.814561288294565,118.23702594031697,22.436386542695995,-146.340452379068,70.92537421698383,154.9937109766271,66.20109331034038,0.1322379083267533,11.976856708526611
-0.16916635000263636,0.9874052650621401,-0.12640134294910374,2.670049553879822,-4.988156315175635,-2.3327296099862354,-82.29305386278588,5.723041362414867,118.2030434534137,22.562125968422023,-146.33032993762455,70.92498819895788,154.99297228976897,66.20090295406474,-0.17281615824921026,12.002468824386597
-0.16915515461086772,0.9873767208727868,-0.12645917334406437,2.670060749271591,-4.9881848593649885,-2.332787440381196,-82.27794127330553,5.533232605394504,118.29232753698749,22.710980065666035,-146.3372001413323,70.9223204608188,154.99346002101623,66.2005624070941,-0.0742164623742001,12.016812086105347
-0.16916946053007537,0.9872968511584028,-0.12636516026029754,2.670046443352383,-4.988264729079373,-2.3326934272974293,-82.31190704036707,5.714089212012484,118.26330744186333,22.51143701317534,-146.32505384812782,70.92536395133185,154.99102588771817,66.20114592933102,-0.07410596181473572,12.056106805801392
-0.16914681290737127,0.9873733522003976,-0.12642118790160434,2.6700690909750873,-4.988188228037378,-2.332749454938736,-82.32058848083669,5.627422356577973,118.2565858994631,22.605548550811395,-146.33467067076785,70.92430430519278,154.9930680354773,66.20088303360819,-0.008530312738701085,12.081376552581787
-0.1691523011808036,0.9874094926037376,-0.1264504211918086,2.6700636027016547,-4.988152087634038,-2.3327786882289403,-82.33101134066392,5.795911934108243,118.18148036229826,22.478608881418463,-146.3371586952443,70.92318117927248,154.99383400616986,66.20064033847773,-0.008590942422593173,12.111961603164673
-0.1691865158840934,0.9873428016437613,-0.1264023373314909,2.670029387998365,-4.988218778594014,-2.3327306043686225,-82.34345609053341,5.563014951494616,118.25534250135554,22.65392786703696,-146.32677391085767,70.92362798536367,154.9918550230907,66.200775755481,-0.24309248218684232,12.13638162612915
-0.16923952359614486,0.9873683010532535,-0.1264507642965741,2.6699763802863137,-4.988193279184522,-2.332779031333706,-82.27115980070387,5.744826392851601,118.2757341316079,22.503269901030425,-146.32417973086726,70.92004297996907,154.99203059615132,66.20010714624524,-0.10240502343918934,12.161385774612427
-0.1692047595955713,0.9873700064420017,-0.1264689525437274,2.670011144286887,-4.988191573795774,-2.332797219580859,-82.2611991844652,5.860516656678869,118.25732902738778,22.405988908900454,-146.3309514109495,70.92027691972176,154.9927767448358,66.20019035976793,-0.10238243286281978,12.17632532119751
-0.16920663302392494,0.9874027850884874,-0.12645987124889874,2.6700092708585337,-4.988158795149288,-2.3327881382860305,-82.23759853063878,5.673325261316875,118.31385404952564,22.576616308835156,-146.33020004918936,70.92100885094828,154.99307881234714,66.2002417542529,-0.13528729499151915,12.216111421585083
-0.16916018056203694,0.9874321212914898,-0.12649275431852477,2.6700557233204214,-4.988129458946286,-2.3328210213556564,-82.25038721802119,5.948008016403257,118.2440988625444,22.33606979122178,-146.34040981399335,70.92122463913897,154.99454490359514,66.2002907448139,0.04767567918134841,12.245050191879272
-0.16918487481517547,0.9873797240705313,-0.1264332863271329,2.670031029067283,-4.988181856167245,-2.3327615533642647,-82.2499534822362,5.8851349497310395,118.24933475568278,22.392543595620836,-146.3304614483194,70.9226514199738,154.9927550861707,66.20056440092523,0.04773949352655027,12.257057905197144
-0.16909459642764219,0.9873613130572483,-0.1264377080212734,2.6701213074548162,-4.9882002671805274,-2.3327659750584053,-82.3341571590318,5.695825307909136,118.25626542674038,22.528056880907915,-146.34361942061088,70.9249942398163,154.99385988993015,66.20108534250885,0.047828146447493225,12.282090425491333
-0.16915352495708705,0.9873605295166497,-0.12643517911786603,2.6700623789253712,-4.988201050721126,-2.3327634461549978,-82.2955476889488,5.704505370912951,118.25477713996376,22.545229190076558,-146.33490929405014,70.92330527567138,154.99297106702883,66.2007433906254,-0.13518578374522683,12.294145345687866
-0.16914005171008917,0.9873727369303,-0.1264234567371571,2.6700758521723693,-4.9881888433074755,-2.332751723774289,-82.24784212792208,5.729828881612413,118.27579426521899,22.53782212453467,-146.33585336636762,70.92439820963354,154.9931848434499,66.20090826412721,-0.11643517942447712,12.311706066131592
-0.1691663715851485,0.9873767751854148,-0.12644846794340708,2.67004953229731,-4.988184805052361,-2.3327767349805386,-82.26903819974072,5.966443828211002,118.21323753212357,22.321997593029923,-146.33455301438087,70.92247683181857,154.993167973295,66.20056984736893,-0.14929454663107933,12.336118698120117
-0.16923638201251429,0.9873964060220803,-0.12642961511147932,2.6699795218699443,-4.988165174215695,-2.332757882148611,-82.23396308741795,6.052179455978163,118.2237315904139,22.24632808631798,-146.3229197586495,70.92143692428381,154.99219368919472,66.20027502441836,-0.14937684577389287,12.362409591674805
-0.16915946375332047,0.9873781769157788,-0.1264300441552727,2.670056440129138,-4.9881834033219965,-2.3327583111924044,-82.26998922701391,6.019449661281008,118.19760773557714,22.276401405765863,-146.33377363962066,70.92356029068503,154.99305979773106,66.20074269141557,-0.14929760440435214,12.374370813369751
-0.16911989026931692,0.9873717466668206,-0.12643026473010055,2.6700960136131417,-4.988189833570955,-2.332758531767232,-82.26051174321017,5.802748101437596,118.25204286350522,22.471195779289523,-146.33939463125532,70.92468555280003,154.99354503267386,66.20098315399422,-0.14926212392795968,12.39725399017334
-0.16919012590143662,0.9873762288597094,-0.12642516678734858,2.6700257779810217,-4.988185351378066,-2.33275343382448,-82.25213992788342,5.904187598987063,118.22826194800533,22.38543957606515,-146.32887782329968,70.92282977462517,154.99253286607447,66.20059010563726,0.15565114420429982,12.419974088668823
-0.16923606872651653,0.9873727008457867,-0.12644773888916327,2.669979835155942,-4.988188879391989,-2.332776005926295,-82.2440018855858,6.021880728078172,118.2035229474675,22.286237950097405,-146.32443519628987,70.92033835092741,154.99210223393777,66.20014950061274,0.0008069554140508473,12.431271314620972
-0.1691228831486875,0.9874106505632279,-0.12645824129717007,2.670093020733771,-4.988150929674548,-2.332786508334302,-82.31663100478849,5.785618566717288,118.18506154665235,22.498833887278458,-146.3421520614911,70.92372779444861,154.99436858619086,66.20076448044391,-0.01326533202538549,12.456166982650757
-0.1690004104850228,0.9874707306229626,-0.12639523015747922,2.6702154933974356,-4.988090849614813,-2.332723497194611,-82.51519522643645,5.400077889708918,118.11828424053577,22.806676496764748,-146.35434604391736,70.93106639461884,154.99616298542162,66.20195667844472,-0.13060907627642315,12.480499505996704
-0.16921600957776708,0.9873871585605534,-0.12643858887565806,2.6699998943046914,-4.988174421677222,-2.33276685591279,-82.28511052079378,5.909764547646856,118.19636006504984,22.378795766793868,-146.32660018888512,70.92153784018153,154.9924725298775,66.20033624257046,-0.13057830918495217,12.516951322555542
-0.16913459127345312,0.9873879564774892,-0.12645649993568858,2.6700813126090055,-4.988173623760286,-2.3327847669728206,-82.2495016497803,5.570398700549835,118.31493525429441,22.677176931984942,-146.3400275291092,70.9231978433745,154.99387383557138,66.20070642870331,-0.16806022905202944,12.539679527282715
-0.16917104335262576,0.9873872602691416,-0.12642715593018833,2.6700448605298326,-4.988174319968634,-2.33275542296732,-82.24982008566963,5.592278870125034,118.29618406130254,22.664035830122934,-146.3319424502528,70.92344292623477,154.99297992201164,66.2006920140194,0.01958220578079306,12.551194667816162
-0.16914549832005712,0.987422770956006,-0.12646822267104457,2.6700704055624014,-4.98813880928177,-2.3327964897081763,-82.28984654915816,5.92514741391747,118.19132729028222,22.36820537328035,-146.34002289609944,70.92270913643327,154.9943289648031,66.20055493787076,0.019544472369806165,12.574820518493652
-0.16920556254612948,0.9873917293984618,-0.1264477855498995,2.670010341336329,-4.988169850839314,-2.332776052587031,-82.25615953730362,5.626681075615922,118.3035498508868,22.61839547671953,-146.32904668093997,70.92147999352335,154.9927971394988,66.20033458040828,-0.11181096189716921,12.59881591796875
-0.16912758580856901,0.9873623938266674,-0.12641450654049563,2.6700883180738892,-4.988199186411109,-2.3327427735776274,-82.25688475888442,5.886458000693343,118.26559915296154,22.375521229155936,-146.33664781347318,70.92507926410485,154.99311509588634,66.20104841137758,-0.12110347622749007,12.641613245010376
-0.1691387548910838,0.987383331341199,-0.12638665167105462,2.670077148991375,-4.988178248896577,-2.3327149187081866,-82.27859094912786,5.526254328237225,118.30562422531793,22.703831682272394,-146.3325968376072,70.92626835834896,154.9928937390166,66.20117680849934,-0.1493054494005257,12.656399250030518
-0.16912153390641485,0.9874434425819936,-0.12646283500464456,2.6700943699760438,-4.988118137655782,-2.332791102041776,-82.33848875814729,5.664866506351616,118.19574186413311,22.601746713554657,-146.34318972177297,70.92392195857622,154.99488517284684,66.2007385294718,-0.14938332794692322,12.671462297439575
-0.16913926039041458,0.9873751053334936,-0.12640112718039984,2.670076643492044,-4.988186474904282,-2.3327293942175316,-82.34213613081472,5.711213711391022,118.22572378602223,22.52391128683795,-146.33382898953133,70.92548756761828,154.99295373724652,66.20107141385951,-0.14928730002597934,12.698328971862793
-0.16914353496859547,0.987340627799997,-0.1264314641456288,2.670072368913863,-4.9882209524377785,-2.3327597311827604,-82.31580292059357,5.634184046224489,118.28164743880687,22.584596537514255,-146.3357402236113,70.92356033247464,154.9928015620516,66.2008317348414,-0.14922029868479214,12.737247228622437
-0.16918485008371642,0.9873564681096278,-0.12642111001785997,2.670031053798742,-4.988205112128147,-2.332749377054992,-82.29847526549624,5.596762425180865,118.30033034264085,22.620224951897985,-146.32900082586212,70.92295845079188,154.99229328256112,66.2006520737275,-0.060132544347553996,12.784343242645264
-0.16915003549997798,0.9873763501461443,-0.1264566566663652,2.6700658683824803,-4.988185230091631,-2.332784923703497,-82.26374760359495,5.754915659157811,118.28961418451892,22.492308779995593,-146.3376859056563,70.92258956913267,154.99349771966456,66.20061154881911,-0.060138071546037786,12.79908013343811
-0.16912585031267588,0.9873863616598519,-0.1264555001091688,2.6700900535697825,-4.988175218577924,-2.3327837671463008,-82.25429048822494,5.772006771595651,118.2818836356987,22.487843675215352,-146.341165271855,70.92349317646806,154.99396578790768,66.20076698949968,-0.060141714639792454,12.813721418380737
-0.16913894926712855,0.9873747406911673,-0.1264493863241649,2.67007695461533,-4.988186839546608,-2.3327776533612967,-82.26929991167404,5.777046315668925,118.25684061841666,22.488763996451524,-146.33855153824416,70.92324801793845,154.99354616175214,66.20073092590543,-0.15396570650463826,12.83836555480957
-0.16911624085230956,0.9873518064273599,-0.12638110091223848,2.670099663030149,-4.988209773810416,-2.3327093679493704,-82.39450353182703,5.791509187142098,118.16199807225901,22.447939224872073,-146.33490549322795,70.92686106891641,154.99272551260435,66.20135523751205,-0.15392835386638382,12.89344310760498
-0.16915750124784742,0.9873755925567802,-0.12644922398721686,2.670058402634611,-4.988185987680995,-2.332777491024349,-82.32257627459818,5.862685240816264,118.2138874226227,22.391473465279287,-146.33588455083256,70.9226990754558,154.9932888946176,66.20061872080241,-0.15397847737780435,12.918293237686157
-0.1692161929984071,0.9874020488836095,-0.1264700204155454,2.6699997108840514,-4.988159531354166,-2.332798287452677,-82.23747431147247,5.902496962015241,118.2735819363121,22.367443553456432,-146.32980451885916,70.92023683525743,154.99305615310612,66.20011138707264,0.13683323276370807,12.9331214427948
-0.169044288959748,0.9873898161020114,-0.12641660680573222,2.6701716149227104,-4.988171764135764,-2.3327448738428638,-82.4682077570732,5.641070761644443,118.1461493186093,22.568577050735634,-146.34913843522483,70.92782920649348,154.99470708073787,66.20154094362402,0.13694528961255514,12.965422630310059
-0.16915915941142723,0.9873791923120223,-0.12642879058759868,2.6700567444710313,-4.988182387925753,-2.3327570576247303,-82.38695087663521,5.700995804608641,118.18627220566718,22.531826932470725,-146.33370792884998,70.9236392611046,154.99306242048152,66.2007533955431,0.13689810028462368,12.977783203125
-0.16919772839056643,0.9873881367450137,-0.12645181615304485,2.670018175491892,-4.988173443492762,-2.3327800831901766,-82.2751700638997,5.724363242452438,118.26302789671254,22.532731608747202,-146.3305177597977,70.92149138895657,154.99291099693167,66.20035400950485,0.0852551512144224,13.016990423202515
-0.16915465249883563,0.9874104415577378,-0.12647542749459778,2.670061251383623,-4.9881511386800375,-2.3328036945317296,-82.27297650985452,5.720456053100359,118.26873034242641,22.53784831063859,-146.33925873183992,70.92195681187162,154.9941201431587,66.20044850544942,-0.08834773810195529,13.05586314201355
-0.16918651555756775,0.9873741967049081,-0.1264557381551455,2.670029388324891,-4.988187383532868,-2.332784005192277,-82.22450342434585,5.839207140465206,118.28766288090446,22.432569583831583,-146.33233729335774,70.92149515969281,154.99293302070274,66.20039534932971,-0.08830703187721767,13.083483219146729
-0.16920907925351555,0.98739198583614,-0.12645131699974138,2.670006824628943,-4.9881695944016355,-2.332779584036873,-82.20768022621239,6.049466824727195,118.25648251461239,22.247160503564103,-146.32888792046293,70.92121129945161,154.9927934091104,66.20028803166234,-0.08835368373340913,13.09832501411438
-0.16918299815767107,0.9874008220396304,-0.12645190778380067,2.6700329057247876,-4.988160758198145,-2.3327801748209325,-82.20431225128263,5.976998634337649,118.27833460791426,22.310430668207186,-146.3327938311097,70.92207848604157,154.99329439627326,66.20044271555811,-0.0883536262923208,13.110815525054932
-0.16915055810452434,0.9874185077875146,-0.12647722547049,2.670065345777934,-4.988143072450261,-2.332805492507622,-82.19868361147167,5.60983177554213,118.39206431601251,22.61811426329696,-146.3401185187394,70.92208828800636,154.9943095118885,66.20046036343025,0.010167686580329516,13.149174213409424
-0.16916993196594937,0.9873614541144906,-0.12646691590021053,2.670045971916509,-4.988200126123285,-2.332795182937342,-82.25489347377727,5.796185143086381,118.28105873332416,22.461681260489428,-146.33564580563845,70.92133866667763,154.99313748683687,66.20041795523203,-0.18210666422801403,13.17905855178833
-0.16910559151957333,0.9873312109423218,-0.12636639563683078,2.670110312362885,-4.9882303692954535,-2.3326946626739624,-82.33792820498081,5.690820400654541,118.2572510926557,22.5242056715975,-146.3347561944035,70.9276398786066,154.99242113859955,66.20152561762232,0.019706667218483354,13.191340446472168
-0.16908120623178616,0.9873274001104659,-0.12635905448208434,2.6701346976506724,-4.98823418012731,-2.332687321519216,-82.37177443599607,5.656552816810013,118.17596463084135,22.59450899145249,-146.33749710121276,70.9286828879817,154.99263032436014,66.20172683315161,-0.167944363820558,13.217815399169922
-0.16918580704336467,0.9873672391016561,-0.126404544560206,2.6700300968390938,-4.988194341136119,-2.332732811597338,-82.37966235754104,5.734192878346643,118.16750454302921,22.513127345261292,-146.32738692600083,70.92382026747612,154.99222078555124,66.20076323905232,-0.2149847461309511,13.23255705833435
-0.16911212207995868,0.9873681712447404,-0.12645747861075293,2.6701037818024997,-4.988193408993035,-2.3327857456478847,-82.29869868845661,5.844219476768179,118.24217882140444,22.409948036497067,-146.34310591083533,70.92361649383099,154.99394297155098,66.2008376879808,-0.23369573305931723,13.25186276435852
-0.1690940581096314,0.9873381468965532,-0.12641174286686035,2.6701218457728273,-4.988223433341222,-2.332740009903992,-82.28748668577327,5.701642414291347,118.27234420832332,22.542094039022235,-146.34089612863866,70.92595964767075,154.99323727944943,66.20127398263335,-0.18203318375406408,13.274795770645142
-0.1691193331235586,0.9873675089602896,-0.12642843299107864,2.6700965707588997,-4.988194071277486,-2.3327567000282103,-82.30240131848997,5.697084921838828,118.2729333605102,22.53595828490208,-146.33924544477247,70.92474036018612,154.99347358372145,66.20099975981981,-0.1117204214101708,13.298998355865479
-0.16913752852966404,0.9873447109065174,-0.1264076371604185,2.6700783753527944,-4.988216869331258,-2.33273590419755,-82.36784049304416,5.785935903175021,118.2064404402054,22.441887761418034,-146.33433976717228,70.92489768939821,154.99265008545078,66.20103727870439,-0.11169585474377275,13.310894966125488
-0.16915700508734718,0.9873810320359726,-0.12644959977263118,2.6700588987951113,-4.988180548201803,-2.3327778668097627,-82.31235937631766,5.75068165425596,118.22940285730165,22.50428402449102,-146.33605831063642,70.9227575677583,154.99337375491584,66.20061882041607,-0.11645359745380812,13.3374605178833
-0.16914981171360213,0.9873901644358818,-0.12643915568247027,2.6700660921688564,-4.988171415801894,-2.332767422719602,-82.33140376067765,5.948092176348741,118.18302511676137,22.31814876885421,-146.33618799083504,70.92356502530197,154.99347161865134,66.20073641595212,-0.11646830116778606,13.37439775466919
-0.1690971258371513,0.9873899531640753,-0.1264691202439575,2.6701187780453073,-4.9881716270737,-2.332797387281089,-82.33006567729608,5.752820917427534,118.22614580261987,22.495594001831485,-146.34665164062602,70.92377590797773,154.99459435556432,66.2008456228099,-0.2196474740855896,13.40517783164978
-0.1691468413606758,0.9873304454142751,-0.12638976878515373,2.6700690625217827,-4.988231134823501,-2.3327180358222854,-82.38361811072227,5.744959318830572,118.20361284703216,22.47349016060548,-146.33109608751806,70.92528522436362,154.99210493840542,66.20110786489887,0.005613837152322887,13.416453838348389
-0.16917433112304023,0.9873556757605653,-0.12642184342952667,2.6700415727594184,-4.98820590447721,-2.3327501104666584,-82.36145754177288,5.725428472027017,118.20556766461878,22.50961052362799,-146.33057143319843,70.92323646092201,154.99244287399583,66.20071116014408,-0.2571784934544068,13.431171894073486
-0.16909119068608253,0.9873861053297717,-0.1264714114936764,2.670124713196376,-4.988175474908004,-2.332799678530808,-82.37501624370157,5.6969039967743536,118.23186465475627,22.51770770636986,-146.34767871127562,70.92380731853306,154.99465611390156,66.20086580410009,-0.1492600090426386,13.454426765441895
-0.16920621281789083,0.9874113770297934,-0.1264577530288371,2.6700096910645676,-4.988150203207982,-2.332786020065969,-82.25469809206767,5.783853819691049,118.28522259788002,22.46975913300583,-146.33015924071128,70.92121631162762,154.9931743127916,66.20025893179381,-0.1493782675612838,13.491403818130493
-0.16920177749273746,0.9873857742200687,-0.12645848984122676,2.670014126389721,-4.988175806017707,-2.3327867568783587,-82.24188676554903,5.9502636294939215,118.26411523562396,22.321105410030217,-146.33055572268353,70.92103098242671,154.99290301383343,66.20028204151959,-0.24316437309020955,13.516865968704224
-0.16921822772129458,0.9874028773673202,-0.12645105378275123,2.669997676161164,-4.9881587028704555,-2.332779320819883,-82.25506305733185,5.753428397938481,118.2784233871691,22.50502715707446,-146.32768257564814,70.92106620774307,154.9928050378295,66.20023348932477,-0.158755199728156,13.530059576034546
-0.16920382278666815,0.9874037745930837,-0.1264435175603012,2.6700120810957904,-4.988157805644692,-2.332771784597433,-82.23900918631972,5.781772205006655,118.29952285815581,22.47198275066592,-146.3290284793059,70.92186634219308,154.99293161478764,66.2003749032843,-0.15875003872238214,13.557443141937256
-0.16918077687597308,0.9873730097180256,-0.12638350340880525,2.6700351270064853,-4.98818857051975,-2.332711770445937,-82.26114088791519,5.720891217884081,118.26315944880061,22.542145032459068,-146.32613670368033,70.92501703573174,154.99211217147624,66.20094297303508,-0.15869632463039807,13.570106506347656
-0.16917517410961902,0.9873337499753776,-0.12639167438808102,2.6700407297728397,-4.988227830262398,-2.332719941425213,-82.34359945308034,5.491091026080217,118.28135893367583,22.709686021866432,-146.32725616375126,70.92436888209832,154.99176542574364,66.20092112538117,-0.15862045828511384,13.596413373947144
-0.16912254164376403,0.9873620793517477,-0.12641223240510985,2.6700933622386946,-4.988199500886028,-2.3327404994422416,-82.28853377323132,5.483834670602141,118.31012404962546,22.740010849293583,-146.3371470828298,70.92533543607865,154.99315545229553,66.20109537151268,-0.15863420891030877,13.611593961715698
-0.16914494813691028,0.9873782092148409,-0.1264380630367058,2.6700709557455484,-4.988183371022934,-2.3327663300738375,-82.30241843774549,5.860582428977549,118.22512587575643,22.39981559720779,-146.3366344842028,70.92363053944986,154.9933674329688,66.20077445652836,-0.15867004660711004,13.63675594329834
-0.16910651770100074,0.9873954595897985,-0.12641925622368608,2.6701093861814575,-4.988166120647977,-2.3327475232608177,-82.39686979462894,5.551334169335174,118.1882658092165,22.680739415830068,-146.3405336580394,70.92587079093717,154.99392078425967,66.20114178710303,-0.12114882557103712,13.6622793674469
-0.16912342093982047,0.987413351636353,-0.12642602905127812,2.6700924829426382,-4.988148228601423,-2.33275429608841,-82.34257558959531,5.541843733453011,118.22639291331278,22.702119249318798,-146.33898277688127,70.92524010279192,154.99400144922575,66.20098961810609,-0.02735402384445429,13.674319744110107
-0.16923623988898373,0.98739735126762,-0.12648182798403068,2.669979663993475,-4.988164228970156,-2.3328100950211623,-82.26414011782953,6.0197204656832835,118.22574719206928,22.2607096334904,-146.32801777589344,70.91902334725417,154.99284985739286,66.19990539051567,-0.09306397397938682,13.699421167373657
-0.16921906322845703,0.9873817403780147,-0.12647115868193515,2.6699968406540013,-4.988179839859761,-2.3327994257190667,-82.26697029921112,6.01544452534906,118.20864422289337,22.27525474240183,-146.329256417641,70.91986909099394,154.99275591617257,66.20008676740349,-0.09302834247794145,13.712079524993896
-0.16905440241886666,0.9874484656136133,-0.1263514443626518,2.6701615014635918,-4.988113114624162,-2.3326797113997837,-82.44988689779944,5.483538552639573,118.13927565991243,22.74616045268783,-146.3420773208956,70.93120785088892,154.99454950565,66.20193867099215,-0.09307920080231646,13.739989280700684
-0.1691386655048398,0.9873525766155111,-0.12643819629696929,2.6700772383776186,-4.988209003622265,-2.332766463334101,-82.41944197377724,5.535980835545142,118.15771595983881,22.702252289293508,-146.3372372833033,70.92352935246137,154.99311487436003,66.2008131315984,-0.0929359421641065,13.752202272415161
-0.16901189566864788,0.9874324516664119,-0.12638065183175487,2.6702040082138105,-4.988129128571364,-2.3327089188688865,-82.52856735384988,5.4789172826508885,118.08375323031993,22.738044131495247,-146.35081802579185,70.93096661210353,154.99530422662363,66.20199183316416,-0.09301734828449071,13.770390510559082
-0.16910413581714592,0.9873958734931974,-0.1264235587049551,2.6701117680653126,-4.988165706744578,-2.3327518257420867,-82.37524855526671,5.600311047148166,118.17617069242905,22.65436343113905,-146.3412978809007,70.92574793181475,154.99401344738664,66.20112578818537,-0.041386953632143175,13.799230337142944
-0.16914223272713375,0.9873833443993374,-0.12644540676453014,2.6700736711553246,-4.988178235838438,-2.332773673801662,-82.31284627971912,5.684500736868142,118.22073904780682,22.579377802620584,-146.3377989832201,70.92342918811099,154.99356570909674,66.2007386875967,-0.1821346922210445,13.813579797744751
-0.16912238664324453,0.9873352296144744,-0.12642642927047335,2.6700935172392137,-4.988226350623301,-2.332754696307605,-82.35152049633135,5.849876530439426,118.20413979669127,22.39066064548902,-146.33822049742056,70.92437944752562,154.99297120437646,66.20099689362347,-0.12574018145250143,13.837803363800049
-0.16913632278995835,0.9873211310045529,-0.1264259006408583,2.6700795810925,-4.988240449233222,-2.33275416767799,-82.37106398438219,5.759807619151517,118.23238242599118,22.449274837341303,-146.33599815995387,70.92382116092706,154.9925748530283,66.2009162067335,-0.27116832315204586,13.877304315567017
-0.16914128017011337,0.9873895313117942,-0.1264601615305147,2.670074623712345,-4.988172048925981,-2.3327884285676466,-82.37743607151839,5.8620040621729625,118.19883304318996,22.3650679330087,-146.33944218639192,70.92284105684764,154.99384381577033,66.20063951675404,-0.1586824758655041,13.89262318611145
-0.16920800344666242,0.9874145791727513,-0.12644943738574158,2.670007900435796,-4.988147001065024,-2.3327777044228735,-82.34563423963611,5.935565938148061,118.16179876913256,22.33461145889141,-146.32913450839524,70.92158427806777,154.9930894532979,66.20030683952174,-0.16346249777500965,13.929998397827148
-0.16910210323004,0.9873691008544396,-0.12641261739223916,2.6701138006524183,-4.988192479383336,-2.332740884429371,-82.39737098799853,5.862978329157589,118.16968667302747,22.36887453668697,-146.3402025878823,70.92601960337029,154.9935484068914,66.20121713537387,-0.2665449923216583,13.954145431518555
-0.16917670325871073,0.9873855547393782,-0.12647340381804384,2.670039200623748,-4.988176025498397,-2.3328016708551758,-82.32712378912578,5.513679399111765,118.28350910031148,22.702438984435993,-146.33559670567354,70.92109985423319,154.99344376385875,66.20032939047601,-0.2666039792210997,13.978713989257812
-0.16913119805367557,0.9873803730780668,-0.12646319234233114,2.670084705828783,-4.988181207159709,-2.3327914593794628,-82.29052053529456,5.452938241194162,118.32242193124756,22.76524303353782,-146.34107145168807,70.92290522366406,154.99390290616392,66.20068004009225,-0.10705015291870534,13.991167545318604
-0.1691202462473402,0.9873868392039751,-0.12641848654199278,2.6700956576351182,-4.9881747410338,-2.3327467535791246,-82.39280878774609,5.625912681976063,118.23143996035981,22.574163929436526,-146.33838438254867,70.92539137525668,154.99359808197767,66.2010638138872,-0.10706657638110251,14.014522790908813
-0.16919714707519873,0.9873676117165795,-0.1264514913989213,2.6700187568072598,-4.9881939685211965,-2.332779758436053,-82.29964420882261,5.829824776852378,118.2495388379019,22.41498721388054,-146.33032015527274,70.92129463714262,154.99263949730263,66.20036086265144,-0.10707008895705084,14.038005113601685
-0.16916353154793548,0.9873801491168632,-0.12644052427932687,2.670052372334523,-4.988181431120912,-2.3327687913164588,-82.26678431785776,5.781481169825162,118.2736936142265,22.472238995481344,-146.33423075621442,70.92297074418808,154.99315656730468,66.20064339176132,-0.10707507653521109,14.04996633529663
-0.16923905166662018,0.9873941677893698,-0.12645263511469615,2.6699768522158385,-4.988167412448406,-2.332780902151828,-82.2500580479996,5.708424974594514,118.30309470913123,22.536947716147814,-146.32474340357868,70.92025974970021,154.99240802236605,66.2000954974705,-0.10714271498714556,14.077367305755615
-0.1692077555082943,0.9873705684572338,-0.12646433920037525,2.6700081483741642,-4.9881910117805415,-2.332792606237507,-82.23096286764765,5.867413811867804,118.27797477929383,22.405243994719974,-146.33008092851884,70.92040638224057,154.99268455378512,66.20020476521174,-0.18214650497185314,14.113479614257812
-0.1692001277546464,0.9873753767501312,-0.12644839983960293,2.670015776127812,-4.988186203487644,-2.3327766668767347,-82.25013159211923,5.9026108201110326,118.26054599138946,22.36661300832874,-146.32968702101724,70.92143435161941,154.99266303175355,66.20036421376957,-0.18215459946135226,14.136302947998047
-0.1691889478657152,0.9873793301488321,-0.12647119191609993,2.670026956016743,-4.9881822500889434,-2.3327994589532315,-82.23284238446139,5.789252219346947,118.29033291555028,22.477660683794355,-146.33355001795198,70.92075951353692,154.9931568907505,66.2002705966002,-0.1821491033150089,14.172276735305786
-0.16921115225228153,0.987355623802231,-0.12645091059884647,2.670004751630177,-4.988205956435545,-2.3327791776359783,-82.22856300678346,5.714495311929185,118.31997829050033,22.53478908669376,-146.3281091464684,70.92076017897591,154.9922698904681,66.20028002113239,0.038387668948001163,14.196682929992676
-0.16915350829923237,0.9872948045335759,-0.1263538851733001,2.670062395583226,-4.9882667757042,-2.332682152210432,-82.42431677393965,5.695248490447243,118.15093238539974,22.53088970253228,-146.32622320279657,70.92635245317248,154.99108920006532,66.20132346325659,-0.08817082544369903,14.234213829040527
-0.16913294003941803,0.9873990018535259,-0.12641828815578574,2.6700829638430403,-4.98816257838425,-2.3327465551929176,-82.38188796986933,5.851870887643968,118.16726131116124,22.392575808478803,-146.33669148858417,70.92514932531094,154.99357661944947,66.20098709714237,-0.08832874198056917,14.26162838935852
-0.1692165482454403,0.9873662976929987,-0.12638189655317045,2.6699993556370183,-4.988195282544777,-2.3327101635903023,-82.28069327637544,5.940511414239885,118.21334053794315,22.333727565405894,-146.32076747711736,70.92392493667329,154.99148793215844,66.20073620178067,-0.08832990630427417,14.273564577102661
-0.16922550657189242,0.987335463035133,-0.1263791918069869,2.669990397310566,-4.988226117202642,-2.332707458844119,-82.31096980356168,5.944021394118744,118.21651833225962,22.305368254793883,-146.31884491356504,70.9234324013512,154.9909114759926,66.20070216639392,-0.24310879466931823,14.302600383758545
-0.1691858963420231,0.9873647831649683,-0.12642979061983387,2.6700300075404355,-4.988196797072807,-2.3327580576569655,-82.28145284347013,5.940173032741741,118.24331836487228,22.316674489122722,-146.32979414165047,70.92261574311911,154.9924966402267,66.200583689468,-0.1774401742786731,14.314720630645752
-0.16914738230621124,0.9873624677750745,-0.12644504503981865,2.670068521576247,-4.988199112462701,-2.3327733120769505,-82.29355210192713,5.535003262336449,118.30989701484609,22.684506807344118,-146.33677132985875,70.92305541871588,154.99320663152966,66.20071081588264,-0.1445662263228762,14.353761196136475
-0.1691506398925694,0.9873703845833588,-0.12643080902918147,2.670065263989889,-4.988191195654417,-2.332759076066313,-82.34531519266758,5.7039443292035505,118.25518456122784,22.50955735533009,-146.33501899377686,70.92370682525508,154.99309131939467,66.20079154013933,-0.17273659007058217,14.380938053131104
-0.1691419428850312,0.987336436622196,-0.12640990910100752,2.6700739609974273,-4.98822514361558,-2.332738176138139,-82.29921762164045,5.750893665576093,118.26387673261904,22.486345049183758,-146.33382621197052,70.92456478538934,154.99250331700674,66.20099459773299,-0.10699150231455601,14.392996072769165
-0.16920578275850023,0.9873671068736212,-0.12642572294287782,2.6700101211239584,-4.988194473364154,-2.3327539899800094,-82.25729211810109,5.828010289104434,118.26908714630143,22.431078100173732,-146.32657487366464,70.92222406316557,154.99219199629047,66.2004909684172,-0.1070809941337112,14.417789220809937
-0.16919498890458612,0.9874057956332323,-0.12643658882845227,2.670020914977872,-4.988155784604543,-2.3327648558655842,-82.20208340492258,5.935303424226746,118.27515397992879,22.3560972685949,-146.32964797907547,70.92248078416415,154.99300066622453,66.20047792353839,-0.07899002684417322,14.448313236236572
-0.1691109344659551,0.9873205310735249,-0.12637532480778152,2.6701049694165033,-4.988241049164251,-2.3327035918449135,-82.28584542477886,5.74518650887716,118.28157568351641,22.487952829545932,-146.3347262154196,70.92694203816421,154.99231047023616,66.20143014633062,-0.21017166957551225,14.472170352935791
-0.16914600111572725,0.987391038781688,-0.12640798386387392,2.6700699027667314,-4.988170541456087,-2.332736250901006,-82.35835608313965,5.830666632470273,118.2058777653452,22.40247775620478,-146.33372087062702,70.92514111320227,154.993155219003,66.20098081839214,-0.21031090084382598,14.496781349182129
-0.16913444141606518,0.9872820933036983,-0.12633248532324984,2.6700814624663933,-4.988279486934077,-2.3326607523603817,-82.39932934617158,5.819978268304093,118.17305900508288,22.40234931176551,-146.32672763829373,70.92778772791291,154.99092956858013,66.2015923720508,-0.21012791250619767,14.508949756622314
-0.1691197269920732,0.9873298118688081,-0.1263616900976561,2.6700961768903855,-4.988231768368967,-2.3326899571347877,-82.3882471167773,5.831914398236936,118.19278556827483,22.386611339436655,-146.33225406761005,70.92741176775012,154.99214129685961,66.20147273231191,-0.21019710925366208,14.535549879074097
-0.1692558177011484,0.9873657358536159,-0.12640687223814023,2.66996008618131,-4.98819584438416,-2.3327351392752718,-82.25783119658273,5.976555343221992,118.2272225886145,22.30280120095129,-146.3175520885693,70.92155841078876,154.99122264827471,66.20031915859981,-0.21033213213243585,14.561386108398438
-0.1692080267623811,0.9873940672162738,-0.1264588667963484,2.6700078771200775,-4.9881675130215015,-2.33278713383348,-82.26288450988993,5.951381913886379,118.2376085501482,22.323698346222088,-146.3297967471867,70.9209155215806,154.99292926245286,66.20024079218817,-0.3323266722853768,14.575373888015747
-0.16914177516963053,0.9873854395341677,-0.12643756482086746,2.670074128712828,-4.988176140703608,-2.332765831857999,-82.270291985073,5.569475021945504,118.3065905796619,22.667544849439132,-146.33712926594245,70.92383138363581,154.99350411232692,66.20079702043734,-0.15868122194013878,14.613586664199829
-0.1691646061841118,0.9873802696904574,-0.12644415465031672,2.670051297698347,-4.9881813105473185,-2.3327724216874484,-82.25495184016474,5.750040038331384,118.30127157191558,22.4938591000857,-146.3344302792043,70.92277043075121,154.9931873358206,66.2006110639854,-0.15868405171539557,14.638373136520386
-0.16913490931305697,0.9874007072261026,-0.1264418385373528,2.6700809945694015,-4.988160873011672,-2.3327701055744847,-82.27274051795084,5.729137324278606,118.27497855581112,22.522906856063454,-146.33871455072892,70.92401279175583,154.9938605365116,66.20080789123416,-0.1587033567971874,14.650487422943115
-0.16911367006535377,0.987308064511736,-0.12634002119519486,2.6701022338171048,-4.98825351572604,-2.3326682882323264,-82.31740957310161,5.722996840103552,118.24471719891257,22.512199989383845,-146.33075563247203,70.92836149055077,154.9916698608135,66.20166452320241,-0.15855049097239515,14.674408197402954
-0.1691477175051112,0.9874027673636814,-0.12641824754914083,2.6700681863773474,-4.988158812874094,-2.3327465145862725,-82.37321673203576,5.687701995563399,118.19806348813037,22.546921202239204,-146.33461307173098,70.92474245793788,154.99341427267797,66.20089694176038,-0.02735170879979254,14.720259428024292
-0.16913891722262636,0.9872877825554209,-0.12635660431059262,2.670076986659832,-4.988273797682354,-2.332684871347724,-82.4475762398795,5.540076533712679,118.2087815364297,22.63473418947408,-146.3284955950589,70.92659275757318,154.99123800374284,66.20139363460737,-0.21013464092078848,14.734527111053467
-0.16917444045392818,0.9873900587367421,-0.12643455894679312,2.67004146342853,-4.988171521501034,-2.332762825983925,-82.28579598918198,5.689666349173562,118.29285298985846,22.53954000691779,-146.3322074445371,70.9230262112399,154.99305963958756,66.20061860263242,-0.21031951354531486,14.760921001434326
-0.16914295546804436,0.9873805492634644,-0.12643078029188654,2.6700729484144143,-4.988181030974311,-2.3327590473290183,-82.24757769867225,5.743254182865874,118.30106349852103,22.506335397697757,-146.33624223265736,70.92405628731048,154.99333806776625,66.20083818642178,-0.210284419254549,14.77207612991333
-0.1692153082124588,0.9873711084432235,-0.12644194526821692,2.6700005956699995,-4.988190471794552,-2.332770212305349,-82.20568657802438,5.685689902702157,118.35599196589345,22.554609912496673,-146.32683138823657,70.92122358030568,154.9923081247123,66.20031749274752,-0.21030832405964262,14.795976161956787
-0.1691586987984728,0.9873619684063959,-0.12641778859255454,2.6700572050839857,-4.98819961183138,-2.3327460556296864,-82.2489598297391,5.614092695384977,118.33782601428521,22.611719862083383,-146.3324971039937,70.92397248683105,154.99270238219432,66.2008351067496,-0.21026393601723026,14.811121463775635
-0.16917692468208734,0.9873501610000512,-0.12641529352015368,2.6700389792003714,-4.988211419237724,-2.3327435605572853,-82.23559384730916,5.616251455709001,118.33472820804923,22.620324851067817,-146.3294966582277,70.92340033251156,154.99225099701047,66.20074205752574,-0.21025440986517197,14.83892560005188
-0.16907718571116526,0.98728224995148,-0.12637429382306284,2.6701387181712932,-4.9882793302862956,-2.3327025608601946,-82.39771617429075,5.5817882770218334,118.23826239335753,22.609815195888395,-146.33900408688532,70.92759173266069,154.9922684858662,66.20164545268864,-0.12563124399914827,14.853041172027588
-0.16916802021197477,0.9873924290412166,-0.12641116249724302,2.6700478836704837,-4.9881691511965585,-2.332739429534375,-82.37977992839141,5.888869258931123,118.12343125487446,22.38506211615446,-146.33088713704714,70.92433692405248,154.99289638156947,66.20082370423725,-0.3698460247117392,14.880295991897583
-0.16915084580833636,0.9873746549260536,-0.1264074749054531,2.670065058074122,-4.988186925311722,-2.3327357419425847,-82.29882037427689,5.81665532804716,118.21764277286391,22.45104850095309,-146.33277720506706,70.9248337515765,154.9928590993538,66.20095563388885,-0.19151770070045693,14.89245343208313
-0.16913243679776302,0.9873141323628156,-0.12632469622143197,2.6700834670846954,-4.98824744787496,-2.3326529632585635,-82.36894637861113,5.889258744009041,118.19742481590202,22.33430130770601,-146.32664870146266,70.92856952218078,154.99129332476096,66.20165833186175,-0.14919342406814717,14.934794187545776
-0.169194276756416,0.9873647864225912,-0.12641203132084683,2.6700216271260424,-4.9881967938151845,-2.3327402983579786,-82.27478730020515,5.683189631704824,118.2996499543118,22.546774671211203,-146.32686860001607,70.92318611732705,154.99215802683963,66.20065850493668,-0.14460715038554284,14.960668563842773
-0.16918376092930207,0.987362600579555,-0.1264121528215892,2.6700321429531564,-4.98819897965822,-2.332740419858721,-82.2745483585509,5.705599471709795,118.28992060721386,22.531052154311144,-146.32836249406898,70.92347691678151,154.99228132671826,66.20072198044423,0.047765458351235246,14.972631216049194
-0.1691470632628397,0.9873401735626068,-0.12637790159276002,2.670068840619619,-4.9882214066751684,-2.3327061686298918,-82.29113385776202,5.7967911519397965,118.26392935046542,22.441907544422204,-146.33003085506053,70.92593927664976,154.99208671154662,66.2011902367246,-0.2383786016940892,14.99932074546814
-0.16919673322118142,0.9873974638653402,-0.12642335870440335,2.670019170661277,-4.9881641163724355,-2.332751625741535,-82.31634862437595,5.962638814857887,118.20441316914695,22.295455362005328,-146.3280127559589,70.92294974256058,154.99270107471298,66.20056154422015,-0.20565751811097321,15.011879682540894
-0.16909864817405523,0.9872993541184631,-0.12636267579942803,2.670117255708403,-4.988262226119312,-2.33269094283656,-82.3701720272624,5.760883553238475,118.20791442587121,22.463451277622166,-146.33500432063977,70.92766859969562,154.99204707968389,66.20159596277463,-0.08345200644301354,15.036482334136963
-0.1692171571394772,0.987340263929467,-0.12639193947312266,2.6699987467429813,-4.988221316308309,-2.3327202065102544,-82.29604878318784,5.913175198841896,118.22202737003532,22.345468197804426,-146.3213383159116,70.92314805717665,154.9912526505317,66.20066248962148,-0.08358942467012032,15.086303949356079
-0.16917029362426084,0.9873937367249683,-0.126439487905056,2.6700456102581978,-4.988167843512807,-2.332767754942188,-82.24901485252643,5.835224650999614,118.26750595016739,22.433223212573363,-146.33332530282178,70.92296457431856,154.99322924500083,66.20060878071925,-0.30884929706327213,15.110979080200195
-0.16912873780110754,0.9873617922668338,-0.1264434562572535,2.670087166081351,-4.988199787970942,-2.3327717232943854,-82.28684202724669,5.613222808906294,118.28977124658475,22.623007559712338,-146.33928400445444,70.92369061033283,154.99344608797887,66.20083600156936,-0.3322248718064609,15.135282516479492
-0.16907722759714874,0.9874347498272189,-0.12643732410022976,2.6701386762853097,-4.988126830410557,-2.3327655911373615,-82.35426364944875,5.877153949340575,118.12992629286961,22.41669071862619,-146.34696701632328,70.92636299867254,154.9950919667262,66.20119057771954,-0.003902651056350237,15.17373514175415
-0.16909426851748427,0.98731399330372,-0.12634657035726335,2.6701216353649744,-4.9882475869340555,-2.332674837394395,-82.40898264500574,5.974606388167771,118.1376331001024,22.262890960258293,-146.33424772882017,70.92871518125061,154.99210895018868,66.20173627413469,-0.003719658414381044,15.201065301895142
-0.16912881184420886,0.9873677511879198,-0.1264176600186376,2.6700870920382496,-4.988193829049855,-2.3327459270557696,-82.35849090854833,5.867564323316144,118.18741725367673,22.37855058358682,-146.33684301964908,70.92495505301895,154.9932082166883,66.2010182878607,-0.0038187033585002084,15.216095447540283
-0.1691520724987928,0.9873212490902181,-0.12639447891226477,2.6700638313836658,-4.988240331147558,-2.3327227459493964,-82.31463218790309,5.78566876139327,118.23068729195583,22.461346775316617,-146.33069080972226,70.9248036237462,154.99196399024865,66.20104294014122,-0.003755305521111474,15.22828459739685
-0.16919940223531765,0.987393129747014,-0.1264268710957135,2.6700165016471407,-4.988168450490761,-2.3327551381328453,-82.26628595903802,5.940055841821609,118.23503241918168,22.33299025650256,-146.32791795610726,70.9226564590034,154.99264759688202,66.20052053120529,-0.0039044729068677952,15.252488613128662
-0.16916521173609125,0.9874042438973814,-0.12644550456786025,2.670050692146367,-4.988157336340394,-2.332773771604992,-82.2440215433441,5.831083333322679,118.26791099592572,22.441507967940957,-146.33476573550172,70.9229572926732,154.99351744399848,66.20059662083678,-0.24317873200521145,15.292294979095459
-0.1692300196777635,0.9873887322105512,-0.12643509285603205,2.669985884204695,-4.988172848027224,-2.3327633598931636,-82.2516388511786,5.9955855495242165,118.2230467139445,22.293607973259327,-146.32427059227575,70.92129050722195,154.99224931256578,66.20027539504939,-0.017988251994919935,15.318202018737793
-0.1692525671289587,0.9874008707219715,-0.12646160994106184,2.6699633367535,-4.988160709515804,-2.3327898769781936,-82.23177580397463,6.039069653446456,118.22540422638843,22.26191039482509,-146.323757313369,70.91950484606497,154.9924140584741,66.19994893906738,-0.1963038740159666,15.333743572235107
-0.16911536368918823,0.9873594494023643,-0.1264274795001335,2.6701005401932703,-4.988202130835411,-2.3327557465372655,-82.2652172287525,5.88490282658635,118.26439529920904,22.373428824291963,-146.33962446517467,70.92481572002433,154.99341060957272,66.20103116112158,-0.18208021442064037,15.376837968826294
-0.1691629451646059,0.9873130564127808,-0.12637884474484018,2.6700529587178528,-4.9882485238249945,-2.3327071117819718,-82.32007398572081,5.714726305961047,118.25552547075223,22.511814632725894,-146.32751385056739,70.92510741652572,154.99150549027084,66.20108785055014,-0.18203821299594303,15.389201164245605
-0.1691520297698903,0.9873935167156738,-0.12642511624925465,2.6700638741125684,-4.988168063522101,-2.3327533832863865,-82.33707758763671,5.930823476232822,118.20411814257527,22.31582827037977,-146.33454838868246,70.92418792252961,154.99331231747828,66.20082231739707,-0.3041499522548303,15.416006326675415
-0.169150765588627,0.9873630807693397,-0.12642523450986046,2.6700651382938316,-4.988198499468436,-2.3327535015469922,-82.27998689279643,5.796747258565297,118.2380389275855,22.47183449831199,-146.3343712552149,70.92388061583058,154.992922860675,66.20083067893161,0.3621360904288933,15.428163290023804
-0.1691851566884423,0.987361937360614,-0.1264259238106901,2.670030747194016,-4.988199642877161,-2.332754190847822,-82.36789797541321,5.955354877736148,118.1514044770577,22.304558076809926,-146.32949042611457,70.92278634057057,154.9924215211249,66.20061578104077,-0.05075762503205272,15.454702854156494
-0.16916678114144032,0.9874062483449286,-0.12642965470897446,2.6700491227410184,-4.988155331892846,-2.332757921746106,-82.30790270378684,5.873009029036489,118.19083095172854,22.40618383893196,-146.3330271810075,70.92366910071677,154.99332711214817,66.20069939525646,-0.24787940813895393,15.482797384262085
-0.1692522744532575,0.9873745573789121,-0.12640996053697465,2.669963629429201,-4.988187022858863,-2.332738227574106,-82.25911781337952,5.876234914104672,118.23003321976752,22.404586858316776,-146.3184672215442,70.92162162742838,154.99143009278848,66.20031846242173,0.07116056632781387,15.494988441467285
-0.16913672688057949,0.9873679056928051,-0.1264313425393076,2.670079177001879,-4.98819367454497,-2.3327596095764394,-82.35166465052714,5.841603110903219,118.19892263564998,22.40282775397491,-146.33703674070895,70.92407878628151,154.99326458372556,66.20087285602557,-0.1117308903590466,15.532714128494263
-0.16918239448099182,0.9874007260226811,-0.12645002615605744,2.670033509401467,-4.988160854215094,-2.332778293193189,-82.24560460450029,5.899565427753771,118.26572943447654,22.370289585003956,-146.33269670990586,70.92218335107849,154.99327867000596,66.20045975788507,-0.008593496601668527,15.557765245437622
-0.16915572632981765,0.9874133316154456,-0.12644828847520576,2.670060177552641,-4.98814824862233,-2.3327765555123374,-82.26085031032164,5.843918332652898,118.25380657452278,22.426839680549357,-146.33650708007806,70.92321882514807,154.99381016271678,66.20063436301334,-0.008600439642604485,15.570032119750977
-0.16919262508995497,0.9873782533606958,-0.12646204597136515,2.6700232787925033,-4.988183326877079,-2.332790313008497,-82.26595093708143,5.8971710305600835,118.2443974006547,22.373791585397047,-146.33212218190567,70.92106070923975,154.99297719768126,66.2003130798721,-0.0836247792819993,15.593956708908081
-0.1691395003838156,0.98735653774634,-0.12641032841856997,2.670076403498643,-4.988205042491435,-2.3327385954557016,-82.31737096940076,5.800282288075984,118.25289432057892,22.430015490498015,-146.33446171405552,70.92484459287549,154.99281375954072,66.20100556562194,-0.08356700314192533,15.634047746658325
-0.1691934986521592,0.9873878267703655,-0.1264485220043988,2.6700224052302994,-4.98817375346741,-2.3327767890415307,-82.26826311355033,5.8131731914104074,118.2561297070021,22.450158251684975,-146.33080109913965,70.92177021680622,154.9929271733487,66.20040323264692,-0.1399470497847446,15.67006778717041
-0.16916338831207667,0.9873625607001062,-0.1264119278903864,2.670052515570382,-4.988199019537669,-2.3327401949275184,-82.33303930562006,5.854728689228024,118.22718236845027,22.37973877515227,-146.33126280832184,70.92410863266566,154.99257092326764,66.20084801634285,-0.13989293364294308,15.694874286651611
-0.16914152687181813,0.9872595292336754,-0.12630109415834787,2.6700743770106405,-4.9883020510041,-2.3326293611954796,-82.35044248343962,5.773650281958567,118.22497578781528,22.44575934921487,-146.3223885268309,70.92877946122677,154.99013874547578,66.20177290021213,-0.31801040427427907,15.744802474975586
-0.1691997149944,0.9873314371709996,-0.12641236154562135,2.6700161888880585,-4.988230143066776,-2.332740628582753,-82.3042000879903,5.7825264851772396,118.25262620296715,22.455667498598665,-146.32571506091838,70.92263177454895,154.9916356666076,66.20062456265921,-0.3181459843637473,15.757439374923706
-0.1692010164431939,0.9873231222722234,-0.12638075916239977,2.6700148874392644,-4.9882384579655525,-2.3327090261995314,-82.26733915291925,5.917830341212651,118.24144726444847,22.347089716875672,-146.3223600900932,70.92396899893993,154.9911169533207,66.20084123460434,-0.3181399516649579,15.769254207611084
-0.16921486960513715,0.9873418981449871,-0.12642143443598608,2.6700010342773215,-4.988219682092788,-2.332749701473118,-82.19308335697413,6.021583240566138,118.2648361385999,22.27800744472912,-146.3245488491937,70.9218642426231,154.9916698554461,66.20046711578937,-0.31817156948858916,15.793785572052002
-0.16921677923944842,0.9873927997407193,-0.126428210967591,2.66999912464301,-4.988168780497056,-2.3327564780047227,-82.21925679406304,5.9151196119002405,118.26498255219772,22.370514592797303,-146.32555133204198,70.92206015494197,154.99240979344694,66.2004048996819,-0.055523547741710644,15.838762998580933
-0.1691710341217293,0.9873139787225191,-0.1263889499029855,2.670044869760729,-4.988247601515257,-2.332717216940117,-82.258349132368,5.902620620694338,118.26436748821051,22.354692403341385,-146.32734522688637,70.92440086601334,154.9915257347045,66.20096670114062,-0.05536465115607658,15.851017951965332
-0.16915890521977203,0.9873609456751296,-0.12642016127188238,2.6700569986626865,-4.988200634562646,-2.332748428309014,-82.30602181267908,5.877908328914645,118.23729032142111,22.36854263841005,-146.33268532029166,70.9238443710322,154.99271481665247,66.20081706091109,0.0290181274019794,15.877393007278442
-0.16919865805440082,0.9873675198993401,-0.12644068493512628,2.6700172458280576,-4.988194060338436,-2.332768951972258,-82.25162803973596,5.986216809681535,118.23360951628818,22.29738832226232,-146.32905378320683,70.92175016752002,154.99248378527926,66.20042831067718,-0.04138880727857597,15.892580509185791
-0.16921228154096563,0.9873771693071567,-0.1264113064414472,2.670003622341493,-4.988184410930619,-2.332739573478579,-82.2573838378492,5.7212721818955945,118.28188918833735,22.53166726858202,-146.32436605684654,70.92280885383295,154.99205670278292,66.2005530708944,-0.2619347218986263,15.919502973556519
-0.16919148851629645,0.9873633673452977,-0.1264065167678382,2.670024415366162,-4.988198212892478,-2.33273478380497,-82.32885018959391,5.773920507688356,118.21832876160269,22.47165213849259,-146.32671618914807,70.92351184267665,154.99211129306252,66.20071473086654,-0.12114585311912762,15.97596025466919
-0.16914600593982218,0.987381075672483,-0.12641378985630922,2.6700698979426365,-4.9881805045652925,-2.332742056893441,-82.30295503295136,5.889636213770868,118.20940324392417,22.37875310795315,-146.3341624411632,70.92475945640665,154.99309256214437,66.2009400780366,-0.060155083232985795,15.990625381469727
-0.16911351500416894,0.9874251173881519,-0.12640728226761483,2.6701023888782895,-4.988136462849623,-2.3327355493047466,-82.40401626056877,5.815671601199292,118.14513375936494,22.430406357989032,-146.33872828715874,70.9265459522893,154.99407171845831,66.20118256409745,0.0054686989473431424,16.033626317977905
-0.16918465360559456,0.9873334068871753,-0.126390882788957,2.670031250276864,-4.9882281733506,-2.332719149826089,-82.30094102367252,5.699304930659343,118.26035447365923,22.538205557714697,-146.3258151943839,70.92411256625363,154.99161480338904,66.20086885632075,-0.1586257699583511,16.071035146713257
-0.1691588848995487,0.9873510765000728,-0.12642838292642788,2.67005701898291,-4.988210503737703,-2.3327566499635597,-82.3257550089068,5.727682128318353,118.24356272983495,22.506695797728867,-146.33336597507292,70.92335215972321,154.992683461687,66.20075933095714,-0.08356429470805704,16.09612774848938
-0.1691915154202567,0.9873414404827037,-0.12640582607907339,2.6700243884622017,-4.988220139755072,-2.3327340931162053,-82.28545887704283,5.814560613161931,118.2500278783655,22.437600682778196,-146.32637870436935,70.92329789237525,154.99180771052977,66.20072053070108,-0.12110673213279988,16.108786821365356
-0.1691173240129736,0.9873790072100916,-0.1264443894421573,2.6700985798694847,-4.988182573027684,-2.332772656479289,-82.25914503483412,5.935625794584158,118.26156140385532,22.328274721215227,-146.3412214249983,70.92418792305436,154.99385303342456,66.20089825783413,0.057167610681244874,16.1344735622406
-0.16907914078799333,0.9872997426933043,-0.12631133681670337,2.6701367630944652,-4.988261837544471,-2.3326396038538353,-82.34858496303762,5.710175687037936,118.26188177690645,22.490090754614457,-146.33282558372986,70.93065665120663,154.99170203843133,66.20207934848176,-0.11160462747323585,16.15206742286682
-0.16920680922946543,0.9873712059954123,-0.12645712607525014,2.670009094652993,-4.988190374242363,-2.332785393112382,-82.27921308331346,6.009258276283011,118.23678421941646,22.25222884659688,-146.32952456945307,70.92077790864403,154.99261811588207,66.200261691859,-0.11177252655906145,16.18189764022827
-0.16922717594134512,0.9873745674218257,-0.12643345547040552,2.669988727941113,-4.98818701281595,-2.3327617225075374,-82.24714599112681,6.053997938232555,118.23307145528956,22.22887743281735,-146.32434736208555,70.92129498478036,154.99207969934267,66.20030507061945,-0.11179691087420096,16.192559242248535
-0.16906542700777025,0.9874308556831219,-0.12637143798617034,2.670150476874688,-4.988130724554654,-2.3326997050233023,-82.4357570429211,5.639150585453206,118.1368206244621,22.596828627186852,-146.34222108413488,70.92974458673292,154.9943999083722,66.20173032786349,0.11808050178294849,16.22008752822876
-0.16915750747854535,0.987385070263898,-0.12643664003794394,2.6700583964039133,-4.9881765099738775,-2.3327649070750756,-82.36078420849327,5.581896240119627,118.21640488678584,22.653659269538938,-146.33477794915115,70.92339027734764,154.99326160285918,66.20070750699249,-0.15399869517359477,16.231887102127075
-0.16922129079829695,0.9873596368853943,-0.12640277635045905,2.6699946130841616,-4.988201943352381,-2.3327310433875907,-82.22353418433077,6.074936452640229,118.19608216413175,22.248409155354775,-146.32203271747994,70.9227345316621,154.99158673896906,66.20055941300076,-0.1540002779167633,16.256545543670654
-0.16914036592022028,0.9873291516715157,-0.12640700494007487,2.670075537962238,-4.98823242856626,-2.3327352719772065,-82.33848587618297,5.956402063574579,118.20534806889074,22.286222652581138,-146.33368210412257,70.92466653292892,154.99239239596469,66.20102518842069,-0.1538956703327221,16.26965618133545
-0.1691956935210421,0.987372993566227,-0.12639728207484452,2.6700202103614163,-4.988188586671549,-2.3327255491119763,-82.25347930766333,5.802239885831229,118.27506548321945,22.454787829213675,-146.3253337962403,70.92392071381458,154.99206677138812,66.2007540999428,-0.15401017501479775,16.29976534843445
-0.16920697625529713,0.987408638888507,-0.12643950546414434,2.6700089276271615,-4.988152941349268,-2.3327677725012763,-82.25263501622628,5.93084175370553,118.24618482600158,22.345010428316485,-146.3282459551956,70.9220111336505,154.9929023692165,66.20038387101138,-0.15407009057076237,16.311025619506836
-0.1691738449150395,0.9873826448736855,-0.12642722774437853,2.670042058967419,-4.98817893536409,-2.33275549478151,-82.2871419119838,5.668123219822236,118.28908684233141,22.563186108065597,-146.33149140141444,70.9233024803995,154.99287849168374,66.20067461672468,-0.172773500800945,16.353105306625366
-0.1691204592435791,0.9875832707862227,-0.12652993747898225,2.6700954446388794,-4.987978309451552,-2.332858204516114,-82.22144701307818,6.135741565614604,118.23831179644932,22.17083467631494,-146.3515499646825,70.9223967102131,154.99760435081632,66.20026212883383,-0.18245837017272315,16.40572714805603
-0.1690301815085382,0.9874738724132432,-0.12638120580340395,2.6701857223739203,-4.9880877078245325,-2.3327094728405355,-82.35520886223577,5.793793981886799,118.24431997866547,22.418787380503858,-146.3487503616725,70.93084600635642,154.9956048816378,66.20187420194404,-0.18224578861927299,16.41813349723816
-0.16906508973973522,0.987493936003943,-0.12637189773126373,2.6701508141427235,-4.9880676442338325,-2.3327001647683954,-82.23675582276624,5.611310146527472,118.36098373919309,22.608071431886366,-146.34308070828476,70.93043850070684,154.99525830604972,66.20172605830757,-0.18230522023087126,16.432424545288086
-0.16912110257446084,0.9876747336697294,-0.12608795915152957,2.6700948013079975,-4.987886846568046,-2.3324162261886614,-81.91697685046103,5.681296581730321,118.7078192575473,22.494214728977774,-146.30967142345554,70.94395398935694,154.9933948869266,66.20338988405612,-0.1827359430099893,16.459635734558105
-0.16909814879463603,0.9877993538899514,-0.12599039998494976,2.6701177550878223,-4.987762226347824,-2.3323186670220815,-81.92532042100754,5.619470067620392,118.6443401901762,22.593116680083106,-146.30500308412493,70.95058124079925,154.99420158718542,66.20421634293152,-0.18297054118456213,16.4711856842041
-0.16900687713534845,0.9883112339238418,-0.12557084313333453,2.67020902674711,-4.9872503463139335,-2.3318991101704665,-82.03053725629303,5.583640573113186,118.46908443630011,22.657673939511152,-146.28354011803432,70.97856998412905,154.99724131492596,66.20772660713682,-0.18394094560404195,16.498157262802124
-0.16910077908628124,0.9885244085502904,-0.12464581481772842,2.6701151247961774,-4.987037171687485,-2.33097408185486,-82.13918886773376,6.294844395958164,117.94960025825223,22.14181964414729,-146.1823955112211,71.02102100255516,154.9873865057687,66.21370805225199,-0.18461784916664126,16.51583170890808
-0.16938805199339732,0.9883085517237582,-0.12309128274719466,2.6698278518890612,-4.987253028514017,-2.329419549784326,-82.1004493443192,7.27496624803137,117.34996641468953,21.445075999072397,-145.98573571036854,71.08189405922678,154.96122324036747,66.22299472110822,-0.1848057333319444,16.531402349472046
-0.169848236597141,0.9884328303082004,-0.11932630108260511,2.6693676672853175,-4.987128749929575,-2.3256545681197367,-82.27050382274503,6.396345329686183,116.83417496380869,22.30613915743085,-145.5460018182318,71.24305458787121,154.9098602431714,66.24689337585865,-0.3270404046024584,16.558688640594482
-0.17026837148549237,0.9886331543486921,-0.1171812991211241,2.6689475323969662,-4.986928425889083,-2.323509566158256,-82.28701075369985,5.819022527617892,116.71242795406759,22.810342262661624,-145.27093407597292,71.33088992916024,154.88001024398926,66.25953690343535,-0.32821815370653695,16.570922136306763
-0.17157758231766707,0.9886282003130711,-0.10838874268356652,2.6676383215647914,-4.986933379924705,-2.3147170097206984,-82.752069519038,5.746882311425933,116.10589677093166,22.328071599582664,-144.16592136766113,71.69120554138006,154.75203165453496,66.31389677850804,-0.3313558820813798,16.609583377838135
-0.17294179707427793,0.9885861272530356,-0.10113630495491102,2.6662741068081806,-4.98697545298474,-2.3074645719920426,-83.06532389595853,6.470241392942886,115.73389746921379,21.07137044660522,-143.17934946853597,71.97403288541824,154.6413119516867,66.35696126940294,-0.3340992564458727,16.636760473251343
-0.17468336717726243,0.9882744213736847,-0.09351757328746824,2.664532536705196,-4.987287158864091,-2.2998458403246,-83.08130065163003,6.137363670809117,115.61113366410979,20.8931490355618,-142.06033779866283,72.25268597740782,154.51638767650712,66.40026278810348,-0.11622569006789085,16.662312507629395
-0.17549160321621254,0.9882125366256291,-0.08988834203810873,2.663724300666246,-4.987349043612147,-2.2962166090752403,-83.17562553466834,5.959188438512704,115.45136790163609,20.83961081013464,-141.51918146903262,72.38489254910986,154.45815841186263,66.42100529605733,-0.239629787024068,16.674310207366943
-0.17649440958636814,0.9879730365413164,-0.08614434035750411,2.66272149429609,-4.987588543696459,-2.292472607394636,-83.12102901735275,5.594848819797304,115.49551696703158,20.92248600600472,-140.9250275576464,72.51211373319482,154.39313278363375,66.44134470708116,-0.11421520126657736,16.686744213104248
-0.17858786879441776,0.9872474887908322,-0.07784724783590925,2.660628035088041,-4.988314091446943,-2.284175514873041,-82.98027916652181,4.784757700115358,115.41513837116725,21.249750815193906,-139.5922633644277,72.79064021304723,154.2477514685237,66.48714704836982,-0.135396936424085,16.713085412979126
-0.1820200056576461,0.9861510676014438,-0.06676310353311199,2.6571958982248125,-4.989410512636332,-2.273091370570244,-83.08075725704398,4.607110654240778,115.316198484066,20.510216940959182,-137.6485362783916,73.12431862873004,154.04152181893355,66.54425440485282,-0.07319834401376646,16.751656770706177
-0.1844032271114773,0.9850638936639629,-0.059966205562173594,2.654812676770981,-4.990497686573812,-2.2662944725993053,-82.97794860984898,4.7286740011649195,115.52374420774426,19.718009089982395,-136.3704107591792,73.30525721278427,153.90477192086547,66.57741208417113,-0.0748186457928055,16.77737259864807
-0.1857357764818266,0.9844677722534199,-0.05666404360684786,2.653480127400632,-4.991093807984356,-2.2629923106439795,-82.75637061982117,3.5927740378573207,115.92901820247405,20.457200294989242,-135.712863422031,73.38296746460102,153.834708604196,66.59239523814925,-0.07560792119292348,16.789717435836792
-0.1879253386092877,0.9834549671154207,-0.0510295485381143,2.651290565273171,-4.992106613122354,-2.257357815575246,-82.83340643369996,3.1587006020752826,115.71559156257254,20.50416117210504,-134.5875012006212,73.51429306836754,153.71617101794965,66.61842867357262,0.17641986723763736,16.81414794921875
-0.18961812344160467,0.9829110683168745,-0.04832852300696952,2.6495977804408537,-4.9926505119209015,-2.2546567900441015,-82.52921934918137,3.1711402402572633,115.75257521139271,20.4232043946829,-133.950806838789,73.54879744223625,153.6491290275248,66.62686530488274,0.17547612644680832,16.826440572738647
-0.19211471076633288,0.9814731241593919,-0.04241156926264951,2.6471011931161255,-4.994088456078384,-2.2487398362997815,-82.52805815001305,2.4604263119887078,115.6048904424243,20.72803899471038,-132.7056718125444,73.66505430920006,153.5161869472548,66.65279846614719,-0.4775733035789438,16.853392124176025
-0.1956598887155168,0.9793407128696856,-0.034948903231620976,2.6435560151669417,-4.9962208673680895,-2.2412771702687526,-82.45265430874558,1.655151928126191,115.86952934761827,20.69397622786569,-131.04755912279646,73.7816371708642,153.3379321019691,66.68283676563573,-0.2532219832307643,16.892026662826538
-0.198470872445879,0.9778105213799073,-0.02988979868819297,2.6407450314365795,-4.997751058857868,-2.2362180657253248,-82.12108661747045,1.3819243512257244,116.36338099485967,20.32394258436408,-129.85255826525574,73.83512103904333,153.2097213268973,66.7005259803959,-0.17417990807780104,16.92060351371765
-0.2000461860224457,0.9768199231718588,-0.02700130980552784,2.6391697178600126,-4.998741657065917,-2.2333295768426598,-81.91576930668185,1.3184549158898888,116.3433814769917,20.27947295842759,-129.16703353089613,73.86282916043578,153.1352452680893,66.71074859087415,-0.18844879710319695,16.93621826171875
-0.20128199304430214,0.976037582196613,-0.024395350539113764,2.6379339108381563,-4.9995239980411625,-2.2307236175762455,-82.032030346869,0.8226472374847297,116.23672640421941,20.529517157114615,-128.57189655885497,73.89520246603469,153.0721678140823,66.72113126185091,-0.188714330442731,16.950755834579468
-0.20465536041807417,0.9735855397349089,-0.01709049202888291,2.634560543464384,-5.001976040502867,-2.2234187590660146,-81.80740035865644,0.5541951485187717,116.16158225241632,20.329440428083984,-126.8934004332322,73.97874029030437,152.89277596801037,66.75063501977166,-0.24996587236624013,16.992138862609863
-0.20571504640427835,0.9727178975968271,-0.014093629007278147,2.63350085747818,-5.002843682640949,-2.2204218960444098,-81.85445612193341,0.14867206132915736,116.14256651274243,20.444461409622114,-126.24101625195969,74.02537543040327,152.8255702388833,66.76476319965641,-0.25012980299049303,17.007155656814575
-0.20782683616407102,0.9715526747667116,-0.009548337403144314,2.6313890677183873,-5.004008905471064,-2.2158766044402762,-81.4346763816855,-0.23119783378726436,116.43498255219266,20.494878373801203,-125.18626904941956,74.07079641536993,152.71822257786025,66.78298732018375,-0.25099089620737836,17.031346082687378
-0.20996163853465002,0.9698931675272848,-0.002683642250632473,2.6292542653478086,-5.005668412710491,-2.209011909287764,-81.24133188817086,-0.8095570899881701,116.42192006169425,20.639263512139355,-123.70404283298498,74.18012705728115,152.5722482721332,66.81709961805915,-0.33628547434006695,17.064494848251343
-0.2105594538790156,0.969055604676829,0.00022966431556553646,2.628656450003443,-5.0065059755609465,-2.2060986027215663,-81.13823269948979,-1.035923412853366,116.50649103323263,20.631775168759724,-123.09989338598511,74.23669912585056,152.51278271008385,66.83346380552437,-0.27053292405449536,17.077343463897705
-0.21108885682322204,0.9685027622270101,0.002815713336263903,2.6281270470592366,-5.007058818010766,-2.2035125537008677,-81.06599743384764,-1.3383021360531928,116.51112767248503,20.780412234254634,-122.56432466066613,74.28758934301304,152.4625219648428,66.84803089212349,-0.2520550243449833,17.089555263519287
-0.21249297810684298,0.9673307021073008,0.00894560517351653,2.6267229257756153,-5.008230878130474,-2.197382661863615,-80.98341717464993,-1.4993486613584714,116.4334151534636,20.540864033214817,-121.26692248818144,74.39734298788217,152.3428235399744,66.88159911281053,-0.2906439427445795,17.116525888442993
-0.21325933124850754,0.9666704096400864,0.012544108553391276,2.625956572633951,-5.008891170597689,-2.1937841584837403,-80.7395514316481,-1.5090394840828334,116.48373627373611,20.403751431225235,-120.50317017854422,74.46137131488649,152.27358020240086,66.9016488669044,-0.2537581428291116,17.131401300430298
-0.21447724807686608,0.9655122060573613,0.01986455662907527,2.6247386558055923,-5.010049374180414,-2.1864637104080566,-80.65701044517806,-1.9563972081539909,116.33367368261973,20.45175201639584,-118.96921037031481,74.602331522195,152.13972096687655,66.94459410215269,-0.0253280546619834,17.161263704299927
-0.21543990471121177,0.9643215011354691,0.027273317398422398,2.623775999171247,-5.011240079102306,-2.1790549496387093,-80.51430524085099,-2.243438826705475,116.39606890124223,20.19714237548733,-117.41365044988552,74.747640999156,152.0073117172751,66.98969199146987,-0.2800069999723167,17.189602851867676
-0.21657964389685658,0.9629697418905536,0.03834872026126823,2.622636259985602,-5.012591838347221,-2.1679795467758636,-80.28222301230323,-2.9625383925241575,116.40592910797598,20.240043587263784,-115.0718442439136,74.96461380886377,151.81843052904708,67.05902313751334,-0.0011477686938317078,17.23126459121704
-0.21727421361635763,0.9613983706714884,0.05115490011350757,2.621941690266101,-5.014163209566287,-2.1551733669236244,-80.16981546071285,-4.0191875781427076,116.50459388850219,20.324683983468667,-112.3340086819179,75.21755912033247,151.60732257921205,67.14300052834463,-0.06022109521133956,17.278932332992554
-0.2172871736470569,0.9610189266143074,0.05499438207066065,2.6219287302354015,-5.014542653623468,-2.151333884966471,-80.17806292904652,-4.465408060772129,116.42875365509865,20.56380332551809,-111.51375189578326,75.2983115206506,151.5477698222823,67.16943194003348,-0.04704246621179209,17.293477058410645
-0.2175262843969231,0.9603229095801555,0.06197202059401949,2.6216896194855352,-5.01523867065762,-2.1443562464431123,-80.07949761087727,-4.594010524051732,116.35010149199465,20.31577272627728,-109.98356700580543,75.42608383869587,151.43594466923497,67.21604469788811,-0.28342215185576514,17.320056200027466
-0.21752394741956924,0.9600578502036208,0.06511179471262829,2.621691956462889,-5.015503730034155,-2.1412164723245035,-80.16771592238071,-4.9109721104046065,116.22336611693972,20.446806552450393,-109.2961236682595,75.48670915865242,151.38771014889352,67.23773070677426,-0.10596996106817258,17.331769943237305
-0.21789892560844382,0.9592493393997306,0.07189205118199299,2.621316978274015,-5.016312240838045,-2.1344362158551387,-79.74985276691363,-5.58883255373799,116.5282940486413,20.727448876522335,-107.75878701155386,75.58764031299341,151.27446646145935,67.2819856757752,-0.10762505451771975,17.35656189918518
-0.21775658906040532,0.9590441432060042,0.07545034724221722,2.621459314822053,-5.016517437031771,-2.1308779197949144,-79.69397980742536,-5.819331737077216,116.5673435263351,20.72247307585994,-106.9730403760338,75.65739612733286,151.22275404217586,67.30747014121289,-0.10868261539197022,17.36920189857483
-0.21766710892341493,0.9588423347039154,0.0830450261550767,2.6215487949590437,-5.01671924553386,-2.123283240882055,-79.95491523787548,-6.296435703826709,116.23786420711963,20.724987893379033,-105.26680791936745,75.78836706788374,151.1120752352362,67.36055721960827,-0.17722694905091174,17.39592456817627
-0.2175874658265391,0.9585616939497381,0.08707462969990329,2.6216284380559194,-5.016999886288037,-2.1192536373372284,-79.98104532854894,-6.603652863719769,116.18731953015862,20.769599055644306,-104.34593729725623,75.85268583334091,151.05120395369505,67.38884015559607,-0.16435540100614077,17.41043186187744
-0.21738311166476415,0.958305777380513,0.09442905673069474,2.6218327922176945,-5.017255802857262,-2.111899210306437,-80.0861907643322,-6.617956653580688,116.01754251470385,20.2956697127452,-102.65688776110018,75.9670236009059,150.94404858704806,67.44092947623307,-0.279613790187458,17.43638801574707
-0.21720897574486786,0.9582597880770805,0.09801574734184587,2.6220069281375906,-5.017301792160695,-2.1083125196952857,-80.13972627631836,-6.708055403268917,115.90949966594114,20.18907987509508,-101.83038007256627,76.02348120876243,150.89375633319708,67.46684108571485,-0.28101933007139834,17.44878602027893
-0.2171541013244837,0.9579310042543376,0.10687020690812771,2.6220618025579747,-5.017630575983437,-2.0994580601290043,-80.12207304396249,-7.347039298552441,115.815758270264,20.32205659102038,-99.74313535974746,76.12720607162278,150.76062243062168,67.5282451337083,-0.28439417264540534,17.478835582733154
-0.21730240022213798,0.957967572166567,0.11014077393442318,2.6219135036603203,-5.0175940080712085,-2.0961874931027085,-79.92217775294176,-7.52278837108726,115.95259508718802,20.32705705764254,-98.9650888923771,76.15337053485264,150.71095768747222,67.54989850356918,-0.30481938407661247,17.490513563156128
-0.21726249475756745,0.9578003594278481,0.1172626859312883,2.621953409124891,-5.017761220809927,-2.0890655811058436,-79.69309845796928,-7.738308258477276,116.09080561824584,20.121619374110587,-97.26552427106995,76.21921291780215,150.60431835409344,67.59925712091906,-0.2890135540700438,17.514894008636475
-0.21713012679070168,0.9578868377105292,0.12074589311117812,2.622085777091757,-5.017674742527246,-2.085582373925954,-79.65915517522461,-7.9912690290160375,116.1479665726512,20.110801571707697,-96.43846959066455,76.25542924086517,150.55593678854683,67.62420828731953,-0.21563852852505505,17.526888370513916
-0.21694633032891047,0.9581301204701971,0.1277547563936079,2.622269573553548,-5.017431459767579,-2.078573510643524,-79.85023992071743,-8.209609940443007,115.986864105419,19.785273213693525,-94.76563280055719,76.31599164282376,150.45796348300567,67.67390180099095,-0.08788526032042476,17.550962448120117
-0.21686574840111153,0.9583465662287485,0.13631192110868645,2.622350155481347,-5.017215014009027,-2.0700163459284453,-79.8969258268087,-9.357545379595322,115.98476096815618,20.32447880096637,-92.70647650604575,76.36537556052063,150.33445371025473,67.7335665612341,-0.0923055998350879,17.57954502105713
-0.21683768157555783,0.9582636134565448,0.13973122825490342,2.6223782223069008,-5.01729796678123,-2.0665970387822283,-79.85599312949174,-9.38824264038653,115.99811334113375,20.124999864533148,-91.87535247446678,76.3780010288398,150.28248534678985,67.75727496349069,-0.09378710780841715,17.591055154800415
-0.21670390276187693,0.958403387854577,0.14401897628216204,2.6225120011205814,-5.0171581923831985,-2.06230929075497,-79.82080555286417,-9.436553330970817,116.00156934841601,19.899616037797504,-90.84125899729081,76.3985049745127,150.22196235373872,67.78777848542846,0.06348742718996725,17.605831623077393
-0.21640447287980683,0.9585441602584583,0.15112883326877025,2.622811431002652,-5.017017419979317,-2.0551994337683617,-80.11661512744615,-9.503400099214197,115.63417688244897,19.54636835118228,-89.12033300444698,76.42623537023708,150.12106439550476,67.838796293884,0.059944216765972946,17.629558801651
-0.2162806296862241,0.9586272349970535,0.15939561671738284,2.622935274196234,-5.016934345240722,-2.046932650319749,-80.21684169033783,-9.798760003164427,115.45181745616331,19.358715824178432,-87.11814812430283,76.4299574359909,149.99867596944344,67.89657104301858,-0.09436668899293554,17.657259702682495
-0.21633842857768282,0.9588656410188252,0.1628542787682562,2.622877475304776,-5.01669593921895,-2.0434739882688757,-80.07454518732634,-9.72926634390995,115.52625023771446,19.119737166206125,-86.29172321216487,76.42330435493623,149.9484748542985,67.92014052737139,-0.24201221355930524,17.668978452682495
-0.21603720487838862,0.9590660901297108,0.17037640575013152,2.62317869900407,-5.016495490108065,-2.0359518612870002,-80.12197175762117,-10.343083118106279,115.50445427443276,19.198800357250143,-84.4799279580763,76.41910751283564,149.8407175392795,67.97398274236346,-0.19437282453740856,17.694215536117554
-0.2160505288609273,0.9593410028165923,0.17480328454081911,2.6231653750215314,-5.016220577421183,-2.031524982496313,-80.21145273896467,-10.63792383528871,115.40729672126429,19.196345803190347,-83.4287104935024,76.40206686143185,149.7764020972511,68.00450894016603,-0.1924454622260212,17.709506511688232
-0.2160839975714261,0.9594730896407102,0.18208058060452953,2.6231319063110323,-5.016088490597065,-2.0242476864326022,-79.83512559162953,-11.031384903847519,115.74639923071206,19.118339740920046,-81.700744116587,76.35962132013492,149.6655946746364,68.05438541226542,-0.14953989450807192,17.73353385925293
-0.21593774201758748,0.9595621610076632,0.1857117356828218,2.623278161864871,-5.015999419230113,-2.02061653135431,-79.84545203348162,-11.363761591027902,115.75959569101593,19.173070419678623,-80.8388640429175,76.34334208905624,149.61281620025397,68.08034775466197,-0.27817131874814827,17.745502948760986
-0.21589463485383234,0.9597148027165603,0.19471309699644263,2.6233212690286263,-5.015846777521215,-2.011615170040689,-79.68536643994156,-11.842151310200952,115.87243214599397,19.079847103013122,-78.7313060431129,76.27199334368578,149.47570541508136,68.14252763621876,-0.2127696216887287,17.775566816329956
-0.2157134937838503,0.9598884423045266,0.1991019756782904,2.623502410098608,-5.015673137933248,-2.0072262913588412,-79.69309576740521,-11.951372710978958,115.85738603881047,18.882545608332666,-77.70991885644574,76.24101084155434,149.41228524588794,68.17395300450902,-0.2715934154782209,17.790400743484497
-0.21553836352587508,0.959983859524032,0.20432381604378907,2.6236775403565833,-5.015577720713743,-2.0020044509933426,-79.77186081874314,-12.176916230793397,115.7408290545491,18.815663167520515,-76.50200768603635,76.1949962292648,149.33440572497778,68.2109856697348,-0.27444219658463975,17.807887315750122
-0.2152814521943805,0.9602099635021817,0.2120158366977018,2.623934451688078,-5.015351616735594,-1.99431243033943,-79.93568092029312,-12.75527990273845,115.5424959798094,18.9726412548018,-74.74609797725684,76.11800715442251,149.22032678433456,68.26556464135369,-0.2788322349542316,17.8336021900177
-0.21531308720047043,0.9603444654745601,0.21558481851148015,2.623902816681988,-5.015217114763216,-1.9907434485256517,-79.85542149847033,-13.031847113679355,115.60751190487049,19.03575449201776,-73.951507892772,76.07060087672197,149.16535740003567,68.28990257051015,-0.3748711451683766,17.845648765563965
-0.21543530791318072,0.9605432389968178,0.22347356681317943,2.623780595969278,-5.015018341240958,-1.9828547002239523,-79.49846734694441,-13.423371109331287,115.90197212802005,18.97864321887432,-72.22015625091734,75.95287348694487,149.04119318442795,68.34325015878312,-0.37963626264035266,17.872426509857178
-0.21537675911972537,0.9607865964113069,0.23479554059656083,2.623839144762733,-5.014774983826468,-1.9715327264405709,-79.26952306273479,-13.950353357554883,116.08906508013658,18.763181170350112,-69.7784468602307,75.77517371443037,148.8646491773841,68.42126037685046,-0.0954440781606598,17.910043954849243
-0.2151988117803451,0.9612989579794848,0.24612492830116983,2.6240170921021133,-5.014262622258291,-1.9602033387359619,-79.41832700452625,-14.78540551176864,115.96114508744346,18.75150350381333,-67.40946751056177,75.5847649746025,148.69210344890993,68.50024777332483,-0.10264748850981409,17.948230504989624
-0.215078379806909,0.9615910259558023,0.257684625457734,2.6241375240755493,-5.013970554281974,-1.9486436415793977,-79.45613575305036,-15.39759975055715,115.88509704885327,18.596943555836145,-65.07161362930698,75.3613743365293,148.5103879330396,68.58016600323909,-0.07688471431708344,17.988602876663208
-0.21505903217545816,0.9617016268937246,0.26557344765510726,2.6241568717070005,-5.013859953344051,-1.9407548193820245,-79.33160979088981,-15.574337045295346,115.94086273191468,18.349651923221053,-63.528947776287694,75.19219487968218,148.3833035001272,68.63415732896684,-0.08634887570502414,18.01591444015503
-0.2148772360654607,0.9616768657748289,0.26995009680247184,2.624338667816998,-5.013884714462947,-1.9363781702346599,-79.3361584318345,-15.666492410817163,115.91113644247962,18.189831521180068,-62.67079479460682,75.10106185694302,148.31381771839517,68.66515870747175,-0.008992664612637924,18.030762434005737
-0.21476934124146907,0.961918996132634,0.2829508460074936,2.624446562640989,-5.013642584105142,-1.9233774210296382,-79.15076152988713,-16.21800230843804,116.03564730902373,17.91968018316615,-60.2497349300802,74.79866359439659,148.10411313921236,68.75454764653641,-0.017060822860541336,18.07546901702881
-0.21470129190389997,0.9621157547841999,0.2872391578013733,2.6245146119785585,-5.013445825453576,-1.9190891092357585,-79.1823391378437,-16.229530437429588,115.97359583764008,17.67480272508174,-59.47572004283003,74.69750361431151,148.03664983917045,68.78432777832553,-0.0199363334414846,18.090234518051147
-0.21472878654713723,0.9622809518181732,0.2943916783342021,2.6244871173353213,-5.0132806284196025,-1.9119365887029296,-79.17760130202839,-16.551379720290498,115.94116495455025,17.552736870797148,-58.222720112653946,74.51420066657933,147.91922233899606,68.83287468827055,-0.02456441370682594,18.114924430847168
-0.21473884818707153,0.9623178199969351,0.2979303560147849,2.624477055695387,-5.01324376024084,-1.9083979110223468,-79.15271874618944,-16.738740162241395,115.94913474206247,17.530816251733015,-57.61386806373608,74.42058461682447,147.86031469518176,68.8568595280133,-0.30360058965287795,18.127147436141968
-0.21446787199490985,0.9624116777990634,0.3049910555386229,2.6247480318875485,-5.0131499024387125,-1.9013372114985088,-79.10448500133113,-17.49179983624322,116.01514689353557,17.84179964917396,-56.39117568034529,74.24279744278051,147.74697425680122,68.90666047961878,-0.3079084971091195,18.151612043380737
-0.2143211846952598,0.9625786571953732,0.31540562152351626,2.6248947191871985,-5.012982923042403,-1.8909226455136154,-79.14391884875901,-17.896573265464347,115.92571043812305,17.575670041913664,-54.676384348767755,73.95946949636871,147.57532071205725,68.97836852850077,-0.31454337537039034,18.187955379486084
-0.21388080387202463,0.9625689910664659,0.3223461587975125,2.625335100010434,-5.01299258917131,-1.8839821082396193,-79.3553544535976,-18.384258486426994,115.7181123553323,17.616288357028665,-53.52849287230024,73.77660208848177,147.46361140822506,69.0282979182207,-0.5625443861719104,18.211758375167847
-0.21385600637300956,0.9624632928787069,0.3265379755892303,2.625359897509449,-5.013098287359068,-1.8797902914479014,-79.3625184650872,-18.560610274022675,115.68589078754401,17.529916411483935,-52.87602780630844,73.65147929393602,147.39081287269346,69.05670501428007,-0.030113401592421596,18.225919723510742
-0.21397629951747982,0.9624101515301144,0.33455398873238623,2.6252396043649786,-5.013151428707661,-1.8717742783047455,-78.91027760232497,-18.944566381616397,116.0819204916128,17.39009936494159,-51.68337210724856,73.40361014013,147.25060101364912,69.10999155322712,-0.03516746819494898,18.2535297870636
-0.21376796992646377,0.9625939363801015,0.33805375524781317,2.6254479339559946,-5.0129676438576745,-1.8682745117893185,-79.00851436213782,-18.981196824110672,115.97644128970849,17.248437417820895,-51.148629913378954,73.30849321042679,147.19601496070476,69.13521382633387,-0.04696892420444687,18.26545000076294
-0.2135935372228845,0.962657573814669,0.3451419482139944,2.625622366659574,-5.012904006423106,-1.8611863188231372,-79.17548217666854,-19.51763596780406,115.80810411617122,17.38325826126243,-50.11066471222719,73.09627789433266,147.07686348775104,69.18427307694097,-0.0655824977669166,18.289392709732056
-0.21346524311500326,0.9627068911177694,0.3497561800717169,2.6257506607674554,-5.012854689120006,-1.8565720869654148,-79.21133456030354,-19.781953204769508,115.76172472745395,17.366520822141403,-49.449397956301475,72.95665144061229,146.99929807814465,69.21629276445911,-0.06856010651894273,18.30492877960205
-0.2132530003207214,0.9628002127611759,0.3569899367623404,2.625962903561737,-5.0127613674766,-1.8493383302747914,-79.13778308111,-20.335116316793137,115.8184175289702,17.42677407564051,-48.436681690574446,72.7351675597927,146.87755954391974,69.26654330619037,-0.07327888248172698,18.329018115997314
-0.21323444815164527,0.9625809128639518,0.3670389699813204,2.6259814557308134,-5.0129806673738235,-1.8392892970558115,-78.70381055420262,-21.01125093333081,116.20048347615659,17.45110761550009,-47.10582692546751,72.40334682305473,146.69817297415412,69.33400472981666,-0.07945845972796217,18.36254334449768
-0.2130160894334068,0.9626301228872725,0.370928505418508,2.6261998144490515,-5.012931457350503,-1.8353997616186237,-78.68750357352269,-21.483935984158833,116.2368324722108,17.688324178768546,-46.582577255755744,72.28391154784246,146.63350374276675,69.36167166043991,-0.19926305862839655,18.375527143478394
-0.2126859013324976,0.9627264902405466,0.3744919841782672,2.626530002549961,-5.012835089997229,-1.8318362828588646,-78.84501699597146,-21.368867378606264,116.07202274783232,17.402867032707164,-46.095253504621695,72.179489453664,146.57678878623628,69.38795210476847,-0.34233105839668276,18.38788676261902
-0.21260145759855897,0.9628171987700298,0.38238719889967293,2.6266144462838996,-5.012744381467746,-1.8239410681374588,-78.95133560487558,-21.789734646787082,115.95131421067575,17.39494666434217,-45.11741087088031,71.91867056791,146.4390271176909,69.44158694826214,-0.26323999644145246,18.4154372215271
-0.21230965617134523,0.9627235513041854,0.3875739150423711,2.6269062477111134,-5.01283802893359,-1.8187543519947607,-79.06243528630398,-22.190156428893957,115.82967855878081,17.443337377472695,-44.46017811897386,71.75066654237673,146.34945036838297,69.47822553435246,-0.30389764693708265,18.432868719100952
-0.2123503806878615,0.9628716561831081,0.3910542731622115,2.626865523194597,-5.012689924054667,-1.8152739938749203,-78.96339470251822,-22.343028423331628,115.92601536821628,17.431873515026197,-44.06052497728531,71.63319844512334,146.28861465271518,69.50142119493879,-0.30652539270847257,18.444921255111694
-0.21234444639678493,0.9627547426849579,0.3985075382634609,2.6268714574856737,-5.012806837552818,-1.8078207287736707,-78.61382265838827,-22.635161366087836,116.2242828166265,17.267902398554163,-43.20471691058824,71.37365484473678,146.1529519935278,69.55118165526007,-0.3113596582922913,18.47067427635193
-0.21219819581621388,0.9628292127962046,0.40330877286327765,2.6270177080662447,-5.012732367441571,-1.8030194941738542,-78.57874646723631,-22.759428862033705,116.24497946720417,17.128005873308506,-42.65295750823969,71.2133866137363,146.06948929028243,69.58435461981321,-0.23021209525802178,18.486720323562622
-0.2119003431510908,0.9628026382770454,0.41133990670621384,2.627315560731368,-5.01275894196073,-1.794988360330918,-78.64146553834763,-23.043766187492444,116.17356137436748,16.98017098458731,-41.74495871888132,70.94143301882673,145.92782700055653,69.63997324747866,-0.23547428417027572,18.513064861297607
-0.21174993945340415,0.9627812185875224,0.4151179049888653,2.6274659644290543,-5.012780361650253,-1.7912103620482664,-78.60527160174703,-23.329103604915783,116.20183356297399,17.0249641024393,-41.326718636313316,70.81267266244294,145.8609190909332,69.66617220040018,-0.23794211467618975,18.525641679763794
-0.21148064306675898,0.9629529252488582,0.4229207746011567,2.6277352608156996,-5.0126086549889175,-1.783407492435975,-78.66031246040113,-23.707920290683965,116.1115155107423,16.91582496357502,-40.49215103778137,70.54847598099681,145.7246307100555,69.72021376298997,-0.12148511341888746,18.55229616165161
-0.21157229205744582,0.962938967457422,0.42664158656985857,2.627643611825013,-5.012622612780353,-1.779686680467273,-78.58860406386842,-23.865402499394918,116.153108340611,16.851786099762617,-40.12889298533915,70.41243090001186,145.65463537858028,69.74432592168947,-0.049040941515327674,18.564512491226196
-0.21118202352932317,0.9631466731680165,0.44193825043696383,2.628033880353135,-5.0124149070697595,-1.764390016600168,-78.75557779758167,-24.820292125474598,115.96096916235828,16.92229260363384,-38.606638348204896,69.87977592328406,145.38038513384666,69.84889937025991,-0.008279733224797248,18.617504358291626
-0.21107215844623958,0.9630407357422974,0.4454085471986717,2.628143745436219,-5.012520844495478,-1.76091971983846,-78.94781474500039,-24.85696189850854,115.74652739979263,16.760251952868995,-38.269383922185376,69.7551138065097,145.31583075393885,69.87253552297047,-0.010481592720713806,18.62961220741272
-0.21098569502585732,0.9631239066136996,0.4538191233627327,2.628230208856601,-5.012437673624076,-1.752509143674399,-78.7184986174658,-25.466746388291586,115.9530380285278,16.876245974987658,-37.4985871647616,69.45430917748259,145.16089966884763,69.92895396832284,-0.007170398731588534,18.657426357269287
-0.21071519331461872,0.9631148681311654,0.464629694018261,2.62850071056784,-5.01244671210661,-1.7416985730188708,-78.46160516386776,-25.767108804642874,116.12321350567201,16.521140383664747,-36.52554265567522,69.06763846237156,144.96106844948397,70.00229258339755,0.01341568839350682,18.69280457496643
-0.21053639764750232,0.9632404791889446,0.4686611742319547,2.628679506234956,-5.012321101048831,-1.737667092805177,-78.50571435295987,-26.043076969484265,116.07373809106882,16.560595107590274,-36.166106595029085,68.92825153412765,144.88919461638272,70.03031989186006,0.010403177198257119,18.705891132354736
-0.21047727736625188,0.9634352039357696,0.4857301974154706,2.6287386265162067,-5.012126376302006,-1.7205980696216612,-78.6105415556911,-26.860534864760922,115.92180532762431,16.45845389562279,-34.782804347008465,68.30774852243538,144.56687433534577,70.14345237857333,-0.0023178791724181025,18.759241580963135
-0.21044429393488592,0.9635772350284866,0.4896518066430741,2.6287716099475724,-5.011984345209289,-1.7166764603940576,-78.53435278905405,-27.016847426142835,115.9691050919231,16.38577522036318,-34.4773133210179,68.16778216338959,144.49395728837777,70.16966216246071,-0.005419452467278596,18.771281719207764
-0.21034917694888877,0.9636667371060887,0.5022451498725329,2.6288667269335697,-5.011894843131687,-1.7040831171645987,-78.39858460269296,-27.784796647693515,116.07556548992525,16.46325573306085,-33.5242065291573,67.70841178762777,144.25282203554093,70.2530978772559,-0.014813414893458443,18.81016778945923
-0.2100619097509353,0.9636158135438118,0.5106810500272358,2.629153994131523,-5.011945766693964,-1.695647217009896,-78.5263617711927,-27.922614567557147,115.91720083487182,16.152022190981985,-32.884942867110084,67.40335553114258,144.09181157635834,70.31026936707536,-0.020823778846549068,18.83647131919861
