dx1,dy1,dz1,dx2,dy2,dz2,azm1_cf,ele1_cf,azm2_cf,ele2_cf,azm1_an,ele1_an,azm2_an,ele2_an,tdoa_bias,time
-2.90754257813806,1.7263706835642831,-2.1384877198147905,2.0613045484996344,1.5046573939725825,-2.2366414223571325,-33.28567581940127,31.990623306857955,-145.7577864795209,40.932597026318106,-143.15008063337828,44.30497797531777,-162.3335935693473,-51.11339417901687,0.011856516953111296,3.050588369369507
-2.907472169737955,1.7263813393281597,-2.1385113049987194,2.0613749568997393,1.504668049736459,-2.2366650075410615,-33.29939136268427,32.078542811835895,-145.87262958132138,40.9289619111082,-143.15141426334898,44.30489658366455,-162.3325399062936,-51.113577919752686,0.15270648924428487,3.0695459842681885
-2.9075386450402574,1.7263119183863787,-2.1384592737409553,2.061308481597437,1.504598628794678,-2.2366129762832974,-33.27165985390922,32.07166322159884,-145.9187067498129,41.00544482518564,-143.14928310392764,44.30457180489739,-162.33233290696074,-51.11311075227176,0.08223397603537297,3.0895071029663086
-2.9074284050274937,1.7262360106284387,-2.138394066838666,2.0614187216102007,1.504522721036738,-2.236547769381008,-33.601516656480484,31.97957979026567,-145.90855875430452,40.77945779892911,-143.14937179351816,44.304313295021906,-162.32841472961022,-51.113603046726254,0.25596733882670675,3.1091880798339844
-2.907468440183499,1.7262836439016784,-2.1384408605525276,2.061378686454195,1.5045703543099778,-2.2365945630948696,-33.4047895582457,31.66050791870561,-145.3196159991723,40.7674587195417,-143.14978412286044,44.30442688688548,-162.33033621883527,-51.11336829208908,0.11516740882098508,3.13033390045166
-2.9075522088819685,1.7262916296928672,-2.1384127432382907,2.061294917755726,1.5045783401011665,-2.2365664457806327,-33.26468306164549,31.79938094854257,-145.46007059303417,40.88170002354706,-143.14838145573896,44.3047561550425,-162.33193453504614,-51.11337588122409,0.03529222255412323,3.1691691875457764
-2.907542140857176,1.7262320911064672,-2.13838930470049,2.0613049857805184,1.5045188015147666,-2.236543007242832,-33.47734438463577,31.732491670932436,-145.50840630638913,40.796344562318986,-143.14771877940998,44.30429751464759,-162.3305744687388,-51.113054737384566,0.1572878784677445,3.1889870166778564
-2.9075129817221432,1.7262971930009245,-2.1383851419743873,2.061334144915551,1.5045839034092239,-2.2365388445167294,-33.35090562337711,31.68207261172025,-145.32958475332225,40.80441670163899,-143.14865367091053,44.305068925885905,-162.3310532637751,-51.11395889553813,0.11979292091112459,3.208831787109375
-2.9075733950524345,1.7263505517955822,-2.138474458613708,2.06127373158526,1.5046372622038815,-2.23662816115605,-33.2116133353852,31.958863552552998,-145.6820736296321,40.9671758267082,-143.14932497018975,44.304866102863826,-162.33377564241766,-51.11317991089513,0.04934762785826541,3.2285571098327637
-2.9075321401839007,1.726342452219923,-2.1384468710631754,2.0613149864537936,1.5046291626282224,-2.2366005736055175,-33.15704122274411,31.919037884990274,-145.60138311180722,40.986898715408294,-143.14950311073517,44.30502563689888,-162.33262603228968,-51.11362368763713,0.18546032613760355,3.259131908416748
-2.9075292701925535,1.726358936135765,-2.1384605928474225,2.061317856445141,1.5046456465440643,-2.2366142953897645,-33.27342516910108,31.92962757074607,-145.67230792917593,40.931269581428175,-143.14984732402834,44.30508899694429,-162.33294133471585,-51.11365450912318,0.09163076693333982,3.2688984870910645
-2.9075048584983603,1.7263576192186463,-2.138480345815704,2.061342268139334,1.5046443296269456,-2.236634048358046,-33.322722303895574,32.059834231450935,-145.83540001230313,40.89110299528108,-143.15039773609777,44.30490159107773,-162.33257412546502,-51.11352580502896,0.15265873780721018,3.2891595363616943
-2.9075221868253327,1.726441001850007,-2.1385227135291025,2.0613249398123616,1.5047277122583063,-2.2366764160714445,-33.26057340545906,32.19223863193583,-146.02166663456273,40.979722859675945,-143.15139088484042,44.30545860036209,-162.33461035603196,-51.11384600811211,0.09634071394122756,3.3108179569244385
-2.907511226047106,1.7264007584714522,-2.1385011230602746,2.0613359005905885,1.5046874688797516,-2.2366548256026166,-33.376012453019314,32.09234700409307,-145.90610985475493,40.87183808407828,-143.15093415761837,44.305200252181166,-162.3335679436526,-51.11371790320397,0.20426274158091262,3.333739995956421
-2.9075200866782276,1.7263581533607804,-2.138472591475746,2.0613270399594668,1.5046448637690797,-2.236626294018088,-33.289227643730754,32.15186555541325,-145.9895878871898,40.96517175114248,-143.15010422404896,44.3049746520117,-162.3328306764184,-51.11354861154601,0.11510334342798689,3.353905200958252
-2.907517227574164,1.7263882987149957,-2.138518216484151,2.0613298990635305,1.504675009123295,-2.236671919026493,-33.26024303882636,32.113107766755824,-145.91596135996565,40.968897669118064,-143.1509364155855,44.30490764881636,-162.33359984083273,-51.113348901294124,0.08227080383565966,3.3849377632141113
-2.907547217568021,1.7264140750669605,-2.138546053048791,2.0612999090696733,1.5047007854752599,-2.236699755591133,-33.24598433731359,32.129740380838314,-145.92719595117325,40.975584796521744,-143.1510739378916,44.30494571273131,-162.3348226824175,-51.11315075160356,0.08223456821673958,3.3946988582611084
-2.9075259814481984,1.7264019813493843,-2.1384674297053126,2.061321145189496,1.5046886917576836,-2.2366211322476546,-33.19367326691375,32.0876717193583,-145.87716882201678,41.02385459849194,-143.15035569487995,44.305511769676635,-162.33364328743255,-51.11405916989727,-0.020965834155545426,3.416529655456543
-2.907516780037758,1.726292842528394,-2.1384468319335777,2.061330346599936,1.5045795529366934,-2.2366005344759197,-33.46309291898651,32.06939612359926,-145.8788092056332,40.784285717978946,-143.14927040063998,44.304471037361374,-162.33149211278035,-51.113158684612586,0.11510376812909406,3.4363136291503906
-2.9075481716282785,1.7263136021113403,-2.1384611450711475,2.061298955009416,1.5046003125196397,-2.2366148476134895,-33.25761133908306,31.780022787404185,-145.48027831206002,40.93259144105016,-143.14918867896685,44.3045728801396,-162.33256345905804,-51.11305976897251,0.1244474164783762,3.4756381511688232
-2.907441533516806,1.7262401367668265,-2.1383682641142205,2.0614055931208886,1.5045268471751259,-2.2365219666565626,-33.393081474923896,31.937959975280048,-145.75268986279883,40.87812493275652,-143.14893214850363,44.3045874377336,-162.32856195383948,-51.113890175730305,0.31693955364883397,3.4954543113708496
-2.9075360630701965,1.7263900883396863,-2.1385231196741916,2.061311063567498,1.5046767987479857,-2.2366768222165336,-33.32527687375025,32.10625888425163,-145.91800883884494,40.91660074629538,-143.1507497646564,44.304881797298705,-162.33403846029196,-51.11321698230322,0.13385576330054638,3.5183489322662354
-2.9075241920918975,1.7263495208621518,-2.138494115923237,2.061322934545797,1.504636231270451,-2.236647818465579,-33.31323837438896,32.11036774621831,-145.9374425092422,40.94043078978144,-143.15021759647223,44.30468583869973,-162.3329201645115,-51.113178027795875,0.10571688613433494,3.5282974243164062
-2.9075101739703424,1.7263139325069219,-2.138442116092956,2.061336952667352,1.5046006429152212,-2.236595818635298,-33.52893406570978,31.952518597925078,-145.7654732164321,40.74546209344909,-143.1494955912078,44.30475052455529,-162.33167983025888,-51.11347760955564,0.10572868593999996,3.5506107807159424
-2.9075343038058046,1.7263383849262324,-2.138462995679729,2.0613128228318898,1.5046250953345317,-2.236616698222071,-33.2779862666523,31.830487298216614,-145.52383967924217,40.89707635907381,-143.14962202555355,44.30483632519396,-162.33271504014562,-51.11337676341918,0.05878176793895262,3.569432258605957
-2.9075533771347923,1.726355619835069,-2.138477307354786,2.061293749502902,1.5046423302433682,-2.236631009897128,-33.25099827132262,32.01496111076973,-145.75902502189254,40.93861284521644,-143.1496780998121,44.30490014404238,-162.33348285647423,-51.11330028661709,0.2323535591646153,3.5883586406707764
-2.9074687804528634,1.7263844109301487,-2.1385681446277034,2.061378346184831,1.504671121338448,-2.2367218471700454,-33.41751785034527,32.22661536655541,-146.16841786840797,40.930211688316476,-143.15214041516106,44.30442602170837,-162.33292562487867,-51.112951970062674,0.14802634949568327,3.6510844230651855
-2.9075040846625244,1.7263918495357915,-2.138536058498828,2.06134304197517,1.5046785599440908,-2.2366897610411702,-33.41372893282736,32.041378852653224,-145.88109732999968,40.87085575681849,-143.15135350718222,44.30479047262065,-162.33352422455567,-51.113240352128884,0.1104412217836046,3.670043468475342
-2.907455568681009,1.7263399673841864,-2.138467466342552,2.0613915579566853,1.5046266777924857,-2.236621168884894,-33.57191706451234,32.08877515712208,-145.96821800710293,40.74431367092448,-143.15076971384653,44.304824105024004,-162.33120935713157,-51.11373004827761,0.049503830491664846,3.6914517879486084
-2.9075520521855083,1.726371204128298,-2.138479854138863,2.061295074452186,1.5046579145365973,-2.236633556681205,-33.28068741390119,32.08365662639439,-145.86458658410575,40.93272933538777,-143.14986481714035,44.30505258734405,-162.33373483203752,-51.11344660557009,0.19951349168143073,3.7104604244232178
-2.907498238495709,1.7263815687848323,-2.1384870829249314,2.0613488881419855,1.5046682791931316,-2.2366407854672734,-33.249311052513406,32.12999969980393,-145.9407921025782,40.98260561532003,-143.1507800820997,44.3051113250691,-162.332890270936,-51.11373973404378,-0.10068657032601536,3.729186534881592
-2.907575540467054,1.7264022643940267,-2.138517445842662,2.0612715861706405,1.504688974802326,-2.236671148385004,-33.221681739281074,32.215714268165556,-146.07302640201203,41.03812356205005,-143.15025086566112,44.305064019869334,-162.33498575778398,-51.113222194639576,0.11034369431365576,3.7508907318115234
-2.907562804843011,1.7262944060833403,-2.138403295463445,2.0612843217946835,1.5045811164916396,-2.236556998005787,-33.26897394452029,31.806661129280876,-145.51770699717366,40.92521317139779,-143.14815222421106,44.304870015781944,-162.3321245724461,-51.11346620673432,-0.09140069097244208,3.793306589126587
-2.907469256419683,1.726397864031692,-2.138518587684428,2.061377870218011,1.5046845744399913,-2.23667229022677,-33.35073575582378,31.923329679785592,-145.69303040261013,40.885646617929346,-143.15168555647662,44.305017663313635,-162.3328095108026,-51.11368600732002,0.17617025879085002,3.812408685684204
-2.907516769086284,1.7263361241230661,-2.1384554584451667,2.06133035755141,1.5046228345313655,-2.2366091609875087,-33.39582530120132,31.89142971650563,-145.64332763910446,40.827668013174765,-143.14975636209513,44.30488015183802,-162.33227575952694,-51.11352844643943,0.05411241652513965,3.8317031860351562
-2.9075382122224154,1.7262869186685565,-2.1384003695353813,2.061308914415279,1.5045736290768559,-2.2365540720777233,-33.253552899976206,31.922196396201347,-145.64819073057777,40.93273863874661,-143.14838976260245,44.30481504853866,-162.33149040184816,-51.11354087659993,0.007158740272838582,3.850905656814575
-2.9075643086791265,1.7263293933427863,-2.1384295088353222,2.061282817958568,1.5046161037510857,-2.2365832113776642,-33.31841419395619,31.832458829217998,-145.52106965262894,40.85169667121533,-143.14874502466532,44.305029450170196,-162.33292409706226,-51.113528720991795,-0.1477001609615356,3.870712995529175
-2.907470859412886,1.7262706557254774,-2.1384611009499146,2.061376267224808,1.5045573661337768,-2.2366148034922566,-33.33503857107826,31.973096344511525,-145.77338459464988,40.91707747862605,-143.14986701417484,44.30410080454159,-162.33031041989028,-51.11297378420564,0.044790092674736215,3.890343427658081
-2.9074258836052405,1.7264408256140071,-2.1385424472920516,2.061421243032454,1.5047275360223065,-2.2366961498343936,-33.5161236967633,32.16004615254387,-146.04625657921622,40.79530017643175,-143.1529394711485,44.30529307601455,-162.33283428883016,-51.11408536602009,-0.002055421517701106,3.9328887462615967
-2.9075635651841445,1.7263339580951313,-2.138464500385658,2.06128356145355,1.5046206685034307,-2.236618202928,-33.308893624648384,31.932312056224283,-145.6750909057215,40.8962592497741,-143.14919752058597,44.304769619341265,-162.33323288357107,-51.11316589692471,0.08220164206103231,3.9521045684814453
-2.90756221310405,1.726334035311405,-2.138469881930685,2.0612849135336444,1.5046207457197043,-2.236623584473027,-33.2237395381342,31.87049945432306,-145.5911132670288,40.96919048541858,-143.14927854037188,44.30472279906302,-162.33324535474327,-51.11310939703823,0.09158767669891521,3.9711523056030273
-2.907495247942008,1.7263248864306726,-2.138514142185523,2.061351878695686,1.504611596838972,-2.236667844727865,-33.333802173271685,32.03885920266007,-145.8116175038606,40.88186872633348,-143.15062503595786,44.30423483240742,-162.33207543944675,-51.11281401896398,0.12921654282504225,3.990973711013794
-2.907511038444139,1.7263979282020339,-2.138534817901987,2.0613360881935554,1.5046846386103332,-2.236688520444329,-33.35846811714694,32.18999731531157,-146.0789414306559,40.94287904479607,-143.15129801996883,44.30486887174712,-162.33375508249085,-51.11328706996088,-0.04908810821857923,4.010815858840942
-2.9074973214724054,1.7263153745064377,-2.1384642323453043,2.061349805165289,1.504602084914737,-2.2366179348876463,-33.370710511930376,32.15707091520051,-146.01457892121027,40.90383051250362,-143.14993889136136,44.30457163503704,-162.3316049787336,-51.113293751519635,0.08698154736322916,4.053273439407349
-2.9074354571777117,1.7262808669982215,-2.138390585382899,2.0614116694599827,1.5045675774065208,-2.236544287925241,-33.48893427165689,32.161869053159286,-146.05287193130746,40.81851888949561,-143.14963583290503,44.3048468969162,-162.32927937022353,-51.11409915934801,0.002602764646012279,4.072677135467529
-2.9075210165618537,1.7263473175729622,-2.1384727765008678,2.0613261100758407,1.5046340279812616,-2.2366264790432098,-33.245261729384374,32.00840055128659,-145.73405698807966,40.9271619063102,-143.14999671943244,44.3048512641905,-162.3326694744488,-51.113423564082666,-0.03034269428115355,4.091209411621094
-2.9075207523461937,1.7263706220921788,-2.138497620311173,2.0613263742915007,1.5046573325004782,-2.236651322853515,-33.390110499218636,32.12781192054428,-145.96479854659006,40.87323980560807,-143.15049367830864,44.30489195438774,-162.33322904932507,-51.113383614954365,0.11979744231881062,4.110901832580566
-2.907418063109504,1.72638124414313,-2.1385265532467,2.06142906352819,1.5046679545514294,-2.236680255789042,-33.343232363511895,32.217239095279574,-146.10736287301677,40.95215155323189,-143.15233209105946,44.304766621709824,-162.33157154002396,-51.11366292732201,0.035486441633297616,4.130573272705078
-2.907571018449092,1.7263886026748343,-2.138517881514642,2.0612761081886024,1.5046753130831336,-2.236671584056984,-33.282190718556336,32.15755927946236,-145.95579444177704,40.93509297102547,-143.15019591864427,44.304907363146505,-162.3346708499645,-51.11309028152016,0.011822545046469735,4.150746583938599
-2.9075272752979706,1.7263723096321613,-2.1384805393946906,2.0613198513397237,1.5046590200404606,-2.2366342419370326,-33.1572752666224,32.130680661694306,-145.9317891721056,41.06105403047071,-143.15022312669373,44.305061979653,-162.33326605879193,-51.113573001451584,0.063485454931556,4.17143177986145
-2.9075542486833412,1.7263585027451382,-2.1384661157165143,2.061292877954353,1.5046452131534376,-2.2366198182588564,-33.21512383517115,31.98583778666952,-145.73379741957228,40.9823375970972,-143.14956347946756,44.30503191637493,-162.33346921822016,-51.113460591187646,0.1338240218908222,4.19164252281189
-2.907594235652224,1.726316297824564,-2.1384418057551122,2.0612528909854704,1.5046030082328634,-2.2365955082974542,-33.154261733663496,31.927155039903386,-145.63960977559373,41.01686092626254,-143.14835772559914,44.304769386979075,-162.33338665403733,-51.113091555799116,0.12907536102828043,4.211195945739746
-2.907515511933571,1.7262620480125983,-2.1384053777165835,2.061331614704123,1.5045487584208976,-2.2365590802589255,-33.35758033881803,31.876937022633875,-145.69842598007614,40.93250171257249,-143.14853696542656,44.304494163751954,-162.33065956571548,-51.11332207829188,0.025956413648202226,4.230663299560547
-2.9075342973857667,1.7263535838788204,-2.1384885109422522,2.0613128292519276,1.5046402942871198,-2.2366422134845942,-33.27547593874135,32.07316781089243,-145.8784524540059,40.96296012486027,-143.15005070169116,44.30478003198739,-162.33314910284923,-51.113239095803976,-0.10073483370032399,4.250489711761475
-2.9075068252391487,1.7264117500811407,-2.1385867635064764,2.0613403013985456,1.50469846048944,-2.2367404660488184,-33.339648429449014,32.09241954705779,-145.89822216558318,40.90167492778167,-143.1520754229954,44.30456260415726,-162.33426936235546,-51.11284073002765,0.13859467830791994,4.270448207855225
-2.9075881380093933,1.7263214302738552,-2.138453214799411,2.061258988628301,1.5046081406821545,-2.236606917341753,-33.211532458002424,32.02600318249601,-145.80951721095212,41.01139314421474,-143.14861831265483,44.30472630137652,-162.33343191032463,-51.1130419714512,0.08685908190108771,4.299461364746094
-2.9075587756681927,1.726324917407379,-2.138463948477967,2.0612883509695017,1.5046116278156783,-2.236617651020309,-33.15517089507791,31.996715962973365,-145.75374682672165,41.04604111307256,-143.14917622021176,44.3046736441789,-162.33298286264446,-51.11309747898447,0.016523179472213823,4.308440685272217
-2.907497842838619,1.7263952831495315,-2.138533873150222,2.0613492837990752,1.5046819935578308,-2.236687575692564,-33.21973984461068,32.071336490399894,-145.82730047334292,40.9713257228018,-143.1514449202423,44.304849219534056,-162.3334421641111,-51.113334677135114,-0.0021530352443055456,4.328518390655518
-2.9075059909377576,1.7263905131038577,-2.138538127509559,2.0613411356999367,1.504677223512157,-2.236691830051901,-33.254609840009856,32.23767943528219,-146.04207603530017,40.95190521660371,-143.15133909865955,44.304756836382374,-162.33355438506615,-51.11319172807762,0.12451419965997657,4.350835084915161
-2.907450407888454,1.726283359282206,-2.1383958419667,2.0613967187492404,1.5045700696905053,-2.236549544509042,-33.40667375845856,32.152407741669265,-146.01333626226779,40.8707342805623,-143.14951291057108,44.304826268750034,-162.32965507965443,-51.11398991678355,0.09172701662347782,4.368909597396851
-2.907395339413086,1.7262272820685125,-2.138393095277755,2.0614517872246085,1.5045139924768118,-2.236546797820097,-33.491835308790385,32.136842860818355,-146.00685980826907,40.79900860452359,-143.1497371454154,44.30422806137361,-162.32760539424982,-51.11368278384834,0.054265362699248865,4.387134075164795
-2.907560650560707,1.7263172568086178,-2.138452453918204,2.0612864760769876,1.5046039672169171,-2.236606156460546,-33.17088492504518,32.02408562089977,-145.79196383147314,41.035552412935836,-143.14895009791465,44.30468963708933,-162.33281090667214,-51.11314136533188,0.1385050072156795,4.448206186294556
-2.9074590052082243,1.7263352400213379,-2.138413371564354,2.06138812142947,1.5046219504296372,-2.236567074106696,-33.36495673259974,32.102147880352454,-145.9368699078398,40.89682852471738,-143.15005956682518,44.305251669156725,-162.33081626125954,-51.11430505184133,0.2277794790708354,4.46814227104187
-2.907533038068293,1.7263129353176654,-2.1384227480045133,2.0613140885694015,1.5045996457259647,-2.2365764505468553,-33.17976957087698,31.99269989456085,-145.73265962969424,41.005194799775644,-143.14895017856688,44.304908722753765,-162.3319803605477,-51.11358413162371,-0.10074183174489804,4.492066383361816
-2.907509852683531,1.7264035520138257,-2.1385199633434087,2.0613372739541633,1.504690262422125,-2.2366736658857507,-33.293585487396484,32.10073591691468,-145.92205064804492,40.957336108969514,-143.15119415779037,44.30506423848107,-162.3337204802114,-51.11353103044099,-0.030321251288592865,4.511969089508057
-2.907534196225205,1.726372756924681,-2.1384362454150474,2.0613129304124893,1.5046594673329803,-2.2365899479573894,-33.26590223591003,31.907072592799032,-145.62063328197914,40.91420310828245,-143.14962378781806,44.30546002979483,-162.3330979213895,-51.114070657396084,0.06816248710666528,4.532954931259155
-2.907452066052841,1.7263884845288102,-2.138474631369102,2.0613950605848532,1.5046751949371096,-2.236628333911444,-33.27995747031237,32.06844512534298,-145.85929186005208,40.94555623093659,-143.15133371057155,44.305305411259766,-162.33200077696705,-51.1141915843834,0.19495466437328401,4.555822134017944
-2.9074602166799868,1.7262262104213932,-2.1383447483343834,2.0613869099577076,1.5045129208296926,-2.2364984508767254,-33.440755981652885,32.01131185771645,-145.85335327098844,40.843879324098545,-143.14828104641032,44.30463791289888,-162.32853416830918,-51.11392562212556,0.19492567821629425,4.589547872543335
-2.9075857316827127,1.7263261628101239,-2.138455531025683,2.0612613949549816,1.5046128732184232,-2.236609233568025,-33.16063549107615,32.01456659008879,-145.7901678990179,41.05510310355045,-143.148720259796,44.3047591253625,-162.3334795327504,-51.11307795767943,0.10093791659003815,4.6110217571258545
-2.907528694710565,1.7263675668381158,-2.1384677430403825,2.061318431927129,1.504654277246415,-2.2366214455827245,-33.19240733163128,31.88266999385706,-145.58116103746625,40.97624165092647,-143.1500144094548,44.305122360721974,-162.33312459262075,-51.11366647113927,-0.025661604324066722,4.63019061088562
-2.9076004688626194,1.7263181078542447,-2.138419336749997,2.061246657775075,1.504604818262544,-2.236573039292339,-33.10693951821691,31.903914616667503,-145.617609948836,41.067758625230915,-143.1480304208618,44.30498873165104,-162.33338187593242,-51.11334782333614,0.06807131020349244,4.649228572845459
-2.907469589122964,1.7263619619838737,-2.1384586437814086,2.0613775375147303,1.504648672392173,-2.2366123463237506,-33.40613083771693,32.06125148726451,-145.849732276405,40.82206764982797,-143.1506723542853,44.30514770518555,-162.3317928004944,-51.11400573773482,0.0682513460910843,4.669535875320435
-2.907485461340422,1.7263541341295585,-2.1384778149480925,2.061361665297272,1.5046408445378578,-2.2366315174904345,-33.31852428685236,32.05539911351501,-145.84102495596508,40.90544328338321,-143.15060417298272,44.30488738543365,-162.33211279460903,-51.113613766946926,0.08230774459069101,4.694188117980957
-2.9075229840075174,1.7263498565217508,-2.138490704658213,2.061324142630177,1.50463656693005,-2.236644407200555,-33.30205435051858,32.16499776879719,-146.00684713052343,40.95461251698764,-143.15019806355275,44.30472009113474,-162.3328776671627,-51.113228247597476,0.021266341839977443,4.712315320968628
-2.9074975128636917,1.7263462770254938,-2.138453716949612,2.0613496137740026,1.5046329874337931,-2.236607419491954,-33.46355647464949,32.101600592023594,-145.94528146797046,40.812082798711565,-143.15009180931307,44.30501199265443,-162.3320505833881,-51.11375515214936,0.1292062468226023,4.732839822769165
-2.907563681156532,1.7263302992533784,-2.138437317191766,2.061283445481162,1.5046170096616778,-2.236591019734108,-33.21831909964525,32.06868477864023,-145.84210228000345,40.98646714064003,-143.1488513369811,44.3049702606063,-162.33298195032427,-51.11344880686599,0.1666498510782901,4.750931262969971
-2.907565400860309,1.7263047073140838,-2.138425992961708,2.0612817257773854,1.5045914177223831,-2.2365796955040502,-33.21707104901947,31.88685407915881,-145.59574212441908,40.959427244306326,-143.14846903844415,44.304783485738376,-162.33250862010735,-51.11329574787037,0.19948817888371062,4.769990682601929
-2.9075145431267435,1.7263890437920633,-2.138537804968708,2.061332583510951,1.5046757542003626,-2.23669150751105,-33.264298039495145,32.15527337747791,-145.95746582642442,40.95669390200369,-143.1512047117102,44.30474215220305,-162.3336974125025,-51.11313725480249,0.05412627635375378,4.815493106842041
-2.9075046545933785,1.726301847412934,-2.1384422106845857,2.061342472044316,1.5045885578212332,-2.2365959132269277,-33.450418160202126,32.07017051560418,-145.89773203807096,40.81393071887128,-143.1494645275827,44.30461471631914,-162.331369025141,-51.11337187617531,0.054126520818583934,4.853954315185547
-2.9074441739051378,1.726387007694975,-2.138484464195748,2.0614029527325566,1.5046737181032743,-2.23663816673809,-33.41309577700329,32.119027018850026,-145.9682798556344,40.864106704043714,-143.15154179928584,44.30520236893232,-162.3318888543878,-51.11409749183672,0.19965818083033238,4.87781286239624
-2.907489918619362,1.7263806372330661,-2.1384870879038074,2.0613572080183324,1.5046673476413654,-2.2366407904461494,-33.40961315065217,32.159997150955775,-146.01750166399088,40.86780614732959,-143.15088617469982,44.30510185687879,-162.3327095131221,-51.113770637566304,0.1245291658217984,4.887833595275879
-2.9075398016316374,1.7263493743119278,-2.138495338370207,2.061307325006057,1.5046360847202271,-2.2366490409125492,-33.299363422822296,32.04773940833241,-145.83086726954636,40.92366504142278,-143.1500157560729,44.304671385986886,-162.33323637145173,-51.11308472108522,0.25114090229753794,4.907773971557617
-2.9074962387080605,1.7263381871707046,-2.138461725033038,2.061350887929634,1.504624897579004,-2.23661542757538,-33.32129220120657,31.997686977623577,-145.78353840735465,40.913267498692036,-143.15012889902607,44.304850131706196,-162.33194676689004,-51.11357789166854,0.1151335690445685,4.927227258682251
-2.9075165151907894,1.7263494465290419,-2.13844221610599,2.061330611446905,1.5046361569373412,-2.236595918648332,-33.24879310958077,31.901684463164347,-145.63561873898834,40.95119658467817,-143.14972698581164,44.30514748227261,-162.33239962809046,-51.11383263919706,0.07287832267590844,4.9482855796813965
-2.9074173538543064,1.7263210039816115,-2.1384622418985084,2.061429772783388,1.5046077143899108,-2.2366159444408504,-33.41054053269155,31.95998847062681,-145.75482093405665,40.84176294467497,-143.15106557400273,44.3046624465096,-162.33009675060651,-51.11377414488475,0.030786880556031182,4.970979452133179
-2.907509390560394,1.7263435830829759,-2.138474787815032,2.0613377360773004,1.5046302934912752,-2.236628490357374,-33.33988624204013,32.11111498486122,-145.9545462956018,40.92968327410723,-143.15014622250035,44.30479290356203,-162.33239042082266,-51.11341635159008,0.00720714057967875,4.99088454246521
-2.9075549608896463,1.7263535054453478,-2.1384584734955134,2.061292165748048,1.5046402158536472,-2.2366121760378554,-33.293995411720296,32.11698149867661,-145.9268227404666,40.94037793762117,-143.14942134445837,44.30504369461103,-162.33334588819903,-51.113493461435866,-0.016314410887910302,5.011261940002441
-2.9074605177785693,1.726363886878982,-2.138487707289627,2.061386608859125,1.5046505972872812,-2.236641409831969,-33.38795965907642,32.1777110176975,-146.022640754015,40.872635034505024,-143.15114770340097,44.30491198205385,-162.33185022091524,-51.113725808290425,0.17148588649151186,5.030173063278198
-2.9075130478508218,1.7263916086929014,-2.138533070477934,2.0613340787868726,1.5046783191012008,-2.236686773020276,-33.318543283720125,32.18786304573546,-146.03816124571182,40.94436932369829,-143.15119387081432,44.30481322913499,-162.33367709337293,-51.113228963159436,0.054127711886758245,5.050122499465942
-2.9074359404094023,1.726285828718577,-2.138467138415981,2.061411186228292,1.5045725391268763,-2.236620840958323,-33.425182121783436,32.13464763430248,-146.06459621209262,40.92453333432839,-143.15055187824248,44.30422176107231,-162.3299130256277,-51.11324015143072,0.11052228971268585,5.072469472885132
-2.9074651278662507,1.7263975726322356,-2.1385816695289646,2.0613819987714437,1.504684283040535,-2.2367353720713066,-33.49501249239834,32.22914381567396,-146.17067786100105,40.85598066240334,-143.1524634221454,44.30445393384234,-162.3331684911055,-51.11295275052577,0.04950599022799507,5.091453790664673
-2.9074464321868603,1.726297629981568,-2.1384556625624063,2.061400694450834,1.5045843403898673,-2.2366093651047483,-33.419653889878255,32.1803675556201,-146.03619012030055,40.849908836405106,-143.15038147079255,44.304454979400674,-162.3302373624155,-51.11345360853582,-0.01617062997608887,5.1129677295684814
-2.9074281148754912,1.726269588232746,-2.138375612436573,2.061419011762203,1.5045562986410452,-2.236529314978915,-33.62061046652527,32.11054566762076,-146.00112528528072,40.69991313512354,-143.14946415033654,44.30485435649996,-162.32883930878478,-51.114190497120966,-0.00677299795319275,5.131366014480591
-2.907579283014529,1.726288973580322,-2.1384156140760973,2.0612678436231655,1.5045756839886213,-2.2365693166184393,-33.30755357158451,31.811063131755247,-145.5158207447577,40.880911125806,-143.14801851972533,44.30469744448007,-162.3324481791197,-51.11317889843456,0.11032466223090687,5.150845766067505
-2.907399275128078,1.7263723772067843,-2.138471920930526,2.0614478515096164,1.5046590876150836,-2.236625623472868,-33.39686796142045,31.88692129832767,-145.63908355331185,40.82822570856321,-143.15188430424877,44.30515526396351,-162.33066414868014,-51.11430899328977,0.1246481112516542,5.172793388366699
-2.907525856725235,1.7263928484542364,-2.1385656636459296,2.0613212699124595,1.5046795588625357,-2.2367193661882716,-33.243318310909494,32.17234787588216,-146.02712620274843,41.02453576834428,-143.1514028232654,44.304535719679954,-162.33418252464688,-51.11279140616458,0.22770994850088178,5.21460485458374
-2.907445867563459,1.726238617046897,-2.1383324620225745,2.0614012590742354,1.5045253274551964,-2.2364861645649166,-33.432964622786415,32.06621411728818,-145.91653678222136,40.8489588284017,-143.14844819829477,44.304888225057276,-162.32836953916794,-51.114278128367076,0.22309405787190562,5.2344396114349365
-2.907534293704855,1.7263630664682488,-2.138489883036184,2.061312832932839,1.504649776876548,-2.236643585578526,-33.33108934819641,31.94031931808064,-145.7027120632159,40.89335331700944,-143.1501512463086,44.3048742689129,-162.33331710527182,-51.11332627210667,0.04001836662322367,5.25429368019104
-2.907543260680603,1.726285031090996,-2.1384266954801396,2.0613038659570915,1.5045717414992954,-2.2365803980224817,-33.24260361873138,31.955440254117338,-145.68868787825295,40.94478418902969,-143.14860556238284,44.30455912911718,-162.33174522996353,-51.11318210544189,0.054072879949615515,5.313704013824463
-2.9075225216424143,1.7263823540134462,-2.1384969063050945,2.06132460499528,1.5046690644217455,-2.2366506088474365,-33.32346416825823,32.03610013797666,-145.83589706611488,40.9193265636834,-143.1505660215174,44.30502976833948,-162.33345508921118,-51.11351139253915,0.040035177068633576,5.334352970123291
-2.9075435305233333,1.7262447727699781,-2.138381155798714,2.061303596114361,1.5045314831782775,-2.236534858341056,-33.40790578947847,31.53355903371169,-145.08555333526698,40.677811531512866,-143.14771952002556,44.30451215879101,-162.33075627496234,-51.11328322382427,0.1385181010612584,5.372406244277954
-2.90746724494019,1.726422213387135,-2.138500813814632,2.0613798816975044,1.5047089237954343,-2.236654516356974,-33.39564566842746,31.973918572270172,-145.79976985664715,40.88707168481058,-143.15172691681659,44.30544927886251,-162.33305061797086,-51.11417312427585,0.0870275030014791,5.392747402191162
-2.907512572396488,1.726328268175939,-2.138449559194104,2.0613345542412063,1.5046149785842384,-2.236603261736446,-33.24031230128017,32.05246488040081,-145.8462106515664,40.988008440838314,-143.14967614833182,44.304844952603325,-162.3320195025406,-51.11353364439046,0.14326070172255356,5.412595510482788
-2.9075033048114705,1.7264283174989936,-2.1385149149328933,2.061343821826224,1.504715027907293,-2.2366686174752353,-33.276033817543244,32.11116895125434,-145.9465234985516,40.98592945542038,-143.1514475881138,44.305387921331686,-162.33396838745674,-51.113893715463306,0.11982356142273387,5.432311296463013
-2.9075185499115146,1.7263753107586781,-2.1384588489008713,2.0613285767261798,1.5046620211669774,-2.2366125514432134,-33.21471764656526,31.905040196806965,-145.68005355818426,41.024353593539324,-143.15012102103512,44.30528963508504,-162.33298958940514,-51.11390694688286,0.0775697679173728,5.451411008834839
-2.90754323746829,1.7263849003110745,-2.138498024665722,2.0613038891694044,1.5046716107193738,-2.236651727208064,-33.18528793054615,32.020375686375125,-145.75727162297088,40.99508881151476,-143.15031686444908,44.30504583239142,-162.33391694162933,-51.11342346276673,0.06346648752645434,5.4751176834106445
-2.9075704575760972,1.7263298205035533,-2.138424929072536,2.061276669061597,1.5046165309118527,-2.236578631614878,-33.14747323212249,31.95322428317253,-145.6983902404523,41.04962934648251,-143.1486117764473,44.30507420623668,-162.33302098037552,-51.1135574726271,-0.04449010658858521,5.507036209106445
-2.9074542748999015,1.726374869621193,-2.138477436593649,2.061392851737793,1.5046615800294922,-2.236631139135991,-33.47124419452602,31.999173859022427,-145.82163762290025,40.804128811970735,-143.15121384048652,44.305127368089465,-162.33183707055642,-51.113998712956786,0.1245754492080482,5.526617050170898
-2.9075187533737252,1.7264396741853145,-2.1385651810522415,2.061328373263969,1.5047263845936139,-2.2367188835945835,-33.27050026400373,32.17034495029915,-145.99622178145643,40.97223456792711,-143.15191343283948,44.305066476344436,-162.33482010570722,-51.11334324835817,0.1291929082314338,5.550996780395508
-2.9074729875533434,1.7264015637205086,-2.13851290352326,2.061374139084351,1.504688274128808,-2.236666606065602,-33.34122567521403,32.171806786525075,-146.03492561583747,40.937486341277555,-143.1516021224424,44.30510927483183,-162.33290522792504,-51.11377556200097,0.20431523480427716,5.573668479919434
-2.9075166397263823,1.7263175539125415,-2.1384473586540347,2.061330486911312,1.5046042643208408,-2.2366010611963767,-33.369236792451446,31.886536454008567,-145.64021617512603,40.855624022540944,-143.1494992325081,44.30474375067768,-162.33190577688134,-51.11342279266869,0.06818663810813996,5.603639841079712
-2.9074221297423244,1.7262836307033085,-2.1383823913027533,2.06142499689537,1.5045703411116078,-2.2365360938450953,-33.56113154707714,31.939111239739553,-145.7544910280814,40.716092701457704,-143.1497497127064,44.30495244423068,-162.32900290630312,-51.11429268263218,0.08707129312193151,5.6139373779296875
-2.9074822616763596,1.7263649002720964,-2.138480224566206,2.0613648649613348,1.5046516106803958,-2.236633927108548,-33.506985616725004,32.12655067731739,-146.0272387186908,40.82148414123352,-143.15077202618022,44.30498720074244,-162.33224609557254,-51.11371840714826,0.12453833907122336,5.633371591567993
-2.9075065968764044,1.7263221089303287,-2.138449381448314,2.06134052976129,1.504608819338628,-2.236603083990656,-33.303771074654435,31.962569515138377,-145.70962401157337,40.89871402045403,-143.14970119514197,44.30477813945132,-162.33179669543895,-51.11349808089549,0.11511802018843387,5.6523730754852295
-2.907518888484843,1.7263618406946921,-2.138479118403752,2.0613282381528513,1.5046485511029914,-2.236632820946094,-33.33069561579923,32.147342451317776,-145.990298951195,40.931571695534316,-143.15022853520048,44.30495814825524,-162.33291459687945,-51.1135171211175,0.06818812222567594,5.674622297286987
-2.9074830840102837,1.726365816922717,-2.1385061080427348,2.0613640426274107,1.5046525273310163,-2.236659810585077,-33.24916032866618,32.10308450088858,-145.8690661958681,40.94511774718022,-143.1510658805521,44.30476721364089,-162.33246068278123,-51.11341640396023,0.11046519847761926,5.7131264209747314
-2.9075048459848607,1.7263707689277423,-2.1385117887901126,2.0613422806528336,1.5046574793360417,-2.2366654913324546,-33.26939987758903,32.140973118294966,-145.95349969324457,40.963370280762504,-143.15087618653686,44.30476958142893,-162.33301573528186,-51.11329528246131,0.11512871095172628,5.735881328582764
-2.90747365626088,1.7263658520212661,-2.138516124359418,2.0613734703768145,1.5046525624295655,-2.23666982690176,-33.30055855723981,32.08774203154736,-145.86138280663258,40.90622829718542,-143.1513107013289,44.30467970437353,-162.3323448287272,-51.11334422536909,0.04010256913302346,5.746104717254639
-2.9075072509536204,1.726374195649727,-2.1385187643857164,2.061339875684074,1.5046609060580263,-2.2366724669280584,-33.20406125135247,32.14279704785823,-145.93587696753931,41.007210020255506,-143.15095378764516,44.304745714529176,-162.3331700316704,-51.11323779835007,0.07759229456628836,5.7659080028533936
-2.9074586183023334,1.726363727066587,-2.138507168559565,2.061388508335361,1.5046504374748864,-2.236660871101907,-33.254654912719026,32.08443532867396,-145.86863163284306,40.960791827836864,-143.15139566519196,44.304737358998956,-162.33194738455836,-51.11350191991441,0.08234732877634698,5.810086488723755
-2.907409641746386,1.7264295885981418,-2.138558393585485,2.061437484891308,1.504716299006441,-2.236712096127827,-33.435610498108,32.17718354157508,-146.09686912410564,40.901646652963905,-143.15324524092378,44.30502715069959,-162.33243676051438,-51.11385331553962,0.349850379264105,5.831115961074829
-2.9074870880371018,1.7263169448475648,-2.138456295336171,2.0613600386005926,1.5046036552558641,-2.2366099978785132,-33.35724899423133,32.102355966638015,-145.93900430460081,40.907002934518005,-143.15000252480928,44.30466111319175,-162.33137186419896,-51.11345590391275,-0.08660101934509612,5.85017466545105
-2.9075561100080693,1.726337308315927,-2.1384302893510796,2.061291016629625,1.5046240187242264,-2.2365839918934216,-33.25721490009731,32.03157075173702,-145.82964924328616,40.97987788234787,-143.14893741099291,44.305112372243705,-162.33289897462842,-51.11364634034116,0.06813208616056432,5.868894100189209
-2.907475778248108,1.7261903109873327,-2.138333388285666,2.0613713483895864,1.504477021395632,-2.236487090828008,-33.36076416214192,31.927177942455202,-145.72016580794968,40.88867522502531,-143.14761593845262,44.30433401801403,-162.32816332510973,-51.113592057518076,0.22305369142849862,5.888380289077759
-2.9074723427089153,1.7263623680501814,-2.1384654929840883,2.061374783928779,1.5046490784584807,-2.2366191955264303,-33.2695185804136,32.00151930591887,-145.77993305587,40.95581207692569,-143.1507167154197,44.30509101398194,-162.33190267991142,-51.11391507068209,0.0823238097514083,5.907972812652588
-2.9075624345053277,1.7263345861121673,-2.1384881063669856,2.0612846921323666,1.5046212965204666,-2.2366418089093276,-33.32437694330172,31.93014230571353,-145.67187650742605,40.88126675583186,-143.14948951658008,44.304566895116515,-162.33338775777324,-51.112897490603466,0.1150484972774879,5.928504705429077
-2.907450628320712,1.7262599672654126,-2.1384360208139,2.061396498316982,1.504546677673712,-2.236589723356242,-33.370973426903674,31.8918984813764,-145.66530476749213,40.87030332973061,-143.14976181199432,44.304206366463596,-162.32955281730776,-51.11325552200917,0.02135499442747868,5.949364185333252
-2.907495272680248,1.7263604627549622,-2.13854663554303,2.0613518539574462,1.5046471731632616,-2.236700338085372,-33.469221329901394,31.934426345400453,-145.71788947262584,40.781875979700075,-143.15131545751254,44.304345208178546,-162.3328997663246,-51.11281556292932,0.06353624574894434,5.970163345336914
-2.907469447251065,1.7264163786872493,-2.13856297694623,2.0613776793866294,1.5047030890955486,-2.236716679488572,-33.456161041834775,32.169127681969975,-146.07143298990448,40.86701261096799,-143.15235767987105,44.304830712516825,-162.33343624933283,-51.113359005169485,0.20901809280798256,5.99683690071106
-2.9072727013846826,1.7263511702146777,-2.138464747863783,2.0615744252530117,1.504637880622977,-2.236618450406125,-33.7235679557899,32.089391037206184,-145.99903497560183,40.625507093632145,-143.1533523794887,44.30499669486154,-162.32774549580128,-51.114788482144284,0.09197349943524502,6.007214069366455
-2.9074440019202332,1.726376653526926,-2.138528164144363,2.061403124717461,1.5046633639352254,-2.236681866686705,-33.50047067808869,31.933874924936006,-145.6815943804035,40.71615360720603,-143.1519529923952,44.304697555484246,-162.33202139605334,-51.11346544928899,0.24658134875169146,6.031021356582642
-2.907521798065938,1.7263323533259332,-2.1385113674791474,2.0613253285717565,1.5046190637342325,-2.2366650700214894,-33.3299303024277,32.043212476122754,-145.82076919665738,40.88965092662007,-143.15029499764745,44.30434002717059,-162.3327078203758,-51.112797267115496,0.05880440807038534,6.050738573074341
-2.907507671599902,1.7263312692593415,-2.138485172628678,2.061339455037792,1.5046179796676409,-2.2366388751710202,-33.48781319798076,32.14316735867708,-145.99409755738097,40.78850247166412,-143.15017894188182,44.30456255064722,-162.33222401801598,-51.11316691658739,0.09635409599214384,6.073158264160156
-2.907409329007351,1.7262375955715337,-2.138356273287124,2.0614377976303433,1.504524305979833,-2.236509975829466,-33.50047577963664,31.961055344290354,-145.74480942006414,40.738721014362234,-143.1492145278153,44.30466954789243,-162.32779512844618,-51.11416427584123,0.251296321022783,6.0853869915008545
-2.9074801976227316,1.7263511643588032,-2.1384792975172675,2.0613669290149628,1.5046378747671025,-2.2366330000596095,-33.31774973948308,32.064183586822836,-145.8890249417414,40.94223099551416,-143.1506669946901,44.30484152034999,-162.3319691365785,-51.1135897401245,0.0870066962578524,6.105205535888672
-2.9075086794476928,1.726337511913123,-2.1384664633230175,2.0613384471900016,1.5046242223214223,-2.2366201658653595,-33.37392716965099,31.83994385909043,-145.59531484250112,40.86215079772724,-143.15000622455852,44.304798872083296,-162.3322160576068,-51.11345265134912,0.11980927335202152,6.13141942024231
-2.907602973249725,1.7263255296574356,-2.1384536496026394,2.0612441533879693,1.504612240065735,-2.2366073521449814,-33.205010146011794,31.879653019419564,-145.5693074936098,40.95520925941617,-143.14845602948924,44.3047666046161,-162.33379809048486,-51.11300819404422,0.1572158480217012,6.149956703186035
-2.9074710324562845,1.7264242676578865,-2.1385564699117663,2.06137609418141,1.5047109780661858,-2.2367101724541083,-33.20777316145357,32.14947232042082,-145.96759006054168,41.02807085030243,-143.15233174544522,44.30497693044543,-162.33355349877158,-51.113514671665165,0.11518002642485214,6.173835754394531
-2.9073697166726915,1.7262372475245087,-2.1383608495206508,2.061477409965003,1.504523957932808,-2.2365145520629928,-33.449836901626306,32.06303622953157,-145.90221778299113,40.82279188464405,-143.14980843888227,44.30462986598576,-162.32703495811847,-51.11430181576768,0.09652154753705755,6.193467378616333
-2.907466237296778,1.726409581797541,-2.1385316204591005,2.0613808893409162,1.5046962922058402,-2.236685323001442,-33.414458986660826,32.15465070878275,-146.03854002292425,40.891138562064015,-143.1519813103059,44.30503366483955,-162.33303736858443,-51.113673750307264,0.1621007705901678,6.213216543197632
-2.907509987308662,1.726378958266853,-2.138488994800855,2.0613371393290323,1.5046656686751523,-2.236642697343197,-33.32540460474235,32.18807411774596,-146.06051167318708,40.95748402212481,-143.15061719161352,44.30506356322753,-162.3330935183508,-51.11363042160915,0.14796144711558412,6.235214948654175
-2.9074199888919328,1.7263917205321875,-2.138503965839987,2.0614271377457616,1.5046784309404868,-2.236657668382329,-33.35096379907633,32.09365977090252,-145.91623873600543,40.903560752550774,-143.15214011421526,44.30508484296081,-162.33162510231472,-51.114036456724335,-0.13342231685341943,6.2562782764434814
-2.9075179976360856,1.7263384135086774,-2.1384943349450203,2.0613291290016087,1.5046251239169768,-2.2366480374873623,-33.394419297236794,32.072822230484334,-145.90164022277494,40.870922541592265,-143.15020598074597,44.30455998485651,-162.3326131755051,-51.1130848300518,-0.13355490999582154,6.268397808074951
-2.907367345450755,1.7262556537691929,-2.1384007916334995,2.0614797811869394,1.5045423641774922,-2.2365544941758415,-33.56092238401248,31.965247583396703,-145.74720937759653,40.6786240737577,-143.15046383514016,44.304481566508784,-162.32757768287922,-51.1140392117356,-0.00668894796148356,6.290298223495483
-2.9074060517004425,1.7262580080387273,-2.138421435004347,2.061441074937252,1.5045447184470266,-2.236575137546689,-33.65053398542919,31.977764821119177,-145.8339592831431,40.66218633062451,-143.15018967876063,44.304319611268866,-162.328531666069,-51.11362799996517,0.16685731901039036,6.314560651779175
-2.9075660287794656,1.7262596647359032,-2.1384122030910215,2.0612810978582288,1.5045463751442025,-2.2365659056333635,-33.24505265768864,31.99836778221871,-145.77619029862788,40.976504032690265,-143.14789961704489,44.3044004369585,-162.33167130738954,-51.1129651430304,0.0868827332635127,6.368801832199097
-2.9074303837772546,1.7263418417203624,-2.1384278680156923,2.0614167428604397,1.5046285521286618,-2.2365815705580343,-33.40475012991151,31.823505516582948,-145.59908493573067,40.85337523572973,-143.1506783265836,44.30520041215418,-162.33046057044868,-51.11434610437053,0.0682995793831882,6.389538526535034
-2.907380881482044,1.7263721437106858,-2.1385076994253405,2.0614662451556502,1.5046588541189851,-2.2366614019676825,-33.53889067901528,31.93338407940289,-145.77226593898655,40.76668361381847,-143.1525455429086,44.304836744892604,-162.33054786277066,-51.11397170371215,0.2419712383292727,6.4083826541900635
-2.9073171008324312,1.7262294882440183,-2.138376055185214,2.061530025805263,1.5045161986523177,-2.236529757727556,-33.734447217227185,31.882763449140455,-145.76178051134968,40.61676604222654,-143.15063681695906,44.304414070809166,-162.32596791216352,-51.11429627275179,0.1904287850915023,6.42867374420166
-2.9074943042896253,1.7263333841490718,-2.1384489453081965,2.061352822348069,1.5046200945573711,-2.2366026478505385,-33.36329258675514,31.776774766258534,-145.48697501085846,40.83924616574083,-143.14996593196548,44.3049101034062,-162.3317377954324,-51.113687082515774,0.18081917661818503,6.448341369628906
-2.907453294104168,1.7263658944768931,-2.138531313299253,2.0613938325335264,1.5046526048851925,-2.236685015841595,-33.35732213445249,32.068601622632016,-145.87154723795877,40.88372101635872,-143.1517652321077,44.30454763416457,-162.3320485025127,-51.11326463990398,0.11519986363154677,6.471412181854248
-2.9073721498741767,1.726440444332094,-2.138534610713501,2.0614749767635177,1.5047271547403933,-2.2366883132558426,-33.476657261358284,31.94848419037469,-145.70749190079923,40.74873998054311,-143.1535847884664,44.30536514290433,-162.33170538994494,-51.11444003777821,0.21852821281887813,6.491638422012329
-2.907448356644371,1.7262573490040167,-2.138418702442488,2.0613987699933234,1.504544059412316,-2.23657240498483,-33.441147172501324,31.81325989454352,-145.52949530073698,40.759627505578436,-143.14957093060767,44.30433126596471,-162.32934154046242,-51.11344421733822,-0.09593829622168348,6.515110969543457
-2.907453941008214,1.726195371028333,-2.138311821280739,2.0613931856294805,1.5044820814366324,-2.236465523823081,-33.576556938827046,31.69184054764074,-145.40749574103572,40.642589606925995,-143.14771385385464,44.304585324083,-162.32766163642577,-51.114011815961135,0.08232722907435397,6.527381181716919
-2.907504785542147,1.7263413253857571,-2.138487380307173,2.061342341095547,1.5046280357940565,-2.236641082849515,-33.2924589061813,31.827400700648777,-145.53263624723036,40.89566374242551,-143.15033381822056,44.304656152384275,-162.3323502592713,-51.11326466084786,0.07289950272838253,6.5489325523376465
-2.9074803241776337,1.72628681180003,-2.138440633248828,2.0613668024600607,1.5045735222083294,-2.23659433579117,-33.35169872735084,31.92732334895613,-145.6949582083082,40.87768716569071,-143.14964647735857,44.30446299222553,-162.33062354207615,-51.11334682558958,0.10576800351830151,6.571365118026733
-2.9074411323725813,1.7263702753923247,-2.138467977376768,2.061405994265113,1.504656985800624,-2.23662167991911,-33.4406563212893,31.86253147566117,-145.62372781347364,40.7988380197617,-143.15124490794932,44.30516154983313,-162.3314324705389,-51.11412608134496,0.08705763271042022,6.609271049499512
-2.90737978031777,1.7263317404235088,-2.1384815568237103,2.0614673463199242,1.5046184508318081,-2.2366352593660523,-33.5687965240144,31.769174497054347,-145.51072934735046,40.669529270552644,-143.15189962316396,44.30461585218024,-162.32966640184205,-51.11384724403111,0.2466606909417468,6.640254259109497
-2.907298196566363,1.7262733392079486,-2.1384053812590547,2.061548930071331,1.504560049616248,-2.2365590838013967,-33.70303606921838,31.81098223544026,-145.6005308740094,40.573494651365465,-143.15162510849743,44.30464784768475,-162.3265322059665,-51.11451937198515,0.087239386701639,6.649269342422485
-2.9075288202098415,1.7263171290081727,-2.1384269926209565,2.061318306427853,1.504603839416472,-2.2365806951632985,-33.34583486601758,31.89204832909004,-145.61587326417396,40.84783413371565,-143.1490943367875,44.304918575682315,-162.33199663595485,-51.11360024851831,0.16200313873450156,6.668334722518921
-2.90748795223018,1.72633014142954,-2.138478631730853,2.061359174407514,1.5046168518378393,-2.236632334273195,-33.34386270035169,31.961699455311685,-145.71817348795548,40.86997634195964,-143.15036486704076,44.30461050381021,-162.33176731747028,-51.11332990564183,0.11045485575579495,6.687880754470825
-2.907532371663802,1.7263899726869774,-2.1385090524170085,2.061314754973892,1.5046766830952767,-2.2366627549593505,-33.20022263979113,32.14436185860376,-145.94934349768482,41.02214899700654,-143.1506380758671,44.305006051059166,-162.3338637984512,-51.11340133110796,0.07755775745074489,6.709763526916504
-2.9075195408455485,1.7263556500286135,-2.1384907618325677,2.061327585792146,1.5046423604369128,-2.2366444643749097,-33.295136009727365,32.02991586389173,-145.78594435980676,40.904877981049054,-143.15029782717195,44.30478503974144,-162.3329064516296,-51.11330781255126,0.07757218818900435,6.732061862945557
-2.907557704903738,1.7263343107903808,-2.138460759608021,2.061289421733956,1.5046210211986801,-2.236614462150363,-33.3108913312943,31.961388548231735,-145.68849229196795,40.87354274845207,-143.14923830388994,44.30480757096969,-162.3330959479718,-51.11324322249161,0.11035961678418893,6.75164794921875
-2.907486545040425,1.7263803752265163,-2.1385176013497196,2.0613605815972695,1.5046670856348157,-2.2366713038920616,-33.28875479747926,31.98901381217745,-145.71883628517864,40.89447923718319,-143.15128028769774,44.30482798766868,-162.33285380017577,-51.113421428708946,0.09638690684620288,6.785757541656494
-2.9075080285151333,1.7263474163977095,-2.138490929878582,2.061339098122561,1.5046341268060088,-2.236644632420924,-33.35711056329684,32.05847672515257,-145.87556960771752,40.89834895089053,-143.15038440792455,44.304692554966635,-162.33254148433747,-51.11327286940812,0.13388864698219427,6.810891151428223
-2.9075107116142167,1.7264161523820243,-2.1385662954925926,2.0613364150234776,1.5047028627903236,-2.2367199980349346,-33.32501992689239,32.08962884595435,-145.8944085517016,40.91486531845581,-143.15182652776326,44.30479354852643,-162.33427542201173,-51.113113065435876,0.07290231937597813,6.829402208328247
-2.907524935348107,1.7263140700486557,-2.1384475898867303,2.0613221912895874,1.504600780456955,-2.2366012924290724,-33.27422148489901,32.15559682195321,-146.01988914918428,41.002682256901544,-143.1493567224746,44.304701558483615,-162.3320139793185,-51.11334101354811,0.08225083688780988,6.8485095500946045
-2.9073670341439306,1.7263888990511762,-2.1385180683231946,2.0614800924937637,1.5046756094594755,-2.2366717708655366,-33.45957575589661,31.80204371425417,-145.51012685561133,40.74040545250178,-143.15300461090362,44.30493432109106,-162.33062598922865,-51.1140996361989,-0.001980561491242927,6.867110013961792
-2.9075097999271895,1.7262812058708288,-2.1384151741670197,2.061337326710505,1.5045679162791281,-2.2365688767093617,-33.44329438423379,31.783096524626462,-145.48410811249917,40.74867927148484,-143.14889910692548,44.304622803368666,-162.33093534742503,-51.11344283994066,0.05880782126015571,6.889820575714111
-2.9075257485077,1.7263596286672938,-2.138482271837841,2.0613213781299944,1.504646339075593,-2.236635974380183,-33.32563156002785,32.03168742813163,-145.8325433080828,40.91826023236955,-143.15015065188223,44.304904425274806,-162.33303618281553,-51.113421551959746,0.10102167453400845,6.90949559211731
-2.907573181979241,1.7263083671677677,-2.1384182085227734,2.061273944658453,1.504595077576067,-2.2365719110651154,-33.302284872757845,31.95741638187417,-145.71554577041223,40.91112221066827,-143.1483054777329,44.304892821611624,-162.33266926560665,-51.11338983956209,0.07749101831494531,6.928716659545898
-2.9075284835809345,1.726315470631683,-2.138445181574997,2.06131864305676,1.5046021810399823,-2.236598884117339,-33.14793319020488,31.975194938822888,-145.72299315000407,41.0474508920703,-143.1492928358203,44.30473825535255,-162.3320908179566,-51.113367411529815,0.05878704065576468,6.947999000549316
-2.907576761014312,1.726233272043371,-2.1383665410099826,2.061270365623382,1.5045199824516704,-2.2365202435523246,-33.16680128222411,31.721543658164983,-145.3681386094077,40.975765417704395,-143.14699228569955,44.30450889049715,-162.3311208683628,-51.113167323075075,0.1572388656669057,6.971275329589844
-2.9075207560263294,1.7263558668962862,-2.1384685762823374,2.061326370611365,1.5046425773045855,-2.2366222788246795,-33.18846240481224,31.96087401708665,-145.68095192251062,40.98577876832032,-143.15002852001047,44.30498460975973,-162.33277740225577,-51.11356812113148,0.021266628654594832,6.990543365478516
-2.9075190644140574,1.726330760120415,-2.1384810002089676,2.061328062223637,1.5046174705287143,-2.2366347027513096,-33.2197027990809,31.992445716954247,-145.79964204842386,41.03339259032386,-143.14996992214472,44.3045925252007,-162.33241228734659,-51.113154681401056,-0.039722821396861896,7.0125041007995605
-2.9075821593047415,1.726313842498344,-2.138429471052556,2.061264967332953,1.5046005529066433,-2.236583173594898,-33.12227065396391,31.863483564697336,-145.59153568517354,41.07476618708255,-143.14836024494437,44.304853013122305,-162.33301861878178,-51.11327121523835,0.12439812698990682,7.035827159881592
-2.9075853122468156,1.7263031016290509,-2.1384215753369067,2.0612618143908787,1.5045898120373502,-2.2365752778792487,-33.182022958451704,31.78615564111008,-145.46772504484545,40.98589752512593,-143.14813031667742,44.304802269248405,-162.33284603280075,-51.11323235088723,0.23699516163468237,7.045634984970093
-2.907494595043276,1.7263525016299337,-2.1384883249050675,2.0613525315944186,1.504639212038233,-2.2366420274474095,-33.25833999026809,31.81947816780875,-145.5408203482057,40.94630397992003,-143.15058461777215,44.30477446488341,-162.3323412117624,-51.11342576269897,-0.025613724686840644,7.064908266067505
-2.9075167793240273,1.7262770258015072,-2.1384002392136274,2.061330347313667,1.5045637362098065,-2.2365539417559694,-33.50393701893131,32.09703404829702,-145.9811105145316,40.81024684348322,-143.14859444954868,44.304707825018426,-162.33089856955874,-51.11354040828274,0.040029539912826095,7.084248781204224
-2.9075383601505846,1.7263186594943654,-2.138420628741423,2.0613087664871097,1.5046053699026647,-2.236574331283765,-33.34927510274752,31.880483501569916,-145.63578759534587,40.87719533670217,-143.14890386947874,44.30499115941017,-162.33216668892575,-51.11364550651599,0.09161318021956433,7.10671854019165
-2.9075462094753637,1.7262782263002052,-2.138424075749886,2.0613009171623307,1.5045649367085046,-2.236577778292228,-33.36375038191057,31.963740270968685,-145.73528227526992,40.86275189320439,-143.14847415420272,44.30450567556042,-162.3316716225305,-51.11312443334674,0.0446850386478812,7.12640905380249
-2.907545292027793,1.7262842990239495,-2.1384476559064507,2.0613018346099015,1.5045710094322489,-2.2366013584487927,-33.30976743281586,31.912680796930587,-145.65688181359076,40.89890788925684,-143.14881159274137,44.3043642694399,-162.33192150370886,-51.112914698392466,0.025922214412493094,7.168955564498901
-2.9073476987255615,1.7263160506492066,-2.1384827962465103,2.061499427912133,1.504602761057506,-2.2366364987888523,-33.636956695365015,31.996168236096374,-145.83684547988355,40.659528440027465,-143.15221460258357,44.30443268786734,-162.32877598802446,-51.11381983935228,0.12471760878390103,7.190709352493286
-2.907543593048569,1.7263729522513416,-2.138512744782316,2.0613035335891254,1.504659662659641,-2.236666447324658,-33.4663016811362,31.962270590132256,-145.75090575173854,40.78428793898854,-143.15037407649447,44.3047807788874,-162.33382848027497,-51.11311618842384,0.07285126429629862,7.210604190826416
-2.9074701079211285,1.7263779680292448,-2.138544858293067,2.061377018716566,1.5046646784375441,-2.236698560835409,-33.3916970547627,32.04361969763877,-145.84960994085995,40.85889332547351,-143.15179742526826,44.30456061742152,-162.33267980158718,-51.11315213567734,0.10579570334223387,7.230561017990112
-2.907483877507799,1.726248374048817,-2.1383995415464323,2.0613632491298954,1.5045350844571164,-2.2365532440887743,-33.50033184266053,32.03733504975181,-145.8700021578416,40.774314608743055,-143.14878261445602,44.30439650296651,-162.32976164659033,-51.11339865540442,-0.058454064350214274,7.249922275543213
-2.907609182738712,1.7262907429722913,-2.138423701041114,2.0612379438989823,1.5045774533805907,-2.236577403583456,-33.186590118669635,32.04942808035958,-145.84458488137807,41.040684593378934,-143.14771615436135,44.304641675809584,-162.33312872796162,-51.11295417962907,0.044601123329043535,7.270918846130371
-2.9073975719698204,1.726391498954855,-2.138515719961754,2.061449554667874,1.5046782093631543,-2.236669422504096,-33.32100020312021,32.015589630351464,-145.83997805579457,40.94929286114754,-143.15258113038882,44.30498060487258,-162.33125928629286,-51.11400500430866,0.1950325227220766,7.2926599979400635
-2.907486229756345,1.726321050712857,-2.1384456618848953,2.0613608968813493,1.5046077611211564,-2.2365993644272373,-33.36250053449419,31.90388521308619,-145.66099451945834,40.86216364921746,-143.14992901639587,44.304801867504246,-162.33134823082997,-51.11363146463973,0.2230552909402963,7.314769506454468
-2.90753308244356,1.7262625697635012,-2.138388543379587,2.0613140441941344,1.5045492801718006,-2.236542245921929,-33.24424009935755,31.846833408203747,-145.56637984002947,40.94882237141636,-143.14810695571515,44.30464753310161,-162.33089823466835,-51.113441204605635,0.07754027669874386,7.324357032775879
-2.907470789044478,1.7262744029799,-2.138389321074164,2.061376337593216,1.5045611133881993,-2.236543023616506,-33.4287533484578,31.700706669804006,-145.3842552699653,40.759274616772245,-143.149077890013,44.30478119186949,-162.32986418287805,-51.11386901871318,0.1949176990837267,7.3452088832855225
-2.907464881062432,1.7263798856695614,-2.1385267002401647,2.0613822455752624,1.5046665960778607,-2.2366804027825067,-33.34566334954159,31.916080929232642,-145.68778090215937,40.89370045924762,-143.1516780867644,44.304744264324306,-162.33247968707556,-51.113414927296134,-0.16632185641907782,7.431019306182861
-2.907529424542709,1.7263102438299625,-2.138461267720101,2.0613177020949855,1.5045969542382618,-2.236614970262443,-33.323867966867496,31.99618655336267,-145.78840860030792,40.91684218574486,-143.14941775332363,44.304536421821076,-162.3321359103438,-51.11311433504495,0.10101356513564763,7.450220584869385
-2.9075096045851145,1.7263811057867695,-2.1384927146302184,2.06133752205258,1.5046678161950688,-2.2366464171725604,-33.195569578740006,32.04598380940144,-145.82734066139395,41.022564685274986,-143.1506843243205,44.30505463678294,-162.3331480757528,-51.11361149332222,-0.10070103828567545,7.468815088272095
-2.9074346658593093,1.7263073301288279,-2.138376381765412,2.061412460778385,1.5045940405371272,-2.236530084307754,-33.542837507132816,31.855172603747185,-145.6555327848846,40.7346972727787,-143.14972026421376,44.3052703549158,-162.32960522693298,-51.114560860009256,0.08705410050636164,7.492958068847656
-2.907553087131046,1.7263289641807231,-2.138442107818012,2.0612940395066484,1.5046156745890225,-2.236595810360354,-33.350875328739534,31.969690583955952,-145.72181002374361,40.85682677170838,-143.14903998706663,44.30491399241239,-162.3327831063337,-51.113429612707975,-0.0256978017248648,7.510704040527344
-2.9074547998711697,1.7263486160543169,-2.138448422842362,2.0613923267665246,1.5046353264626162,-2.236602125384704,-33.41719400043559,31.842796603531237,-145.61020431611811,40.83054055281317,-143.1506390895019,44.30509062977981,-162.33120392915487,-51.11405479993204,-0.020873869286559543,7.535260200500488
-2.907532891004624,1.7263883886352822,-2.138533308142714,2.0613142356330703,1.5046750990435815,-2.236687010685056,-33.32838233996483,32.14743440853842,-146.0112762062028,40.95585597926039,-143.15089506623153,44.30477251126315,-162.3340190784496,-51.11309290083187,0.17139530265493663,7.556424617767334
-2.90749523985442,1.7263638360698246,-2.1384908374613856,2.0613518867832745,1.504650546478124,-2.2366445400037276,-33.3503365481626,32.060709486402985,-145.8732750953642,40.90033426086591,-143.1507058865382,44.30487926774117,-162.33256108456916,-51.113516374893074,0.15267295180460572,7.568339824676514
-2.907542861444607,1.7263417429214396,-2.1384851554647035,2.0613042651930873,1.504628453329739,-2.2366388580070455,-33.25407817937845,32.20060156382395,-146.03151238616562,40.98284635019331,-143.1497886605751,44.30467589788118,-162.33309770968427,-51.11310746122754,0.06815665145514238,7.588001012802124
-2.9074068693330375,1.7262564663485764,-2.138373501488452,2.061440257304657,1.5045431767568758,-2.236527204030794,-33.43273586241459,31.9559673701763,-145.7113838071221,40.77889530488021,-143.14961468595632,44.304728473596136,-162.32818327378655,-51.114177412121755,0.016713767481678854,7.607417583465576
-2.907442657690844,1.7263953087544635,-2.138497364018204,2.0614044689468503,1.5046820191627628,-2.236651066560546,-33.44803905670338,32.07300088172696,-145.88489650743136,40.80355039186864,-143.1517848396802,44.30518101752672,-162.3320885715666,-51.11404210443278,0.14336073294626273,7.626990556716919
-2.9074019377012705,1.7262541473455126,-2.1383472116184867,2.061445188936424,1.504540857753812,-2.2365009141608287,-33.61776554863346,32.1728336050852,-146.0720930784091,40.698403746418904,-143.14936009516668,44.30493684883942,-162.32786071424187,-51.11448925870348,0.08709350036579577,7.651250600814819
-2.9074595071587415,1.7263096716446424,-2.138464467149144,2.061387619478953,1.5045963820529418,-2.236618169691486,-33.32006407288175,32.0870100128293,-145.94679786818443,40.96785215417265,-143.15041039131356,44.30451022645238,-162.33076038820442,-51.1134156436487,0.26531898893152484,7.673907518386841
-2.907484142285101,1.72636885619817,-2.138508293448071,2.061362984352593,1.5046555666064694,-2.236661995990413,-33.353338024646554,32.19353390637059,-146.11219489863268,40.974055291375414,-143.1511035715137,44.304781762445494,-162.33254790756,-51.11341833939345,0.2230664481067901,7.684015512466431
-2.9074220803965565,1.726403077759785,-2.138519881394274,2.061425046241138,1.5046897881680843,-2.236673583936616,-33.347792945283324,32.20937866612032,-146.1127506244424,40.96226869897589,-143.15239547134917,44.30507052733614,-162.33196881749114,-51.11396070817234,0.11993224533021607,7.706223249435425
-2.907448013099799,1.7263834985366366,-2.138509887742663,2.0613991135378953,1.504670208944936,-2.236663590285005,-33.31825150840631,32.22484904909448,-146.10586732118807,40.965580283451835,-143.15174935204834,44.304936418531064,-162.3320862004751,-51.11373775477911,0.2043479639704504,7.727225065231323
-2.9075076269533264,1.7263250400565824,-2.138467474994386,2.061339499684368,1.5046117504648817,-2.236621177536728,-33.44091426466498,31.965066214173984,-145.75406783668504,40.806419329383814,-143.14992082987618,44.30465001324689,-162.3319940015355,-51.113309711212736,0.1057353759669386,7.7465903759002686
-2.9075380212901014,1.7263437314174173,-2.1384822626216398,2.061309105347593,1.5046304418257166,-2.2366359651639818,-33.26106141193399,32.11019708498093,-145.91212561702724,40.966055348818536,-143.14983976991712,44.30472454386919,-162.33301434477409,-51.1131875061456,0.17607334569250854,7.768686294555664
-2.907556280606366,1.7263614174820547,-2.1384653243837377,2.061290846031328,1.504648127890354,-2.2366190269260797,-33.223393742385795,32.137364974481876,-145.95780555019223,41.01455658678574,-143.1495525217611,44.30507141755915,-162.33355266316354,-51.11349176930851,0.14320474670238248,7.790404319763184
-2.9075331807709905,1.7263942549380331,-2.1385448646420913,2.061313945866704,1.5046809653463324,-2.2366985671844333,-33.243442074705875,32.16181616127678,-145.97126979545155,40.982713030472645,-143.15107610144284,44.304735553696155,-162.33420448470326,-51.11301799436902,0.05410235274090125,7.81195855140686
-2.9075128040773714,1.726347108243059,-2.1384432401025673,2.061334322560323,1.5046338186513584,-2.2365969426449093,-33.385682707868085,31.835438382164355,-145.5710742408865,40.8317949405737,-143.14976884719707,44.305112590411504,-162.33229410625253,-51.11381328292627,0.11510927100672586,7.8531577587127686
-2.907620707230159,1.7262659646694132,-2.1384126139440287,2.0612264194075354,1.5045526750777125,-2.2365663164863707,-33.23403251121043,31.824997942921996,-145.50633785698105,40.92692519143581,-143.14720908634638,44.30446069716546,-162.3328653947313,-51.11275870103439,0.14311108487255808,7.8654820919036865
-2.9074941507036045,1.7262332934561775,-2.1383518635209144,2.06135297593409,1.5045200038644768,-2.2365055660632565,-33.37613455872269,31.89924431198629,-145.64425344231182,40.8337171619858,-143.14795955630294,44.304649928477716,-162.329376740372,-51.11375054224399,0.1385801972525189,7.885177135467529
-2.9075035032257492,1.7263573756729198,-2.1385152334489885,2.061343623411945,1.5046440860812191,-2.2366689359913305,-33.218845702552805,32.10908458673604,-145.91411627888857,41.01067885018348,-143.15081446007773,44.3045887830919,-162.33278972373293,-51.11311478019463,0.11982249223896302,7.90722918510437
-2.9075434713282875,1.7263262911320814,-2.13842645126763,2.061303655309407,1.5046130015403807,-2.236580153809972,-33.2520958599283,31.951332440183094,-145.6911543361616,40.943556275766596,-143.14896862900466,44.30502440964598,-162.33243682068473,-51.113634251358064,0.10568245661983244,7.938679218292236
-2.907498956239486,1.7262984025474102,-2.138408612778641,2.061348170398208,1.5045851129557095,-2.236562315320983,-33.33425178208399,32.03490293717701,-145.80608490298104,40.8773201127937,-143.1491265718819,44.304875529703544,-162.3309608209103,-51.11376217748167,0.044746396610677586,7.948018789291382
-2.9074448317456554,1.7263015823377255,-2.138391861819941,2.061402294892039,1.5045882927460248,-2.236545564362283,-33.49436437866259,32.18955652586611,-146.07726425299532,40.805394901069256,-143.1497067683822,44.305066910268266,-162.3298205609185,-51.11426370743381,0.05420005939069483,7.967499494552612
-2.9075345403613233,1.7263743477807403,-2.1384568155268986,2.061312586276371,1.5046610581890396,-2.2366105180692406,-33.29951706842875,31.989040693499106,-145.77553356488778,40.93739075120709,-143.14986928782577,44.30529492122242,-162.3332767134128,-51.11384158304104,0.06816461000974261,7.987036466598511
-2.9074922307490247,1.72639953207003,-2.13852159171099,2.0613548958886696,1.5046862424783294,-2.236675294253332,-33.37678602196382,32.089960573942676,-145.90751053316015,40.87560891986229,-143.151419133411,44.30500682261895,-162.3333148728598,-51.11355490125198,0.1198388251931175,8.00658893585205
-2.9074742626024936,1.726411122100602,-2.138494347929128,2.0613728640352007,1.5046978325089013,-2.23664805047147,-33.40838251960553,32.056947708823934,-145.88993486750394,40.865668125664016,-143.15145713853656,44.3053814152254,-162.33295904627644,-51.11409432612453,-0.0818862671629339,8.02680230140686
-2.907543662716326,1.7262517889974296,-2.1384329861847666,2.0613034639213685,1.504538499405729,-2.2365866887271086,-33.26766360436516,31.846592690280758,-145.56274635557165,40.92387003556843,-143.14837511317884,44.3041300000213,-162.33124246967077,-51.11274248840879,0.14790802597056185,8.046340703964233
-2.907477327431402,1.7263491663041517,-2.13843576063736,2.0613697992062923,1.504635876712451,-2.236589463179702,-33.34829923681209,31.82400337898528,-145.51368481880903,40.82506506199593,-143.1501890732551,44.30520661080723,-162.33157102557482,-51.11410009535696,0.06354623902100265,8.084171772003174
-2.907472868459116,1.726288438457639,-2.1383987246927467,2.0613742581785783,1.5045751488659382,-2.2365524272350887,-33.47040524635628,31.727542532833787,-145.420261408942,40.72307881873976,-143.14928265081878,44.30485485743358,-162.33020638017587,-51.11390003402753,0.1855327636787818,8.106352806091309
-2.9075480239562745,1.726361159822632,-2.1384689455051578,2.06129910268142,1.5046478702309314,-2.2366226480474998,-33.297226854586214,31.84572000433189,-145.5556893260741,40.892394756675316,-143.14970525585468,44.305037350508506,-162.33340997022515,-51.11348669182547,0.1525997697768764,8.125947713851929
-2.907509688556906,1.7263612762917016,-2.1384784134289174,2.0613374380807885,1.5046479867000009,-2.2366321159712594,-33.2798502830714,32.10826975994702,-145.8943804508965,40.93328735576832,-143.1503418593618,44.30495922474021,-162.33271747418925,-51.11356482816676,0.054125022617332874,8.145669937133789
-2.9075471876176335,1.726363883021085,-2.1385232594731516,2.061299939020061,1.5046505934293843,-2.2366769620154936,-33.25256512496144,32.12315462974489,-145.91377807836798,40.96239644412111,-143.1503642477899,44.3045850341121,-162.33382270669742,-51.112874351635554,0.08223117043768946,8.165430307388306
-2.9075685899068486,1.7263936439351861,-2.138502786395477,2.0612785367308457,1.5046803543434855,-2.236656488937819,-33.20794299129374,32.06325630666447,-145.8331615662968,40.997173680323144,-143.15010116788673,44.30509848321396,-162.33460014133948,-51.113336894303515,0.007132244113968511,8.18474006652832
-2.907501019200309,1.7263359650797674,-2.138468225178535,2.0613461074373856,1.5046226754880667,-2.236621927720877,-33.388276748807534,31.939991909747626,-145.67936221837675,40.81414818836581,-143.15011790741343,44.30476679237818,-162.33205054053684,-51.113452675762616,0.09166913605290361,8.208011865615845
-2.907465720119858,1.7263862243553483,-2.138526511305166,2.061381406517836,1.5046729347636476,-2.236680213847508,-33.409081891512244,32.118386350782856,-145.97319480016733,40.87469399086707,-143.15172104010446,44.3048169898625,-162.33260088109841,-51.11348219939385,0.1714840458777056,8.229374408721924
-2.9075645947434534,1.7263480914687146,-2.1384577704199654,2.061282531894241,1.504634801877014,-2.2366114729623074,-33.24734667414574,31.983323799936088,-145.73192378243195,40.95196800431865,-143.14923246921413,44.30498797878321,-162.3334418228612,-51.113395114912855,0.0493572600617358,8.263583660125732
-2.9075748931754455,1.7263108321997347,-2.1384244384962012,2.061272233462249,1.504597542608034,-2.2365781410385432,-33.219240599679424,31.62843183646399,-145.1855085798069,40.85636831106264,-143.14837547116,44.30486487856684,-162.33278845774123,-51.11333415921174,0.08687304059708278,8.283507347106934
-2.907554717328115,1.7263502194548976,-2.138444726293936,2.0612924093095795,1.504636929863197,-2.236598428836278,-33.448215611886965,32.07952936943743,-145.90839846781932,40.81689503648236,-143.14923759151617,44.30512908832849,-162.33318900004593,-51.113622362096784,0.08221117617944529,8.33428430557251
-2.907443043484609,1.726388836625056,-2.1384876715885124,2.0614040831530853,1.5046755470333553,-2.2366413741308544,-33.435713377399864,32.10628980998358,-145.95750370805945,40.84676154433131,-143.15161048793289,44.30519451668798,-162.33191962996634,-51.114084881495664,0.2841118453439133,8.346209049224854
-2.907531553197587,1.726353756070148,-2.1384936349430923,2.0613155734401074,1.5046404664784474,-2.2366473374854343,-33.257861745912706,32.01455494557512,-145.76836912195765,40.941753724460256,-143.15014875009942,44.30473674050707,-162.33313369460578,-51.11319357900128,0.06817293803411273,8.368070125579834
-2.9075819785211348,1.7263105778236791,-2.138455460349871,2.0612651481165596,1.5045972882319785,-2.236609162892213,-33.289505051612394,31.81458482537233,-145.53584399079122,40.915524225755895,-143.1486317463608,44.30458528357559,-162.33314419054102,-51.112927271062375,0.1197097883444953,8.390248775482178
-2.9075148573615,1.7262148380563245,-2.138311237375782,2.0613322692761944,1.5045015484646238,-2.236464939918124,-33.341590956189606,31.796418320114327,-145.49494205797404,40.83945979953867,-143.1470438185167,44.30480145772277,-162.3291925121033,-51.11393012386849,0.09162967109360753,8.454969644546509
-2.907621106224657,1.7262541409887036,-2.1383302005742264,2.0612260204130375,1.5045408513970029,-2.2364839031165684,-33.26958891684463,31.75207750528039,-145.43114657749922,40.90096991537803,-143.14615228807727,44.30506077192205,-162.3320933035362,-51.11360823711201,0.2416272146630969,8.484471559524536
-2.9075471610677917,1.7263838199405093,-2.138508092616458,2.0612999655699027,1.5046705303488086,-2.2366617951588,-33.1097524494606,31.966528390929216,-145.6767906942227,41.05293758806546,-143.15036878954254,44.30494368927571,-162.33404797627378,-51.11327249427848,0.1103801714298247,8.507538080215454
-2.9075566160640527,1.7264165604206172,-2.1385012382373967,2.0612905105736417,1.5047032708289165,-2.2366549407797387,-33.21376465265804,32.019865207081224,-145.76718741504195,40.97859803486536,-143.1504528058977,44.30537095961904,-162.3347341452209,-51.11366458611474,0.14320943092749738,8.526924133300781
-2.9076208660347964,1.7262508223511477,-2.13840193887871,2.061226260602898,1.504537532759447,-2.236555641421052,-33.125984751098045,31.84409313847895,-145.50511930994332,41.00810713144591,-143.14694908563507,44.30438563283871,-162.33254018203448,-51.11271966870452,0.058657627153310354,8.549286127090454
-2.907581308695697,1.7262721797735687,-2.1383922443637378,2.0612658179419974,1.504558890181868,-2.2365459469060798,-33.066623696685944,31.72590379603739,-145.39336856427906,41.09461561935222,-143.14757244167785,44.30471649610135,-162.33204273641226,-51.113263651140144,0.1525447446409003,8.568219423294067
-2.907474747359737,1.7264127316345785,-2.1385403270366066,2.0613723792779575,1.5046994420428779,-2.2366940295789486,-33.28711208385504,32.11778608936627,-145.9427749978898,40.9642796115159,-143.15199237424602,44.304990539653545,-162.3333205193444,-51.113562472836115,0.1339399806637367,8.589449882507324
-2.9074938950443556,1.7264001977483523,-2.1385054925969462,2.0613532315933387,1.5046869081566516,-2.2366591951392882,-33.29731181425425,32.12412154254442,-145.96927887851396,40.971541919220066,-143.15121750181484,44.30515725302386,-162.33324526262822,-51.11374547320226,0.08699226878077004,8.608911037445068
-2.9075278059604712,1.7264047262271578,-2.1385221538734496,2.061319320677223,1.5046914366354571,-2.2366758564157916,-33.31819638052522,32.08454867378367,-145.89202304847817,40.92367168626838,-143.1509830076277,44.305055711223375,-162.33411212545386,-51.11342902944186,0.11979149454310445,8.628406524658203
-2.907537917697167,1.7263494472883725,-2.1385195072948986,2.061309208940527,1.5046361576966718,-2.2366732098372406,-33.27608323796898,32.22372032278486,-146.1026990702489,41.00415090114442,-143.15031959641206,44.304457516233896,-162.3333709858097,-51.11280728347934,0.09631823736582401,8.646897554397583
-2.907558364098809,1.7264000863439657,-2.1385596862255816,2.061288762538885,1.504686796752265,-2.2367133887679236,-33.21983589934534,32.162066143048904,-145.9615851004158,40.99639584723856,-143.15095211271986,44.30466608388985,-162.33490675932785,-51.11278079703177,0.11037184751773133,8.665849685668945
-2.9075813901823313,1.7263358479808506,-2.1384492043698677,2.061265736455363,1.50462255838915,-2.2366029069122098,-33.20150196007794,31.947309579160034,-145.64213299187432,40.950765294556874,-143.14879390495432,44.30492463685742,-162.33351035792097,-51.11328038709327,0.17131949163042925,8.688405990600586
-2.907536272448447,1.726329548692801,-2.13843153309134,2.0613108541892475,1.5046162591011003,-2.236585235633682,-33.277856892907415,31.775003635874864,-145.45790426112785,40.896212009750144,-143.14915500241486,44.30501667954947,-162.33238417381304,-51.11364492684848,0.04939155664427197,8.72272515296936
-2.9074832793178462,1.7261801402000496,-2.1383300656626725,2.061363847319848,1.504466850608349,-2.2364837682050145,-33.440605893839276,31.954165927093438,-145.7471493014715,40.80580830147975,-143.14738380140577,44.304248461960285,-162.32811893197538,-51.11348351062262,0.049447839112979786,8.763653039932251
-2.9075160133680304,1.726371001991251,-2.138470503007048,2.061331113269664,1.5046577123995504,-2.23662420554939,-33.47585395228368,31.88568767594961,-145.61342485245,40.72804636311804,-143.15025108806375,44.30513795051913,-162.33294961554893,-51.113733810956056,0.04942393480782359,8.783116340637207
-2.907521766029965,1.726373045054184,-2.1384751563995783,2.0613253606077295,1.5046597554624834,-2.2366288589419203,-33.4435293080244,31.88496107620245,-145.61667225065025,40.76387286873088,-143.1502436654722,44.30511878773416,-162.33313087864795,-51.1136723055211,0.10102626089699918,8.802627086639404
-2.907668145415997,1.726323961940265,-2.138404616416209,2.061178981221697,1.5046106723485644,-2.236558318958551,-33.11682927590237,32.13404724329596,-145.9216749546842,41.08390701110609,-143.1469836371186,44.30517691239247,-162.33471974899317,-51.11325226669328,0.16650632704720447,8.851978063583374
-2.9079851935284635,1.726121661671499,-2.1377653863744497,2.060861933109231,1.5044083720797983,-2.2359190889167917,-32.52938294897763,32.04609307339664,-145.48544418428887,41.31036354188599,-143.13348184088323,44.30855019269431,-162.33311964757195,-51.11708337282962,0.2082270300175164,8.902522802352905
-2.9077798904077867,1.7259206795042243,-2.136703199972055,2.0610672362299076,1.5042073899125237,-2.234856902514397,-32.98904555558524,32.3996708937991,-145.98867909322408,40.910730437432456,-143.12231058413104,44.3157656111564,-162.31816657855504,-51.12854710844558,0.20836613275164284,8.926698923110962
-2.9082136019314158,1.72590204782767,-2.1347408998811215,2.0606335247062786,1.5041887582359694,-2.2328946024234635,-32.686047924414986,32.09400574482497,-145.5708746433542,41.102912457104175,-143.09362930140728,44.33295128722457,-162.31257688252103,-51.149571198986536,0.09024812788198844,8.945497512817383
-2.9096212287719587,1.7259171087249345,-2.1234352402722503,2.0592258978657356,1.5042038191332339,-2.2215889428145923,-30.94469321038582,31.36719562801036,-144.19141271500675,42.00077877316157,-142.9439565891788,44.43351440475262,-162.26041176771201,-51.27778212618851,0.2511657790653534,9.012723684310913
-2.9100813947606596,1.7259567993515104,-2.1203486784438064,2.0587657318770347,1.5042435097598097,-2.2185023809861484,-30.55620215264993,31.31140668380717,-144.0099484221096,42.18328135429545,-142.90221443029768,44.46136510521777,-162.24819292954277,-51.312906681571754,0.13756162806074812,9.025166034698486
-2.9107038966247907,1.7255359697598165,-2.11428594693713,2.0581432300129037,1.5038226801681158,-2.212439649479472,-30.730419369686793,30.93030600374011,-143.74124448481186,42.0426791587514,-142.8194306403436,44.51051980457318,-162.21002225663213,-51.377950661545064,0.03743511618835704,9.04651141166687
-2.911188857578053,1.725633623308834,-2.1081410802272242,2.057658269059641,1.5039203337171334,-2.2062947827695663,-30.192183946951438,31.497606653487242,-144.90922715378534,42.80694018228313,-142.74197297787845,44.56629180450097,-162.17704926061145,-51.45050324260882,0.10169902424736055,9.068697929382324
-2.9120740919364736,1.7251512560760072,-2.101529222301688,2.0567730347012207,1.5034379664843065,-2.19968292484403,-29.76643366155661,31.230724820160084,-144.76560400818803,43.19866785312345,-142.6480518869583,44.61962038530824,-162.13872771439577,-51.52054576583754,0.10905625207686853,9.089267253875732
-2.913941801246837,1.7247567727152786,-2.0903035254908495,2.054905325390857,1.503043483123578,-2.1884572280331915,-30.20254694420894,29.871126725743085,-143.00271900634326,42.454484108649446,-142.4866516591093,44.714864136414185,-162.08776502505089,-51.64281729325924,0.04882305547810084,9.12473750114441
-2.915139095972342,1.7243717271797732,-2.083819619447619,2.0537080306653523,1.5026584375880725,-2.181973321989961,-29.881172932056202,29.925721635173183,-143.07628393409504,42.59479025912864,-142.389961044087,44.76806260395082,-162.05780706099245,-51.71141305996835,0.22467239398104466,9.144797801971436
-2.9162750951988787,1.724042619629847,-2.077546477896993,2.0525720314388156,1.5023293300381464,-2.175700180439335,-29.698580169836976,30.522086775672665,-143.7787661286438,42.551303802973806,-142.29681911771593,44.82002080985813,-162.02893641504303,-51.778558340924754,0.13319737463003367,9.165043592453003
-2.9177591109424528,1.723483271065584,-2.0713717859146605,2.0510880156952416,1.5017699814738834,-2.1695254884570025,-29.673658038086536,31.064068790132513,-144.35073601056908,42.293829138493464,-142.1976854550054,44.86836493372983,-162.0037906972427,-51.84047268477252,0.03656670636764092,9.185134887695312
-2.919712858521458,1.7227633648963587,-2.0641773592129393,2.0491342681162363,1.501050075304658,-2.1623310617552813,-29.21581542404795,31.612314844563816,-144.9153886350839,42.38356335148926,-142.0781051305248,44.923801943877436,-161.97774267898413,-51.911011129492884,0.10337592878983282,9.210187196731567
-2.9212330355247538,1.7218852275690766,-2.0575973054008347,2.0476140911129406,1.500171937977376,-2.1557510079431768,-29.41604773421864,31.58769663992836,-144.76290185754956,41.91246816721797,-141.97009582498794,44.97207168105764,-161.94446744058516,-51.97460389535974,0.05354629496237173,9.2340829372406
-2.9220043650334713,1.7216106278243453,-2.0550782014504008,2.046842761604223,1.4998973382326446,-2.153231903992743,-29.720031114586504,31.51522421147194,-144.67486034790159,41.57149877640235,-141.92660116209765,44.991164630538755,-161.93664443175277,-51.998774823966194,0.10847628642653051,9.243412494659424
-2.923697955037824,1.7208596200419002,-2.050262018895046,2.04514917159987,1.4991463304501995,-2.148415721437388,-29.725719884686686,31.253377152569804,-144.02985167028322,41.1353665917014,-141.8382531161238,45.02498739034133,-161.92223549148687,-52.041519715926334,0.011716841369350028,9.26290249824524
-2.9252680351447466,1.7200659511882659,-2.0458358936296923,2.0435790914929477,1.4983526615965652,-2.1439895961720343,-29.673575804832147,30.894147310944625,-143.6732048784379,41.137726150770035,-141.75578473108612,45.05485270248922,-161.9074172780715,-52.07969022044247,-0.00037804560390819475,9.282447576522827
-2.92704739013543,1.7191502194254151,-2.040863402552066,2.041799736502264,1.4974369298337145,-2.1390171050944082,-29.736823783273454,30.384317231970297,-142.9331292687934,40.80877575589977,-141.66253002095442,45.08807922354606,-161.89059598389048,-52.122343605556814,0.07161847828384271,9.304529190063477
-2.9315065571484262,1.7168665160527126,-2.0306077941094864,2.037340569489268,1.495153226461012,-2.1287614966518285,-30.065597571897317,31.284357879345837,-143.6006919079605,39.79175334722478,-141.45516977006795,45.151571806462215,-161.8651897654842,-52.20251432532605,0.23778516732982835,9.36002802848816
-2.9333020738701046,1.715888146333207,-2.0266154344262284,2.03554505276759,1.4941748567415063,-2.1247691369685704,-29.586217109971354,31.827910721086553,-144.29448494530737,40.17441077731378,-141.37261199188288,45.175164363129866,-161.8549090695634,-52.2325775100031,-0.22968046520194552,9.382214784622192
-2.9349643272925525,1.7145415437787535,-2.022597961392945,2.033882799345142,1.4928282541870528,-2.120751663935287,-30.51440019947933,31.205145079054898,-143.5870250120804,39.178776677145294,-141.28814232521725,45.19480479272649,-161.83513113548736,-52.25955911622881,-0.03544055773592403,9.402055025100708
-2.936932402736343,1.7137997989573863,-2.0179403548692365,2.0319147239013513,1.4920865093656857,-2.1160940574115785,-30.758811994072087,31.483698431750422,-144.2565112925326,39.151147823126884,-141.19688971497808,45.22684342847812,-161.82740493298763,-52.29987668340762,0.07385496608578235,9.429596424102783
-2.938771677051248,1.712561087236294,-2.0139829555177746,2.0300754495864464,1.4908477976445933,-2.1121366580601166,-30.89304489659583,31.225335621731006,-144.03416316103704,38.968070732160996,-141.11144744866692,45.246985250720876,-161.8135825965209,-52.326620643190864,0.06141839258549053,9.451477766036987
-2.939559877794598,1.7122720432386136,-2.012220101510879,2.0292872488430964,1.490558753646913,-2.110373804053221,-30.461741416304086,31.301934492839404,-143.97117057718035,39.19571153237722,-141.07614653195043,45.258959201276326,-161.81139584351962,-52.34164273796889,0.17270719630976528,9.461531639099121
-2.941886786969511,1.7105915116623576,-2.005538534071564,2.0269603396681832,1.488878222070657,-2.103692236613906,-30.22216796667433,31.471767938954418,-144.1017549627485,39.1612434253827,-140.94594314089832,45.29796119020834,-161.77876445072042,-52.3953307122567,0.09823376183067056,9.494370937347412
-2.942722684673183,1.710251434897346,-2.0036480367258576,2.0261244419645115,1.4885381453056454,-2.1018017392681996,-30.068808874988633,31.23476808145191,-143.82757669353305,39.25789158352214,-140.90782462341014,45.31042341551907,-161.77564492427464,-52.41122770156397,0.22351146277049416,9.503915071487427
-2.9439689635095863,1.7095230369126555,-1.9995487958284406,2.024878163128108,1.4878097473209548,-2.097702498370783,-30.309504471879162,30.880508675780387,-143.5151920182993,38.99217525976899,-140.83293579982873,45.33785452662274,-161.75703714847197,-52.448564862490706,-0.02272582144875024,9.52323055267334
-2.9451409414118355,1.7086538070113275,-1.99482051905525,2.023706185225859,1.4869405174196269,-2.092974221597592,-30.708651859785796,30.72771632113284,-143.33813489614366,38.43807828682284,-140.74977917889785,45.36928970505443,-161.72933233585192,-52.492673086121215,0.20022413584823573,9.542721509933472
-2.9462142848536117,1.707877554152355,-1.99025820453581,2.0226328417840826,1.4861642645606543,-2.088411907078152,-30.55656235023681,30.637395223128323,-143.13928242661987,38.354096916187515,-140.67073060701378,45.40034493282905,-161.70237298758337,-52.53630888484361,0.18874206614061562,9.5625
-2.9484490386687217,1.7063421047925225,-1.9778821375886078,2.0203980879689727,1.4846288152008218,-2.0760358401309498,-30.741887039181368,30.848602456219325,-143.29950368185573,37.72150938947977,-140.4699228599366,45.49146036839192,-161.62440321949595,-52.66481151953334,0.2684275616719374,9.612849950790405
-2.949299740707458,1.7055196975577307,-1.9702396055926512,2.0195473859302364,1.48380640796603,-2.068393308134993,-30.62256400654085,31.418465812052567,-144.4996880933988,38.18998584987182,-140.35372993922334,45.5494855113571,-161.56669498916312,-52.7484503995748,0.16298645578334092,9.642672538757324
-2.9505872281716665,1.70448842800499,-1.9595824599664753,2.018259898466028,1.4827751384132892,-2.0577361625088173,-30.668784113937065,30.673848625502863,-144.04145533652388,38.21053067817787,-140.19060730469812,45.63163153119214,-161.48977878900135,-52.86636216122643,-0.11706922384367768,9.682510614395142
-2.950965509355769,1.7039272926170679,-1.9539333936445862,2.017881617281925,1.4822140030253672,-2.0520870961869284,-31.025623422026797,30.203786084933174,-143.81548708616518,37.9741051883539,-140.10783143783107,45.675223774949295,-161.4418460706045,-52.93034001661134,-0.0010788171959461579,9.702299118041992
-2.951193470510374,1.7034206695599003,-1.9482723524283188,2.01765365612732,1.4817073799681997,-2.0464260549706608,-31.179140961168663,30.504338813487863,-144.43684606220302,37.94621591027426,-140.02721393205553,45.719668918558696,-161.3912860110468,-52.995931344075004,0.08227440776452388,9.722797632217407
-2.9519520788940135,1.7028222674533022,-1.9396773094615711,2.016895047743681,1.4811089778616016,-2.037831012003913,-30.981921990225562,30.038714964411877,-143.8111314706948,37.776599406831416,-139.90022073722642,45.7888060574663,-161.32607607370156,-53.09580938979888,0.056581584850603495,9.753752708435059
-2.9520281935959782,1.702777740877516,-1.9371939522624877,2.016818933041716,1.4810644512858153,-2.0353476548048297,-30.717450836593578,30.07472379711615,-143.8410286894939,37.97122848604,-139.86655246201082,45.81037986531752,-161.30636063322936,-53.126851967560434,0.05613580456484479,9.763720512390137
-2.9520873539148096,1.7022868128369382,-1.9319243383753832,2.0167597727228848,1.4805735232452375,-2.0300780409177253,-30.668025426572612,30.100820672318125,-144.0003912809169,37.99661100881241,-139.79276732798363,45.851671529706344,-161.25487384142457,-53.18878345073372,-0.0385145578735262,9.782963514328003
-2.952095298055219,1.7018488822329796,-1.9214511606692746,2.0167518285824753,1.480135592641279,-2.0196048632116166,-30.393996314385795,29.865895099074226,-144.05907866456977,38.29835625318136,-139.65187835292292,45.94008943064793,-161.15924196097868,-53.318839862054034,0.15239158396660013,9.821499586105347
-2.951756724181041,1.7017331595318301,-1.9156117002168842,2.0170904024566534,1.4800198699401295,-2.013765402759226,-31.041620119122705,30.01910626634829,-144.52554164338815,37.7658244861184,-139.57885232714972,45.991207690119666,-161.10031593431424,-53.394588677817346,0.1848992850583846,9.843758583068848
-2.951887696659924,1.7014410381650469,-1.910238756919819,2.0169594299777702,1.4797277485733462,-2.008392459462161,-30.743810037123158,29.831553006475374,-144.40116506616707,37.99898652431042,-139.50365042687056,46.03572373629153,-161.0521224534757,-53.460278055597236,0.27311809943033705,9.862991571426392
-2.9516328306507145,1.7011456890572596,-1.904692203284435,2.01721429598698,1.479432399465559,-2.002845905826777,-30.92923231614739,29.57499076438436,-144.36044512323954,37.88915089737963,-139.4312166034797,46.08211985377217,-160.99359632639928,-53.53005989094959,0.18825180182127443,9.88400673866272
-2.9513275829933625,1.7008796391321743,-1.8988812488094522,2.017519543644332,1.4791663495404737,-1.9970349513517942,-31.136345426059503,29.570386497771942,-144.63792091424435,37.792171028924635,-139.3560009734241,46.131295297163504,-160.93189569208113,-53.60396627088956,0.18787210147610667,9.903966665267944
-2.951319576717209,1.7008458140943126,-1.8936243079251356,2.0175275499204854,1.479132524502612,-1.9917780104674776,-31.258335860293666,29.148096037870985,-144.34359820483294,37.6830348013267,-139.2859212381549,46.177957194779694,-160.8855758384601,-53.672104520237696,0.13555283070990987,9.92409372329712
-2.9511679977742507,1.7008607641400828,-1.8879734040480847,2.0176791288634437,1.4791474745483821,-1.9861271065904267,-31.259923714468727,28.528238982726617,-143.9428091135743,37.79973290242846,-139.21279531554617,46.22887303175925,-160.83328370059925,-53.746711545992234,0.1725237419627228,9.943753004074097
-2.9511306703039524,1.7005853092905443,-1.8826224245494436,2.017716456333742,1.4788720196988436,-1.9807761270917856,-30.766989606757054,28.051795888054567,-143.24973438922876,37.97238725162559,-139.13921442355328,46.27363547946344,-160.7804488824388,-53.813693354283224,0.06861648916612673,9.962822437286377
-2.951260863631762,1.7005752702543304,-1.8771328244473913,2.0175862630059322,1.4788619806626297,-1.9752865269897333,-29.816019136232345,28.383016036529796,-143.25145297094377,38.45800956690189,-139.06365781244003,46.32257835708666,-160.73482921926635,-53.88491574184133,0.09114165888245518,9.982468128204346
-2.9508008340772434,1.7003567430732995,-1.868417000561087,2.018046292560451,1.4786434534815989,-1.966570703103429,-30.151072243531807,28.929326696097082,-144.1290961830451,38.13095689094152,-138.95057834714297,46.39864639013735,-160.6430774011533,-53.99888704405536,0.16565036406188804,10.0128173828125
-2.9506110541201434,1.7001088231335342,-1.8648650523470423,2.018236072517551,1.4783955335418335,-1.9630187548893843,-30.453316734008883,29.010582476786816,-144.32248304558317,37.81219984161294,-138.90290418733923,46.42781496355975,-160.6024106600513,-54.043604566077406,-0.0832418051599837,10.024885177612305
-2.9505592388872244,1.6997516261199648,-1.8575561835805765,2.01828788775047,1.478038336528264,-1.9557098861229185,-30.69932885334905,28.496017346253964,-143.9911031866277,37.56701439297731,-138.8012066011172,46.48928689813799,-160.52881528749054,-54.13605490596854,0.03311365324154325,10.050027132034302
-2.950578850764212,1.6993687999370293,-1.8420156251821316,2.0182682758734822,1.4776555103453286,-1.9401693277244736,-30.127875345880952,28.302496237743625,-144.0161218619291,37.966649543895706,-138.58521943930262,46.6243424150274,-160.38063155111033,-54.33716371364575,0.19984946313497476,10.1045823097229
-2.950453505931993,1.6991845483271288,-1.8362847706466168,2.018393620705701,1.4774712587354282,-1.9344384731889588,-30.679314877351167,27.950081843205602,-143.92611087706342,37.50654320584837,-138.5065259601488,46.6738247013655,-160.32154211058932,-54.41166236620121,0.19923432738698388,10.124194860458374
-2.9506460796908454,1.6988843115973857,-1.8291496389592625,2.018201046946849,1.477171022005685,-1.9273033415016045,-30.672667935083545,27.815556186944086,-143.95385136996128,37.48199265806047,-138.40269731898533,46.73421817412082,-160.25411120484333,-54.502303696295385,0.24958709447054783,10.148523092269897
-2.9507254053774576,1.6991225161867134,-1.8228367677629729,2.0181217212602367,1.4774092265950127,-1.920990470305315,-30.391098354353236,27.664919660072083,-143.80459785592737,37.62241062733828,-138.31639039312424,46.79368404807402,-160.20161598080622,-54.588906546773956,0.34245211977169676,10.171154499053955
-2.9507114375072825,1.6988753160447536,-1.819829258565137,2.018135689130412,1.477162026453053,-1.917982961107479,-30.36996717238571,27.5381848589293,-143.7161898952399,37.60034781792821,-138.27255756329617,46.81784964134562,-160.16836117443583,-54.62627258664085,0.07462155240218937,10.181247234344482
-2.9507890281175424,1.698863037553627,-1.814436867060089,2.018058098520152,1.4771497479619264,-1.912590569602431,-30.621935306363714,27.425707483901952,-143.82556542181268,37.411333252679235,-138.19632724443585,46.866121693072046,-160.119147728322,-54.697924634138154,0.15353245718928665,10.20091962814331
-2.95131350025308,1.698124088671904,-1.7940298079189856,2.017533626384614,1.4764107990802033,-1.8921835104613276,-30.879801080312244,28.017724652037515,-144.64839951883613,36.7181896281674,-137.89609652832027,47.04044211974585,-159.9222655793429,-54.961273102044345,-0.047083108435199694,10.273083686828613
-2.951311957986407,1.6980078267764065,-1.791176592517789,2.0175351686512872,1.4762945371847058,-1.889330295060131,-30.890982506396988,27.825129862952977,-144.46134209224095,36.633177425111974,-137.85476589864822,47.06476615462998,-159.8924040659421,-54.99839982910023,0.0932766140154273,10.282920598983765
-2.951842827094421,1.6977613740615871,-1.7848279204394129,2.0170042995432733,1.4760480844698864,-1.8829816229817549,-30.541218244820772,27.467446706450513,-144.15097219197295,36.899394775553105,-137.75524854185124,47.118326943202895,-159.83837032737753,-55.07908860177308,0.18079090152922594,10.30558156967163
-2.95207864856302,1.6975911353390394,-1.7786734032916065,2.0167684780746744,1.4758778457473387,-1.8768271058339485,-30.406160680819593,27.2292660607723,-143.81272903781772,36.76037216029627,-137.66296129915096,47.17142864612976,-159.78044434987413,-55.15943499551695,0.26405793451952686,10.327482223510742
-2.9524798982806844,1.6976046124224633,-1.7734206562499204,2.01636722835701,1.4758913228307626,-1.8715743587922624,-29.918250544967346,27.315127111477747,-143.56896937178004,36.77869680924842,-137.5826363262147,47.21835047887942,-159.73852534072617,-55.22918801722839,0.12201526758102688,10.347227334976196
-2.952556140528458,1.6975256608612648,-1.768337051692604,2.016290986109236,1.475812371269564,-1.866490754234946,-29.848228528708763,28.07594010509407,-144.38496785491978,36.71878365845792,-137.50816371807736,47.26310681557624,-159.6885598035943,-55.29701264913877,0.11651345565062554,10.367282152175903
-2.9527498347011107,1.6971859945272332,-1.7617040728955091,2.0160972919365836,1.4754727049355325,-1.8598577754378511,-30.471203796479976,28.059159123672934,-144.7547383010957,36.25929838902115,-137.4071650215012,47.31857750263425,-159.62051303172532,-55.382538017570226,0.19038360349896166,10.389947891235352
-2.9528934351544662,1.6972036802861912,-1.7562174678102869,2.015953691483228,1.4754903906944905,-1.8543711703526289,-30.568809543071215,27.759228967802446,-144.49311695883821,36.04408515946965,-137.32634041241917,47.36802158604272,-159.56937971645462,-55.456990807667246,0.302027272645363,10.41110873222351
-2.9530471088723296,1.6971222095437437,-1.7535228101251528,2.0158000177653648,1.475408919952043,-1.8516765126674948,-30.440753157244224,27.65247726020811,-144.4060663794326,36.13027385270594,-137.2845593352988,47.39111784349712,-159.54434272268824,-55.49222172174565,0.10438148944470349,10.420917272567749
-2.9533330329003515,1.6966863912332477,-1.7471750526459418,2.015514093737343,1.474973101641547,-1.8453287551882838,-30.647913068001387,27.265220931115667,-144.18231476582204,35.88956517404423,-137.18468649509018,47.442740586618456,-159.47841410505302,-55.57279340423699,-0.03766582470864055,10.4429030418396
-2.953723675534189,1.6965222515709493,-1.740897028510557,2.015123451103505,1.4748089619792486,-1.839050731052899,-30.612444546481264,27.1407983933834,-144.10746504057636,35.79521073724881,-137.08654846447365,47.49679205034036,-159.4206656192362,-55.65536473486658,0.017209397869755172,10.465086460113525
-2.9541688722016244,1.6963381809496525,-1.7293206328805766,2.01467825443607,1.4746248913579518,-1.8274743354229186,-30.322659969612285,27.16658956484707,-144.15776825498102,35.798970837121864,-136.90963075761073,47.59826998340008,-159.30890251054035,-55.81058219657006,0.06658234569888055,10.505593299865723
-2.9543676974207824,1.6961024280617054,-1.723169620190951,2.014479429216912,1.4743891384700047,-1.821323322733293,-30.292799701834255,27.149154012436984,-144.3249240038668,35.85064833102364,-136.8144011267964,47.65060417533957,-159.24525805438145,-55.89183168157365,0.2015035622127046,10.525919914245605
-2.9545903294332847,1.6959789186409913,-1.715553945886037,2.0142567972044096,1.4742656290492906,-1.813707648428379,-30.230207396421743,26.912500760793357,-144.10523416771662,35.7115044911943,-136.69793718235016,47.71743672751209,-159.16869383111006,-55.9947381703317,-0.006306956559942289,10.551004409790039
-2.9545979413648404,1.695989733100921,-1.7125521137365594,2.014249185272854,1.4742764435092204,-1.8107058162789014,-30.576196334791742,26.805464958406684,-144.0870638382117,35.32308759805444,-136.6535628631395,47.74461715525879,-159.13759798844313,-56.03638060768061,-0.011423644798557842,10.5614492893219
-2.954665119340229,1.6958052861924235,-1.7055470726752064,2.014182007297465,1.4740919966007229,-1.8037007752175485,-30.75079864072735,27.136591536543776,-144.58258811726822,35.0942695522409,-136.54706773782297,47.805471335148866,-159.06158430355893,-56.13105005590148,0.14233538610231955,10.583683729171753
-2.9551038128595675,1.695794174191523,-1.6928245050507686,2.013743313778127,1.4740808845998223,-1.7909782075931107,-30.956904116485266,26.385110534401345,-144.0861402537407,34.74411706648014,-136.35116823100046,47.91933381555975,-158.93638132197052,-56.306181088140946,0.2666283116797943,10.623130083084106
-2.9553041169159977,1.6958377281591492,-1.686582703030543,2.0135430097216966,1.4741244385674486,-1.784736405572885,-30.75269708298696,26.044881324555334,-143.71842099309194,34.74853318010544,-136.25520663140713,47.97580126563096,-158.87493891271694,-56.393012648105795,0.09188554214458611,10.642534017562866
