dx1,dy1,dz1,dx2,dy2,dz2,azm1_cf,ele1_cf,azm2_cf,ele2_cf,azm1_an,ele1_an,azm2_an,ele2_an,tdoa_bias,time
-5.7353027325317765,-2.0083807212664095,-2.7897306140198816,0.31476691045753435,-1.516104426262734,-0.13590220691503418,19.29606329013653,25.96409916366571,100.85341542070478,3.135157662571245,21.421931139961607,36.85977579120581,96.90268546970661,57.081820941270294,0.14138504473186586,2.02490234375
-5.735227226567569,-2.008612599275462,-2.790076215649703,0.31484241642174204,-1.5163363042717863,-0.13624780854485538,19.628581024072943,25.833942489298362,100.87834349303569,2.5069656983086146,21.425506383350765,36.861598270618025,96.92463235951777,57.08111187334604,0.14150766717610708,2.0473134517669678
-5.735372547958248,-2.0084493990809476,-2.789786940567439,0.31469709503106413,-1.5161731040772721,-0.1359585334625914,19.459113870288604,26.06755603822307,100.94802535381216,3.007092517280019,21.422125787991572,36.860120111277254,96.90535134096194,57.07854883533105,0.16479728991642428,2.060575008392334
-5.73519482907969,-2.008507447105151,-2.7898916599017496,0.3148748139096216,-1.5162311521014753,-0.13606325279690212,19.298290209124687,25.744520577039637,100.7102967768956,2.8268598273967602,21.423917860736225,36.86095891169595,96.91336675790347,57.08396536856951,0.057079731869718486,2.0738439559936523
-5.73504212092571,-2.008575939436331,-2.7898710224847547,0.31502752206360096,-1.516299644432655,-0.13604261537990692,18.763897266821054,25.548764359880224,100.32481890030199,3.1213281857155417,21.424376839251764,36.861914456954494,96.91271242303898,57.0890642959708,0.05729468386606662,2.100694417953491
-5.735213028775962,-2.0086237469244512,-2.7899657677286775,0.3148566142133493,-1.5163474519207758,-0.13613736062382997,19.144163922707573,25.49508455219688,100.46700837349518,2.634961117758478,21.424495273904068,36.8618074049014,96.917277060967,57.08211743414918,0.11341609485170068,2.1134939193725586
-5.73495626737436,-2.0084481588192125,-2.7898197452965747,0.3151133756149509,-1.516171863815537,-0.1359913381917272,18.892684280752665,25.736885768441322,100.57868191659091,3.377007840158252,21.424333356577318,36.8611238946601,96.9109720788763,57.09329705588503,0.06670006442335641,2.1708266735076904
-5.735065343731934,-2.0084206599203895,-2.7898203425129053,0.3150042992573767,-1.516144364916714,-0.13599193540805785,18.92606039861271,25.615423812030485,100.52630353501783,3.2009944897019498,21.423857813739296,36.86062684572757,96.91032831631576,57.08957908631579,0.37622226316252316,2.1974406242370605
-5.7353892601524095,-2.0084145845752035,-2.7897460243287107,0.31468038283690225,-1.5161382895715279,-0.13591761722386314,19.10796521103727,25.47585846297509,100.48322497584319,2.7422903797113025,21.42167091505479,36.85982484940524,96.9027458483267,57.07840538163802,0.21168747955809408,2.2099382877349854
-5.735261221105748,-2.0085912796815713,-2.789991623628393,0.3148084218835634,-1.5163149846778956,-0.13616321652354535,19.31399615471891,25.494259523340137,100.60887707879483,2.5793921969868423,21.42454322339949,36.86140278265792,96.91886060580298,57.08048321555739,0.21186151665617103,2.238240957260132
-5.735349297447298,-2.008412545315631,-2.7897767118576113,0.3147203455420131,-1.5161362503119555,-0.13594830475276387,19.3235272655326,25.433222834419592,100.5737275418728,2.474745280024244,21.422150571594802,36.85988492030467,96.90514197699166,57.07969161759065,0.211718351573146,2.251445770263672
-5.7352849224956,-2.008561401948832,-2.7898833662274245,0.31478472049371087,-1.5162851069451562,-0.13605495912257676,19.41594241220772,25.785840874806155,100.71173016327002,2.5950872863121384,21.423401773533225,36.861180820801245,96.91165656486666,57.08040564021313,0.11332495777326557,2.2755653858184814
-5.7353533145750335,-2.0084091122226644,-2.789568996824503,0.31471632841427777,-1.5161328172189887,-0.1357405897196555,19.28988419164948,26.117723609592336,100.80998583572315,3.062915732585378,21.42012170930837,36.860002349175176,96.89124196414816,57.08065046839555,0.11325332740690897,2.2881019115448
-5.735251743687918,-2.0086630820391282,-2.789930162418573,0.3148178993013935,-1.5163867870354526,-0.13610175531372498,19.363524582351005,25.78706733814429,100.67594373475916,2.632228516677307,21.4239550395808,36.86205858676149,96.91427487763252,57.08064202544905,0.14156389519297718,2.328281879425049
-5.735216264481076,-2.0085370424398583,-2.7898552814523776,0.3148533785082357,-1.5162607474361829,-0.1360268743475298,19.44560217456714,25.96103572742401,100.85534371217818,2.833673034963866,21.423453407406285,36.86117427340607,96.91052958881465,57.08318046709086,0.14154112779115557,2.353597402572632
-5.735177781008254,-2.0085886653077303,-2.7899850558458046,0.31489186198105745,-1.5163123703040544,-0.13615664874095673,19.19907618062634,25.838771385320733,100.72618464999184,3.0747688444212917,21.424859573880088,36.86159451020214,96.919126935101,57.08352393669174,0.9813996174748674,2.4282302856445312
-5.7351810210608525,-2.008560131663495,-2.789904931324465,0.3148886219284588,-1.5162838366598193,-0.13607652421961758,19.270556921307175,25.63157215563478,100.6173682542467,2.6862195776414506,21.424082849891693,36.86141350173213,96.91396168829478,57.08402359847045,0.9814033392199217,2.453463315963745
-5.73530796450061,-2.0085367105177463,-2.7899368934584516,0.3147616784887015,-1.5162604155140704,-0.13610848635360395,19.59030365727022,25.873085111040627,100.88018753044148,2.5907136053699116,21.423828069315064,36.8608816998856,96.91523736156412,57.07947405310554,0.9812424030396691,2.482381582260132
-5.735347370196328,-2.0085660392414386,-2.7899265357250767,0.3147222727929839,-1.516289744237763,-0.1360981286202289,19.50605376790397,25.525161760641772,100.63626938584056,2.238709063560825,21.423534290397104,36.8610305713929,96.91399512900718,57.07791220371033,0.9812238370808792,2.494697332382202
-5.735262614623269,-2.0084998385196684,-2.7899059251442537,0.314807028366042,-1.5162235435159928,-0.1360775180394062,19.37670628546375,25.46711767016222,100.580041171686,2.3793351394964466,21.423752229246666,36.860717019771144,96.91382283119157,57.08151634555971,0.010080584660081549,2.5064468383789062
-5.735050698224178,-2.008518573943723,-2.789905100029461,0.3150189447651335,-1.5162422789400472,-0.13607669292461302,19.04192756886083,25.384643475862507,100.39010643598066,2.6654016947213646,21.42469663563764,36.86139923639318,96.91536364287583,57.088979961277566,0.01031819568270631,2.5312435626983643
-5.7348972583060664,-2.008486305112881,-2.789791554161308,0.31517238468324527,-1.5162100101092053,-0.1359631470564604,18.90569548527752,25.945947042012488,100.61382112730334,3.423726790622516,21.424309040472952,36.86160363351603,96.90927655346225,57.09529083347264,0.010496565897080146,2.555408239364624
-5.735187269622525,-2.0086570852301695,-2.7900339189564662,0.3148823733667867,-1.5163807902264939,-0.13620551185161875,19.15929684777019,25.707914236194053,100.52349658684234,2.7345912122116554,21.425255805299773,36.862092772927355,96.92178901464808,57.08245301932993,0.3245726292741198,2.567842721939087
-5.73520561568704,-2.008613635749215,-2.789954061391561,0.31486402730227114,-1.5163373407455394,-0.13612565428671317,19.350252220783688,25.66842900386589,100.66527103883998,2.6269888762534217,21.42442054706921,36.861752125686024,96.91663305568063,57.08251427252143,0.04304411619372761,2.618358612060547
-5.73534223445176,-2.0086508403672974,-2.7900809622674334,0.3147274085375513,-1.5163745453636217,-0.1362525551625859,19.5443749085238,25.62999836160055,100.70986966747734,2.3277479063009032,21.42501137496554,36.861619985509776,96.92370955993165,57.076701943480366,0.042882552848889866,2.63051176071167
-5.735263684387588,-2.00857700794188,-2.789980988093282,0.31480595860172267,-1.516300712938204,-0.13615258098843458,19.63135435350769,25.758759719405305,100.8348865606481,2.4043661094416637,21.424436119380157,36.86128809852088,96.9182391507314,57.08054979998634,0.23531125899606575,2.6549456119537354
-5.735056878758929,-2.0086385012685497,-2.7900470586477195,0.31501276423038194,-1.5163622062648743,-0.13621865154287202,19.360056302961787,25.726397670431698,100.71788502861826,2.7130345893328776,21.425984141029296,36.862256512580856,96.92388284119995,57.08718363772071,0.23555025253303086,2.6674718856811523
-5.735527795402723,-2.008486439105991,-2.7899433939886205,0.31454184758658865,-1.5162101441023157,-0.13611498688377294,19.627235410844953,25.808320942472314,100.85978304789415,2.4820293322325937,21.422918509028968,36.85991809435069,96.91425444894165,57.0719165732526,0.23498252208749282,2.6930606365203857
-5.735329889589004,-2.0085909884403748,-2.790013810920555,0.3147397534003069,-1.5163146934366991,-0.13618540381570715,19.566189384892144,25.88479393613701,100.81961925903713,2.5220016111793617,21.424446679816953,36.86121249110954,96.9197824333378,57.077910467062416,0.23523968506656967,2.741154909133911
-5.735181338186887,-2.008514667101136,-2.7898704688109475,0.31488830480242447,-1.5162383720974602,-0.13604206170609986,19.48708804526649,25.893684696644232,100.8265814724159,2.6825944881940442,21.42377019074984,36.861067373049735,96.91200449481106,57.08450840481578,0.05241429551870702,2.7552804946899414
-5.735216451014634,-2.008505303924294,-2.789829546340526,0.3148531919746773,-1.5162290089206183,-0.1360011392356782,19.14434315743239,25.80352727927752,100.6092143287353,2.938695821472952,21.42321905249822,36.860933981991465,96.90905121017448,57.08352881576236,0.2025207108356728,2.8319027423858643
-5.735332031769104,-2.0086314816401396,-2.7899954685320436,0.3147376112202074,-1.516355186636464,-0.13616706142719587,19.4242843574457,25.496461082584524,100.60395195210343,2.3438305042970935,21.424239091601287,36.861551432734466,96.9182261037345,57.07764708403017,0.17896967571929245,2.8800666332244873
-5.73504272650045,-2.0084501658410416,-2.7897989463411075,0.3150269164888613,-1.516173870837366,-0.13597053923625982,19.241251029122637,25.652319734232357,100.63931170844252,2.7775375693141795,21.423738472454072,36.860940163656814,96.90885534391045,57.090294532529356,-0.045985637183976635,2.8924169540405273
-5.735231156600433,-2.0084364095963285,-2.789854313966043,0.3148384863888789,-1.5161601145926529,-0.13602590686119528,19.11781422734951,25.655525028600653,100.5989689840632,2.9662126784748137,21.423426590760435,36.860316344430814,96.91111803604997,57.08335362500884,0.15084093363857853,2.9048078060150146
-5.735404250289411,-2.0084664677596833,-2.789829963353516,0.3146653926998999,-1.5161901727560076,-0.1360015562486685,19.341451294885136,25.995358326238495,100.83763960333444,3.023356153085519,21.422390213755886,36.86014815936329,96.90783705839075,57.07707080468361,0.19291157362654054,2.928203821182251
-5.735165621248518,-2.0085402191235913,-2.7898405113248668,0.3149040217407939,-1.5162639241199154,-0.1360121042200193,19.231147258257085,25.660492883350653,100.65057139815914,2.835514888932343,21.423538559552238,36.861337604467884,96.90993296463611,57.085048932593864,0.2542040716407241,2.952988624572754
-5.735052696849669,-2.0084702826634677,-2.789856748973949,0.3150169461396417,-1.5161939876597923,-0.13602834186910145,19.054179912389564,25.675946263402565,100.59124377668694,3.072562189280921,21.42424319618758,36.86103623261754,96.9124851647426,57.08949663303157,0.2589628503029049,2.9884982109069824
-5.73509842668634,-2.008490875710983,-2.7899053053098855,0.3149712163029714,-1.5162145807073075,-0.136076898205038,18.75935567409636,25.609476144917146,100.43594203408635,3.368704761495801,21.424495811543384,36.86105389926227,96.91519871027538,57.08746263488574,0.25891225006193075,3.014380693435669
-5.735183035518527,-2.0087025198671915,-2.790077728879298,0.31488660747078434,-1.5164262248635156,-0.13624932177445043,19.383351836849243,25.720469147149124,100.72747385389103,2.69609773295917,21.425676812222104,36.862441415080745,96.92440302778896,57.08205998479409,0.07123831686068272,3.0504982471466064
-5.735285370208507,-2.0086353263739967,-2.7900815123497056,0.314784272780805,-1.516359031370321,-0.13625310524485773,19.511337626341852,25.528903904839773,100.68248760574149,2.32805808867934,21.425282499013786,36.861634785942584,96.92433343660848,57.07884366333351,0.22591129255925946,3.0746865272521973
-5.735385780497507,-2.008484723801673,-2.789834668996112,0.3146838624918047,-1.5162084287979973,-0.1360062618912647,19.50033794287024,25.44244473155735,100.62748559788676,2.223053499172337,21.42251052160143,36.86033973795145,96.90816278526256,57.07758064659552,0.22578456219603726,3.086730480194092
-5.735059098864976,-2.0085809212745818,-2.7899842878543994,0.3150105441243354,-1.5163046262709061,-0.13615588074955198,19.026167498420932,25.48612023159057,100.46216138406659,2.861197755949607,21.425394626219997,36.86182794296947,96.92011053203932,57.08783228671685,0.09477693652562724,3.1114039421081543
-5.735249032427594,-2.0084749363124557,-2.789733611415788,0.3148206105617173,-1.51619864130878,-0.1359052043109401,19.132141097483498,25.57325028812326,100.46344654515744,2.646617224229157,21.422156915020594,36.860676626455366,96.90260121062465,57.08307207680629,0.2494152198900057,3.1395201683044434
-5.735264062187128,-2.0085215370297718,-2.7898388349585237,0.314805580802183,-1.5162452420260961,-0.13601042785367606,19.262193620453306,25.532098000067936,100.4728268270624,2.3973676126469408,21.423084890528532,36.860940773279005,96.9091567507749,57.08166210906182,0.2493960407773912,3.154252529144287
-5.735218660867014,-2.0084683782087938,-2.7896596895569368,0.3148509821222967,-1.5161920832051183,-0.13583128245208906,19.322392506115623,25.913048538023723,100.72978709960701,2.8175902789357035,21.421581843677416,36.86075419595798,96.89795618640737,57.084589596829865,0.2400836968886626,3.190653085708618
-5.7351366524172835,-2.008612719983258,-2.7899154564698607,0.3149329905720277,-1.5163364249795825,-0.1360870493650128,19.223085893761027,25.493215072644187,100.50361202909484,2.5383498480950935,21.42435997654469,36.86194560257304,96.91462463254786,57.085191271002444,0.24487533221099156,3.2147085666656494
-5.735310295571065,-2.0085721311247267,-2.7899884452902244,0.31475934741824707,-1.516295836121051,-0.1361600381853769,19.34768553851727,25.535453801455894,100.59885776733263,2.492785612001493,21.42429926290969,36.86112642949288,96.91839258233436,57.078875580050216,0.056969062436613704,3.2293100357055664
-5.735290684111433,-2.0085204924234903,-2.789888239624617,0.314778958877878,-1.5162441974198149,-0.13605983251976936,19.3976555330638,25.659339560465146,100.66549110112553,2.528688161224918,21.42344322466933,36.86082884433621,96.91225046259191,57.0804590166909,0.19774130453925487,3.255030632019043
-5.735062412581422,-2.0084135408148374,-2.789763073690208,0.3150072304078897,-1.5161372458111617,-0.13593466658536021,18.967818721027243,25.708477179985397,100.56940047981178,3.2041002974757373,21.42331983658387,36.8606189225366,96.90657609813702,57.09003144897944,0.0900417892813401,3.267749547958374
-5.735309355285491,-2.0084961900919778,-2.7898778623608984,0.3147602877038209,-1.516219895088302,-0.13604945525605067,19.383859123091863,25.80058858444275,100.78295703402216,2.8098411271306896,21.42327006942974,36.860591650783654,96.91159043204692,57.08001359016404,0.3478449976150264,3.292085647583008
-5.735494258282911,-2.0085087796518186,-2.789736199662401,0.314575384706401,-1.516232484648143,-0.13590779255755325,19.535285132711568,25.99838831516495,100.85665484805115,2.6678851070528093,21.421052349311676,36.86033921555486,96.90050279920335,57.07403904919508,0.17410875314899865,3.3070404529571533
-5.735738150958689,-2.008203168370765,-2.789414141366455,0.31433149203062305,-1.5159268733670892,-0.13558573426160694,19.97337496375154,26.207051797614046,101.1374956781988,2.355085889987353,21.416978106119686,36.857477019296745,96.87931539397898,57.06910092809569,0.2722770834935986,3.3321216106414795
-5.7350763172579065,-2.0085753174192567,-2.7899377254229285,0.31499332573140437,-1.5162990224155812,-0.13610931831808076,19.195925562722564,25.572887568520347,100.55248266292335,2.6977781762652286,21.424868175313094,36.86177411396094,96.91689795442889,57.087496996146015,0.34812575126048984,3.3683078289031982
-5.735036683558316,-2.0085500834508654,-2.7898887052267614,0.3150329594309955,-1.5162737884471897,-0.13606029812191356,18.981457737590578,25.827688723709574,100.67216889397784,3.4001212499046254,21.4245857077011,36.86170370408093,96.91413911167594,57.0893474087057,0.34816690755675417,3.395324230194092
-5.735182282192076,-2.0084071902488114,-2.7897407716877556,0.31488736079723534,-1.5161308952451356,-0.1359123645829081,19.085057409421932,25.757225738296754,100.64460864421936,3.1253981092470426,21.42256295024789,36.86028474128276,96.90414931778264,57.085898156090146,0.3479648592813307,3.40755558013916
-5.735354008698785,-2.0086303218526584,-2.789913759223847,0.3147156342905264,-1.5163540268489826,-0.13608535211899958,19.275371633818196,25.77457294515071,100.68352901093179,2.836037489413158,21.423348360092316,36.86154832365316,96.91259088296194,57.0772930310175,0.11797981360086851,3.432406187057495
-5.735215588272341,-2.008573181398564,-2.7898761654090887,0.3148540547169705,-1.5162968863948882,-0.13604775830424076,19.274261444188863,25.736917588931856,100.68261121344825,2.8218059948523813,21.423640793256197,36.86145533698713,96.91165342707167,57.08284419594022,5.462019194214727,3.4444634914398193
-5.735318500532635,-2.008504541862461,-2.7897742912177965,0.314751142456676,-1.5162282468587853,-0.13594588411294867,19.20392833507577,25.841492011196735,100.61536428310593,2.8347332723515857,21.4222210282305,36.86071455459157,96.90452427667235,57.08016613961481,0.22119710060828446,3.495023488998413
-5.73517662298022,-2.008524431501723,-2.7898709661936434,0.3148930200090909,-1.5162481364980476,-0.1360425590887956,19.2620943809773,25.7410799405766,100.64354933706265,2.7615880184946806,21.423791540112056,36.86115847402043,96.91200120259694,57.08460667168737,0.22132907245751632,3.5075137615203857
-5.735257436334928,-2.008606822298386,-2.789894539463981,0.3148122066543837,-1.5163305272947105,-0.1360661323591331,19.09893118698012,25.760997348396252,100.60984806228896,3.0411400881605055,21.423612125294728,36.86161180023429,96.91227946792696,57.08101541950038,0.21190802739708925,3.534055233001709
-5.735174572703268,-2.008560697027307,-2.789880957646507,0.3148950702860436,-1.5162844020236315,-0.1360525505416594,19.093624090777272,25.56849592663928,100.50161047921935,2.809906010144789,21.423879577114036,36.86145215557804,96.91240687640808,57.08437527319142,0.23542770914493083,3.5464348793029785
-5.735128378374521,-2.00848979944384,-2.78980156813064,0.3149412646147902,-1.5162135044401643,-0.1359731610257926,18.97354019853309,25.674888897683825,100.54097364890508,3.140062313600755,21.423355411223003,36.861048075015816,96.90802221408907,57.08693683402475,0.08062694189197828,3.570948362350464
-5.735012071975864,-2.008502506102939,-2.7897917726644326,0.31505757101344756,-1.5162262110992635,-0.13596336555958494,19.06045679369743,25.813558002842452,100.5905865841384,3.059052243871897,21.423782011391886,36.86144929439945,96.9082237721975,57.09106467805691,-0.05060703975010483,3.6100118160247803
-5.735077488856507,-2.0084812929692,-2.7898421991226567,0.31499215413280446,-1.5162049979655245,-0.13601379201780894,18.823672411882118,25.651725686286788,100.45033651247074,3.2610144203040208,21.423984236383276,36.86107516248164,96.91122344352807,57.08860755692798,-0.05070735201825105,3.6400184631347656
-5.735099641762375,-2.008571558958166,-2.7899465157101413,0.3149700012269361,-1.5162952639544902,-0.13611810860529341,19.020340508111417,25.574879007828393,100.48610363221674,2.92888542656231,21.42484935143292,36.861678661283634,96.91732325717634,57.08664215256667,0.21672599421733096,3.6670525074005127
-5.735178890945629,-2.0084861044362254,-2.789843692391954,0.31489075204368255,-1.51620980943255,-0.13601528528710627,19.17435966788124,25.447038803924606,100.50194512247374,2.631132191328715,21.423536116216248,36.8608603573935,96.91045355486588,57.08493441996789,0.06648171954528248,3.691619396209717
-5.735286622482683,-2.00857939219643,-2.7899978558350833,0.3147830205066282,-1.5163030971927545,-0.13616944873023568,19.404844952689103,25.298921674293563,100.57699564927674,2.3097058652165,21.424494243091274,36.861237711238914,96.91916035403266,57.07962394219369,0.10860547545125776,3.7278242111206055
-5.73534139971267,-2.0083241760854253,-2.789574876507427,0.3147282432766412,-1.51604788108175,-0.13574646940257926,19.2781940826647,26.181928706592096,100.88571483763545,3.240998406778441,21.42027508030933,36.859334296015426,96.89238614764878,57.081638734201654,0.19296628421584927,3.751521110534668
-5.735033573396873,-2.0084491917372906,-2.789815601108161,0.315036069592439,-1.5161728967336148,-0.13598719400331316,18.886180020999237,25.623450170769026,100.48309949840068,3.192763179361086,21.42394184753543,36.86094257438652,96.910052106635,57.090542628267045,0.20268134437086438,3.776501417160034
-5.734949763079378,-2.0084722572748666,-2.7897930532986353,0.31511987990993306,-1.5161959622711911,-0.13596464619378743,18.740774367072152,25.718054629223708,100.48323423390079,3.4940363808454364,21.424092271538566,36.861356841435786,96.90905402280877,57.09350064110914,0.2027932205559404,3.7881734371185303
-5.735259226040252,-2.0085738800325754,-2.789942991305539,0.3148104169490584,-1.5162975850288998,-0.13611458420069134,19.08796157036127,25.511412484954867,100.5001251638179,2.8244590125807756,21.424089802134727,36.86130213733642,96.91575872757704,57.080928948747605,0.1321078456849607,3.811642646789551
-5.734923631661653,-2.0084592383958513,-2.7898221080126793,0.31514601132765785,-1.5161829433921756,-0.13599370090783178,18.829497891916315,25.4450700853515,100.3629325256877,3.045936114639465,21.42449884490306,36.86129399285945,96.91131274723884,57.09437631117273,0.12773456583740384,3.886512517929077
-5.734967547594302,-2.00859115425913,-2.789920558285103,0.3151020953950092,-1.5163148592554545,-0.13609215118025553,18.74441101207975,25.77193863880283,100.50974690519442,3.5522318010509326,21.425187624197882,36.862187609136065,96.91652113459197,57.09137118039559,0.11366928855299196,3.9117956161499023
-5.735188876362444,-2.0085507286760897,-2.7898591820295886,0.31488076662686737,-1.516274433672414,-0.1360307749247407,18.934765608540136,25.876848132380555,100.66596544410231,3.4948382962121745,21.423608668833932,36.861351402984745,96.91090985202484,57.08404569054735,0.05243436501157728,3.925567150115967
-5.7352372795463165,-2.008619428380725,-2.7900749868026136,0.31483236344299437,-1.5163431333770496,-0.13624657969776596,19.48692392669372,25.722127356200133,100.78657942570833,2.6046760767553714,21.425445455912968,36.86162986264992,96.92441503312605,57.08071065513739,0.05235827019144779,3.947587251663208
-5.7352128514014655,-2.008600983346968,-2.789805580067777,0.3148567915878462,-1.5163246883432924,-0.1359771729629291,19.40287185237018,25.922723658527584,100.78604055625505,2.7768709675989944,21.422955520255876,36.86174197141402,96.90674064687224,57.08311548459486,0.052460540562469404,3.9689154624938965
-5.7350580883255144,-2.0086396207496873,-2.7899780890176147,0.31501155466379727,-1.5163633257460116,-0.13614968191276716,19.368725860891487,26.031558544298715,100.8334926049461,2.9468158292242093,21.4253099160497,36.86231429356083,96.91925151769047,57.08749151302132,0.052593832336027546,3.990708351135254
-5.735209911518542,-2.0085335133758484,-2.789889263464811,0.31485973147076907,-1.5162572183721725,-0.1360608563599634,19.29558425524689,25.76285302613845,100.67856937663524,2.7691268612101565,21.423813212676226,36.86113586797731,96.91288174503794,57.08325588927072,0.0946163615564597,4.011855125427246
-5.735299464537331,-2.008333839610065,-2.7895482784492045,0.3147701784519801,-1.5160575446063893,-0.1357198713443567,19.146764391619605,26.005060892615358,100.69629024841227,3.112495262350928,21.4202028624243,36.85953770428036,96.89087623090852,57.083211703274586,0.46984050367742203,4.038426160812378
-5.73504376942803,-2.008604122441559,-2.7899571093832356,0.31502587356128187,-1.5163278274378837,-0.1361287022783879,19.028503279411503,25.617702433306643,100.4468958725102,2.828957214241979,21.425189337443424,36.862075941304774,96.9182397049687,57.08836091443559,0.09012620970517649,4.050801515579224
-5.735293648640646,-2.008549740358366,-2.789934431267859,0.3147759943486661,-1.5162734453546902,-0.13610602416301104,19.424500369237755,25.68881551559511,100.6891088738696,2.526526108926815,21.42386269150972,36.86102562068052,96.91508980281492,57.079908807432474,0.29157802802466204,4.08507227897644
-5.7352498149132725,-2.0084453198410483,-2.7898100454798356,0.31481982807603925,-1.5161690248373727,-0.13598163837498786,19.23086442609034,25.26243378117048,100.44866119193443,2.3903711126036895,21.422908611236558,36.86037568223374,96.90793530959124,57.082853352186774,0.29159503150792787,4.114258766174316
-5.735468930452796,-2.0085463961471577,-2.789917094280651,0.31460071253651556,-1.5162701011434818,-0.13608868717580297,19.671662391491544,25.63739133454057,100.79090125074467,2.2315999491553247,21.42290097660601,36.86057405182976,96.91251714965387,57.073744226139134,0.05680703761286843,4.15982460975647
-5.735365305116046,-2.008539512048797,-2.7898479046066638,0.31470433787326524,-1.5162632170451213,-0.13601949750181588,19.56889252214853,25.806273982307587,100.8547519464107,2.5793773789418157,21.422704361011387,36.86082815491913,96.90879395928326,57.07786348021577,0.056935060028927786,4.173314094543457
-5.735006758255426,-2.008544802941957,-2.7899248269609904,0.31506288473388544,-1.5162685079382814,-0.13609641985614285,19.2994108232867,25.663171877398664,100.72653920647869,2.843699034249988,21.425074099514635,36.86170819923714,96.9168417805821,57.0902681232679,0.05729342525805414,4.188554763793945
-5.735127156354752,-2.0085080677146734,-2.7898585887335234,0.31494248663455915,-1.5162317727109977,-0.1360301816286757,18.995772127748335,25.384917049666914,100.40120192667685,2.789975172144215,21.42390427383416,36.86115756010127,96.91170557779145,57.086556752216126,0.2307582363839069,4.212323904037476
-5.7351619693987494,-2.008423708728719,-2.789745453772426,0.31490767359056226,-1.5161474137250432,-0.13591704666757837,19.005085601342582,25.457623519468086,100.43966799059336,2.8506949809579543,21.422692261613808,36.86046675845331,96.90450201783581,57.08648619081047,1.0752193990313543,4.224877834320068
-5.735366449406182,-2.008636761491461,-2.789988597676756,0.3147031935831297,-1.5163604664877857,-0.13616019057190865,19.3361435208922,25.519759279658583,100.5640707705702,2.4489983320180855,21.424013707543423,36.86151381882506,96.9174433165806,57.07641339745694,1.0750662405004654,4.254042863845825
-5.7351541800104044,-2.0087309014754275,-2.789977358665714,0.3149154629789064,-1.5164546064717517,-0.13614895156086612,19.318029617271208,25.57018692933063,100.55262709569053,2.4538659742542963,21.424821262198723,36.86282026213122,96.91770942781568,57.08341782017155,0.08539643311547174,4.266170978546143
-5.7352512950545895,-2.008519524610503,-2.7897901837237975,0.31481834793472174,-1.5162432296068276,-0.13596177661895,19.271987826608328,26.105163815891085,100.8137252637526,3.110963666855433,21.42267250219736,36.860992619563206,96.90602315517418,57.08238625052912,0.08521251128171947,4.292502164840698
-5.735156043950285,-2.008569326803655,-2.789872038287127,0.31491359903902616,-1.5162930317999794,-0.13604363118227958,19.217714823625208,25.866418012324104,100.69689232526407,2.9703721946727573,21.4238729551496,36.86157550557886,96.91189593041481,57.08502507651227,0.08532012654781873,4.305847644805908
-5.735286789736396,-2.008634830376539,-2.7900455840283462,0.314782853252916,-1.516358535372863,-0.13621717692349847,19.599443720316383,25.737136026138415,100.81275386524752,2.428906635875636,21.42492824421598,36.86165410191769,96.92192308898017,57.07898327559996,0.061709545586011494,4.331780195236206
-5.735199338487254,-2.008465106937048,-2.7898210611994885,0.3148703045020569,-1.516188811933372,-0.13599265409464062,19.152818000839407,25.628801593256235,100.58965928942561,2.869794907192648,21.42323453682292,36.860654882886195,96.90893392755167,57.0844660875721,0.08522068586775866,4.37018609046936
-5.735290787031831,-2.0084731500129838,-2.7898574083262955,0.31477885595748,-1.516196855009308,-0.13602900122144784,19.323304199470613,25.62291388087944,100.66344571287527,2.6750873352947644,21.42316765596894,36.86046520118044,96.9105523660395,57.080945601241226,0.3806980353931291,4.4108054637908936
-5.7351089834190585,-2.008592129744581,-2.7898417412249463,0.3149606595702532,-1.5163158347409054,-0.13601333412009842,19.113895617436743,25.6957012438982,100.56106436007262,2.8928011462457612,21.42378164914785,36.861901747086016,96.91008021385773,57.08670903845875,0.38097626969399556,4.438734531402588
-5.735070160327398,-2.008558929325217,-2.7898659109405872,0.3149994826619129,-1.5162826343215414,-0.13603750383573968,18.98386385020319,25.680601656696556,100.50978622111367,3.0537896877718174,21.424208539363114,36.86170947216713,96.91227139686268,57.08820530005646,0.09478939398881625,4.451368093490601
-5.735106654002388,-2.008606536836578,-2.7899523355511007,0.31496298898692254,-1.5163302418329023,-0.13612392844625285,19.108332438167114,25.685998388008162,100.57678081286187,2.9410187199215247,21.424856484400262,36.861942346311494,96.91738520482248,57.086116879337666,0.10882961545554792,4.463926315307617
-5.735384918710343,-2.008575381450657,-2.7899552430331025,0.31468472427896765,-1.5162990864469812,-0.13612683592825475,19.46538289882904,25.614377523404475,100.71959377815723,2.508207539470726,21.42363734188948,36.86099167135539,96.91553441645598,57.076353039115105,0.15073844285642757,4.488649845123291
-5.7352737981004545,-2.008609055869809,-2.789924822613011,0.31479584488885726,-1.5163327608661334,-0.13609641550816343,19.67846755090705,26.031897773108717,100.94110529312313,2.543633521248414,21.423830139556287,36.861566540622526,96.91415310276668,57.080256389333236,0.12743052820547707,4.512783527374268
-5.735272542441937,-2.008547447562874,-2.7898771693192375,0.314797100547374,-1.516271152559198,-0.13604876221438994,19.487840900312005,25.959852473961337,100.83579059333717,2.71122220523571,21.423404874341745,36.86110243134727,96.91145128721631,57.08097849987645,0.4745963668842972,4.525325536727905
-5.735157648148826,-2.0085650043144696,-2.789909075966886,0.3149119948404846,-1.516288709310794,-0.1360806688620381,18.978449953559632,25.603772026919305,100.5086302582491,3.0677740955583888,21.42422664867943,36.86150848343109,96.91439326414445,57.08480516165993,0.1134538546161572,4.553730249404907
-5.735259941605254,-2.008554694896438,-2.7898920621586973,0.31480970138405695,-1.5162783998927623,-0.13606365505384946,19.395576642279163,25.74265571364834,100.74270128067829,2.6977271352040093,21.423602727108644,36.86118187650662,96.91249490445122,57.08130186454855,0.11334404868433001,4.566361904144287
-5.735316932993905,-2.008552204143135,-2.7899098920915875,0.31475270999540594,-1.5162759091394595,-0.13608148498673958,19.264050021506442,25.731058595265253,100.69496967535852,2.8761750582293857,21.4235180683325,36.86100602192103,96.91323858184523,57.07918530589902,0.1132760661122667,4.5928566455841064
-5.735284776804303,-2.008557152918577,-2.7899423261457574,0.314784866185009,-1.5162808579149014,-0.1361139190409098,19.54073169295248,25.645478572742483,100.77573555065524,2.4619434307170605,21.4239757416171,36.86110234974153,96.91563337375239,57.08013388335312,0.11330280525499248,4.605778932571411
-5.7352809441973465,-2.0086374022833766,-2.7900907720382193,0.3147886987919648,-1.516361107279701,-0.13626236493337154,19.595129606595187,25.788350963472837,100.83308425058316,2.4846536015734033,21.42539125445037,36.86165583610119,96.92497285065222,57.07893949310596,0.11331210013552528,4.633392810821533
-5.735124199468441,-2.0086078339349243,-2.7900247907139164,0.31494544352087095,-1.5163315389312484,-0.13619638360906877,19.418445159411117,25.70515352557666,100.75359303357882,2.667627001191479,21.42547814832476,36.86185490022541,96.92207688697991,57.085102462140625,0.11348007879275013,4.648129463195801
-5.735212221669424,-2.008459911608826,-2.7898967703227155,0.31485742131988737,-1.5161836166051503,-0.13606836321786797,19.239443600274807,25.700725319458922,100.6722315209796,2.868068523590901,21.423912121352977,36.86052364718757,96.91393209765982,57.0836472027197,0.061719598376306806,4.672115325927734
-5.735392033332707,-2.008512382844901,-2.789764098145083,0.31467760965660396,-1.5162360878412253,-0.1359356910402356,19.373378104907655,26.001011028307865,100.83810198456354,2.9571616684570685,21.42178469321771,36.860602756756776,96.90317907679662,57.07753058564007,0.12260084152245465,4.698832750320435
-5.735041499001989,-2.008541977050795,-2.7899823027457553,0.3150281439873228,-1.5162656820471192,-0.1361538956409074,19.0952992808937,25.713351585891278,100.62517672802598,3.064860193528263,21.425474671958884,36.861555418026285,96.92042281719895,57.088744488822186,0.05254413009147196,4.711901664733887
-5.735352115161993,-2.0085884091965673,-2.789987580879222,0.31471752782731865,-1.5163121141928917,-0.13615917377437417,19.42562612723577,25.72363491983812,100.72923850387114,2.6169876506878507,21.42409299481202,36.86115563367238,96.91786574070052,57.07726890311755,0.1836139887570294,4.727148056030273
-5.735415866260163,-2.0085234163157653,-2.789767772521671,0.3146537767291484,-1.5162471213120896,-0.1359393654168231,19.4997538647959,26.152883449466497,100.9487267473898,2.9335221080170637,21.421706640916863,36.860630619599526,96.90314429101068,57.07658101432241,1.6755560350094374,4.753811836242676
-5.735299319482254,-2.0084794001980955,-2.7897305988702596,0.3147703235070569,-1.5162031051944196,-0.13590219176541188,19.583503279124333,26.27530014524722,100.98094220676649,2.8236619388668887,21.421897307148246,36.860589874353344,96.90195292513172,57.08125544451535,0.15083847863432887,4.769346237182617
-5.73525207199528,-2.0085691779746457,-2.7899562666009343,0.3148175709940313,-1.51629288297097,-0.13612785949608658,19.527869820785757,25.801521742215456,100.80018657792841,2.547856205309637,21.424253225213732,36.86127166162814,96.91674167832605,57.08114886089801,0.1508747602083833,4.806724309921265
-5.735338133478836,-2.0083748308476523,-2.7895763776621965,0.3147315095104757,-1.5160985358439767,-0.13574797055734883,19.538178800602303,26.27830548340008,101.02095722725493,2.9915950876827853,21.42027919522474,36.85975484572033,96.89212402344873,57.081394921130524,0.15077760751472358,4.83228611946106
-5.7352927260278035,-2.0085201415468683,-2.78981334526206,0.3147769169615078,-1.5162438465431927,-0.13598493815721202,19.322786647608325,25.971559271325226,100.75290362328116,2.879512697984227,21.422708568974418,36.86087695972254,96.90722752530222,57.08077765696299,0.15084568225934092,4.8470587730407715
-5.7351321559391355,-2.0084787177004717,-2.7897446827771284,0.31493748705017577,-1.516202422696796,-0.1359162756722809,18.927488140223183,26.042454118543564,100.63568100656548,3.4403811768475303,21.422792678141,36.8609907770549,96.90427144987041,57.08717440310757,0.15101061231082014,4.8711254596710205
-5.735373877048383,-2.008558778281845,-2.789999176002683,0.3146957659409275,-1.5162824832781696,-0.13617076889783525,19.72699937381483,25.912949447455844,100.98899053759756,2.542922631334168,21.42412132734992,36.86085078535683,96.91869080563666,57.0766355775863,0.2023339748725439,4.910536766052246
-5.735073506788223,-2.0083864752107905,-2.7898210993019106,0.31499613620108846,-1.5161101802071146,-0.13599269219706273,18.873965493455938,25.600119939080358,100.47737590573966,3.2067133020164267,21.423845130288495,36.86032684528621,96.91057536597745,57.08952123564109,0.2025948558314452,4.960057973861694
-5.7350440907953635,-2.0085435135284326,-2.7899934135830424,0.3150255521939478,-1.5162672185247572,-0.13616500647819463,18.85301842674802,25.63470358127911,100.47642698245944,3.258696757029176,21.42556978494235,36.86155317251035,96.92113277290639,57.088583108900195,0.20267522675793437,4.974744081497192
-5.735049056268178,-2.008514429600404,-2.7898808021111647,0.315020586721134,-1.5162381345967282,-0.13605239500631705,19.01980823779422,25.788288389148278,100.60309188141876,3.174899838895545,21.424470754778632,36.8613876971553,96.91378378555308,57.089194017081276,0.20268745957995637,4.987162351608276
-5.7351374853366135,-2.008452409806816,-2.7898344632959216,0.3149321576526982,-1.5161761148031403,-0.13600605619107387,18.942202790093646,25.752723610313904,100.59693820223913,3.3254119325626217,21.423651400585072,36.860695495446414,96.91043591246947,57.08670035676162,0.2025671138120968,5.026348114013672
-5.735255124200734,-2.008572554210314,-2.790003390261069,0.3148145187885776,-1.5162962592066385,-0.1361749831562213,19.379789230143846,25.46168384536462,100.60782950607678,2.4361900536159866,21.424694213232954,36.861256320703106,96.9198419655782,57.08077084339005,0.20246778414094901,5.052712678909302
-5.735391226551145,-2.008492609211885,-2.789809242756064,0.3146784164381664,-1.5162163142082095,-0.13598083565121652,19.45557518103794,25.505232209699507,100.62878638717616,2.3240378411002482,21.42223555725916,36.86040955736621,96.90635697046709,57.07746276657849,0.35247000825114316,5.067787170410156
-5.735204588014136,-2.008533120675333,-2.78994205807359,0.3148650549751757,-1.5162568256716575,-0.13611365096874228,19.39040965355569,25.746970846080963,100.77063763784652,2.7640272341762944,21.42434903403067,36.86110641043276,96.9164594799032,57.08317469941379,0.3526514382488539,5.098181962966919
-5.735233744827955,-2.0085294539041483,-2.7899947204245663,0.31483589816135593,-1.5162531589004724,-0.13616631331971882,19.482647127388017,26.060006080692734,100.94017208764424,2.9424532069401645,21.42472871826358,36.8609643076796,96.91977020376223,57.0818820185973,-0.02743232770846138,5.110176086425781
-5.735022081672717,-2.0084782421260723,-2.7898361140089545,0.31504756131659395,-1.5162019471223969,-0.13600770690410682,19.07311688809281,25.719012503617222,100.63262730651412,3.118386160505711,21.42417825998082,36.861193037714976,96.9112948421868,57.090644915437956,0.25431588945734873,5.149852514266968
-5.734924633596929,-2.0084915505842584,-2.789883028606608,0.31514500939238266,-1.516215255580583,-0.13605462150176015,18.690892897688123,25.77905075845006,100.48843831037996,3.612164279196758,21.425068414197376,36.861509654823266,96.9151310639111,57.09379812423168,0.2966385741965416,5.185710668563843
-5.7355375611251045,-2.00840687658597,-2.7896489421013557,0.3145320818642072,-1.5161305815822943,-0.13582053499650817,19.42349379877657,25.740521507577387,100.72686110575471,2.612670615751748,21.420061322054305,36.859464643431274,96.89509637235334,57.07365074957217,0.2960087482973597,5.214239835739136
-5.735138537167228,-2.0086178779101527,-2.790068741567566,0.31493110582208317,-1.516341582906477,-0.13624033446271802,19.189709349386803,25.541055084646622,100.57476724075391,2.7663596950742533,21.425833862763135,36.86186820655203,96.9248208837132,57.08429019467595,-0.008528744371647079,5.270953893661499
-5.735382116580137,-2.0084781030684153,-2.7898357120753756,0.3146875264091742,-1.5162018080647397,-0.13600730497052788,19.476040354380153,25.546118500696043,100.70827973470824,2.450400295441624,21.42254055260493,36.860294050605916,96.90831360444587,57.077752585058555,-0.00880451262484705,5.2837278842926025
-5.735243364886342,-2.0084522616964486,-2.7898607896558905,0.31482627810296915,-1.5161759666927732,-0.13603238255104275,19.183139898381064,25.736139412108635,100.70251529893021,3.0504934511232364,21.423426024150526,36.86041044721637,96.91132868621834,57.082772143159936,0.1602202328979061,5.31125545501709
-5.735439718314051,-2.00851545124368,-2.789885169429947,0.3146299246752604,-1.5162391562400042,-0.13605676232509922,19.35124692853431,25.924894991059674,100.83669434120873,3.0042786396571195,21.42273968138179,36.86041821599813,96.91086055909386,57.075172069907715,0.10843715919306529,5.323829650878906
-5.734956320022411,-2.008470471654831,-2.7898395197235466,0.31511332296690053,-1.5161941766511555,-0.13601111261869883,18.936392487862477,25.547741157341367,100.48484350063262,3.084520517141879,21.42451358135548,36.861291108944584,96.91212256485561,57.093036662527815,0.10893438534811928,5.355698347091675
-5.735270670635085,-2.0085735904400908,-2.7899647456159125,0.3147989723542266,-1.516297295436415,-0.13613633851106494,19.043922028778997,25.54526460464744,100.51216981875753,2.9456207742491665,21.424248765006077,36.86125493605267,96.91712193492157,57.080407889578474,0.13208834454939833,5.370784521102905
-5.735257129646456,-2.0085088357812384,-2.7899015108229186,0.3148125133428552,-1.5162325407775628,-0.13607310371807088,19.099551803102653,25.685739039163565,100.62993110498661,3.076110735340311,21.423729872273256,36.86080745556035,96.91350330653593,57.081673066334965,0.14146351918567035,5.410191059112549
-5.7351550366002595,-2.008492169532056,-2.789837151480955,0.31491460638905133,-1.5162158745283802,-0.136008744376107,19.077365059628335,25.610339762062353,100.55847891774559,2.9600299479810426,21.423577984215584,36.86097427713822,96.91016531019793,57.085780522012826,0.14158173653551653,5.42499041557312
-5.7353187215156485,-2.008329817861296,-2.789530469647537,0.31475092147366324,-1.5160535228576204,-0.13570206254268938,19.02921662074968,25.9847744131053,100.62958305116565,3.2172198617678363,21.41994495896684,36.85947015849771,96.8895580400861,57.082642166881044,0.14139974627742546,5.449618577957153
-5.735023031930781,-2.0084916100480763,-2.78985180695637,0.3150466110585306,-1.5162153150444004,-0.13602339985152223,18.76615986278165,25.559507650552018,100.34913576258423,3.1633812587416688,21.424319324224278,36.86128804584577,96.91223380500755,57.09043601985478,0.14171649587760538,5.474510669708252
-5.735220925104224,-2.008373870502829,-2.7897320102367367,0.3148487178850865,-1.5160975754991535,-0.13590360313188882,18.981430187314075,25.671276907240454,100.54299597673557,3.1280421984262836,21.42231931329564,36.85992289581402,96.90350280745533,57.08479183505159,0.14615829827700022,5.4868903160095215
-5.735276940950848,-2.008471795027857,-2.7899352118191794,0.31479270203846355,-1.5161955000241814,-0.13610680471433148,19.25346075002799,25.544241770640667,100.63082468309497,2.750764833687076,21.423984906876026,36.86043042711643,96.91588005374814,57.08104635133004,0.1460980024648908,5.510470867156982
-5.73509958916651,-2.008408727217498,-2.7897833711550963,0.3149700538228011,-1.516132432213822,-0.13595496405024865,19.10624049166213,25.621479212867943,100.58413924028136,2.9452340220006965,21.423350160358815,36.86047168208295,96.90766572349652,57.088627975022646,0.1462935429745169,5.548466444015503
-5.73532594693947,-2.0084999257775014,-2.789946213862088,0.31474369604984087,-1.5162236307738255,-0.1361178067572405,19.468207006634103,25.52199025106128,100.64297645551585,2.328964928389409,21.423855085423348,36.86052958212712,96.91599656114866,57.07903780368869,0.2868141990387878,5.574923992156982
-5.735158993546591,-2.0084125374459667,-2.789802739388469,0.31491064944271985,-1.5161362424422908,-0.13597433228362116,19.068027188966433,25.572170768965997,100.5310487848643,2.9170640281210956,21.423266318413713,36.860340096914065,96.90844456399965,57.08637295215168,0.0007818695201144976,5.615563631057739
-5.735046699540431,-2.008456758722728,-2.7897939896141035,0.3150229434488807,-1.5161804637190521,-0.13596558250925572,18.819109713473026,25.41235477164851,100.34412241787747,3.0345939641107043,21.423669131847017,36.86098778507326,96.9084402939976,57.09013205843807,0.3481245298419262,5.631445407867432
-5.735135146957926,-2.0085627761477047,-2.789934810403154,0.31493449603138446,-1.516286481144029,-0.13610640329830628,18.99090553537725,25.556821272279066,100.47738236225678,2.9734720078508117,21.424579189542197,36.861527155660596,96.91631643079235,57.085492706713154,0.1697688406675404,5.6435387134552
-5.7351297812644875,-2.008493868732688,-2.789884351280938,0.3149398617248238,-1.5162175737290124,-0.13605594417609007,19.2212100772934,25.534926596454245,100.5689914904087,2.6766420494984304,21.42414902229436,36.86101580811312,96.91351669065946,57.08642777837422,0.221353696322641,5.668088912963867
-5.735141078655682,-2.0083650603988605,-2.7896748103635582,0.31492856433363015,-1.5160887653951847,-0.1358464032587107,18.902522546894765,25.849220109610414,100.56059893996726,3.326661520040513,21.42213188733508,36.86009298000461,96.90039914364762,57.08801052258438,0.2213238756578999,5.710722923278809
-5.735052624262701,-2.0085447981728004,-2.7898737498376187,0.3150170187266106,-1.5162685031691248,-0.13604534273277102,18.899579501799266,25.576019251046425,100.4150401099749,3.026562195641094,21.424371109166284,36.86163199057664,96.91304864347528,57.0888911129865,0.20270649877512525,5.738837242126465
-5.735208737644006,-2.008407766408128,-2.7897515160043507,0.31486090534530486,-1.5161314714044523,-0.13592310889950282,18.90204934946077,25.618136689931372,100.46462105024492,3.1293860452720526,21.42254670266424,36.860215405709724,96.90464663459414,57.08489068291201,0.20248878425867378,5.7510809898376465
-5.7351616163446355,-2.008393807214043,-2.7896724147786367,0.3149080266446753,-1.5161175122103674,-0.1358440076737892,18.911724503190236,25.907845288128836,100.59651527679495,3.385820567085113,21.422001154546013,36.86027821667996,96.89984916775049,57.08708680405993,0.2025554127025,5.766233682632446
-5.7353165680424105,-2.008606757980169,-2.7899698969590303,0.3147530749469003,-1.5163304629764935,-0.13614148985418248,19.346575146228243,26.000020592298295,100.77367205070885,2.8844494589858205,21.42407385691913,36.86140733537843,96.91683378053065,57.07850617462192,0.20243676961282375,5.790600061416626
-5.735248672274971,-2.008552618147192,-2.789954430263699,0.3148209707143401,-1.5162763231435163,-0.13612602315885158,19.319235338688753,25.936676744557754,100.76870629455281,2.920747195000626,21.424259114325697,36.86114633591259,96.916774463327,57.08139558027943,0.20247730877382875,5.805733680725098
-5.735180195582311,-2.0085150085396255,-2.7898679937185897,0.3148894474070003,-1.5162387135359499,-0.13603958661374227,19.227977389703447,25.602956852768262,100.6140517946064,2.764125996632491,21.423751227070916,36.86107486352098,96.91184571282982,57.08455981966199,0.21193670279167787,5.830151557922363
-5.735115712126355,-2.0086059821054603,-2.789995727011467,0.31495393086295653,-1.5163296871017848,-0.13616731990661912,19.295495533931543,25.702536189230262,100.70675596682906,2.824552867805283,21.42523602412289,36.86188272273537,96.92021711428828,57.08557058340013,0.21202436375099598,5.8453710079193115
-5.735276607598167,-2.0082755958940703,-2.7897001389587794,0.3147930353911441,-1.515999300890395,-0.1358717318539318,19.143582294354587,25.79850605918395,100.70292824611333,3.127394097854814,21.421806835179805,36.85900558148357,96.90167060877269,57.083648056194555,0.21172822942630987,5.872061014175415
-5.7353209268319745,-2.0085028539509056,-2.7898869477781627,0.3147487161573368,-1.5162265589472297,-0.1360585406733152,19.16622162632293,25.735899314026543,100.67283873657465,3.0321218663033265,21.423302250827867,36.86061038031293,96.91205163939465,57.0795054744059,0.2493072772856042,5.884127378463745
-5.735265347249456,-2.008418725077486,-2.789837037433437,0.3148042957398549,-1.5161424300738104,-0.13600863032858926,19.30929117075129,25.731914950753414,100.73950500793573,2.864379604166938,21.423112870347442,36.86009962362832,96.90981803838116,57.08234207395529,0.2915517116794417,5.909090757369995
-5.735230244355341,-2.008475589529652,-2.789922353694993,0.3148393986339708,-1.5161992945259763,-0.13609394659014554,19.16537815996605,25.47998728246542,100.49779012487042,2.649244787097156,21.424070366400024,36.860587516897574,96.91537434827623,57.082759339496555,0.29159918247374694,5.94685173034668
-5.7353842603422125,-2.0084621552275737,-2.7898296485650023,0.3146853826470988,-1.5161858602238982,-0.13600124146015452,19.31849774287779,25.68856184992899,100.7008202987212,2.7718557512079895,21.422480029479125,36.86016305604555,96.90801333991301,57.07781844236639,0.16008779981889276,5.971292972564697
-5.735234293616358,-2.0084799104799993,-2.7898410625803396,0.31483534937295277,-1.5162036154763234,-0.13601265547549202,19.117722313718442,25.710964729805056,100.62869774860718,3.031859529176439,21.423262304537435,36.86067355552894,96.90987077908568,57.08300689625804,0.127412858616073,5.986270427703857
-5.735091136107453,-2.0084861623773755,-2.7898742079406813,0.3149785068818578,-1.5162098673737,-0.13604580083583348,18.968373942688327,25.533327102548935,100.45424972292997,2.9635767729669547,21.42422997821489,36.86105689961826,96.91321498385588,57.08791835393113,-0.05072909058190245,6.002581596374512
-5.735288596269093,-2.0085837762712275,-2.78987301967187,0.31478104672021745,-1.5163074812675519,-0.13604461256702233,19.22769717329273,25.535746655703804,100.5586271239485,2.6549644407519652,21.423273721128623,36.861362049878224,96.91076211495626,57.080171890497425,0.23532501197434996,6.02901554107666
-5.735280348803799,-2.008578719344151,-2.7899598729569073,0.3147892941855126,-1.5163024243404752,-0.13613146585205949,19.38552269320815,25.671728489735223,100.70767654178456,2.646338020670682,21.42415508329817,36.86127631002288,96.9166770061576,57.0800508791049,0.005405638827098436,6.071516036987305
-5.735275677790119,-2.0085083574989993,-2.789814350107722,0.31479396519919245,-1.5162320624953238,-0.13598594300287462,19.250810884423665,26.04701278209489,100.80527450870947,3.1371673382912824,21.42280153751377,36.860822539452755,96.90752534998957,57.08146521694654,0.25407450403131726,6.110428094863892
-5.735276580588982,-2.0085601792996792,-2.7900027775921457,0.3147930624003288,-1.5162838842960038,-0.13617437048729789,19.365274555818644,25.848879613787776,100.80447173856663,2.899438636299019,21.42459706834192,36.861102236095,96.91972015510237,57.080091802738664,0.06637569346626027,6.150302886962891
-5.735233371254996,-2.0086510438908394,-2.7900639645005527,0.3148362717343156,-1.5163747488871637,-0.13623555739570498,19.587516312886457,25.729551670783593,100.8110487109717,2.447112187806111,21.425340662095365,36.86190594731823,96.9234660468094,57.08068770613828,0.06646266545015944,6.163248538970947
-5.7349965655257344,-2.008587912841622,-2.7899919536107562,0.3150730774635768,-1.5163116178379465,-0.13616354650590837,19.335578891981534,25.80716198284088,100.72462175731886,2.774391500010483,21.42574922176178,36.86203527848593,96.92108325722295,57.08998310599018,0.06669487679341568,6.19497275352478
-5.735097689251887,-2.0085133348816813,-2.7899331605047624,0.3149719537374245,-1.5162370398780058,-0.13610475339991446,19.28727195233083,25.7667933848684,100.70140213672065,2.827134632425653,21.424757833661378,36.861218226090955,96.91689495249547,57.08718750532601,0.06655669844448564,6.208057165145874
-5.734986731881223,-2.0083880010362085,-2.7898222203051612,0.3150829111080875,-1.5161117060325329,-0.13599381320031337,18.811222941168264,25.746166441911164,100.56692139881906,3.523142224525832,21.424249045435847,36.8605549327603,96.91135114536337,57.09261278639472,0.3152897652165034,6.244099378585815
-5.735308882665407,-2.0084601987074544,-2.789820251603485,0.31476076032390354,-1.5161839037037788,-0.13599184449863738,19.17843119058119,25.730474199665462,100.69955661761459,3.0576435201942607,21.422732024992563,36.860342152682364,96.90801852506623,57.08058085966737,0.08510149575018211,6.270902872085571
-5.735175167703129,-2.008427815050889,-2.789888792409354,0.31489447528618264,-1.5161515200472135,-0.13606038530450643,19.09315610960472,25.684454533928285,100.63119010979929,3.083305427711604,21.4240189813808,36.860360036325176,96.91395018171875,57.08523963859962,0.24941055962925063,6.28641676902771
-5.735058937779868,-2.0083685261659396,-2.789765221910545,0.3150107052094433,-1.516092231162264,-0.13593681480569725,18.82955822962847,25.70686396742631,100.56513014187794,3.4827873684905852,21.423378844987134,36.86025849559412,96.90709496619188,57.0904587546363,0.22607557358117258,6.3110597133636475
-5.735141503430412,-2.008512443097243,-2.7899724220706474,0.31492813955889964,-1.516236148093567,-0.13614401496579978,19.049917893631438,25.694523482624373,100.57810070613647,3.0663307739543435,21.42493979299811,36.861072244924884,96.91916792854869,57.085420270616844,0.30108484214272835,6.331129312515259
-5.7351843516337375,-2.008359429011623,-2.78977030638909,0.3148852913555742,-1.5160831340079473,-0.13594189928424247,19.01165564852996,25.864649662759987,100.66688817393765,3.3272883603732066,21.422863495861783,36.859867566775094,96.90647597486543,57.08600348260261,0.08048990450080318,6.345442056655884
-5.735321999969001,-2.0084213942522786,-2.7896778104778783,0.3147476430203109,-1.516145099248603,-0.13584940337303056,19.221866953076272,26.117994687508734,100.8296614311136,3.244911552841807,21.421311877710984,36.860099285810186,96.89868251109874,57.08112161200854,0.16486796676347737,6.372366905212402
-5.735361367663836,-2.0086216102435355,-2.790013390931062,0.31470827532547485,-1.5163453152398596,-0.13618498382621405,19.58437869590031,25.798285355308586,100.8228220278447,2.4886206790944243,21.42428450399573,36.86138425054482,96.91925971092304,57.076571927249915,0.18830968241362722,6.3990044593811035
-5.73549213072957,-2.0085137086107085,-2.7898534960746013,0.3145775122597416,-1.5162374136070327,-0.13602508896975343,19.834826828569984,25.932821618580313,101.03138180994969,2.4110395655244896,21.422195873799435,36.86029695755437,96.90832588547698,57.07347150406615,0.06147342413613632,6.411365985870361
-5.73518938919312,-2.00851034059005,-2.7899474062633107,0.31488025379619167,-1.5162340455863745,-0.13611899915846307,19.766866876945684,25.9491637355668,101.03166091297474,2.5348374933255076,21.424481169696094,36.86095435890068,96.9171176110942,57.08385005108284,0.06176115077083644,6.423798561096191
-5.735399696127468,-2.008437477281735,-2.789543919520577,0.314669946861843,-1.5161611822780594,-0.1357155124157295,19.74610063337017,26.424833652013056,101.2814580145255,3.109119640432991,21.419654172837735,36.860136962295186,96.88896665049062,57.078921188674855,0.06162205681100641,6.449787616729736
-5.735255820883681,-2.00874047776381,-2.789421077460014,0.3148138221056307,-1.5164641827601342,-0.13559267035516612,20.105307490547958,26.611026572411316,101.6022466549328,3.0345548167711462,21.41896583009838,36.86306135796957,96.87960052180598,57.08259927471315,0.15116292394437725,6.462374687194824
-5.735193501693303,-2.0089536392795573,-2.7876940242630006,0.31487614129600905,-1.5166773442758816,-0.13386561715815287,20.14256306342789,26.00092656999674,101.58172714982905,2.8321204337303887,21.402407133847102,36.86624888724126,96.7629424328253,57.09223981570418,0.13786823811036175,6.4917590618133545
-5.735183377684153,-2.008680320053937,-2.7860490253606827,0.3148862653051583,-1.5164040250502617,-0.1322206182558349,19.890534353391306,25.365241398580416,101.17856942627326,2.4141323067375033,21.386645895321053,36.86527119352218,96.65495905216883,57.102890342279565,0.13823942480186702,6.504238128662109
-5.735097957594771,-2.0090690742004247,-2.7825208776754833,0.31497168539454057,-1.5167927791967493,-0.12869247057063576,19.86772940665735,25.88270639980721,101.66048098259553,3.3746151963864213,21.35262889363165,36.87128778770484,96.41632786877292,57.12087038789164,0.13976599842923232,6.5316078662872314
-5.7353716548347755,-2.0090517746323515,-2.780105044167321,0.31469798815453576,-1.5167754796286759,-0.1262766370624733,19.4876802800557,25.66767333845247,101.47531098408184,3.7122645327537316,21.327964371447546,36.87225721702283,96.25230261140007,57.12300379379345,0.14027125017344932,6.543783903121948
-5.735683204286815,-2.0094011405977796,-2.7717008913778116,0.31438643870249683,-1.517124845594104,-0.11787248427296398,19.777635381594656,26.035209353993107,101.98546239925955,3.9084231769214064,21.244795654868245,36.88054301912851,95.68298933851656,57.14886127948493,0.06794026872839343,6.581942558288574
-5.736188766999383,-2.009792303135614,-2.764539038713602,0.3138808759899283,-1.5175160081319383,-0.11071063160875438,19.924934987427488,25.61665149882135,101.69441664921081,2.785935117379784,21.172715743144867,36.88772515700473,95.19480227289293,57.15957760162594,0.0701097838950604,6.60869574546814
-5.736836351007339,-2.0103744072834164,-2.7536753469280564,0.3132332919819727,-1.5180981122797408,-0.09984693982320857,20.012784952885866,25.79262997000804,101.93683348231502,2.799709925274094,21.063795277682896,36.89875473847286,94.45433324336156,57.17658812909159,0.07357003295255105,6.645429849624634
-5.737453701463256,-2.0105780447599866,-2.7442306149680715,0.31261594152605543,-1.5183017497563112,-0.09040220786322399,20.074664332329558,26.11553024135739,102.2149892582517,2.981176088213639,20.968892615285906,36.90566193184471,93.81114978421364,57.18805545683829,0.2452687827092941,6.674126625061035
-5.737707765775819,-2.0110006702618213,-2.7360009049778085,0.3123618772134922,-1.5187243752581456,-0.08217249787296058,19.73279665180569,25.997141860657948,102.13256576563077,3.2608530141368,20.887245735940333,36.91434850970395,93.2504074054563,57.203825822200756,0.14968217968607522,6.700988054275513
-5.738724827080057,-2.0110531472582425,-2.7280154171822533,0.311344815909254,-1.5187768522545666,-0.0741870100774057,19.940843333397652,25.844805189013762,102.09356340285244,2.5435983505343027,20.804691596297108,36.9178519794853,92.70374152393674,57.191544834732106,1.0194847082845833,6.7252514362335205
-5.739403446424669,-2.0112271792397878,-2.7202865223806136,0.3106661965646418,-1.5189508842361121,-0.06645811527576595,20.142278321868062,26.206595040690225,102.31025859552894,2.3822045213064,20.72601895590833,36.9229757507387,92.1754897604246,57.1875298783021,0.984157761950538,6.749352693557739
-5.740186649668617,-2.0115056096055755,-2.7109404196398135,0.3098829933206946,-1.5192293146018998,-0.0571120125349658,19.69735997389309,25.919725948231697,101.8947596832842,2.1734204068246488,20.630919634978927,36.92975937907325,91.53655290425303,57.18056674479988,1.104246883255656,6.780779600143433
-5.741058466521007,-2.0110501773841807,-2.7028322640895603,0.30901117646830345,-1.518773882380505,-0.04900385698471285,19.982657233676903,26.22022173409436,102.01557635080621,1.6306843793499826,20.547869329465193,36.929387460474906,90.98369433627578,57.17002207544976,0.4022675655758272,6.807530641555786
-5.742109991023143,-2.0114889343671303,-2.694363303948167,0.3079596519661685,-1.5192126393634546,-0.040534896843319346,19.92696340228249,26.574274589062654,101.98677653361234,1.5198257705324183,20.459918770153692,36.936071949599445,90.4033882326476,57.14462700728444,0.3905626230556223,6.842699289321899
-5.743019513264491,-2.011333077114364,-2.688547171984572,0.3070501297248205,-1.5190567821106882,-0.03471876487972428,20.14594251403631,26.17234821460075,101.74156469768093,0.41047164345466813,20.398906350991265,36.936401349969806,90.00581788868664,57.122184469849564,0.2744089379610397,6.8672449588775635
-5.743584393523329,-2.011000041432202,-2.680088432470707,0.30648524946598243,-1.5187237464285264,-0.02626002536585917,19.420628622369282,26.993234609440442,101.76465642665978,1.7350381332817608,20.313504280702286,36.93789298295523,89.42969570964334,57.115512569107516,0.1736126208584441,6.905551433563232
-5.744480279081245,-2.0107465838648384,-2.675508814414171,0.3055893639080667,-1.5184702888611628,-0.02168040730932347,20.121062994239278,26.819469396474805,101.76880171010492,0.2559848995155405,20.264690417442274,36.936563636656174,89.11681710766516,57.08994024770514,0.17426346920103875,6.929431676864624
-5.745123750500834,-2.010861182899478,-2.6734861822007745,0.30494589248847737,-1.5185848878958026,-0.019657775095926727,20.574524509814875,26.493822742871515,101.74435787498248,-0.7535684251891889,20.241911696570746,36.93719296013121,88.97805914188021,57.06776128315735,0.1744450019692545,6.941699743270874
-5.745076128646655,-2.010368108584956,-2.668293035245814,0.30499351434265565,-1.5180918135812804,-0.014464628140966412,19.352993944495868,27.50047283472366,101.70976871500442,1.5032947640154128,20.191299257589208,36.93669183056482,88.62531714728952,57.077474314958835,0.3028683123190179,6.969119310379028
-5.745183109693892,-2.0105570665115264,-2.666550827391386,0.30488653329541915,-1.518280771507851,-0.012722420286538166,19.71456771206326,26.990678635843114,101.56488131910181,0.42829418570785505,20.173569670478898,36.93911083483052,88.50646262787768,57.073471690402314,0.22380677149746564,6.981754541397095
-5.7457683172893805,-2.010047973289155,-2.6618022218755173,0.30430132569993074,-1.5177716782854793,-0.00797381477066944,19.676165176777864,27.196655093565298,101.67463349888041,0.613483938783172,20.124541423792117,36.93653400550236,88.1830534918116,57.05879299924095,0.1871785341328076,7.0088136196136475
-5.745990903659461,-2.0100249971840025,-2.6580824496398736,0.3040787393298503,-1.5177487021803266,-0.004254042535025843,19.645275809612503,26.38672736387457,101.36644864334356,-0.14383503611477724,20.08692904216642,36.938191549379326,87.92974183152755,57.05253145244067,0.3197710162815257,7.034754991531372
-5.746274752248691,-2.009789838745256,-2.6558536236958066,0.3037948907406194,-1.5175135437415805,-0.0020252165909588615,20.24385677851513,26.102856150252244,101.37429229420735,-1.4343031599699634,20.063859479632942,36.93697490654063,87.77795654598823,57.04468166465869,0.3201973511894529,7.047295331954956
-5.746094672539067,-2.009519814149016,-2.6532542261469674,0.30397497045024346,-1.5172435191453404,0.0005741809578803658,19.8339677234971,27.07757012488326,101.6441307739697,-0.03163776645152268,20.039168864651938,36.93690009993662,87.60113041171245,57.05381827484871,0.17579840651133072,7.062316656112671
-5.745880335713822,-2.0088892766366797,-2.6482652577402437,0.30418930727548954,-1.5166129816330043,0.005563149364604059,19.56736631882916,26.573130929549293,101.24530784013905,-0.5609047368855652,19.991250578111153,36.93548168562007,87.26133056601358,57.0667123741794,0.14006661981121837,7.089798927307129
-5.745476873858107,-2.009102035158733,-2.646505428975611,0.3045927691312045,-1.5168257401550573,0.007322978129236907,18.982827940586677,26.34360056985954,100.85269147845666,-0.2929531772677662,19.97550493494226,36.939396011356955,87.1414902474329,57.079777403972095,1.1125434339553602,7.102238893508911
-5.745637031779809,-2.009022097502169,-2.6416561292149945,0.30443261120950194,-1.5167458024984932,0.012172277889853367,19.809871663315104,26.511785197708377,101.20095820104616,-1.3597915104775855,19.926968097477822,36.941420978928306,86.81106016840458,57.073854606672754,0.9735289621677614,7.1298816204071045
-5.7458476413313235,-2.0086819490517493,-2.639003506929807,0.3042220016579873,-1.5164056540480737,0.014824900175040928,20.288220720372557,26.368426204481324,101.31986599333595,-2.179396150494749,19.900050134665502,36.93976752093054,86.63017690021587,57.06793826138749,1.2134336296993329,7.142471790313721
-5.744944324477396,-2.00849779690758,-2.6328500806826383,0.3051253185119145,-1.5162215019039045,0.020978326422209453,19.885385027820913,26.494096940361263,101.44584584790806,-1.3735130706768761,19.843232578242684,36.94447666613536,86.21001433344156,57.09935277718297,1.0994916602534888,7.1737754344940186
-5.745096921314092,-2.0081518471142066,-2.6297924981033383,0.3049727216752194,-1.515875552110531,0.024035909001509398,19.688040215387208,26.682407750811617,101.53626618746016,-0.8713849043209358,19.812532894995297,36.943160190984806,86.00127069528808,57.094455356246804,1.0299765322535546,7.186722278594971
-5.743944182305894,-2.007571261757755,-2.620781944822042,0.30612546068341695,-1.5152949667540794,0.03304646228280558,18.894791098872556,26.55313980247244,101.14143086631475,-0.4894133452359746,19.72863852231938,36.94699533502834,85.38429874098185,57.13299555715871,1.212832957925981,7.2239110469818115
-5.743121435254116,-2.0074532008593993,-2.610709927736249,0.3069482077351955,-1.5151769058557238,0.04311847936859875,19.20354941032428,26.51494431636301,101.20287916804156,-1.3611834789932582,19.632381310394248,36.95437940647205,84.69529807935608,57.15169737558361,0.29827010976870927,7.265157461166382
-5.742684509476801,-2.006921760467586,-2.6035276284469733,0.30738513351250996,-1.51464546546391,0.050300778657874384,19.68495653598884,26.237615618664886,101.34689410249086,-2.358972259154539,19.563281002792646,36.955530524817206,84.20289644399838,57.16055904046505,0.17943672938345223,7.290419578552246
-5.741925939059513,-2.006895436702072,-2.5999981800554846,0.3081437039297983,-1.514619141698396,0.053830227049362994,19.37360196247137,26.257616203594843,101.27322939115786,-2.0463245304356965,19.531480641753195,36.959433015947695,83.96000358969044,57.18222040161411,0.24741989465341607,7.303988456726074
-5.741362925714649,-2.0069554643659644,-2.5927406265087374,0.3087067172746627,-1.5146791693622887,0.06108778059611025,20.21054358829153,25.559310541548285,101.29809835508239,-4.1161850697305375,19.461685462461325,36.96577810038521,83.4634688696746,57.1882976563389,0.20426252265164013,7.330733060836792
-5.741160744920867,-2.006821484718902,-2.5888357785614793,0.3089088980684438,-1.514545189715226,0.06499262854336846,20.096667081655678,25.70251810605715,101.28565185544902,-4.011711713402804,19.423773835729747,36.9675438761038,83.19611438293772,57.1883188033398,0.16385158460831484,7.343214273452759
-5.739593458014571,-2.0066756943187176,-2.5817932189725767,0.31047618497473994,-1.5143993993150422,0.07203518813227089,19.121604214054923,24.937903696818648,100.65601340763942,-3.866024156099496,19.36040625396198,36.974637271904655,82.7098116121179,57.22977872449137,0.25763940969505406,7.3673155307769775
-5.738335476966307,-2.006744627452984,-2.5701683076017674,0.31173416602300463,-1.5144683324493085,0.0836600995030804,19.1620649479259,25.812116776211877,101.16171701952761,-3.133891630982955,19.249762672243612,36.98535927968222,81.91290367528802,57.24371930641125,0.30168566386181883,7.405209302902222
-5.736589107758903,-2.0065345591379495,-2.556134308496461,0.31348053523040864,-1.514258264134274,0.0976940986083869,19.125762252111564,26.072230349132088,101.49952197762097,-2.883064846763239,19.117052026037392,36.99636695340529,80.94870051783377,57.26416321798937,0.32376541791478175,7.44847846031189
-5.736190034472562,-2.006531871899237,-2.5522054276089188,0.313879608516749,-1.5142555768955612,0.1016229794959288,19.006531179878476,25.57916571523991,101.2780005420527,-3.358483308871311,19.07942528704248,36.99965325584092,80.67963513905916,57.26491222760135,1.1798679958248535,7.460720062255859
-5.734947289265219,-2.0068361813599287,-2.544619717115313,0.31512235372409236,-1.5145598863562533,0.1092086899895347,19.27939423443354,24.588428519503466,101.07990280788579,-4.933623053605199,19.00849484802493,37.0097759005773,80.15953312080765,57.27951665222657,1.1097875666126722,7.485111236572266
-5.733919913081727,-2.006709192200814,-2.53594019000177,0.3161497299075844,-1.5144328971971381,0.1178882171030779,19.14658038869428,24.697038733798973,101.05730287905673,-5.020846318267843,18.925865774038417,37.016345777621225,79.56427396011136,57.28279309681764,0.9740367519219664,7.51199197769165
-5.733436513320757,-2.006818742547951,-2.532254615447516,0.3166331296685545,-1.5145424475442757,0.12157379165733173,19.070483800175868,24.63858125400505,101.02600974899649,-5.092518352935849,18.890831433830805,37.02059831836352,79.31245698239269,57.28385657414882,1.1358533728923215,7.5236406326293945
-5.7326603562153515,-2.007034140764097,-2.524681305756663,0.3174092867739602,-1.5147578457604212,0.1291471013481848,19.439005556952083,25.23268933834476,101.45169195043856,-5.065614653037912,18.81786467517632,37.028654806671355,78.79696678709202,57.27673482324392,0.4741238591091941,7.547840595245361
-5.732043301522168,-2.00711496015163,-2.520535209436983,0.3180263414671436,-1.514838665147954,0.1332931976678644,19.547551007088867,25.33591623390767,101.61493878883276,-5.087863538214247,18.77870791492079,37.03325340674886,78.51343678840959,57.27910431885834,0.30787929685983517,7.561008453369141
-5.73099542639101,-2.0072361061817743,-2.5124946274527833,0.3190742165983016,-1.5149598111780984,0.1413337796520644,19.049339965016376,25.192029100597203,101.44434755796122,-4.77582921375637,18.702088527698,37.041452243197675,77.96497025942483,57.27680298526417,0.3551032061388071,7.5856711864471436
-5.729957190520352,-2.007550747767486,-2.505349524548109,0.32011245246895914,-1.5152744527638102,0.14847888255673836,19.071646781638293,25.020998981684674,101.32001505841785,-5.411479326762993,18.634215646617335,37.05070591604605,77.4791406209048,57.275132774550045,0.33636792886904576,7.608745813369751
-5.729570461343531,-2.0077174781877023,-2.5015199467506632,0.32049918164578006,-1.5154411831840264,0.15230846035418438,19.203474726261014,25.264570231558007,101.31187628278288,-5.754153242510294,18.597095443907307,37.05518479758258,77.22049579532882,57.26741846028522,0.4278700532493911,7.62060022354126
-5.728449031582219,-2.0080040902666623,-2.4931315594714523,0.3216206114070923,-1.5157277952629868,0.1606968476333952,19.53342292035457,25.639010010929912,101.38561621070548,-6.455479489836517,18.51689581034763,37.06504535854684,76.65193322100266,57.25901985952415,0.49899003349084037,7.647164821624756
-5.726231789617058,-2.0086261399037735,-2.4772001530901715,0.323837853372253,-1.5163498449000978,0.17662825401467597,19.228496317574077,25.82028076783909,101.09459693747229,-6.952784434298527,18.36455365132279,37.084537345666746,75.57568566249832,57.23865227538981,0.45795086695164944,7.6967785358428955
-5.724478974271398,-2.0093036938206232,-2.4692380662968643,0.3255906687179131,-1.5170273988169476,0.18459034080798342,18.85192291156627,25.280903720438452,100.80154849654915,-7.320547054618097,18.290651347427236,37.09900470712698,75.0369616074132,57.24542304315075,0.6002847591707461,7.7228076457977295
-5.723177195316904,-2.0096548283816515,-2.4613803810496466,0.326892447672408,-1.5173785333779757,0.19244802605520095,19.28545181327903,25.75321292369118,101.08970639129473,-7.722859708793825,18.21605957454652,37.10946178220057,74.50763280293778,57.236849121888014,1.1078517203148897,7.747023582458496
-5.72240185285418,-2.009815989842451,-2.4571752235632456,0.32766779013513103,-1.5175396948387752,0.19665318354160216,19.158870962373804,25.694625724233834,101.0969552034517,-7.648320959766503,18.1764373782933,37.11503423725774,74.22375639793363,57.23431450710409,0.9842241727996432,7.759661436080933
-5.7206874096722675,-2.010421590246329,-2.4480485168057897,0.32938223331704375,-1.5181452952426537,0.20577989029905802,19.765454597136838,25.642731595275695,101.3790998827291,-8.66242350380627,18.090276064718857,37.129309599056,73.61141283747259,57.226040773401024,0.6391963824785192,7.7886552810668945
-5.719452821532058,-2.0105592999168227,-2.4435455364387058,0.33061682145725335,-1.5182830049131468,0.21028287066614204,19.24259474669302,25.601407791617916,101.19438835357269,-8.217052202710857,18.049415403138777,37.13605134684765,73.30364899659219,57.235607618829825,0.6851354859068728,7.801579475402832
-5.716985596399661,-2.010476969310525,-2.429474563399881,0.33308404658964985,-1.5182006743068495,0.2243538437049668,19.692191383395535,26.30465037299048,101.61909735204677,-8.525015553633619,17.91617300329193,37.149008239891124,72.35440987984092,57.21525673872702,-0.0557226644114408,7.841982841491699
-5.714296388397521,-2.0111286052861916,-2.4214501864898894,0.33577325459178997,-1.518852310282516,0.23237822061495833,19.078942400814256,25.76612143878098,101.5339833580301,-8.094166083097344,17.844730465502455,37.16566248375761,71.80744847290902,57.24075463869896,0.09253449072810493,7.868880987167358
-5.713277354056045,-2.011205250135011,-2.417428533846423,0.3367922889332662,-1.518928955131335,0.23639987325842438,18.92126404590457,25.362263949768177,101.45878432751621,-8.274874892182797,17.807720141902514,37.17102135819091,71.53470345525832,57.24276322364924,0.11924519226866082,7.881619453430176
-5.710934522812179,-2.011528156670547,-2.4099135766078583,0.339135120177132,-1.5192518616668713,0.24391483049698925,18.552912329167224,25.137890773462473,101.46521696728341,-7.965801568833803,17.740120687685366,37.18371397870394,71.02234147535815,57.25903486135625,0.15409175281549903,7.9070258140563965
-5.707571149202842,-2.0118134758268926,-2.3988464037203654,0.3424984937864699,-1.519537180823217,0.25498200338448246,18.87175960257596,24.702248496026176,101.52097775239905,-9.224946827312552,17.64013976145035,37.20054295654515,70.26795420963252,57.27733638154364,0.21539860438884784,7.944783926010132
-5.702484257266933,-2.011654144983967,-2.3819436173979014,0.3475853857223776,-1.5193778499802912,0.2718847897069465,19.075087703378664,24.79613170629752,102.25027879747253,-8.925806318644588,17.487196138350264,37.22103888370744,69.11169263723829,57.29845071066307,0.07037682271945567,8.00197172164917
-5.699969116844384,-2.0111584317451445,-2.372346943587673,0.35010052614492704,-1.5188821367414689,0.2814814635171746,18.929490877752453,24.735365269846984,102.34318754192664,-8.917628034137325,17.398915050755313,37.22819555138015,68.45677516382757,57.29537410845853,0.9647482703069974,8.032732248306274
-5.698220211814402,-2.011413978727248,-2.3691628770255058,0.3518494311749101,-1.519137683723572,0.284665530079342,18.773209768777605,24.342689390141057,102.2349942787724,-9.190938069994933,17.372928654020036,37.23660453406529,68.2320989000083,57.32236486207323,0.8465829439342265,8.0452299118042
-5.69378268526199,-2.0110187888387183,-2.3534245716064808,0.35628695772732133,-1.5187424938350427,0.300403835498367,19.121533124216025,23.784208603027047,102.36286398580596,-10.699208239759878,17.228572099337033,37.25258269606924,67.16392523471112,57.31622982757327,0.714400823089794,8.098769426345825
-5.6915866279630745,-2.01045813795991,-2.3458555685839677,0.35848301502623636,-1.5181818429562342,0.3079728385208801,18.867885422290794,23.899966700960437,102.39031181867011,-10.427521946858445,17.159509796994442,37.257286005505435,66.64490818250167,57.31434750835693,0.5799037157919997,8.123051643371582
-5.688542812412646,-2.010106825735739,-2.333256381550505,0.3615268305766657,-1.517830530732063,0.32057202555434267,19.5065195365853,23.405135753480803,102.74137860147225,-11.89358596888236,17.041408637556994,37.268218725282274,65.80390894074571,57.28253286875888,0.3414209777416186,8.16499137878418
-5.684831499799307,-2.00886024513367,-2.3165790358790765,0.36523814319000447,-1.5165839501299945,0.33724937122577103,19.227006833588312,23.065898171574425,102.63715873886527,-12.492707284651512,16.883992745181253,37.275086699298825,64.6895663282297,57.22569181335556,0.29787042898572746,8.216454982757568
-5.68347528469209,-2.0088258807350456,-2.3128857187864984,0.36659435829722176,-1.5165495857313702,0.3409426883183493,18.838008690507632,22.57533861448547,102.45433733240141,-12.533186552835021,16.85097614038156,37.28011370489087,64.43845107489645,57.2283762343024,0.3014613437320586,8.228768348693848
-5.681304348866856,-2.0081414353903835,-2.300473514090138,0.3687652941224555,-1.5158651403867076,0.3533548930147099,18.74047132294466,22.187861065599478,102.47522728502213,-13.046270592703614,16.730879447253038,37.285462081904676,63.631299944405306,57.15726957245707,0.12759003678528646,8.26731562614441
-5.68078640012491,-2.0074503843729588,-2.295862663165209,0.3692832428644013,-1.5151740893692829,0.35796574393963865,18.83751077778666,22.71472603939552,102.75249471510166,-12.509284801299183,16.685427695870942,37.28293082045397,63.33018703084906,57.12229020972252,1.1625824701778278,8.280072212219238
-5.6789093724009305,-2.006988971209002,-2.2869552073279964,0.3711602705883812,-1.5147126762053265,0.36687319977685107,18.550159421574232,22.26286417832564,102.72259277006727,-12.604247208197757,16.600240513611002,37.28781822341365,62.75040071231295,57.077341470365866,1.1695608382469622,8.308101415634155
-5.679064627413739,-2.0058298510983144,-2.281718729206229,0.37100501557557175,-1.5135535560946387,0.37210967789861893,18.706065165610696,23.015601112375194,102.97408696808941,-12.125851093283448,16.545921552889805,37.2796292021965,62.41841894315163,57.01255171557546,0.9230547845794668,8.320884704589844
-5.677409245733325,-2.0059152844344164,-2.2738521873029836,0.3726603972559861,-1.5136389894307405,0.37997621980186413,18.285586614740957,22.274961990649146,102.56573764931603,-12.87165601818208,16.47009258013441,37.28801221174639,61.92028405251701,56.96697672901038,0.8920464092419067,8.347328901290894
-5.67720086990789,-2.005428380928244,-2.2693712067903444,0.3728687730814215,-1.5131520859245682,0.38445720031450326,18.879915190827774,22.297242596861096,102.76734711599535,-13.916730509875853,16.424443194158137,37.28617373169501,61.64187659554103,56.91860620992316,0.9274628088251458,8.360044479370117
-5.676055875843824,-2.004755526661926,-2.2599443358755824,0.37401376714548773,-1.5124792316582505,0.3938840712292655,18.653700053925725,21.935036175130225,102.58636850843415,-14.432701661918712,16.33076382929111,37.287214830968736,61.05191566647403,56.836509710983286,0.8213165053827423,8.388066530227661
-5.676444010024128,-2.0042758731998127,-2.2552968296395255,0.37362563296518303,-1.511999578196137,0.398531577465322,19.0466883567499,22.15977688253196,102.76990357645064,-14.873427973988706,16.280974922945877,37.28374922777667,60.77924827715299,56.76457651014577,1.0438722736038404,8.400829076766968
-5.675307357720881,-2.003777051347522,-2.2465874376942496,0.37476228526843025,-1.5115007563438465,0.4072409694105983,18.92428923523969,22.20983120246021,102.81962223432697,-14.784632502293512,16.19445552529144,37.28586963911505,60.24079796918288,56.68741463104195,0.3416027161254416,8.426579236984253
-5.674832933533912,-2.0031707395129343,-2.24106883814929,0.3752367094553999,-1.510894444509259,0.412759568955558,18.340969633006463,22.528622243347925,102.67425596720736,-13.781727031592542,16.138877953073266,37.284030320291684,59.90059281917408,56.63068894565261,0.19494911723427677,8.441626787185669
-5.674748289067221,-2.0022167611227415,-2.227662571446256,0.3753213539220903,-1.5099404661190656,0.42616583565859145,18.815664648542935,22.179239714210876,102.73932598141813,-15.350160521553624,15.99916008952277,37.280790491677976,59.114368541953375,56.45259643961718,0.2213698033809557,8.479885578155518
-5.674093545477751,-2.001853986276725,-2.219555539804026,0.3759760975115598,-1.5095776912730492,0.4342728673008217,18.490770243552415,21.898452378409665,102.52650615630904,-15.574442666121316,15.916680150614106,37.2822836240441,58.635174177150766,56.3614436332227,0.19400346370585986,8.503920316696167
-5.674123002949132,-2.0013096138731257,-2.211130615561408,0.37594664004017897,-1.5090333188694502,0.44269779154344,18.750125363190886,21.960411154942623,102.55625883485324,-16.293833974987475,15.828321002951302,37.280329580142684,58.15295366029096,56.24280631360714,0.2598221577711701,8.528042078018188
-5.674260679331251,-2.000982308614322,-2.20675009492355,0.37580896365806016,-1.5087060136106463,0.4470783121812977,19.098923842945844,22.08781293195834,102.6930192536272,-16.791905678451784,15.781923255899322,37.2785620845958,57.9055813141788,56.1767219075748,0.2246455310843345,8.540558338165283
-5.67443657462197,-2.0002045092563874,-2.1978295279805096,0.3756330683673412,-1.5079282142527117,0.4559988791243381,19.078409040720658,22.026047705072767,102.62258725556019,-17.200242164266896,15.687871598289599,37.27426130328527,57.400465604412055,56.04459617388778,0.10753579759404808,8.565268278121948
-5.674536349806456,-1.999461472636282,-2.1848200532030595,0.3755332931828552,-1.5071851776326064,0.4690083539017881,18.89405779173165,22.08042920162766,102.50984686071348,-17.34064150558181,15.550798548779898,37.27161342047082,56.677214642852164,55.85246784898289,1.152009250209768,8.602678775787354
-5.674886761730182,-1.9989800436112188,-2.1752518289337273,0.3751828812591298,-1.5067037486075432,0.4785765781711204,18.88821723679863,21.851782161793366,102.36330921434994,-18.076481894283578,15.44877109546357,37.26931728199379,56.15945139179375,55.69994900397633,0.3456971541698497,8.629827499389648
-5.675052105860639,-1.9986553686135167,-2.1708075273528005,0.3750175371286719,-1.506379073609841,0.483020879752047,18.968371522216927,21.770964597184836,102.38580910600861,-18.38676759268307,15.401431882588204,37.26735599671974,55.9185772263767,55.62874300663894,0.19800076017610113,8.642273902893066
-5.6754298195653945,-1.997961200686883,-2.160532101578347,0.3746398234239172,-1.5056849056832073,0.49329630552650083,19.072601921833638,21.98524740473966,102.46822143096195,-18.500024470838376,15.291873232514687,37.263238090413566,55.367324993942646,55.462636291019365,0.19433272585481554,8.671669244766235
-5.675985488908147,-1.9979950205475148,-2.156655947769191,0.3740841540811646,-1.5057187255438391,0.497172459335657,19.459433440928795,22.045961570104684,102.54419513186272,-19.187798895315776,15.248715870634971,37.2629740715104,55.17755804936692,55.38562270922172,0.22437040485845738,8.683796167373657
-5.67659694271357,-1.9973244441345674,-2.1481036615990496,0.373472700275741,-1.5050481491308918,0.5057247455057982,20.02792504931825,22.405035868954506,102.71291169609941,-19.924314439954394,15.156414195315532,37.25778731285096,54.73047154332182,55.236273127592256,0.45399302090886096,8.708446264266968
-5.676968291657125,-1.9968883702209232,-2.1341423436703497,0.3731013513321866,-1.5046120752172476,0.5196860634344979,19.71617180984428,22.08436774837984,102.47520460240506,-20.362413610716825,15.007282156391778,37.25656227788987,54.01055895402992,55.007815442130024,0.35915733856993093,8.750398397445679
-5.677316364622326,-1.9968989477349817,-2.1302449321292913,0.37275327836698535,-1.504622652731306,0.5235834749755561,19.729446622533832,21.918316339145772,102.44162300257986,-20.68158636365973,14.964596287136557,37.25660247649705,53.82066404032957,54.93556624208497,0.366011075127334,8.762380838394165
-5.67750936269309,-1.9967011974727353,-2.1213444179763297,0.37256028029622046,-1.5044249024690597,0.5324839891285181,19.601346983173418,22.080954650802507,102.32345012815267,-20.69594704454527,14.869466186843468,37.2564970127519,53.370769703359095,54.78902101170853,0.4231196654709466,8.78907299041748
-5.67832689846465,-1.996532043277335,-2.108705147233813,0.3717427445246613,-1.5042557482736594,0.5451232598710345,19.422126010883012,22.006840534517636,102.17571681258855,-20.916916096215353,14.732157126924468,37.25558618405039,52.75590057703031,54.56192499431134,0.3225348716750327,8.82769775390625
-5.678575729698345,-1.996678277217547,-2.1046025795684384,0.3714939132909669,-1.5044019822138714,0.5492258275364094,19.525070225510856,21.720687177862345,102.14121748956067,-21.559870125436266,14.687423007632763,37.25701379503132,52.56283444282935,54.48793906265583,0.26876526574431203,8.840759754180908
-5.6789173425198225,-1.9963979555249687,-2.0943808236746295,0.3711523004694892,-1.504121660521293,0.5594475834302182,19.260038129966947,21.57528816455564,102.01335248548396,-21.60690649624449,14.577515862787871,37.255829179527204,52.0639006824073,54.31238028603546,0.2937918967215776,8.870976448059082
-5.678932072010447,-1.996493713172772,-2.09020315985563,0.3711375709788638,-1.5042174181690964,0.5636252472492179,19.040676286304148,21.469618340771955,101.91191911869896,-21.53116257365664,14.532809868016459,37.25746784932617,51.86377447138531,54.24375633622017,0.15587521229886825,8.884033441543579
-5.679472653372596,-1.9964298630849227,-2.082001685704612,0.37059698961671605,-1.504153568081247,0.5718267214002354,19.222518553692343,21.878231082205954,101.97912777879282,-21.513077717806844,14.443403248641905,37.257002722697194,51.48041506596614,54.0931457079031,0.2639595709939657,8.908319473266602
-5.68037366333346,-1.9965358589470406,-2.0687236105658524,0.36969597965585166,-1.504259563943365,0.5851047965389955,19.429536332722734,21.698171207108906,102.01461887580118,-22.26792323516375,14.298227714569716,37.257812503687234,50.87399591890146,53.84679918692237,0.38459241767914065,8.948026895523071
-5.680362121397112,-1.996542831902811,-2.064401563290417,0.36970752159219966,-1.5042665368991353,0.5894268438144308,19.304251680018332,21.894397881504215,101.93343022313923,-22.059119558418907,14.252043890615152,37.25869554009119,50.67059187190476,53.77551987538406,0.2702503691471154,8.960753679275513
-5.680576822638953,-1.9970123651166984,-2.054997195291624,0.36949282035035846,-1.5047360701130228,0.5988312118132237,19.02034975777462,21.391220578978,101.76879116770674,-22.457238267229524,14.15018016316762,37.263721680621714,50.24887510230647,53.61211826899527,0.44560390627004676,8.990034580230713
-5.6810423695933805,-1.9970603410586398,-2.050735756012767,0.3690272733959308,-1.5047840460549642,0.6030926510920808,19.23680935665464,21.66587770036313,101.8511435669302,-22.516084321680626,14.102859615142581,37.26348878595988,50.06464594453075,53.52685700364951,0.4480292336888718,9.002306699752808
-5.680959838390647,-1.9976335592935857,-2.0420409129998234,0.3691098045986645,-1.50535726428991,0.6117874941050242,18.96355537212313,21.104847390545352,101.6846413439182,-23.016680396443338,14.00940072995689,37.27003507286994,49.67786539066971,53.38322704940818,0.3183691179934609,9.029081106185913
-5.681575116018885,-1.9973740601885934,-2.0374963339597074,0.3684945269704265,-1.5050977651849178,0.6163320731451402,19.226523141326517,21.425112236054606,101.84688362735697,-22.95511762685381,13.958779755743748,37.2667317637064,49.48016423292626,53.28845294336925,0.14237540869867527,9.041148662567139
-5.681223396176746,-1.9980143466628568,-2.0298762653247016,0.36884624681256506,-1.5057380516591812,0.623952141780146,18.699961484062843,21.44619650525516,101.65505669738992,-22.325377693574882,13.877595301238632,37.27437512665672,49.14309501367828,53.170118512887846,0.23755606030500687,9.065222978591919
-5.682087415268892,-1.9981047019032914,-2.0254803591427772,0.36798222772041855,-1.5058284068996157,0.6283480479620706,19.19077377898192,21.155455825052137,101.77365655974424,-23.481718828036264,13.827305642408927,37.273241646488486,48.97015324148028,53.06995162889284,-0.0840367841118983,9.078016519546509
-5.681981741320197,-1.9986077098399457,-2.015413164416536,0.368087901669115,-1.50633141483627,0.6384152426883114,18.81029363052564,20.830001391518433,101.64227526156908,-23.449078167756085,13.718995206814562,37.27923658772111,48.53291745369062,52.9021031767654,0.08759573785267705,9.108277559280396
-5.681981547621293,-1.99866842518229,-2.0112732709043857,0.3680880953680181,-1.5063921301786143,0.6425551362004621,18.73390516441849,21.114790054619974,101.62349656820668,-23.081145438475122,13.674420429329633,37.280301395243114,48.35219966888708,52.83158096395593,0.2500443560005454,9.120405912399292
-5.682488049448703,-1.9988503538406088,-2.002306668277339,0.36758159354060815,-1.5065740588369332,0.6515217388275086,18.922894721852504,21.36168072945494,101.64262097379988,-23.31217032600039,13.57601908547518,37.28148285323447,47.97814133261125,52.66346265174429,-0.039708423871537946,9.147401332855225
-5.682345738602866,-1.9992702602675851,-1.998314074281939,0.3677239043864451,-1.5069939652639095,0.6555143328229087,18.897387674218862,21.36411962208563,101.5399358040576,-23.541328812399108,13.533085922926992,37.28596160327289,47.812120453525054,52.59936404411798,0.0010365393027083059,9.160425424575806
-5.682616087326405,-1.9999027382735595,-1.9894588968545919,0.36745355566290616,-1.5076264432698838,0.6643695102502557,18.8681859581804,21.311128885675053,101.70117954389505,-23.278381829407778,13.436102325926361,37.29155965048939,47.45445925468483,52.43963643648938,0.25132206336050533,9.187852144241333
-5.682595063510737,-1.9998844718888782,-1.9853338466575443,0.3674745794785741,-1.5076081768852025,0.6684945604473034,18.84300526824676,21.239912334228936,101.76628210913701,-23.228124603077138,13.391722187767044,37.29190825661006,47.27771694513238,52.36925221251318,0.13226916657830579,9.200755834579468
-5.682705598048896,-2.001220790811977,-1.9691549778133686,0.3673640449404152,-1.508944495808301,0.684673429291479,18.2645933583336,19.70731566714251,101.44715143324964,-24.58624448735374,13.215333956292598,37.30456124304169,46.633510896365074,52.08754027539709,0.8059624499347278,9.25499677658081
-5.682828080116898,-2.0012023576436184,-1.9649341703505179,0.3672415628724135,-1.5089260626399428,0.6888942367543298,18.57235268157587,19.916313323138837,101.35943268867655,-25.338982819153404,13.169341635605052,37.3044099208045,46.46090497101584,52.010865480305945,0.03938343078210771,9.267730951309204
-5.682834561343817,-2.0014637786342138,-1.9611291742774526,0.36723508164549346,-1.5091874836305381,0.692699232827395,18.7579558613515,20.497542445087117,101.41703508362629,-24.985529671217733,13.12791760014366,37.306941529740946,46.31043177233533,51.944920520866255,0.15016146373128159,9.280791282653809
-5.68310255292791,-2.0017620088926957,-1.9531269513376794,0.36696709006140127,-1.5094857138890199,0.7007014557671682,18.782774822696,20.79368899965463,101.4251747850282,-24.774548499644006,13.040164004721415,37.30931450410883,45.996622323280135,51.798478826364246,0.14170516380968667,9.306777238845825
-5.683039462143755,-2.00196887274977,-1.9498553166297081,0.36703018084555605,-1.5096925777460946,0.7039730904751397,18.797472605316305,20.754164815799935,101.43534088807067,-24.87886639112354,13.004752552972654,37.311507087131574,45.866990261957774,51.74359467977067,0.16770787889098582,9.319358348846436
-5.682878004727097,-2.0024111677691145,-1.9412096594034431,0.3671916382622147,-1.5101348727654391,0.7126187477014045,18.630468759037214,20.847685002712087,101.24751488855613,-24.946828351566612,12.911205524033827,37.316346324535346,45.5245674037191,51.59807236429045,0.09462106921673374,9.347062826156616
-5.682869582683686,-2.0030193333214132,-1.9325588395568634,0.36720006030562535,-1.5107430383177376,0.7212695675479842,18.432386439891275,20.20672510734582,100.96949101151401,-26.0085497608765,12.816826038609179,37.32207552994191,45.19384492113669,51.448043108254936,0.20446373693089015,9.37600302696228
-5.682938311507607,-2.0031459649876453,-1.928903996451536,0.3671313314817044,-1.5108696699839694,0.7249244106533117,18.16282115767708,20.377577878766992,100.87559261210436,-25.44241568018101,12.776829558274919,37.32314468593723,45.05382265192286,51.38235222424371,0.20711527481720093,9.388147115707397
-5.68286037566901,-2.0035773785353395,-1.9170993492250958,0.3672092673203009,-1.5113010835316638,0.7367290578797517,18.83258325622176,20.21716124038516,101.35500793941915,-26.246604153656623,12.648509012328876,37.327599720389735,44.59897254641946,51.178423673472324,0.4131089768339038,9.428982257843018
-5.682764078396959,-2.0040259097708173,-1.900654271829531,0.367305564592352,-1.5117496147671419,0.7531741352753167,19.196213782920648,20.495084228684775,101.6364986354117,-26.322223762783697,12.469612575681152,37.332241581975325,43.9731870979698,50.8929608458482,0.5146797163659178,9.484159231185913
-5.682662883330703,-2.0043993185502167,-1.8937285397831611,0.36740675965860836,-1.512123023546541,0.7600998673216864,18.95954307844144,20.504726868364468,101.44074309181764,-26.307827803351078,12.39417192523571,37.33587932762388,43.71666064636605,50.7745763880881,0.37466436626414445,9.508909940719604
-5.682744126091202,-2.0043340565000225,-1.8901833482753223,0.3673255168981093,-1.5120577614963466,0.7636450588295254,19.08431729815381,20.64765199928197,101.438802508209,-26.464790356412284,12.355390922812175,37.33512866457833,43.58318084558805,50.70968433465579,0.3771587194864727,9.520701885223389
-5.682615095449208,-2.004757296034792,-1.8835056406106943,0.36745454754010387,-1.5124810010311165,0.7703227664941535,19.238158447715225,20.21146294933599,101.47139046623293,-27.372993367133052,12.282603989544745,37.339205377615976,43.3399240319657,50.596408230859076,-0.18052752426688912,9.544964790344238
-5.682506671535279,-2.0047829230872463,-1.8798348226165034,0.3675629714540327,-1.5125066280835706,0.7739935844883443,19.054378731806572,20.02037171002061,101.43323530605674,-27.35007037011527,12.242923071115653,37.33976943998005,43.20089573186642,50.53467565791598,0.36657697140301515,9.557050466537476
-5.682256220539285,-2.0052437720565166,-1.8730243869659926,0.3678134224500256,-1.5129674770528412,0.7808040201388551,19.009234080511614,20.31373629537067,101.39085140046373,-27.0554922441186,12.168951846280923,37.34446919726014,42.95381524419285,50.422380571728155,0.4050197427333426,9.581021070480347
-5.6822986002600695,-2.005300780257831,-1.8649200264129862,0.36777104272924177,-1.513024485254155,0.7889083806918614,19.294781610745996,20.616406288474693,101.5342263660162,-27.095271166096698,12.080327415832562,37.34476696843843,42.65894547395533,50.27805079536304,0.3922853619247686,9.607772588729858
-5.681913901019004,-2.0052067212848446,-1.8601715684030724,0.3681557419703072,-1.512930426281169,0.7936568387017753,19.048827042716603,20.56911546206556,101.51035987232301,-26.756114855855706,12.029814792068127,37.34505921071181,42.47379495394206,50.204343762637905,-0.2653236126790679,9.62315821647644
-5.68149616890605,-2.0056149533646725,-1.8408676247447022,0.36857347408326113,-1.513338658360997,0.8129607823601455,19.045449184014064,19.90267146423645,101.46113189034918,-27.989502274047446,11.819658381214282,37.349323617345696,41.78123760271544,49.87471802757385,-0.17505124795617366,9.685498237609863
-5.681911249094286,-2.005426335778746,-1.8367227560346968,0.36815839389502525,-1.5131500407750704,0.8171056510701509,19.58149924649208,20.453903637675843,101.62195617282734,-28.13638934314991,11.773221146460957,37.34628916041966,41.640747108697525,49.78933897424704,-0.059881014987941406,9.697962760925293
-5.681306097639853,-2.005511503083194,-1.8288928002447578,0.36876354534945843,-1.5132352080795186,0.8249356068600898,19.44560853560946,20.563928624764163,101.5687107421815,-27.9476046986371,11.689283373565102,37.34851669358596,41.352770815792276,49.66700209457364,-0.16114284959052227,9.722295045852661
-5.681137274900278,-2.0056183264489764,-1.8211726470755334,0.36893236808903307,-1.5133420314453008,0.8326557600293143,19.313287803489178,19.858930737829432,101.41437847422587,-29.043731816734326,11.605091562219064,37.34954947049437,41.08309039020718,49.5347568781927,-0.06119764598316557,9.74610686302185
-5.680549997036334,-2.005638731748746,-1.807897849168521,0.36951964595297726,-1.5133624367450702,0.8459305579363268,18.9360988006257,20.12978194463825,101.32128008944282,-28.235529688080977,11.461277957716153,37.350692559372476,40.61364901781337,49.31463374674946,0.029351064195022758,9.785235404968262
-5.680602819305107,-2.0054510055782577,-1.803568097555343,0.36946682368420447,-1.513174710574582,0.8502603095495047,19.040251981271048,19.863038159684667,101.39815665587214,-28.716165230648105,11.413807956603078,37.348613120346336,40.46356228874135,49.23557371175698,-0.03317922292677977,9.797681331634521
-5.680356195412074,-2.0054724412736666,-1.795092963271378,0.36971344757723745,-1.5131961462699908,0.8587354438334698,18.94730956704815,19.42220575253509,101.41459688202175,-29.196705866080382,11.32144719498381,37.348894873509145,40.172898621599074,49.09146896538477,0.16597036748986316,9.822416543960571
-5.6799401153376206,-2.0055844247608765,-1.7859848592637455,0.37012952765169027,-1.5133081297572009,0.8678435478411022,18.937828918529625,19.05825515040296,101.41124841290826,-29.84049871493085,11.22245316559476,37.35034416036903,39.86226417291279,48.94088126714851,0.07028318310318404,9.849273920059204
-5.680109953953394,-2.00549722721672,-1.7815667335175658,0.3699596890359169,-1.5132209322130443,0.8722616735872819,19.18669071724214,19.695182700798252,101.468546285517,-29.409173759832893,11.173443943475453,37.348663609115775,39.71882502150382,48.85745534353265,0.07345705676721437,9.86167287826538
-5.679612138168437,-2.005644237126683,-1.772310811208103,0.37045750482087403,-1.5133679421230073,0.8815175958967447,19.260959267839088,19.379535546958664,101.48239995362786,-30.13180134690472,11.072890599136045,37.35052644588988,39.40729300461192,48.70649297884701,0.03902094640173992,9.889390707015991
-5.679312706979261,-2.00557657846813,-1.767772883076205,0.37075693601005,-1.5133002834644544,0.8860555240286427,18.915500203170094,19.00172132333249,101.36496565954486,-30.234872016716498,11.023890364021453,37.35037815886049,39.25089832009365,48.633367700194604,0.042836664578281614,9.90253734588623
-5.679156831690692,-2.005625511562421,-1.7599337088148694,0.3709128112986195,-1.5133492165587454,0.8938946982899783,18.810681925441802,18.695591615654816,101.33914448589725,-30.60445454847786,10.937905063473568,37.35038938364515,38.996174529659974,48.49820870311885,0.08666110982035757,9.926249265670776
-5.67897956581017,-2.0055433376291125,-1.7556146347450658,0.37109007717914055,-1.5132670426254367,0.8982137723597818,18.758397529230532,18.95841783742967,101.2873798602132,-30.269956034331262,10.890908757476003,37.349711446896215,38.85179714598856,48.425690372296074,0.06671950642367452,9.938717365264893
-5.6790033893902745,-2.0056315175848556,-1.7467998771218987,0.3710662535990368,-1.51335522258118,0.907028529982949,18.98890028447411,18.866575124513304,101.4269339123378,-30.707499041152143,10.793476128686272,37.34928337613049,38.575791009072816,48.268736183098795,0.0783105973303817,9.965955972671509
-5.678879923283009,-2.0055418948294657,-1.7424455797929759,0.3711897197063023,-1.5132655998257902,0.9113828273118718,18.915718902851214,18.497098999864264,101.42139654700152,-31.17679202107228,10.74588264180841,37.34831301714766,38.43376868594572,48.19418193550657,0.011430468833026453,9.978892803192139
-5.678782116914161,-2.005469531165046,-1.7335813827983746,0.37128752607515025,-1.5131932361613705,0.9202470243064731,18.80310898761924,18.605581052556385,101.36894258598392,-30.963885122321614,10.64834839790103,37.346751379210104,38.15365204629296,48.03894720174189,0.14982079977133722,10.006143808364868
-5.67835551043898,-2.0054778360655634,-1.7217340123440201,0.3717141325503315,-1.5132015410618878,0.9320943947608276,18.92406814078429,19.031958132637353,101.22341897535534,-31.08257188742463,10.518602916551163,37.34635479962061,37.77909626437607,47.83970271248696,-0.03743428966601137,10.044178247451782
-5.6783761148481275,-2.005459686093121,-1.7178461719358271,0.37169352814118417,-1.5131833910894452,0.9359822351690206,18.917527177193286,18.616644829072918,101.30488475253281,-31.554572457053965,10.475552296146137,37.345517700033945,37.6609390701279,47.770135181275904,-0.08131789112382304,10.056950807571411
-5.678130097403873,-2.0056146579679908,-1.7100937962058647,0.3719395455854384,-1.5133383629643151,0.943734610898983,18.945633143145088,18.697700716588603,101.1767166835808,-31.87578150947354,10.390258948726462,37.346335395033634,37.42449450500853,47.63975756963112,3.1155604259536265,10.082403421401978
-5.6781289583302375,-2.0053567755455637,-1.7019247007875664,0.3719406846590738,-1.5130804805418878,0.9519037063172813,18.560895189583782,18.488717631859693,101.09350015749233,-31.579332203957605,10.300100300465171,37.342703776248314,37.173841139817945,47.49387878838692,-0.026271495667551825,10.109135150909424
-5.678341351813698,-2.0053286157767936,-1.6980896909580134,0.37172829117561346,-1.5130523207731177,0.9557387161468343,19.02251694853137,18.94033124602485,101.1880961073363,-31.750868668635114,10.257026978787572,37.341115377747464,37.06476987825084,47.42048034275714,0.07035780040991568,10.1215238571167
