dx1,dy1,dz1,dx2,dy2,dz2,azm1_cf,ele1_cf,azm2_cf,ele2_cf,azm1_an,ele1_an,azm2_an,ele2_an,tdoa_bias,time
2.5746149632713693,-3.2740350927197372,-0.13177189159370217,-3.127800384771984,1.170441556122467,-2.2524169175930826,127.36188446575086,-0.4033481737792738,-21.233853262201436,36.49263229822303,97.79319413614166,69.83990849562726,-151.38546284922913,46.35232094603884,2.1928428156334316,8.069541215896606
2.574560925019856,-3.2740091702089966,-0.13183029055824716,-3.1278544230234977,1.1704674786332077,-2.2524753165576277,127.3725452396137,-0.5557075217915884,-21.092001988382982,36.563464965904245,97.79548711028649,69.83947266891664,-151.3857278142466,46.35218655353645,4.318345939529719,8.097002744674683
2.574515991162955,-3.273992963381972,-0.13185062765562697,-3.1278993568803983,1.170483685460232,-2.2524956536550076,127.39347858233508,-0.5184656261523979,-21.095619041391693,36.54072540197256,97.79625582972912,69.83909967960425,-151.38560422470286,46.35229793267627,4.524874349228148,8.13342022895813
2.5745541024406027,-3.273937780471664,-0.13184310162468194,-3.127861245602751,1.1705388683705407,-2.2524881276240625,127.3300832869069,-0.5198811210193885,-21.18234127506179,36.56016767708647,97.79620951500208,69.8399855469051,-151.38674712294937,46.352782895621786,4.59525302709635,8.160518169403076
2.5744489830621324,-3.2739949084181017,-0.13181251685262935,-3.127966364981221,1.1704817404241026,-2.25245754285201,127.44243330501322,-0.44698238713381067,-21.064840878707706,36.47130456606572,97.79460099955574,69.83840694658025,-151.38440578943553,46.35287649219396,4.562479817803621,8.173139572143555
2.5745718587008244,-3.2739564285689458,-0.1318641196252335,-3.127843489342529,1.1705202202732587,-2.252509145624614,127.37299402982589,-0.49165220714226354,-21.145712142730943,36.53309477052721,97.79702069096759,69.83999409284658,-151.38690669462991,46.352335534661385,4.337172183204925,8.200680494308472
2.574544405897625,-3.273998985799948,-0.13185646569680834,-3.1278709421457287,1.1704776630422566,-2.2525014916961887,127.3671076859806,-0.5434467072506609,-21.13254166080634,36.57909319450004,97.79652579831651,69.83934830637962,-151.38591958849383,46.35208635113822,4.2057915071641645,8.212571620941162
2.5745527710483613,-3.27398862870917,-0.13185081386750108,-3.127862576994992,1.1704880201330343,-2.2524958398668815,127.37158877481902,-0.44027897849473824,-21.172826711573066,36.49470684938213,97.79635118415203,69.83953283827906,-151.38610803602404,46.352214665421116,4.3136986419850665,8.254214763641357
2.5744887100664977,-3.2740343112642063,-0.1318007639048983,-3.1279266379768558,1.1704423375779982,-2.2524457899042787,127.40277368187363,-0.3137994575633088,-21.239675935031787,36.42810078959188,97.79408886394525,69.83851760346354,-151.38423105820848,46.3524719467299,4.477924144101701,8.279788732528687
2.5744520335893357,-3.274031589666658,-0.13176853996723237,-3.1279633144540178,1.1704450591755464,-2.252413565966613,127.51995491426423,-0.257026038988811,-21.11150602124796,36.35161622696876,97.7927438854579,69.83818426918808,-151.38351802697247,46.35293656535717,4.355975300001128,8.2944655418396
2.574507457963868,-3.27407622968399,-0.131767999229663,-3.1279078900794857,1.1704004191582142,-2.2524130252290435,127.49049543407865,-0.1192491527472415,-21.243931451569058,36.27643019394315,97.79269200673306,69.83840639646105,-151.38356791171825,46.352318493368784,4.613896797025356,8.323076725006104
2.574512023190921,-3.273988378165833,-0.13184072347271591,-3.1279033248524324,1.1704882706763717,-2.2524857494720965,127.40906811113238,-0.26210848143335286,-21.266745570184597,36.395077188978696,97.79586908453261,69.83910766781143,-151.3855243661164,46.35245281417588,4.318442004163177,8.335328102111816
2.5744943842414796,-3.2739654849235946,-0.1318151673003782,-3.127920963801874,1.1705111639186099,-2.252460193299759,127.42200678157694,-0.40735196603658574,-21.171344003725615,36.495788235876745,97.79489145420068,69.83914173745985,-151.38538087573627,46.35298559661946,4.393546229322683,8.359766483306885
2.5745685610111155,-3.273989771135928,-0.13181527835786291,-3.127846787032238,1.1704868777062767,-2.2524603043572435,127.40638458901992,-0.5087201649730435,-21.10563115563097,36.54702996743325,97.79496805279567,69.83973705614504,-151.38594168559376,46.35249713940449,4.050917945869856,8.371911764144897
2.5745791821341166,-3.2740028133501644,-0.13181253728501086,-3.127836165909237,1.17047383549204,-2.2524575632843913,127.35592888247272,-0.4512361390725095,-21.209331684039373,36.52410810675444,97.79483907740773,69.83974499169332,-151.38586444217586,46.352360531429966,4.374619076670225,8.398555517196655
2.5746081499326077,-3.274035684787701,-0.13179350802231482,-3.127807198110746,1.1704409640545035,-2.2524385340216955,127.38147635422622,-0.6063579572987136,-21.03642367803957,36.583180627189265,97.79403703692262,69.83980354519906,-151.38558000151428,46.35212712054789,4.62319669615966,8.43741226196289
2.5745027257293502,-3.2740057680245256,-0.1317741491714115,-3.1279126223140032,1.170470880817679,-2.2524191751707923,127.46351113551337,-0.44959356064493405,-21.015191991792843,36.44917305922288,97.7931509761385,69.8389421430564,-151.38453578447414,46.35296374883478,4.623365674757073,8.45099425315857
2.5745205650312295,-3.2740238559637116,-0.13182429509686852,-3.127894783012124,1.170452792878493,-2.252469321096249,127.37077113120985,-0.3676401389746612,-21.27255820742968,36.49221571742022,97.79512087883208,69.83892068627529,-151.38498333357245,46.35223730744478,4.623347787645085,8.477966547012329
2.5745806725616176,-3.2739806627446004,-0.13187594161207997,-3.127834675481736,1.1704959860976039,-2.2525209676114604,127.4058592560116,-0.4172906873955694,-21.173081743306483,36.49685410752849,97.79743079091962,69.83987029834917,-151.38679391369823,46.351953391447005,4.257380450845049,8.51520848274231
2.57448366891388,-3.2740311036859593,-0.13177287018848566,-3.1279316791294733,1.170445545156245,-2.2524178961878665,127.38582930564182,-0.4504262258787712,-21.15954779314114,36.50678394398903,97.79298114177647,69.83852439631043,-151.38394690388446,46.35279253714726,4.421618793557737,8.540446996688843
2.5744894855113345,-3.274040304646234,-0.1317941109120859,-3.127925862532019,1.1704363441959709,-2.2524391369114665,127.44951791604083,-0.37668816482456813,-21.124592831103897,36.4448850706259,97.79380713111496,69.8384835579756,-151.38409444484657,46.352475632593055,4.4216119860209755,8.552387237548828
2.5745666616382206,-3.273986581482661,-0.13183914645817005,-3.127848686405133,1.1704900673595435,-2.252484172457551,127.35792848102413,-0.47689507123209357,-21.208786812556497,36.55595060168678,97.79592233036549,69.83971425523886,-151.38619139447943,46.35230178886532,4.369976439732152,8.59104061126709
2.574516858900361,-3.2740533392305498,-0.13177243789495996,-3.1278984891429924,1.1704233096116545,-2.2524174638943406,127.37180942825151,-0.5136441072418263,-21.129712898418003,36.54471076034161,97.79296007198266,69.83869547009098,-151.3840373722732,46.352467462278476,4.369938841729155,8.621594190597534
2.5745240830994636,-3.273966496363313,-0.13183148921647525,-3.12789126494389,1.170510152478892,-2.252476515215856,127.39913026134941,-0.5269067614253686,-21.09255523765393,36.551622879936204,97.79559633868476,69.8394336587206,-151.38588090266012,46.35271639616542,4.3700533841103475,8.633923768997192
2.574554538804844,-3.27402549786814,-0.13182982776300228,-3.1278608092385096,1.1704511509740645,-2.252474853762383,127.38852006980886,-0.446486413039618,-21.15075764318207,36.497979844005734,97.79540386413021,69.83926661310694,-151.38542271339475,46.35205284105441,4.3511791865105085,8.672576427459717
2.574588547960612,-3.2739664223782174,-0.13184747834139174,-3.1278268000827416,1.170510226463987,-2.2524925043407724,127.38753426936356,-0.5272113263970369,-21.114987321486243,36.561042303807056,97.79636157036563,69.84011022945262,-151.38681099555586,46.35234398228165,4.35120465810553,8.697447538375854
2.5745122230177273,-3.274034088113072,-0.13184549329873943,-3.127903125025626,1.1704425607291327,-2.25249051929812,127.36333373589001,-0.3714403927795611,-21.25376781970821,36.47572647416091,97.79591335568821,69.8387184310418,-151.3849459415847,46.35195840746186,5.078461079226498,8.721658945083618
2.5745512440592946,-3.273978700215301,-0.13184714047288346,-3.127864103984059,1.1704979486269036,-2.252492166472264,127.34022708049305,-0.3409550300380544,-21.320056896636284,36.47434722981938,97.7962338367309,69.83960460561556,-151.38619053543584,46.352352789202605,5.07846715192813,8.735000371932983
2.5745150353070305,-3.274006794622873,-0.13181290461896947,-3.127900312736323,1.1704698542193317,-2.25245793061835,127.40899590315465,-0.3462025190024079,-21.219628852802266,36.45412592994011,97.79471168718284,69.83901887367546,-151.38504144332245,46.35253400881793,4.8720312765368705,8.757325172424316
2.574492222155979,-3.274036551625686,-0.13181454636321543,-3.1279231258873743,1.1704400972165185,-2.252459572362596,127.43526756025102,-0.47226671459958075,-21.063190252429568,36.49438516863645,97.79463616567388,69.83851973414212,-151.38437476331302,46.35230369013968,4.872031925208369,8.81447982788086
2.5744914015817755,-3.2740804063031144,-0.1317471653473482,-3.127923946461578,1.1703962425390904,-2.2523921913467286,127.49422840136117,-0.36353310957857565,-21.050928561699358,36.40481239764083,97.791818987614,69.83822341549198,-151.3831176701381,46.352535030547166,4.3980824327528545,8.838844060897827
2.5746074372512107,-3.2739586194706125,-0.13182508173650503,-3.127807910792143,1.170518029371592,-2.2524701077358857,127.40272337647447,-0.5142718829077232,-21.066288027494128,36.516727449311524,97.79553498433519,69.8404072571145,-151.38693054412303,46.352575296954036,4.398092818981191,8.851723432540894
2.5745584555208496,-3.274000091383921,-0.13185074246874642,-3.127856892522504,1.1704765574582836,-2.252495768468127,127.38429411001806,-0.5004023779465342,-21.115153232800438,36.528002463889734,97.79632330056731,69.83949757000106,-151.38601863379643,46.35208408066411,5.205113488210901,8.871883869171143
2.574523688101261,-3.274004279349177,-0.13183238184219148,-3.1278916599420925,1.1704723694930277,-2.252477407841572,127.3983945653855,-0.5212342533645449,-21.083403883669632,36.537560723392474,97.7955106758349,69.83910960887651,-151.38536679740878,46.35233938480752,4.440390138193872,8.896403312683105
2.574502898897144,-3.2740261132632327,-0.13179304641569406,-3.1279124491462094,1.1704505355789716,-2.2524380724150745,127.42248204864869,-0.4010611537312809,-21.154407830216353,36.47539491335196,97.79383706167955,69.83874928192216,-151.38444017989437,46.352579691706936,4.215170407812917,8.934855937957764
2.5745464887386627,-3.2739650591458633,-0.13179774670954633,-3.127868859304691,1.1705115896963412,-2.252442772708927,127.37924593857154,-0.43529247468018306,-21.220361784777612,36.532979092382185,97.79430595484155,69.83972881536621,-151.38584671512143,46.35298433220752,2.155493304066912,8.959890365600586
2.5745200251450786,-3.274026043183153,-0.1317918827653805,-3.127895322898275,1.1704506056590513,-2.252436908764761,127.38119785232301,-0.44464475875644904,-21.177324993148105,36.51112573517988,97.7938255841409,69.83893607585206,-151.38463607940642,46.35253406494055,4.2057623118068275,9.013157367706299
2.574544799970087,-3.2739526874401768,-0.13184483503272368,-3.1278705480732665,1.1705239614020277,-2.2524898610321045,127.39551230863802,-0.5923789133267761,-21.028883878893403,36.57210524570614,97.79621212856277,69.83975731883089,-151.386447455685,46.35265147070494,4.149533533621803,9.054905414581299
2.5745178081582276,-3.2740117533253517,-0.13180647409817675,-3.127897539885126,1.1704648955168528,-2.2524515000975573,127.43018086941039,-0.3697417446400842,-21.139921282881772,36.43283578040573,97.7944460990681,69.83901483382307,-151.38494518370948,46.35253892121956,4.079110966481038,9.078596830368042
2.574544291657289,-3.2740097372278316,-0.13182389723933796,-3.1278710563860646,1.1704669116143729,-2.2524689232387187,127.38336956433672,-0.46846397758862773,-21.161260194812,36.527852123953856,97.79519786225312,69.83929625213689,-151.3854585763013,46.35229941694567,4.191687635398497,9.090315818786621
2.5745528383196348,-3.2740006630171887,-0.1317895772040468,-3.1278625097237187,1.1704759858250158,-2.2524346032034273,127.35931879670244,-0.3945104013017759,-21.218890285464273,36.46773948915026,97.7938809408323,69.83950700126339,-151.3853567499342,46.35269437064929,4.4262555262227945,9.121204853057861
2.5745363001899495,-3.274028769041954,-0.1318179182224669,-3.127879047853404,1.1704478798002507,-2.2524629442218473,127.41578386339783,-0.3733070179193762,-21.17045364076851,36.451097081286186,97.79488369782177,69.8390568188199,-151.38504420169903,46.35219849192908,4.210442021051709,9.13349962234497
2.574522787720397,-3.2739862301390015,-0.1318454531857908,-3.1278925603229566,1.170490418703203,-2.2524904791851714,127.44907095391888,-0.4720144609609716,-21.041666244568567,36.48705804815938,97.79608547383037,69.8392361366617,-151.3857286969478,46.352391417862805,4.154220052003016,9.174524784088135
2.574501638541319,-3.2740593797994606,-0.1317975118746501,-3.1279137095020344,1.1704172690427441,-2.252442537874031,127.45719046116525,-0.4253144968341345,-21.06861127632775,36.46206764044174,97.79390596527013,69.83844962531907,-151.38401183238105,46.35221490116287,4.595171257377582,9.198626518249512
2.5744864820485183,-3.2740582425054523,-0.1317855726119473,-3.127928865994835,1.1704184063367524,-2.252430598611328,127.49455455416664,-0.4427764149394921,-20.99336961332736,36.45057343656389,97.79340489225676,69.83831029893602,-151.38373055220396,46.35239358752757,4.3418322895258035,9.21304726600647
2.574527377067404,-3.273995181697478,-0.13183332003582834,-3.1278879709759493,1.1704814671447263,-2.252478346035209,127.4774547686139,-0.43735098980888215,-21.000580565265274,36.435421332157325,97.79558435487493,69.83922499737284,-151.38554488969345,46.3524068071232,4.365327283891961,9.238566637039185
2.574531017018535,-3.2739846613772956,-0.13183691506092274,-3.1278843310248186,1.1704919874649087,-2.2524819410603034,127.37111725608813,-0.5304905168190812,-21.103934077958,36.542406975481526,97.79576796252536,69.8393486081014,-151.38576737018525,46.35246238423332,4.4685539830465135,9.250815868377686
2.5746038508999054,-3.2739765648116768,-0.13182118581702057,-3.127811497143448,1.1705000840305275,-2.2524662118164014,127.38355649867503,-0.46539822909835843,-21.149266517293132,36.51307376454158,97.79531586365346,69.84022196471092,-151.3866040409777,46.35244984103791,4.853177463878836,9.274808645248413
2.5745423907939005,-3.274022769309954,-0.13184421782945208,-3.127872957249453,1.1704538795322506,-2.252489243828833,127.41946804370153,-0.4256543942900997,-21.134430525168163,36.48614023314491,97.79595957169016,69.83914094794386,-151.38545189787897,46.35197999792161,4.5670279183544995,9.301804304122925
2.574579283613109,-3.274000192260808,-0.13180964564523373,-3.1278360644302445,1.1704764565813965,-2.2524546716446143,127.36993475069538,-0.46402980836933483,-21.154081459080526,36.50449883394183,97.7947327770849,69.83977173455668,-151.38587386781077,46.352414055197364,4.548215659133977,9.313915729522705
2.5746258286608734,-3.2739812636569194,-0.13186436340603402,-3.12778951938248,1.1704953851852853,-2.2525093894054145,127.33440735513321,-0.5091638732417465,-21.209157194806473,36.57471096860551,97.79706009451647,69.84036659200521,-151.38721808728582,46.35190844271574,4.186934338991215,9.337938070297241
2.5745382722539727,-3.2740613330660935,-0.1317761039306642,-3.127877075789381,1.1704153157761112,-2.252421129930045,127.36823369277168,-0.5396846489601181,-21.105396881180646,36.55210433582535,97.79312337536285,69.83885459048014,-151.38422063472547,46.352281369876,4.407436552651417,9.365681409835815
2.5745714971823355,-3.273958162849773,-0.13185809961796022,-3.127843850861018,1.1705184859924314,-2.252503125617341,127.32891586904135,-0.5232898477224593,-21.18952393489926,36.56999072369484,97.79677534197913,69.83998293434064,-151.38682085437313,46.35237854069214,4.26679124887686,9.38053846359253
2.574479495815035,-3.2740505554893713,-0.13176955272454283,-3.1279358522283185,1.1704260933528332,-2.2524145787239234,127.43421602351167,-0.4578376794886512,-21.060630694003294,36.47353921680223,97.79277907355205,69.83831935855426,-151.38359824167003,46.35264866517866,4.57173839801074,9.394984722137451
2.574533637156931,-3.2740479619854543,-0.13178646207816458,-3.1278817108864225,1.1704286868567504,-2.252431488077545,127.42874226620779,-0.2885416364541909,-21.225573954741925,36.4079371645835,97.79356796159105,69.83890469060991,-151.38444745884536,46.35232669728619,4.1869500030895805,9.432009220123291
2.5744845457663335,-3.2740689827196983,-0.13179472526859323,-3.12793080227702,1.1704076661225065,-2.252439751267974,127.48846086620193,-0.3920511269674874,-21.043934215591378,36.42874696456501,97.79373028589396,69.8381876194994,-151.3836477928976,46.35220570641701,4.51073160934036,9.475780487060547
2.574511555960531,-3.274043555585764,-0.13180223462217594,-3.1279037920828223,1.1704330932564406,-2.2524472606215564,127.52117776526154,-0.42135058747696796,-20.967311068819015,36.42576853018323,97.79416388448695,69.83868432049228,-151.38439336874066,46.35229022486212,4.510725276117109,9.501865863800049
2.5744423913219894,-3.2741328376804777,-0.13174939166514632,-3.127972956721364,1.170343811161727,-2.2523944176645267,127.530402384616,-0.30699269274360913,-21.033244172668816,36.35550992487001,97.79164184140129,69.83724967019823,-151.3818305559106,46.35216536811714,4.323027039817631,9.516832828521729
2.5744654436905203,-3.274009321517555,-0.13181151550261752,-3.127949904352833,1.170467327324649,-2.252456541501998,127.45343402278526,-0.423930820564892,-21.06255358183528,36.45168517008963,97.79454851996447,69.83846420069773,-151.3843967073259,46.35268983526406,4.435763313390494,9.552809715270996
2.5745383333797753,-3.2740018978454737,-0.13182448995179114,-3.127877014663578,1.170474750996731,-2.2524695159511716,127.41416742689466,-0.5056564279282361,-21.066656470812084,36.51801388854463,97.79523435374729,69.83929736593629,-151.38550001557172,46.35239038950912,2.207088413155623,9.579602241516113
2.5745399107507265,-3.2739778884249,-0.13182778019275126,-3.127875437292627,1.1704987604173047,-2.2524728061921317,127.37184091961595,-0.47729409691742425,-21.150195303489408,36.51871476973737,97.79544466056849,69.83951287433695,-151.38587965463904,46.3525878496507,4.492003010674786,9.5943284034729
2.574565153725201,-3.274003401519587,-0.13183411018780072,-3.1278501943181527,1.1704732473226176,-2.252479136187181,127.33897808216342,-0.5433421405703514,-21.171623443256962,36.58747868247129,97.79566570569388,69.83956227538145,-151.38589439949413,46.352191469266444,4.262047149955148,9.620082378387451
2.5745444548846184,-3.274024648085064,-0.13179659796233045,-3.127870893158735,1.1704520007571404,-2.252441623961711,127.40576394316855,-0.37345112115467705,-21.160118666284,36.433500021946244,97.79406652207487,69.83920564998593,-151.3849944009299,46.352419429746185,4.308950793697762,9.649069547653198
2.574540272605373,-3.2740860495944566,-0.1318014350857507,-3.1278750754379803,1.170390599247748,-2.2524464610851314,127.47992343747724,-0.40418446419878495,-21.027339188332046,36.422112548722595,97.79405472758661,69.8386367039122,-151.38414879316028,46.3517855974903,4.416803727400261,9.673068523406982
2.57454441333459,-3.274020657124299,-0.13180725742379712,-3.1278709347087634,1.1704559917179056,-2.2524522834231777,127.38411926901914,-0.329987340531558,-21.242550867959256,36.4334114181455,97.7945024851084,69.83922582118805,-151.38515081213083,46.352354578985924,4.271427009966161,9.698307991027832
2.5745661998674616,-3.2740304798956967,-0.13181011361610684,-3.127849148175892,1.1704461689465078,-2.2524551396154875,127.40119409206454,-0.3180955897517156,-21.241005445457912,36.43254076456585,97.79462855433836,69.83937452958237,-151.38530573221723,46.352157239801045,5.012686243607616,9.710879802703857
2.5745872908331062,-3.2739870229872032,-0.1318532317540193,-3.1278280572102473,1.1704896258550015,-2.2524982577534,127.31652594488217,-0.4729372010792634,-21.24392504637196,36.546312535237625,97.79652193200168,69.8399158578615,-151.386568642923,46.35209052710741,5.115944908004124,9.735969305038452
2.574556916574085,-3.27403017974314,-0.13185959338481848,-3.1278584314692686,1.1704464690990644,-2.252504619384199,127.42227770220406,-0.5297704811110989,-21.02770471529235,36.52200104190891,97.79657588831978,69.83921634102741,-151.38567254019588,46.35170852370173,5.1159441677920405,9.765161275863647
2.574546489659893,-3.274027943048985,-0.1317975231289086,-3.1278688583834606,1.1704487057932194,-2.2524425491282893,127.4203164089121,-0.5575297398234803,-21.017015946681152,36.5423578638087,97.79409687955271,69.83919867840953,-151.38498259218065,46.352371312706794,5.115928369408009,9.77744197845459
2.574600358833904,-3.273968257118866,-0.13183949117988716,-3.1278149892094493,1.1705083917233383,-2.252484517179268,127.3924086886901,-0.5310496058566669,-21.0907451870366,36.549049184079486,97.7960623197603,69.8402319575257,-151.38685140294868,46.35236421265401,4.93765260603138,9.790245771408081
2.574574635279837,-3.2739829304595283,-0.13184119325595142,-3.1278407127635166,1.170493718382676,-2.252486219255332,127.37661973602728,-0.5617501873586213,-21.072050744778405,36.55682435302279,97.7960313306239,69.83982857280304,-151.38635702067327,46.352290677540665,4.937673578272875,9.814518928527832
2.5745128912951953,-3.2740022438906458,-0.13184534355708272,-3.127902456748158,1.170474404951559,-2.2524903695564635,127.3862687378793,-0.6144544686490796,-21.03352935373366,36.59568130484697,97.7960101653471,69.83899442339697,-151.38538904668766,46.35226915193033,4.9377410712852985,9.839709281921387
2.5745082497608935,-3.2740317663048852,-0.13177311816666679,-3.12790709828246,1.1704448825373195,-2.2524181441660476,127.45046091147199,-0.4203666594832685,-21.07691880291905,36.45619543020983,97.79303841109429,69.83878371342261,-151.38423600282505,46.35270086472012,4.937677669045409,9.851455211639404
2.574552730299935,-3.273991969194776,-0.1318374164028987,-3.1278626177434186,1.1704846796474284,-2.2524824424022794,127.37182617844603,-0.4902109242061344,-21.144771677745418,36.529865642906785,97.79580837556001,69.83952062161127,-151.38593330365214,46.35231287988111,4.9376924001389035,9.880258798599243
2.5745576391214913,-3.2740036112129878,-0.13179694732897412,-3.127857708921862,1.1704730376292167,-2.252441973328355,127.37328849448335,-0.4513738242034164,-21.196274974421666,36.52760742217711,97.79417394099885,69.83952491173551,-151.3854447764484,46.35257742973554,4.9235763983267065,9.893311500549316
2.5744990790168982,-3.2740057265442943,-0.13183215763503175,-3.1279162690264553,1.1704709222979102,-2.2524771836344124,127.41875413482981,-0.44209564201563095,-21.133014566293706,36.503274088589,97.79544755417628,69.83883216330646,-151.38504866714646,46.352410283589236,4.421655894732226,9.918152570724487
2.5744914238029897,-3.273974114808984,-0.13184632918085423,-3.127923924240364,1.1705025340332205,-2.252491355180235,127.45072464072436,-0.29616699780676997,-21.194938432041123,36.4099149069639,97.79609562437736,69.83899886206079,-151.3855257341881,46.35260700553332,4.3372559138601865,9.930672883987427
2.574476287428152,-3.273936326739596,-0.1318160946951057,-3.1279390606152013,1.1705403221026087,-2.2524611206944862,127.4487837466909,-0.38919550079735243,-21.201533163065395,36.52138733190006,97.79498465043733,69.83919129842212,-151.3855716768548,46.35332273263211,4.895621784193795,9.95582127571106
2.5745061298947602,-3.2740049733355976,-0.13179789759578814,-3.1279092181485932,1.170471675506607,-2.2524429235951686,127.47061666924533,-0.38831809805538636,-21.139520604589215,36.487788574250814,97.7941035346386,69.83895651737829,-151.3848153507454,46.35272827974177,4.39347824291556,9.970309257507324
2.574525642108286,-3.274001878665315,-0.13177488664740775,-3.1278897059350674,1.1704747701768894,-2.2524199126467885,127.43248294426081,-0.4193524425748725,-21.154658532756144,36.504219339229586,97.79323882137543,69.83922129736877,-151.38487194688236,46.35291743557615,4.393442228726113,10.000972509384155
2.5745289531179356,-3.2740185342267214,-0.13177277018242445,-3.127886394925418,1.1704581146154829,-2.252417796181805,127.47002208170524,-0.37606605234618595,-21.133264024660292,36.467134108384464,97.79310842283843,69.83911912253231,-151.38466319034282,46.352763999032575,4.599856157975161,10.014983415603638
2.5744940858181544,-3.274038306065977,-0.13182058947535796,-3.127921262225199,1.1704383427762277,-2.2524656154747387,127.40877166724675,-0.6145077132009491,-21.014458340668824,36.59893216994689,97.79487433308041,69.83851764777123,-151.38443108449655,46.352221271535065,4.48730600938934,10.08231520652771
2.5745890089645496,-3.273964957068457,-0.13185793759390138,-3.127826339078804,1.170511691773748,-2.252502963593282,127.34926168850548,-0.6147952091900577,-21.0962196858342,36.61660819587435,97.79678257821436,69.84011475869428,-151.38693690850332,46.35225468209491,4.247992554453358,10.094671964645386
2.5745239031481466,-3.2740186132171134,-0.13178730560585916,-3.127891444895207,1.1704580356250909,-2.25243233160524,127.45778919020938,-0.4385919655021406,-21.0522876208748,36.46309399558369,97.79367527017318,69.83904618723375,-151.38474070648525,46.35263836723919,4.247988324267606,10.11923098564148
2.57456612795421,-3.2740125894893577,-0.1318280785179144,-3.1278492200891437,1.170464059352847,-2.252473104517295,127.36633095260396,-0.4584184616372657,-21.143171150307943,36.48662731727316,97.79539885953645,69.83950266978887,-151.3857223474672,46.35215717067611,4.979872439123875,10.131510257720947
2.574602713710429,-3.273990150555852,-0.13182391010552824,-3.1278126343329244,1.1704864982863523,-2.252468936104909,127.33734960318809,-0.5209815575026648,-21.16038399644097,36.549492250268145,97.79537851395303,69.84009176537994,-151.38643024614382,46.35229417045854,4.979843378216724,10.157785654067993
2.5744833039488237,-3.273998955749564,-0.1318088129608988,-3.1279320440945297,1.1704776930926404,-2.2524538389602795,127.38593742277632,-0.4618879776563048,-21.13601025403634,36.50089209117022,97.79451018941606,69.83874764206273,-151.38472780975513,46.35275747995148,4.979992430734821,10.169934272766113
2.5745428453223886,-3.274016897545735,-0.13182505520818102,-3.127872502720965,1.1704597512964696,-2.2524700812075618,127.40757007467997,-0.479856738471344,-21.111702301984888,36.52023596830776,97.79521813570577,69.83921883418921,-151.38535412360292,46.352222935973806,4.9798986707083985,10.190066814422607
2.574569969689196,-3.2740053796044224,-0.13180806957051325,-3.1278453783541575,1.1704712692377819,-2.252453095569894,127.36743323561885,-0.5310871420661644,-21.118029534088713,36.551252983086286,97.79463489187727,69.83962942041786,-151.38567556440458,46.35241005425126,4.487229036733534,10.213973760604858
2.574541042986927,-3.274002353680747,-0.13182502802256724,-3.1278743050564266,1.1704742951614573,-2.252470054021948,127.38009034531557,-0.45535997978484244,-21.16263595103441,36.51072507076652,97.79525973739098,69.83932209665399,-151.3855315333381,46.35237155369059,4.4872815719632975,10.228816270828247
2.574522425478329,-3.274008935653063,-0.13179960989796918,-3.1278929225650245,1.170467713189142,-2.25244463589735,127.36973322419706,-0.48280556102528205,-21.147065851841834,36.52088686429446,97.79419176421223,69.83909681768742,-151.3849735565217,46.352617931965675,4.430985920900147,10.253323316574097
2.574479680743436,-3.274038107721518,-0.13179191681885177,-3.1279356672999175,1.1704385411206866,-2.2524369428182323,127.47727993615614,-0.41631473582910156,-21.027543107892416,36.433382681266835,97.7937072298603,69.83839898639035,-151.38398553215922,46.352551554440666,4.172962961494295,10.279676914215088
2.5745307796751193,-3.273957631524876,-0.13186512121839228,-3.127884568368234,1.1705190173173285,-2.2525101472177727,127.41346527509002,-0.44268848840563346,-21.141958767724397,36.50658021237194,97.79697379608345,69.83953951486859,-151.38640545992303,46.35245232715068,4.402913488699845,10.291890859603882
2.574574458735522,-3.2739565619279385,-0.13183934636986544,-3.1278408893078313,1.170520086914266,-2.252484372369246,127.37459378527548,-0.5194631205065758,-21.1217755002928,36.54640446448117,97.79604159515134,69.84005134788192,-151.38669863990197,46.35256726046018,4.210477832790421,10.331618547439575
2.5745207366216527,-3.2739887168847233,-0.13185736892325134,-3.1278946114217008,1.1704879319574815,-2.2525023949226317,127.38924367778422,-0.5212701316281648,-21.095939166971068,36.54079520785735,97.79654665264978,69.83917844566564,-151.38578417383374,46.352257702607176,4.210527638252042,10.356517791748047
2.574490073989674,-3.273985293605664,-0.1317911778337898,-3.1279252740536796,1.1704913552365406,-2.2524362038331702,127.44752380226647,-0.40198949738783785,-21.115439556920016,36.46392544965086,97.79386695033975,69.83895750396275,-151.38482746353205,46.35304045571758,4.2105391581902865,10.36855959892273
2.5745147312160768,-3.2739989684587822,-0.13179392074055646,-3.1279006168272767,1.1704776803834223,-2.2524389467399373,127.40548722102245,-0.4333635256574422,-21.121213193296253,36.47067287437773,97.79398204400691,69.83910483579552,-151.38496304038188,46.35279687606142,4.351244300361043,10.432707786560059
2.574579208302493,-3.2739745775331155,-0.13185964918287046,-3.1278361397408605,1.1705020713090888,-2.252504675182251,127.35596368166455,-0.5973608799559705,-21.100899003666395,36.60596450461528,97.79680015057657,69.83992577549624,-151.3867035015758,46.352176865938695,4.351215323934459,10.454843044281006
2.5745432563039046,-3.2739885030717453,-0.13182368982158368,-3.127872091739449,1.1704881457704595,-2.252468715820964,127.37591015638253,-0.5849354882766493,-21.08233498416799,36.592070436548504,97.79525515195509,69.83946444285714,-151.38573519635494,46.35251266235235,4.4826010858084615,10.468703269958496
2.5745320674408685,-3.2739999472142673,-0.13182765165525995,-3.127883280602485,1.1704767016279372,-2.2524726776546404,127.3790356562353,-0.45330242283032285,-21.15102164394162,36.49777778023673,97.79535350706627,69.83924234466916,-151.38548166343395,46.35239971441079,4.604592372058829,10.490702152252197
2.574571278418224,-3.2740123709880926,-0.13184813298856307,-3.1278440696251293,1.1704642778541121,-2.2524931589879436,127.36925215952714,-0.4449546208599945,-21.183072150659925,36.50717447919338,97.79620641082325,69.83953553454728,-151.38597960323102,46.351946234638,4.590459854505345,10.512612581253052
2.5745559680572634,-3.2739907497361624,-0.13183375745009085,-3.12785937998609,1.1704858991060418,-2.2524787834494715,127.36615518717305,-0.5015740073422909,-21.1431945860506,36.537011881235586,97.79567346730656,69.8395703186527,-151.38595390142945,46.35234961779756,4.590496887874962,10.536329507827759
2.574559302468012,-3.273967192419904,-0.1318730564519679,-3.1278560455753417,1.1705094564223004,-2.2525180824513487,127.35967306444499,-0.56489511643551,-21.125354795117094,36.59169921449328,97.79731602133374,69.83975688880432,-151.38669372733727,46.35218529508145,4.590538323294382,10.549854278564453
2.574575496707504,-3.2739934971235147,-0.1318428465069323,-3.1278398513358496,1.1704831517186896,-2.252487872506313,127.35205222737619,-0.5854616606372491,-21.07248863963111,36.564753206137425,97.79606506941245,69.83974671516847,-151.38623839513915,46.35216826816359,4.449718704595803,10.572684526443481
2.5745561471354432,-3.2740034600425387,-0.1318235890795748,-3.1278592009079103,1.1704731887996656,-2.2524686150789552,127.34802596694915,-0.48266756432273583,-21.17489218097642,36.52614464708504,97.79522950968595,69.83947748630413,-151.38568433577584,46.35232391160075,4.449724802381849,10.596087217330933
2.5745053980723593,-3.273998406658608,-0.13180765907438527,-3.127909949970994,1.1704782421835969,-2.252452685073766,127.45963825437146,-0.3107438372359531,-21.148313583046328,36.39497074385891,97.79451064162753,69.83899206570743,-151.38499015198602,46.352699716106116,4.435717317765699,10.630458354949951
2.574481770554235,-3.2740534225096694,-0.13177965522412505,-3.1279335774891184,1.1704232263325351,-2.2524246812235056,127.5073502782104,-0.3240211955874872,-21.07982042593307,36.39388840372596,97.79317574643555,69.83830735993782,-151.38368318478823,46.352514358451344,4.656189145478271,10.668144226074219
2.5745900248221236,-3.2740102046686923,-0.13182997778655664,-3.12782532322123,1.170466444173512,-2.2524750037859373,127.3711309242806,-0.43782789741703365,-21.23078014576343,36.53951395741579,97.79553005781543,69.83977828456956,-151.38606082489932,46.35208149085089,4.66080286663694,10.721758604049683
2.5745469007163826,-3.274009169984767,-0.13179293480176046,-3.127868447326971,1.1704674788574372,-2.252437960801141,127.38250258982144,-0.3941873695908648,-21.217010560585575,36.48548731303282,97.79397524311754,69.83936707623515,-151.38520087858393,46.35259837010798,4.369955303779881,10.733962774276733
2.5745163030443328,-3.2740315395020207,-0.13181075145380367,-3.1278990449990207,1.1704451093401838,-2.2524557774531844,127.410231114248,-0.4557658917986146,-21.140827960847542,36.51864455730953,97.79454994683367,69.83882646838806,-151.38469686539125,46.35230867274157,4.567037199237986,10.772904634475708
2.5744451819347653,-3.2740356003045905,-0.13180687986998238,-3.127970166108588,1.1704410485376138,-2.252451905869363,127.50568938709708,-0.3624175568538863,-21.048891123023594,36.41233677782349,97.79423992018774,69.83802960733856,-151.38374822447892,46.35254621665772,4.257473807229572,10.810770034790039
2.5745229669345586,-3.274000394907622,-0.13184218806938824,-3.127892381108795,1.1704762539345825,-2.252487214068769,127.40412148207292,-0.5449385823364277,-21.0536738084279,36.54550277976464,97.79591104725733,69.83912258993095,-151.38550538608362,46.352284108150506,4.290264026532778,10.838635444641113
2.5745122410601113,-3.2740292332886574,-0.13181379195806373,-3.127903106983242,1.1704474155535471,-2.2524588179574443,127.39800345693665,-0.3743835231518819,-21.219514488311354,36.4785380775009,97.79466985389365,69.83879837436481,-151.3847087491425,46.35231523839384,4.9705389227137875,10.853269338607788
2.574543631876217,-3.2740239014602293,-0.13179458377833284,-3.1278717161671366,1.1704527473819752,-2.2524396097777135,127.40949484870845,-0.465187235356335,-21.128127224146102,36.51765552515913,97.79398724614525,69.83920553275202,-151.3849754188974,46.352449163699774,4.285493201390355,10.888786792755127
2.574538162454102,-3.2740271827908405,-0.13181875166551413,-3.1278771855892513,1.170449466051364,-2.252463777664895,127.4068741832758,-0.4885061993923265,-21.096679849917884,36.517339548441896,97.79492560777568,69.83908927060648,-151.38509634672928,46.352199604396645,4.928281766049524,10.913899421691895
2.574545273367803,-3.2739970114458004,-0.1317816907269051,-3.1278700746755503,1.170479637396404,-2.2524267167262857,127.39263342247149,-0.3972821361309559,-21.199978456680732,36.482779176616155,97.79356410274634,69.83946583236599,-151.38524014951122,46.35283254003714,4.49195063907869,10.952425241470337
2.574580258555247,-3.2739953731680296,-0.1318424767013536,-3.1278350894881064,1.170481275674175,-2.2524875027007343,127.30042359481163,-0.5966330870749667,-21.18744151672546,36.63113180563121,97.79605400386404,69.83978271897776,-151.3862664381482,46.352137488670216,4.491935688702558,10.977567434310913
2.574622744241814,-3.273957288690977,-0.13187410528930893,-3.1277926038015393,1.1705193601512272,-2.2525191312886896,127.28353195051875,-0.5977071145223756,-21.222245357780032,36.64707941909335,97.79751716873865,69.84052361505552,-151.3876030096997,46.3520582943637,4.660837474749386,10.989424228668213
2.5745145035551484,-3.2739664801130806,-0.1318210983819319,-3.127900844488205,1.170510168729124,-2.2524661243813124,127.37969309412415,-0.3793664138940314,-21.247945537397563,36.49153884775235,97.79516439722155,69.83934315739958,-151.38566621827508,46.35285022621468,4.323143361626607,11.01416826248169
2.5745588692729173,-3.274007944978348,-0.13183960423177207,-3.127856478770436,1.1704687038638564,-2.2524846302311525,127.37501994980504,-0.4804496580604927,-21.138054971668886,36.515814830716806,97.79585676431245,69.83944942413163,-151.38580916848153,46.3521145627226,4.576402141602041,11.052140712738037
2.5745248009133377,-3.2739821798349844,-0.13182395220858223,-3.127890547130016,1.17049446900722,-2.252468978207963,127.41857080787314,-0.5030813314234469,-21.090417605648465,36.53823611857559,97.79524850887825,69.83931833903539,-151.38560229466694,46.35263410810747,4.576469115783472,11.093948602676392
2.574518016888782,-3.274084741361932,-0.1317869629996759,-3.1278973311545717,1.1703919074802727,-2.2524319889990565,127.43857165264936,-0.38178697372495485,-21.127163782369358,36.44451144085924,97.79343930692193,69.83842532575834,-151.38376013927683,46.352014584155164,4.459054369690387,11.130435943603516
2.574552801033599,-3.2739928484586276,-0.13181500298473356,-3.1278625470097543,1.1704838003835771,-2.2524600289841143,127.40181632576908,-0.4329262974898495,-21.15975186543328,36.49951418339808,97.7949155509903,69.8395414005424,-151.3857072046752,46.35252279259462,4.886070492223847,11.197009086608887
2.5744879732078547,-3.2740484933425806,-0.13182223664647244,-3.1279273748354988,1.1704281554996239,-2.252467262645853,127.44293502737102,-0.333826815211419,-21.166808544820526,36.4252798469617,97.79489499168626,69.83836375495808,-151.38423368080475,46.352126115494755,2.300942647446358,11.232538938522339
2.574548789895685,-3.2740038241478824,-0.1318138348288528,-3.1278665581476686,1.1704728246943221,-2.2524588608282334,127.36315101705189,-0.4263117060014472,-21.22043649857722,36.5103922284814,97.79482612526297,69.83940697449164,-151.38549728386909,46.35244032498058,4.280825695415608,11.257075071334839
2.5745523629720437,-3.2740223228577507,-0.1318024039114196,-3.1278629850713098,1.1704543259844538,-2.2524474299108004,127.39339426604731,-0.46823879379821837,-21.12273025775409,36.50335275691493,97.79432044605541,69.83930347976894,-151.38517710917097,46.35235888265208,4.280794774277872,11.269112348556519
2.5745286105133225,-3.274036464072456,-0.13184835313587487,-3.127886737530031,1.1704401847697483,-2.2524933791352555,127.38775909754304,-0.5368137096597461,-21.070168193494922,36.53702209325263,97.79605240174439,69.83887169768323,-151.38513799761554,46.351852067864726,4.379364343942195,11.293587923049927
2.5744926926874743,-3.2740653055307742,-0.13181252107666278,-3.127922655355879,1.1704113433114305,-2.2524575470760433,127.4748370046653,-0.3848741586275041,-21.0526267953812,36.41652075945047,97.79446513925737,69.8382847590425,-151.38396686892867,46.35204056714801,4.379364481457553,11.336172342300415
2.5745342855025903,-3.2740144419316186,-0.13181525809479916,-3.127881062540763,1.170462206910586,-2.25246028409418,127.45086673082076,-0.40724899393811953,-21.13608310461982,36.4911849903012,97.79481960705387,69.8391591836605,-151.38519083961938,46.35237140238684,4.3793626739071145,11.34821629524231
2.574602854625403,-3.273950713672736,-0.1318602249317609,-3.1278124934179505,1.1705259351694686,-2.2525052509311414,127.31740215942428,-0.5800002022630856,-21.18253341738143,36.62093095839451,97.79694671376824,69.84038148200584,-151.3873207044277,46.35232507193912,4.379359376169547,11.374412775039673
2.5745334835066083,-3.2740417110446347,-0.1318332398790692,-3.127881864536745,1.1704349377975698,-2.25247826587845,127.36711152875662,-0.5641664150205687,-21.125441725787883,36.59798743769023,97.79544530364137,69.83889851496053,-151.38497981027126,46.35193182764242,4.721842709234363,11.389444351196289
2.5745541844828583,-3.274008565872827,-0.13179816455423984,-3.127861163560495,1.1704680829693777,-2.2524431905536204,127.41507903844631,-0.48098112789818764,-21.099564903872608,36.5166526988379,97.79419954771217,69.83944435792203,-151.38534695703814,46.352528710909326,4.7218310147539375,11.413409948348999
2.5745197050205744,-3.273977935348362,-0.13186184594939346,-3.127895643022779,1.170498713493843,-2.252506871948774,127.40095847403131,-0.4684108699114414,-21.143655166383084,36.528263027798985,97.79675672267925,69.8392527751002,-151.3859624711408,46.352322955937204,4.72194564885542,11.438495635986328
2.574567776651524,-3.274057603119797,-0.13181287547595058,-3.1278475713918295,1.1704190457224073,-2.252457901475331,127.40979043070035,-0.434411308277023,-21.126904658842168,36.481800319421566,97.79465506604875,69.83915938364558,-151.38497939547864,46.3518596222504,4.721767047959965,11.45027494430542
2.5745448732719836,-3.2740115610155116,-0.13180857438857824,-3.12787047477137,1.170465087826693,-2.252453600387959,127.39466268709977,-0.46860880743267175,-21.130916206954353,36.51168495288568,97.79458467523504,69.83930589653039,-151.3852936599671,46.35242916513534,5.026810807780136,11.477517366409302
2.574505423881098,-3.2740304771696276,-0.13182049747564603,-3.1279099241622554,1.170446171672577,-2.252465523475027,127.46718207991532,-0.44885933656539445,-21.041010638540094,36.474932586058706,97.79491845800509,69.83870612437917,-151.38467395569296,46.352260581237324,4.374696344119852,11.492136478424072
2.574487413432446,-3.27404881941588,-0.1317859008654424,-3.1279279346109075,1.1704278294263244,-2.252430926864823,127.50648831717577,-0.45219289470511337,-20.98111011005338,36.461163022143005,97.79344980041772,69.83839942741217,-151.38387407312723,46.35247943571767,4.374683464832294,11.507861852645874
2.574562950146662,-3.273987349930091,-0.13183927681277618,-3.1278523978966914,1.1704892989121136,-2.2524843028121566,127.40577543635466,-0.4513662692496085,-21.12622377410008,36.4969310350854,97.79591758112056,69.83966756959877,-151.38613744567095,46.35230549686691,4.412206694104277,11.538129568099976
2.5745316450117537,-3.2740043143610817,-0.13182711135484781,-3.1278837030316,1.1704723344811228,-2.2524721373542285,127.41785265231616,-0.49573450160520544,-21.083990764685844,36.524154360863704,97.79531728615612,69.8392016128402,-151.3854115373491,46.35236368687392,4.341849271242317,11.549837589263916
2.5745146544471145,-3.2740235273988416,-0.1318138958332069,-3.127900693596239,1.170453121443363,-2.2524589218325874,127.43366773605034,-0.37950327657586075,-21.1285026292746,36.4381778295508,97.79469701034215,69.83887241365105,-151.38481700051042,46.35236191913241,4.506057061817367,11.593953847885132
2.5744640739294864,-3.274062887180344,-0.13178119039242692,-3.127951274113867,1.1704137616618604,-2.2524262163918074,127.5290197582109,-0.08142416787786588,-21.23206924697432,36.254634352501135,97.79317092455467,69.83803471567286,-151.38335521333443,46.35246636965242,4.881408911203335,11.633334159851074
2.5745750124668954,-3.2739636634376117,-0.13181141163298854,-3.127840335576458,1.1705129854045926,-2.252456437632369,127.4060518088229,-0.4121938150663422,-21.221179220897234,36.52898920182909,97.79491061687403,69.84003161128948,-151.38634012742128,46.352768565069155,4.520111301424909,11.67297625541687
2.5745853432991774,-3.2740155829228734,-0.13182210408845324,-3.127830004744176,1.170461065919331,-2.2524671300878336,127.38543757755193,-0.5782589891732837,-21.08986968554972,36.59882053767374,97.79519078630038,69.8396920471447,-151.38585527156576,46.35212148658823,4.52004665982939,11.688348293304443
2.5745009254595765,-3.274067657246338,-0.13175601374687582,-3.127914422583777,1.1704089915958669,-2.2524010397462564,127.49922570372566,-0.4228039827820313,-20.99761264753233,36.43385184305567,97.7922301294284,69.83842288372287,-151.38349188229222,46.35254133392996,4.520073454726616,11.71416187286377
2.5745440740440495,-3.273977502749659,-0.13181068675649157,-3.127871273999304,1.1704991460925451,-2.252455712755872,127.41153342761862,-0.34955505666486786,-21.190638388808882,36.4350398731841,97.79477539610377,69.83958196621543,-151.38577115236762,46.35274443387738,4.346543733647018,11.72684931755066
2.5744576517976174,-3.2740702685022214,-0.13179797941593038,-3.127957696245736,1.1704063803399833,-2.252443005415311,127.46784918554516,-0.2633687376450759,-21.173989688714006,36.36939854295291,97.79380123016558,69.8378826251524,-151.3833377375699,46.35225192676623,4.294948174136045,11.754153728485107
2.574466471907536,-3.274056192031662,-0.13176599499735075,-3.1279488761358176,1.1704204568105425,-2.2524110209967314,127.53924330805827,-0.25110058995701406,-21.068243427824612,36.32504570661919,97.79259360596967,69.83813564900137,-151.38333013862777,46.35267209759276,4.36061894879871,11.76932954788208
2.5745310055171116,-3.2740604405249893,-0.13179911282702517,-3.127884342526242,1.1704162083172152,-2.2524441388264056,127.5128124600224,-0.2971525559032127,-21.0775281226205,36.3653258678772,97.7940253501937,69.83875556519386,-151.384366041663,46.35209000944239,4.229172753883755,11.795095205307007
2.574510035710269,-3.274008310553006,-0.13184915902658081,-3.1279053123330844,1.170468338289199,-2.252494185025961,127.43252294326355,-0.455425063985212,-21.072375439990783,36.48013623948678,97.79613661859085,69.83890777235602,-151.38530810781154,46.35218217956245,4.35126993241981,11.807674169540405
2.5745180100026936,-3.2740247850969277,-0.13181660042492893,-3.12789733804066,1.1704518637452765,-2.2524616264243096,127.41725610358178,-0.24180980539115018,-21.283724405276114,36.392329794621645,97.79480718071822,69.83889469932116,-151.38486607340164,46.35231191944244,4.351223907895278,11.835967779159546
2.5744946340770816,-3.273987303684268,-0.13184903474367438,-3.127920713966272,1.1704893451579368,-2.252494060743055,127.4408293820012,-0.31590716639275307,-21.19094444902473,36.42187258408105,97.79616753237214,69.83891894103367,-151.38540952280138,46.35244076575809,4.351313949782259,11.850806713104248
2.574545594587607,-3.273995305737108,-0.1318302604818192,-3.1278697534557467,1.1704813431050964,-2.2524752864811997,127.38770347785812,-0.49470542699187514,-21.111820537175884,36.520770898588786,97.79549916244528,69.8394242489597,-151.38573308620036,46.35237410886779,5.045605616686868,11.890248537063599
2.5745310065088267,-3.2740287630445843,-0.13182448090658147,-3.1278843415345268,1.1704478857976204,-2.252469506905962,127.38626969984709,-0.5576412670419297,-21.06342276206848,36.5537736980331,97.79513368097182,69.83899172350118,-151.38504350392458,46.35215232636675,4.548260048966419,11.918899059295654
2.5745103432224608,-3.274024489480179,-0.13173401437678806,-3.1279050048208927,1.1704521593620254,-2.2523790403761685,127.41928884658395,-0.3536808173981296,-21.195943874213842,36.45000510090682,97.79151279039273,69.83891551180459,-151.38398599347144,46.353146654287436,4.548245735573928,11.936182260513306
2.574484113651754,-3.2740630813319256,-0.13181447748906158,-3.1279312343915997,1.170413567510279,-2.252459503488442,127.48440750405129,-0.3196818037407539,-21.094394434384093,36.38296730250937,97.79453262525155,69.83820856390396,-151.38391287791174,46.352072121576754,4.5482832198105285,11.962973356246948
2.5745652843352747,-3.274007148718721,-0.13183621484806676,-3.127850063708079,1.1704695001234833,-2.2524812408474473,127.3412841479207,-0.581942542168678,-21.11660664214196,36.588870827831165,97.79573762207565,69.83952950149465,-151.38586478535584,46.35213382933472,4.496632191441784,12.011945962905884
2.574510083602425,-3.273996553739094,-0.1317524398555491,-3.1279052644409284,1.1704800951031107,-2.2523974658549295,127.49001100352494,-0.4171879289986299,-21.085455096561642,36.49128833158535,97.79233293737681,69.83912580855008,-151.38454247738466,46.35324099800669,4.4966763671150884,12.037633895874023
2.5745362912936933,-3.274012708140849,-0.1317456897298469,-3.12787905674966,1.1704639407013557,-2.2523907157292276,127.48553055452255,-0.3659379950749514,-21.101267822426,36.440524720123015,97.79206624227027,69.83928056489563,-151.38457170153023,46.353060590431205,4.496618878545774,12.049487829208374
2.5745199300321717,-3.2740393024523398,-0.1317738428988901,-3.1278954180111818,1.170437346389865,-2.2524188688982707,127.48899133128623,-0.3558240080175416,-21.08705693693646,36.42117904675817,97.7930667405713,69.83884528204896,-151.38428021018262,46.35258073315295,2.192971819650081,12.092373371124268
2.5745375949754727,-3.274034082060038,-0.13180746236407645,-3.1278777530678807,1.170442566782166,-2.252452488363457,127.49257679708197,-0.3421371193978767,-21.083165235016033,36.40552328233236,97.79445414023397,69.83903876978312,-151.3848867027381,46.352244200924964,4.491935043456605,12.119434118270874
2.5745657298416758,-3.274023590644439,-0.13184741307791328,-3.1278496182016777,1.170453058197766,-2.252492439077294,127.39356359081476,-0.5468582111011732,-21.10347239477556,36.581091518765085,97.7961309041804,69.83938191584252,-151.38575213603272,46.35186218290544,4.491928181445531,12.131199598312378
2.57456509488889,-3.2739715176871473,-0.13186094355089192,-3.1278502531544636,1.1705051311550572,-2.2525059695502727,127.3611194717641,-0.5601950442498675,-21.128484054027524,36.58972275302078,97.79683284700427,69.83979773006762,-151.38658801181649,46.35224169527789,4.266787302786481,12.156098127365112
2.5744885820769423,-3.2740261631316816,-0.1317998300460236,-3.127926765966411,1.1704504857105231,-2.252444856045404,127.39180803073555,-0.4435642402369463,-21.180752914560607,36.522040500853365,97.79407745577218,69.83858609311022,-151.38433225323155,46.35256120654503,4.581151154736121,12.170562028884888
2.5745574123694386,-3.2740171550855353,-0.1318509967881023,-3.127857935673915,1.170459493756669,-2.252496022787483,127.39579227392329,-0.5526011466998473,-21.05544258355262,36.54940456454544,97.79627695493592,69.8393420744749,-151.38577461874917,46.35191817639635,4.581091871376281,12.188404321670532
2.5745098527382924,-3.274053070064161,-0.13178541222640275,-3.127905495305061,1.1704235787780435,-2.252430438225783,127.45792238538922,-0.3742351806770112,-21.111716007709173,36.438172485551114,97.79346207990369,69.83860627535384,-151.38408115377143,46.35236706034872,4.506016936002448,12.229821920394897
2.5745373391508006,-3.2740377428017657,-0.13175646282679532,-3.127878008892553,1.1704389060404388,-2.252401488826176,127.41880037193846,-0.3994248411944602,-21.186926551765282,36.49655394719347,97.7924165382327,69.83906752874012,-151.38434444236066,46.35270699693368,4.365227043393068,12.256059646606445
2.5745556171998185,-3.2740194269098764,-0.13177439544485958,-3.127859730843535,1.1704572219323282,-2.25241942144424,127.44612273161145,-0.3883825589941812,-21.13073719855967,36.459408775475104,97.79322386008285,69.83939728672883,-151.38498741560375,46.35264961595606,4.365230730545994,12.268346071243286
2.5746093459077546,-3.2739686339907297,-0.13186343276047863,-3.127806002135599,1.1705080148514748,-2.252508458759859,127.37720088246859,-0.5151831940712622,-21.1446608094798,36.563434229870346,97.79703013030192,69.84029643031438,-151.387183929644,46.35209658996715,4.4497091271790215,12.292180061340332
2.5745584941186954,-3.2740017449154326,-0.13185430821254124,-3.127856853924658,1.1704749039267717,-2.252499334211922,127.34897712747264,-0.5487781466905646,-21.15036204316438,36.585014848335156,97.7964597308994,69.83947967382672,-151.3860306199942,46.352032972598224,4.337136870325326,12.306988000869751
2.5744999481194357,-3.274031340393235,-0.13180185071956868,-3.1279153999239178,1.1704453084489697,-2.2524468767189494,127.39258787254438,-0.551365539761427,-21.046404348273768,36.53703140586109,97.79416413283376,69.83866258243938,-151.38441743869313,46.352452562180154,4.33715897640236,12.337226629257202
2.574528614673019,-3.274010633000053,-0.13184568446932518,-3.1278867333703344,1.1704660158421518,-2.252490710468706,127.4213874468176,-0.5125562149338647,-21.081836841879817,36.545804532860856,97.7960286877708,69.83909288811677,-151.38546653622845,46.3521308062145,4.337164416195875,12.363422155380249
2.5744629045222958,-3.2740309796796083,-0.13182830558975853,-3.1279524435210577,1.1704456691625964,-2.252473331589139,127.46945475303642,-0.46636723610358616,-21.023446610077823,36.48324173301257,97.79514124506242,69.83823357593971,-151.38423026570607,46.35232263706196,4.811093339934597,12.375823497772217
2.5745809782625937,-3.2739973414362336,-0.13181258501893794,-3.12783436978076,1.170479307405971,-2.2524576110183188,127.43994746860065,-0.47079330543755266,-21.062565080037903,36.494430621532814,97.79486201196204,69.83981046784696,-151.38596152207444,46.35240755001912,4.398081444267111,12.387909412384033
2.574518741834418,-3.274011509639344,-0.13178743027465933,-3.1278966062089353,1.1704651392028604,-2.25243245627404,127.43077721179704,-0.44823719088338015,-21.097109316991848,36.489250228079115,97.79369243286463,69.83905026575307,-151.38477716309117,46.352724025574204,4.360605465524042,12.412745714187622
2.5745229554387707,-3.274003684958183,-0.13184307686041627,-3.1278923926045827,1.1704729638840214,-2.2524881028597967,127.41037233973461,-0.4644946483718,-21.114566638657294,36.5072411736609,97.79593584457098,69.83909362684702,-151.38546867146715,46.35224328584916,4.994025409158973,12.477001905441284
2.5744969783176685,-3.274053079758497,-0.1318199741163497,-3.127918369725685,1.1704235690837073,-2.2524650001157305,127.47331473849442,-0.5116312398791933,-20.99066720324601,36.5122791833165,97.7948086857834,69.83842499730198,-151.38425748502527,46.352073003969124,4.993996281087015,12.492385864257812
2.574522426847402,-3.274019202276561,-0.13182819564214662,-3.1278929211959516,1.1704574465656439,-2.252473221641527,127.4167930399594,-0.19216660110484757,-21.328826095140148,36.37133487241945,97.79529435935885,69.83897525273497,-151.38510692774423,46.352238496631784,4.50605842315097,12.528462886810303
2.5745136201496814,-3.2740236853802216,-0.13181999358908053,-3.127901727893672,1.1704529634619831,-2.252465019588461,127.40485159331018,-0.358732480585439,-21.192143769436637,36.443061585818235,97.79493659266265,69.83885245945419,-151.38486085457075,46.352304343816776,4.416917797575838,12.553258657455444
2.5745306166267214,-3.2739609038093613,-0.13183328937824745,-3.127884731416632,1.1705157450328432,-2.252478315377628,127.39870747021152,-0.44761850678056037,-21.163551461585033,36.517289388899904,97.79569881790592,69.83954911967511,-151.38605344763167,46.35273153676503,4.388818123039629,12.591322660446167
2.5744746774401706,-3.274028050418676,-0.13180580003166667,-3.127940670603183,1.1704485984235284,-2.252450826031047,127.52415592248917,-0.40211762048880983,-20.99191323635798,36.42630864959107,97.79428051943202,69.83841284724569,-151.38419629986655,46.35253129796209,4.416959910032223,12.632451295852661
2.574546956889413,-3.2740063394276047,-0.1318188429437324,-3.1278683911539407,1.1704703094145998,-2.252463868943113,127.41659762231168,-0.4404394024884604,-21.121674172456895,36.48932299853523,97.79501331909275,69.839359853262,-151.38548876456034,46.35237301216173,4.332437702194488,12.67827033996582
2.574515907030838,-3.2739900800374206,-0.13185249422885637,-3.1278994410125156,1.1704865688047839,-2.252497520228237,127.37973720076874,-0.4777993996868214,-21.148764828078182,36.52587513244969,97.79633897526217,69.8391208071727,-151.38566063142085,46.35230820619009,4.332516245867213,12.690412998199463
2.5744889736719747,-3.274006219447739,-0.13181202377770673,-3.1279263743713788,1.1704704293944652,-2.2524570497770875,127.4837947618358,-0.38439645059361,-21.0456898137181,36.4162776822505,97.79462600793562,69.83874361705082,-151.384727257988,46.352635990623924,4.3747409177222085,12.72932744026184
2.574454782800366,-3.274068352051887,-0.13175018113151704,-3.1279605652429874,1.1704082967903173,-2.2523952071308977,127.57179357361719,-0.35164898713051357,-21.00999007547611,36.42156847885265,97.79190334244426,69.83792630855017,-151.38287115748986,46.35274682937011,4.285545820621526,12.75587773323059
2.5745231177648966,-3.274028687835451,-0.13176040765046682,-3.127892230278457,1.170447961006753,-2.2524054336498476,127.53665643416488,-0.3225692639467691,-21.07543307650295,36.41158174274673,97.79257337093121,69.8389856432222,-151.38433524789474,46.352804970544206,2.253964667538849,12.76731538772583
2.5745400698471075,-3.274045216332274,-0.13177291481759734,-3.127875278196246,1.1704314325099305,-2.252417940816978,127.4447942734009,-0.37393965506174537,-21.173127202209542,36.4773937910393,97.79305164333535,69.83901382657379,-151.3844326086444,46.35246411637933,2.2539298404757906,12.792110443115234
2.574466662300531,-3.274039535145108,-0.13178247464964615,-3.1279486857428225,1.1704371136970966,-2.2524275006490266,127.43844578144221,-0.42784881009425335,-21.110128076453954,36.48349488614453,97.79330146831062,69.83825803861068,-151.383718768554,46.35267357833375,4.416946420521003,12.827484369277954
2.5744938483450723,-3.2740114780388074,-0.13178527340948662,-3.127921499698281,1.1704651708033968,-2.2524302994088674,127.42971673767451,-0.47949246150829583,-21.08372321558825,36.514041138949665,97.79355670829081,69.83878458917171,-151.38445734764161,46.35282920870899,4.449782823822785,12.872038125991821
2.574565275999081,-3.2739718931402897,-0.13181792160362937,-3.1278500720442723,1.1705047557019148,-2.25246294760301,127.38937746952989,-0.4481493550820957,-21.16585773258074,36.51161933520362,97.79512333885761,69.83984917918986,-151.38617256243555,46.35265730414412,4.477893616340642,12.88661813735962
2.5745428969559447,-3.2740108644544623,-0.13182329279822208,-3.1278724510874087,1.1704657843877422,-2.252468318797603,127.39362673581685,-0.56084939126533,-21.043260836595532,36.54623788712935,97.79516745626913,69.83927243595379,-151.38542054519945,46.35229898512862,4.435659872650512,12.910510778427124
2.574483717690317,-3.274040905793555,-0.1317974974578725,-3.1279316303530367,1.1704357430486494,-2.252442523457253,127.47206261413099,-0.30198572079941216,-21.149835107592782,36.397200323230706,97.79392808669668,69.83841211298534,-151.38404926755592,46.3524561215544,4.529531800674409,12.935105800628662
2.5744696479175917,-3.2741069608353977,-0.13175017690832996,-3.127945700125762,1.1703696880068066,-2.2523952029077106,127.51891756030511,-0.3163222160433533,-21.067178687032573,36.384472777835555,97.7918102651723,69.83776104902005,-151.3825207784164,46.35231909335466,4.412161052859076,12.949565887451172
2.5745175769562203,-3.2741061833944407,-0.13176137974812124,-3.127897771087133,1.1703704654477638,-2.252406405747502,127.50342652146011,-0.3830468914416821,-21.052772391707755,36.43780811905061,97.79235418603295,69.83827102130746,-151.38321562288135,46.35205597491365,4.412100972000482,12.974107265472412
2.5744684616434297,-3.274035347650421,-0.1318164510595479,-3.127946886399924,1.1704413011917836,-2.2524614770589286,127.53741146737133,-0.3021533974903165,-21.059429081000033,36.37698049055693,97.79466775257153,69.83827119875883,-151.38412360106028,46.35237688816537,4.365357302436939,12.986289978027344
2.5745145607977675,-3.2739787299878556,-0.1318487144078497,-3.127900787245586,1.1704979188543487,-2.2524937404072305,127.35459157494513,-0.5310465994162225,-21.168576961751864,36.58371988293956,97.79622229180983,69.83920664595813,-151.3857637709777,46.35246066643873,4.337219945204538,13.029527187347412
2.574614154047807,-3.2739889306688172,-0.13182176624210146,-3.1278011939955466,1.1704877181733873,-2.252466792241482,127.33107496615995,-0.5338557438755271,-21.16954384275047,36.56689995402154,97.79532031157487,69.84022810820542,-151.38656408925618,46.35228850285002,4.796848978771237,13.069098234176636
2.5747407759893277,-3.2739830168077857,-0.13176042706710003,-3.1276745720540258,1.1704936320344188,-2.2524054530664808,127.42038290629029,-0.604914457846388,-20.98888247333463,36.571067073584835,97.79315810175203,69.8417191375655,-151.38758089248145,46.352518619175434,4.796646434007608,13.094844818115234
2.574958299520739,-3.2740028141117365,-0.13168910594831382,-3.1274570485226145,1.170473834730468,-2.2523341319476944,127.242799621299,-0.7262082579595958,-21.17570260749433,36.718848191600856,97.7907004461937,69.84398606335657,-151.3892436449082,46.35228846847328,4.796284201953151,13.109825372695923
2.574914826329967,-3.2740575474236344,-0.13152445044442052,-3.1275005217133867,1.17041910141857,-2.252169476443801,127.12097155718904,-0.6777200502349038,-21.3888901142655,36.73528755368449,97.78389849614146,69.84325660759576,-151.38639127304614,46.353506616995,4.524076659939804,13.138868808746338
2.57476672240009,-3.2739909016536455,-0.13143223406784882,-3.1276486256432636,1.1704857471885592,-2.2520772600672294,127.15035709423405,-0.34250811935414127,-21.484853630501313,36.44252320000268,97.78014942292626,69.84233358939674,-151.3846381072112,46.35555754228682,4.524306243627593,13.150429010391235
2.574448885899451,-3.2741148550565065,-0.130475139372186,-3.1279664621439025,1.170361793785698,-2.2511201653715665,127.19860985842688,-0.3256503071403999,-20.775202402162794,35.83655711236908,97.74110500823535,69.839022711917,-151.36993139100656,46.364757135576596,4.52411106720199,13.17476224899292
2.5743442333433957,-3.274164250608828,-0.12959165737833883,-3.128071114699958,1.1703123982333763,-2.2502366833777194,127.23458480895431,-0.1289069951621424,-20.543577416975364,35.40811968232632,97.70565022361302,69.8385438439153,-151.35951309058623,46.3732507937589,5.002297648925254,13.186575412750244
2.573725089822674,-3.2743498854651514,-0.1262180073651909,-3.1286902582206797,1.1701267633770531,-2.2468630333645714,126.94411382244125,0.21663281462298511,-20.79676139977932,34.87933268288638,97.56985463779095,69.83430577293768,-151.31707665148244,46.406457519109466,2.1438965910806855,13.21694540977478
2.5734966471157383,-3.2745035323202423,-0.12369099178848542,-3.128918700927615,1.169973116521962,-2.244336017787866,126.70640353746029,0.46166510789815746,-21.262897432134597,34.728783368212945,97.46856192596749,69.83347970980984,-151.28787094941453,46.43040608258674,4.44168007248044,13.231933355331421
2.572986790529288,-3.2746499602970665,-0.12074609412881673,-3.1294285575140655,1.169826688545138,-2.2413911201281973,126.49934908818788,0.6044151444129304,-21.64457537122773,34.64032306691748,97.35016725890023,69.83008881733167,-151.2512908307061,46.459457656872324,4.548589335369761,13.247203350067139
2.569618110407221,-3.2756346429070464,-0.10366100694826802,-3.1327972376361326,1.168842005935158,-2.2243060329476485,125.47527553355624,-0.25376955024868514,-22.255033556449337,34.84471972115581,96.66276611976429,69.80326255132599,-151.0310043558052,46.62815811190986,0.020341377577419273,13.312737703323364
2.5690264472849527,-3.275843722342824,-0.10006164982300617,-3.133388900758401,1.1686329264993807,-2.220706675822387,125.16378402352584,-0.46574927941077676,-22.456260893206206,34.90182472946466,96.51828317505719,69.79853059938635,-150.98572549433726,46.66331811150753,0.019038484505433217,13.32502007484436
2.5675819831774547,-3.2762153189462278,-0.0925701512756458,-3.134833364865899,1.1682613298959768,-2.2132151772750266,124.58000374695797,-0.5489777160934234,-23.142874321874057,34.90134658292399,96.21755022955483,69.78653302206821,-150.88947893689468,46.73784994788954,0.016691512950492537,13.348078966140747
2.5654435034161875,-3.276772569417693,-0.08391720705367012,-3.136971844627166,1.1677040794245117,-2.2045622330530508,124.31112667753399,-0.4278410635829907,-23.42085815275427,34.54924754754141,95.86961389816375,69.7658596812223,-150.77032469623782,46.82423339628088,0.014498050395606477,13.375211477279663
2.5628697263069826,-3.277500129871126,-0.07424474788995664,-3.139545621736371,1.1669765189710786,-2.1948897738893374,124.42857459311725,0.12035236231210647,-23.614442237207083,33.95287773297479,95.48089141738714,69.73905484685744,-150.63277371427353,46.92036451347553,0.016879713948440234,13.406259775161743
2.558432285928636,-3.279021363528922,-0.06038233181425143,-3.1439830621147173,1.1654552853132825,-2.181027357813632,124.16496598522568,-1.4010043884858856,-23.517157439791816,35.10399022397596,94.92371823938176,69.68694546449777,-150.4186156676856,47.055756260175976,-0.004668780464587741,13.457086324691772
2.5570289947306053,-3.2794315725420917,-0.0567982256290758,-3.145386353312748,1.165045076300113,-2.1774432516284565,124.22238613945919,-1.4029997821366673,-23.552306215847796,35.11301532624006,94.77977922485107,69.67025609771801,-150.35964427966604,47.091382231336965,0.009027502107587626,13.471880435943604
2.55364243718837,-3.2806845298054146,-0.04869146094319478,-3.1487729108549836,1.1637921190367897,-2.1693364869425755,124.2500956970275,-1.5154365560133845,-23.53960144504342,35.09169437035055,94.45433906775958,69.62699687778687,-150.21876127228924,47.16934396895539,-0.038800714335313735,13.508135080337524
2.550649804389613,-3.2813280836088174,-0.04282979383163375,-3.1517655436537404,1.163148565233387,-2.1634748198310145,124.32436256777962,-1.3640299216257605,-24.107161836481822,35.37839596765454,94.21963644145912,69.59162695604357,-150.1135793025843,47.22994984766831,4.9254736014945895,13.538189888000488
2.5496339733759545,-3.281860213779303,-0.04053490032600808,-3.152781374667399,1.1626164350629014,-2.1611799263253886,124.21865655913538,-1.4281427161250215,-24.33084859478549,35.51876039542773,94.12773999225263,69.57701565361981,-150.07031812360307,47.25039010755523,4.925104364759477,13.550110101699829
2.5458867006677197,-3.2830738516561544,-0.03389628570758482,-3.1565286473756338,1.1614027971860503,-2.1545413117069656,124.18315501293232,-2.2654352038092718,-23.985570017545694,36.05238525549679,93.86237323082143,69.52840879151083,-149.93961121494792,47.315180138462416,0.12115655376973278,13.589834451675415
2.544504869622205,-3.2834613771099432,-0.031408618041175895,-3.1579104784211487,1.1610152717322615,-2.1520536440405564,124.21454524285981,-2.173901445737707,-24.13664017413288,36.06084276392667,93.76326384851059,69.51089442752006,-149.89174054736213,47.34003134124092,0.1213549064163244,13.605358123779297
2.5423803548893082,-3.283947537370511,-0.027625249811083663,-3.1600349931540452,1.1605291114716936,-2.1482702758104644,124.02781260630243,-2.2834963473728673,-24.351481658183555,36.14337900559815,93.61285523291419,69.48476189338226,-149.8199906262611,47.37889646249272,0.12180062466807096,13.63070797920227
2.539797205630719,-3.2848705491238084,-0.023128623621727684,-3.1626181424126343,1.1596060997183961,-2.1437736496211084,124.37216690513388,-2.101373203621585,-24.121160745203248,35.950582454669,93.43424916314017,69.44997204244522,-149.72904164123545,47.42176873144653,0.12203903429688845,13.660187005996704
2.5389364739697875,-3.2851099684032308,-0.02102567648962131,-3.163478874073566,1.159366680438974,-2.141670702489002,124.27306623620477,-1.988707481969691,-24.432850068443056,35.96214611188275,93.35113238990714,69.43904827204473,-149.69334556034377,47.44267723189948,0.12187097186422458,13.67291522026062
2.5378916516856247,-3.2853361467609106,-0.01885405724866948,-3.164523696357729,1.159140502081294,-2.13949908324805,124.44436555093735,-1.7962127272663548,-24.453948128731398,35.85937319069623,93.26533101654925,69.42619840603346,-149.65484096256037,47.4649405316546,-0.0328889949187916,13.687735319137573
2.5360611739964574,-3.2859207521430784,-0.014715833332743511,-3.166354174046896,1.1585558966991258,-2.135360859332124,124.38177651581222,-2.206327618771906,-24.31461832068309,36.08627406915156,93.10204423388484,69.40204578987667,-149.58116747040967,47.5053261545924,-0.03315036870457355,13.713787078857422
2.535327958509066,-3.286108689061618,-0.012906170007615125,-3.1670873895342875,1.1583679597805863,-2.1335511960069957,124.17605594011,-2.7570656550800026,-24.311057299786135,36.519463958191906,93.03077957325354,69.39273923563408,-149.55066475925085,47.52345593566456,-0.033285839717504206,13.726226091384888
2.533432041190314,-3.2864526246534087,-0.007519349058980884,-3.1689833068530393,1.1580240241887956,-2.1281643750583616,124.00939703984997,-2.5029511857614577,-24.47651824606768,36.091549529560524,92.81905629542302,69.36980678883106,-149.46619465047968,47.57871104463236,-0.11831027384539272,13.758706331253052
2.532916589944066,-3.28663297343239,-0.004974819503556688,-3.1694987580992873,1.1578436754098147,-2.1256198455029374,123.69991205646751,-2.5794362396435866,-25.013005729946766,36.32625264519447,92.71922789423431,69.36288798663153,-149.43058703997335,47.60350430107804,-0.006531939475044268,13.773287773132324
2.530582577760447,-3.2870533926702272,0.005994628092950011,-3.1718327702829066,1.1574232561719773,-2.1146503979064306,123.84395856263914,-2.350229415946776,-24.696260744097017,35.627926173272364,92.28948960629886,69.33418224443628,-149.28011698966088,47.71431701026442,0.07490956809136895,13.830788373947144
2.5302625922324173,-3.2869138457300515,0.009029426710590732,-3.172152755810936,1.1575628031121532,-2.1116155992887897,123.64957611261056,-2.6985013656446997,-24.702764717263044,35.787741172648516,92.17071378622688,69.33177129292943,-149.24587003966639,47.74660611472596,0.07389524885770493,13.84619927406311
2.5295856663939946,-3.2870934876654414,0.01561103598655142,-3.172829681649359,1.157383161176763,-2.105033990012829,123.36560818358402,-3.000414547314276,-24.80139777424801,35.80644070616149,91.91329486875728,69.32238544578468,-149.16482837490312,47.81176685373299,-0.14936495689046003,13.874880313873291
2.529324030370692,-3.2870394812663006,0.018548921820238456,-3.1730913176726614,1.1574371675759036,-2.102096104179142,123.30881261331461,-3.0480535145260768,-24.845037522461467,35.77054369231763,91.79839716144436,69.31964615648675,-149.13092317133126,47.842101339722696,-0.01913413549284826,13.887407541275024
2.5288418404057307,-3.2871054635722046,0.026601520554558056,-3.173573507637623,1.15737118527,-2.0940435054448225,123.27273347532869,-2.5958649163042513,-25.03280351810348,35.15091621488118,91.48361609065708,69.31251672081086,-149.0375404445843,47.922470506194664,0.13670052118781006,13.919625043869019
2.5286997752161104,-3.287113458842291,0.029863597782713247,-3.173715572827243,1.1573631899999137,-2.0907814282166672,123.26574397177681,-2.5197630853861415,-25.035450313335605,34.96608000803699,91.35612235759613,69.3102067780866,-149.00049179827238,47.9550884429273,-0.005600904651761329,13.932188272476196
2.527822713889985,-3.2867957036683713,0.046772353807021355,-3.1745926341533686,1.157680945173833,-2.0738726721923593,123.68474890421118,-3.4637016872008486,-23.726884466509063,34.75116334758856,90.6954076267415,69.29821349921707,-148.81055430549137,48.12842070196271,0.09486250569243548,13.996978759765625
2.527867366641614,-3.2866547688333467,0.0501131331916678,-3.1745479814017394,1.1578218800088576,-2.070531892807713,123.69584084465689,-3.6395471326227242,-23.63264535428422,34.77998187509234,90.56471519145705,69.29858997696432,-148.7765635496416,48.16289826469274,0.04624926928607165,14.00903034210205
2.5276278786235893,-3.286534503447584,0.06558585892460228,-3.174787469419764,1.1579421453946204,-2.0550591670747784,123.60689732747197,-3.8077177370942,-23.736135405437928,34.551255130903236,89.96047933444684,69.2896827914276,-148.60510612948508,48.31865722722998,0.038440208849660706,14.064502716064453
2.527470215918396,-3.2865204214173014,0.07309623023999984,-3.1749451321249573,1.1579562274249033,-2.047548795759381,123.69280561520397,-3.7983501017065158,-23.625616641556856,34.29598930444466,89.66748842414009,69.28377385692092,-148.52011850079384,48.394053336844486,-0.09671379609631447,14.091867923736572
2.5275285777753997,-3.286408993129387,0.07619612522845284,-3.1748867702679537,1.1580676557128176,-2.0444489007709277,123.67542639780856,-3.6442485906236577,-23.81782355704338,34.19735011544796,89.54630913546428,69.28342961492807,-148.48794221104012,48.42593725164395,-0.02796006817316954,14.104135036468506
2.527566115069114,-3.286545443054842,0.0835157797926617,-3.1748492329742395,1.1579312057873625,-2.0371292462067188,123.62232401665014,-3.1355038263274553,-24.185349148628205,33.697843411544746,89.26103100579337,69.27782600404441,-148.40477951128278,48.49748802097291,-0.0320860496447084,14.131153583526611
2.527681982469587,-3.2863646596278073,0.09691041088078656,-3.1747333655737666,1.158111989214397,-2.023734615118594,123.64993774193246,-4.2823401563943015,-23.63194469008502,34.150867118624916,88.73851787189717,69.27048664319607,-148.25828675084446,48.6329027899166,-0.04862697292727791,14.186001062393188
2.527696864646791,-3.2864416122270077,0.10314288325186771,-3.1747184833965623,1.158035036615197,-2.017502142747513,123.70465763869365,-3.8465058830906442,-23.83360074462198,33.71053912680818,88.49596102154457,69.26475628260455,-148.18689445418818,48.69446409851446,-0.014546295373817575,14.210176467895508
2.52786664646002,-3.2866834889138294,0.11291831065977026,-3.1745487015833334,1.1577931599283753,-2.0077267153396106,123.50476100406273,-3.6857450919548542,-24.150063856942676,33.36074009280569,88.11592327074054,69.25567162851654,-148.07441443672056,48.78951156647946,0.11106295511802333,14.24718427658081
2.5279080853825904,-3.286633747635996,0.12031636935925938,-3.174507262660763,1.1578429012062084,-2.000328656640121,123.5917772822705,-3.9979209162076708,-23.88966742836751,33.33732304871137,87.8281198599619,69.24924108809842,-147.99106072084788,48.8641529707757,-0.05713522785789715,14.274831056594849
2.5279089928540266,-3.2865262781600935,0.12872309770093926,-3.174506355189327,1.157950370682111,-1.9919219282984413,123.68182999146973,-4.772908610591066,-23.379844230799026,33.576089774228265,87.50126023868489,69.2412749128777,-147.8959997247815,48.94971473471967,0.004136909801734756,14.305177927017212
2.527805882927084,-3.286550938031302,0.1373857870992677,-3.1746094651162693,1.1579257108109025,-1.983259238900113,123.70920855753246,-4.267209458734779,-23.754214437411623,33.14852764845534,87.16533850771795,69.230151706768,-147.79423804447674,49.03686143764474,-0.09424863003109696,14.335125207901001
2.5278325226799705,-3.2866531665654355,0.14174915285984485,-3.174582825363383,1.1578234822767692,-1.9788958731395359,123.65975223157433,-4.1232643498207855,-23.994303114187645,33.060039883650354,86.99641571314349,69.22441092194948,-147.74244920784537,49.07967177098385,-0.0826759662249037,14.349750757217407
2.527875713434282,-3.287017582834106,0.15389197736117,-3.1745396346090713,1.1574590660080986,-1.9667530486382105,123.6231324276008,-4.491809956140595,-23.986959342778487,33.12312336390467,86.52724489754249,69.20656556738282,-147.59599647632064,49.19819649359553,-0.15068173486227643,14.389058351516724
2.5278471969068983,-3.2870866709659587,0.15938173135801997,-3.174568151136455,1.1573899778762458,-1.9612632946413606,123.62526443253273,-4.811921370843072,-23.900649755895312,33.267029576882436,86.31521430833045,69.19835453824469,-147.53018138872164,49.25295312589532,-0.027004707292483943,14.406447410583496
2.5278718220840655,-3.287181640525339,0.16762069342130625,-3.174543525959288,1.1572950083168654,-1.9530243325780743,123.7150227220898,-4.859072758337649,-23.839688847501655,33.11962535422896,85.9971721945,69.18635390049651,-147.43193049544243,49.33513155843471,-0.012830104295095346,14.431793451309204
2.528038850519209,-3.287295733100693,0.17923336842702997,-3.1743764975241446,1.1571809157415116,-1.9414116575723506,123.60505856496384,-4.8980612793443505,-24.099195772102245,33.00199584217921,85.5492259223575,69.1700581238999,-147.29448272097508,49.45100393607666,0.21042075472487687,14.467267036437988
2.528133942310315,-3.287489836503555,0.186902224072316,-3.1742814057330384,1.156986812338649,-1.9337428019270646,123.67029280507042,-4.905465266448665,-24.00413921979555,32.75732582611266,85.25439295258539,69.15751062629971,-147.20120554484237,49.52642949892739,0.04640069270179481,14.49032711982727
2.5282745380881324,-3.2876330765976416,0.19823323029442697,-3.174140809955221,1.1568435722445627,-1.9224117957049536,123.8030176663994,-5.341648073897842,-23.564660248841427,32.60714296364471,84.8189231552482,69.13924629592152,-147.0646044337986,49.6395122286862,-0.12900104207817442,14.524906396865845
2.5284022512357796,-3.2881839959571293,0.21024035297385785,-3.174013096807574,1.1562926528850752,-1.9104046730255226,123.81293043637585,-4.611448088365846,-24.08107652065399,31.9878749671903,84.3603567119481,69.11516893889954,-146.9126060805746,49.75540767196208,-0.10814790662811635,14.561121463775635
2.528499333903585,-3.288339027643448,0.21410204338354688,-3.1739160141397686,1.1561376211987564,-1.9065429826158338,123.77296323039263,-4.908774798795314,-23.989371935343886,32.09178664350782,84.21287988028541,69.1079619469601,-146.8644965636421,49.792820899592726,-0.06832629986682903,14.573325872421265
2.528545240701708,-3.2885002677278363,0.21796549581868196,-3.1738701073416453,1.1559763811143682,-1.9026795301806987,123.83106291592571,-5.220962501692444,-23.780953726916287,32.191842613463706,84.06563917155961,69.10001798330566,-146.81550138938195,49.830322966482726,-0.0612824878575462,14.58534550666809
2.528984379676426,-3.2886485739656957,0.22568494152780166,-3.1734309683669273,1.155828074876509,-1.8949600844715788,123.80005705818616,-5.750850776725175,-23.58215920892199,32.34659467089752,83.7699391186313,69.088988012721,-146.72418667581553,49.9063462829512,-0.03342387481258591,14.609309911727905
2.529082195165028,-3.2888429223878277,0.2331324766120778,-3.1733331528783255,1.1556337264543768,-1.8875125493873028,123.6932115275897,-5.513918029236995,-23.919103270787012,32.116278074423434,83.48632508124435,69.07390092038004,-146.63073314646715,49.979969440330024,-0.03782547706627204,14.633311033248901
2.5291357046094722,-3.289041133116053,0.23768914741212416,-3.1732796434338812,1.1554355157261516,-1.8829558785872564,123.74118496157219,-5.235536739139108,-24.023758878323694,31.826330775329286,83.31346852653283,69.06372061024112,-146.57207594217266,50.02422848255192,-0.04059721783380699,14.647982120513916
2.5293124995064313,-3.289392030646436,0.24966342889426402,-3.173102848536922,1.1550846181957688,-1.8709815971051165,124.12662896756075,-5.5364420002349135,-23.42997156517272,31.599740751693506,82.85913847749855,69.03793881234418,-146.42004759702624,50.142359683816764,0.050775082611740796,14.688042640686035
2.5296098215166456,-3.2897875496452045,0.26115051040917825,-3.172805526526708,1.1546890991969998,-1.8594945155902023,124.0625198787013,-5.8102844664952915,-23.42153338047404,31.51997199580926,82.4244357106458,69.01299726702597,-146.27380568706062,50.2549481448384,0.09995939357537598,14.72697901725769
2.530107627309632,-3.290283710532372,0.2724942880180531,-3.1723077207337216,1.1541929383098324,-1.8481507379813276,123.89123227740399,-5.550078177963455,-23.890262957217338,31.24667251164222,81.99627915794389,68.9886579595107,-146.12931235688893,50.36473950707307,0.09251754698485115,14.766266345977783
2.5302220553930974,-3.290344275195338,0.28023833741894294,-3.172193292650256,1.1541323736468667,-1.8404066885804378,124.00840499108415,-6.051396109591302,-23.509831278201755,31.30982815534669,81.70386117333652,68.97125727101309,-146.03126891839892,50.44320680024235,0.08806011609014375,14.79321002960205
2.5302745546398415,-3.2905230538586796,0.28797105753434177,-3.172140793403512,1.1539535949835251,-1.8326739684650388,124.07344553866878,-5.726975034823863,-23.67583945743816,30.976665785143283,81.4133984116903,68.95175835769558,-145.93029683673709,50.52050194269359,-0.052494997780693886,14.81953239440918
2.5302943410500824,-3.2906320905355333,0.2916660589792005,-3.172121006993271,1.153844558306671,-1.8289789670201801,124.05143244228181,-5.520891805391567,-23.83055595576177,30.784373651796745,81.2749903396969,68.94202017129662,-145.88144149635656,50.557219221300954,-0.05466140602838632,14.832331418991089
2.5302945329058075,-3.290736978406623,0.29587019000279063,-3.172120815137546,1.1537396704355816,-1.8247748359965899,124.06497241082336,-5.2886535808175585,-23.93776393435653,30.53004629955953,81.11765434605427,68.93071954971056,-145.82570461069932,50.59926246584775,-0.0570740358689279,14.846923112869263
2.530806073092833,-3.290622089185944,0.30881009151144684,-3.1716092749505207,1.1538545596562608,-1.8118349344879339,123.99632713480781,-6.759479311737061,-23.457788418327194,31.271815002743978,80.6296153821067,68.90411578260515,-145.66626871929614,50.73243515737752,-0.06475993141814307,14.892656326293945
2.530921797794485,-3.2906378349734653,0.31225533165399705,-3.1714935502488686,1.1538388138687392,-1.8083896943453834,123.94590528082243,-6.827589133022204,-23.559304421083112,31.324092997861754,80.5003171369981,68.89620418808187,-145.62261765146317,50.767477356101516,-0.06682870759714543,14.904589414596558
2.5311051710474204,-3.290781058768189,0.3212431123817443,-3.171310176995933,1.1536955900740156,-1.7994019136176362,123.81611013084895,-6.673890869012436,-23.87344567972895,31.1101890184047,80.16475368938723,68.87300515018816,-145.50518876665862,50.85810320874814,0.03574137269800426,14.934988260269165
2.531343653517606,-3.290944718575243,0.3301980586634968,-3.1710716945257476,1.1535319302669615,-1.7904469673358838,123.82291471693422,-6.659309045197771,-23.90925347708207,30.884669565608302,79.83117818544306,68.84968026131496,-145.38786822170223,50.94815689565961,-0.0541376443624495,14.965136289596558
2.5316372461076493,-3.2907227872162013,0.33850221478459747,-3.170778101935704,1.153753861626003,-1.7821428112147832,123.95800316413668,-7.073853356853037,-23.61460117805573,30.9350130980953,79.51959957394968,68.83125766295151,-145.28497885369006,51.03562544613181,-0.06356111808487741,14.993242502212524
2.5317697044795167,-3.290560579882858,0.3429857836148535,-3.170645643563837,1.1539160689593466,-1.777659242384527,123.92506781825428,-7.231879590596802,-23.65526256393556,31.006850667182857,79.35143877069035,68.8211344679458,-145.2294744258975,51.08339555972016,0.009035054030682499,15.00834345817566
2.5318365131216813,-3.290491662799311,0.35074703224010145,-3.170578834921672,1.153984986042894,-1.7698979937592791,124.03378642143593,-7.145361834514135,-23.69119833894816,30.861059197111818,79.06309840761854,68.79977493909746,-145.12767170404743,51.16417137159524,0.004756509441311341,15.033621788024902
2.532004728329015,-3.290484560825611,0.35473578201944306,-3.1704106197143385,1.1539920880165933,-1.7659092439799375,123.98259549427182,-7.071664711159777,-23.800501131601184,30.725025744956458,78.9147574011689,68.78982879945231,-145.07644709878014,51.20515943069154,-0.039892808591473816,15.046007633209229
2.5325292434294395,-3.290488445329137,0.3633953197225069,-3.169886104613914,1.1539882035130677,-1.7572497062768737,123.78151818144974,-7.5399485673240285,-23.744361060292302,30.695228031956116,78.59267455956906,68.76936254361922,-144.96651861672416,51.293718027168694,-0.04540686891977863,15.072740316390991
2.532788395245421,-3.290281102909285,0.3671539048467272,-3.1696269527979326,1.1541955459329198,-1.7534911211526534,123.71147580762516,-7.71203671107358,-23.75643290463665,30.70807434857223,78.45133842246895,68.76229458484393,-144.92216629715662,51.334390521308535,-0.03823459211668201,15.084473133087158
2.5330928989655166,-3.290008436733425,0.3753251251344229,-3.169322449077837,1.1544682121087795,-1.7453199008649576,123.91170695727581,-7.779456017489491,-23.498844335104458,30.443650289687053,78.14713670648412,68.74232566755843,-144.81924566740338,51.42142340086389,0.04627829730178368,15.10914921760559
2.5331750511662867,-3.2900021164383833,0.38051387263229103,-3.1692402968770668,1.1544745324038213,-1.7401311533670896,124.04750758666303,-7.493407206571608,-23.500351464351727,30.11256583436847,77.95619649276735,68.72684709500139,-144.74959323576311,51.47512260955054,0.043314653188756935,15.124614477157593
2.5333705238298316,-3.2899920478920213,0.38831862652408694,-3.169044824213522,1.1544846009501832,-1.7323263994752938,124.25793542647385,-7.43973254830186,-23.256277514524633,29.74759157475522,77.6692170191183,68.70394557677687,-144.6452919507225,51.555830277946086,0.05282733923689786,15.148303508758545
2.533660376983732,-3.289846573212347,0.3932527937588371,-3.1687549710596215,1.1546300756298573,-1.7273922322405435,124.25070088244537,-7.616660165902972,-23.1637770961064,29.662426007097338,77.4861574391488,68.69210749731718,-144.58334582843457,51.60811617475379,0.143689148617673,15.163503408432007
2.534194795382934,-3.289446353050545,0.40214121329068225,-3.1682205526604195,1.1550302957916594,-1.7185038127086982,124.0790165322929,-8.059894493362966,-23.291603029652567,29.876646348619772,77.15577468786402,68.67151021168502,-144.4734605931995,51.7038749066611,0.016477868432567266,15.191433668136597
2.5343497339860432,-3.2894111383711193,0.40696533311936806,-3.1680656140573102,1.1550655104710854,-1.7136796928800124,124.15798568536553,-8.148114128139403,-23.233403943770345,29.87166631963515,76.9790385113417,68.65718413669717,-144.4089698881959,51.75413714530948,-0.037972620679088465,15.206723928451538
2.5347008225654655,-3.2893377315281453,0.4150916771538841,-3.167714525477888,1.1551389173140592,-1.7055533488454966,124.26925492421117,-8.104739603722932,-23.10134930385752,29.51608148694489,76.68133784569116,68.63372026913873,-144.30122745843755,51.83887095101113,-0.04287505313530238,15.2335524559021
2.5349214812370002,-3.2893808113815055,0.4192843284483451,-3.1674938668063533,1.1550958374606992,-1.7013606975510354,124.16975835711904,-8.111713791838202,-23.163449129391456,29.330184911285478,76.52854010807711,68.62120446677487,-144.244671546143,51.8816708154214,-0.045550963684933166,15.248120784759521
2.5352263742057164,-3.2893205129267438,0.4262491318943384,-3.167188973837637,1.1551561359154605,-1.694395894105042,124.18582603590295,-8.306434520850035,-23.108683722551625,29.298210295657615,76.27435268940214,68.60048399682113,-144.1515560809294,51.95435392278052,-0.08729819369598246,15.272871732711792
2.5354261759114256,-3.2891760193871526,0.4302371693522375,-3.166989172131928,1.1553006294550519,-1.690407856647143,124.28703216302861,-8.270792869916692,-23.042514797463664,29.171356705345435,76.12793982470983,68.5895783901423,-144.1000470541016,51.997161589802744,-0.056785172813577756,15.2873375415802
2.5356098413289434,-3.289062621249001,0.43718796046829617,-3.16680550671441,1.1554140275932034,-1.6834570655310843,124.45076704296835,-8.05020427834274,-23.060582983851155,28.949584206256418,75.87534446767566,68.56743417330514,-144.0056146492076,52.07055755892295,0.009617010649774382,15.312960624694824
2.5358871049031397,-3.2890682571763863,0.44555151907805285,-3.1665282431402137,1.155408391665818,-1.6750935069213277,124.49194686417843,-8.074901950572551,-23.12643558067878,28.893043046390147,75.57318628835185,68.53979975457642,-143.88991440299054,52.15729216139561,0.145349090531258,15.343650579452515
2.5363374846482127,-3.288942131074845,0.45202732585006794,-3.1660778633951407,1.1555345177673595,-1.6686177001493125,124.08148749406227,-8.675766894197636,-23.383052099617174,29.224582924679986,75.33727359706971,68.52157008698866,-143.80497471714006,52.22558116763567,0.014583759495796489,15.367718935012817
2.536610114603422,-3.288868118582717,0.45985816546076036,-3.1658052334399316,1.1556085302594876,-1.6607868605386202,124.16352633561995,-8.630866270272328,-23.297134369852646,28.901002200954697,75.05497370263227,68.49558395283645,-143.6969088842403,52.30776564056517,0.0052553782690387685,15.395303726196289
2.5367855097304344,-3.288794049762431,0.46401780761464123,-3.165629838312919,1.1556825990797734,-1.6566272183847395,124.0460738089664,-8.650797721580542,-23.47120988282773,28.88653616323098,74.90482654497308,68.48218692659024,-143.64019807556946,52.35178503502067,-0.10043330932634964,15.40966796875
2.536831185332199,-3.2887544826657233,0.4683696602391329,-3.1655841627111543,1.155722166176481,-1.6522753657602478,124.0248765476044,-8.501718017223522,-23.574846466609436,28.687255620152836,74.74915315394132,68.46626819573105,-143.57827102116607,52.39763678805956,-0.10285948202018691,15.424736976623535
2.536878386831819,-3.288605498601316,0.48032252253403157,-3.1655369612115343,1.1558711502408887,-1.640322503465349,124.21179643687907,-8.517159239105492,-23.29153859855964,28.1544869328101,74.32297757056175,68.42129784009965,-143.40677290510013,52.52420439271209,-0.10936774570391616,15.464348316192627
2.5370324256889027,-3.2885131406904184,0.48794159540684606,-3.1653829223544507,1.1559635081517863,-1.6327034305925345,124.06672687578286,-8.755015683115442,-23.398762347127935,28.15902507312509,74.05161417409508,68.39338425009066,-143.29829244503242,52.60473951755796,-0.08085832500299128,15.488611459732056
2.537165346976154,-3.288138473717697,0.4999411197165358,-3.1652500010671996,1.1563381751245077,-1.6207039062828448,123.79874968429488,-9.077868309312775,-23.733949378536657,28.31827401180514,73.62419462785978,68.34913099253548,-143.12833877160654,52.73436212065573,-0.012206375160172644,15.525001525878906
2.5371466463206573,-3.288058896605406,0.5082711583299047,-3.165268701722696,1.1564177522367987,-1.612373867669476,123.83653308708683,-9.17735440660793,-23.68923203699297,28.173313885832037,73.33117569723991,68.31523943678708,-143.00518758214307,52.82254700095462,0.03960254125265905,15.54953932762146
2.5372895678409453,-3.287879152011951,0.5208992699242729,-3.165125780202408,1.1565974968302535,-1.5997457560751076,123.7804119357582,-9.74072254788489,-23.631302262262164,28.32160117806267,72.88716577593374,68.26517684886754,-142.8202960172909,52.956757599257884,-0.06122944608748915,15.58552074432373
2.5372942770528897,-3.2876257101236126,0.5416607690441455,-3.165121070990464,1.1568509387185921,-1.578984256955235,123.81153355253429,-10.257892036193839,-23.509213193420614,28.18221612065579,72.16415136730609,68.17764291586705,-142.508879239245,53.1774260382414,-0.07244941498311963,15.645267963409424
2.537019128035249,-3.2875678392111487,0.5509844160096624,-3.1653962200081045,1.1569088096310556,-1.5696606099897181,124.28303793581279,-10.615094866674964,-22.854281102373495,28.01275076119273,71.8440311813968,68.13399681605422,-142.3629084108036,53.276273526740056,-0.025538086425488604,15.673171281814575
2.536914620433604,-3.28763317580232,0.5607507850329447,-3.1655007276097495,1.1568434730398844,-1.559894240966436,124.13425620811763,-10.41047783447722,-23.249339894853236,27.911272384902716,71.51032952596174,68.08865345287293,-142.2094467681903,53.37821980742149,-0.0918588542883283,15.702783823013306
2.5370613057619185,-3.287619575589173,0.5686199058934098,-3.165354042281435,1.1568570732530314,-1.552025120105971,123.90367333722766,-10.519298673874626,-23.52580723050923,27.89920940235232,71.2402232169939,68.0545804370322,-142.08916174598988,53.46088681081212,-0.11987539176233852,15.728264570236206
2.537141642958108,-3.2876185243453393,0.5738647818115492,-3.1652737050852453,1.1568581244968652,-1.5467802441878313,123.94108411185466,-10.599082054679611,-23.47994610324944,27.8223132593341,71.06093211309856,68.0313930899622,-142.00824539319822,53.51592982311039,-0.057212368003886294,15.745738506317139
2.537144318753555,-3.287649224802996,0.5825925224053432,-3.1652710292897983,1.156827424039209,-1.5380525035940373,124.08404340826694,-10.892932704794612,-23.32397483232254,27.934474439114762,70.76482122849731,67.990776837358,-141.87063549828014,53.60731201417396,-0.12777042117865456,15.775201559066772
2.537169239032871,-3.2876409938682736,0.5869477494158633,-3.1652461090104826,1.1568356549739311,-1.5336972765835173,124.11459558586772,-10.805942067506251,-23.345698886718477,27.775929003541467,70.61707598318553,67.97074052707305,-141.80233267224543,53.65316430462336,-0.026992405161339494,15.79049801826477
2.537271270581435,-3.2877177582629042,0.5920009651916371,-3.1651440774619184,1.1567588905793003,-1.5286440608077434,124.04143345299724,-10.85994575174501,-23.376871252095427,27.599913806203055,70.44650575828075,67.94747696079443,-141.72242855881993,53.70532647716854,-0.030026007414589717,15.808083772659302
2.5373369410378483,-3.2877697899681353,0.5964396410812276,-3.165078407005505,1.156706858874069,-1.5242053849181532,123.98535920255868,-10.94944229542295,-23.38207534241416,27.473397479082944,70.29701049104781,67.92676419641886,-141.65192117361235,53.751348798879825,-0.03263908741936916,15.82356309890747
2.53762051918154,-3.2877856821665565,0.6051721436305859,-3.1647948288618135,1.1566909666756482,-1.5154728823687948,123.89918101447816,-11.049389840802744,-23.454971168348155,27.2914458725215,70.00169344954378,67.88789132437853,-141.5159974290352,53.84275408032584,-0.042603142843499864,15.854248523712158
2.5377025922278813,-3.287812425478287,0.6085832752389546,-3.164712755815472,1.1566642233639175,-1.512061750760426,123.93640995720705,-11.234025795090957,-23.355457046713013,27.30670476314844,69.88710968546268,67.87211970225964,-141.4619507288179,53.87826039581768,-0.04464348402015483,15.866104364395142
2.5377365197405695,-3.2877921123005196,0.6139800543033787,-3.164678828302784,1.156684536541685,-1.5066649716960019,124.04732763421651,-11.15079020686442,-23.28459411328051,27.091301779296458,69.70616395539834,67.84645562313266,-141.37586873375508,53.935237621898665,-0.12742289263700002,15.884375095367432
2.537705429780085,-3.287863463328062,0.6214220442212885,-3.1647099182632683,1.1566131855141428,-1.499222981778092,124.11891142918329,-10.92604639636347,-23.321037760451233,26.765492032867122,69.4591765653183,67.80922360807624,-141.25397266858903,54.012749480230084,-0.13158203987508799,15.90937089920044
2.5378235370777005,-3.2878526452253425,0.6352323960764885,-3.164591810965653,1.156624003616862,-1.485412629922892,123.96617138675794,-10.755369568895615,-23.584414950490213,26.30958763445409,69.00022421352959,67.74206947126329,-141.0306897898459,54.15810209659242,0.0013515343824770376,15.954106569290161
2.537922466951598,-3.2878022543915515,0.6395998002830199,-3.1644928810917556,1.1566743944506532,-1.4810452257163607,123.93736851961125,-10.781447985374399,-23.617006232936,26.205687318142633,68.85469361879666,67.72155970702899,-140.96119168629917,54.20456743667937,-0.0011601581381279757,15.967971324920654
2.5379314819221515,-3.287709473007313,0.6446419813398803,-3.164483866121202,1.1567671758348916,-1.4760030446595003,124.00193538926005,-11.103994005211831,-23.446057484048406,26.251854814336912,68.68742429570636,67.69687178464288,-140.87980464467663,54.25869160090681,-0.0038681254423438283,15.983815670013428
2.5377729525287838,-3.2876330153170574,0.653678002102509,-3.1646423955145697,1.1568436335251469,-1.4669670238968715,123.97825069388723,-11.262617741715562,-23.473521048908843,26.193988848377963,68.3911341872439,67.64975895158815,-140.72938754963621,54.354783946266906,-0.008563929622061206,16.011958837509155
2.537657518236313,-3.287600672540486,0.657636273052596,-3.1647578298070407,1.1568759763017187,-1.4630087529467846,124.04936073446915,-11.260972017371818,-23.412475688871947,26.08470621111145,68.26213916766852,67.62847118828225,-140.6625438446191,54.39689265905012,-0.010554857149608576,16.024218797683716
2.537557284935213,-3.2875520134540115,0.6672242241401651,-3.1648580631081407,1.156924635388193,-1.4534208018592154,124.0967128340892,-11.500662504836267,-23.3121099848301,25.986102745879823,67.94976593109509,67.57817374055996,-140.50179535140663,54.49842259249712,-0.015672777044946518,16.053802967071533
2.5374798239964877,-3.2870726806688992,0.6893414556001973,-3.1649355240468657,1.157403968173305,-1.4313035703991832,123.83007618879053,-12.332992431800703,-23.4906610502455,26.24433786280094,67.22915865220212,67.46415786071117,-140.1346787731836,54.736750625914674,-0.046068650861624594,16.121768712997437
2.537334952718622,-3.2871117276230244,0.697248211322961,-3.1650803953247313,1.1573649212191799,-1.4233968146764195,123.94842336806883,-12.152398480459118,-23.409429706810595,25.795880278267433,66.97715349456354,67.41999437945695,-139.99698465104342,54.819565252709154,-0.12066110514084993,16.145740270614624
2.5372250199336506,-3.2870253403300196,0.7051442805547241,-3.165190328109703,1.157451308512185,-1.4155007454446564,124.00492686805123,-12.090771058613214,-23.395517493002718,25.54149216411797,66.72465932144549,67.37674946752793,-139.86118611545524,54.90368541586309,-0.0637917261508063,16.17028522491455
2.5373117533783924,-3.2869340095038586,0.7089180375669029,-3.165103594664961,1.1575426393383457,-1.4117269884324777,123.81222773447266,-12.333434236516112,-23.56262330403911,25.710047086018278,66.60258258694945,67.35774325630184,-139.7987115711859,54.94440297319867,-0.07529556712109864,16.182329893112183
2.5373465623654785,-3.2868678049824265,0.7167270208833616,-3.165068785677875,1.1576088438597778,-1.4039180051160192,123.68993921424396,-12.612638858420075,-23.672611679253727,25.840608928693978,66.3534927775954,67.31579725420843,-139.66490882573703,55.02729303926512,-0.10306411667844939,16.2066171169281
2.5373938166498764,-3.2867874321264043,0.7213457444501008,-3.165021531393477,1.1576892167158004,-1.3992992815492797,123.54930897142924,-12.6272236092631,-23.8460059183668,25.790454686900468,66.20588667078809,67.29137679054114,-139.58643526124635,55.0767844300897,-0.030538861913373516,16.22150468826294
2.537330025597046,-3.286806312219495,0.7300216053305033,-3.1650853224463074,1.1576703366227097,-1.3906234206688772,123.65304952634094,-12.366608321258024,-23.823994241856166,25.31658346217083,65.93309373126971,67.2424301877137,-139.43345963449238,55.16781348286792,-0.06811987775249984,16.24947690963745
2.5372937832703926,-3.286767011902878,0.7336914009856488,-3.165121564772961,1.1577096369393263,-1.3869536250137318,123.69221091381891,-12.729609063028615,-23.65733888758693,25.38536074805888,65.81754224411286,67.22182115079832,-139.36910003904646,55.2068645937407,-0.06536689822862973,16.261638641357422
2.5371851307314897,-3.286821406597273,0.7416674830708714,-3.165230217311864,1.1576552422449315,-1.3789775429285092,123.779621490853,-13.092295539099256,-23.457862413174176,25.350366351226818,65.56931892247671,67.1755124436484,-139.22593889800208,55.2900945399354,-0.11660757513990738,16.288349390029907
2.537214810065146,-3.286814406554339,0.7522137307846681,-3.1652005379782073,1.1576622422878653,-1.3684312952147124,123.52006055444846,-12.986064994219616,-23.84156310706552,25.1922957982111,65.24030772651993,67.11606302966447,-139.03901568486364,55.40097443614613,-0.13656669691621692,16.32458209991455
2.5372953930272404,-3.2868393547123134,0.7594381735562905,-3.165119955016113,1.1576372941298914,-1.36120685244309,123.51838908437274,-12.93940221997174,-23.87077020755258,24.943583898788933,65.01593102544577,67.07540608351222,-138.91046394490735,55.47654220275898,-0.14071818324359464,16.34939670562744
2.537171721208103,-3.2868204931503815,0.7666240186063267,-3.1652436268352506,1.157656155691823,-1.354021007393054,123.81824025727094,-13.079885099954112,-23.53733869085151,24.811279787978407,64.79476829080808,67.03286421336044,-138.7798369621343,55.55223861682335,-0.1773415014516626,16.374287128448486
2.5369762474286794,-3.2869014903514584,0.7707391101262142,-3.165439100614674,1.1575751584907459,-1.3499059158731663,124.04087965412351,-13.19726790452883,-23.287486185083072,24.783920094166874,64.6708399901816,67.00648084728999,-138.70152006661547,55.59451171911096,-0.17942366321272551,16.388333320617676
2.5368854633423252,-3.2868647839720895,0.7809754767489288,-3.1655298847010283,1.1576118648701152,-1.339669549250452,124.02717673915376,-13.48247911301839,-23.261734261021438,24.7591014684169,64.35723886669147,66.9461185638116,-138.51500864681006,55.702355117500936,-0.09577977063400178,16.424271821975708
2.5371194534664614,-3.2868414453343413,0.7882014258901806,-3.165295894576892,1.1576352035078632,-1.3324436001092002,123.69250794743908,-13.519154936131443,-23.630881613283716,24.66576997361852,64.13444106429388,66.90622457877,-138.38653640327067,55.77838740974684,-0.06256932077374566,16.44916582107544
