dx1,dy1,dz1,dx2,dy2,dz2,azm1_cf,ele1_cf,azm2_cf,ele2_cf,azm1_an,ele1_an,azm2_an,ele2_an,tdoa_bias,time
-1.7463666094341044,3.714497583122314,-0.1250751869381074,1.4257299500473422,-3.572235263738333,-2.7975375956181896,-62.851420778324126,1.530801971384143,115.62798565447014,36.35283851432948,-102.29872812832122,74.36256243393731,-81.18010668969546,70.64440410168439,4.74079430960794,4.01987624168396
-1.7462633011517419,3.7144032571554937,-0.1249221542866844,1.4258332583297046,-3.5723295897051535,-2.7973845629667666,-63.00928480609826,1.3839867018391416,115.6341714485656,36.50051514664032,-102.29171219100368,74.36370337563052,-81.17748529555769,70.64674162148968,4.609570917111224,4.039973974227905
-1.7463977022835315,3.714519753415809,-0.1250732104214036,1.425698857197915,-3.572213093444838,-2.7975356191014855,-62.88906960123434,1.53509624745963,115.58677707872371,36.34862943010483,-102.29838494220294,74.36231485269805,-81.18089209216693,70.64421023184259,4.5530634879487035,4.059944152832031
-1.7464223913243304,3.714483797166627,-0.12502570629568432,1.4256741681571161,-3.5722490496940202,-2.7974881149757667,-62.9869617311744,1.615997255872103,115.53787527284773,36.26818514377613,-102.29562450192587,74.36192918832812,-81.18209932663665,70.64486858891246,4.975337714755854,4.099957704544067
-1.7463624279751637,3.714461623907456,-0.1249668038124323,1.4257341315062828,-3.572271222953191,-2.7974292124925144,-62.957592159228106,1.6167663603215006,115.52580277227682,36.2642161325314,-102.29316633304039,74.36270093311994,-81.1802263061397,70.64571203410529,5.4398692640657,4.119906902313232
-1.7463834814328374,3.7144429875034026,-0.12502791025098223,1.4257130780486091,-3.5722898593572445,-2.7974903189310645,-62.90862858184465,1.6342123789207235,115.56300618873448,36.24779477781404,-102.29600158610337,74.36216273444427,-81.18127703429357,70.64520298034122,4.919133128559008,4.165706157684326
-1.746318447509138,3.7144651006323985,-0.1250283854532438,1.4257781119723085,-3.5722677462282486,-2.797490794133326,-62.930149042084395,1.5473894152314367,115.59312896846706,36.336256515915615,-102.29673623692065,74.36309442374619,-81.17878399190538,70.64517671417514,4.618871231618885,4.189829349517822
-1.7463570091596892,3.7144695534262895,-0.12498292795150306,1.4257395503217574,-3.5722632934343577,-2.797445336631585,-62.95985815853787,1.534482306083803,115.55207463479123,36.34790652376444,-102.29406131686596,74.36277010238467,-81.17997037497005,70.64551185339907,4.665728222961009,4.226535797119141
-1.746291468841341,3.714403505178574,-0.1249465792918158,1.4258050906401056,-3.572329341682073,-2.797408987971898,-63.0385602989157,1.4843340437475232,115.58361671584693,36.40018079623572,-102.29267246796566,74.36328984611757,-81.17848516901115,70.64644637579973,5.585450528154462,4.260272264480591
-1.7464033890176396,3.71448428632175,-0.12504089793866974,1.425693170463807,-3.572248560538897,-2.797503306618752,-62.915249954358416,1.7495135317522867,115.50498219522632,36.13123652398102,-102.29658489641942,74.36212469814302,-81.1814695936821,70.64475525689294,4.726695253452537,4.2760536670684814
-1.7463066721678349,3.714363367755845,-0.12494730885120804,1.4257898873136117,-3.572369479104802,-2.79740971753129,-62.988317362929436,1.4866204544449901,115.61701083874225,36.397233574612045,-102.29244002863749,74.36286356701318,-81.17950044202664,70.64668295519503,4.745680735918162,4.301807641983032
-1.7463083150190772,3.7143741593974826,-0.1249341034513174,1.4257882444623693,-3.5723586874631645,-2.7973965121313995,-62.99474860556044,1.4495917626847323,115.68648658538396,36.43638034365677,-102.29178584650423,74.36294331591577,-81.17940150247819,70.64673450163782,4.745654312039956,4.313738584518433
-1.7463198628241967,3.714442034775868,-0.12496583034689923,1.4257766966572498,-3.572290812084779,-2.7974282390269813,-62.97897324953704,1.4392971391446008,115.66013276038996,36.44654545426733,-102.29348120928205,74.36311347240301,-81.17901224502755,70.64593977248317,4.7408591782942135,4.3382110595703125
-1.7464222559873013,3.714435554241664,-0.12502964543234288,1.4256743034941453,-3.572297292618983,-2.797492054112425,-62.90391938746337,1.66627180481102,115.52212845270978,36.214280614956124,-102.29568298289755,74.36163558094279,-81.18269591611433,70.645159746943,4.844050292713884,4.376025915145874
-1.746369002283278,3.714485842580094,-0.1250740882858029,1.4257275571981685,-3.572247004280553,-2.797536496965885,-62.94123424090466,1.593841977864986,115.49933804030027,36.28833130452505,-102.29861394746999,74.36246671921033,-81.18033128979859,70.64449015031659,4.844030432407457,4.400980472564697
-1.746296163822829,3.714402046794947,-0.12494056550025989,1.4258003956586176,-3.5723308000657004,-2.797402974180342,-62.9352036488438,1.4519262180033727,115.63141587144592,36.43068325863575,-102.29231656417518,74.36323988214652,-81.17865347703469,70.64650549432405,4.844147508885688,4.415816307067871
-1.7464488897593073,3.714467020610807,-0.12508664920888302,1.4256476697221392,-3.5722658262498403,-2.7975490578889652,-62.83758016738209,1.6034399727992192,115.6441773204888,36.2807399091268,-102.29840268613792,74.36133517951718,-81.18331271512133,70.64433760565741,4.844010678504775,4.442937612533569
-1.7463298530738938,3.714457894758342,-0.12507955846840027,1.4257667064075528,-3.572274952102305,-2.7975419671484825,-62.89412453249668,1.635222120560234,115.54726636081814,36.24676829609287,-102.29919719359957,74.36277003595914,-81.17934775522231,70.64470546992226,4.703355347922523,4.454916477203369
-1.7463859465342915,3.7144481595354324,-0.12498389546813274,1.425710612947155,-3.5722846873252148,-2.797446304148215,-62.965379740308535,1.4941661630682936,115.61165512251118,36.39044374252207,-102.29376012504952,74.36228416804747,-81.18122408910841,70.6455909169034,4.754886478682058,4.481078624725342
-1.7463925716869824,3.7144741749896477,-0.12505086617622588,1.4257039877944642,-3.5722586718709994,-2.797513274856308,-62.92854077487861,1.601135006483665,115.57862525614338,36.28286061061294,-102.29716785819132,74.36217110065677,-81.18124137462706,70.64474879866212,4.717342195609232,4.493689775466919
-1.7462503050725189,3.714422065159939,-0.12504981907156745,1.4258462544089276,-3.572310781700708,-2.7975122277516498,-62.970313257882225,1.3510766306667554,115.62020266475018,36.53481742337653,-102.29837220682722,74.3636226155386,-81.17702274801046,70.64539731498509,5.533897710484166,4.51817774772644
-1.7463912844516165,3.714513269807142,-0.12506670721520666,1.42570527502983,-3.572219577053505,-2.797529115895289,-62.82906245073708,1.5372936622609241,115.61597030729136,36.345127147449205,-102.29809963011976,74.3623737717383,-81.18074196458393,70.6443304895451,5.533653909518236,4.545300245285034
-1.7463391314388705,3.714418356467206,-0.1249506980971148,1.425757428042576,-3.572314490393441,-2.797413106777197,-62.875572293515866,1.390776471626999,115.74536457930377,36.49411608274488,-102.29245258802432,74.36277778428715,-81.17993702064453,70.64621024958358,4.919163000019962,4.556886434555054
-1.7463722081381832,3.7144456163885673,-0.12509720670361454,1.4257243513432634,-3.57228723047208,-2.7975596153836966,-62.840169629968166,1.5766756440203864,115.62320640059865,36.306660540605975,-102.29963565547368,74.3621262375103,-81.18097513708554,70.64453341536772,4.740888570388429,4.584477663040161
-1.746354942912162,3.714448669357164,-0.1250285585030162,1.4257416165692844,-3.5722841775034833,-2.7974909671830983,-62.88981747218333,1.4824749736213823,115.65216054180648,36.401899757902946,-102.2963343436414,74.3625466595638,-81.18023331701255,70.64521462589492,4.6845566286220235,4.6380791664123535
-1.7463072899154652,3.7143412265122713,-0.12490074445247057,1.4257892695659813,-3.572391620348376,-2.7973631531325527,-62.95903170297603,1.4459249620727148,115.73323792011534,36.43941222326498,-102.29000664220693,74.36285376911104,-81.17971677691895,70.64728574818798,4.609629783831788,4.6630072593688965
-1.7463607934073984,3.714398410242413,-0.12509234730066504,1.4257357660740482,-3.572334436618234,-2.797554755980747,-62.92672987819976,1.519492775025228,115.62764215837976,36.36655211962857,-102.29936287027036,74.36200221849774,-81.1811590065918,70.64492550081377,4.684671176273619,4.675981521606445
-1.7464277955035632,3.714477632908676,-0.12500335408771807,1.4256687639778833,-3.572255213951971,-2.7974657627678003,-62.89684359707761,1.4894761540232238,115.65623039555126,36.395152289358606,-102.29441907368447,74.361887786067,-81.182322633247,70.64511733000231,4.811119785169767,4.70554256439209
-1.7463160293424853,3.714420283895469,-0.12504594792330814,1.4257805301389612,-3.572312562965178,-2.79750835660339,-62.87547418320237,1.4721253383103994,115.71182466420576,36.41382503056288,-102.29751843954897,74.36281162269057,-81.17928308913386,70.64531652423251,4.67994993765158,4.718579053878784
-1.7462848127735418,3.7143981810951257,-0.1249502061197152,1.4258117467079048,-3.5723346657655215,-2.7974126147997973,-63.01702277771743,1.3880571111931062,115.64363980617776,36.49770603008285,-102.29290670058927,74.36333061186,-81.1783294909143,70.64646065470046,4.679955766401474,4.757538795471191
-1.7463593015914658,3.714431578501342,-0.12500944806619835,1.4257372578899807,-3.572301268359305,-2.7974718567462804,-63.00978172930047,1.4211558372068787,115.60068487926164,36.464945573064156,-102.29527135304843,74.36244480782,-81.18056098855337,70.645508475692,5.557239372391098,4.7731640338897705
-1.746313132224801,3.7143778414103075,-0.12496448263059405,1.4257834272566456,-3.5723550054503397,-2.797426891310676,-62.9863495240427,1.4991300399683394,115.60514300162822,36.38478872187759,-102.29328980427775,74.36282181469284,-81.17957134776387,70.64640430463749,5.557336738787784,4.797828912734985
-1.7463548926553012,3.7144111374962425,-0.1250126391272036,1.4257416668261453,-3.5723217093644046,-2.7974750478072856,-62.93286958870802,1.451224306591983,115.64608284883185,36.433803608946405,-102.29541648939961,74.36236991388913,-81.18066767261529,70.64562568654028,5.55727819225283,4.822799921035767
-1.7463421273150679,3.714393353783768,-0.1249906785660754,1.4257544321663786,-3.5723394930768793,-2.7974530872461574,-62.949226113264785,1.4465911434673835,115.64468273221483,36.43825169657052,-102.29437673539111,74.36248317721015,-81.18041423205125,70.64598601919859,4.78785540915014,4.840319633483887
-1.7464445639914263,3.7144979396386515,-0.12505241566382805,1.4256519954900202,-3.5722349072219957,-2.79751482434391,-62.885164585500505,1.5715896571746022,115.55849355850606,36.31059632449127,-102.29680093159483,74.36166526363796,-81.1827268330094,70.64446820203938,4.7266492185395474,4.855789422988892
-1.7464335867593208,3.7143727296147264,-0.12506471327560845,1.4256629727221257,-3.5723601172459207,-2.7975271219556905,-62.828452513022626,1.6149274152864448,115.66100202979608,36.26843093543159,-102.29716326002082,74.36102864037153,-81.18391573557346,70.64522481770011,4.637728064322248,4.883509397506714
-1.7464086469995155,3.7144757221350724,-0.12508537025851207,1.425687912481931,-3.5722571247255748,-2.7975477789385943,-62.868565573830395,1.6546979953719632,115.5514560351608,36.22710661927041,-102.29876283167361,74.36188666058874,-81.18182887638429,70.64437067132593,4.834641058051123,4.896699666976929
-1.7464337423529148,3.7144450164216325,-0.12497982203158987,1.4256628171285317,-3.5722878304390147,-2.797442230711672,-62.88712697381109,1.6375198758116165,115.57646784072733,36.24330397851563,-102.29307021860483,74.36168697851701,-81.18288857586401,70.64555697500236,4.834614830688619,4.922051191329956
-1.7463501343040968,3.7144078245110874,-0.12497194303707179,1.4257464251773497,-3.5723250223495597,-2.797434351717154,-62.944478186506615,1.5041596506670618,115.65744882114325,36.380594041924994,-102.29338984915445,74.36252132279823,-81.18047810317367,70.64605360016863,5.716784578478247,4.9345831871032715
-1.746376202236884,3.714465806071718,-0.12498070012988584,1.4257203572445625,-3.572267040788929,-2.797443108809968,-62.97124309165819,1.4744205336937628,115.63598731759657,36.41114027523598,-102.29374687664424,74.36251727627695,-81.18066841051134,70.64552094680545,4.909691093375767,4.962615489959717
-1.7463403115659455,3.7144886110366415,-0.12500183008361243,1.425756247915501,-3.5722442358240056,-2.7974642387636943,-62.933803664731215,1.5626263030769323,115.5823299190803,36.32037117001222,-102.29524199385777,74.36303641017261,-81.1791966901654,70.6452311293352,4.890923787249405,5.002252817153931
-1.7463855110848825,3.7144886224122393,-0.12504458490674092,1.425711048396564,-3.572244224448408,-2.797506993586823,-62.933532002552674,1.493141900381102,115.59474528565356,36.39149841470983,-102.29696207289597,74.36236073555713,-81.18081167680701,70.64472534095533,5.580604479467709,5.014624834060669
-1.7463633785545216,3.7144349490101907,-0.12495272550491271,1.425733180926925,-3.5722978978504565,-2.7974151341849947,-63.009345326336955,1.6381724978814827,115.49082475303193,36.2429143229147,-102.29236401099493,74.36257075564701,-81.18056409497392,70.64602911240262,5.580658156381247,5.040210723876953
-1.7463552499601032,3.714481455988853,-0.12497682470049706,1.4257413095213434,-3.572251390871794,-2.797439233380579,-63.02587474365884,1.6664499960862829,115.46355300308498,36.21503549097734,-102.29380440774453,74.36287881156593,-81.17975339478261,70.64549349290728,4.646939269287855,5.052104949951172
-1.7464255980964407,3.714445260636822,-0.1250205603751359,1.4256709613850058,-3.5722875862238253,-2.797482969055218,-62.945800519649495,1.6826146015527688,115.51548612504688,36.199041840994916,-102.29521778604602,74.36167660970636,-81.18267528764133,70.64517523836109,4.797109293358744,5.077206611633301
-1.7463869420565836,3.714493445742025,-0.12503090809549713,1.425709617424863,-3.572239401118622,-2.7974933167755793,-62.90189034085493,1.6521498539145933,115.55908049816847,36.22982885894752,-102.29626849178109,74.36240922704079,-81.18077829312026,70.64482261596926,4.670385324675798,5.140212774276733
-1.7463875349458304,3.7145063869068378,-0.1250709420828094,1.425709024535616,-3.5722264599538094,-2.7975333507628917,-62.87079017047183,1.7129117684450441,115.5161186085815,36.167385331824086,-102.29833125400876,74.3623677901626,-81.18070579777424,70.64434371976533,5.50551982728529,5.152491807937622
-1.7463882730977924,3.714441644820661,-0.12500081202508212,1.425708286383654,-3.572291202039986,-2.7974632207051644,-62.83928130586792,1.5144653826994576,115.64664846628514,36.367456027246774,-102.29457575616044,74.36217040550335,-81.18141206651951,70.64546620064009,5.505587367211273,5.17815375328064
-1.746378797281713,3.7144650325372806,-0.12501561109964648,1.4257177621997335,-3.5722678143233666,-2.7974780197797284,-62.96576800554965,1.5440285856270903,115.58061214138792,36.3403636795664,-102.29548946134514,74.36238442449485,-81.180824812505,70.64518148977949,4.825258288934756,5.215478181838989
-1.7463807168359387,3.714462578819474,-0.1250557345000831,1.4257158426455079,-3.5722702680411733,-2.7975181431801652,-62.93503305640457,1.5911284045018534,115.52685160211725,36.2912987574809,-102.29749808565342,74.36223561761972,-81.1809875242174,70.6448041429591,4.797132780107575,5.244537353515625
-1.7463574638199824,3.7145003084696806,-0.12499818110294392,1.4257390956614642,-3.5722325383909665,-2.797460589783026,-62.91142033727504,1.5339550916016713,115.5664019150531,36.34778313631605,-102.29492136288087,74.36290374289152,-81.1796322700624,70.64515270847737,4.797055071802007,5.257194995880127
-1.7464655119168322,3.714490256597134,-0.1250544129540037,1.4256310475646143,-3.5722425902635133,-2.797516821634086,-62.881831706321414,1.722620720825479,115.52776745998611,36.15838278591773,-102.29667169094762,74.36135593279107,-81.18354032306507,70.64445955469613,4.721956263869183,5.295854568481445
-1.7463088605912693,3.7144203324569807,-0.12492886408989509,1.4257876988901772,-3.5723125144036665,-2.797391272769977,-63.01229457743185,1.4285493493381012,115.65567046326672,36.45714829306832,-102.29165119823773,74.36322323184459,-81.17884225348584,70.64646930410181,4.8159509430101055,5.32143497467041
-1.7464687361445215,3.7144964653337076,-0.12507646387635454,1.425627823336925,-3.5722363815269396,-2.7975388725564367,-62.900692897104975,1.6205731821289933,115.5464042398175,36.262386476765975,-102.29777633526159,74.36129193132898,-81.18361065521604,70.64419628936685,4.9237019326429134,5.334434509277344
-1.7464375161753674,3.714515675975125,-0.12510409834582847,1.4256590433060792,-3.572217170885522,-2.7975665070259104,-62.85285656562433,1.7265867801137478,115.47349650462692,36.15247941856524,-102.299544312607,74.36171425898887,-81.18235363715543,70.64385846956795,4.9237081758553325,5.360531568527222
-1.74631426881437,3.714454031522106,-0.125079717304161,1.4257822906670765,-3.572278815338541,-2.797542125984243,-62.87984723677544,1.5335378456452253,115.60171711288716,36.349818026798005,-102.29934846962031,74.36293916156633,-81.17886336012343,70.64476125993461,4.6329964974381665,5.399492025375366
-1.7463214068709747,3.714494365930288,-0.12504444846593196,1.4257751526104718,-3.572238480930359,-2.797506857146014,-62.9299063845799,1.4636919600812188,115.561419408976,36.419436596970506,-102.29760812303735,74.36318612380835,-81.17855117358796,70.64481488086919,5.613483532051277,5.412320613861084
-1.7463475197382716,3.7144105788188964,-0.12495968958358918,1.425749039743175,-3.572322268041751,-2.7974220982636715,-62.93048755781034,1.4612122911162153,115.67556468320277,36.42339787108151,-102.29280244745102,74.36260361383329,-81.1803344118663,70.64615919095623,4.862873693315145,5.436993360519409
-1.7463513012693956,3.7144254044449823,-0.12499720953197663,1.425745258212051,-3.572307442415665,-2.797459618212059,-62.967888671015274,1.5230709313346917,115.5726110719295,36.36036497600122,-102.29471174060029,74.36254089629139,-81.18034341581452,70.64568555089538,4.769031978250306,5.462266683578491
-1.7463943933230857,3.714439916745199,-0.12504669796677376,1.4257021661583609,-3.5722929301154482,-2.797509106646856,-62.92819064682096,1.602382357044607,115.51113388236121,36.27896892282392,-102.2968370966954,74.3619581468182,-81.18171890574027,70.64501949850774,4.651710474357004,5.476806879043579
-1.7463393503442246,3.714475563802627,-0.12504098753813575,1.425757209137222,-3.57225728305802,-2.797503396218218,-62.909123593927475,1.4854170093635866,115.57326590649532,36.39729450772555,-102.29719895928123,74.36286337237827,-81.17939000273212,70.64494119301864,4.604770502199598,5.501999139785767
-1.7463714557500187,3.71444394220827,-0.1250038145838431,1.4257251037314278,-3.5722889046523774,-2.797466223263925,-62.959205167573394,1.554553446057761,115.54981651396774,36.32815331099673,-102.29490163115716,74.36238322615304,-81.18081433714045,70.64545474561194,4.661080200691607,5.516995429992676
-1.7464045033180824,3.7144645253361803,-0.12502091360212664,1.4256920561633641,-3.572268321524467,-2.7974833222822086,-62.92038820385307,1.5373866880247433,115.56726181250319,36.34525224712051,-102.29550189005964,74.36204955455227,-81.18171791161473,70.64508227790965,4.684490178786394,5.5420777797698975
-1.7464133488558182,3.714480159932652,-0.12500341423216021,1.4256832106256283,-3.572252686927995,-2.797465822912242,-62.92293305816748,1.6316381650285217,115.5317707031294,36.24952547716531,-102.29457287676347,74.36208080993215,-81.18179815075318,70.64512822005379,4.684448119443166,5.554238319396973
-1.7462725265777814,3.71439654350237,-0.12502666267629006,1.425824032903665,-3.572336303358277,-2.797489071356372,-62.94206724506869,1.5614007650256516,115.5245891066097,36.3196805991123,-102.29690172117232,74.3632617665906,-81.17805764509227,70.6457525592707,4.684701630045403,5.578612565994263
-1.7463617947839474,3.714440854270006,-0.1250308343834266,1.4257347646974992,-3.572291992590641,-2.7974932430635087,-62.94130341138597,1.7524272607185962,115.44139719914173,36.12628842417943,-102.29635870419932,74.36240974529156,-81.18056747931641,70.64523220131831,4.65641531065802,5.61862325668335
-1.7463929824875482,3.7144584716483093,-0.12495726348158853,1.4257035769938984,-3.572274375212338,-2.797419672161671,-62.967116935931394,1.4973348140150367,115.61862306796091,36.38701365106576,-102.29237011247317,74.3623315506195,-81.18129289128703,70.64576561496669,5.641592995203095,5.645037651062012
-1.7463266450200037,3.714467029778918,-0.12498386075779502,1.4257699144614429,-3.572265817081729,-2.797446269437877,-62.886208375379375,1.6010467278035738,115.61310204243456,36.28076302391601,-102.29440233419363,74.36312740295872,-81.17896590313569,70.64558034693614,5.604107521968598,5.657729625701904
-1.7463620893894418,3.714343536829152,-0.12491057714236947,1.4257344700920047,-3.572389310031495,-2.7973729858224514,-62.79664719420517,1.7591504089458636,115.64452502526699,36.11834229357182,-102.28996885096686,74.36216393115878,-81.18157658550248,70.64706542681037,4.5720574730250405,5.69442892074585
-1.7463547801501074,3.7143626299926273,-0.12498573732746035,1.4257417793313392,-3.57237021686802,-2.7974481460075427,-62.81037243630428,1.7140662599046055,115.62081461034018,36.16492782518875,-102.29390978439503,74.36215950543307,-81.18121688296169,70.64621858549904,4.778510669000994,5.7200751304626465
-1.7463714152820387,3.714209717454106,-0.12480924690755775,1.4257251441994079,-3.572523129406541,-2.79727165558764,-62.949645251847635,1.765040938416225,115.50359018765556,36.10982445568784,-102.2843415137241,74.36153908579563,-81.18337595209717,70.64894564161814,4.736427506196301,5.732703447341919
-1.7465527856948742,3.713845306055273,-0.1216296588017787,1.4255437737865724,-3.572887540805374,-2.794092067481861,-63.485449788057025,1.6842976677023511,114.57256657365639,36.09852022642912,-102.12014201445245,74.36585137851179,-81.18877684880925,70.68201165615122,4.70697493388484,5.798546314239502
-1.7483115082306018,3.7125596180263267,-0.1095818847313775,1.4237850512508448,-3.5741732288343204,-2.7820442934114595,-64.31159705572564,0.847310565756248,112.83921568045002,36.60207250172887,-101.48733666415288,74.36838120640795,-81.24520696747905,70.80472959981658,4.616646522837431,5.878845930099487
-1.7493380608106917,3.7119122816857937,-0.10296095390167852,1.4227584986707549,-3.5748205651748535,-2.7754233625817606,-64.57012321227344,0.6337711017152613,112.92567563096313,36.68148968865547,-101.13904334255008,74.36860469862182,-81.27792097773194,70.87178610032727,4.730563008313224,5.908687591552734
-1.7498957491142304,3.711554752532267,-0.09939268874493995,1.4222008103672161,-3.57517809432838,-2.7718550974250222,-64.71578973295112,0.3733347610824892,112.89597936000023,36.86479976538275,-100.95124945056328,74.36839147252954,-81.29592723515492,70.90801608963,4.728752156492095,5.92399263381958
-1.750476647616055,3.7114336378440616,-0.0963511492149029,1.4216199118653916,-3.5752992090165856,-2.768813557894985,-64.66536638249423,0.5540677597453499,112.83230491842662,36.60736650208978,-100.7907635254937,74.3678599182945,-81.31270019405959,70.93746242832722,11.295296412802582,5.936359167098999
-1.7512004205561797,3.710813692910132,-0.08973473637212068,1.4208961389252668,-3.5759191539505153,-2.7621971450522027,-64.73914696803566,0.6302300756181122,113.1926731189869,36.39737222249343,-100.44523900470638,74.37089839991701,-81.33505951023471,71.00509315555742,3.949476539460811,5.96169114112854
-1.7516071052757967,3.710749670185189,-0.08628933946099407,1.4204894542056499,-3.575983176675458,-2.7587517481410764,-65.02718832799751,0.6007262977196551,112.9875548599892,36.350666490157614,-100.2656823226329,74.37342907411933,-81.34454311754591,71.03853600646434,4.866938422448802,5.974066257476807
-1.7528257965885892,3.7102680425035715,-0.07932503196898365,1.4192707628928574,-3.5764648043570757,-2.751787440649066,-65.36834353534627,1.590647774810729,112.55378356597745,35.19362676419672,-99.89856163096856,74.37107457106046,-81.3822557291275,71.10781426731155,4.862937780739171,5.999936819076538
-1.753022197808509,3.7100042652161602,-0.07593789063593656,1.4190743616729375,-3.576728581644487,-2.748400299316019,-65.23417061188623,1.6198757391763698,112.6616854556846,35.08217910601865,-99.72301312451897,74.37446869280195,-81.38713728365866,71.1425440812333,4.861327457353733,6.012303113937378
-1.7542049476989476,3.7096041432306266,-0.0679914646781609,1.417891611782499,-3.5771287036300206,-2.740453873358243,-65.56424806350068,1.1242297600189641,112.2839915363049,35.390421990803766,-99.30608519551933,74.37418099059974,-81.42142324379483,71.22119872376553,2.7969724651251706,6.0411460399627686
-1.7546904157611225,3.7096146033572093,-0.06479371756357949,1.417406143720324,-3.577118243503438,-2.7372561262436617,-65.26569510854691,0.689150059125673,112.5917381883065,35.752627139886364,-99.13867514216503,74.37474229541529,-81.4334520200972,71.25171434179654,4.793490770517343,6.053424119949341
-1.7557649422049055,3.7092211977091134,-0.0578718074496956,1.416331617276541,-3.5775116491515337,-2.7303342161297777,-65.40343816002434,0.6986415527951404,112.50053031863749,35.58396890788945,-98.77513536668344,74.37275611457994,-81.46586939138767,71.32061693334273,-0.057135654932076285,6.0788750648498535
-1.7558776395575058,3.7086489894743395,-0.054713377454036705,1.4162189199239408,-3.5780838573863076,-2.7271757861341186,-66.08090454917873,1.2075088297219023,111.36190342553307,34.971210358489365,-98.61086716377413,74.37403379829672,-81.4723608552125,71.355504850088,4.690014645944023,6.093552827835083
-1.7568444637426386,3.708574609093371,-0.047381574944688615,1.415252095738808,-3.5781582377672763,-2.7198439836247705,-65.74184847691335,0.9956755856712046,112.11813437437738,35.036625742013186,-98.22776367536858,74.3751680416412,-81.49651918979552,71.42670076224829,4.718132367220217,6.120577573776245
-1.7575347925020741,3.7085584211904847,-0.044040477591283836,1.4145617669793724,-3.5781744256701624,-2.716502886271366,-65.78282995238516,1.1785739341142165,112.00047786166999,34.77325520911183,-98.05167813207842,74.372446667492,-81.51634617933536,71.45856520700674,11.45313919867177,6.135263681411743
-1.7586277762410556,3.7078038627305263,-0.03702435453512659,1.413468783240391,-3.578928984130121,-2.709486763215209,-65.87114419069715,1.0932009829843428,112.2006080172522,34.70754689118904,-97.68263779681388,74.36645084623103,-81.55482299270636,71.53113613275991,-0.0264307653592315,6.165982723236084
-1.7588314395884184,3.707692471927113,-0.03462484668489585,1.4132651198930282,-3.579040374933534,-2.707087255364978,-65.82690681298345,0.870139592940741,112.28495587145684,34.87584134777981,-97.5577896878572,74.3672617466009,-81.55998743900031,71.55533823314566,-1.102167926586847,6.17798113822937
-1.7600450865940354,3.7068010004891634,-0.0272622928005498,1.4120514728874112,-3.5799318463714838,-2.699724701480632,-65.66504739090729,1.0649076158371515,112.36827908230289,34.503055083569066,-97.17023336915607,74.35865760770919,-81.60457340115796,71.63218538772323,0.20794817543848865,6.217103719711304
-1.760972838811862,3.7065271745103123,-0.02071102501464958,1.4111237206695846,-3.580205672350335,-2.6931734336947315,-65.44421793717395,1.2468884989432172,112.62867547357567,34.169825084150496,-96.82757952088974,74.35543449744743,-81.63217473629436,71.69748836381976,0.15708869515894452,6.254085540771484
-1.7616523131964774,3.706042093791801,-0.014742967273071478,1.4104442462849691,-3.580690753068846,-2.6872053759531536,-65.38925637231839,0.3222021969874718,112.75550052324448,34.95681121935703,-96.51588346254205,74.35270740639181,-81.65459416872879,71.75898327151438,0.15400736658002767,6.285677433013916
-1.7616385916807245,3.705770550427892,-0.011476314684062933,1.410457967800722,-3.580962296432755,-2.683938723364145,-65.56458111425319,-0.23715668164898945,112.53120656733765,35.43468365095815,-96.34710423314749,74.3558308986649,-81.65286717020395,71.79350192410033,0.14791911959750603,6.3036956787109375
-1.7618674027077479,3.705505798313659,-0.008695118183199096,1.4102291567736986,-3.5812270485469884,-2.6811575268632812,-65.67524419442769,0.20617890632330466,112.2491068380246,34.91594946866268,-96.2021753696262,74.35516966790954,-81.6606831255519,71.82264651632221,0.09030869036380729,6.3186821937561035
-1.7620494154213733,3.705268314798231,-0.006252810288240901,1.4100471440600733,-3.5814645320624163,-2.678715218968323,-65.7178786788418,0.31135752100026903,112.1378727704301,34.748391831571645,-96.07498154551857,74.3547182319713,-81.66694056518821,71.84832633497683,4.654266993944351,6.33186149597168
-1.7624594967744316,3.7047237014809657,-0.001548981156683421,1.409637062707015,-3.5820091453796814,-2.6740113898367657,-65.61029183592855,0.15973290936574758,112.2657189185607,34.7879528539052,-95.82958329011456,74.35237321167206,-81.68242215792178,71.89828603597523,-0.030185994461316312,6.3564746379852295
-1.7625723906622823,3.7043232151134213,0.0033181895996707567,1.4095241688191642,-3.582409631747226,-2.6691442190804113,-65.42301249293631,0.2777210557823735,112.61118985139615,34.56006295694382,-95.57726715189236,74.35454693166477,-81.6848023991044,71.94957620679041,0.09430096225486562,6.381351470947266
-1.7627015297351425,3.7042767314205087,0.006201648372422541,1.409395029746304,-3.5824561154401384,-2.66626076030766,-65.14465085643813,0.028826849069402853,112.85117672652498,34.738630680575575,-95.42786540013333,74.35605684951227,-81.6859547417072,71.97858723113464,0.09263845916927593,6.39611554145813
-1.762460952356342,3.7038525513308107,0.012714953123505734,1.4096356071251046,-3.5828802955298364,-2.6597474555565763,-64.97975221390953,-0.24002769087817377,112.86936417997036,34.84056026487448,-95.0915988425353,74.36387973371863,-81.67304896890857,72.04740224549893,0.03819226591329361,6.425991773605347
-1.7626514868050887,3.7035818161229987,0.0162433806283499,1.4094450726763579,-3.5831510307376484,-2.656219028051732,-65.04477734715766,-0.18849891322884715,113.03797539663029,34.71605930925375,-94.90809873538231,74.36362282188799,-81.6785650680012,72.08434577856804,0.045871356418337506,6.44107723236084
-1.7626449197218448,3.7033894704520165,0.019550841895252108,1.4094516397596017,-3.5833433764086307,-2.65291156678483,-65.04255769625138,-0.07162883358892805,113.05460063060892,34.51955458106548,-94.73679980517588,74.36594103003134,-81.67598249059031,72.1189669871175,0.1569077895868114,6.455829858779907
-1.7627762052913754,3.703305887072633,0.02574196199742429,1.4093203541900712,-3.583426959788014,-2.6467204466826577,-65.14979326685042,0.17807461014028927,112.7375862244575,34.11081073522862,-94.41605249619023,74.36977082596911,-81.67273696340341,72.18171038134504,0.1111815168391388,6.4831578731536865
-1.7623647006416183,3.703203871902734,0.028521398198585457,1.4097318588398282,-3.5835289749579133,-2.6439410104814964,-65.32862970160822,0.05295902589078076,112.5725422345363,34.16739434854171,-94.27323547741379,74.3768756413799,-81.65441744778143,72.21128623638342,0.01622542009806871,6.494848728179932
-1.7618664917917013,3.7027523654312184,0.042022058789530164,1.4102300676897452,-3.5839804814294287,-2.6304403498905518,-65.2480968682954,-0.628340461343365,112.7538217282893,34.52542099082319,-93.57424061222325,74.3914303295652,-81.62093455879437,72.35188176547143,0.18319554977053798,6.550390958786011
-1.7615815462617574,3.702582681012976,0.047803563399674565,1.410515013219689,-3.5841501658476713,-2.6246588452804076,-65.40056776490044,-0.3291318407892117,112.52323368671986,34.08060192221615,-93.2746602878685,74.3980317892754,-81.60334168695553,72.41220540103139,0.1803663127009294,6.574140548706055
-1.7611238670365765,3.702597344609482,0.05455501750943351,1.41097269244487,-3.584135502251165,-2.6179073911706485,-65.14973275492221,-0.5428907006163106,112.71073009161496,34.126378378313916,-92.92501522665337,74.40807775997104,-81.5748574023136,72.48158195559378,-0.13286213797032875,6.600626230239868
-1.7611167060172328,3.7025335284289036,0.05774568582018247,1.4109798534642137,-3.5841993184317436,-2.6147167228598995,-64.998822603832,-0.63708042045309,112.89828326720956,34.14554315550642,-92.75919871984668,74.40957160273643,-81.5703377327038,72.51446017820982,-0.1345865888020441,6.612825870513916
-1.7605708916782623,3.70230781407152,0.06511912655426277,1.4115256678031842,-3.584425032789127,-2.6073432821258193,-64.59889646348174,-0.9910625632826661,113.46659192103428,34.327136154158474,-92.37639205714736,74.4187568854419,-81.54044895593242,72.59209868266842,-0.25065886413145844,6.640248775482178
-1.7599471078107911,3.7022965979933824,0.06981543230326043,1.4121494516706554,-3.5844362488672648,-2.6026469763768216,-64.63854718426181,-1.2954472949663818,113.50205242767869,34.51901187487042,-92.13276901974257,74.42854131919105,-81.5086721376825,72.64127663775587,-0.16843909046190486,6.657726764678955
-1.75980349171951,3.7023751742036977,0.0739170912163602,1.4122930677619365,-3.5843576726569495,-2.598545317463722,-64.66038275996085,-1.2231737093755297,113.37115420883757,34.34208737370742,-91.91955494830269,74.43233483589013,-81.49511151653329,72.68289311373063,-0.17083209133376265,6.672054767608643
-1.7590330590785181,3.702536017831125,0.0805695956937324,1.4130635004029284,-3.5841968290295223,-2.59189281298635,-64.84362531254084,-1.071237949653875,112.94322591894169,34.01289106593016,-91.57383471981164,74.44503437147343,-81.45146917518552,72.75130586639722,-0.0336256314430452,6.695759534835815
-1.758799476716783,3.702694466212964,0.0877706593017703,1.4132970827646636,-3.584038380647683,-2.5846917493783117,-64.63244027776149,-1.3473061095202732,113.14759142175814,34.114661999445495,-91.19890559353755,74.45050051587583,-81.42758166339274,72.82440729568239,0.00434258544486088,6.719714403152466
-1.7585604619929416,3.7027396628255205,0.09126363968438142,1.413536097488505,-3.5839931840351267,-2.5811987689957006,-64.53348843760307,-1.552150749704218,113.17741229210046,34.23015815517912,-91.01691740864743,74.45432071870496,-81.41140885531493,72.86036460899028,-0.2837767789150849,6.7312798500061035
-1.757990719280525,3.7026577459478967,0.09830813314891479,1.4141058402009214,-3.5840751009127505,-2.5741542755311673,-64.51056312335139,-2.1848887321849486,113.17510758353554,34.68822384829731,-90.64939790871189,74.4616405083118,-81.37755868659637,72.9342816958483,-0.0198708654204669,6.75417685508728
-1.7566651468534844,3.7029620914237458,0.12385117071310953,1.4154314126279621,-3.5837707554369014,-2.5486112379669725,-65.46932898328691,-1.664606347397433,112.06147117735338,33.53376820298893,-89.31583761348803,74.47733441316373,-81.27301284144744,73.1978688164295,-0.07646657142113789,6.833494424819946
-1.7564446772904347,3.703229334752865,0.13230766883700917,1.4156518821910118,-3.5835035121077823,-2.540154739843073,-65.25510573170376,-0.895142442500162,112.21146756939753,32.55430783589485,-88.87448986019945,74.47900758995881,-81.2439711132583,73.28396391746271,-0.03006794677948399,6.860023498535156
-1.7562076266451179,3.703155710075707,0.136556776486762,1.4158889328363287,-3.5835771367849403,-2.53590563219332,-65.32012834075266,-0.8928368889776312,112.05505852322449,32.44057031760452,-88.65227227467298,74.47986314718084,-81.22716330453153,73.32889726473752,-0.046321965628473905,6.8727264404296875
-1.7554107862506765,3.7036268549670672,0.14649321464573267,1.41668577323077,-3.58310599189358,-2.5259691940343494,-65.18308601029383,-2.2595915279535306,112.45154463502489,33.5839344959712,-88.13241931355434,74.48791164789131,-81.1679985755463,73.43035407896339,-0.20246224020400394,6.903233289718628
-1.755186676755589,3.703646580452094,0.15525079575666606,1.4169098827258575,-3.583086266408553,-2.517211612923416,-65.33704023639051,-2.38749419054692,112.21370479031482,33.492462958038175,-87.67509804679102,74.48559856238998,-81.14074756097912,73.52167864099121,-0.015086022076849837,6.930458068847656
-1.7551519335019203,3.70379362139182,0.16331901409343996,1.4169446259795262,-3.5829392254688273,-2.5091433945866424,-65.43694691406213,-1.9610550474056905,111.99592693972406,32.86164341816445,-87.25464149304612,74.4812463910917,-81.12052683656826,73.60481383606768,0.13949105664939143,6.955790996551514
-1.7546292360874698,3.7038441586922777,0.1705753242030389,1.4174673233939767,-3.5828886881683695,-2.501887084477043,-65.61997083255405,-1.8760773634691401,111.79787731775158,32.59625045531795,-86.8748831518348,74.4823479949256,-81.08286545541921,73.68116131660135,-0.12250732262662378,6.97892951965332
-1.7544997452086695,3.704102807705098,0.1743934096628869,1.417596814272777,-3.582630039155549,-2.498068999017195,-65.73947907589148,-1.8422373283533322,111.67387307918248,32.46979509787673,-86.67576529388573,74.48222897104982,-81.06547687223677,73.71959212130554,-0.05470955922863929,6.990925550460815
-1.7538884931943277,3.704239943891522,0.18177275753525296,1.4182080662871188,-3.582492902969125,-2.4906896511448293,-65.78685940621317,-2.4524622169141135,111.74041598706592,32.9066348195777,-86.28929771187892,74.48385490825561,-81.02190401387018,73.79700781796575,-0.05882086453295976,7.0146307945251465
-1.7538702665677337,3.704659326058067,0.18959558639304863,1.4182262929137128,-3.58207352080258,-2.4828668222870336,-65.8406050877986,-2.8648100455881726,111.67977047821095,33.13054916522904,-85.88263495600881,74.47857698844435,-80.99765752602752,73.87627564959632,0.10479349045500808,7.039858102798462
-1.7539426650571894,3.7046736876031345,0.19768768123684471,1.418153894424257,-3.5820591592575126,-2.4747747274432372,-65.44830825466614,-2.6800114122475973,112.15106171639097,32.754364236254276,-85.4627270885641,74.46867405603699,-80.98258540580962,73.96101671119438,-0.24723504040219524,7.066043853759766
-1.7542538046984932,3.7051492599448466,0.2019464293316085,1.4178427547829533,-3.5815835869158006,-2.4705159793484737,-65.13800129649555,-2.662197052205931,112.28873724008359,32.62446091185258,-85.24357834937715,74.4625301594676,-80.97904871358413,74.00212557215396,-0.049027760252085884,7.079344749450684
-1.753957123831188,3.7049073020987078,0.20599080773540235,1.4181394356502586,-3.5818255447619394,-2.4664716009446797,-65.29301569869767,-2.594615137383873,112.15042560895672,32.45629777641544,-85.0322719585762,74.45975547917503,-80.9609929938909,74.04681258033635,-0.036708971256876666,7.091891050338745
-1.753493362241838,3.705387410138497,0.21427699863205613,1.4186031972396085,-3.58134543672215,-2.458185410048026,-65.72946363306812,-2.4057761239960986,111.68597527427717,32.062775483165,-84.60062394250434,74.45749986624963,-80.91473707942606,74.13184608322393,0.05646369091421999,7.117280006408691
-1.753516498363266,3.705747884186966,0.22722808328588595,1.4185800611181805,-3.580984962673681,-2.445234325394196,-65.74338302318232,-2.7839053641501756,111.65994772582805,32.12595827732347,-83.93127690165541,74.44060259477094,-80.87992418950185,74.26630452128309,0.12325622813683079,7.157829284667969
-1.7532619006013463,3.7059382911506202,0.23611372977302175,1.4188346588801002,-3.580794555710027,-2.4363486789070605,-65.56900178625612,-3.4413286836772223,111.9821266886597,32.57760009986828,-83.47125945054871,74.43088331463764,-80.84467732486063,74.35964615509229,0.11786525570249573,7.184611797332764
-1.7532522384527272,3.705936520881501,0.23987580275862325,1.4188443210287194,-3.580796325979146,-2.432586605921459,-65.79423478424259,-3.5138591039105602,111.63850486524125,32.54911218256046,-83.27738424389851,74.4247617303989,-80.83522089333741,74.39958832789688,0.11564734199496574,7.196569442749023
-1.7531870188426293,3.7063582221199627,0.2522388261148829,1.4189095406388172,-3.5803746247406845,-2.420223582565199,-65.70395650379338,-3.2801353501357915,111.6967522086945,32.011730872291764,-82.6412182455728,74.40644554783023,-80.79545821158133,74.52836942302913,-0.12224371520318833,7.233401775360107
-1.753391172969788,3.706611323665217,0.2615730826267919,1.4187053865116586,-3.58012152319543,-2.41088932605329,-65.62063178274362,-3.454683121054656,111.72957074072767,31.95615119166208,-82.16414866193455,74.38787244278966,-80.77730137021598,74.62584039833939,0.01707894158290557,7.2611308097839355
-1.753075062998328,3.706690366001159,0.2657810563380828,1.4190214964831185,-3.580042480859488,-2.4066813523419994,-65.87353003097576,-3.8940619570257318,111.56448550753393,32.29854500280955,-81.94621914747862,74.3840243677666,-80.75128236246319,74.67078675593271,0.014677428991775265,7.2730467319488525
-1.7533853686894383,3.7069404713286978,0.2806255131552718,1.4187111907920082,-3.5797923755319494,-2.3918368955248104,-65.97254085339867,-3.754186494763255,111.34094048359317,31.787071581926412,-81.1909926777108,74.3509106303404,-80.72327041001972,74.82742156852721,0.08494837363651708,7.3163769245147705
-1.7536460289062914,3.706993603229788,0.29398262401977887,1.4184505305751551,-3.579739243630859,-2.3784797846603034,-65.64639353819368,-3.6916840679641885,111.77525590789547,31.40709138997421,-80.51451220152833,74.31812794053407,-80.69946404762067,74.96998367746264,0.13769137897681372,7.3551411628723145
-1.7539230907839267,3.706944515609796,0.3025361951390979,1.4181734686975198,-3.579788331250851,-2.3699262135409844,-65.26310150372325,-3.2266951604739322,112.3208565922283,30.745707846676495,-80.08408514215004,74.29419721482093,-80.69041020030731,75.06186287449546,0.06208321349650614,7.380843639373779
-1.754004852143685,3.7069919746522078,0.3068129655134467,1.4180917073377615,-3.5797408722084394,-2.3656494431666353,-65.34678335406613,-3.2438012243178664,112.27199700636471,30.661155952562886,-79.86881773085237,74.283053282798,-80.68200707738875,75.10750244678688,0.04061813057043562,7.393127679824829
-1.7539238686162222,3.707322766448588,0.31648456733041025,1.4181726908652244,-3.579410080412059,-2.355977841349672,-65.64533481842082,-3.672452778782217,111.96765767244658,30.853297541115996,-79.38042322918695,74.2617000465681,-80.64661785309872,75.20988925077718,-0.12049882981410853,7.421313285827637
-1.7542735814650183,3.707467840754383,0.3293280313948586,1.4178229780164282,-3.5792650061062643,-2.3431343772852236,-65.64988301266357,-3.95195080756002,111.69933136886402,30.797862052273043,-78.73940487780754,74.22430977925688,-80.62531864012786,75.34734968570218,-0.1146270727274965,7.4594995975494385
-1.7543786291153225,3.70771456900469,0.34180721391084085,1.417717930366124,-3.579018277855957,-2.3306551947692413,-66.04945571421686,-4.104465402214647,111.21580226302166,30.63727014482741,-78.11712634099487,74.18972071431169,-80.59116794662657,75.48102228835371,-0.05223988909605737,7.496351480484009
-1.75516465359793,3.7073812368371875,0.3607376744385301,1.4169319058835166,-3.5793516100234597,-2.311724734241552,-65.22178040991018,-4.051902397088089,112.50786367871758,30.15988777117272,-77.18729590997518,74.1220396144989,-80.58064972764406,75.6880554846114,0.10994784168770178,7.555883884429932
-1.7546342682161313,3.707778270201837,0.37285395467564597,1.4174622912653152,-3.57895457665881,-2.299608454004436,-65.54512123436216,-4.553833387673206,111.96146903828729,30.343903182923334,-76.58317164479077,74.09289083122097,-80.51235866074892,75.8188159048325,0.10236236277789068,7.592463731765747
-1.7549601850219176,3.7074459660183217,0.38147886427357025,1.417136374459529,-3.5792868808423255,-2.2909835444065116,-65.50063696872493,-5.019148385499145,111.95797738992712,30.592587243218915,-76.1643706738825,74.05891230649765,-80.50847379696921,75.91490551177569,0.027101693552641137,7.619671106338501
-1.7547639389958918,3.7074294560582017,0.38546084230443844,1.4173326204855548,-3.5793033908024454,-2.287001566375644,-65.59608459669697,-5.1111244012805415,111.84108205868624,30.582948226439058,-75.96699877610433,74.04796929449,-80.48704279782807,75.95901434755473,-0.06896557091157085,7.6319355964660645
-1.7546546490507493,3.7075081785428017,0.39841607761705344,1.4174419104306972,-3.5792246683178455,-2.274046331063029,-65.4858014833192,-4.987475821569988,111.95514542463873,30.138595099586666,-75.3338875316132,74.00558006997099,-80.44044152253296,76.10109264965341,0.01698179406648226,7.671546697616577
-1.7545934750489915,3.7073536187468754,0.40711671977551434,1.417503084432455,-3.5793792281137717,-2.265345688904568,-65.59411796755995,-5.295934270185261,111.80896823000933,30.227216373802335,-74.9111969435188,73.97468695796225,-80.4128930628831,76.198041898549,0.012020969401361548,7.6982197761535645
-1.7544932650428118,3.7071591011770346,0.41104338539028795,1.4176032944386348,-3.5795737456836125,-2.261419023289794,-65.61305644885194,-5.969125439799305,112.00207296522613,30.821074468655375,-74.7201456766274,73.96059017316425,-80.39889086631527,76.24276200801745,-0.013412280167415247,7.710609674453735
-1.754884659927651,3.7070552954903633,0.41838636032831467,1.4172118995537955,-3.579677551370284,-2.2540760483517674,-65.19559286485348,-5.025893775423905,112.43633180875025,29.698231656486083,-74.37169846430537,73.92844390780225,-80.3972669596717,76.32393065611336,0.0617801924329191,7.733201742172241
-1.7547131000716372,3.707278047050171,0.4305684130670703,1.4173834594098094,-3.579454799810476,-2.2418939956130117,-65.07767080172457,-5.296251716226619,112.34557895306783,29.648284351060493,-73.7843730619754,73.88607027748452,-80.34486093812625,76.45766732767719,0.03536487310813907,7.7697954177856445
-1.7547135205679607,3.7067570504763774,0.43860364867104595,1.4173830389134858,-3.5799757963842698,-2.2338587600090363,-65.23078638599385,-5.492206450612906,112.17572198882732,29.64051029123202,-73.40151685857612,73.85185522643548,-80.32793414765555,76.55012697591442,0.017291756785089873,7.794397354125977
-1.754576846629015,3.7070343209410885,0.44737739036367163,1.4175197128524315,-3.5796985259195586,-2.2250850183164106,-65.33495220563606,-5.603353160220056,112.10864580140793,29.53818141392401,-72.98201507931687,73.82049473112681,-80.2861634424395,76.6461243507278,-0.03533520717321359,7.820069313049316
-1.7544641090897164,3.706984284731739,0.45173562878148754,1.4176324503917301,-3.5797485621289082,-2.2207267798985946,-65.58099007534808,-5.969595741421597,111.75575276174148,29.78524117849715,-72.77390765725568,73.80400630476032,-80.26631768270695,76.69513326590763,-0.03782007225088524,7.832783460617065
-1.754415545112105,3.7066774203922743,0.46090348218437005,1.4176810143693415,-3.580055426468373,-2.2115589264957123,-65.59716052034281,-6.2990664472570055,111.74521316378507,29.885774045977936,-72.34090716187666,73.76522620142926,-80.23786509412676,76.79935872870797,-0.04284810358877511,7.860631465911865
-1.7545734248480749,3.7068034242567696,0.46503304838656967,1.4175231346333717,-3.5799294226038776,-2.2074293602935127,-65.72171884434468,-6.043534809616431,111.5770749376379,29.52448560858016,-72.14900319726091,73.74697180921245,-80.22946472675277,76.84443832296216,0.05751980874723017,7.872690677642822
-1.7545116039876638,3.706777672069295,0.473293264143515,1.4175849554937827,-3.579955174791352,-2.199169144536567,-65.33058247557871,-5.873347849320253,111.93147588255182,29.14404997175639,-71.76095961754147,73.71269388095003,-80.19747098575067,76.93705226080714,-0.06941748988393837,7.897993087768555
-1.754690111089494,3.706556036492461,0.47723812158784773,1.4174064483919526,-3.580176810368186,-2.1952242870922345,-65.17177405150963,-5.949512339606624,112.09287049367514,29.12233570595304,-71.580000179975,73.69236930012404,-80.19725301258326,76.98234585056167,0.10201353924651002,7.910154581069946
-1.7538350081113918,3.706544114819946,0.48515818483165263,1.4182615513700547,-3.580188732040701,-2.1873042238484297,-65.41442913627647,-7.407268775614742,112.0370599113479,30.398322641776996,-71.19730910416735,73.66791283036808,-80.12244808263081,77.07246986662761,0.13067301850257795,7.934117794036865
-1.7550015148993143,3.70573101467236,0.497124317036189,1.4170950445821322,-3.5810018321882873,-2.1753380916438934,-64.759413693056,-5.62818958753909,112.66046320493828,28.318809573604696,-70.66449083149335,73.5962599644708,-80.1580348878588,77.21028102455654,-0.04034108918716939,7.971789360046387
-1.7544277870892264,3.7059019133895195,0.5055439003959937,1.4176687723922201,-3.5808309334711277,-2.1669185082840885,-64.75580074562697,-5.46154456821249,112.580273411735,27.93030407347084,-70.26721455803974,73.56575689206878,-80.09156354076899,77.30484834199942,0.18453466150593112,7.996447563171387
-1.7539964928272296,3.7057206550843076,0.5176948814547415,1.418100066654217,-3.5810121917763396,-2.1547675272253404,-65.51179058883773,-6.605404077835375,111.808275062574,28.767152990913655,-69.70454319063417,73.51326350822127,-80.02447066103456,77.44370797919827,0.05572985487523496,8.032273054122925
-1.754241374078143,3.705362943341936,0.5262435887999729,1.4178551854033035,-3.581369903518711,-2.1462188198801093,-65.18157716393902,-6.814186658640521,112.26169458647503,28.7757248843675,-69.32119663548832,73.4677489318648,-80.0119640737218,77.54226195743404,0.04152772008713246,8.057698488235474
-1.7540310376485233,3.7056463058738855,0.5310949151756479,1.4180655218329232,-3.5810865409867616,-2.1413674935044344,-65.28258243545305,-7.019328650366839,112.06215099095023,28.84978603566918,-69.09739099255516,73.44859812169095,-79.97507647898583,77.59573750870139,-0.004005231797744813,8.071541547775269
-1.7537243046209785,3.705274702841129,0.5395613421072634,1.418372254860468,-3.581458144019518,-2.1329010665728187,-65.38247257390755,-7.410915298929093,111.99390643401259,29.02974536515875,-68.71111855283608,73.40863469878171,-79.93090003324137,77.69449160044371,-0.07872145858194646,8.096588134765625
-1.7536348865596687,3.705275775813778,0.5436671804374423,1.4184616729217778,-3.581457071046869,-2.1287952282426397,-65.32716896445098,-7.385252597790483,111.97111699729821,28.892248203769622,-68.52519868217266,73.3894362849292,-79.9089213110463,77.74123333843431,-0.00142177657455278,8.109106302261353
-1.7536154586829962,3.704993105099136,0.5516238093631274,1.4184811007984504,-3.581739741761511,-2.1208385993169547,-65.16953723823521,-7.128434532590831,112.12037949237569,28.43337715441,-68.16969147654581,73.34828397335201,-79.88059848803394,77.8334798204098,0.012946643498773724,8.132925987243652
-1.7529897588401337,3.705052059303647,0.5599485586488693,1.4191068006413128,-3.581680787557,-2.112513850031213,-65.24822748191102,-7.8822334768297715,112.20117627860978,28.993807969322994,-67.78757484768012,73.31363048271811,-79.80759731041456,77.92877943221399,-0.09034128034098377,8.157289028167725
-1.7537159342815096,3.7047697833283455,0.5642257527206588,1.418380625199937,-3.5819630635323016,-2.1082366559594234,-65.11564649330822,-6.984626009430547,112.30650511419817,27.98851627217699,-67.61240841577968,73.2818003669289,-79.83782943390266,77.9783216726905,-0.17279658740071824,8.169874429702759
-1.7531738868379043,3.7049390350606966,0.5748788657967355,1.4189226726435422,-3.5817938117999506,-2.0975835428833465,-66.01250295349413,-7.196760161186567,111.13320863419474,27.89909700771786,-67.1321739516788,73.23373405807985,-79.75589002513112,78.09969157184193,-0.01503991663568538,8.201090097427368
-1.753050366290119,3.7048536823648295,0.5792932667501425,1.4190461931913276,-3.5818791644958177,-2.0931691419299394,-65.63662880809429,-7.618326391017953,111.54733680768447,28.214204321901036,-66.93636785027765,73.21141205899993,-79.73072990095075,78.15088466124735,-0.017526114011347182,8.213903665542603
-1.7529631726039063,3.704935453152302,0.5872175785022198,1.4191333868775402,-3.581797393708345,-2.0852448301778623,-65.30100031495707,-7.9422481763546315,111.87864914447128,28.33945983043124,-66.58834261334243,73.17083034389846,-79.68808726123112,78.24127050316659,-0.022494830971778512,8.237940788269043
-1.7526656025794545,3.704728787078502,0.5909768280788099,1.419430956901992,-3.582004059782145,-2.081485580601272,-65.27301042732844,-7.789485116148576,111.89979818577083,28.0879090627815,-66.41943068940138,73.15273703020586,-79.65731530255427,78.28604486175769,-0.09930964436696765,8.249461889266968
-1.7519132071994434,3.70469399252752,0.6068445619592686,1.420183352282003,-3.582038854333127,-2.0656178467208135,-65.64052911742134,-9.537956394658059,111.7340472816818,29.460508124962303,-65.71863030602572,73.07443783225858,-79.53749057257407,78.46956833921756,0.013484298341600365,8.295434713363647
-1.751904177274519,3.704950398662133,0.6153706675940707,1.4201923822069276,-3.5817824481985143,-2.0570917410860114,-65.55929507910041,-8.823989464047553,111.7682351430426,28.527213581319806,-65.35229157753454,73.02874489118226,-79.48996416003955,78.56623242647431,-0.8695876220558088,8.320048093795776
-1.7516549198059346,3.705023391032036,0.6287749164357417,1.420441639675512,-3.5817094558286113,-2.0436874922443407,-65.61710461110289,-8.401759002882738,111.58234368463144,27.75020320644963,-64.77678041364723,72.95621132495322,-79.40589280754332,78.7208696997586,0.008908588080382529,8.359047174453735
-1.751350876025046,3.705214060000146,0.6340373637712265,1.4207456834564005,-3.581518786860501,-2.0384250449088555,-65.39771877910066,-8.572142145859875,111.74685784450268,27.78027527806334,-64.54760525062814,72.93056933837266,-79.35547537974563,78.78095301218366,0.06653734288088753,8.373943567276001
-1.7509303152822755,3.70506741095954,0.6401325523751813,1.421166244199171,-3.5816654359011073,-2.0323298563049006,-65.48044427397072,-9.114926348967513,111.6350674415009,28.163101290694456,-64.28264755038337,72.89904553610619,-79.30019605233824,78.85294491976234,-0.044590198012566695,8.391580581665039
-1.7507654056701725,3.7050945439601612,0.6484266613549167,1.421331153811274,-3.581638302900486,-2.0240357473251653,-65.69018803677244,-8.78640624417482,111.34287775828801,27.612579146234907,-63.931744657851986,72.85258151679368,-79.24492358164494,78.94917266923476,-0.0496646201329316,8.417357683181763
-1.750534059325252,3.7052983076920722,0.6533534090994679,1.4215625001561945,-3.581434539168575,-2.019108999580614,-65.6569845425466,-9.231640720099714,111.44336221179474,27.943574062429356,-63.72095666940831,72.8273138321342,-79.1986594588995,79.00541902433676,0.022165419920955998,8.43198537826538
-1.7505866347472443,3.705417693065511,0.6617429984617854,1.4215099247342022,-3.581315153795136,-2.0107194102182966,-65.6432608376398,-8.916502220671562,111.43363654837843,27.414215073262003,-63.37375722348381,72.77758259313241,-79.15319017212772,79.10220178407818,0.054238461797312176,8.457012414932251
-1.7507021337043362,3.7053367447563974,0.6660788002027666,1.4213944257771103,-3.5813961021042497,-2.0063836084773157,-65.33572677575157,-8.600996641943752,111.79000855616472,26.996082273428325,-63.19746384859563,72.74983022072483,-79.13845373172278,79.15305402840772,-0.20176188391089944,8.47055721282959
-1.7504180178360782,3.7054493259391728,0.6752413478203747,1.4216785416453683,-3.5812835209214744,-1.9972210608597074,-65.00370106306092,-8.085763273866787,112.12851722933884,26.248185479769802,-62.81470323262356,72.69812924277566,-79.0650026198072,79.25953422841582,-0.11361101222444159,8.49817442893982
-1.7499756078950535,3.7054784504472273,0.6806134629067708,1.422120951586393,-3.58125439641342,-1.9918489457733113,-64.77658513102405,-8.039018317598998,112.32303917474813,26.05790646018625,-62.5855476675616,72.67022012320385,-79.00355322012496,79.32257882715535,-0.1307512589171047,8.514756202697754
-1.7498297201921247,3.7053495703813217,0.6945382257762791,1.4222668392893218,-3.5813832764793254,-1.977924182903803,-65.1230149396209,-8.895019458084695,112.03776813167859,26.571864969652964,-62.01794166062135,72.58482417835475,-78.91369608560294,79.48643372577564,-0.1062588840558476,8.556015729904175
-1.7496791851997346,3.7054155201608423,0.6986611637514595,1.4224173742817119,-3.581317326699805,-1.9738012449286226,-65.19438353002226,-8.87743000835443,111.92503612441924,26.443389664381957,-61.8483575769125,72.56103239604909,-78.8766630125289,79.5345180338473,0.06007197893036942,8.568444728851318
-1.7494144980287238,3.7052716296004182,0.7117792477348648,1.4226820614527227,-3.581461217260229,-1.9606831609452173,-65.29752744528002,-8.760932672367217,111.83531100586016,25.994709704144196,-61.31797935712181,72.47999126283136,-78.77982668207395,79.68967414788867,0.038252942939389634,8.607187509536743
-1.74913584824244,3.7050260437698066,0.7200126707328249,1.4229607112390066,-3.5817068030908406,-1.9524497379472572,-65.36844101836263,-9.30237540028613,111.72618490706469,26.320227831843063,-60.985710229933964,72.42866948766462,-78.71329637055304,79.78829936652481,-0.008486026642474442,8.631205558776855
-1.7485680738212823,3.7048116556596313,0.7285629468376369,1.4235284856601642,-3.581921191201016,-1.9438994618424452,-65.47770079181745,-9.7410664207866,111.729790852171,26.55538610570987,-60.63639002237163,72.37797496392464,-78.62191566648704,79.89089833819807,-0.013037147195187337,8.655941247940063
-1.7486945671090528,3.7046500266635087,0.7331385292725004,1.4234019923723937,-3.5820828201971384,-1.9393238794075818,-65.45386428138842,-9.766031302359083,111.75732732072919,26.46566454158788,-60.4602770548185,72.345835594881,-78.60416311972214,79.94572834299227,0.012434547259687179,8.668588638305664
-1.7487212047296656,3.70455760411096,0.7417074885276759,1.423375354751781,-3.5821752427496873,-1.9307549201524061,-65.31702867492007,-10.324625551770593,111.88571566283015,26.807833357811546,-60.12683468812064,72.2887423328301,-78.54986799008795,80.04748217659636,-0.1523089375448956,8.692557334899902
-1.7487412762188141,3.7045903284861716,0.7504670563394013,1.4233552832626324,-3.5821425183744755,-1.921995352340681,-65.61381905823644,-9.740044152758225,111.35144406439515,25.96264657828654,-59.78781350045549,72.23070783081654,-78.48937383186747,80.15091959206873,-0.18132457114749911,8.71732783317566
-1.7487269488342823,3.704293753262209,0.7551372734913848,1.4233696106471643,-3.5824390935984383,-1.9173251351886973,-65.54411429431444,-9.851360605198204,111.42032254918111,25.95418523953214,-59.60843529482332,72.1978524950394,-78.46270351922497,80.20804171495762,-0.005442297091506454,8.730780363082886
-1.7483384659073755,3.703784808476384,0.7645376212777333,1.423758093574071,-3.5829480383842633,-1.9079247874023488,-65.40398496339967,-9.594968860773399,111.61704552066342,25.462591102485213,-59.240819550737086,72.13548342080804,-78.37891327499234,80.3229557752231,-0.08523513923962778,8.758320331573486
-1.7481843214753172,3.7036236765930575,0.7685077281233226,1.4239122380061293,-3.5831091702675897,-1.9039546805567595,-65.45259713067162,-10.228629129502307,111.56744937102584,25.99522578646746,-59.08643104014644,72.10918090932098,-78.34224365349105,80.37121046858681,-0.08733166282824989,8.770183086395264
-1.748001964041702,3.703214688825597,0.7768233489882982,1.4240945954397446,-3.58351815803505,-1.895639059691784,-65.40017168686221,-10.456949062899765,111.64512406484783,26.014231939123846,-58.76813189411825,72.05184404364915,-78.27667227043547,80.47268942185957,0.110038518379306,8.79451584815979
-1.748116676612414,3.702520168927859,0.7883231821751232,1.4239798828690324,-3.584212677932788,-1.884139226504959,-65.2265384876358,-11.164354307819012,111.75663473225478,26.41914681256597,-58.340564265797404,71.96724472858484,-78.215189635265,80.61372074969645,-0.14473400071827225,8.83049464225769
-1.7482511722574734,3.701969512004188,0.7972909351809524,1.4238453872239731,-3.584763334856459,-1.8751714734991296,-65.51616133030441,-10.555344384261396,111.3566392614634,25.55895673551332,-58.01116004627674,71.90016281708188,-78.16962227475054,80.72391422819652,0.21174619292314745,8.859537124633789
-1.7481276465567617,3.7018349053266695,0.8010509657476401,1.4239689129246849,-3.5848979415339777,-1.871411442932442,-65.55021220155292,-10.491958593176955,111.32889747293335,25.399297403530042,-57.86921133810988,71.87428957187296,-78.13346915965978,80.76974400906879,0.20970797843089972,8.871256589889526
-1.74808018458296,3.7012850591717923,0.8085278176246739,1.4240163748984864,-3.585447787688855,-1.8639345910554082,-65.40864333262314,-11.288347029924255,111.57689720010536,26.025162026670767,-57.5938820510308,71.81880860310251,-78.08381494002029,80.86247238091826,0.20599095034236825,8.89560842514038
-1.7481645560937615,3.700987171419753,0.8126863714210986,1.423932003387685,-3.585745675440894,-1.8597760372589835,-65.46404254995004,-11.32255183930895,111.51926968709816,25.952894340105512,-57.4441325255148,71.78673863410036,-78.06435165044739,80.91396289506828,0.034922328034832084,8.909798622131348
-1.7482628988968227,3.7002508518794945,0.8211141780258253,1.4238336605846238,-3.5864819949811526,-1.8513482306542568,-65.17408465629484,-11.304964641514234,111.75985266789448,25.70941451250456,-57.14102496105857,71.72130732280942,-78.02198894823323,81.01926481552225,0.040199383410779,8.939456701278687
-1.7481898110320062,3.7002271209913533,0.8245683357706936,1.4239067484494403,-3.586505725869294,-1.8478940729093885,-65.16187394270526,-11.800419661759902,111.84922462166604,26.132722939588696,-57.01379088523617,71.6972279497523,-77.98738830034425,81.06091451505844,-0.008796294787789094,8.95134949684143
-1.748398342793111,3.699603143795859,0.8313319849928915,1.4236982166883356,-3.587129703064788,-1.8411304236871906,-64.85801414789518,-11.76233646576237,112.11806031986038,25.91527269556477,-56.776129528970195,71.6427655910571,-77.96365272392494,81.14567630288435,-0.012134846984192649,8.97657585144043
-1.7486443994760101,3.69929614674428,0.8349550890366503,1.4234521600054364,-3.587436700116367,-1.8375073196434317,-64.8199682646378,-11.25540557023274,112.07219879566814,25.299078682245632,-56.65258621687889,71.61232945903026,-77.961040019889,81.1908614083146,-0.004688308551313192,8.990165948867798
-1.7488051224020549,3.698858966652124,0.842138159593726,1.4232914370793917,-3.587873880208523,-1.830324249086356,-64.7208810353152,-11.371353277924046,112.26085965386864,25.250220813576632,-56.4003926767638,71.55606033715628,-77.92364363058878,81.2797644259071,-0.027346815027384785,9.015639066696167
-1.7485538094023423,3.6985182381292168,0.8458301497572533,1.4235427500791042,-3.5882146087314304,-1.8266322589228288,-64.90720197746747,-11.771264936440959,112.11540106541557,25.561793227251403,-56.263659637729006,71.5295577185756,-77.87947097279641,81.32641986362405,0.14939065554676478,9.028252363204956
-1.7487895002402338,3.698141459467193,0.8524505546674124,1.4233070592412127,-3.5885913873934543,-1.8200118540126697,-64.68330718181464,-12.002640553427739,112.33480918331108,25.62582034177513,-56.03544946302955,71.47658769753491,-77.8502876134102,81.40829047980532,0.08938955726641318,9.052339315414429
-1.7488027497312557,3.6978729040548215,0.8599871923546063,1.4232938097501908,-3.5888599428058257,-1.8124752163254758,-64.79852529770022,-13.027324274695728,112.19370061152365,26.457070511093637,-55.770544391478474,71.4194741105338,-77.7898290889792,81.50084829300526,0.08509077886421235,9.07795262336731
-1.748780179828794,3.6980532149095584,0.863928998407234,1.4233163796526525,-3.5886796319510887,-1.808533410272848,-65.13697627895809,-12.883314561798366,111.77534238147432,26.197190482535582,-55.630867985909944,71.39177695763361,-77.7456850750512,81.5474556209374,-0.08190162600985662,9.090689420700073
-1.749164008020824,3.6976035959575273,0.8716880470110169,1.4229325514606226,-3.58912925090312,-1.8007743616690652,-65.07983936269905,-12.03611325463873,111.85951236454049,25.1571124004696,-55.37058912823909,71.32779820760739,-77.71844809161514,81.64370434056825,0.0075253258092802255,9.11723518371582
-1.749062220339027,3.6972846568440474,0.876152528568138,1.4230343391424196,-3.5894481900165998,-1.7963098801119441,-65.10328094645757,-11.773911583421272,111.86277842826664,24.783782098334722,-55.21393894671675,71.29356249507977,-77.6759717947187,81.69970330489885,0.005334655976425573,9.132113456726074
-1.748749038271604,3.69717869345344,0.8886752615802644,1.4233475212098425,-3.589554153407207,-1.7837871470998177,-65.16594931381019,-12.30232779709687,111.88946785767601,25.012013789201703,-54.77430502050533,71.20214482775778,-77.52707007606904,81.85242040637995,-0.11944867730097997,9.173475742340088
-1.749174146445164,3.6972166024577704,0.9015683251122275,1.4229224130362825,-3.5895162444028768,-1.7708940835678546,-65.08136759786672,-12.070007786893752,111.84590204916825,24.429215746481344,-54.34460542757631,71.10092933996093,-77.4311814809754,82.00870878706588,0.08783972228773784,9.214401721954346
-1.7489321883178952,3.6974054912242322,0.9096291326347121,1.4231643711635513,-3.589327355636415,-1.76283327604537,-64.97317689994497,-12.376208485751357,111.95959794808415,24.531888350096555,-54.06526292149232,71.04305138128173,-77.31702496659567,82.1059357010932,0.08259882668518514,9.239502429962158
-1.748615035522995,3.697597004205048,0.9135578512320317,1.4234815239584515,-3.5891358426555993,-1.7589045574480504,-65.14015637359472,-12.698667383233083,111.80128229458755,24.755600830264964,-53.92446518120542,71.01721040993178,-77.23861270862875,82.15289576203033,0.08002179132094422,9.251319646835327
-1.7479783340048005,3.6978997712529846,0.9227639232770246,1.424118225476646,-3.5888330756076625,-1.7496984854030575,-65.53484826828976,-14.021599588525508,111.52645289675628,25.87227273988146,-53.599412166900635,70.95436754933489,-77.06564222734394,82.26381817183756,0.07415325479719481,9.279634714126587
-1.7479881166321674,3.6980438609858424,0.9266985406359489,1.4241084428492792,-3.588688985874805,-1.7457638680441332,-65.54697123508745,-14.353004181346689,111.5117259566432,26.10573892275394,-53.46824709894403,70.92482261859475,-77.01645148327192,82.3110547233308,0.07140661278216776,9.291557788848877
-1.7481728402842698,3.698421053049854,0.9369483049021592,1.4239237191971768,-3.588311793810793,-1.735514103777923,-65.63582624288124,-12.427961856997332,111.18770348483481,23.86079296106573,-53.13269399251179,70.84602932913698,-76.90058577223996,82.43418710587642,0.06412605332996169,9.322544813156128
-1.7479284695809394,3.6982902426140174,0.9409123295955142,1.4241680899005071,-3.5884426042466298,-1.731550079084568,-65.491257051828,-12.356032300010646,111.38560590067593,23.697836663694172,-52.99676969098618,70.81658052658376,-76.83299492283692,82.48358866131692,0.06202566771007145,9.334639310836792
-1.7470848132876788,3.698729375173972,0.9544727713460812,1.4250117461937677,-3.588003471686675,-1.717989637334001,-65.41395622009122,-12.305925727873015,111.51919738962559,23.30995588552752,-52.531749685693676,70.7208645307313,-76.56419479073018,82.6476637551033,0.17998733650811616,9.37541127204895
-1.7467042872816434,3.698811063857381,0.958585052324556,1.4253922721998031,-3.5879217830032664,-1.713877356355526,-65.32935407591567,-12.597873719395794,111.62070388138393,23.499217779339656,-52.388763170527646,70.69244605818878,-76.46936609689696,82.69780716506658,0.20098488746422216,9.388048887252808
-1.7465886729049778,3.6986072726518806,0.9662877666378822,1.4255078865764688,-3.5881255742087665,-1.7061746420422,-64.66671291497548,-12.151166716387282,112.40853146974081,22.884600688989117,-52.13868578937201,70.63125651470392,-76.36092413199393,82.79367409292487,0.19654090947014957,9.412764072418213
-1.7455981449324622,3.6996206096713062,0.9787274702574029,1.4264984145489843,-3.587112237189341,-1.6937349384226792,-64.463826168628,-12.129997966574937,112.58507841100302,22.5349633221476,-51.712948058036865,70.54760699755387,-76.0491540304352,82.9411808328011,-0.046944835697940945,9.45032811164856
-1.7438099988909956,3.7012415894031583,1.0000735867221675,1.428286560590451,-3.585491257457489,-1.6723888219579146,-65.42062682330675,-13.691521392998089,111.50779749649689,23.51562330959823,-50.99033608516506,70.4021338162929,-75.47540171895908,83.19536649517738,-0.05726091086752039,9.513561725616455
-1.743530846485704,3.7017054085937744,1.0048456129757068,1.4285657129957425,-3.5850274382668728,-1.6676167957043753,-65.37244943345152,-13.5780467367446,111.554328310377,23.2783316403578,-50.83320202525989,70.36885622876716,-75.350420791654,83.2516638345807,-0.06088422654755998,9.52740740776062
-1.7429085094570902,3.7023480802991746,1.0119817264177398,1.4291880500243563,-3.5843847665614725,-1.6604806822623424,-65.53926968977285,-13.100733250839163,111.31161254651649,22.589627806183287,-50.59427823959563,70.32036154737742,-75.13854316447126,83.33618381828316,-0.07075291898962721,9.549291849136353
-1.7421078207607488,3.7028239321016962,1.0200372193000065,1.4299887387206978,-3.583908914758951,-1.6524251893800757,-64.83554730522054,-13.329187726249218,112.12795634014344,22.63975460999,-50.32460044154878,70.26456565585168,-74.89054674671485,83.43305870135744,-0.07140040142132076,9.573880434036255
-1.7417540141881152,3.7032165465684623,1.024649828932431,1.4303425452933314,-3.583516300292185,-1.647812579747651,-65.316541090144,-13.287829790949784,111.60215341072941,22.46453101488034,-50.17321859698669,70.23231269457642,-74.75248899327336,83.4878662281654,-0.07474534975501079,9.587554931640625
-1.74152770964674,3.703241373634552,1.0323875676803247,1.4305688498347064,-3.583491473226095,-1.6400748409997574,-64.48180350924082,-11.912823043565146,112.51030672454819,20.905237985047254,-49.93246931055594,70.17073333700056,-74.58105688895871,83.58355859873068,-0.07953676084468508,9.612351655960083
-1.74052477218296,3.7043071774127303,1.0419524882438078,1.4315717872984866,-3.582425669447917,-1.6305099204362743,-64.87483902778489,-12.575169572856753,112.10882650665948,21.316327498819764,-49.614412651006134,70.10709878421646,-74.23791904822956,83.69580916932583,-0.3072222565524889,9.639757633209229
-1.7402051860256595,3.7046111942733666,1.0458379701291607,1.431891373455787,-3.5821216525872805,-1.6266244385509214,-65.33180855027851,-12.956501381873073,111.58803150558404,21.57720760474478,-49.48866835792441,70.07953386112789,-74.11005854021131,83.7421777980586,-0.06600765437036227,9.65152621269226
-1.7391712631220289,3.7051349477418607,1.0539580771939996,1.4329252963594177,-3.5815978991187865,-1.6185043314860825,-65.26124608117667,-13.785158027539858,111.69452147473852,22.20367858529324,-49.218046699910644,70.02410789024829,-73.79671352345949,83.83960121515393,-0.15575315704756854,9.677124500274658
-1.7385704274870637,3.70525357610788,1.0581265328006209,1.4335261319943828,-3.581479270752767,-1.6143358758794613,-65.46317268035756,-14.424558164083969,111.519466515973,22.74188441088078,-49.07852806642301,69.9951546852094,-73.62910781583732,83.89043603968037,-0.1487745049024145,9.68896222114563
-1.7384450870461754,3.705626697062524,1.0688661324204274,1.4336514724352711,-3.5811061497981234,-1.6035962762596547,-65.83444179003352,-14.321119351514133,111.04312942220416,22.327353788991726,-48.75810522409031,69.9085010969602,-73.35679748684812,84.0216799421643,-0.16554518453248512,9.721283674240112
-1.7383192675055723,3.70592189248017,1.0736142134367328,1.4337772919758742,-3.5808109543804774,-1.5988481952433493,-65.51593187750916,-14.419121889761257,111.37208374156383,22.30739704591666,-48.61508857403217,69.8714749148518,-73.21846159176644,84.07895917559861,-0.10329975977462791,9.736107349395752
-1.737540198922294,3.70651937058794,1.0830688205695311,1.4345563605591525,-3.580213476272707,-1.589393588110551,-65.80008730035038,-15.124667796515567,111.06079410307959,22.756918902250195,-48.31820053122344,69.80197374741459,-72.86680173246523,84.19269401403648,-0.025315898494931766,9.764393329620361
-1.7371101528468325,3.7064189324375096,1.0871279479505973,1.434986406634614,-3.5803139144231375,-1.5853344607294848,-65.86861182738052,-15.093359168625314,110.99668323033906,22.616530700110804,-48.190320857012466,69.77052109111871,-72.71343790736985,84.24351852655542,0.03828238175741827,9.776695966720581
-1.7370308009391675,3.7065128566416186,1.0912396676104716,1.435065758542279,-3.5802199902190286,-1.5812227410696105,-65.73717319075242,-15.548047667956581,111.17786231904138,22.98666164504678,-48.069816730057994,69.73686198313666,-72.59347219087277,84.29411015868756,-0.02543218067099673,9.788739442825317
-1.737031357507235,3.70659617626312,1.0992126652166498,1.4350652019742116,-3.5801366705975273,-1.5732497434634323,-65.55535077615724,-14.741392467929307,111.38292924858204,21.97929547713277,-47.84185572576677,69.66949618518514,-72.3788574684213,84.39293836763068,0.1757820250587372,9.813444375991821
-1.7376526825213856,3.7060318855066803,1.110299939173747,1.434443876960061,-3.580700961353967,-1.5621624695063352,-65.23183136968308,-13.260025833186122,111.64391179272847,20.185868131073672,-47.54657069686483,69.56596313182533,-72.17950221347328,84.53491240153575,-0.0841270424542584,9.849877834320068
-1.7375494417033044,3.7057276595354094,1.1187887089350288,1.4345471177781421,-3.5810051873252378,-1.5536736997450533,-64.43037761077935,-13.079861916579548,112.49819634532795,19.806492600829568,-47.30696925691429,69.49201334345292,-71.93401427555732,84.64250784530589,-0.08893071022602417,9.875653266906738
-1.738303554456099,3.7052520855086484,1.122655567957294,1.4337930050253476,-3.5814807613519988,-1.549806840722788,-63.851766954450525,-12.764421950536192,113.0912085498578,19.40631789199086,-47.220797292361375,69.4495270303322,-71.94503515341066,84.69419125161156,0.007387960711159103,9.888418197631836
-1.7381668220010602,3.7049457813889557,1.1325663593944315,1.4339297374803863,-3.5817870654716915,-1.5398960492856506,-64.1530659461836,-12.968047278065013,112.78275619369913,19.35234092400139,-46.94380200778018,69.36321445034825,-71.63798198189693,84.81965837016983,8.301436546904398,9.918832302093506
-1.7382250812387108,3.704472006218886,1.1359899629362185,1.4338714782427358,-3.5822608406417613,-1.5364724457438637,-64.35344095982568,-13.122099743647814,112.5702901872863,19.414443031488236,-46.85290656736705,69.3300899594365,-71.55976459509712,84.86523255639803,0.1316707322841859,9.930506706237793
-1.7385898786376826,3.7042563910003024,1.1492870773090125,1.433506680843764,-3.582476455860345,-1.5231753313710696,-65.10998069464021,-14.11729348677338,111.78765537308122,20.071373015315196,-46.50001180208402,69.21045844595133,-71.18895321433278,85.03314182773914,-0.04091922896467448,9.970611810684204
-1.7389532809560782,3.7033469273025243,1.1640408013921573,1.4331432785253684,-3.583385919558123,-1.5084216072879248,-65.93427735860253,-15.62300374942279,110.92331714650244,21.19915671662424,-46.11520198961834,69.07311207985472,-70.770960968422,85.22344337150497,0.19025719419750242,10.016680002212524
-1.7394485830342865,3.702963524462471,1.1684089549554662,1.43264797644716,-3.5837693223981764,-1.504053453724616,-66.46524756798071,-15.98681774808563,110.29571437459967,21.412742749748762,-46.01293659677394,69.02851337404122,-70.70683526420962,85.28094510705972,0.18307144690487487,10.031677484512329
-1.740363853456046,3.7018715808662925,1.1726789187409823,1.4317327060254006,-3.5848612659943546,-1.4997834899390998,-65.42789147115441,-14.490360738029207,111.37899731763885,19.832755431800653,-45.9275280458628,68.97681842896765,-70.74554903290216,85.34181893359914,-0.2031719035082178,10.046777486801147
-1.7411161753112363,3.701461195127091,1.1804778623295353,1.4309803841702102,-3.585271651733556,-1.4919845463505468,-66.15256783659423,-13.937322215290664,110.5546917562189,19.03191488006054,-45.742365343825455,68.89986131696696,-70.59137932696632,85.44290028787832,-0.12824124087668753,10.070820808410645
-1.7416176343255194,3.7007378525972023,1.1890261559042352,1.4304789251559271,-3.585994994263445,-1.483436252775847,-67.12219440671986,-16.208674108275194,109.51938202439685,21.078695639249517,-45.53370878985465,68.81611668280843,-70.37386336107055,85.55494859990695,-0.13281624890900456,10.09770154953003
-1.7423184296002272,3.6998558393326677,1.192443457500561,1.4297781298812193,-3.5868770075279794,-1.4800189511795212,-66.34031290129764,-15.590387536927052,110.34324166571561,20.405711109710676,-45.46619823227784,68.77482189717223,-70.39804235358287,85.60380575941792,0.03490976688439229,10.10983681678772
-1.7433413449061412,3.6988163694558542,1.2012585378190601,1.4287552145753053,-3.587916477404793,-1.471203870861022,-66.70406520111281,-15.738563750122973,109.89923822675561,20.300096125081016,-45.26795073787545,68.68238170817541,-70.26249524928714,85.72184602848525,-0.025981568987309522,10.13787055015564
-1.7445169467424886,3.6985887555007553,1.2069253883121598,1.427579612738958,-3.588144091359892,-1.4655370203679223,-67.07813677234029,-14.809277049818705,109.45883735477767,19.19278178563308,-45.15326495529828,68.62175011415299,-70.23948872541669,85.79599881356404,0.04497979395727203,10.155569076538086
-1.7454221642538468,3.697684004673028,1.2102873505363736,1.4266743952275998,-3.589048842187619,-1.4621750581437085,-66.61606760806649,-14.976109260349615,109.91492323499988,19.292508092897464,-45.09398825443177,68.57913165197358,-70.30364247195186,85.84467502572761,-0.007886557551116447,10.167203664779663
-1.7469084723160686,3.6963424183607216,1.2175681561339902,1.425188087165378,-3.5903904284999255,-1.454894252546092,-64.67087700450989,-14.85385514129687,111.92064916279747,19.06542042809128,-44.95169276186375,68.49449491469909,-70.32706377457978,85.94600924119928,-0.01132335968609155,10.191389799118042
-1.748250666379851,3.695997224127979,1.2258001695564609,1.4238458931015956,-3.590735622732668,-1.4466622391236212,-64.95112676654914,-15.045009899310433,111.56620918064293,19.02899946412262,-44.778854646170586,68.40900616084433,-70.22519672745221,86.05363613262415,0.11907295002760421,10.216118097305298
-1.7482183410976202,3.695896049681391,1.2310775329521533,1.4238782183838263,-3.5908367971792563,-1.4413848757279288,-66.39586642184864,-16.80377081488936,110.05215956514749,20.625740456992865,-44.645193640839494,68.36175822616325,-69.97886347635063,86.1207590458174,0.1159065438268998,10.231019973754883
-1.7502386270595403,3.6952024433990234,1.2404862351719772,1.4218579324219063,-3.5915304034616238,-1.431976173508105,-66.4211822761363,-17.564629001711246,109.99876932936212,21.197132826782877,-44.464404292320594,68.25822057675168,-69.95855934729602,86.24641945070996,0.07674182995798517,10.259455442428589
-1.7520616383751983,3.6948336568604794,1.249855596972584,1.4200349211062482,-3.5918991900001678,-1.4226068117074981,-66.75337755475124,-17.858922822835797,109.57948889328188,21.237525254971885,-44.28010220431598,68.15860899168982,-69.87858364709274,86.36967422741436,0.1591729405123381,10.288401126861572
-1.7537353765901331,3.6944923374044767,1.2579058869502633,1.4183611828913134,-3.5922405094561705,-1.4145565217298188,-66.4447445306019,-17.84263846500027,109.8290150883633,21.014099275313892,-44.126103700018355,68.0720107187285,-69.82951345687549,86.4760398977359,0.09237415389034176,10.313687324523926
-1.7562557621787531,3.694710149907464,1.2694079690034996,1.4158407973026934,-3.592022696953183,-1.4030544396765825,-66.58520728673045,-17.902905941846917,109.58785170743286,20.759800482847577,-43.908993901327825,67.9519312587811,-69.73627896818815,86.62455356161846,-0.043921214164958755,10.349678039550781
-1.7582626449323897,3.6949011636266977,1.2774719684312126,1.4138339145490568,-3.5918316832339494,-1.3949904402488695,-65.83921590495733,-17.739980515376494,110.30024783565806,20.422817835012374,-43.76440758881919,67.86620709381275,-69.7178365352565,86.72904856476043,-0.05091149395440642,10.375054597854614
-1.759501227565424,3.6951061484216563,1.2825512048852408,1.4125953319160225,-3.591626698438991,-1.3899112037948413,-65.58965472201328,-18.160572301043345,110.5140679748567,20.73112972066021,-43.67301743185677,67.81296599852655,-69.69382164488718,86.79445083164461,0.13222837813371502,10.390429258346558
-1.7614104883784116,3.6951074173118803,1.2914977315469136,1.410686071103035,-3.591625429548767,-1.3809646771331685,-64.76162388398286,-16.038988655575434,111.38704557025082,18.470236510873562,-43.507697210401034,67.71881205043938,-69.60881076614011,86.9113817095621,0.10631183772303476,10.416953086853027
-1.761831045417935,3.69499558015043,1.2956949726403995,1.4102655140635116,-3.591737266710217,-1.3767674360396827,-65.69262190042768,-15.532701593065783,110.45413702826092,17.866736565987654,-43.41896449980388,67.67736954554873,-69.45779833799479,86.96615428369691,0.1035116846853601,10.429118633270264
-1.7640965619958215,3.6960853883356157,1.3055278034055497,1.407999997485625,-3.5906474585250314,-1.3669346052745324,-65.6596395478509,-16.57075071254067,110.38348554157017,18.635291973596562,-43.23999749428738,67.57986155730134,-69.30850211486532,87.08926397755332,-0.0893411158280264,10.456422328948975
-1.765011363540334,3.6966047803497597,1.310319445675446,1.4070851959411126,-3.5901280665108875,-1.3621429630046362,-65.34478854136202,-16.684865553632918,110.66226089116255,18.616095288923482,-43.14868492876499,67.53364900162771,-69.18222737388066,87.14909725519088,0.009229209260531945,10.471635103225708
-1.7665115817084363,3.697905161695859,1.3191957822383344,1.4055849777730103,-3.5888276851647882,-1.3532666264417477,-64.57993677380804,-18.32520206203405,111.35825310544755,20.05322138480357,-42.974473411246066,67.45168969271705,-68.85342826929428,87.25786259961806,0.03301978317772303,10.496298551559448
-1.7675572986715589,3.6985606338446333,1.323168412087989,1.4045392608098877,-3.588172213016014,-1.3492939965920931,-64.27637623411458,-17.865876777096485,111.64529138488066,19.49441140247849,-42.906243929236126,67.41279915572743,-68.79540742052822,87.30687275084213,-0.055893019198284044,10.508661270141602
-1.7687090091579178,3.6998586080164024,1.333235783217682,1.4033875503235287,-3.5868742388442447,-1.3392266254624001,-64.31616505294187,-18.315815134869972,111.57842105073208,19.72953675484466,-42.698024410044845,67.3225850764787,-68.23242457346085,87.43042272004598,-0.09358699334447351,10.538204669952393
-1.768757163027742,3.700213018001306,1.3372542943090941,1.4033393964537044,-3.586519828859341,-1.335208114370988,-64.35390962017628,-19.12823501883548,111.5271215343541,20.46894078941007,-42.605664260025016,67.28839722354208,-67.88369202752023,87.47981387258187,-0.03580834293222779,10.54987382888794
-1.7715203685047993,3.7023537260458648,1.346627946354466,1.4005761909766472,-3.5843791208147824,-1.3258344623256162,-63.13018945988315,-17.36604861687569,112.70134349552643,18.3822599831754,-42.45359092714405,67.19853461855904,-67.72130733523642,87.59327229741002,2.1106230570489046,10.579835891723633
-1.7718729986680974,3.7030880845930914,1.3503303725992795,1.400223560813349,-3.583644762267556,-1.3221320360808027,-63.07524647731434,-16.793683306282144,112.76506645763165,17.719103949250062,-42.37569747395463,67.16754699323619,-67.42883759781087,87.63719843706372,0.0423447280753555,10.592729806900024
-1.7732614949257564,3.7052887640204597,1.3611231050193502,1.3988350645556902,-3.5814440828401874,-1.311339303660732,-62.82820709466844,-17.091151543498924,112.98654708187925,17.767446023153074,-42.159040763377156,67.07503240398539,-66.623840316674,87.76563407489691,0.025902253092011662,10.629062175750732
-1.7737020222007371,3.7070530310173164,1.368154386847308,1.3983945372807094,-3.5796798158433307,-1.304308021832774,-63.41917150643754,-16.647429698670383,112.40236163186144,17.106668093067128,-42.00612209966977,67.02018320432576,-65.85426227806825,87.84621326147888,0.07901590026267691,10.65498661994934
-1.7743095996794882,3.7077114159633093,1.3712953561410064,1.3977869598019583,-3.579021430897338,-1.3011670525390757,-63.305951076051144,-16.472834936808702,112.50907001229245,16.855628163940857,-41.948976266456945,66.99194029442556,-65.64800920596538,87.88393766848299,0.07541197511386333,10.668000221252441
-1.7747812598803898,3.709596548348853,1.3778448410158501,1.3973152996010567,-3.5771362985117943,-1.294617567664232,-63.19928738657563,-14.924652962736573,112.65338994784945,15.156493870677604,-41.80840996837474,66.94199135374723,-64.85257847129189,87.9575205565224,0.21774326394111476,10.697520971298218
-1.77475049047184,3.7100749842514458,1.3802864399737094,1.3973460690096065,-3.5766578626092014,-1.2921759687063727,-63.330774873760475,-14.45596759424728,112.53538250761602,14.621102740228586,-41.75187830296687,66.923293016824,-64.48658937293592,87.98556314926392,0.08400995189889393,10.709370136260986
-1.7751776833999255,3.7114385847643576,1.385564220362284,1.396918876081521,-3.5752942620962895,-1.2868981883177981,-62.844013669191035,-15.07069730639136,113.01217663425454,15.153209695642959,-41.64123885800966,66.88163922664866,-63.81347261060996,88.04556897573836,0.12018139454352728,10.735018491744995
-1.7750056844688187,3.712188166228128,1.3881793499276516,1.3970908750126279,-3.574544680632519,-1.2842830587524305,-62.846374577304985,-15.458456352315382,113.01299358291429,15.504418305799803,-41.57667872059311,66.86412484496876,-63.30926983752434,88.07359998170861,-0.9476881009826092,10.747391939163208
-1.775215717518059,3.713379222272207,1.3928044298714206,1.3968808419633876,-3.57335362458844,-1.2796579788086615,-62.819127144695685,-16.316442251755834,113.02599948385607,16.262426391376266,-41.47627681060522,66.82869026509704,-62.59536268538028,88.12534547436707,-0.047352189312609205,10.772212743759155
-1.774911151542248,3.7140015477726984,1.3951448088558152,1.3971854079391985,-3.5727312990879487,-1.277317599824267,-63.22336764168571,-16.544569844033717,112.62963753972943,16.43101810244092,-41.41522240653552,66.81369294211413,-62.053054592966916,88.14991451942066,0.13328389007689,10.786203145980835
-1.7756628529511949,3.7145177562574756,1.3980802709338283,1.3964337065302517,-3.5722150906031716,-1.2743821377462539,-61.99602316081562,-15.316782599523474,113.86529087999446,15.139977898983647,-41.36830647653027,66.78535699949475,-61.836573779753564,88.18608497358764,0.07364923703140835,10.810237407684326
-1.7748799147128262,3.716048335777293,1.4023332857132087,1.3972166447686203,-3.5706845110833543,-1.2701291229668734,-62.472812206387964,-15.501495909350266,113.4211132035314,15.188042532055618,-41.25057525326304,66.76228585779742,-60.65104714201351,88.22702697189027,0.1767811797058405,10.835036754608154
-1.7747362922559256,3.7165843328540147,1.4041554416741047,1.397360267225521,-3.5701485140066325,-1.2683069670059774,-63.020443345144336,-16.23692073985623,112.86850683869088,15.865259061031717,-41.20552206282388,66.75027956413744,-60.21747607046581,88.2457940137683,0.06219514163110862,10.847537517547607
-1.7750737325929393,3.717334179034775,1.4072357338805457,1.3970228268885072,-3.569398667825872,-1.2652266747995364,-62.77776000290823,-15.966839579035202,113.1164088436015,15.505440583111703,-41.144683581961985,66.72499102713365,-59.72346842520689,88.28055983748088,0.05867599518745781,10.872345685958862
-1.772912509664281,3.719559344052874,1.4166126830878318,1.3991840498171655,-3.567173502807773,-1.2558497255922503,-63.81698691643882,-15.61959363025791,112.16785385449413,14.880936612484572,-40.8807303638484,66.66906121383998,-56.67856018278175,88.3716646405339,-0.08559357701602277,10.949505090713501
-1.7721957677079174,3.7199080655219534,1.4195648191806007,1.399900791773529,-3.5668247813386937,-1.2528975894994814,-64.21539921022729,-15.72266025487944,111.79839926170767,14.86691324051432,-40.79842037447771,66.64927780002883,-55.66448919173959,88.40132710522823,-0.04062092846171872,10.9821298122406
-1.7719476428222998,3.720007694834081,1.420504461464809,1.4001489166591468,-3.5667251520265664,-1.251957947215273,-64.2787054243877,-15.996413532425892,111.7361772149384,15.120821634223663,-40.771798216005934,66.64303181137255,-55.32584719671545,88.41063397837367,-0.008362807360141389,10.994499683380127
-1.7712049023782277,3.7203085701271115,1.4214068584902586,1.4008916571032188,-3.5664242767335357,-1.2510555501898235,-64.38922168252071,-16.434252018095165,111.63798282753964,15.54165599325821,-40.7327725258855,66.6417780739249,-54.75288751342419,88.41570758804279,-0.008900242864881669,11.006356477737427
-1.7710838862382388,3.7204453267648936,1.4232910388583675,1.4010126732432078,-3.5662875200957536,-1.2491713698217146,-64.1242992796732,-17.0840528794181,111.88324568363653,16.18474989425886,-40.68918384352485,66.62629208217801,-54.22733105038789,88.4363683772436,0.15396579264588262,11.031674146652222
-1.7694319143869208,3.7201969692391836,1.4255574796567956,1.4026646450945257,-3.5665358776214635,-1.2469049290232865,-64.25468763548525,-18.292266986827425,111.7512016890858,17.381018249324267,-40.6005405287415,66.61494972860973,-52.9305679099206,88.45544159862224,0.11197468971278468,11.069360733032227
-1.7689024504458122,3.7197928018641013,1.4271949594834965,1.4031941090356344,-3.566940044996546,-1.2452674491965856,-64.5174198166548,-17.357569605035458,111.52305238046876,16.375126371291636,-40.55413016152507,66.60079898408787,-52.29322844749798,88.47387401074725,-0.009951499547985243,11.095945358276367
-1.7684747188737273,3.719702352570844,1.4278283551193636,1.4036218406077192,-3.5670304942898032,-1.2446340535607185,-65.14138587550991,-17.607187228468916,110.9091621705657,16.586398128384044,-40.53032600444389,66.59724612366242,-51.93573252313558,88.47927388447147,0.0886521932783042,11.107486009597778
-1.768233739905023,3.7197978770501785,1.428856493041592,1.4038628195764236,-3.5669349698104686,-1.2436059156384902,-65.69378658301576,-16.727245263859793,110.40180689624793,15.614412610496407,-40.502179349632264,66.59007450374611,-51.53627462592785,88.48902762931877,0.06455475230060959,11.130325555801392
-1.7678229762166824,3.7189233614391153,1.4299630023369798,1.4042735832647641,-3.567809485421532,-1.2424994063431023,-65.163309731292,-16.90462645952639,110.92384772419447,15.771969270328574,-40.47187120206718,66.5768284313784,-51.11115318488734,88.50467179285084,-0.018771190076249056,11.15435242652893
-1.7673203957163686,3.718415967908893,1.4307706260314623,1.404776163765078,-3.5683168789517543,-1.2416917826486198,-65.38220071708085,-17.101877813792306,110.70657628579214,15.947221018456409,-40.44415407884692,66.56937654368548,-50.69141635103517,88.51400727515829,-0.018024122810211374,11.179109811782837
-1.7670150917346004,3.717778215401196,1.4311254664866357,1.4050814677468462,-3.568954631459451,-1.2413369421934464,-65.61847498346833,-16.705369249422223,110.47707048351879,15.540706209688313,-40.43145456881281,66.56388848555396,-50.49976572374474,88.52017937163617,-0.15766397708202629,11.190408945083618
-1.766101654476637,3.7172145193371198,1.4321963345287987,1.4059949050048095,-3.5695183275235274,-1.2402660741512834,-65.85741516955976,-17.88848649506741,110.21454715897147,16.736732396004836,-40.388083384178415,66.55636178440187,-49.80881539225946,88.53017787454954,-0.1050673049337103,11.21575403213501
-1.7658100288182723,3.7173406329305396,1.4327706938158362,1.4062865306631742,-3.5693922139301075,-1.239691714864246,-66.11530948595568,-18.869343812957872,109.94283990337104,17.705215233032042,-40.368168448376906,66.55386937896417,-49.492843322833295,88.53397994155806,0.06816316617207008,11.228149890899658
-1.766081965051533,3.7155300357950862,1.4325648393233283,1.4060145944299136,-3.571202811065561,-1.2398975693567538,-65.69353219773332,-17.352263815551478,110.37977619146884,16.15093186356216,-40.386346529208865,66.54184364063,-49.821678818510556,88.54477129718511,-0.1211257485439825,11.255647659301758
-1.7659291539338757,3.7149561212303888,1.432725368854695,1.4061674055475708,-3.5717767256302584,-1.239737039825387,-64.83868704480764,-15.819423804280213,111.25821294513591,14.619934553395135,-40.381339505994255,66.5375435614244,-49.747397568416616,88.54923384402136,0.02532967593365587,11.267979383468628
-1.765377611637125,3.713842246851267,1.4332448938390616,1.4067189478443216,-3.57289060000938,-1.2392175148410205,-65.01696017897837,-16.36792295663149,111.06473685343458,15.162012239523111,-40.36082965969814,66.52897623951125,-49.41910933411219,88.55861449722288,0.08834422803346165,11.297460317611694
-1.7650567004139026,3.713452782788503,1.4335909205301642,1.407039859067544,-3.573280064072144,-1.2388714881499179,-65.11775465951216,-16.688534404554872,110.95506654898328,15.48755263726606,-40.34697934913954,66.52531866972909,-49.19270856794847,88.56290194738473,-0.19246275277973357,11.31056547164917
-1.764622400980291,3.711839299513123,1.4337744469697333,1.4074741585011554,-3.574893547347524,-1.2386879617103488,-66.26806762543197,-17.25441077903707,109.8174414369765,15.946952520148235,-40.33841946211083,66.51570390220722,-49.05642950845767,88.57237771263574,0.10144209058418419,11.348437070846558
-1.7641916368266526,3.710600581009408,1.4341299539798122,1.407904922654794,-3.576132265851239,-1.2383324547002699,-65.98993198370098,-17.30787611892993,110.07386154631106,16.027640225985397,-40.32488908952464,66.50699054938825,-48.837072639675796,88.58139432300801,0.023934037122637974,11.374506950378418
-1.7637449136241043,3.7101655322791793,1.434417589787676,1.4083516458573422,-3.576567314581468,-1.238044818892406,-66.22489666760335,-18.88321516264127,109.80107823498639,17.618103063383323,-40.309274706322526,66.50439041442704,-48.56811817136256,88.58446131850872,-0.003306435900809923,11.386908531188965
-1.7638579064979094,3.709142171393862,1.4346661624960766,1.4082386529835371,-3.577590675466785,-1.2377962461840055,-66.441387866786,-18.77258478459456,109.57718145772972,17.479918606969864,-40.310864341151415,66.49449352205082,-48.62011255394868,88.59437503608311,-0.048688486864762126,11.41180968284607
-1.7633767520292976,3.706650710597714,1.4347527538388496,1.408719807452149,-3.5800821362629334,-1.2377096548412325,-66.3829981658201,-19.13424536332775,109.61400230166126,17.810242502478584,-40.306557863863524,66.48016641458122,-48.55337606056803,88.60797364383531,-0.04404984457936667,11.455601215362549
-1.7633314008820697,3.7057991800192753,1.434783614105927,1.4087651585993768,-3.580933666841372,-1.2376787945741552,-66.52147835498356,-18.949369928351114,109.46918406456109,17.62299186426948,-40.308060795630055,66.47446509735828,-48.58718946416349,88.61339228093316,-0.02847979974842385,11.468123435974121
-1.7637989184521154,3.703951367580611,1.4348272360528052,1.408297641029331,-3.5827814792800363,-1.237635172627277,-65.80442795289268,-19.110669553476054,110.12961918629786,17.82233819644837,-40.326066673558834,66.45854837988306,-48.94465405280758,88.62847257070378,0.054111868257133544,11.496289014816284
-1.7641353672472329,3.703252695344781,1.4347185002073888,1.4079611922342137,-3.5834801515158663,-1.2377439084726933,-65.09666306089488,-18.1890000266578,110.83625279320265,16.91513799848602,-40.339519868919865,66.45261949707456,-49.20089255868787,88.63377496883284,-1.704269653765146,11.509034633636475
-1.7644860797754247,3.7014669647234886,1.4345031757903692,1.4076104797060218,-3.5852658821371586,-1.2379592328897129,-64.00133150324753,-16.041768856804506,111.94183960438092,14.776530193009863,-40.359763618364376,66.44026032119218,-49.590726946761556,88.64476373510409,-1.7012931060188956,11.53471326828003
-1.763714512547936,3.7014216618575966,1.4351538405236612,1.4083820469335104,-3.5853111850030506,-1.2373085681564209,-65.19433183064741,-16.950453120245353,110.76012226009875,15.634168614949854,-40.326864611493434,66.43909016616608,-48.99945578795315,88.64743210330512,0.05836498485098218,11.547071933746338
-1.7632815362662222,3.7005638463395636,1.4359039430196288,1.4088150232152243,-3.5861690005210836,-1.2365584656604534,-66.20024966099324,-19.098684840734894,109.70991624058905,17.747226388706338,-40.3035495818237,66.42928481900572,-48.604624673905974,88.65832452072355,0.05970537635698747,11.573914527893066
-1.7635098977096169,3.699909638233425,1.4358415754402023,1.4085866617718297,-3.586823208627222,-1.2366208332398798,-66.15937716828991,-19.24871888300007,109.73326831341512,17.89582154310975,-40.31313374009335,66.42394030006956,-48.79192829813065,88.66320213364195,-0.023741732959849493,11.586329221725464
-1.7637183230029867,3.699097555099719,1.436197109211454,1.4083782364784598,-3.587635291760928,-1.236265299468628,-65.57330971127172,-19.44466925095181,110.30018764930885,18.07501311833316,-40.314064429004254,66.41381618737984,-48.84330677015562,88.67352856178017,-0.01802176440364711,11.611518859863281
-1.7644292209982717,3.697111857892491,1.4370121116908692,1.4076673384831748,-3.5896209889681563,-1.235450296989213,-65.10049142789003,-19.631080212551336,110.73435504474682,18.20648419481829,-40.322536587558204,66.38821660108768,-49.094431471456424,88.69942950688583,-0.006241254550348074,11.656514167785645
-1.7643495592496816,3.6965356539742427,1.437038888905864,1.407747000231765,-3.5901971928864045,-1.235423519774218,-65.1002743698012,-19.340301763065103,110.74190937893805,17.898233657506367,-40.32219606929583,66.38461270421908,-49.09299963544967,88.7028304267569,0.032337452917501786,11.668389797210693
-1.7648299108592511,3.6954045486172964,1.4370111865134922,1.4072666486221954,-3.5913282982433508,-1.2354512221665899,-63.517249921021396,-18.376819943849306,112.29978704432601,16.986743111376256,-40.33921348762619,66.37404985357564,-49.448948170875326,88.71259058783855,-0.09741049124029466,11.694572448730469
-1.7647874138320494,3.695036709342108,1.4374630572975742,1.4073091456493971,-3.591696137518539,-1.234999351382508,-63.77285352423958,-18.59820447222021,112.0389091429925,17.184210332172523,-40.33010084232438,66.36769011670285,-49.30374136100382,88.71962297182749,0.24547223603076151,11.70678424835205
-1.7651302058336882,3.6937547611282846,1.4379932399176958,1.4069663536477583,-3.5929780857323625,-1.2344691687623863,-63.75105949635366,-19.24080642366564,112.02072922030436,17.804939416270724,-40.33255572538249,66.35188023171216,-49.413360873792755,88.73562195332626,-0.0953940541258449,11.7372145652771
-1.7650268994313676,3.693824547087189,1.4383592349968557,1.407069660050079,-3.592908299773458,-1.2341031736832264,-63.56550122841939,-20.327677360702776,112.17080009227936,18.9101657454801,-40.322033266617225,66.34966760255624,-49.224583685795274,88.73858882513507,0.007548543322213774,11.74947190284729
-1.7653548230987266,3.693280380601649,1.4382754578828663,1.40674173638272,-3.593452466258998,-1.2341869507972159,-63.1096928781383,-19.895082915567507,112.62020189976481,18.48440657309032,-40.33411838048252,66.34458785013922,-49.476802543245554,88.74309746588823,-0.09961017717529241,11.76524305343628
-1.7660134384587989,3.6928121715454516,1.4385967572865903,1.4060831210226477,-3.5939206753151955,-1.2338656513934918,-63.30436897406888,-19.097995159169546,112.44003275020081,17.633541949453214,-40.3457316958062,66.33409734104131,-49.760745181650776,88.7536421562181,-1.84014181340501,11.790098667144775
-1.7663354544835594,3.6922097154554954,1.4390417559665378,1.405761104997887,-3.594523131405152,-1.2334206527135443,-63.5800442137386,-19.078672858780827,112.14777959852805,17.60257662910441,-40.34682188207476,66.32379357743255,-49.83481425265297,88.76431175036653,-0.28664667698218693,11.817372798919678
-1.7662665714588943,3.691977253490853,1.4394722935272977,1.4058299880225522,-3.5947555933697943,-1.2329901151527844,-64.17130274046033,-20.10345399771712,111.53995643365835,18.58730933265431,-40.33698592900856,66.31871682110385,-49.6664008655944,88.77011924898764,-0.08471869070436266,11.847872972488403
-1.7671567801417851,3.6914710157623976,1.4390414829465172,1.4049397793396614,-3.5952618310982496,-1.2334209257335649,-63.480583409262515,-18.979192579706055,112.23351147113101,17.466056022686132,-40.37026608720481,66.31335030940316,-50.355191947011775,88.77388034460671,-0.07016072282524277,11.875890970230103
-1.7670032709854038,3.6916775121962155,1.4392774198228895,1.4050932884960428,-3.5950553346644316,-1.2331849888571926,-63.902149026264325,-19.017922275226063,111.81884980475098,17.495713048856643,-40.36068870448876,66.31359537520514,-50.16800728804425,88.7743124531008,0.032664831732596156,11.888148784637451
-1.767416758981214,3.6911908017339057,1.439184618685006,1.4046798005002326,-3.5955420451267415,-1.2332777899950762,-63.80857858070636,-18.860710551688186,111.88885010469689,17.366345877564335,-40.37486614125274,66.30841248067034,-50.47597159507939,88.77878048051181,0.03325803662858551,11.914068460464478
