dx1,dy1,dz1,dx2,dy2,dz2,azm1_cf,ele1_cf,azm2_cf,ele2_cf,azm1_an,ele1_an,azm2_an,ele2_an,tdoa_bias,time
-4.962278314256949,-3.050497822219529,-0.1478739800107329,-5.253440578690006,3.8138158996921385,-2.794255275845742,30.07317268650118,5.650312488921888,-39.21411179680051,25.043286273958454,96.80578321501622,67.34302978501621,-33.26785049236152,56.061005032344994,3.7274850899091065,3.040268898010254
-4.962416668233921,-3.050554004343771,-0.14782565605039807,-5.253578932666978,3.8137597175678963,-2.7942069518854074,30.152600858577678,5.653230824018964,-39.12618587643304,25.163672854542174,96.8043940576945,67.342845321343,-33.26603616463071,56.06036843699976,3.72739249574765,3.0526652336120605
-4.962762851934501,-3.0505179958744186,-0.14787191118304785,-5.253925116367558,3.813795726037249,-2.794253207018057,30.201171251770496,4.394559538942259,-38.31887014985939,26.68193721836711,96.80479843553033,67.34073146652983,-33.26389529095995,56.05939275442394,3.6945679963723155,3.0963754653930664
-4.962288960322239,-3.0504608069826293,-0.14785182985050596,-5.253451224755296,3.813852914929038,-2.794233125685515,30.077919529003015,5.333127785208626,-39.03714036797863,25.35875740664073,96.80512450844513,67.34269058421958,-33.26758854683441,56.06129537256667,3.6946726963953678,3.1212496757507324
-4.96252207665041,-3.050515696100102,-0.14781676588508688,-5.253684341083467,3.8137980258115656,-2.794198061720096,30.168668887425753,5.011164695753376,-38.75305006726476,25.7880102510793,96.80387874803661,67.34199825874994,-33.265175255000216,56.06033229167046,3.69457611821994,3.1336236000061035
-4.962228074090897,-3.0504521755668463,-0.14784735659323686,-5.253390338523953,3.813861546344821,-2.794228652428246,30.043535454290865,5.703632258703757,-39.2677513794161,25.060140713949846,96.80511577166315,67.34293364125611,-33.26804362366783,56.06155483650539,3.582084579576012,3.1660842895507812
-4.962206091916099,-3.050463769416618,-0.14789336966468317,-5.253368356349156,3.8138499524950493,-2.7942746654996924,30.035912301509057,5.751311908800906,-39.30442730495422,24.95865335742315,96.80635074582428,67.34309293414454,-33.26873934639962,56.06138874399129,3.8026045257979693,3.1773695945739746
-4.962277235693847,-3.0505609216716545,-0.14784068098065722,-5.253439500126904,3.813752800240013,-2.7942219768156664,30.13935277625537,5.739733906294872,-39.194696309550324,24.966518239672187,96.80506938733245,67.34359735841565,-33.267316067718866,56.06069832782422,3.600728051228044,3.2059895992279053
-4.9626826010611715,-3.050567253384234,-0.14781697607841812,-5.253844865494228,3.8137464685274334,-2.794198271913427,30.218005028039805,5.059086817552178,-38.72707660985444,25.769393517513354,96.8036667633716,67.34161016507021,-33.2637707337959,56.0594944943013,3.619435763600146,3.2202377319335938
-4.962466935208395,-3.050397129661788,-0.14788454851902832,-5.253629199641452,3.8139165922498792,-2.7942658443540376,30.17748802364907,4.737985885263933,-38.569515478654154,26.210075088703086,96.80546700333562,67.34121746769314,-33.26669954420239,56.061066066414355,3.7181919380515778,3.2318601608276367
-4.96250697687969,-3.0505059041586255,-0.147856387653935,-5.253669241312748,3.813807817753042,-2.794237683488944,30.203367281248347,4.766001416755318,-38.56552700426578,26.129946015387503,96.80489406709309,67.34195097221115,-33.2657898420075,56.06031003781982,3.755595778878746,3.253999948501587
-4.962641146803216,-3.0505412856667227,-0.14777537702417556,-5.253803411236274,3.8137724362449448,-2.7941566728591845,30.286866353353854,4.764771115466486,-38.46463615185554,26.282021920529854,96.80264203263862,67.34164945557544,-33.26366948379741,56.059936219396874,3.722671262935317,3.277899980545044
-4.962385925850915,-3.0505554607505916,-0.14783261343711016,-5.253548190283973,3.813758261161076,-2.7942139092721194,30.215980742591576,5.34457073125034,-38.89274583534386,25.494061806058962,96.80463525704343,67.34300664240166,-33.26636181331826,56.06042929674126,3.6382533365883685,3.292137861251831
-4.9623650794747185,-3.0505966455529427,-0.14786741158685446,-5.253527343907775,3.8137170763587247,-2.7942487074218634,30.28451079577784,5.749287351300893,-39.04562288424107,25.07412663202009,96.80564376818147,67.34341900589715,-33.26684602132722,56.06009945731492,3.7414434779675227,3.3187849521636963
-4.962530629164673,-3.0505280129970886,-0.14779723478104775,-5.253692893597731,3.813785708914579,-2.794178530616057,30.316355692767132,5.147766094313033,-38.674985252806536,25.752145477018615,96.80339129023838,67.34207838622784,-33.26484590514394,56.06028968622248,3.7414725485134204,3.331937551498413
-4.962534135353167,-3.0505417585668577,-0.14780228315505803,-5.253696399786223,3.8137719633448097,-2.7941835789900673,30.24296832371258,5.2314096293212495,-38.80828764204325,25.52035561470261,96.80354031859834,67.3421697492506,-33.26484564800383,56.06016977379136,3.741459423425483,3.3559505939483643
-4.9623723198452865,-3.050633039095934,-0.14788737348982198,-5.253534584278344,3.8136806828157335,-2.7942686693248313,30.324949441914157,5.694164416018949,-38.978406807780125,25.09100964705287,96.80620976815307,67.34366422052688,-33.26694005837261,56.059765901494984,3.7977125049970226,3.3712024688720703
-4.962343651982198,-3.0505086765428135,-0.14782265702777955,-5.253505916415255,3.813805045368854,-2.7942039528627887,30.148601962908252,5.671155751156143,-39.15253566635671,24.975796818303913,96.80437225666611,67.3428425160437,-33.26669171848411,56.06090590414713,3.6242286904880157,3.3984668254852295
-4.96253315455994,-3.0506309711072186,-0.14786078603263006,-5.253695418992997,3.813682750804449,-2.794242081867639,30.302660309268596,5.420601074279799,-38.840083767109,25.501901099373708,96.80520800988143,67.34285601717659,-33.265339985138034,56.05937711469371,3.666318095787415,3.4342503547668457
-4.962432939615853,-3.0505995010679827,-0.14780886501569207,-5.253595204048911,3.8137142208436847,-2.794190160850701,30.37186346375101,5.6160552635670244,-38.8854861509441,25.2204900245928,96.80402821945134,67.34315992252937,-33.265599945134134,56.06007063235169,4.834592326305044,3.4727723598480225
-4.9626107504287145,-3.0506133246062634,-0.14781794051533423,-5.253773014861771,3.813700397305404,-2.794199236350343,30.432888112425513,4.868440576745053,-38.39589403383655,26.026492973702304,96.80392944214569,67.34235947971094,-33.26425036380853,56.05940266766127,4.834561730841805,3.503239870071411
-4.962381646191656,-3.050533764953108,-0.14785990597256865,-5.253543910624714,3.8137799569585593,-2.7942412018075777,30.24575218423224,5.3631313689435345,-38.87697405125322,25.43226222630877,96.80529188812854,67.34281817393055,-33.26677104009223,56.06049537417709,3.6054445656174376,3.5153465270996094
-4.9624553526743505,-3.0506167705938028,-0.14786696243742917,-5.253617617107407,3.8136969513178647,-2.794248258272438,30.2505503620839,5.54132203873993,-38.96821092733283,25.26420181780275,96.80549203014075,67.343127366778,-33.26607010786008,56.05968964855504,3.605350947644549,3.5424752235412598
-4.962332525845556,-3.050611541086176,-0.1478310623318555,-5.253494790278614,3.8137021808254916,-2.7942123581668645,30.29826987980999,5.715610774778518,-39.01073925482128,25.16022008135386,96.8048175255015,67.34374816415115,-33.26664031893942,56.0602224123625,3.694500042197734,3.554093360900879
-4.962707750854022,-3.0505993275846435,-0.14781753652120547,-5.253870015287079,3.813714394327024,-2.794198832356215,30.472767501747118,4.463124867775292,-38.10344457092353,26.501343902458483,96.80369584690878,67.34174894344616,-33.26350088563387,56.05920069059671,3.549022753145647,3.5849239826202393
-4.962754115707793,-3.0506968167380313,-0.14778274011039294,-5.253916380140851,3.813616905173636,-2.794164035945402,30.495581538714063,4.687970409850128,-38.20859192470365,26.361643561362307,96.80291890634757,67.34236318098317,-33.262488155596174,56.05852332549838,3.548901218748485,3.5978031158447266
-4.962389540695755,-3.050597484057387,-0.1478085085136147,-5.253551805128812,3.8137162378542806,-2.794189804348624,30.392201333636233,5.098541593059244,-38.57959786905673,25.719809356407715,96.80410223933058,67.34336461837269,-33.26594826427827,56.06021828513093,3.7648768634345924,3.633928060531616
-4.962709168525773,-3.050647406026042,-0.14779658546447375,-5.25387143295883,3.8136663158856257,-2.7941778812994826,30.42422018156316,5.140328602486115,-38.552205954139374,25.85926932946576,96.80325961342247,67.34216521593842,-33.26312829205111,56.05894516301904,3.8304695596346816,3.6581246852874756
-4.962666359742485,-3.0506355625304673,-0.1478224043390779,-5.253828624175543,3.8136781593812,-2.794203700174087,30.471582390204052,4.987267872169183,-38.418121456974546,25.992578803301047,96.80397629761075,67.34225682792092,-33.26380575506872,56.05906825067367,3.741352823977106,3.6728878021240234
-4.9625788249482135,-3.0506325167720494,-0.1478600964446305,-5.25374108938127,3.813681205139618,-2.7942413922796394,30.311635894423407,5.431129106504687,-38.84136486972239,25.428056919503238,96.8051019170702,67.3426369484992,-33.2649621532512,56.05922920733305,3.694461809846099,3.6976585388183594
-4.962463643623899,-3.050614645922359,-0.14781595950095724,-5.253625908056955,3.8136990759893084,-2.794197255335966,30.261587381458636,5.739349557356682,-39.063140857691444,25.073164890344255,96.80417736867751,67.34312217500475,-33.26540274047959,56.05985111224284,3.581874719246036,3.7271625995635986
-4.96245922240387,-3.0506080681162264,-0.1478090489059395,-5.253621486836927,3.813705653795441,-2.7941903447409486,30.2688071324023,5.524770067251886,-38.94362939595206,25.245297460591217,96.80399755607736,67.34309726043809,-33.265371456028,56.05993211099216,3.581879634318067,3.73988676071167
-4.962542085648275,-3.0505647644708516,-0.14781764415757892,-5.253704350081332,3.813748957440816,-2.794198939992588,30.33778728431749,5.245810581969167,-38.709018390397866,25.651867586078076,96.80396085480359,67.34230463339343,-33.264910642282516,56.05993931026804,3.741439787655449,3.751652479171753
-4.962658793099374,-3.0506083635945704,-0.14782841437823652,-5.253821057532431,3.813705358317097,-2.7942097102132455,30.426069440766938,4.898253157617501,-38.40507172912864,26.14805666440137,96.80408848279912,67.34206207119124,-33.264001348020614,56.059253300491015,3.6803918259427792,3.775038957595825
-4.962525422123855,-3.050583924620741,-0.14781555063311355,-5.253687686556913,3.8137297972909265,-2.7941968464681226,30.372444663402685,5.412051062953028,-38.77257530610179,25.42322016129727,96.803980281366,67.34255159532185,-33.26497454475093,56.05986907785669,3.6804274922662685,3.7973146438598633
-4.962740770806226,-3.050609617492345,-0.14786210928157378,-5.253903035239284,3.8137041044193225,-2.7942434051165828,30.448852958790106,4.921547959812322,-38.38691048645113,26.206708532290158,96.80478096438651,67.3416186701197,-33.263741705312015,56.058879771346,3.6803940808781554,3.8197431564331055
-4.962500092582445,-3.0505860863975083,-0.14782075453347962,-5.253662357015502,3.813727635514159,-2.794202050368489,30.39728882663863,5.191771114572265,-38.613380175542446,25.77462423547624,96.80416755821321,67.34269309911387,-33.26523432087924,56.05991456784935,3.6804298626733116,3.846374750137329
-4.962600780740127,-3.050632321139639,-0.14785279524817618,-5.253763045173184,3.8136814007720283,-2.7942340910831853,30.431394898663292,4.916259373224479,-38.411849599913154,26.11899462493315,96.80487222877997,67.34253129063792,-33.26469991772113,56.05918797866836,3.6803816595593757,3.8603436946868896
-4.962530783199071,-3.0506458462630657,-0.14786750755733424,-5.253693047632128,3.8136678756486018,-2.7942488033923434,30.42449133735302,5.1439411203562235,-38.5621519456365,25.781143088247003,96.80541358759474,67.34298494866002,-33.26540407244711,56.05926197529943,3.628770788502691,3.8716859817504883
-4.962586709440977,-3.050634619634102,-0.14786308960763048,-5.253748973874035,3.8136791022775656,-2.7942443854426395,30.459133831081044,4.984301447316479,-38.41303196382468,26.165744441190558,96.80516628522496,67.3426111015248,-33.26492960860908,56.059180839427256,3.6334668716276948,3.8974664211273193
-4.962705569438221,-3.0506036436994073,-0.14777254747060997,-5.253867833871278,3.81371007821226,-2.7941538433056192,30.379429939662806,5.237080167514768,-38.64877853889301,25.80011182452355,96.80256798972295,67.3418443612344,-33.26297385074235,56.0593307129958,3.5583851963149806,3.932663917541504
-4.962561608543982,-3.0505876453129153,-0.1478436170818206,-5.253723872977039,3.813726076598752,-2.7942249129168295,30.316608630684875,5.399228189367118,-38.82297006754051,25.409474383172284,96.80462705200094,67.34236811112983,-33.26500924094764,56.05963832105597,3.558444089171271,3.9595298767089844
-4.962405397674253,-3.05061813264514,-0.14783218057735115,-5.253567662107311,3.8136955892665276,-2.7942134764123603,30.326725909135202,5.690978586204335,-38.97221793155864,25.12990385720052,96.80471292936582,67.34343062376769,-33.26605412277539,56.05995126008497,3.558424364372419,3.9729456901550293
-4.962259129234316,-3.050584671686064,-0.14790618523806495,-5.253421393667374,3.8137290502256036,-2.794287481073074,30.284920925843224,5.8079498573666495,-39.076506404750575,25.025965931337854,96.80681578792345,67.34381735547281,-33.26818384218477,56.06037295310063,3.5585031603612443,3.990537405014038
-4.96242662187331,-3.0506491016180464,-0.14789752837118106,-5.2535888863063676,3.813664620293621,-2.7942788242061902,30.43640716224288,5.334580619704109,-38.65567758655221,25.633320678730538,96.80639098127538,67.34351059020875,-33.266587912701226,56.05945759780774,3.778926186064308,4.018547058105469
-4.962704095376166,-3.050634616947905,-0.14783219254050753,-5.253866359809223,3.8136791049637626,-2.7942134883755165,30.462172177053365,5.005114296727086,-38.4489272560942,25.855279322676466,96.80414682404904,67.3420461630037,-33.263621815018766,56.05892587620557,3.62405929087518,4.031177520751953
-4.962418376029358,-3.050625834635409,-0.14787558909826995,-5.253580640462415,3.8136878872762585,-2.794256884933279,30.32561075991593,5.6391454114192205,-38.941012010867055,25.240401328752615,96.80580362019973,67.34338211137823,-33.266447765211545,56.05971298528863,3.7461013001389922,4.059269428253174
-4.962453637860068,-3.050639034410885,-0.147883115821085,-5.2536159022931255,3.8136746875007823,-2.794264411656094,30.314764404718055,5.658208514980619,-38.954210295155676,25.329298192588368,96.80595058806486,67.34330444827192,-33.26622370349349,56.05949107593753,3.6475592782592585,4.071756362915039
-4.962418393819222,-3.050552222313513,-0.14786771757518974,-5.25358065825228,3.8137614995981544,-2.794249013410199,30.23188637399508,5.321058249335622,-38.86142099011999,25.538336952108445,96.80545383380259,67.34277649166518,-33.26652616612675,56.06023272458843,3.6476496906014244,4.098595142364502
-4.962568292774102,-3.050568466492025,-0.14786981761604137,-5.2537305572071595,3.8137452554196423,-2.7942511134510504,30.34033715588675,5.044499284666095,-38.58283518762411,25.93985207160015,96.80523906763993,67.34214595322399,-33.265311739564005,56.05965765495594,3.6992264786639897,4.111294507980347
-4.962533635184485,-3.05063724260088,-0.14791905908339412,-5.253695899617542,3.8136764793107876,-2.7943003549184033,30.393419311100942,5.635572055187493,-38.864918291662754,25.313228900201153,96.80669786939346,67.34284328422785,-33.26601370707201,56.05913640026765,3.5537304636411307,4.140064716339111
-4.96268075927142,-3.05060202701475,-0.14782863221432438,-5.253843023704476,3.8137116948969174,-2.7942099280493333,30.44973497639362,5.049707493977571,-38.464040579253414,26.060389883097535,96.80403697108123,67.34189706730193,-33.26384270216147,56.05922773146751,3.7695397786333924,4.177184343338013
-4.962330106503796,-3.0505410872555734,-0.1478572244513768,-5.253492370936852,3.813772634656094,-2.794238520286386,30.11796920827177,5.554507658162203,-39.11449339702534,25.181581469818557,96.8053423536137,67.34314474655035,-33.26713517759396,56.060613263093884,3.6852014460458875,4.217036008834839
-4.962613943327744,-3.050515081524673,-0.14776436583866376,-5.253776207760802,3.8137986403869943,-2.794145661673673,30.30316630589938,4.226304520753645,-38.12610941988244,26.73994668110642,96.80236397764624,67.34158131765838,-33.26381793160376,56.06023235902809,3.713314553117322,4.232729911804199
-4.962542769122501,-3.0505978861475787,-0.14779963314986075,-5.253705033555558,3.813715835764089,-2.79418092898487,30.332191995800017,5.150772465030795,-38.658435965726426,25.773178067658275,96.80357016912687,67.34259674897204,-33.26461379689884,56.05977628349188,3.7601649563404864,4.260116815567017
-4.962512580220173,-3.050618040329325,-0.14781271244556304,-5.253674844653229,3.8136956815823426,-2.7941940082805723,30.300900188436803,5.419078602606838,-38.85144923064243,25.37517387518119,96.80400363126901,67.34290462503948,-33.26496402130141,56.05968946739098,3.8211443563799987,4.272889852523804
-4.96239171880329,-3.0506770709058904,-0.14787147119848704,-5.253553983236348,3.813636651005777,-2.794252767033496,30.31110115785155,5.422702114667511,-38.842583063385206,25.394960330022545,96.80585720448276,67.34394971108962,-33.26649275233622,56.05946532224567,3.6756717964978707,4.3032050132751465
-4.962541451939994,-3.050624516665035,-0.14776239160509838,-5.253703716373051,3.8136892052466322,-2.7941436874401075,30.38607806424783,5.494377567212898,-38.801147128093355,25.381512269384185,96.80268249211399,67.34286556208494,-33.26411970626891,56.05972795490813,3.6193699783293045,4.315709829330444
-4.96244749044992,-3.050592793319344,-0.14786415989017548,-5.2536097548829765,3.8137209285923235,-2.794245455725185,30.393725982714113,5.13926687272344,-38.58219684792855,25.884564174647682,96.80538785355382,67.3429704493214,-33.26615586922014,56.059883847120375,3.5866091346505167,4.343264818191528
-4.962495226804686,-3.0506350474638295,-0.14783266701602607,-5.2536574912377425,3.813678674447838,-2.794213962851035,30.392870362326953,5.3408206404713185,-38.705930862878816,25.580236113310963,96.80457929521494,67.34311346858391,-33.26530040323248,56.059561147872365,3.6100063493559933,4.369588613510132
-4.962626517404998,-3.0506159734306624,-0.1478722389641934,-5.253788781838056,3.813697748481005,-2.7942535347992026,30.425852947337265,4.9675549831633665,-38.45872380163742,25.947656287587765,96.80528035445819,67.34224292672397,-33.264762831659205,56.05915286050987,3.6897868852474645,4.393054962158203
-4.962454783023768,-3.0506469386295563,-0.14783841039162238,-5.253617047456825,3.813666783282111,-2.7942197062266314,30.421760256306865,4.8348405027305725,-38.39590259177808,25.99234730335613,96.8048304597856,67.34341255421852,-33.26566498132096,56.05958592530005,3.7648282841052394,4.418384313583374
-4.962459948208629,-3.050606696513881,-0.14785186174037174,-5.253622212641686,3.8137070253977865,-2.794233157575381,30.40683137249671,5.1729215337523895,-38.6015749952692,25.702091184510667,96.80507923183318,67.34303614352596,-33.26587743292073,56.05979417233686,3.727341485326683,4.430805683135986
-4.962406513799456,-3.0506327011128476,-0.14781403859596037,-5.253568778232514,3.81368102079882,-2.7941953344309693,30.399812654192292,5.4053650501036445,-38.742332158068486,25.436867393558533,96.80428021143507,67.34356593135804,-33.265795610248254,56.05991164630787,3.6756961161831354,4.4559643268585205
-4.962398404153991,-3.0506170811430047,-0.1478737585688657,-5.253560668587047,3.8136966407686628,-2.794255054403875,30.42305530368857,5.05225891600174,-38.51311971472018,25.862855627487303,96.80577947019216,67.34341283235497,-33.2666065539594,56.05983899681517,3.675735695828787,4.479772090911865
-4.962371805846447,-3.0505761510079004,-0.14786818524060075,-5.253534070279505,3.813737570903767,-2.7942494810756098,30.39376029484608,5.093787070537609,-38.56077241537462,25.884978398311347,96.80560809002017,67.34321295930181,-33.266849200920404,56.06021353513589,3.675780028765221,4.492948770523071
-4.9623684157073775,-3.050587815727756,-0.14783406864138843,-5.253530680140435,3.8137259061839113,-2.7942153644763974,30.141438063697198,5.597626223117651,-39.11537979971708,25.117489029394658,96.80477330854441,67.34336416937363,-33.2664438231738,56.06026124946181,3.675755372293499,4.517289161682129
-4.962555530647691,-3.0505204987931043,-0.14782225626080947,-5.253717795080748,3.813793223118563,-2.7942035520958184,30.28720955270453,5.122162703318602,-38.68883455816574,25.776169411299062,96.80396060020357,67.34186196807994,-33.26496113160244,56.060179063949356,3.764945816386194,4.53189754486084
-4.96252520836624,-3.0505852883761806,-0.14776802503403674,-5.253687472799298,3.813728433535487,-2.794149320869046,30.40480079846283,4.903028220270344,-38.43841228823123,26.064754830001625,96.80277805386629,67.3426150882375,-33.26440849172878,56.06002144595262,3.7836272760334566,4.591753244400024
-4.962796870459335,-3.0506647208482516,-0.14784300645400453,-5.253959134892392,3.813649001063416,-2.7942243022890136,30.477032400192968,5.1418361123717675,-38.492325821696475,25.933627141182782,96.80429611438146,67.34181294483555,-33.26293643426155,56.05840343845297,15.165760705567259,4.6351776123046875
-4.962281214080766,-3.050586315812799,-0.14785560972763098,-5.253443478513824,3.8137274060988684,-2.79423690556264,30.34990990554232,5.7486868564859845,-38.977725509503294,25.119294811499124,96.80549185413781,67.34377286209912,-33.2674021705785,56.060465486302526,3.6757743814122392,4.662703990936279
-4.9623279118054775,-3.0505878846993277,-0.14784142437445166,-5.253490176238534,3.8137258372123397,-2.794222720209461,30.316299545551622,5.861333957285078,-39.069597156195655,25.02467883189358,96.80504139532403,67.34356322992608,-33.266855682949846,56.06035995527386,3.5772354526883507,4.6751580238342285
-4.962435980853725,-3.0506345405630264,-0.14789423942934987,-5.253598245286781,3.813679181348641,-2.794275535264359,30.339008282766418,5.612535880022937,-38.908431230419595,25.328749251817197,96.80625906178464,67.34334498819605,-33.26650786724058,56.05953761336602,3.680412481237431,4.71825909614563
-4.96241829848958,-3.0506293186175615,-0.14787617975266953,-5.253580562922638,3.813684403294106,-2.7942574755876786,30.34883181751233,5.630768418865052,-38.91004957197631,25.295193986122936,96.80582586125897,67.34341093078216,-33.26644726031715,56.05968788326683,3.717947264672552,4.730598211288452
-4.962483042401067,-3.0505443966395664,-0.14784687745612032,-5.253645306834125,3.813769325272101,-2.7942281732911294,30.21675552602977,4.928333273845123,-38.64507122702166,26.00122237102844,96.80477940418987,67.34240419657948,-33.265778734122904,56.060157668598265,3.55380794384478,4.756290435791016
-4.962685398857154,-3.0505257352852,-0.14778892280734013,-5.253847663290211,3.8137879866264672,-2.7941702186423494,30.17077860564448,4.911329015057526,-38.68114465488805,25.9938141945116,96.80286503342982,67.34127974483893,-33.26351209018424,56.05985900371231,3.628852659366747,4.797011613845825
-4.96260573665969,-3.050528509734143,-0.14781885539965708,-5.253768001092746,3.8137852121775246,-2.794200151234666,30.364837334657274,4.345544058199747,-38.123816496509534,26.753001700874314,96.80378983510796,67.34167662955412,-33.26449962686281,56.05998312376046,3.755547163763925,4.809973478317261
-4.962675139442455,-3.0506073191236145,-0.14785050170897268,-5.2538374038755125,3.813706402788053,-2.794231797543982,30.514319051266156,4.337542205570177,-37.954104662673416,26.884067567134903,96.80461371438984,67.34194635474871,-33.2641351631373,56.05913547814521,3.6287898215335055,4.834804058074951
-4.962445676790748,-3.0505622583783865,-0.14782424718785458,-5.253607941223805,3.813751463533281,-2.794205543022864,30.301497200080135,5.545524066667783,-38.91154655060925,25.367862165743972,96.80431687815636,67.34276787081073,-33.26576763510086,56.06022905495733,3.7414553367360917,4.860092401504517
-4.962587551137944,-3.050570603961882,-0.1478651955196016,-5.253749815571002,3.8137431179497856,-2.7942464913546106,30.310514408191494,5.547367248356086,-38.89281102180719,25.48455679364598,96.80508749723747,67.3420706189181,-33.26509748460673,56.0595999918675,3.7414462481449338,4.872896909713745
-4.962720421052138,-3.050587221306227,-0.14780249380532495,-5.253882685485195,3.8137265006054406,-2.794183789640334,30.405983998813177,4.899036652677116,-38.42759849739854,26.120921916466173,96.8032642056585,67.34159956837966,-33.26324894466526,56.059293893822016,3.6991651564774033,4.89811897277832
-4.9626897858602685,-3.0506314017522635,-0.14779539975314343,-5.253852050293325,3.813682320159404,-2.7941766955881526,30.460874341016375,4.722405445310749,-38.25999129410552,26.372118792038364,96.80323585208066,67.34213176240604,-33.26330694503363,56.05911576222074,3.7507281594074833,4.915518045425415
-4.962548136237228,-3.050562199856896,-0.1477786328178152,-5.253710400670284,3.8137515220547713,-2.7941599286528245,30.3590738371462,5.275381495284997,-38.704834881019316,25.61848761582641,96.80295400420505,67.34229430067366,-33.264404708657295,56.060069991013606,3.7461190263483024,4.944009780883789
-4.9625164929620444,-3.0506198124392645,-0.1477806040108998,-5.253678757395102,3.813693909472403,-2.794161899845909,30.33765190479009,5.548388541651835,-38.88847943642194,25.205263003776864,96.80318497598698,67.34293394629992,-33.26454709181906,56.059774281857095,3.5161656268291015,4.957442760467529
-4.962395703296712,-3.0505749052427418,-0.14782053293377637,-5.253557967729769,3.8137388166689257,-2.7942018287687853,30.309279847897823,5.556935025376134,-38.92234581862065,25.199536763915493,96.8043488335917,67.34313197897598,-33.26609448857971,56.0603099724714,3.577234179809863,4.969468593597412
-4.9624725322936625,-3.0506192786391377,-0.14787213540923988,-5.25363479672672,3.8136944432725297,-2.794253431244249,30.384434326399653,5.006816228361246,-38.52682083727436,25.88690347018159,96.80559383353834,67.34305519301594,-33.26598800409706,56.05960271758462,3.7179505684500054,5.007012605667114
-4.9624811123209085,-3.0506107716543815,-0.1478209036177755,-5.253643376753965,3.813702950257286,-2.794202199452785,30.400810581209395,5.164102569879831,-38.60110948008069,25.72843679256747,96.80425978335808,67.3429955409849,-33.2653305184012,56.05980682652639,3.825850361632213,5.021833658218384
-4.962708891133401,-3.050613565816699,-0.1478099841533083,-5.253871155566458,3.8137001560949684,-2.7941912799883175,30.46651382226974,4.670650813775821,-38.23290283287846,26.325559431622718,96.80353103218876,67.3418700004435,-33.26336876703938,56.05912737249319,3.8258186828711604,5.034076452255249
-4.96257492441822,-3.050603926717498,-0.14783606093036003,-5.253737188851278,3.8137097951941694,-2.794217356765369,30.40849826784868,4.909611821704819,-38.44261875410443,26.011103220536455,96.80444184106301,67.34244417662059,-33.26477470852808,56.059514034921136,3.6287989387062494,5.058547496795654
-4.962476403774822,-3.050634125904787,-0.14777522212652866,-5.25363866820788,3.8136795960068803,-2.7941565179615377,30.369845064725933,5.442087577623307,-38.79263148743372,25.391703638599694,96.80315815369052,67.34326337652836,-33.26477100454456,56.059819402003,3.64752211258679,5.070834398269653
-4.962480275518093,-3.050581936218822,-0.1478176711165613,-5.253642539951151,3.8137317856928457,-2.7941989669515706,30.36978927804592,5.4436623007743625,-38.77895614070815,25.57011517918972,96.80412069372969,67.34276276806358,-33.26536621881465,56.060013507672515,3.7320445580309185,5.09575080871582
-4.962429888547497,-3.0505013877633442,-0.14778704168703824,-5.253592152980554,3.813812334148323,-2.794168337522047,30.20485771066224,4.8101239085839005,-38.593571181698294,26.063147384248165,96.80328081279406,67.34238055498274,-33.26559445930009,56.06081113061438,3.713357436232533,5.143107175827026
-4.962587362771766,-3.050575038211952,-0.14779543767712125,-5.253749627204822,3.8137386836997154,-2.7941767335121304,30.38816392666102,4.588781652248901,-38.25766241191031,26.45467132915434,96.80332763097377,67.3421834725459,-33.264259959860155,56.05980695410581,3.7132651874643017,5.158098220825195
-4.962540618460988,-3.050564042788714,-0.14784269323994076,-5.253702882894045,3.8137496791229535,-2.79422398907495,30.347718276832943,5.365936001498561,-38.76602960886983,25.535726006613476,96.80459766776698,67.34227919040177,-33.26522165536424,56.059863859978975,3.6241559082123826,5.195985794067383
-4.962564409746693,-3.050588645465949,-0.14784705164243894,-5.253726674179751,3.8137250764457185,-2.794228347477448,30.465165099932225,5.010309570436959,-38.43808610281046,25.979580954788254,96.80471057572302,67.34235849187077,-33.26502525255043,56.05961141652746,4.9425143896371555,5.232147693634033
-4.9624133898951435,-3.0506163540437807,-0.14780687439570095,-5.2535756543282,3.8136973678678867,-2.79418817023071,30.373705055935876,5.514514828905034,-38.83037649306773,25.299950478069526,96.80405135086143,67.34340224135131,-33.26569359826167,56.06002434815018,3.7226277768873137,5.261336326599121
-4.962782651149823,-3.050613867749008,-0.14782473935537574,-5.25394491558288,3.8136998541626594,-2.794206035190385,30.479647030233345,4.781009164199576,-38.282040317509484,26.247973495739238,96.80375773779795,67.34148087078908,-33.26295222777569,56.058849487893724,3.7225970390059047,5.273629426956177
-4.962701347139521,-3.050568010332596,-0.14780668243851613,-5.253863611572578,3.8137457115790716,-2.7941879782735253,30.537748008966673,4.437525212189243,-38.01139231396248,26.62715442892148,96.80336959363851,67.34153202254869,-33.26349645851434,56.05946684035679,3.8352501480404593,5.28898549079895
-4.962510745135615,-3.0506122878771245,-0.14784909132217744,-5.253673009568672,3.813701434034543,-2.7942303871571865,30.418112437641437,5.664366581820662,-38.849788501129275,25.371680746241893,96.80491831329894,67.3428269289911,-33.265424329826594,56.05961050018795,3.741404293819649,5.31461238861084
-4.962315264383644,-3.0506035345640807,-0.14789551513972277,-5.253477528816701,3.8137101873475867,-2.794276810974732,30.36437873715076,5.748637589559118,-38.970284178197915,25.009916742501645,96.8064707799681,67.34370011056396,-33.26756305074907,56.06011076259003,3.741451947129212,5.339632272720337
-4.9623831659747575,-3.050614653281522,-0.14788249564554665,-5.253545430407815,3.8136990686301453,-2.7942637914805557,30.344703174692185,5.441090249399383,-38.80771389007754,25.519541383695028,96.80602675507257,67.34346084228491,-33.26683815369638,56.059872363422926,3.7226608367983927,5.382211446762085
-4.962485680786122,-3.0505799078539617,-0.14787750703905747,-5.253647945219178,3.8137338140577057,-2.7942588028740665,30.364820541230774,5.633458929208043,-38.88006691279528,25.48710707032657,96.80562339174189,67.34265404749267,-33.2660384498856,56.059808019711376,3.722684826866029,5.3951416015625
-4.962206451133288,-3.0505275569239316,-0.14779112240334194,-5.253368715566346,3.813786164987736,-2.794172418238351,30.11189496203361,5.987120329730481,-39.3408187933716,24.89789118434638,96.80388645294204,67.3437329792554,-33.26737269028587,56.061306418853,3.72273876635938,5.418841361999512
-4.962335681712669,-3.050569019546493,-0.14780450499514258,-5.2534979461457265,3.8137447023651743,-2.7941858008301517,30.12604248017715,5.841076617408166,-39.25727915206367,24.917739507819338,96.80405085037651,67.34340593825448,-33.26639892060149,56.06058750281206,3.516248051738642,5.4305336475372314
-4.962790183845649,-3.050635172088469,-0.1478643889384437,-5.2539524482787066,3.8136785498231984,-2.7942456847734527,30.540516171396657,4.262096020792897,-37.89355240133185,26.836554464944893,96.80479162768027,67.34157760607224,-33.26331308171655,56.058549510456714,3.727280083249301,5.471392869949341
-4.962587884303858,-3.050616764738315,-0.14779983873415517,-5.2537501487369145,3.8136969571733523,-2.7941811345691643,30.480693307568973,4.279087776324248,-37.96368886705612,26.84285238498728,96.80352324930587,67.34252411412909,-33.26421054034854,56.05951092481919,3.6616128833117374,5.495356559753418
-4.9625304463388495,-3.0506041166573263,-0.14781593033526447,-5.253692710771907,3.813709605254341,-2.7941972261702737,30.395044908113974,4.982301148006353,-38.509452880751454,25.823164411493355,96.80402098277523,67.34269400531944,-33.2648916019071,56.059717131142094,3.6616385036891295,5.522181987762451
-4.9625726034780655,-3.0505923185236,-0.14781615145587035,-5.253734867911122,3.8137214033880675,-2.7941974472908795,30.403040719433335,5.224626530693348,-38.63228922711691,25.660630528919757,96.80391786260918,67.34238056185336,-33.2645839283584,56.059666293723765,3.6616465625333605,5.534182071685791
-4.962719934214589,-3.05062566508676,-0.14776745641626726,-5.253882198647647,3.8136880568249074,-2.7941487522512762,30.46866825506736,4.896349633802187,-38.36178590821012,26.14029129834667,96.8024548987009,67.34196030819139,-33.26274679177599,56.059156415344546,3.75541249406246,5.561955213546753
-4.96277229811747,-3.050644102137891,-0.14781785808152517,-5.253934562550526,3.8136696197737763,-2.7941991539165345,30.518031490938228,4.526439510788874,-38.066840875733526,26.705414787485736,96.80366562948302,67.3417931763267,-33.26288280177332,56.058701939188964,3.539584604184417,5.574019432067871
-4.96245340508625,-3.0505958347692816,-0.1478236385894969,-5.2536156695193075,3.813717887142386,-2.794204934424506,30.31627161335504,5.482890601723763,-38.86671790707295,25.375132790676258,96.80435436625221,67.343009198827,-33.265619988305104,56.05998250428214,3.5396725916934173,5.601472854614258
-4.96260954041251,-3.050580829813092,-0.14783041805009656,-5.253771804845567,3.8137328920985754,-2.7942117138851055,30.328930363009576,5.4544623190306325,-38.83958519322363,25.366818037690372,96.80418210740349,67.34208121924307,-33.26448422606843,56.05958183595533,3.6335094956604834,5.61690616607666
-4.962472154347531,-3.050637290021159,-0.1478847665836503,-5.253634418780589,3.8136764318905083,-2.7942660624186595,30.324557800892606,5.638598163381456,-38.95122529378108,25.10323631308099,96.80595170427183,67.34319377836782,-33.26609898513077,56.059440459007796,3.577183341974991,5.653620719909668
-4.962477263546337,-3.0506140866667257,-0.14783595986523151,-5.253639527979393,3.8136996352449417,-2.7942172557002407,30.385915958438314,5.218981311364568,-38.65160718968224,25.619184277477668,96.80465616975012,67.34302663355166,-33.26553247853524,56.05974544784518,3.5771893992436734,5.6689207553863525
-4.962424470667852,-3.0506363266629264,-0.14784784398874146,-5.253586735100909,3.813677395248741,-2.7942291398237504,30.433549756967107,5.2244202970526015,-38.59456818145273,25.764656869562177,96.80510900962835,67.34346836762914,-33.2660448019257,56.05971793593615,3.71792866210145,5.699244976043701
-4.962515258033598,-3.0505821042957413,-0.14778195902790497,-5.2536775224666545,3.813731617615926,-2.794163254862914,30.356579377274745,5.562986508420238,-38.865220781359625,25.357433174398217,96.80314496459422,67.34262426904468,-33.26466120818345,56.06002609693394,3.6147333047719643,5.711155652999878
-4.962572004763685,-3.0506269027217647,-0.14784153515160112,-5.253734269196743,3.8136868191899027,-2.79422283098661,30.4728544500006,5.241760123911674,-38.55587004678848,25.830900298210047,96.8046333960858,67.34264481081941,-33.26480944747892,56.05935052722081,3.6240852534284613,5.738154888153076
-4.9626586201539045,-3.050603559056048,-0.14790836025813908,-5.253820884586961,3.8137101628556196,-2.7942896560931483,30.47508424765303,4.735170420016682,-38.26593312190451,26.239050512542125,96.80610668827322,67.34193702070388,-33.26496364546368,56.059015449465726,3.614741734523874,5.7506256103515625
-4.962412022680489,-3.050598915472971,-0.14779630337122834,-5.253574287113546,3.8137148064386963,-2.7941775992062374,30.419529078575618,5.3023351529966805,-38.65146375262198,25.702430565684086,96.80375041446804,67.34327510833845,-33.265619735227475,56.06018114194285,3.6147319202757684,5.793842554092407
-4.962386550354154,-3.050588971018956,-0.14784029969910312,-5.2535488147872105,3.8137247508927112,-2.794221595534112,30.248911550675864,5.587974419797578,-38.99016375366378,25.295012447833663,96.80489728433145,67.34327470923607,-33.26636979529388,56.06017687238536,12.965447125632569,5.831432104110718
-4.962627763509721,-3.050600368691027,-0.1479081989872179,-5.253790027942777,3.8137133532206406,-2.794289494822227,30.434820971899526,4.800854801924256,-38.33153021946045,26.312227226845692,96.80615808993953,67.34206780161342,-33.265216483522266,56.059131879574316,3.671049763775793,5.8698036670684814
-4.962456202081307,-3.050615617765098,-0.14779611405137613,-5.253618466514364,3.8136981041465696,-2.794177409886385,30.317609958889946,5.740869142204747,-39.01203580977515,25.01411043899261,96.80369092169417,67.3431895087374,-33.265224358011984,56.059934563906026,3.6710106641827966,5.910317659378052
-4.962890350271611,-3.050689926668108,-0.1477386532969517,-5.254052614704667,3.8136237952435597,-2.794119949131961,30.62741453587096,4.035424543479013,-37.65652770598171,27.092577598914502,96.80151320367311,67.34165893745009,-33.26088881954021,56.05830138507964,4.182265523135747,5.937425851821899
-4.962671185208645,-3.0506838931135234,-0.14772440269279918,-5.253833449641702,3.813629828798144,-2.794105698527808,30.57978445118815,4.333810473842936,-37.894441072920266,26.823205838352536,96.80157946513917,67.34274055693312,-33.26248994717863,56.059061352036814,3.6474293091026695,5.95011568069458
-4.962275695269419,-3.050787103386576,-0.14746951502060163,-5.253437959702476,3.8135266185250916,-2.7938508108556106,30.167172203469818,5.262251047588805,-38.922552681151494,25.285410236658816,96.79611795891762,67.34589012792883,-33.26239027727878,56.060444020039306,3.6472680980629297,5.974864959716797
-4.962076330213928,-3.0520799472881097,-0.1458564439112821,-5.2532385946469855,3.8122337746235577,-2.7922377397462914,30.05445243443165,4.6510826302298325,-38.72244482335731,25.629165654776635,96.75821165245794,67.3594139466205,-33.24179943138653,56.05785029819788,3.574941724830465,6.013165235519409
-4.962207749895159,-3.052871993447321,-0.14396685464955303,-5.253370014328216,3.8114417284643465,-2.790348150484562,30.65563266612015,3.8128851735825986,-37.64572341983119,26.239880454560737,96.71158157608103,67.36735714682996,-33.216434082603755,56.058529590722415,3.573385817209494,6.039628744125366
-4.9619585993407025,-3.053193986998456,-0.14272936128570612,-5.253120863773759,3.8111197349132113,-2.789110657120715,30.468180883290284,4.247635429825018,-38.04640091159212,26.349472353133947,96.68129494327948,67.37262058778367,-33.202960570657346,56.061319279880436,3.572612027994026,6.051804780960083
-4.962121008479546,-3.054539534339212,-0.13967214886547613,-5.253283272912602,3.8097741875724553,-2.786053444700485,30.445453840904324,4.784736832787566,-38.370095553044926,26.14139310173504,96.60599683004507,67.38621647816923,-33.16214413063568,56.06212864681673,3.7670852110901,6.076681852340698
-4.962515273568122,-3.0571952793484645,-0.13172168844330634,-5.253677538001179,3.807118442563203,-2.7781029842783154,30.764301536288585,4.091216010359008,-37.94160539071486,24.205514848706553,96.40828743610187,67.41450619450822,-33.058074323099895,56.06992014130455,7.064272121157,6.120177507400513
-4.963086137783837,-3.0581839942707605,-0.1286069619034682,-5.254248402216895,3.806129727640907,-2.7749882577384772,30.984542827118496,3.2371993838640947,-37.30707894537467,24.443891004043643,96.32986552129789,67.42296048282623,-33.01405271985048,56.07201370382253,3.744926336197743,6.1349146366119385
-4.963677362080949,-3.0613636878592656,-0.1190795927102708,-5.2548396265140065,3.802950034052402,-2.76546088854528,30.861480788668892,3.652668930882538,-37.617927519971566,24.76922449860452,96.09211976063767,67.45576812094956,-32.88810784684313,56.08085716135813,4.056980980326048,6.174550294876099
-4.964687646888008,-3.0654553053234843,-0.10736551282379801,-5.255849911321065,3.798858416588183,-2.753746808658807,31.40217945031069,4.098181009534959,-37.220578607913986,25.70153415020442,95.79899052798105,67.49566080890499,-32.73026222289105,56.08946461332134,4.174838704489785,6.218177318572998
-4.965356615496808,-3.0666639661810025,-0.10379279061775272,-5.256518879929866,3.797649755730665,-2.7501740864527617,31.18099459383558,4.482496343575383,-37.67179783409276,25.34193613296978,95.70879321299877,67.50553912912147,-32.67927731889385,56.09119298441213,4.172151088539751,6.230949401855469
-4.966029304252286,-3.0695807928076926,-0.09621064093653398,-5.257191568685344,3.794732929103975,-2.742591936771543,31.44101766753715,4.230313153650407,-37.330601918351945,25.17570735322475,95.51900766493313,67.53308079378407,-32.5761037807555,56.09475765746137,4.072313155325748,6.258345127105713
-4.966514533781533,-3.070848539361373,-0.09278757076579244,-5.2576767982145896,3.7934651825502943,-2.7391688666008016,31.393292098817827,4.304128502736235,-37.41848937845959,25.203846917400515,95.43286445229386,67.54409648288633,-32.52815404006968,56.096103212617685,3.9429577878057662,6.270637035369873
-4.9676891358389454,-3.0739928065256015,-0.08491012245105387,-5.258851400272003,3.790320915386066,-2.731291418286063,31.366673162319373,4.870468824786465,-37.7459614634356,25.034179472303418,95.2347240076004,67.57084706219285,-32.4167376840885,56.09742000136638,4.0726072265909075,6.298895597457886
-4.9677865151640095,-3.0754381744534407,-0.08183637750042515,-5.258948779597066,3.7888755474582267,-2.7282176733354344,31.02889310422956,4.514583816457561,-37.92207124356204,25.096773131637335,95.15820589323079,67.58488268836588,-32.37558377085079,56.09756623188468,3.2910761026832045,6.311053037643433
-4.968608090536913,-3.078284799925404,-0.07532527440668495,-5.2597703549699695,3.7860289219862633,-2.721706570241694,30.843232661999537,4.975799413481237,-38.32786420202609,25.24917392382789,94.99470412929224,67.60953374956196,-32.28396742598178,56.097346846743555,3.2761404359902135,6.335906505584717
-4.968946228536525,-3.0801943990272327,-0.0717255103750937,-5.260108492969582,3.7841193228844348,-2.718106806210103,31.075005889963027,5.463066430387561,-38.33465974642914,25.263827354780684,94.90489288325296,67.6264707732035,-32.23343614498578,56.09529394397222,3.272723926826787,6.3503992557525635
-4.969847136981572,-3.0828087804635707,-0.06579066862066597,-5.261009401414629,3.781504941448097,-2.712171964455675,30.790509775914284,5.183938740478073,-38.52126478727412,25.017371993720708,94.75537294381374,67.64807028133548,-32.148567937508254,56.09438619497633,3.2910825734463467,6.375819444656372
-4.970116688564998,-3.0850350080210265,-0.06222378443314791,-5.261278952998055,3.779278713890641,-2.708605080268157,30.874552346095268,4.997639935801393,-38.35212300987581,25.138958260000198,94.66675109542173,67.66781460332936,-32.09819739448738,56.090242755275874,3.1559762750696034,6.391768455505371
-4.970676176929237,-3.088165325830177,-0.0566589772275215,-5.261838441362293,3.7761483960814903,-2.7030402730625305,30.84615191194403,5.083750077046053,-38.44962337471324,24.98757871578009,94.52760700877496,67.6949432263732,-32.01924218465001,56.08561243178885,3.150495964975958,6.417156934738159
-4.970667736193012,-3.0896514205190115,-0.05378859752141141,-5.26183000062607,3.774662301392656,-2.7001698933564207,31.030036148812332,5.709604527543191,-38.58956114577353,24.633394438961442,94.45591200626973,67.70934537252059,-31.981108303887698,56.085014761619135,3.3073548955119225,6.430254697799683
-4.971125728936562,-3.0925010142083025,-0.04902684277693642,-5.262287993369618,3.771812707703365,-2.6954081386119455,31.044168035423954,6.2769907026532215,-38.8695634495669,24.13038195400838,94.33683037962729,67.73391477649282,-31.913254370423957,56.079894173171866,3.288407192307731,6.454791069030762
-4.971959329068597,-3.097101425413191,-0.04161739151383548,-5.263121593501655,3.7672122964984767,-2.6879986873488444,31.313712782465508,5.94763712207172,-38.47828628999202,24.100797032627334,94.15128850727405,67.77269656850099,-31.806278279936677,56.07033021532557,3.9140212283817997,6.494242429733276
-4.972395017415693,-3.1016831606914637,-0.034050766226879886,-5.263557281848749,3.762630561220204,-2.680432062061889,31.417372308362303,5.568842914499001,-38.21596576072912,24.379545891023863,93.96164198555178,67.8132233596776,-31.70043554645938,56.06257045481734,3.756106313437594,6.536152124404907
-4.972282667949392,-3.1041723066196085,-0.029601964674062953,-5.263444932382448,3.760141415292059,-2.675983260509072,31.315521705416042,5.974372260439996,-38.53161289054304,24.11143267602816,93.8500052506161,67.83713941077148,-31.641473407428034,56.06052923525445,3.7517847089907947,6.560484886169434
-4.972337604565881,-3.105370256120105,-0.027510846608167522,-5.263499868998939,3.7589434657915626,-2.6738921424431767,31.232264323677107,5.906313881925568,-38.5943506882285,24.078922469067603,93.79740252796671,67.84802602296713,-31.612842880162408,56.05902479012257,3.824780795827513,6.572123289108276
-4.972435606774186,-3.1074586098047603,-0.02317966975648697,-5.263597871207244,3.756855112106907,-2.6695609655914962,31.406143853803542,5.71285836109673,-38.36213804290125,23.883289925623952,93.68785642537776,67.86734453949832,-31.554496991135288,56.0586077004409,3.8209084319416418,6.595228433609009
-4.9718928543385665,-3.110490553385025,-0.016816109619631175,-5.263055118771624,3.7538231685266426,-2.6631974054546403,31.62197652217743,5.258187209544086,-37.9701763797188,23.991632980547593,93.52719205974425,67.89883207361125,-31.47410371470099,56.060397006644955,3.909155751967451,6.6293275356292725
-4.97175393755035,-3.11236359807088,-0.011667735354828873,-5.262916201983407,3.7519501238407873,-2.658049031189838,31.520029478259058,5.519932576619682,-38.21590720624841,23.84510436656202,93.39601594194541,67.91783479447245,-31.407917766302788,56.06479101676003,3.7785448261231815,6.653551816940308
-4.970502358227635,-3.1175713613467004,0.0053839176952023005,-5.2616646226606925,3.746742360564967,-2.6409973781398066,31.71263977266466,5.44563066050479,-38.101181089655405,23.205175226517675,92.95975695990077,67.97585797830955,-31.19645550352645,56.08847318717227,3.9027020652190236,6.729652166366577
-4.970027869378123,-3.1184732060124802,0.01128514406524947,-5.26119013381118,3.745840515899187,-2.6350961517697598,31.6348761580678,5.505471621702086,-38.24536894365679,22.883993373787007,92.80743486198241,67.98843571630046,-31.125330269787625,56.102879982396324,3.1207102811897123,6.753608703613281
-4.969422810311219,-3.1200849247335585,0.021119355357510583,-5.2605850747442755,3.744228797178109,-2.6252619404774986,31.870544492439464,5.185882324260432,-37.92787826739431,22.662225423840514,92.553253550282,68.00901789763546,-31.00487927273771,56.12547761219043,3.302977595369266,6.792752742767334
-4.9687956605442345,-3.12097361147158,0.028199413624629716,-5.259957924977292,3.7433401104400876,-2.6181818822103793,31.785778231250433,5.044743908085683,-37.96725243567286,22.928540838471637,92.36983483755037,68.02234152084671,-30.920023319436694,56.14417587672818,3.3228504961479395,6.818737506866455
-4.968749548000357,-3.1212445517757526,0.03140439012476126,-5.259911812433414,3.743069170135915,-2.6149769057102477,31.889098562333853,4.8753748039842275,-37.79658761106954,23.03132502747424,92.28652707388038,68.02598606162886,-30.880005552198796,56.15274735172371,3.321344881028577,6.830505609512329
-4.968424267896124,-3.121670772482359,0.03803745693377361,-5.259586532329181,3.7426429494293085,-2.6083438389012357,32.127429813350176,5.057522596771254,-37.67856498519198,22.70454273895096,92.11400286975486,68.03347698527037,-30.79913092298864,56.17213004386702,3.407535460889691,6.854423761367798
-4.967637372386697,-3.12210771423627,0.04855765283781552,-5.258799636819755,3.7422060076753976,-2.5978236429971937,31.86501574094462,4.677984260832141,-37.82849242346108,22.631998930258643,91.84002762948361,68.04442068688768,-30.673140879992662,56.20532439028161,3.38905212561275,6.890242099761963
-4.966927007418887,-3.1223919520990364,0.056161604831375805,-5.258089271851944,3.741921769812631,-2.5902196910036333,31.710364692563076,4.720457644359644,-38.03473832437886,22.574521827036428,91.64181947785261,68.05252354891213,-30.58298521746293,56.22994925828224,3.5641957721090467,6.915365695953369
-4.966700947860071,-3.122160892168095,0.05994317284912698,-5.2578632122931275,3.7421528297435724,-2.586438122985882,31.529419459057692,4.727558037265276,-38.23095704632228,22.586790126221224,91.54291625411125,68.05272592189881,-30.53788416858838,56.24430904654163,3.6568537905437823,6.927568435668945
-4.966365756553477,-3.1222255587520733,0.0678221849135805,-5.257528020986535,3.742088163159594,-2.5785591109214288,31.612752886761978,4.290142409805887,-37.98145775461263,22.73903420449527,91.33715376968593,68.05676534042964,-30.441556058455408,56.27000439990503,3.653801699266836,6.953451633453369
-4.965927014600776,-3.12213113567492,0.07251695089758495,-5.257089279033833,3.7421825862367473,-2.5738643449374243,31.41360165412183,4.268012901435194,-38.18729968826365,22.768453529580132,91.21442892364122,68.0591940925349,-30.3861614506105,56.28699605770648,3.6521454385419485,6.968515634536743
-4.965830975102721,-3.121944641388978,0.08054767021156137,-5.2569932395357775,3.7423690805226895,-2.5658336256234477,31.772262517987546,4.200881770282485,-37.83216755452353,22.66751066603997,91.00444749405848,68.0595288910783,-30.28627031533477,56.314015626031406,3.9636260115472615,6.993427276611328
-4.96494897000694,-3.1211175481609597,0.09172650020895276,-5.256111234439997,3.743196173750708,-2.5546547956260564,31.33521742950115,4.383875259578609,-38.414533978805025,22.266491538367383,90.71173179130562,68.05874948232866,-30.153731367963104,56.357927948799826,3.960304034993717,7.0287415981292725
-4.964783432402248,-3.1204729874932453,0.0987312691775947,-5.2559456968353055,3.743840734418422,-2.5476500266574145,31.242118341450954,3.9894864363294866,-38.35634015217726,22.401736692935412,90.52832206875206,68.05493916610192,-30.06775492683993,56.38496515087198,3.9583203792547463,7.051336288452148
-4.964201451467931,-3.119995604134255,0.10637142633680916,-5.255363715900987,3.7443181177774125,-2.5400098694982,31.163172016538088,4.172556599768932,-38.54853659042438,22.26206797536363,90.32826846874863,68.05450414251604,-29.976359992816494,56.41421253405688,3.3647859453318985,7.075344800949097
-4.9641984748737125,-3.1197988977461497,0.10986773443092265,-5.25536073930677,3.7445148241655177,-2.5365135614040866,31.312508175544032,3.9762661497502703,-38.32868912082619,22.257044220474505,90.23681241391223,68.05303502336254,-29.932415610568853,56.4265449630981,0.14510264088382296,7.086596965789795
-4.963946913660277,-3.11917260523943,0.11669434879199339,-5.255109178093335,3.7451411166722375,-2.529686947043016,31.161356793523506,3.692641996314052,-38.366676164044115,22.463100207410676,90.0580970421715,68.04929419209866,-29.848853039927434,56.45308495969985,0.14317005533474791,7.108281850814819
-4.963408327996096,-3.1182789023406,0.12447324091824039,-5.254570592429154,3.7460348195710673,-2.5219080549167687,31.04872318530726,3.4566661889347863,-38.415612312617256,22.368249125168134,89.85432389559115,68.0446150397597,-29.755702874582276,56.48537117396136,-0.09809916969616328,7.133223056793213
-4.963259169872256,-3.1175411423225055,0.1315683653397229,-5.254421434305312,3.746772579589162,-2.514812930495286,31.323660183638708,3.4223514608490233,-38.15761169368902,22.24717549394905,89.66870128106957,68.03898954314492,-29.667787895151143,56.51308539203,3.3437257975423984,7.155700445175171
-4.963246297929232,-3.1171479328124825,0.13499702112514192,-5.25440856236229,3.747165789099185,-2.5113842747098674,31.43110007387899,3.4010341397827526,-38.043525739812665,22.324112016379456,89.57905575159594,68.03558466397054,-29.624863600662522,56.52651247594386,3.3615935284101788,7.166991472244263
-4.962714369573306,-3.115621797496911,0.147125002281805,-5.253876634006364,3.7486919244147563,-2.499256293553204,30.84303419886846,3.0540695269491085,-38.55087088729577,22.04479836950666,89.26177555245408,68.02455604891418,-29.476631261460483,56.57651518252825,3.2413029552319808,7.205366373062134
-4.962727400125951,-3.114850608821438,0.15464123550760686,-5.253889664559008,3.7494631130902296,-2.4917400603274023,31.177370336881896,2.866552759723457,-38.128046899003316,22.34732598088181,89.06552428142827,68.01707977741295,-29.381544204275315,56.60506733540917,3.478505490873962,7.228744268417358
-4.962696461338902,-3.1138061705839934,0.16219891045379356,-5.253858725771959,3.750507551327674,-2.4841823853812155,31.406693511583413,2.869290695423723,-37.91781856387564,22.3630383194775,88.86827674052374,68.00732752913714,-29.286599037916943,56.63572269327746,-0.23447826884619172,7.253002405166626
-4.962595564167355,-3.112366884651753,0.17092021298053825,-5.2537578286004125,3.7519468372599145,-2.475461082854471,31.50105110634775,2.8018021747771615,-37.83073196454838,22.23747928646144,88.64079691834353,67.9941788816078,-29.177729878961365,56.67286558135335,-0.10023839260359946,7.280025243759155
-4.962438895315031,-3.111877013800305,0.17560091824809984,-5.253601159748088,3.7524367081113623,-2.4707803775869093,31.470516854534655,2.5223302717999707,-37.74780340081376,22.328674635955927,88.5186601030788,67.9898645726891,-29.11938419321435,56.691184214693145,-0.10151154384223915,7.294440031051636
-4.962410358348616,-3.1115390358151624,0.1796080495752935,-5.2535726227816735,3.752774686096505,-2.4667732462597156,31.449807435815117,2.6216266778932433,-37.825938426652506,22.282921826505994,88.41422452089759,67.9862258583036,-29.0684135363746,56.70592574287363,-0.10269877443340114,7.30667781829834
-4.962477445276605,-3.109626606787905,0.19404377554079325,-5.253639709709661,3.7546871151237626,-2.4523375202942157,31.596173426160316,2.3897380876918057,-37.57281301625852,22.67560033556837,88.03862456697559,67.96592994958176,-28.8844116537651,56.76309017563886,-0.0030305596871347262,7.351695775985718
-4.962357824518536,-3.1090622332485154,0.19895693289913682,-5.253520088951593,3.755251488663152,-2.4474243629358723,31.35460347648057,2.3788012927533106,-37.8405840293309,22.52394846999013,87.91072887986383,67.96028127652882,-28.82250458627943,56.78240190644063,0.06605507121732224,7.366722583770752
-4.962514497774416,-3.108003989537993,0.20670178612132514,-5.253676762207473,3.7563097323736745,-2.439679509713684,31.663949535151456,2.0028685149560648,-37.41380822108741,22.303017278542374,87.7097322479992,67.94799005610535,-28.72248635837066,56.81274886159618,0.06416971613870537,7.391658544540405
-4.9625499142479885,-3.107114677266644,0.2142710051254851,-5.253712178681046,3.7571990446450236,-2.432110290709524,31.66592904139231,2.051420188217267,-37.459307258298004,22.230617721151543,87.51327366371106,67.93755035222746,-28.62511560268642,56.8417639491348,0.0621793497546701,7.415606737136841
-4.962567040367276,-3.10660420764917,0.21886033274959912,-5.253729304800332,3.7577095142624977,-2.42752096308541,31.827225408473012,2.011934465291612,-37.2966110137744,22.195064361251653,87.39422094512481,67.93136679629664,-28.565951169399664,56.85914565122759,0.075016274761186,7.4301981925964355
-4.962300848629916,-3.1052439916454153,0.23194746594461293,-5.253463113062973,3.759069730266252,-2.4144338298903962,31.62131335268042,1.8307258312656582,-37.445353981799414,22.3209369370983,87.05452750111772,67.91567912878531,-28.398963340816522,56.90905207437115,-0.06934815379316994,7.470855474472046
-4.962755000152617,-3.10440555562048,0.24067338370405097,-5.253917264585674,3.7599081662911873,-2.405707912130958,31.806101914934022,1.8558987906105202,-37.28396350056071,22.351485366676247,86.82924799027404,67.90213566291368,-28.282450252467946,56.939522195022555,-0.07188726394103995,7.498008489608765
-4.96253171484439,-3.1040408823398553,0.24449739487469876,-5.253693979277447,3.760272839571812,-2.4018839009603106,31.730902699635628,1.8687401057461765,-37.384707276701334,22.28345861485588,86.72991363213018,67.89830574256368,-28.234429079385652,56.954329440280176,-0.29817267674770065,7.509461164474487
-4.962705819156817,-3.102915997629899,0.2569797641758155,-5.2538680835898735,3.7613977242817684,-2.3894015316591934,31.863139416950396,1.8992169559134575,-37.273249295053404,22.452878196254318,86.40739816635104,67.88127260668159,-28.070488876423504,56.998898171899626,-0.2314748189988718,7.54774284362793
-4.962764733677059,-3.102430426345304,0.26497482360328195,-5.253926998110115,3.7618832955663635,-2.381406472231727,31.797685826329506,1.68006997025718,-37.27487330757044,22.361205363420385,86.20081082298513,67.87224944463604,-27.965127479098605,57.02592577566951,-0.23408242048210415,7.571889638900757
-4.962578675227423,-3.1018300668393333,0.2755220390691655,-5.253740939660481,3.762483655072334,-2.3708592567658435,31.64381206831276,1.625720405380677,-37.478619212217346,21.99798434441207,85.92799828569244,67.86164028921958,-27.82764752987789,57.0621459234557,-0.4158344449106135,7.603131294250488
-4.96279283770562,-3.101451552088866,0.27961221049702534,-5.2539551021386774,3.7628621698228013,-2.366769085337984,31.663063202310745,1.5581148918108076,-37.414957718300045,22.182159476893762,85.82295980018178,67.85472341492675,-27.77239558580149,57.07613472237108,-0.4170465422754219,7.615558862686157
-4.962551616878443,-3.1011126023141724,0.2851928008066371,-5.2537138813115,3.763201119597495,-2.361188495028372,31.55002643561553,1.471064622833801,-37.511075272954336,22.149789134115277,85.67851819158538,67.84939231373103,-27.700496369632123,57.09588912921353,-0.0904242591943687,7.632172107696533
-4.962476562908856,-3.1006112714882486,0.2969288207289579,-5.253638827341914,3.763702450423419,-2.3494524751060513,31.44589412446375,1.3631149845487605,-37.59528585035986,22.172422823658255,85.37568216776442,67.83729860071959,-27.54535145674372,57.13430863443682,-0.01941197899995828,7.6685826778411865
-4.962601328743013,-3.1001257105020383,0.30962511599125064,-5.25376359317607,3.764188011409629,-2.3367561798437584,31.606609763423656,1.9305772682333002,-37.707488013368845,22.148766799836125,85.04886630646064,67.8230023539041,-27.37534895968433,57.17456141607214,-0.10833575433772502,7.70827841758728
-4.962385784408162,-3.099722360125335,0.3185730965195589,-5.253548048841219,3.7645913617863322,-2.3278081993154505,31.47924672268451,1.5655092423330026,-37.767543233535896,21.630080692673104,84.8181717265891,67.81358556941788,-27.257517755160798,57.204350102398315,-0.11140057500004019,7.736753940582275
-4.962329358406729,-3.0996346489292197,0.3222606403170135,-5.253491622839786,3.7646790729824477,-2.3241206555179956,31.54237755487523,1.5119390711957579,-37.67467491916818,21.767634752733912,84.72314552852293,67.81009518818054,-27.208493224485142,57.21594100159929,-0.11744363850846629,7.748480558395386
-4.9618880704170625,-3.0993220590429016,0.3295835785810378,-5.253050334850119,3.764991662868766,-2.316797717253971,31.410808316979175,1.4745197475626537,-37.85111188503045,21.45311652843349,84.53389102250105,67.80353889682922,-27.113637182925004,57.24107757672113,-0.11995265577477099,7.77269721031189
-4.961933887666262,-3.099074663770988,0.3399075140138891,-5.253096152099319,3.7652390581406796,-2.3064737818211203,31.400215322525227,1.0397417593278957,-37.67771819761267,21.66882871189526,84.26870444456992,67.79211063161524,-26.974375766016976,57.27263285206667,-0.12375645822883463,7.808105707168579
-4.961854469920123,-3.09896619333643,0.3473517428867038,-5.253016734353181,3.7653475285752376,-2.2990295529483054,31.710356686465175,1.01562757119999,-37.40175652436597,21.471320140968793,84.07729531945756,67.7847586841646,-26.874413987375007,57.29524085460798,-0.1265681045742726,7.8331029415130615
-4.961339205353482,-3.098969017570524,0.35534987362211945,-5.252501469786539,3.7653447043411434,-2.29103142221289,31.91886606888168,1.1713191380687173,-37.28292783914935,21.463627740406245,83.87048893775255,67.7797941517657,-26.769681848984515,57.320225870221094,-0.28920542686949435,7.859408617019653
-4.961271236912046,-3.099047948379155,0.35959822532507535,-5.252433501345104,3.7652657735325126,-2.2867830705099337,31.939794194177157,1.3211157945671166,-37.343153828646194,21.39327745497609,83.76113075954726,67.77664276524959,-26.71233422734822,57.33217303812119,-0.2909625073662223,7.873643636703491
-4.960854610375264,-3.0989075301787654,0.37164143246919523,-5.252016874808321,3.765406191732902,-2.274739863365814,31.74688826097986,0.8851611745575896,-37.37552253159839,21.491737555091078,83.45123444979852,67.76543950236939,-26.5516822678789,57.36928061734082,-0.192318293090727,7.912816286087036
-4.960194857766471,-3.098896320451297,0.38270729441152895,-5.251357122199528,3.7654174014603705,-2.26367400142348,31.4488039082218,0.67305441074059,-37.64853397766452,21.267386662893177,83.16579276403097,67.75701370702954,-26.405380515113464,57.40345495949482,-0.0887215659090339,7.948450565338135
-4.959844833633991,-3.0990373485797833,0.39542927764373637,-5.251007098067048,3.765276373331884,-2.2509520181912728,31.50614429339413,0.6322605420329591,-37.63598565743593,21.054256428201953,82.83890982515474,67.74591088994862,-26.233440851278704,57.43998622448054,-5.092920371119192e-05,7.988880395889282
-4.959567915467069,-3.0990677509111184,0.40321672707608425,-5.250730179900126,3.765245971000549,-2.243164568758925,31.60538963090847,0.6809467100511682,-37.58591545035392,20.987398884256123,82.63890522253548,67.73864887190118,-26.12845406536707,57.462879244976335,-0.14859520508129886,8.012271881103516
-4.9593165284699845,-3.099165343661475,0.41468220698811775,-5.250478792903042,3.7651483782501924,-2.2316990888468915,31.6627490852048,0.21749433954467867,-37.38743639812229,20.8496497627561,82.34511966046145,67.72715832860119,-25.972285982065,57.49550281322374,-0.09223959770712575,8.047494411468506
-4.958558928567056,-3.099260432691613,0.42385691224331756,-5.249721193000113,3.7650532892200546,-2.2225243835916917,31.48197268407158,0.36553932204447726,-37.71043070216117,20.45703958255317,82.10841749193919,67.72054171250839,-25.85089806403987,57.523486075375,-0.09592965083175731,8.074872732162476
-4.958025495068908,-3.0995474055879937,0.4369972775631381,-5.2491877595019645,3.7647663163236738,-2.209384018271871,31.64187582697101,0.31481787769061004,-37.54045142531009,20.636364419843535,81.77126033560883,67.70892730268835,-25.67234407233985,57.56026721507911,-0.17180316742647328,8.112951040267944
-4.957636920605447,-3.0996655927729666,0.4459223693049673,-5.2487991850385045,3.764648129138701,-2.200458926530042,31.666901321172265,0.15816221657773283,-37.47097543362738,20.6722421726557,81.54255596376403,67.70014217949975,-25.551033011827073,57.58576794666878,-0.17545626009699156,8.138817071914673
-4.957444642975603,-3.099644371715499,0.45049852097573095,-5.248606907408661,3.7646693501961686,-2.195882774859278,31.69827076155952,0.13870329801870854,-37.47387976653247,20.456076603781728,81.42555917531955,67.69480324303929,-25.488811669337995,57.599348865036916,-0.23354400268928632,8.151645183563232
-4.956695865208972,-3.1001108260235473,0.46437566907335237,-5.2478581296420295,3.76420289588812,-2.182005626761657,31.506067233120287,0.003445491905001461,-37.687590868577594,20.1902793455864,81.0694308224547,67.68331862672008,-25.299937190892123,57.6373316472468,-0.11285047989269703,8.190916061401367
-4.95608413274886,-3.1001165730308755,0.4879485810475437,-5.247246397181916,3.764197148880792,-2.1584327147874656,31.839553289442133,-0.14661991662866525,-37.40231912186802,19.82016707655491,80.46983738146227,67.65223974765043,-24.974222009130507,57.70425623934522,-0.05654889947457864,8.256263971328735
-4.955612516563331,-3.100372440532084,0.4922954405802643,-5.246774780996388,3.7639412813795836,-2.1540858552547446,31.800110288125794,-0.31896522762901525,-37.38970200311096,19.81790091845156,80.35749585983292,67.65016844047314,-24.916019836050594,57.71613994665797,-4.750294518576125,8.268815040588379
-4.955517394362728,-3.100567481064495,0.5011551871677956,-5.246679658795785,3.7637462408471722,-2.1452261086672135,31.52227927519939,-0.8060099986758775,-37.50930193909642,19.736881588898633,80.13282135375792,67.63868368595016,-24.791708817691134,57.73920545143325,-0.7378972267181263,8.293928861618042
-4.9552986805167665,-3.1006460989803726,0.5053488547013464,-5.246460944949824,3.763667622931295,-2.141032441133663,31.65413417770172,-0.8927391780051677,-37.39792850860655,19.45332748686918,80.02590225933658,67.63389564859278,-24.73399667131385,57.75085912710276,-0.739646978081411,8.306097745895386
-4.955301493022981,-3.100629187848328,0.5137063352277469,-5.246463757456038,3.7636845340633394,-2.1326749606072624,31.99472195099065,-0.8371987305607095,-37.09076014603774,19.482260074969584,79.8152001377201,67.62052614845118,-24.61604929096884,57.773518057311456,-0.1189758354380519,8.330901861190796
-4.9550775567024745,-3.1006175058248804,0.5221414882650462,-5.246239821135532,3.763696216086787,-2.124239807569963,31.94554865152225,-0.8139503358133051,-37.199440651957666,19.270649815998322,79.60187460158264,67.60793378593404,-24.498313905559016,57.79714373499978,-0.12702395736949068,8.355649471282959
-4.9542634607334755,-3.100331430307081,0.5348945841421552,-5.245425725166532,3.7639822916045866,-2.111486711692854,31.848915567244482,-0.523130347245042,-37.43600762919312,19.294586952003204,79.2785003541055,67.58852327031981,-24.3235099077563,57.83643203066448,-0.13177900758122174,8.393588304519653
-4.9542653897441085,-3.1006014866332454,0.538842959374782,-5.245427654177166,3.763712235278422,-2.107538336460227,31.795302189920157,-0.8148882442952375,-37.36970689199483,19.410574668156784,79.17868195229823,67.58407444361448,-24.26696821000849,57.8450575439725,-0.025748385413445263,8.405864238739014
-4.953994345463545,-3.1008771866616462,0.5479076689403714,-5.245156609896602,3.763436535250021,-2.098473626894638,31.64818548047319,-1.1453994511676835,-37.412615818825216,19.397804102654906,78.94941276514926,67.57216538654802,-24.139383075051157,57.868266565553164,-0.02967427135523959,8.433207750320435
-4.953493290716793,-3.100505823558757,0.5597082175402514,-5.2446555551498495,3.7638078983529106,-2.0866730782947576,31.63450220803652,-0.9801099438274231,-37.55563139891146,19.142896717326764,78.65268262547673,67.55091074888797,-23.974996217708505,57.904004101111795,-0.16066620624069383,8.468580484390259
-4.95338913455675,-3.100506452904471,0.5715495458601564,-5.244551398989808,3.7638072690071964,-2.0748317499748525,31.69728673464491,-1.1678955532463677,-37.46645189857932,19.002250278072225,78.35632666419261,67.53014334484249,-23.80626331127807,57.93550042072353,-0.13259081999537425,8.504537582397461
-4.953288854651187,-3.1004196349720843,0.5790584646937307,-5.2444511190842436,3.763894086939583,-2.0673228311412783,31.99017432315858,-1.3501392049566128,-37.09866642258013,19.135464348541728,78.16881107161709,67.51615010083374,-23.699378783271804,57.95612034912121,-0.051067587183179164,8.527652025222778
-4.9531499713763125,-3.1002973926689426,0.5872227659592103,-5.244312235809369,3.764016329242725,-2.059158529875799,31.73856482492155,-1.3891963657486186,-37.3048865509388,19.428152725380535,77.96516424117202,67.5006112231382,-23.583185341214993,57.97876782799372,-0.11990647514454356,8.551669597625732
-4.9526716111782925,-3.100337752539489,0.5953464766521592,-5.243833875611349,3.7639759693721784,-2.05103481918285,31.433158428930923,-1.374824500513782,-37.70957425396383,18.96347602764589,77.76073415888155,67.48789946940568,-23.469377672607177,58.001444366570674,-0.12319942478122847,8.575639963150024
-4.952857564749538,-3.100102791905954,0.599235608807422,-5.244019829182594,3.7642109300057136,-2.0471456870275873,31.506668320080347,-1.4072181998676527,-37.622218276602304,19.002903937369034,77.6657080148233,67.47760017708367,-23.412407062932783,58.01238450740961,-0.15737223482116658,8.58744192123413
-4.9524996927107985,-3.099886199590825,0.608756706749151,-5.243661957143855,3.7644275223208425,-2.037624589085858,31.87883929504963,-1.3066972184589534,-37.273076747380706,19.229935055902686,77.4284111829439,67.4590803520197,-23.277623326773035,58.03983506730579,-0.1468888134353321,8.614381551742554
-4.952422470672651,-3.0997492236110946,0.6135020239845729,-5.243584735105709,3.764564498300573,-2.0328792718504363,31.81747000004628,-1.186904161089012,-37.421994386766286,19.016334762742737,77.310887194887,67.44898894552811,-23.209693502513172,58.05326790639643,-0.28471687134913193,8.627490282058716
-4.951981207460115,-3.099681661246461,0.6220893958153081,-5.2431434718931715,3.7646320606652064,-2.0242919000197013,31.416971701809253,-1.5140118595822967,-37.76708590803694,18.71095946387191,77.09643243306431,67.4334633893497,-23.088303170616154,58.07745510072645,-0.23179005742329828,8.652288913726807
-4.952180305296606,-3.099856780045225,0.6351517913579893,-5.243342569729664,3.7644569418664426,-2.01122950447702,31.33369143264761,-2.148909581517699,-37.60315727899609,18.883993966412795,76.7744266078789,67.4073507886709,-22.89699244401022,58.10859025558236,-0.2279045778430424,8.689893007278442
-4.951968842014224,-3.0993923574577686,0.6436601045611834,-5.243131106447281,3.764921364453899,-2.002721191273826,31.54548748390011,-1.9652056461114484,-37.52417022384972,18.603484293640097,76.56524158048745,67.3869237803302,-22.77515097297948,58.134171504103456,-0.23083868228373206,8.714135646820068
-4.951689960842744,-3.0994281069915512,0.6615209174623425,-5.242852225275801,3.764885614920116,-1.9848603783726666,31.599021550329113,-2.3341204339447423,-37.405049730914826,18.37181011836766,76.12495503554238,67.3506492028803,-22.516039746703154,58.17979830031672,-0.20996255111401396,8.767554759979248
-4.951437981372637,-3.09906698705885,0.6825797184701434,-5.2426002458056935,3.7652467348528176,-1.9638015773648658,31.899101148204423,-2.255128005619478,-37.16679892568055,18.395003801859392,75.60972771557385,67.30270467948216,-22.209190914726985,58.23552298767733,-0.16181979799162427,8.831256866455078
-4.951538342686608,-3.0991375917580237,0.695485782300935,-5.242700607119666,3.7651761301536437,-1.950895513534074,32.078840575879084,-2.456579257795264,-36.89640080258285,18.596299235670994,75.29557953764204,67.27368928365435,-22.018349862323436,58.26625997283315,-0.16716007969918678,8.870990514755249
-4.950999376262453,-3.0987525524356196,0.7044574040908224,-5.24216164069551,3.765561169476048,-1.9419238917441868,31.578673944513035,-2.7186811863368776,-37.379359333132435,18.248787718074457,75.07584002776811,67.25253440051148,-21.889857220169738,58.29304399403116,-0.11875595943442718,8.897943019866943
-4.951138489340137,-3.0985805627814145,0.7085727372754262,-5.242300753773194,3.765733159130253,-1.937808558559583,31.907799041757734,-2.6101397103656288,-37.14181481271561,17.98055263302948,74.97737325391125,67.24092398341024,-21.828330775448197,58.30366053287542,-0.09679806030059357,8.9103364944458
-4.951653588099727,-3.0981376659377657,0.7223560650215224,-5.242815852532784,3.7661760559739017,-1.9240252308134869,31.969149674169064,-3.193453209608134,-36.81136017267177,18.35241955449518,74.64820588384607,67.20246626166673,-21.621377570460375,58.33788571904096,-0.10197588279955117,8.95186471939087
-4.951186454488618,-3.098321999267009,0.7350113804831452,-5.242348718921675,3.7659917226446584,-1.911369915351864,31.89384965853444,-3.1524580817886245,-36.98632058259091,18.031348877587202,74.339347765332,67.17585687552425,-21.43603902538088,58.36881998029664,-0.10731741598790556,8.988122940063477
-4.951144894053119,-3.0984895942742225,0.7447341848079413,-5.242307158486176,3.765824127637445,-1.9016471110270678,32.00057159183337,-3.97261700485062,-36.606827158078644,17.939104056992708,74.10441651779047,67.15372926062307,-21.29123745133656,58.39091766669037,-0.11147282452387763,9.016493558883667
-4.9510010541888345,-3.0984985957472877,0.7491508415768083,-5.242163318621892,3.7658151261643797,-1.8972304542582008,32.30000578866078,-3.7400247847441808,-36.420223833769555,17.84822567449276,73.99737760638669,67.14361063624392,-21.22623164849279,58.40190352969321,-0.11328083239957198,9.029167413711548
-4.951712130500683,-3.098472340738157,0.7579548674933899,-5.2428743949337395,3.7658413811735105,-1.8884264283416192,32.791909697134784,-3.3389753171784826,-36.102246367291464,17.734964996677764,73.79055902079622,67.11817327945587,-21.09024087826544,58.41983411454653,-0.06998214732091856,9.053775310516357
-4.951361080042694,-3.0986111700612993,0.7627026490786817,-5.242523344475751,3.765702551850368,-1.8836786467563273,32.6666287373905,-3.4836190858749894,-36.13907331707101,17.978938578584422,73.67417936121949,67.10904919678588,-21.02122792975145,58.4314635934768,-0.07205589421026914,9.068439722061157
-4.951429966629064,-3.0984895181177246,0.7752099272081673,-5.242592231062122,3.765824203793943,-1.8711713686268419,32.53205702566019,-3.4310289146134973,-36.37088676317254,17.654912584066555,73.37617817832685,67.07599722279186,-20.833441397005735,58.46118055293889,-0.02075233132563703,9.106905937194824
-4.951147548697453,-3.0983525412422876,0.7836286564030785,-5.24230981313051,3.76596118066938,-1.8627526394319305,32.17373777816323,-3.6408833472735735,-36.649133222188176,17.749045994153946,73.17430610096427,67.05453679609852,-20.708863181179755,58.482824391109645,-0.024039227761111448,9.133533239364624
-4.9510977946858485,-3.098701489005601,0.7920227826728631,-5.242260059118905,3.7656122329060664,-1.854358513162146,32.210711825390106,-4.201512610908007,-36.47669935153466,17.454963886576436,72.97294556539049,67.03575225690284,-20.5823955445934,58.49990019634234,-0.0841611778203637,9.161956071853638
-4.951214327671757,-3.098532478562268,0.795901916780657,-5.242376592104813,3.7657812433493993,-1.8504793790543521,32.35920218059003,-3.9870634985941784,-36.47278820217225,17.13522389670088,72.88225045685049,67.02365838054737,-20.523406558623076,58.509485449147256,-0.08557704108664943,9.174600601196289
-4.951465816482227,-3.0986819349579275,0.7993660831260588,-5.242628080915285,3.76563178695374,-1.8470152127089503,32.41706260901665,-3.88858815484888,-36.50314825749981,16.86763214413718,72.8010655961102,67.01456809124963,-20.46942669136777,58.515283515506304,-0.0496427105806756,9.186609268188477
-4.951401391639397,-3.0987188728451343,0.8070718547732817,-5.242563656072454,3.765594849066533,-1.8393094410617274,32.209266934607854,-4.311116243569318,-36.44659554279932,17.494505129054584,72.61797359400224,66.99470617623481,-20.353411296300315,58.532842946650504,-0.12322112374910077,9.213578701019287
-4.950964201929074,-3.0990685183437345,0.8106259977237423,-5.242126466362132,3.765245203567933,-1.8357552981112668,31.904078186670993,-4.538883309446262,-36.684757616157434,17.461153831248478,72.52964506227814,66.99006211240196,-20.30194889593845,58.5403060490673,-0.12034438140075476,9.22580075263977
-4.951157545028262,-3.0990022630755285,0.8177658997188914,-5.2423198094613195,3.765311458836139,-1.8286153961161178,32.13961469174722,-4.2611366390898535,-36.52816272653709,17.610123477550605,72.3625105656236,66.969400772021,-20.192765736384676,58.55608203366324,-0.12321912620526465,9.251052141189575
-4.951034477750131,-3.099274277382897,0.8290670427179311,-5.242196742183188,3.7650394445287705,-1.817314253117078,32.41479112576835,-3.9874112072899215,-36.512854134451516,16.877145711745115,72.09426255620379,66.94138479482196,-20.021812650675873,58.58006304328984,-0.001479289831822328,9.28922724723816
-4.951259921967603,-3.099634413735433,0.8332229870643172,-5.24242218640066,3.7646793081762344,-1.813158308770692,32.62535026943913,-4.414931108996613,-36.09561977459738,17.167368774600487,71.99649399187317,66.93183160063916,-19.956913193273092,58.58583627356455,-0.0035942699238411535,9.304274320602417
-4.951582220866986,-3.0998355732407474,0.8414124641380752,-5.242744485300043,3.76447814867092,-1.804968831696934,33.08666806368062,-4.346890692518147,-35.66004275174522,17.195471330934264,71.80552233710733,66.9092871686711,-19.830194984055584,58.60123178991668,-0.007203480226685599,9.331390857696533
-4.951084308993398,-3.100244042504716,0.8523861213825367,-5.242246573426455,3.7640696794069513,-1.7939951744524725,32.37734068892555,-4.185784076398792,-36.485021930135765,17.003254481630055,71.54346340167514,66.88411342084905,-19.665526568827406,58.62470955597131,-0.01214109946066344,9.367820262908936
-4.951191815548126,-3.1003109565030904,0.8597967144625357,-5.242354079981183,3.764002765408577,-1.7865845813724734,32.97146978050884,-4.378414193807721,-35.85708420452115,16.8675008226176,71.37080110360068,66.86316327002767,-19.55167230979169,58.64001588081156,-0.10911061597013916,9.392409086227417
-4.9510972060174225,-3.10040306270868,0.8639521496495969,-5.242259470450479,3.7639106592029874,-1.7824291461854123,32.93390761014115,-4.167557768889073,-36.082377404167595,16.312200654532358,71.27284493702086,66.85248385573085,-19.488622732651706,58.648843412113045,-0.040543028363104305,9.405784368515015
-4.951313169221644,-3.10072914092643,0.8730213529657543,-5.2424754336547,3.7635845809852375,-1.7733599428692548,33.12713282601348,-4.657160406196714,-35.51703338930191,17.349136780129264,71.0617734909664,66.82806308899023,-19.348187006700552,58.66529933426234,-0.12910356642187093,9.435483694076538
-4.9508562910332845,-3.100737368120945,0.8770984545724275,-5.242018555466342,3.7635763537907225,-1.7692828412625816,32.79163326708134,-4.443905308458952,-36.079029450662674,16.663693156183115,70.96385095320039,66.81839518568235,-19.2884032829307,58.67603191724693,-0.13077061756975805,9.447141170501709
-4.9507813662171944,-3.1005660593687,0.8847690281317214,-5.241943630650251,3.7637476625429676,-1.7616122677032877,32.57817652082529,-4.776381536333296,-36.25158929825694,16.337041682529478,70.7861598963514,66.79498721369198,-19.171319515534186,58.69406782801902,-0.1337481802640541,9.471118211746216
-4.951153200155153,-3.1009349746864934,0.8961302364193392,-5.242315464588209,3.763378747225174,-1.75025105941567,32.929464444088765,-4.832824982854173,-35.90966509051974,16.239283653997617,70.52426625835292,66.76280435295624,-18.994090768696157,58.714101975193486,-0.10602202374000136,9.506330966949463
-4.95042001881989,-3.1013772367807877,0.9085577978459017,-5.2415822832529475,3.7629364851308797,-1.7378234979891074,32.58273185020441,-5.178950752616549,-36.12601487565304,16.394762277265443,70.23051090613785,66.73256161199683,-18.806420960561336,58.740470334970524,-0.18667168847955828,9.545226573944092
-4.950953778078428,-3.1013197412890214,0.9169251311517682,-5.242116042511484,3.762993980622646,-1.729456164683241,32.532610246507595,-5.110435904635613,-36.28322628060512,16.010924919053718,70.0422527371931,66.70444629495441,-18.674164658969243,58.75609458999058,-0.129107122400284,9.570473432540894
-4.9509685254195155,-3.1013628544388134,0.9287360285835761,-5.242130789852573,3.762950867472854,-1.717645267251433,32.819485997187165,-4.927017354082789,-35.92954187170257,16.698408689204204,69.77149664661766,66.66869678530257,-18.491297154836207,58.78030096110717,-0.16688776042155595,9.60616159439087
-4.9506255473927325,-3.1014593724231445,0.9377382164509124,-5.241787811825789,3.762854349488523,-1.7086430793840968,32.43597584373581,-5.336201147305567,-36.304513494517366,16.1207656685561,69.56288138942944,66.6432371223713,-18.35360430935283,58.799702498787966,-0.08625333937450819,9.633200883865356
-4.950443161072052,-3.1015993702834863,0.942745455066447,-5.241605425505108,3.762714351628181,-1.7036358407685621,32.24404433303147,-5.542539838240913,-36.474745880137014,15.923147892875072,69.44671543158753,66.62961620965562,-18.276774405797017,58.80978953248436,-0.08847197867375733,9.648203134536743
-4.950714573083047,-3.1013772089300544,0.9521337227743488,-5.241876837516104,3.762936512981613,-1.6942475730606603,32.32347502475635,-5.3237537564948125,-36.40177674373842,16.274954431559927,69.2362108306421,66.5972595350893,-18.12946486638715,58.829307579428495,-0.12028806135747327,9.676252603530884
-4.95020406777087,-3.1013504113881227,0.9563069947617969,-5.241366332203927,3.7629633105235447,-1.6900743010732122,32.21760314733047,-5.1646611711278,-36.60976130248303,16.099124410826356,69.13781908101002,66.58615314401813,-18.067415356409004,58.840219019677846,-0.07504688008239402,9.68836784362793
-4.94962508762185,-3.1015464483232953,0.9640177137305505,-5.240787352054907,3.762767273588372,-1.6823635821044587,31.98328981191277,-5.693241683787493,-36.7262551397081,15.864999938611748,68.95780047357457,66.56583751566902,-17.950319548363353,58.856959117739855,-0.13473265255924183,9.7119882106781
-4.950322427812422,-3.1014164109873463,0.967970459707079,-5.241484692245479,3.762897310924321,-1.6784108361279302,32.08245251105601,-5.5338808054759445,-36.75845236877803,15.484874771677406,68.87423371234853,66.54913148223177,-17.884816375078383,58.86272158177215,-0.13626712058635437,9.723811864852905
-4.950452429076658,-3.101517453699088,0.9762026959042619,-5.241614693509716,3.7627962682125795,-1.6701785999307472,32.75458004243422,-5.358891933276789,-36.16376664057968,15.42366336410477,68.68885642873045,66.5229830547693,-17.75538993574438,58.87786810856852,-0.06473426408122407,9.748500108718872
-4.950557891034446,-3.1016043937301827,0.9842318154181618,-5.241720155467504,3.7627093281814847,-1.6621494804168473,32.88286716272637,-5.754198004769762,-35.93726333759305,15.296378348048652,68.50841652128508,66.49728249172134,-17.62910146978326,58.89270226136444,-0.06817017632012234,9.773059129714966
-4.950555937595709,-3.1016795244530764,0.9879622770111894,-5.241718202028766,3.762634197458591,-1.6584190188238197,33.0154327446503,-5.891951577676885,-35.64306521013571,15.840187926134817,68.42417726471896,66.48577521947331,-17.5706177008896,58.89953676726351,-0.06980236311851229,9.784855842590332
-4.950565557525124,-3.101542655360745,0.996252176613344,-5.241727821958181,3.7627710665509224,-1.6501291192216652,33.14894141083485,-5.542504054249634,-35.57444940581878,16.129165163811756,68.23895995819416,66.45756273429564,-17.44068635879031,58.91672735664793,0.006659392427603272,9.809959650039673
-4.949637732469112,-3.1013984021577423,1.0215217254408757,-5.240799996902169,3.762915319753925,-1.6248595703941333,32.65368346401189,-5.904103398174453,-35.968789777256866,16.15783045670515,67.66860985076543,66.37659409164462,-17.048364537499225,58.970753636451384,-0.10687499752695473,9.886123895645142
-4.949419132989465,-3.1012552572883005,1.029653150689013,-5.240581397422522,3.763058464623367,-1.616728145145996,32.32940263307468,-6.222432502019001,-36.294755338811285,15.699247738109506,67.48713722096218,66.34900474776948,-16.921328909791793,58.98823453860509,-0.13824695201005976,9.910464763641357
-4.948972468460534,-3.1012497380867656,1.0429006172594877,-5.2401347328935906,3.763063983824902,-1.6034806785755213,32.33105699050198,-5.931935357991028,-36.41642998196643,15.662630011298944,67.19058680757234,66.30582821122252,-16.714238528668194,59.015264125317735,-0.1390505983986099,9.950688123703003
-4.948253637764436,-3.100968914756072,1.0558838577420404,-5.239415902197493,3.7633448071555953,-1.5904974380929686,31.788581480714374,-6.286543002384916,-36.92797911127597,15.34078103236508,66.90033920648587,66.2619979826699,-16.51245101230493,59.044690450930474,-0.09251869212491481,9.989773988723755
-4.948563169504026,-3.101213701018667,1.0636067782022072,-5.239725433937084,3.7631000208930003,-1.5827745176328019,32.28255248119846,-6.975566838881014,-36.281132674464054,15.008843408548646,66.73198230071749,66.2358342200322,-16.387944576426694,59.0557874360188,-0.03972147224537714,10.013047933578491
-4.947919662867829,-3.1010176335481496,1.0684401607244687,-5.2390819273008855,3.763296088363518,-1.5779411351105403,32.06991675733057,-6.411976195254954,-36.73388397562483,14.823613190984272,66.62195121109194,66.22013671553036,-16.314628704852105,59.06896244181608,-0.0837231681528312,10.0273277759552
-4.947934353230556,-3.101174757115305,1.079904189850691,-5.239096617663613,3.7631389647963625,-1.566477105984318,32.449811207084146,-6.453053789750254,-36.339389897414904,14.864506173663706,66.3707471344586,66.18105780757419,-16.131843708267365,59.0886225127591,-0.11683420859114868,10.062757730484009
-4.9475425417456265,-3.10137845085819,1.0876913930541987,-5.238704806178684,3.7629352710534776,-1.5586899027808103,32.120451681360706,-7.239998026095355,-36.43678157444037,14.784444151416144,66.19684814804208,66.15674993408966,-16.009512833635902,59.10298646617588,-0.2328957572439796,10.087223529815674
-4.947631314878166,-3.101420073709096,1.093352488330875,-5.238793579311223,3.7628936482025717,-1.553028807504134,32.54437024906926,-6.621670284441787,-36.08876747231228,15.357240115833838,66.07432934540343,66.13655728861,-15.918588504797302,59.11240968677202,0.027427085056986655,10.104661464691162
-4.9475591747515715,-3.101573881403534,1.1041291688231147,-5.238721439184629,3.7627398405081336,-1.5422521270118943,32.791883446557634,-7.303343354376626,-35.33786210084222,16.460804720381653,65.83936562890739,66.09946592848692,-15.74646628784748,59.13075790334418,-0.06169628527480775,10.137627601623535
-4.946933273311312,-3.1010761305498553,1.109404182879311,-5.238095537744369,3.763237591361812,-1.536977112955698,32.45632061232459,-7.04648329609694,-35.99027078593036,15.601219988017196,65.72292050735987,66.07910614379745,-15.665500778864978,59.146445654956025,0.030500675327633786,10.152602434158325
-4.946723254860705,-3.1016372243139543,1.1141393481051063,-5.237885519293762,3.762676497597713,-1.5322419477299027,32.315026957065875,-7.136868664683261,-36.23994785601324,15.048668459203855,65.61591571238773,66.06727337915446,-15.590297075261192,59.151708836111474,0.027916451798960296,10.167704820632935
-4.946685878775769,-3.10149774761862,1.1236197852257563,-5.237848143208826,3.7628159742930474,-1.5227615106092527,32.779653853071245,-7.1335151358180156,-35.82778190509157,14.859192353790757,65.41232273208848,66.03181022302721,-15.43835564461412,59.16933948210486,-0.08380988085630037,10.195586681365967
-4.946647176438667,-3.1016651652501346,1.1275215497310087,-5.2378094408717235,3.762648556661533,-1.5188597461040003,32.76743253955829,-7.0648360949530415,-35.771013713261716,15.2565634368079,65.32728098619603,66.01901549506667,-15.375734156041597,59.17505593167698,3.2267606604741017,10.207567930221558
-4.946289200685045,-3.1017149688575323,1.1365944933086596,-5.2374514651181014,3.762598753054135,-1.5097868025263494,32.64752570925392,-7.274320661371627,-35.83073075902152,15.247188768905513,65.12959286891832,65.98751526831056,-15.231513040135809,59.19189167083747,-0.15045837206674406,10.23420524597168
-4.945904694886448,-3.101697858231985,1.1404903549306824,-5.237066959319505,3.7626158636796823,-1.5058909409043266,32.41365510426157,-7.323508160587538,-36.06003525777654,15.223504002023924,65.04315166274641,65.97455787342288,-15.170695735427984,59.20041622681214,-0.10983088565534249,10.24569296836853
-4.945808145461401,-3.101571303717701,1.148966618912416,-5.236970409894457,3.7627424181939664,-1.4974146769225931,32.12613612830115,-7.771291267003569,-36.34678809342246,14.636220766292174,64.86222322913387,65.94248079863121,-15.034534961820427,59.21608338239716,-0.07101664571528321,10.27028751373291
-4.945179609686584,-3.1016030417097533,1.162887146554039,-5.236341874119642,3.762710680201914,-1.4834941492809701,31.79943460571671,-8.036185882515493,-36.6746419348578,14.337946854718629,64.56087263053689,65.89316962286729,-14.812683280613888,59.24200179959163,-0.07217330439774017,10.311211824417114
-4.944768921577431,-3.1016880301080705,1.176464560932148,-5.235931186010489,3.762625691803597,-1.469916734902861,31.95374013436019,-7.454234941416709,-36.892258855744544,13.622412866282858,64.26972144824785,65.84415218536347,-14.594720519089579,59.26561648373508,0.025270197029167996,10.351683139801025
-4.944863357938896,-3.101668246468765,1.1803235521776188,-5.236025622371953,3.7626454754429024,-1.4660577436573903,31.787180774720344,-7.472117455704995,-37.07090836122385,13.549864624412045,64.18929708809668,65.82893172314655,-14.531662339245514,59.271594399688794,0.023667790232015484,10.363770961761475
-4.944724659800256,-3.1012626338475826,1.188286751834598,-5.235886924233313,3.763051088064085,-1.458094544000411,31.51982048690612,-7.92155166747845,-37.11794955541496,13.898196317553666,64.02292959415743,65.79587435569928,-14.403220309563075,59.28799391242153,0.08176368198960837,10.389316320419312
-4.94485035278394,-3.1014284699975123,1.1995862452553896,-5.236012617216996,3.762885251914155,-1.4467950505796194,31.82885031296342,-7.909408307594666,-36.90787025039755,13.523826816093642,63.78619961584769,65.75321775717278,-14.218752212879227,59.3042698423814,0.07683066726693522,10.426446914672852
-4.945030694836301,-3.1024247767957718,1.206395987956725,-5.236192959269358,3.7618889451158957,-1.439985307878284,31.43343296822546,-9.664207520805187,-36.37439151333289,14.817159531210534,63.63966044234368,65.73396771406574,-14.106532763088694,59.30708131327574,0.0728759575568958,10.45274829864502
-4.945059537403438,-3.1019435174474297,1.2112500072018564,-5.236221801836495,3.7623702044642378,-1.4351312886331526,31.454413041846088,-9.831505976688584,-36.296940003684504,14.812427774219575,63.541539714134046,65.71122224959348,-14.027480880233536,59.31798621678883,0.07135882247896586,10.467341423034668
-4.945377548189434,-3.1017836337671554,1.2184472557365644,-5.236539812622491,3.762530088144512,-1.4279340400984446,32.25303689710706,-8.830377591461195,-35.98504943424077,14.312459765302576,63.39557305806069,65.68064325690322,-13.908602695927335,59.32883243649016,-0.10040839953895819,10.492419004440308
-4.945317549527535,-3.1019915279836523,1.2283028780091196,-5.2364798139605915,3.762322193928015,-1.4180784178258894,31.81316018641775,-8.867551134513457,-36.524963940027526,13.909348252383426,63.189453066183795,65.64386243805482,-13.747787852540515,59.34280528436184,-0.10477822110616142,10.528041124343872
-4.94556053710374,-3.1016810818320613,1.2357407953274226,-5.236722801536796,3.762632640079606,-1.4106405005075864,32.336615045652856,-8.258078040994972,-36.227000428003365,13.800579303708286,63.03973424133148,65.61115133105629,-13.625090365356984,59.35519852152246,-0.10757803319300319,10.552973985671997
-4.945537807240724,-3.1013296937075445,1.2469202953898206,-5.2367000716737815,3.762984028204123,-1.3994610004451884,32.087414624952714,-8.558689357898349,-36.457397926359846,13.510820921336945,62.81139804882797,65.56415503274752,-13.442176596706256,59.3746287468531,-0.2010431236403809,10.591105222702026
-4.9460967253082035,-3.1015623751859605,1.2506624458718312,-5.23725898974126,3.762751346725707,-1.3957188499631779,31.954790721644912,-8.551719919644457,-36.57447920358657,13.560830940561774,62.73815627741949,65.5488877541251,-13.378131925390068,59.37590206156529,-0.10436447267007942,10.603438138961792
-4.946611054599032,-3.1014906028231732,1.2580568552670737,-5.2377733190320885,3.762823119088494,-1.3883244405679354,32.124050639903594,-8.71472995372104,-36.32369780038276,13.659879308891494,62.59168815543284,65.51677462661016,-13.25442889647878,59.384910099990265,-0.107417377326958,10.627756595611572
-4.946841601872818,-3.1015182912481065,1.2627788324306455,-5.238003866305876,3.762795430663561,-1.3836024634043635,32.48546030634046,-8.518058193531541,-36.00800865749873,13.722545399209045,62.49706780189688,65.4971572094024,-13.17580162304818,59.39054220964475,-0.10944392778701229,10.642757892608643
-4.947169358381769,-3.1015302991802143,1.2711493809431844,-5.238331622814826,3.762783422731453,-1.3752319148918246,32.25094672192486,-8.526897884241915,-36.28526590646905,13.538996558999099,62.32927248435643,65.46227948935196,-13.036687706793883,59.401061870752486,2.4487093835107325,10.667695045471191
-4.947924102023788,-3.1013780362811803,1.2794577954881508,-5.239086366456846,3.762935685630487,-1.3669235003468583,32.05279766986469,-8.65505676608081,-36.371218322363724,13.788242002704889,62.16817609235584,65.42457533763643,-12.896571790518605,59.410492279901064,2.445349840968512,10.693103075027466
-4.948119843990051,-3.1011308292558284,1.2856627256299966,-5.239282108423109,3.763182892655839,-1.3607185702050124,31.7642693993082,-9.307347479762779,-36.51621385043857,13.529198961485989,62.045720893886376,65.39669166500833,-12.793536418240237,59.42014161465677,2.5884427526320426,10.71120572090149
-4.948400446248114,-3.1013501623722544,1.290805741491149,-5.239562710681171,3.762963559539413,-1.3555755543438601,32.14082377465488,-8.94164931913915,-36.344685061268606,13.19126306980388,61.942940067215886,65.37636539439275,-12.707424763846419,59.424489727455295,2.4828083704014103,10.725879669189453
-4.94914785717769,-3.100924817467935,1.300884688606725,-5.240310121610746,3.7633889044437323,-1.3454966072282841,31.808337983069187,-9.325229851338477,-36.53356216135149,13.249040296257775,61.74919720963941,65.32895999875856,-12.53787222008091,59.438010891520236,2.544683809327931,10.755204200744629
-4.949857178395412,-3.101233644952909,1.305773293675084,-5.241019442828469,3.7630800769587585,-1.340608002159925,32.13209458535506,-9.30672664492979,-36.18695380658304,13.330178989697831,61.65553663587802,65.30858377668247,-12.45391478217266,59.43916021507357,2.5422638769878683,10.769726991653442
-4.951475520213185,-3.1011375323198345,1.3201347589710744,-5.2426377846462415,3.763176189591833,-1.3262465368639347,32.48632107441165,-9.113623650371592,-35.69885154629639,13.995548032695284,61.38349255437666,65.24242340433959,-12.209375295829245,59.45161457633931,2.2688318242936996,10.811353206634521
-4.951842501400181,-3.1009957012751355,1.3290689867562755,-5.243004765833238,3.763318020636532,-1.3173123090787335,32.20782934569254,-8.936305878796087,-36.158283893336055,13.52585582850531,61.20974605746915,65.20282323567672,-12.059865367369731,59.4627851442047,2.2652069820738028,10.837626457214355
-4.952099750187896,-3.100602354010207,1.3341965766960113,-5.243262014620954,3.7637113679014607,-1.3121847191389977,31.92100615513262,-8.66797684963154,-36.60216840335306,13.238805233920415,61.11270021796856,65.17742729119385,-11.973840598502623,59.47112456675138,2.343224594304358,10.852570533752441
-4.953834356944551,-3.100728907486383,1.3472050089040755,-5.244996621377608,3.7635848144252844,-1.2991762869309336,32.57532728024225,-8.881633953013305,-35.717630490604705,13.78896862866762,60.87050435884541,65.11746216037179,-11.750602858883848,59.478807389888004,2.3656975162705365,10.891661882400513
-4.9540588454172365,-3.1006405166997815,1.3509905431621114,-5.245221109850294,3.763673205211886,-1.2953907526728976,32.35911833233458,-9.134209592630176,-35.84792720794496,13.792028681551944,60.79847407137623,65.1000219924489,-11.686800786743493,59.483213585879746,2.448641550196803,10.903696775436401
-4.95453689860628,-3.099948965478809,1.358743753595168,-5.245699163039337,3.7643647564328586,-1.287637542239841,31.685038260998123,-9.03768764026493,-36.701670483606016,13.21572955884369,60.65470515885926,65.06019867712322,-11.556032399476075,59.4957000996368,2.5258686443979412,10.92786455154419
-4.9556714578291565,-3.099920148008421,1.3704005340593928,-5.246833722262213,3.7643935739032464,-1.2759807617756163,32.39136179712437,-8.645574610723031,-36.09036800513834,13.277021380730456,60.43701718482389,65.0063997218748,-11.357371282675302,59.50500963123285,2.5725570162241187,10.968865633010864
-4.956707751433013,-3.0999627089980986,1.380944170189973,-5.24787001586607,3.764351012913569,-1.265437125645036,31.913405356603622,-9.069707391790697,-36.265361109379604,13.864958276499724,60.24075398207158,64.95801491329213,-11.177471642452787,59.51263496850142,2.3897438146702195,11.011044025421143
-4.957641612830967,-3.099092745220995,1.389520612819972,-5.248803877264025,3.7652209766906726,-1.256860683015037,31.73929916509812,-9.155746398013935,-36.45867316203905,13.647045811208695,60.088412924101114,64.91120600857437,-11.030716622406462,59.5246775489691,2.41050251396451,11.053417444229126
-4.957599059379033,-3.098725228879335,1.392257288583011,-5.24876132381209,3.7655884930323325,-1.2541240072519981,31.849287809027526,-9.016885732273257,-36.5519354906825,13.050849726724023,60.03730153476815,64.89678134173099,-10.985239146422872,59.530775505486616,2.3159126210237586,11.067546844482422
-4.9581623402126205,-3.0981651484317454,1.398263916772047,-5.249324604645677,3.766148573479922,-1.248117379062962,31.477003083394806,-9.50806246692099,-36.82199822112947,12.832978443450484,59.92996228216763,64.86460271664087,-10.88270871807245,59.53916577594052,-0.14920588332164098,11.108161687850952
-4.959156016592562,-3.0980735499811387,1.4029439635939676,-5.250318281025619,3.7662401719305287,-1.2434373322410415,31.986558613717637,-9.294545026160414,-36.02360906310266,14.095786485801765,59.849584920274445,64.84015243369964,-10.800559094912456,59.54049799998831,-0.04789049285018887,11.148271322250366
-4.9595561372221395,-3.097259011860929,1.4065603537533369,-5.250718401655197,3.7670547100507386,-1.2398209420816722,32.098417227666324,-9.3546700697092,-36.09992291754523,13.31927767149981,59.78889445573526,64.81683194155002,-10.738551155721755,59.54858495322127,1.4340548980152077,11.185187339782715
-4.959722419602834,-3.096560316439494,1.4084335808652506,-5.250884684035892,3.7677534054721735,-1.2379477149697584,32.17444197993955,-9.066408531601974,-36.259225377065974,12.765662416675449,59.75889098637425,64.80276099743082,-10.706589085436821,59.554936758885574,1.4340191980606258,11.210489988327026
-4.960026117783735,-3.0965359580249774,1.4099383450872967,-5.251188382216792,3.76777776388669,-1.2364429507477124,32.308006337447615,-9.877271057008215,-35.6750456342352,13.460415121891602,59.73298234246806,64.79497854660255,-10.680224955675593,59.555375513682534,-0.17587293049575425,11.237762451171875
-4.960092945938266,-3.0969446573204533,1.4110048495078962,-5.2512552103713235,3.767369064591214,-1.2353764463271129,32.27360702226009,-9.233455177435472,-35.91833903823359,13.461895051497489,59.7104943055014,64.79326920337328,-10.662117913400277,59.55336237567753,-0.17676952513530342,11.252516984939575
-4.959362498569413,-3.0960003725713214,1.4113659600831243,-5.2505247630024705,3.768313349340346,-1.2350153357518847,31.7514315181849,-9.441093942005546,-36.39080536411901,13.424436380198745,59.70269288256127,64.78704819420514,-10.65897372908618,59.5640629168782,-0.17587579029926115,11.264631032943726
-4.959710711928585,-3.0960044875104153,1.4120923993804917,-5.2508729763616415,3.768309234401252,-1.2342888964545173,31.787246688141032,-9.427658868080925,-36.308113634318616,13.596021710374941,59.69200890582557,64.78268988861808,-10.6454464561266,59.56317915874757,-0.17619634171736465,11.297220230102539
-4.959846985204554,-3.095995118183697,1.4125731821406706,-5.251009249637612,3.7683186037279706,-1.2338081136943384,32.10369575794935,-9.536978138796677,-35.89512338051238,13.807453737853262,59.684125891234835,64.78004852194874,-10.636865575702624,59.56313690801914,-0.17639283170183262,11.309767723083496
-4.959933640616642,-3.095808146843879,1.4127192124923111,-5.2510959050496995,3.7685055750677883,-1.233662083342698,32.15934672012427,-9.352931094104685,-35.8799177840775,13.877867615600715,59.68334223186194,64.77766768800855,-10.634083144068079,59.56421860167024,2.357299091172835,11.322309255599976
-4.960547507897898,-3.095972650150937,1.4129422841583748,-5.251709772330955,3.7683410717607306,-1.2334390116766343,32.922868542003286,-9.786039837455077,-34.673662135695004,14.876592498444783,59.68381893976412,64.77577628752941,-10.627931764578383,59.56032132357544,-0.17654287196663265,11.364145994186401
-4.959938061557189,-3.0954652058033423,1.413272422559771,-5.251100325990246,3.768848516108325,-1.233108873275238,33.124625941322904,-9.795460034020971,-34.75763537759698,13.907070706672899,59.674962827201426,64.77261577082734,-10.624813015619441,59.56727954227517,1.5504548224876462,11.389323472976685
