dx1,dy1,dz1,dx2,dy2,dz2,azm1_cf,ele1_cf,azm2_cf,ele2_cf,azm1_an,ele1_an,azm2_an,ele2_an,tdoa_bias,time
-2.1845239642795797,-4.411090504111138,-0.1447256047856703,-5.326310240035562,1.376217859630056,-2.4116756352103623,60.455213733600196,3.643950661701856,-18.491134645465237,25.799411730008092,102.53725446810031,64.67044253575153,-140.70501128513644,64.88643019093064,3.2638000269333984,8.053260564804077
-2.184542667370061,-4.411095379901817,-0.14476317952567772,-5.326328943126044,1.3762129838393768,-2.4117132099503698,60.50421511757966,3.547098198159909,-18.393503221237843,25.85172684279899,102.53818509189115,64.67020272181675,-140.70522157866117,64.88616647596812,3.3201179292414142,8.090726613998413
-2.1845113042643254,-4.411104717289826,-0.1447361304433525,-5.3262975800203085,1.3762036464513678,-2.4116861608680447,60.47274961158686,3.652027261362949,-18.478238198076372,25.775192055724656,102.5376112633257,64.67062495651142,-140.70504102978475,64.88624767073959,3.3716929788419163,8.117931842803955
-2.1845446052506348,-4.411089214807769,-0.144764338204597,-5.3263308810066174,1.3762191489334248,-2.4117143686292892,60.49057499577007,3.518011173321832,-18.392937581453047,25.857694493782642,102.5381994705755,64.67014889549976,-140.70531512694578,64.88620066786734,3.277900316256952,8.129935503005981
-2.184582676788682,-4.411101215487211,-0.1447227111510854,-5.326368952544665,1.376207148253983,-2.4116727415757775,60.52257054012942,3.4362716274330833,-18.321522689061638,25.847416403995375,102.53693109520036,64.6699012090958,-140.70423069119653,64.88646939974134,3.28258003727192,8.169013977050781
-2.184517753409851,-4.4111057572502235,-0.14474232299917825,-5.326304029165835,1.3762026064909703,-2.4116923534238706,60.49184873791841,3.545590649851165,-18.40503283841428,25.867152105722212,102.53775004340544,64.67055212647975,-140.7050390093525,64.88620771788655,3.3810804112355015,8.192492723464966
-2.1845404057532902,-4.411090221743407,-0.1447409458933187,-5.326326681509274,1.3762181419977866,-2.411690976318011,60.4626641881287,3.6279468052157835,-18.47513553538076,25.81857051809797,102.5375924649193,64.67024264682412,-140.70504717068508,64.88635014584982,3.282580457380319,8.229190349578857
-2.184558806704401,-4.411121764078148,-0.14477858827320844,-5.326345082460384,1.3761865996630458,-2.4117286186979006,60.458288072302274,3.4087565592850817,-18.371578348930043,25.87386069463082,102.53856123486285,64.67014291684433,-140.70483744867914,64.88591536910924,3.2825671380309194,8.253919839859009
-2.184486730465222,-4.411127872901098,-0.14478688470848325,-5.326273006221205,1.3761804908400965,-2.4117369151331753,60.45938793568781,3.5239669588092815,-18.427379366449397,25.860793742364052,102.53911070310892,64.67089724578756,-140.7055490506595,64.88571146157646,3.2731479741279585,8.293029069900513
-2.184562135997096,-4.411123794853112,-0.14476955888300208,-5.326348411753079,1.3761845688880818,-2.4117195893076944,60.516791524770575,3.516822650520206,-18.366609800115917,25.83043641233326,102.53830717579973,64.67013678952948,-140.70465951598044,64.88596996663783,3.2731795291004726,8.30771780014038
-2.184542936071742,-4.411116582423586,-0.14474316014775201,-5.326329211827725,1.3761917813176083,-2.411693190572444,60.43359083294842,3.5483964992607566,-18.465443489003714,25.8296761586885,102.5376752146729,64.67034793875547,-140.70463120606794,64.88617037318201,3.2544021922086674,8.331403732299805
-2.18452758853778,-4.411099685120272,-0.1447562909829877,-5.326313864293763,1.3762086786209218,-2.4117063214076797,60.4703608594979,3.552988342698771,-18.431018851920744,25.832501379185583,102.53807288120262,64.67039287879501,-140.70521431154216,64.88616428837916,3.245035844304323,8.373000383377075
-2.1845295642453544,-4.411116032434168,-0.14476531359032932,-5.326315840001337,1.3761923313070261,-2.4117153440150214,60.45695841579518,3.5447500713128237,-18.439974802700878,25.843017658383623,102.53832740546348,64.67043912187494,-140.705048198392,64.88600038232072,3.169953453467536,8.38787579536438
-2.184540324595383,-4.411086094619449,-0.14476048434085206,-5.326326600351367,1.3762222691217443,-2.411710514765544,60.47118927248111,3.6024952814831757,-18.452993539941417,25.861453178519124,102.53811104029353,64.67018424332389,-140.70535830065165,64.88624091250082,3.376427688141841,8.430055618286133
-2.1845154595190825,-4.411135374204777,-0.1447494464425139,-5.326301735275066,1.3761729895364172,-2.411699476867206,60.42025780657774,3.669517185997837,-18.5389760584687,25.770902935289456,102.53798999388769,64.670714075692,-140.70467995881697,64.88596594672427,3.273138336007089,8.45479965209961
-2.184575713714166,-4.4110809893335565,-0.14478487669360368,-5.326361989470149,1.3762273744076372,-2.411734907118296,60.43096881211754,3.5549569532802123,-18.4716584759086,25.801179724079443,102.53860138360153,64.6697476556905,-140.7053989379249,64.88615713276563,3.27323939542525,8.466926574707031
-2.184518154132026,-4.411110914693355,-0.14473719614262365,-5.326304429888009,1.3761974490478392,-2.4116872265673157,60.45138845410279,3.5375969765204083,-18.44280941062525,25.83054600854737,102.53761763849901,64.67058451132158,-140.70488890135027,64.88621094867035,3.2731624849923886,8.49049425125122
-2.184523397412866,-4.411087548445694,-0.14476876954149343,-5.326309673168849,1.3762208152954998,-2.4117187999661858,60.451628471926064,3.5317051202761305,-18.43965709601451,25.829661903693125,102.53840993059157,64.67034916848884,-140.7056044937473,64.8861489746902,3.273202840970039,8.515507936477661
-2.184508031522897,-4.411065790544965,-0.144762050985449,-5.3262943072788795,1.3762425731962291,-2.4117120814101414,60.44451438265226,3.5802359681312534,-18.469299629754474,25.866934286456626,102.53826933067678,64.67040792404687,-140.70601639906735,64.88631147383275,3.2638343279566167,8.527725458145142
-2.184492312774117,-4.411126263765594,-0.14474423160633962,-5.3262785885301,1.3761820999756003,-2.4116942620310318,60.459254630333845,3.563748840505668,-18.448402061023916,25.81029303524178,102.53794074031002,64.67091472259315,-140.70498576453787,64.88602573128098,3.183992871522242,8.552226305007935
-2.184542021842249,-4.41110867647628,-0.1447726639657807,-5.3263282975982325,1.3761996872649145,-2.411722694390473,60.45180851999874,3.545780390201697,-18.445284402240237,25.848338760228042,102.53845958895943,64.67025925754292,-140.70513536743096,64.88601492803103,3.3341817333914117,8.576414346694946
-2.1845379594495435,-4.411117017536245,-0.14475567247793522,-5.326324235205527,1.3761913462049489,-2.411705702902627,60.48931735391116,3.5445871738214016,-18.407934384928986,25.828298697322264,102.53803314912552,64.67037686193834,-140.7048296861917,64.8860734425944,3.2731712718867705,8.588525295257568
-2.1845107262527885,-4.411110212598044,-0.1447746262733757,-5.326297002008771,1.3761981511431498,-2.411724656698068,60.42621386322294,3.537693611967911,-18.468012451355953,25.828863537260517,102.5386527461092,64.67058424001664,-140.70544154711428,64.88594488340193,3.2403315136859083,8.613284587860107
-2.1845021970605214,-4.411142933719971,-0.1447654770246778,-5.326288472816504,1.3761654300212238,-2.41171550744937,60.435944787123844,3.502691887548718,-18.440200403726717,25.866528131307188,102.53848826107824,64.67085774726448,-140.70489029838484,64.88578682036535,3.282513360729631,8.649224042892456
-2.184541349978404,-4.411104547035143,-0.14473086226718931,-5.326327625734387,1.3762038167060509,-2.4116808926918814,60.448105374726524,3.60728021295507,-18.48014781150906,25.804759620369648,102.5373368485146,64.67032624327356,-140.70468394964038,64.88633005283842,3.306019728945584,8.675339221954346
-2.1844851081486625,-4.411103179634907,-0.14474978942910466,-5.326271383904645,1.3762051841062868,-2.411699819853797,60.464916304364415,3.5675893012112208,-18.442923346271623,25.869001083300372,102.53809128287128,64.67085908965898,-140.70549271727197,64.88612375370761,3.306003387289363,8.687514543533325
-2.184534424129128,-4.411089827818312,-0.14475228845296095,-5.326320699885111,1.376218535922882,-2.411702318877653,60.462868552660176,3.5423315470642947,-18.43320159350184,25.837383782990475,102.537922410449,64.67027988865453,-140.7052540009131,64.8862651157828,3.306041189782148,8.715190172195435
-2.1845025805747076,-4.411155344201834,-0.14472694054673693,-5.326288856330691,1.3761530195393594,-2.411676970971429,60.451556981130274,3.5463648343397716,-18.446406719008714,25.846126254394424,102.53747005201896,64.6709926046287,-140.70420658686552,64.88597534919715,3.305943950009806,8.729947328567505
-2.1845481575173697,-4.411096054211481,-0.14475570907451898,-5.326334433273352,1.376212309529713,-2.411705739499211,60.48027009017007,3.622842947532674,-18.45561465771561,25.793986622665813,102.53796146284624,64.67016442824865,-140.70506360152234,64.8862221424685,3.3060415445325244,8.756591320037842
-2.1844908925510067,-4.411109408052213,-0.14475578689603102,-5.32627716830699,1.376198955688981,-2.411705817320723,60.44897329576465,3.610897683811459,-18.48146406160809,25.807711972583366,102.53823458895798,64.6708201329215,-140.70541228940326,64.88605105797326,3.2872342961943426,8.768720865249634
-2.184544017433261,-4.41111149024969,-0.14474600596333737,-5.326330293189244,1.3761968734915044,-2.4116960363880295,60.455879860149295,3.5890767665127243,-18.461881595471947,25.856767335525497,102.53774001078963,64.67030513027301,-140.7047372112915,64.88618474756407,3.2966352960074286,8.797297477722168
-2.184525711171633,-4.411079626472368,-0.14478788375015889,-5.326311986927616,1.3762287372688256,-2.411737914174851,60.4767376058492,3.532010922505883,-18.41510066741853,25.814481772050087,102.53890155315685,64.67024751723321,-140.70594719933172,64.88607046323592,3.296678609185772,8.811824321746826
-2.1845675226378196,-4.411093773290435,-0.14474991355841307,-5.326353798393803,1.3762145904507588,-2.4116999439831055,60.49235156181023,3.590618145743141,-18.427807530323374,25.795038223703195,102.53771742375623,64.66996540756618,-140.7048379006469,64.88630573028505,3.29666709490409,8.827336072921753
-2.1845456386525908,-4.4111043722726215,-0.14475233305808988,-5.3263319144085735,1.3762039914685724,-2.411702363482782,60.467941049779895,3.574512235228566,-18.44510368446751,25.782482775327463,102.53789305645444,64.6702395960946,-140.70491374134104,64.88618871891089,3.306029815495635,8.851650714874268
-2.184532596828662,-4.411128652460976,-0.14474335904988994,-5.326318872584645,1.3761797112802183,-2.411693389474582,60.47912897841775,3.5781654140059587,-18.433284806633704,25.86239901170135,102.53774216037415,64.67051563255886,-140.7045429649378,64.88607657329113,3.2778428267816624,8.890033960342407
-2.1845473095530386,-4.41109498217272,-0.1447655933870319,-5.326333585309022,1.3762133815684736,-2.411715623811724,60.504677010925256,3.5911280278549893,-18.41646604131906,25.777265987532733,102.53822870942516,64.67014837938454,-140.7052127437622,64.88615919860689,3.306046052704981,8.915352821350098
-2.184558554055352,-4.411101634196587,-0.14473445445564037,-5.326344829811335,1.3762067295446072,-2.4116844848803325,60.47458527603741,3.584207498041786,-18.4413940697404,25.83563087215518,102.53735314168932,64.67012786778506,-140.70460701603852,64.88634937412861,3.3529496427647842,8.92880129814148
-2.184501987152544,-4.411117169543327,-0.14476659818016957,-5.326288262908527,1.376191194197867,-2.4117166286048617,60.44123699444274,3.6022577210204267,-18.483694196681856,25.844316396911964,102.53848541173186,64.67072524262038,-140.70531587085387,64.88594312375967,3.226241548923113,8.954155921936035
-2.184523539107038,-4.411114036776921,-0.1447605966984802,-5.326309814863022,1.3761943269642736,-2.4117106271231723,60.479027695474265,3.583707486881208,-18.437965791080945,25.804416448132642,102.53822504442816,64.6704998191151,-140.70507974634296,64.88603683509648,3.198101831605947,8.966641187667847
-2.184530518831326,-4.411095210229056,-0.1447681435148649,-5.326316794587309,1.3762131535121382,-2.411718173939557,60.476306435572894,3.493662166329501,-18.3960983427312,25.84307951381489,102.5383716852199,64.67031676086584,-140.7054052454282,64.88611504237856,3.2966558645942854,8.990137100219727
-2.184544121143527,-4.411084622841187,-0.14476938878645956,-5.32633039689951,1.3762237409000069,-2.4117194192111517,60.47613013032849,3.5393012893938747,-18.418256584002574,25.838633584413326,102.53833094124815,64.67012042079666,-140.7054561064299,64.88619423313183,3.2779071463982348,9.032872200012207
-2.184527624293265,-4.411139625727774,-0.1447560121019928,-5.326313900049248,1.37616873801342,-2.411706042526685,60.466886903851325,3.567421393363489,-18.440605801115414,25.85288696433014,102.53811768622413,64.67059842555584,-140.70457568253326,64.88591143398001,3.2496824298462412,9.061991453170776
-2.184478311623685,-4.411105121179683,-0.14473519620456585,-5.326264587379668,1.376203242561511,-2.411685226629258,60.45077138545942,3.6458005861047766,-18.49633506898623,25.82064075045923,102.53773280756005,64.67096715743976,-140.70534552055705,64.88620240173326,3.249691644213727,9.074913740158081
-2.184521414345062,-4.411085311008674,-0.14474246538079516,-5.326307690101045,1.3762230527325203,-2.4116924958054873,60.478529692003335,3.5629443211499034,-18.427708430492267,25.837203736401378,102.53771081015495,64.67040917685286,-140.70532995642856,64.88634264298534,3.2591194117076876,9.087682962417603
-2.184555846825176,-4.411143744325653,-0.1447383857224167,-5.326342122581159,1.3761646194155408,-2.411688416147109,60.477218680134676,3.603127430195041,-18.447553914609767,25.83971477707933,102.5375257671757,64.67036450651419,-140.70401346848732,64.88604940269539,3.329443819133088,9.111464738845825
-2.1845349072762126,-4.411113974977308,-0.14477407167740627,-5.326321183032196,1.376194388763886,-2.4117241021020983,60.435308190888925,3.6278359604292167,-18.50175981056427,25.834715021027005,102.53853576836791,64.6703567148513,-140.70513835728377,64.88596075997556,3.2403377906334514,9.130367517471313
-2.1845421479627047,-4.4111272762237554,-0.14477560588895605,-5.326328423718688,1.3761810875174383,-2.411725636313648,60.480394013161025,3.6304997605433034,-18.458161612088308,25.822148860298434,102.53856229376537,64.67034787889217,-140.7048753765471,64.88587604687115,3.3435454020590907,9.155520677566528
-2.184536513551048,-4.41111538156686,-0.14475228915232285,-5.3263227893070315,1.3761929821743342,-2.411702319577015,60.45102546078417,3.570399949380376,-18.458327146126003,25.839756593708675,102.53794672830924,64.67038985881446,-140.70482744508604,64.8861051800579,3.259095933176594,9.169201374053955
-2.184528329123301,-4.4111196603097635,-0.1447622796723775,-5.3263146048792835,1.3761887034314306,-2.41171231009707,60.4908278834199,3.6259782083568277,-18.44610327982653,25.81335611585229,102.53825632620803,64.67047634397504,-140.70496461380668,64.88599642603498,3.273166490229926,9.192879915237427
-2.1845415517474343,-4.411100371101245,-0.1447762972687288,-5.326327827503417,1.3762079926399484,-2.411726327693421,60.4561478801323,3.6693783779508635,-18.501070990373726,25.827493848399868,102.53854813907367,64.67021430253062,-140.70531747429396,64.88604203248948,3.404568615568638,9.230274677276611
-2.1845099149985816,-4.411132719194622,-0.14473381722429982,-5.326296190754564,1.3761756445465714,-2.411683847648992,60.44203846475345,3.6467590637264236,-18.504724354276977,25.829207340710706,102.53759218023511,64.67078768482655,-140.7045805940818,64.88608296923495,3.3059752089371655,9.270662069320679
-2.1845317941978752,-4.411103873081966,-0.14477251608920108,-5.326318069953858,1.3762044906592283,-2.4117225465138934,60.41700166638917,3.5827464926240964,-18.49853627242597,25.83269328008953,102.53849459853683,64.67033971943106,-140.7053098639107,64.88603135851977,3.3013401515918934,9.328537225723267
-2.184539187053436,-4.411095873175193,-0.1447798982435895,-5.326325462809419,1.3762124905660007,-2.4117299286682816,60.460512237786354,3.6375012639151216,-18.482327070803148,25.79702389494591,102.53864920931721,64.67020841507123,-140.70545718922725,64.88604224416896,3.27320461482379,9.370193719863892
-2.1844996938387307,-4.411098137928329,-0.1447335311836601,-5.326285969594713,1.3762102258128648,-2.4116835616083523,60.44620319471178,3.538747786772194,-18.448434913234216,25.844270441171773,102.53758435993075,64.67071523629356,-140.70522657016457,64.88629036635207,3.2825507528216793,9.39702320098877
-2.1845268961734052,-4.411091326690684,-0.14471496952539165,-5.326313171929389,1.37621703705051,-2.4116649999500837,60.48649611139842,3.6289656979598854,-18.45190159193768,25.824870422250804,102.53695753988868,64.67043739255392,-140.70483632037178,64.88650303805828,3.3388646787517446,9.409194946289062
-2.184559155740872,-4.4111215267733925,-0.14470773081085625,-5.326345431496855,1.376186836967801,-2.4116577612355483,60.51619819294595,3.590247096785342,-18.404468673099192,25.778391376912992,102.53666039714498,64.67027597433426,-140.70395021975236,64.88640859853722,3.362301267458716,9.435133934020996
-2.184503936880444,-4.411099885421914,-0.14475739470786556,-5.326290212636428,1.3762084783192803,-2.411707425132558,60.45937081045292,3.572095938306178,-18.45208139700674,25.814305114146528,102.53820742968804,64.67063428421565,-140.70545622547596,64.88612011100783,3.3623196219287363,9.453733205795288
-2.1845199967469258,-4.411145043162804,-0.14474058542382867,-5.326306272502909,1.3761633205783892,-2.4116906158485207,60.43907748072858,3.6577538780832537,-18.51312291029847,25.816369774097545,102.53774512245295,64.67073450754934,-140.70437092641808,64.88597244146709,3.3622696878188174,9.465539693832397
-2.18450756435466,-4.41106942531752,-0.1447687327863237,-5.326293840110643,1.3762389384236737,-2.4117187632110157,60.39987436350432,3.4847892640075893,-18.467130652220302,25.889741301584724,102.53845524698494,64.67041840334377,-140.7060468936407,64.88624126581678,3.104312607880323,9.489490270614624
-2.1845244899968614,-4.411121516631716,-0.14475125591863203,-5.326310765752845,1.3761868471094783,-2.411701286343324,60.46077305800669,3.586447816148721,-18.456471130059665,25.83873019810943,102.53798031841892,64.67054670335429,-140.70483456467807,64.88605527949521,3.2966173180753993,9.513606071472168
-2.1845238851511986,-4.411100048905033,-0.14473710891987213,-5.326310160907182,1.3762083148361606,-2.4116871393445645,60.464608053516116,3.6489292085421092,-18.483784273000214,25.807860584780485,102.53757566620294,64.67047004429261,-140.7050044635891,64.88628942303211,3.1981089792094473,9.525879144668579
-2.184533010178032,-4.411086296390499,-0.14473781902262609,-5.326319285934015,1.3762220673506946,-2.4116878494473184,60.48859872789114,3.5811027378646574,-18.425660994438843,25.855765377894937,102.5375362481904,64.67030438018917,-140.7051427062017,64.88638584640438,3.3201144305683243,9.54976224899292
-2.1845353776744965,-4.411073869942008,-0.14476696731970393,-5.32632165343048,1.3762344937991853,-2.411716997744396,60.45905867769071,3.6245715716227904,-18.47662281008623,25.835897212394393,102.53829063580655,64.67015949559216,-140.70568217122175,64.88626659670915,3.310756864022556,9.578510999679565
-2.1845463757223396,-4.411078357912518,-0.14476092183318406,-5.326332651478323,1.376230005828676,-2.4117109522578764,60.467044214120044,3.5743983631049114,-18.444401371405277,25.834540231015346,102.53808581982948,64.67008156206408,-140.70542757406403,64.8862962609158,3.38582267506648,9.591020584106445
-2.184533510908169,-4.411113632921337,-0.14473491195012927,-5.326319786664152,1.3761947308198574,-2.4116849423748214,60.46161167808184,3.618890471138725,-18.471745338419947,25.821763854246985,102.53749200983404,64.67044546484529,-140.70466692469435,64.88623232500785,3.291932262585524,9.627801895141602
-2.184541224621352,-4.411130488106159,-0.14482004146092742,-5.326327500377335,1.3761778756350347,-2.4117700718856194,60.44670299071668,3.529114692032341,-18.441703731162377,25.85901191260177,102.53976147061968,64.67028739765256,-140.70538995468993,64.88554614219639,3.320098957168013,9.655427932739258
-2.184576043310172,-4.411141721252211,-0.14480649465604956,-5.326362319066155,1.3761666424889838,-2.4117565250807416,60.39327546787742,3.446898707958711,-18.45413316374511,25.88570954339489,102.53925900675752,64.67001449540162,-140.70470128726137,64.88562027032755,3.320096709975708,9.667695999145508
-2.184562345041318,-4.411101576593401,-0.1447431076451087,-5.326348620797301,1.376206787147793,-2.411693138069801,60.48922036162845,3.328824151298478,-18.299411113503478,25.95122273366055,102.53756819041983,64.67007186403626,-140.70467925534624,64.88629540558445,3.254427652749545,9.696202039718628
-2.184572276862696,-4.411121833009741,-0.14476227843627237,-5.326358552618679,1.3761865307314536,-2.4117123088609644,60.47636837643289,3.3713626073487504,-18.334792848824357,25.889205821133938,102.53806459296818,64.6700368841889,-140.70450034116934,64.88604806557966,3.254416402035302,9.70926022529602
-2.1845101414681896,-4.411134160662999,-0.1447436195865628,-5.326296417224173,1.3761742030781952,-2.411693650011255,60.46034956230988,3.5490420147696278,-18.438137918551988,25.867675938091445,102.53785578034449,64.67077370350248,-140.7046782578423,64.88600615736868,3.263751497737851,9.749397039413452
-2.184510392268755,-4.411099010838874,-0.14476731947573934,-5.326296668024738,1.3762093529023198,-2.4117173499004316,60.44043479534849,3.6052758609331366,-18.486519056184445,25.82471609653998,102.53844369211117,64.67054428332798,-140.70553132134418,64.88606651053784,3.1887317309778407,9.775111675262451
-2.184540457530515,-4.411093739688177,-0.14475933355220877,-5.326326733286498,1.3762146240530178,-2.411709363976901,60.441205654212624,3.592378584126708,-18.479709994171575,25.808337719194274,102.53808964750078,64.67022443012438,-140.70522107994609,64.88620030942495,3.2168985700026296,9.78774642944336
-2.184602444823928,-4.41113932232277,-0.14474640538097314,-5.326388720579911,1.3761690414184238,-2.4116964358056654,60.47218706395642,3.601301174582945,-18.451100805458058,25.838494398758066,102.53752862028217,64.66984836041831,-140.703728569346,64.88609146464637,3.1840277949077667,9.81195592880249
-2.1845154563780085,-4.411127350492215,-0.14475035241321718,-5.326301732133992,1.376181013248979,-2.4117003828379096,60.464148674038434,3.574509965739521,-18.446826689234797,25.858564635202217,102.53800375541215,64.67067108839753,-140.7048188607701,64.88601085679204,3.1840041826063743,9.838232040405273
-2.1844990060566962,-4.411123915667492,-0.14474369374723323,-5.326285281812679,1.3761844480737018,-2.4116937241719256,60.45791926894146,3.587282143402138,-18.46003303476216,25.840638658117406,102.53789361243338,64.6708350627507,-140.7049508978425,64.88605441680153,3.0948547640875415,9.851104259490967
-2.184529286571997,-4.411121458568495,-0.1447074022455818,-5.32631556232798,1.3761869051726996,-2.4116574326702738,60.46905082895526,3.564479147170079,-18.43850797117225,25.815002608579775,102.53678371092523,64.6705825390896,-140.70423925574323,64.88636680104028,3.221534955013838,9.890084028244019
-2.184546049640855,-4.411104109541605,-0.14475250423410435,-5.326332325396838,1.376204254199589,-2.4117025346587964,60.479750268260204,3.5795136978194124,-18.432184528057554,25.89506480318719,102.53789547927606,64.67023369789175,-140.70491604250202,64.88618982120754,3.296646916830115,9.913166761398315
-2.184518100614314,-4.411076921857256,-0.14478238876776536,-5.326304376370297,1.376231441883938,-2.4117324191924574,60.454068337062274,3.5294791398558947,-18.435301368150924,25.85765072044026,102.53878442926462,64.67032234061753,-140.70599577374807,64.88611447014351,3.352977351238705,9.926744222640991
-2.1844837504903905,-4.411118875366264,-0.1447201133030117,-5.326270026246373,1.3761894883749297,-2.411670143727704,60.46819034356855,3.6101285767592306,-18.460948023987203,25.845393754722764,102.53732255183665,64.67101145402822,-140.70488480221053,64.8862273075406,3.2121389717994413,9.949283361434937
-2.1845154217736082,-4.411134093969449,-0.14475680859806914,-5.326301697529591,1.376174269771745,-2.411706839022761,60.46024378273051,3.6890639502096323,-18.508546677308697,25.763334986481272,102.53818578972461,64.67069355582666,-140.704792895277,64.88592302296007,3.3388270558674664,9.974217176437378
-2.184524777618305,-4.411121771337599,-0.1447487253243677,-5.326311053374289,1.376186592403595,-2.41169875574906,60.4410534975803,3.7484452479328243,-18.55657456815862,25.747796157305174,102.53791155845542,64.6705499872873,-140.70479600515233,64.8860716256278,3.3388420550677926,9.985634088516235
-2.1845333941562717,-4.4111289475157776,-0.14470564938076239,-5.326319669912255,1.3761794162254162,-2.4116556798054547,60.50152553635615,3.662328073430771,-18.453700838593907,25.79000888584708,102.53672838447447,64.67058233775919,-140.70405810914187,64.88633728941967,3.357588890569531,10.01091742515564
-2.1845214131248007,-4.4110828181886035,-0.14472371753510666,-5.326307688880783,1.3762255455525905,-2.411673747959799,60.46981447321269,3.5077515557482744,-18.407483867164398,25.9124292600733,102.53720509081762,64.67043284628953,-140.70513474748188,64.88648851185212,3.235656281262134,10.045573711395264
-2.184573233517149,-4.411150825261674,-0.14475818811401836,-5.326359509273132,1.37615753847952,-2.4117082185387106,60.48650581825909,3.617842013826496,-18.445095045000652,25.836129326769477,102.53798880014422,64.67018410971019,-140.7039789775146,64.88589286033682,3.301300369016933,10.072571039199829
-2.1845372476636804,-4.411132533354812,-0.1447306939712748,-5.3263235234196635,1.376175830386382,-2.411680724395967,60.50199406044764,3.545947365474688,-18.397221924199837,25.78866490300335,102.5373872396447,64.67051253925193,-140.70427716104936,64.88614653880157,3.249685251008077,10.08453917503357
-2.1844916281116777,-4.411095626280029,-0.14477296024504635,-5.326277903867661,1.3762127374611648,-2.4117229906697384,60.47259185608591,3.556756749031186,-18.429805391046745,25.870977864475407,102.53867349733788,64.67070831175684,-140.70583925064074,64.88602103696788,3.259105956649001,10.109947681427002
-2.1845089884419457,-4.411111075548127,-0.14475612460599274,-5.326295264197928,1.3761972881930673,-2.411706155030685,60.43288986449974,3.5745184966420154,-18.478903911632493,25.836965708133373,102.53816571833201,64.67064249564424,-140.70521307165626,64.88606504596994,3.202788651313904,10.134673595428467
-2.184527124815302,-4.411062167261606,-0.144734601091724,-5.326313400571285,1.3762461964795882,-2.411684631516416,60.450866883701536,3.6378996543995465,-18.491750789149002,25.828907017592837,102.53744438035875,64.67024691732001,-140.70554344478404,64.88655333732301,3.2544532100534713,10.149055004119873
-2.1845187564060136,-4.411144763952702,-0.14480040968411145,-5.326305032161996,1.376163599788492,-2.4117504401088037,60.439088599812216,3.6252268325028862,-18.49651883786884,25.83971974088609,102.53935356032511,64.6706293890414,-140.70513685933548,64.88555766092021,3.2543810804391162,10.179078578948975
-2.1845453311612615,-4.411102527895832,-0.1448352709757675,-5.326331606917245,1.3762058358453626,-2.4117853014004598,60.46748487834998,3.637836002792058,-18.475886511418427,25.771884499948126,102.5401147299227,64.67007188413214,-140.7059849327348,64.88562508492446,3.254453337981139,10.191308498382568
-2.184520902009048,-4.411132977877514,-0.14475648639155664,-5.326307177765031,1.3761753858636798,-2.411706516816249,60.46586450815046,3.5436611863166965,-18.431353160810566,25.82003537298755,102.53815142834735,64.67063225009622,-140.7047530107832,64.88594054495702,3.3669811783853705,10.243204116821289
-2.1844840127419904,-4.4111084175575215,-0.14474895172980226,-5.326270288497973,1.3761999461836725,-2.4116989821544945,60.44203149962682,3.571287378666121,-18.467887223096913,25.859370864288753,102.53808055778767,64.67089888468004,-140.70540968682766,64.88609450803825,3.315380376657477,10.269105195999146
-2.184529459901543,-4.411119367493741,-0.14476562099455548,-5.326315735657526,1.3761889962474534,-2.4117156514192475,60.43373296341323,3.509957073181726,-18.445401558830035,25.874435488742524,102.53834048432756,64.67045674226563,-140.70500006446443,64.88597681675795,3.1605660917287617,10.293954610824585
-2.184521614399647,-4.411130546306413,-0.14475830632776915,-5.32630789015563,1.3761778174347805,-2.4117083367524614,60.434292807580675,3.552938265793515,-18.466515530175318,25.847324203173866,102.53819385698216,64.67060890146065,-140.70480748722304,64.88594450517215,3.2919166710541656,10.30577278137207
-2.184512830415621,-4.411106092821422,-0.144744992790928,-5.326299106171604,1.3762022709197717,-2.41169502321562,60.437554806450336,3.6022863707817856,-18.487577644240726,25.838485566075246,102.53784382943282,64.67059913780786,-140.70511525691452,64.88617973244557,3.1840249363681012,10.33270788192749
-2.1845162359567323,-4.411104915101315,-0.14478361362333989,-5.326302511712715,1.3762034486398793,-2.411733644048032,60.4440954561401,3.52942128454516,-18.445474968983014,25.847016418982165,102.53886226344379,64.67048301742643,-140.70558444219293,64.88592459229643,3.207500860744598,10.344648361206055
-2.184563112523875,-4.411151501933685,-0.14476342957552013,-5.3263493882798585,1.3761568618075086,-2.4117134600002124,60.50809105230381,3.6638431001445433,-18.44897019250914,25.72486420695045,102.538174963289,64.6702811697845,-140.70413284258927,64.885837125591,3.188694601000341,10.40878939628601
-2.184485351076712,-4.411123767490714,-0.14475542934047037,-5.326271626832695,1.376184596250479,-2.4117054597651624,60.44861762566325,3.565344522271915,-18.459487856846884,25.82210899398284,102.5382683915838,64.67095148519492,-140.70523377667897,64.8859536578157,3.3529001121188866,10.500429630279541
-2.1844678984667225,-4.411143869640889,-0.14473799001710497,-5.326254174222706,1.3761644941003046,-2.411688020441797,60.42726974845641,3.5858532492381165,-18.490804861265744,25.825737236777893,102.53790465535765,64.67126773623346,-140.7048664933533,64.88592027978534,3.2684116011829962,10.513025283813477
-2.1844867362282936,-4.411124036192014,-0.1447319665740267,-5.326273011984277,1.3761843275491796,-2.411681996998719,60.4504715874826,3.550302360158683,-18.45114986018486,25.80126078063188,102.5376337886773,64.67098431323355,-140.7049220616179,64.8861166582325,3.2355976197490293,10.5249342918396
-2.1845273310878137,-4.411128434761511,-0.14477165989051338,-5.326313606843797,1.376179928979683,-2.4117216903152054,60.446154389739256,3.592341592461423,-18.474708207720948,25.80791255956106,102.53852365675861,64.67051344367859,-140.70495241638392,64.88587392749638,3.1793243146268146,10.547893047332764
-2.184509450320443,-4.411123188725721,-0.1447520716996448,-5.326295726076426,1.3761851750154723,-2.411702102124337,60.45856409630308,3.5997799225804408,-18.466106294308737,25.811932480538538,102.53807095607617,64.67070792960598,-140.70496526888957,64.88601654228631,3.287225636108734,10.565465211868286
-2.184505302305457,-4.411140068265252,-0.1447408735615091,-5.32629157806144,1.3761682954759424,-2.411690903986201,60.45727327904613,3.6148885207394224,-18.4745885824962,25.815072492618345,102.53781136321616,64.67085904254782,-140.70459728748367,64.88598028799123,3.1792900108680255,10.589438676834106
-2.184496955285745,-4.411146921909063,-0.1447401197935069,-5.326283231041728,1.376161441832131,-2.4116901502181993,60.405066885632294,3.5926925158614487,-18.51510522723182,25.850921139954025,102.53783711088023,64.67098133905614,-140.70456053768424,64.8859293437243,3.2168123205993773,10.60412311553955
-2.18451106353848,-4.411131511407334,-0.14475818702762483,-5.326297339294463,1.3761768523338596,-2.411708217452317,60.47479307537671,3.5937680530756295,-18.446461755897985,25.826117575614756,102.53823863490506,64.67072228351115,-140.70489382174668,64.88592345058822,3.3669791009690337,10.632396459579468
-2.184498778256312,-4.411137947086985,-0.14478031545817707,-5.3262850540122955,1.3761704166542092,-2.4117303458828694,60.43908938603001,3.618747188372725,-18.494789260743573,25.806852454106632,102.5388945291764,64.67083829124151,-140.7051888487865,64.88571067880115,3.2543724180395532,10.644615650177002
-2.184534295322494,-4.411071386784501,-0.1447809764889022,-5.326320571078478,1.3762369769566927,-2.411731006913594,60.48341939164814,3.403917656419663,-18.34548356284779,25.85072725320127,102.53866761514789,64.670130567678,-140.705907698845,64.88618371180971,3.231004315918292,10.67128038406372
-2.1845295438869266,-4.411123525053528,-0.14473183884155116,-5.326315819642909,1.3761848386876667,-2.411681869266243,60.485933224056495,3.6655064777085262,-18.47038716869397,25.803321797293307,102.53744019729359,64.67054298567051,-140.7045100017219,64.88618459962667,3.1980831184792313,10.729766130447388
-2.184551078441144,-4.411116945578202,-0.14476165241807862,-5.326337354197127,1.3761914181629913,-2.4117116828427707,60.46888114596014,3.4068001243164705,-18.35871713896411,25.9169671904855,102.53813524090576,64.67023033671414,-140.70477745639403,64.88605199859677,3.2919462715212555,10.758883953094482
-2.1844778576279484,-4.411150850621916,-0.14474147923032946,-5.326264133383932,1.3761575131192778,-2.4116915096550215,60.410359660383406,3.374407382652775,-18.4032475826664,25.896149196447062,102.53796324679358,64.67119472121722,-140.70470186686597,64.88586639106927,3.3106352980504905,10.77084994316101
-2.1844941564727747,-4.4111168435615475,-0.14474635353538057,-5.326280432228757,1.376191520179646,-2.4116963839600727,60.463196834975825,3.447515922341743,-18.387100017544835,25.85379114220372,102.53797708030784,64.67084325150597,-140.7051440348642,64.88607387483627,3.2966073084122227,10.807008266448975
-2.1845095651764646,-4.411123122850775,-0.1447450103513552,-5.326295840932447,1.3761852408904187,-2.4116950407760473,60.43334662450291,3.5750914652750994,-18.478092282326962,25.856715573775944,102.53788111298935,64.67072015185337,-140.7048767408721,64.88606608455295,3.3106818527414186,10.831520557403564
-2.1845477621847853,-4.411097629331166,-0.1447638056482499,-5.326334037940768,1.3762107344100285,-2.411713836072942,60.44966423615601,3.601274210678014,-18.47420768703041,25.846879502217277,102.53818226969058,64.67016082815253,-140.7051438523078,64.88615537613781,3.324809728834097,10.84361219406128
-2.184567327452315,-4.411112339433414,-0.14477268567518548,-5.326353603208298,1.3761960243077798,-2.4117227160998778,60.49585712681909,3.533089899534124,-18.39586321146486,25.814200370847654,102.53835295332186,64.67001857002222,-140.7048299824536,64.88602911811205,3.3248051564378995,10.881378889083862
-2.184508320687699,-4.4111014253794725,-0.14474056283670556,-5.326294596443682,1.3762069383617213,-2.411690593261398,60.47635447611074,3.5766387939656945,-18.437082385437687,25.821109610746305,102.53773894009807,64.67062999970494,-140.7051780452265,64.88623350175665,3.324779332064278,10.89632511138916
-2.184531893873422,-4.411095275523415,-0.1447727935833923,-5.326318169629405,1.3762130882177788,-2.4117228240080846,60.43625353203236,3.694316164559203,-18.534701672406193,25.771925460317913,102.53849030647814,64.67029394934315,-140.70544900909306,64.88608443956807,3.263815733117605,10.907701253890991
-2.184519136053512,-4.411133261992175,-0.14476737715259486,-5.326305411809495,1.3761751017490194,-2.411717407577287,60.460694519640384,3.6628194922182447,-18.493228469673753,25.838663589364682,102.53845149618223,64.6706306290614,-140.70490218295012,64.88586060324114,3.3059911726524085,10.932657480239868
-2.1845579121925764,-4.411133406876151,-0.1447682959458891,-5.32634418794856,1.3761749568650432,-2.4117183263705813,60.46883947113775,3.7310128939055485,-18.519294837622216,25.76822979285742,102.53830464620181,64.67023198145903,-140.7045322329429,64.88591109756052,3.306008534650468,10.944609880447388
-2.184531554088846,-4.411103358044069,-0.14475988302654652,-5.326317829844829,1.3762050056971251,-2.4117099134512388,60.4742699321538,3.6308508873579752,-18.46415318873838,25.84324281351938,102.53815641590921,64.67036411341107,-140.70516215492356,64.88612186232625,3.3482536005713124,10.97321105003357
-2.184533063009989,-4.411147506501939,-0.1447727237400735,-5.3263193387659715,1.3761608572392554,-2.411722754164766,60.44149559619447,3.6018775218862853,-18.482213122461363,25.858876975514736,102.53855183022256,64.67055066451424,-140.70460658727768,64.88575340807768,3.3529009877109948,10.98530101776123
-2.184544305815407,-4.411089580606731,-0.14476494213523164,-5.326330581571391,1.3762187831344626,-2.411714972559924,60.49156324389022,3.5792403628973393,-18.42293219473321,25.80991511647093,102.53821746174107,64.67015267174833,-140.7053198060051,64.88619370107789,3.268516556807925,11.013202905654907
-2.1844817403507624,-4.411069996807527,-0.14476053930200533,-5.326268016106745,1.3762383669336673,-2.4117105697266976,60.44211091419008,3.564323224775889,-18.464580323550155,25.860440182511024,102.53835073269614,64.67070208439402,-140.70618769668548,64.88625593313753,3.245050503429405,11.025416135787964
-2.1844918625679943,-4.411092486315891,-0.14476798284536552,-5.3262781383239775,1.3762158774253028,-2.4117180132700575,60.43461660714791,3.560921749817403,-18.47076436393185,25.84121145200616,102.53853493969135,64.67069944674235,-140.70582451662105,64.88607592539701,3.2450324611810055,11.052219152450562
-2.1845231411111405,-4.411087039305726,-0.14473594917583005,-5.326309416867124,1.3762213244354682,-2.4116859796005223,60.46950050314693,3.5103683494399287,-18.410370173650175,25.869594448124534,102.53753079799044,64.67041303527057,-140.70520397933964,64.8863793610921,3.3576427627003067,11.064568996429443
-2.184500062112351,-4.411137530774204,-0.14477404308779976,-5.326286337868334,1.3761708329669897,-2.411724073512492,60.44788795222539,3.5827810213021705,-18.46737404022408,25.850392317938727,102.53872019482917,64.67083519065727,-140.70510434370186,64.88575873013495,3.202761605092081,11.088294982910156
-2.184536308969248,-4.4111265072801755,-0.14477424971196617,-5.326322584725231,1.3761818564610184,-2.4117242801366583,60.43192575367243,3.5666814337630512,-18.475608218290162,25.8358104029923,102.53855078867122,64.67040643600836,-140.70492770369043,64.88588165258591,3.2027901441252755,11.11293911933899
-2.184533029022283,-4.411141243327598,-0.14477235478005157,-5.326319304778266,1.3761671204135961,-2.411722385204744,60.456696722833165,3.516914177473931,-18.42584490483404,25.867154425877402,102.53853387119364,64.67051952660643,-140.70470183796863,64.88579587737918,3.2027714096898734,11.124695539474487
-2.184505670659584,-4.411107466744763,-0.14474871035661946,-5.326291946415567,1.3762008969964312,-2.4116987407813117,60.45983734302325,3.5595849457324995,-18.444597982967377,25.845517001417125,102.53797696147761,64.67067238523929,-140.70520999722254,64.88613452500144,3.3623086307651624,11.149786472320557
-2.1845059923971086,-4.411130847246666,-0.1447560662206126,-5.326292268153091,1.3761775164945278,-2.4117060966453048,60.47331201394683,3.4672288121501356,-18.38508267103455,25.887331709028135,102.53820337517973,64.67077499420412,-140.70492739884392,64.88593483240255,4.478925063375208,11.186126470565796
-2.1845540508472814,-4.41112284888286,-0.14472570626176576,-5.3263403266032645,1.3761855148583337,-2.411675736686458,60.48681888093904,3.6398014385218986,-18.45680579807261,25.805259598394997,102.53716647378285,64.67030014776543,-140.70420429501857,64.88626794691925,3.3623042070102995,11.210645198822021
-2.1845682681881797,-4.411167265417966,-0.14474867825523566,-5.326354543944163,1.3761410983232283,-2.411698708679928,60.45480403416783,3.552973104007293,-18.446198487529337,25.81777993488855,102.53777750038742,64.67033805926224,-140.70364712335092,64.88584648595311,3.254358460460245,11.250856876373291
-2.1844932988417796,-4.4111617226766775,-0.14472655522985178,-5.326279574597763,1.3761466410645162,-2.411676585654544,60.4728356029547,3.5770991167348964,-18.439693698988464,25.856473979621427,102.53750918732278,64.67112132538762,-140.7041911442591,64.88592348951092,3.310624357839636,11.291492938995361
-2.1845419704790645,-4.411136428292716,-0.14474290126572698,-5.326328246235048,1.3761719354484783,-2.411692931690419,60.48970128059901,3.5459527440679,-18.40742763049898,25.850014678790593,102.53769860552686,64.6704603894446,-140.70432199126645,64.8860441018114,3.1370852712338273,11.303549528121948
-2.18456128297525,-4.411092376969826,-0.14474779979071692,-5.326347558731233,1.3762159867713684,-2.411697830215409,60.495831520891855,3.6606608918586323,-18.45680229491014,25.83777414361902,102.53768656313892,64.67002632108341,-140.7048946279734,64.88631999390184,3.2544392763267114,11.327471733093262
-2.184485205737201,-4.411175476918223,-0.14474764938002949,-5.326271481493184,1.3761328868229707,-2.4116976798047216,60.398836315658265,3.710862105393532,-18.578514094093432,25.839251750197583,102.53812841464587,64.67123399209422,-140.70431591593257,64.88567743875451,3.1839356362485676,11.352465391159058
-2.1845424195236958,-4.411110476584871,-0.14476176799089652,-5.3263286952796784,1.376197887156323,-2.4117117984155887,60.43367741641424,3.699837817023245,-18.538827653309507,25.804946260554388,102.5381681785845,64.67028563600135,-140.704966385142,64.88607956837258,3.132429843326249,11.364445686340332
-2.1844890115238296,-4.411119793058111,-0.1447825941856732,-5.326275287279812,1.3761885706830828,-2.4117326246103654,60.44128605863831,3.6065708612249505,-18.486204550956177,25.83131821343212,102.53897500721212,64.67084065927502,-140.70560141855708,64.88579615736515,3.334149433230217,11.392773866653442
-2.1845157748593524,-4.411146613243096,-0.14474668962898415,-5.326302050615336,1.3761617504980979,-2.4116967200536763,60.50262505843871,3.6112068045358963,-18.42661652091031,25.836525646482603,102.53792947052588,64.67077399605041,-140.7044637195501,64.88591381605792,3.4607952769261114,11.405487298965454
-2.184579525145052,-4.411109515896428,-0.14475302560907,-5.326365800901035,1.3761988478447655,-2.4117030560337622,60.54462583294546,3.598175420006731,-18.378337935104398,25.813793092526797,102.53776836270333,64.66991722950503,-140.70450932032705,64.88620159837782,3.3341901004063104,11.432774782180786
-2.1845390067678365,-4.411146129487084,-0.14474339286745516,-5.326325282523819,1.3761622342541104,-2.411693423292147,60.50891607287039,3.5605530546109443,-18.395733915304678,25.834173384175582,102.53773763568145,64.67053970497417,-140.70420294730604,64.88597437834673,3.1370732284483136,11.444785356521606
-2.1845537432330278,-4.411098673218443,-0.14475166490888547,-5.32634001898901,1.376209690522751,-2.4117016953335777,60.546783995460075,3.5658860158001033,-18.361298168371928,25.806307199196173,102.5378317899432,64.67012848808284,-140.70491670058325,64.88624179111815,3.2872726888263735,11.472270250320435
-2.184571225391905,-4.411064786978783,-0.14475020570598363,-5.326357501147888,1.3762435767624106,-2.4117002361306756,60.51204185197097,3.550861593082239,-18.388547380502335,25.812865828240316,102.53767080835755,64.66977782262406,-140.70526604375095,64.88649416764176,3.1794073766506683,11.486917972564697
-2.184553408891884,-4.4110874973459895,-0.1447608630822767,-5.326339684647867,1.3762208663952047,-2.411710893506969,60.50078587019531,3.549123265574405,-18.397877494294864,25.849692964984808,102.53806510945076,64.6700565541623,-140.70521280981,64.88624883616247,3.3060554146494887,11.51202130317688
-2.184494091030674,-4.4111575967602095,-0.14472731856070792,-5.326280366786657,1.3761507669809847,-2.4116773489854,60.480233773210664,3.5934143450067744,-18.442056080019185,25.794936147670235,102.53752072096718,64.6710905029393,-140.7042585343197,64.88594570454556,3.2637119570672937,11.537928581237793
-2.184537022489203,-4.411132404181201,-0.14475756424248973,-5.326323298245186,1.376175959559993,-2.411707594667182,60.46126498762234,3.6060719164692223,-18.466107428526676,25.80802237748575,102.53810819746805,64.67046190534488,-140.70461800169056,64.88596075759739,3.263770574503355,11.548887729644775
-2.184558289387626,-4.411154651791534,-0.14474659558374006,-5.326344565143609,1.3761537119496594,-2.4116966260084323,60.500139109984126,3.596542709062352,-18.422852040186726,25.790447574464906,102.53774930199619,64.6703795739799,-140.7039190748921,64.88592653428609,3.263750891892766,11.571586847305298
-2.184565914266676,-4.411146265237263,-0.14474042073472254,-5.326352190022659,1.3761620985039313,-2.411690451159415,60.486528736689955,3.5984472522719058,-18.437167318147235,25.796227064332136,102.53753905026508,64.6702702801961,-140.70390045566504,64.88603421377758,3.3153709227481007,11.582579135894775
-2.184505938231972,-4.411108052889686,-0.14479781943157355,-5.326292213987955,1.376200310851508,-2.411747849856266,60.431824631130404,3.6159304850359826,-18.50056787231757,25.810084751698888,102.53929269619978,64.67057710148497,-140.7058132050245,64.88579074611427,3.2731828494052397,11.604634046554565
-2.1845229603256167,-4.411116330247067,-0.14477133517574886,-5.3263092360816,1.3761920334941269,-2.411721365600441,60.44708140399657,3.63004751466358,-18.491560409252614,25.823066696846876,102.5385184129315,64.67049665280386,-140.70518346619585,64.88594689742783,3.29662994586126,11.628691673278809
-2.1845596308166093,-4.411131553283224,-0.14477725304029054,-5.326345906572593,1.37617681045797,-2.4117272834649826,60.49502185304423,3.607801882149487,-18.433719538776298,25.77735179774094,102.53853465464464,64.67018740010813,-140.70465708517415,64.88586339349837,3.277864155779165,11.653681516647339
-2.1844893317694605,-4.411100581037159,-0.14478403152531077,-5.326275607525443,1.3762077827040344,-2.411734061950003,60.43351052108366,3.515315387539671,-18.449956190274396,25.837494212260662,102.53898688665564,64.67073579283404,-140.70592163448455,64.8859092516762,3.1934186900187393,11.667443037033081
-2.1844645125820876,-4.411108033699272,-0.1447393516826853,-5.32625078833807,1.3762003300419217,-2.4116893821073777,60.45458052249868,3.618206400881251,-18.47956115774878,25.815754892087654,102.5379090897037,64.67111554414777,-140.7054862147287,64.88613444625511,3.3341357132393696,11.690645694732666
-2.184532127676635,-4.411129487335362,-0.14475301735345403,-5.326318403432618,1.376178876405832,-2.411703047778146,60.47776304594792,3.5575125615309804,-18.426149155415064,25.815250092488398,102.53800417920814,64.67050594488569,-140.7046552665006,64.88600359392723,3.2356194360324997,11.70692753791809
-2.1845117617285585,-4.411088601001031,-0.14477177520339485,-5.326298037484541,1.3762197627401633,-2.411721805628087,60.42684131017634,3.584134721184349,-18.48937548500008,25.84323098062632,102.53854337798916,64.67046804457972,-140.70573919080178,64.88610408214701,3.1981293838825353,11.731008768081665
-2.184541479505743,-4.411107265425198,-0.1447847743221997,-5.326327755261726,1.3762010983159962,-2.411734804746892,60.42438137392239,3.4120774460679764,-18.405802366499913,25.918289879201456,102.5387846961871,64.67023399940476,-140.7053147911452,64.88593917122664,3.343571026676485,11.742802858352661
-2.184477262782716,-4.4111042057076935,-0.14480786498717332,-5.326263538538699,1.3762041580335007,-2.4117578954118657,60.419176233320705,3.485146013871805,-18.44921147040344,25.85514134670774,102.53968383638625,64.67083180826354,-140.70628057131267,64.88570291575074,3.277869808659217,11.766689777374268
-2.1845086234959363,-4.411131755173759,-0.1447572620846278,-5.32629489925192,1.3761766085674343,-2.41170729250932,60.441147442281284,3.5627056180005594,-18.465212898333355,25.82584793377402,102.53822496882592,64.67075035661819,-140.70490222104962,64.88592467057524,3.282525725890671,11.806741952896118
-2.184547772520943,-4.411139861720044,-0.14473292922854059,-5.326334048276926,1.37616850202115,-2.4116829596532328,60.51392622646261,3.6874267545187585,-18.45443575932963,25.738466353217863,102.53741017669158,64.67043795138252,-140.70408577645213,64.88609996879678,3.282524901107145,11.831981420516968
-2.184563471106567,-4.41115599282171,-0.1447036736826632,-5.32634974686255,1.3761523709194834,-2.4116537041073554,60.51585893560356,3.7035200165257525,-18.45987479105276,25.74488533896385,102.53657781376374,64.67041683960947,-140.70330942790656,64.88622323934355,3.2262017094103017,11.846276760101318
-2.184569814451065,-4.41117925827951,-0.14475633321143588,-5.326356090207048,1.3761291054616835,-2.411706363636128,60.47155339018729,3.574637927622694,-18.439634250618507,25.821583848027228,102.5379915523923,64.6703689763546,-140.70353729383285,64.88571920399956,3.324724900253435,11.887231588363647
-2.184506183455894,-4.4111777838323745,-0.14477535046845594,-5.326292459211877,1.3761305799088197,-2.4117253808931483,60.466783238233994,3.530273748520857,-18.424006715988995,25.81640057983545,102.53878098026132,64.67097685267734,-140.7044211223315,64.88550195358309,3.2167948047401476,11.902642011642456
-2.184522773820453,-4.4111149395407105,-0.1447611346800013,-5.326309049576436,1.3761934242004832,-2.4117111651046934,60.472542441280886,3.736596028807787,-18.51914629216843,25.757748228046925,102.53824403551756,64.67051126151303,-140.7050796204128,64.8860262051699,3.2450183541169384,11.927690267562866
-2.184509293576421,-4.41116989763275,-0.14479521325266134,-5.326295569332404,1.376138466108444,-2.4117452436773537,60.442036530373485,3.592124612121071,-18.478811213396224,25.802805408143477,102.5392891887199,64.67086576389549,-140.70476484886547,64.88541921479298,3.2308877241573333,11.952212810516357
-2.1845674519448557,-4.411087685730947,-0.14477510992642936,-5.326353727700839,1.3762206780102468,-2.4117251403511215,60.48746738351847,3.6513288355526994,-18.461650929057154,25.798448547104577,102.53838500324396,64.66988580708055,-140.70525095691778,64.88616979997065,3.202847933099016,11.964335918426514
-2.18451058857649,-4.411137141265247,-0.14475960484518052,-5.326296864332473,1.3761712224759473,-2.411709635269873,60.49039989572973,3.5775476333277703,-18.423405361709296,25.813935164590458,102.53828612851176,64.67075334314268,-140.70482674979093,64.88587699241494,3.2778295706832266,11.988195657730103
-2.1845427158699247,-4.411109833221915,-0.14474969012104635,-5.326328991625908,1.376198530519279,-2.4116997205457387,60.45693036260607,3.593374262981866,-18.464146924491892,25.81653254153935,102.537842333169,64.67030278800334,-140.70482242256367,64.88616784122394,3.301329793286124,12.015191316604614
-2.1845210775561474,-4.411098349675893,-0.14477497897672797,-5.326307353312131,1.3762100140653009,-2.41172500940142,60.44384977122204,3.6227429125254207,-18.491192490238934,25.82910958883206,102.53860079656037,64.67041641392386,-140.70553328900587,64.88603355573288,3.3154178114286434,12.02712082862854
-2.1845107660555234,-4.411125543632368,-0.1447706774620097,-5.3262970418115065,1.3761828201088266,-2.411720707886702,60.42738046653222,3.560375623026638,-18.476799958403948,25.85744472565639,102.5385668676316,64.67067034576976,-140.70514803489192,64.88587449782324,3.315381052131541,12.056566953659058
-2.1845531671743754,-4.4111207491090605,-0.14475954371956304,-5.326339442930358,1.3761876146321335,-2.4117095741442554,60.46696719042696,3.500237831440437,-18.408283223321725,25.841107843051297,102.53807447505405,64.67023257933045,-140.7046701683648,64.88604546077008,3.315401091708078,12.07122802734375
-2.184509274848948,-4.411147942669799,-0.14475483498025837,-5.3262955506049305,1.376160421071395,-2.4117048654049507,60.45513131609963,3.499586732133941,-18.420152177664164,25.84516825474421,102.53817828986668,64.6708316336952,-140.70460817904083,64.88583918162398,3.315349300509303,12.083726167678833
-2.1845012707868356,-4.411167512454284,-0.14479114484945696,-5.326287546542819,1.37614085128691,-2.411741175274149,60.454386716289804,3.5866721292624377,-18.46326001846974,25.82612337346671,102.53921254319826,64.67094368056502,-140.70483024198265,64.88545067954017,3.3341043702766493,12.110294103622437
-2.184504091190646,-4.41112538711026,-0.14474607582227314,-5.326290366946629,1.3761829766309341,-2.4116961062469655,60.43649501369485,3.5773469438944705,-18.47718738907771,25.821456085903925,102.53793687370538,64.6707858513669,-140.7049076265198,64.88603609354227,3.3716702326739787,12.123257398605347
-2.1845062520965453,-4.411111985240487,-0.1447597671586715,-5.326292527852528,1.3761963785007065,-2.411709797583364,60.434238589809716,3.60632379638403,-18.4930341207501,25.83171889507855,102.53827664903868,64.67066814408142,-140.70527099721738,64.88602991241014,3.568745507870233,12.148135423660278
-2.184539962577634,-4.411107893130642,-0.14474133595366293,-5.326326238333617,1.3762004706105522,-2.411691366378355,60.458070009161176,3.4015182708320917,-18.369020927912896,25.867521883602315,102.5376280803998,64.67033729804767,-140.7047755325542,64.88623402970974,3.3060192476514176,12.186355590820312
-2.1844950933033638,-4.4111387393898545,-0.1447553976132661,-5.3262813690593465,1.3761696243513393,-2.4117054280379584,60.43829433722625,3.4730078470578998,-18.422438631935222,25.904000363436847,102.53824406799784,64.67092863363368,-140.70490016509567,64.88587286835457,3.3294288570136494,12.214041233062744
-2.184525566007906,-4.411147665668562,-0.14478474305706668,-5.326311841763889,1.3761606980726324,-2.4117347734817587,60.4296701651803,3.47097895472724,-18.43112870595131,25.85551633368983,102.53890735140583,64.67060496926152,-140.7048279182883,64.88565789942244,3.33882667974437,12.226234912872314
-2.184574966403681,-4.4111166944359885,-0.14473057483872512,-5.326361242159664,1.3761916693052054,-2.411680605263417,60.41963676259034,3.482824964104952,-18.445649142421214,25.884364133848244,102.5371962906407,64.67004456463489,-140.70415857921378,64.88630463418791,3.2872539744591647,12.25115156173706
-2.1845279967498095,-4.411136744385128,-0.14475504500034456,-5.326314272505792,1.3761716193560662,-2.411705075425037,60.408363402581166,3.5862545221422533,-18.508559122422472,25.84166096992557,102.53808633536096,64.67058167276164,-140.70460572066733,64.88593707787406,3.2966031530335185,12.26317572593689
-2.1845325078313143,-4.4110867081009255,-0.14475243870325122,-5.326318783587297,1.3762216556402687,-2.4117024691279436,60.439238663853814,3.590011246051355,-18.479696119245077,25.84125644230617,102.53793082460012,64.67028320439111,-140.70532420402793,64.88628112351537,3.198133511085233,12.286923170089722
-2.184483846744863,-4.411111207178736,-0.14476129810279867,-5.326270122500846,1.3761971565624573,-2.411711328527491,60.40969464890547,3.6153764149572756,-18.521640337644122,25.851081314058913,102.53841584857902,64.67089090848803,-140.7055216251041,64.88599087273693,3.2403135240203023,12.315241575241089
-2.1845579100815953,-4.411132851530386,-0.14474301025478484,-5.326344185837579,1.3761755122108077,-2.411693040679477,60.419393459292074,3.6235568679215935,-18.515684935080436,25.82397799047088,102.53762627107066,64.67027834352001,-140.70422434315338,64.88608992174727,3.212164633909162,12.326889991760254
-2.1844820201124997,-4.411122895734732,-0.14476403730309317,-5.326268295868482,1.3761854680064616,-2.4117140677277855,60.407405990816194,3.6154944068804653,-18.52508836777368,25.813257108630182,102.53851269473067,64.67096440989289,-140.70538802698607,64.88589458284397,3.3012935420454905,12.350967168807983
-2.1845413010306407,-4.411096195484482,-0.14475240527557157,-5.326327576786624,1.3762121682567123,-2.411702435700264,60.48195545033596,3.6044606475431857,-18.444314631800477,25.82340482387415,102.53790345828556,64.67024188841285,-140.7050870164781,64.88623392580091,3.442098309481204,12.365598201751709
-2.1845559948218765,-4.411090921300133,-0.144760406073129,-5.326342270577859,1.3762174424410616,-2.4117104364978212,60.517420001349116,3.5837079638219502,-18.398052247518486,25.843083430232948,102.53804590929815,64.6700485332982,-140.70512738103207,64.88623401171174,3.23098430364702,12.406643629074097
-2.1845247054550856,-4.411130204883625,-0.14476984444097327,-5.326310981211069,1.3761781588575688,-2.4117198748656654,60.50488641220411,3.640909645430905,-18.440348802887154,25.773914674956316,102.53848895007236,64.67055300108967,-140.70492721695584,64.8858713056263,3.240313440601498,12.42205548286438
-2.184497014216251,-4.411103367806483,-0.1447554306554394,-5.326283289972234,1.376204995934711,-2.4117054610801314,60.49434514811523,3.554833274234044,-18.407588535897258,25.855531849670655,102.53819001043655,64.67072699653806,-140.70544396822464,64.88610119028394,3.310702390056303,12.447456121444702
-2.1844878179286957,-4.41113098970143,-0.1447449930614047,-5.326274093684678,1.3761773740397636,-2.411695023486097,60.42149256692898,3.6432288459178817,-18.523317531693905,25.846338511702626,102.53798725082821,64.67098363109027,-140.7049641433364,64.88598360003049,3.310663360135459,12.472303628921509
-2.184547802693842,-4.411133976728103,-0.14474432001280144,-5.326334078449825,1.376174387013091,-2.4116943504374935,60.45854738782188,3.600696909496009,-18.46576382093817,25.820785963627724,102.53770759187859,64.67038522064065,-140.70432169783868,64.88605860053397,3.2872276120675448,12.4846351146698
-2.1845510663543246,-4.411064129179225,-0.14475776289859435,-5.326337342110308,1.3762442345619688,-2.4117077933232864,60.451736283769925,3.6517140165462934,-18.498581761945157,25.777955276108038,102.53796171548377,64.66996644623677,-140.70556828206244,64.8864159344923,3.2591620703087765,12.512074708938599
-2.1844760115622672,-4.411141249185911,-0.14474799690351475,-5.326262287318251,1.3761671145552832,-2.411698027328207,60.41990543560881,3.5419905064177115,-18.476628704493436,25.835144544438844,102.53813349375795,64.6711516010895,-140.7049541582754,64.88587972025331,3.352873543243396,12.526569128036499
-2.184595069968323,-4.411068557346025,-0.14476786323548665,-5.326381345724306,1.376239806395169,-2.411717893660179,60.48221525064468,3.6125746884103704,-18.447420378959176,25.81923346277715,102.53804342093049,64.66951835616094,-140.70519414263993,64.88638323975266,3.254488507493753,12.554225206375122
-2.1845018046788462,-4.411143250517231,-0.14475830368409148,-5.326288080434829,1.3761651132239634,-2.4117083341087837,60.47298701722141,3.608625570521429,-18.455622474838343,25.821402756572986,102.53829816370465,64.67087735680292,-140.70479924607514,64.8858339413811,3.268434881971184,12.568694591522217
-2.184543230384248,-4.411111375762278,-0.14478570655940312,-5.3263295061402305,1.3761969879789162,-2.4117357369840953,60.43326648664327,3.6316186599898743,-18.505811854788764,25.823173143766336,102.53880732477711,64.67023536738992,-140.70524402176602,64.88590909249632,3.2684992905189807,12.583613157272339
-2.184573259310616,-4.411104644743725,-0.14479242338992832,-5.326359535066599,1.3762037189974694,-2.4117424538146204,60.484758508082805,3.680349238055772,-18.478650167696202,25.777512591689053,102.53884555416278,64.66987977547481,-140.70514150783475,64.88595022915037,3.268522667970071,12.608551502227783
-2.184569724225931,-4.411144917912264,-0.14479065824555737,-5.326355999981914,1.3761634458289302,-2.4117406886702497,60.45813109511431,3.5868542297772397,-18.460094599446627,25.784004133476234,102.53886677138694,64.67012654136606,-140.70451390401038,64.88570023617868,3.301317541186365,12.647199630737305
-2.1845567558683188,-4.4110881323037905,-0.14479488158308132,-5.326343031624302,1.376220231437404,-2.4117449120077734,60.5085726266725,3.617621743441981,-18.42553710019559,25.760975731647992,102.53896281876331,64.66995930893097,-140.70559610644523,64.8860139490495,3.291993562858881,12.662607192993164
-2.1845481548790153,-4.411137834690269,-0.14474679980701793,-5.326334430634999,1.3761705290509252,-2.41169683023171,60.43655203616793,3.5137569033255227,-18.445541827725286,25.83224280252711,102.5377775570261,64.67039662220667,-140.704288002243,64.88601731921474,3.329450188973423,12.687205076217651
-2.1845050763528375,-4.411134576254291,-0.14478062884111917,-5.326291352108821,1.3761737874869027,-2.411730659265811,60.427036535171084,3.585684160529141,-18.49022990381452,25.828069405876217,102.53887061831577,64.67075576898023,-140.70518476375102,64.88573940041826,3.352906071934309,12.725781202316284
-2.1845094316124363,-4.411136762945362,-0.14475667959842606,-5.326295707368419,1.3761716007958318,-2.411706710023118,60.43419851270951,3.5569355235139817,-18.46964454496777,25.81658620722189,102.53821235479434,64.67076895285064,-140.70480743350646,64.88589796063731,3.3528966304173107,12.741484642028809
-2.184577512078862,-4.41108485521203,-0.14475421433155555,-5.326363787834845,1.3762235085291639,-2.4117042447562476,60.47901239371796,3.5622794937872206,-18.426432881344297,25.826656753739694,102.53777675586824,64.6698087527788,-140.70493583222134,64.88634770433,3.4327443449234325,12.768731117248535
-2.1845694815616983,-4.411073161658852,-0.1447845157126293,-5.326355757317682,1.3762352020823427,-2.4117345461373216,60.46349023991797,3.64160161702078,-18.480796261564514,25.803857888171635,102.53860902295649,64.66977201128297,-140.7055797627312,64.88620029079566,3.4327652152810977,12.783405065536499
-2.184543235112171,-4.4110783782965575,-0.14477500777555857,-5.326329510868154,1.3762299854446365,-2.4117250382002506,60.46882744920349,3.656763473593907,-18.484060686351,25.771344082543937,102.53847725489288,64.67008646361059,-140.70563440059613,64.88619380304252,3.2591489888221075,12.807315349578857
-2.184523199357831,-4.411101969095532,-0.1447673060979286,-5.326309475113814,1.3762063946456615,-2.4117173365226208,60.45646342019932,3.5343777115929593,-18.436359610253156,25.81995776266744,102.5383905195665,64.67042819730503,-140.7053589063874,64.88606681484845,3.13712479592174,12.84728455543518
-2.1845504920484657,-4.411134722797559,-0.14474082251800208,-5.326336767804449,1.3761736409436351,-2.4116908529426944,60.46929787102007,3.5899474826361297,-18.44922816077033,25.839968743900755,102.53760293338699,64.67036828512488,-140.70423973282183,64.88608209309842,3.1933913092923287,12.871535778045654
-2.184513801729823,-4.411103295879595,-0.14475230090560334,-5.326300077485806,1.376205067861599,-2.4117023313302957,60.48818174744255,3.541749380878879,-18.407903452245314,25.83477128246568,102.53803171878619,64.67056057757289,-140.7052417551035,64.88614836402415,3.2637910685873956,12.886296272277832
-2.184544906361661,-4.411099347095952,-0.1447749443752037,-5.326331182117644,1.3762090166452414,-2.411724974799896,60.51153112738062,3.616330013755075,-18.42107275634218,25.797042603933164,102.53849568665964,64.67017727155424,-140.70528400047485,64.88606294386902,3.259126118956516,12.925289392471313
-2.184526616853341,-4.411137090483443,-0.14476862150697925,-5.326312892609324,1.3761712732577511,-2.4117186519316713,60.42276644690723,3.3735971812068306,-18.387943436687504,25.945844664934754,102.53845675324929,64.67057118622452,-140.70478377491068,64.88583869818542,3.0901696164725587,12.966789245605469
-2.1844977695897034,-4.4110967950283015,-0.1447700907251543,-5.326284045345687,1.3762115687128929,-2.4117201211498465,60.436882385751524,3.483968413469766,-18.430180105346416,25.875963749877798,102.53857093700586,64.67065693014135,-140.70572467865588,64.88604262519748,3.2074967795589355,13.006705284118652
-2.1845378720347997,-4.411130589368505,-0.14478573863679692,-5.326324147790783,1.3761777743726886,-2.411735769061489,60.449243339892654,3.579783412160657,-18.465457839424072,25.80500625070123,102.53885713192824,64.67038904361482,-140.70499145407862,64.88577829292805,3.31539299247443,13.031201839447021
-2.1845471583929537,-4.4111547702868386,-0.1447976978482947,-5.326333434148936,1.3761535934543554,-2.411747728272987,60.46354926168118,3.6154375283683815,-18.467867713915656,25.808798711994108,102.53916827204417,64.67039488865902,-140.70466614769984,64.88555494337781,3.3341414762965647,13.046007633209229
-2.184519995718807,-4.411154248872091,-0.1448086294980283,-5.32630627147479,1.3761541148691037,-2.4117586599227203,60.40989339438149,3.625103500256731,-18.52607289609418,25.822477633917146,102.53958081890929,64.67064945657019,-140.70507695843187,64.88544200826924,3.3012916961094714,13.07339596748352
-2.184555296633068,-4.41114382068657,-0.14476439634720895,-5.326341572389051,1.3761645430546239,-2.4117144267719013,60.41663149002565,3.6642314091409864,-18.538247135862704,25.811415006989048,102.53822538899672,64.67031993520332,-140.70434345413952,64.8858677865386,3.3013026097814464,13.085553646087646
-2.1845635792871234,-4.411105288260565,-0.14472757273509296,-5.326349855043106,1.3762030754806296,-2.4116776031597853,60.4841970449645,3.588853764807312,-18.43480918182961,25.808282467845455,102.53715126382627,64.67010851697573,-140.70441359971738,64.88638125348359,3.1981171269654496,13.126399993896484
-2.1845161830983826,-4.411115951720538,-0.14478705815624646,-5.326302458854365,1.3761924120206568,-2.4117370885809386,60.425417897988844,3.6265270797234073,-18.510840379606073,25.84667351168798,102.53896930114757,64.6705336063255,-140.70545269678541,64.88583021687774,3.4843036883847134,13.151246786117554
-2.1845540053479895,-4.411090086065181,-0.144765057329403,-5.326340281103972,1.3762182776760123,-2.411715087754095,60.42212621091536,3.568448963503572,-18.485722510611954,25.852254602073895,102.53817827345026,64.67005558863738,-140.70521837138648,64.88620413250044,3.202835533871978,13.163618326187134
-2.1845240414428493,-4.411119221309302,-0.1447761658918606,-5.326310317198832,1.3761891424318924,-2.4117261963165526,60.452008721021585,3.5905519303315905,-18.467997282949984,25.80999710768077,102.53864688769421,64.67049103349481,-140.7051874564233,64.8858965745762,3.301320809697428,13.191254615783691
-2.184507984589587,-4.411110445310211,-0.14478327291234458,-5.32629426034557,1.3761979184309834,-2.4117333033370367,60.4165255613324,3.5967759262052645,-18.506157373903083,25.827532915661667,102.5388969236848,64.67059672505209,-140.70557296458006,64.88587937177438,3.3388602091457713,13.206160545349121
-2.1845433110871726,-4.411130497773307,-0.1447927176911566,-5.326329586843156,1.3761778659678872,-2.4117427481158487,60.4466448403874,3.5159067775835595,-18.43704534969081,25.811422773430287,102.53901997044153,64.67031922177662,-140.7050271460612,64.8857386033007,3.3294733819338385,13.247865200042725
-2.1845432214950655,-4.411154535290674,-0.14474644072559908,-5.326329497251049,1.3761538284505206,-2.4116964711502913,60.43012112637755,3.522381893149531,-18.45514786919064,25.861942929068917,102.5378116978665,64.67053377946824,-140.7040663200354,64.88590589716357,3.320045405109852,13.286948442459106
-2.1845654770531957,-4.411073269389024,-0.14474058618948873,-5.326351752809179,1.3762350943521697,-2.411690616614181,60.44814098732045,3.5775203860990605,-18.46553216041781,25.806824934646645,102.53744958805515,64.66989909802619,-140.70506694162307,64.88649816480995,3.291993942317485,13.302008867263794
-2.1844725317442153,-4.411123348648918,-0.14476345898189236,-5.326258807500198,1.3761850150922759,-2.4117134894065844,60.449567889700035,3.570446819418368,-18.460635965354324,25.837834098812767,102.53853979684958,64.67106515742134,-140.7054663640075,64.88588156118958,3.2919049342468423,13.32690143585205
-2.184553337875558,-4.411051738556088,-0.14476109920358235,-5.326339613631541,1.3762566251851058,-2.4117111296282747,60.50276387794333,3.5529711124340895,-18.399518654583833,25.799313155512817,102.53802480593748,64.66987294957566,-140.7057847921636,64.88647524795662,3.2779451360684293,13.344566583633423
-2.1845181395579774,-4.411135269191491,-0.14475038153674302,-5.3263044153139605,1.376173094549703,-2.4117004119614354,60.461599425175244,3.539188098872322,-18.43231168945393,25.85779741531447,102.53800305250383,64.67068423550518,-140.7046671351757,64.8859641285511,3.362283504355802,13.370959520339966
-2.1845173988111375,-4.411078726714331,-0.14475534956933403,-5.326303674567121,1.376229637026863,-2.411705379994026,60.462394843683015,3.5112649374963083,-18.417546544795734,25.881422522548203,102.53806524434347,64.67039142817892,-140.70563525923427,64.88628935225641,3.2403627145927,13.38775372505188
-2.1845808385509815,-4.411098085996461,-0.1447760295166368,-5.326367114306965,1.376210277744733,-2.411726059941329,60.50177130451215,3.5234003947612766,-18.385123239740075,25.81540520597587,102.53836403986307,64.6698002322092,-140.70496628607992,64.88611701699918,3.3107531415748532,13.402975082397461
-2.184512596780143,-4.411126932713738,-0.14474043512740087,-5.326298872536126,1.3761814310274565,-2.411690465552093,60.44340150849966,3.677095677785499,-18.518659146576226,25.803137232822486,102.53775007585742,64.67071755738097,-140.70472923536076,64.88607801009321,4.2584134713956345,13.42651891708374
-2.184546256870219,-4.411109633570347,-0.14475970068443655,-5.326332532626202,1.3761987301708467,-2.411709731109129,60.44338563291176,3.587355815603012,-18.473863996763246,25.843800106710688,102.53809468059752,64.6702459759141,-140.70491636603566,64.88610499668661,3.2966434728113008,13.441307783126831
-2.184524994350692,-4.411096329208931,-0.14477911353561315,-5.326311270106675,1.3762120345322633,-2.4117291439603052,60.44074704453359,3.6862021102464695,-18.526094521786714,25.78186606457668,102.53869161114952,64.67035781739943,-140.70557889104754,64.88602362263502,3.3201149591318195,13.467748165130615
-2.1845665269392405,-4.411108416109109,-0.144754698613683,-5.326352802695224,1.3761999476320843,-2.4117047290383753,60.507305745756554,3.6041832202190554,-18.419790847496564,25.778467717662117,102.53786929446188,64.67004160098894,-140.70467485422054,64.88617764759047,3.2825766840154973,13.493724822998047
-2.184512188055123,-4.411119022080029,-0.14478461916343033,-5.3262984638111055,1.3761893416611652,-2.4117346495881224,60.485224474070705,3.6053202436457865,-18.44216849871381,25.80438320885052,102.53892565398586,64.67059510430676,-140.70541241235983,64.88582158030405,3.315394205927057,13.505591869354248
-2.1845017471518813,-4.411157120821514,-0.14478376413468505,-5.326288022907864,1.37615124291968,-2.4117337945593773,60.422763994850406,3.5543432567307347,-18.478244817284374,25.86291885906824,102.53899898387267,64.67089972587164,-140.7048982870712,64.88556885832168,3.198052332401468,13.530187845230103
-2.1845265072194624,-4.411132133340496,-0.14476735646971148,-5.326312782975446,1.376176230400698,-2.4117173868944035,60.443853326836845,3.5499309222125213,-18.45569781700423,25.837671989319176,102.5384168269754,64.67054928279913,-140.70484778551057,64.88587893339836,3.1980853062925245,13.54252004623413
-2.184520833192208,-4.411110447824795,-0.14478211336099617,-5.326307108948191,1.3761979159163995,-2.4117321437856885,60.45897705947071,3.5647991960280705,-18.447071624209727,25.862067111964734,102.53880896606266,64.67046724564496,-140.705432764094,64.88590654280306,3.3154067492482167,13.566176414489746
-2.1845196111648306,-4.411166453635149,-0.14477578978929814,-5.326305886920814,1.3761419101060453,-2.41172582021399,60.483029548779136,3.65418572439073,-18.46805475563755,25.787025219435982,102.5387184322905,64.6707800547945,-140.7044753988607,64.88559121283612,3.3012655771959185,13.59097146987915
-2.1845396495814167,-4.411136863834805,-0.14477157566031607,-5.326325925337399,1.3761714999063885,-2.4117216060850084,60.46567849555144,3.6739060990526067,-18.495206819797538,25.771529635747207,102.53847793068478,64.67043063719777,-140.70469694625896,64.88583908825682,3.1933955398338636,13.603148698806763
-2.184533650783501,-4.41112556857418,-0.1447994461133237,-5.326319926539484,1.3761827951670138,-2.411749476538016,60.447390932152665,3.521347448413339,-18.438261517390465,25.835389614811504,102.53923659095227,64.670379839105,-140.70528422467194,64.88570901394489,3.315401870209472,13.63022232055664
-2.1844866375326286,-4.4111155308915295,-0.14481034184148167,-5.326272913288611,1.3761928328496642,-2.411760372266174,60.392534900032274,3.5523671866487088,-18.508428597531573,25.843158442460147,102.53972357744529,64.67078909294997,-140.7060399329233,64.8856274587395,3.315396382302544,13.644923210144043
-2.184574864551494,-4.41107690625317,-0.14474208688392648,-5.326361140307477,1.3762314574880243,-2.4116921173086188,60.47849596936919,3.6631678285599896,-18.476419117739873,25.798196734070185,102.53745302670951,64.66981862092307,-140.7049361441847,64.88647854636203,3.3154535273158876,13.675336360931396
-2.1845428376082947,-4.41107695006791,-0.14476745682439485,-5.326329113364277,1.3762314136732838,-2.411717487249087,60.443376168866166,3.607213602539923,-18.484875137009404,25.801832308904057,102.5382747733536,64.67009788757534,-140.7055664035016,64.88625466848237,3.2779144894912102,13.724533796310425
-2.1845275037943295,-4.411143700747117,-0.1447896195419034,-5.326313779550313,1.3761646629940765,-2.4117396499665955,60.453578856200444,3.6022101709158134,-18.471532056119912,25.818841129279228,102.53902425759169,64.6705552238636,-140.70493306796675,64.88565228086533,3.3669843714503216,13.76528811454773
-2.1845335296381174,-4.411084730646765,-0.14480782873509623,-5.3263198053941005,1.3762236330944293,-2.4117578591597884,60.44260585516254,3.566032369119622,-18.46489413945447,25.829537598504114,102.53940816717501,64.67015478319699,-140.7060394526233,64.88591128494745,3.2826084747555875,13.79016399383545
-2.184541269017931,-4.4110773423577605,-0.14481634892558087,-5.326327544773914,1.3762310213834332,-2.411766379350273,60.470185396972866,3.575171114606179,-18.441388697346945,25.836374448751084,102.5395925419484,64.67002085447497,-140.70618792106265,64.88591089498654,3.3248492231664857,13.80225920677185
-2.184499966733223,-4.411133319352787,-0.14479052934672523,-5.326286242489206,1.3761750443884067,-2.411740559771417,60.464007861175446,3.515494475072222,-18.418722607935408,25.85261283861505,102.53915692912403,64.67078243516309,-140.70537871557218,64.88567117210127,3.240306671693804,13.826643705368042
-2.1845419260822823,-4.411085530544805,-0.14480641070145317,-5.326328201838265,1.3762228331963888,-2.4117564411261454,60.45483213916001,3.583066581766561,-18.461327179466252,25.810960066736268,102.53933403908803,64.67007555954754,-140.70592687616985,64.8859285252245,3.385829561892515,13.844133138656616
-2.1845282093951535,-4.411094113298917,-0.14476011852016224,-5.326314485151136,1.3762142504422772,-2.4117101489448545,60.417293768791254,3.48979727216323,-18.45356041813258,25.835919899741658,102.53816539689205,64.67035041542327,-140.70534473979762,64.88617423080086,3.254427251208085,13.912683010101318
-2.1845741928517124,-4.411086161861557,-0.1447782497229223,-5.326360468607695,1.3762222018796366,-2.4117282801476145,60.449658354618975,3.544131920309215,-18.446381068864927,25.845526237536586,102.5384373060557,64.66980274204154,-140.70524859149043,64.88616780304427,3.291997317266275,13.924456357955933
-2.1845058114077442,-4.411100240248017,-0.14482104722324823,-5.326292087163727,1.376208123493177,-2.4117710776479404,60.455958262813695,3.520825755854616,-18.430576661362878,25.812541411452568,102.5399055145769,64.67049303051296,-140.7062295577745,64.88567938291736,3.3154260622780596,13.951993465423584
-2.1845058416968732,-4.411130118381042,-0.1447906468245661,-5.326292117452856,1.3761782453601519,-2.4117406772492584,60.42398260853247,3.5447315495990925,-18.472522985810457,25.860248119040275,102.53912986393304,64.67070550637273,-140.70537361458798,64.8856995372316,3.296614036400249,13.963831663131714
-2.1845294101719954,-4.411089757766212,-0.14482554082233448,-5.3263156859279785,1.376218605974982,-2.4117755712470266,60.44528777180982,3.569063348402752,-18.463526144850523,25.832503969316218,102.53990769127986,64.67018840654843,-140.70622169137602,64.8857502857841,3.226306468359759,13.989179849624634
-2.1844773770670853,-4.4111227433893045,-0.1447652345681363,-5.3262636528230685,1.3761856203518894,-2.4117152649928286,60.418723954536176,3.6194696904479358,-18.51495588553557,25.83915291199254,102.53856513780596,64.67100890667639,-140.70545084617237,64.88588033544299,3.2684497037133786,14.024486064910889
-2.184520295196204,-4.411079256668537,-0.1447788702393876,-5.326306570952187,1.3762291070726569,-2.41172890066408,60.41850523188619,3.6314572325658463,-18.52106595225033,25.820597680662754,102.5386834809299,64.67031868930314,-140.70589313365258,64.88612723534871,3.1371533603599406,14.051565408706665
-2.1845118261661547,-4.411103446929132,-0.14473895206256446,-5.326298101922138,1.376204916812062,-2.4116889824872567,60.44374065185428,3.621433894794663,-18.49157895685606,25.807931574919294,102.53768290619057,64.67060758322152,-140.70509146130152,64.88623699385299,3.24501817592917,14.063816785812378
-2.184547044916325,-4.411092056311075,-0.144773707671469,-5.326333320672308,1.3762163074301186,-2.4117237380961614,60.49715802426858,3.4811916011416746,-18.369505278807658,25.82813770227565,102.53844350306882,64.67012026032828,-140.70536347298165,64.88612122239424,3.2732100867280494,14.106933116912842
-2.1845437403026935,-4.411113584329029,-0.1447719399912054,-5.326330016058677,1.3761947794121652,-2.4117219704158974,60.4394363272388,3.667700836748831,-18.51650886496676,25.84105476270807,102.5384390219454,64.67026828131196,-140.70503149418582,64.88599119345288,3.212190792566245,14.144342184066772
-2.184525607716563,-4.411077511992934,-0.14479153058930277,-5.326311883472546,1.37623085174826,-2.411741561013995,60.450577412586036,3.6145438850304634,-18.481466215976194,25.79667529931112,102.5389969712607,64.67023060950481,-140.70602749698213,64.88605851920413,3.212230623434502,14.15980863571167
-2.184557087085752,-4.411098208523098,-0.14473469958094126,-5.326343362841735,1.3762101552180952,-2.4116847300056334,60.50721364975299,3.650685446272984,-18.441123372855408,25.823825795377317,102.53736170606058,64.67012481811476,-140.70467887594123,64.88636734634025,3.2122001449384525,14.185266733169556
-2.18449416808669,-4.411129359127525,-0.14474767058265892,-5.326280443842673,1.3761790046136686,-2.411697701007351,60.45365553638354,3.62274339943641,-18.481788439647193,25.82706728205475,102.53802875841782,64.6709049231931,-140.7049615046761,64.88598490632589,3.2684431669565734,14.200356721878052
-2.1844906456666195,-4.411084358744451,-0.1447491954384937,-5.326276921422602,1.3762240049967431,-2.411699225863186,60.46905311922495,3.568523180821636,-18.440091113887696,25.842441545793225,102.53802613889889,64.67070668842939,-140.7057302600043,64.8862562097618,3.2309585556344853,14.22460675239563
-2.1844672905233846,-4.411125777846075,-0.14474162359177045,-5.326253566279368,1.376182585895119,-2.4116916540164626,60.448880760286144,3.5807793362435736,-18.466555515945636,25.83463080929945,102.5379809782826,64.67117387623927,-140.70520549293778,64.8860096201621,3.310658872308518,14.279048204421997
-2.184515306852901,-4.411085487209315,-0.14477054069470205,-5.326301582608885,1.3762228765318798,-2.4117205711193943,60.480898448810855,3.5150907931831257,-18.40109602159115,25.87278481367674,102.53849051026835,64.67041808402126,-140.70573855088398,64.88613779068395,3.3623457480765335,14.302963256835938
-2.1845296024182983,-4.4111094418347,-0.14474222940666082,-5.326315878174281,1.376198921906494,-2.411692259831353,60.47029440469801,3.5716516317173204,-18.439737514358026,25.842689339914887,102.53769991978007,64.67044975543297,-140.70486341425365,64.88620251543591,3.240328690144308,14.325425148010254
-2.1844834434379075,-4.411123311704795,-0.14476560731360238,-5.32626971919389,1.3761850520363983,-2.4117156377382947,60.43845848411451,3.549904653789455,-18.461030619242923,25.858967028255,102.53854901659146,64.67094889914229,-140.70538716436047,64.88588316632591,3.2403013329330026,14.348429918289185
-2.1844527203352824,-4.4111493729683495,-0.1447851768269707,-5.3262389960912655,1.3761589907728449,-2.411735207251663,60.40579426144794,3.6086438222066755,-18.52262431752075,25.84449307353113,102.53924373962252,64.67135985602202,-140.70551850844583,64.88553543164242,3.1980398473258074,14.359619855880737
-2.184520149503139,-4.4111294451938,-0.14475183000822178,-5.326306425259122,1.3761789185473943,-2.411701860432914,60.44174716290689,3.6149035185513987,-18.49026687202473,25.803663292255766,102.53802532857983,64.67063086123207,-140.70475818755088,64.88599424299242,3.4326678813544573,14.382479190826416
-2.1845269150986644,-4.411091287255857,-0.1448083766953229,-5.3263131908546475,1.3762170764853363,-2.4117584071200153,60.46812368838254,3.495888740601041,-18.405648461519718,25.830455144241647,102.53946074637611,64.67025525560302,-140.70600678803785,64.88585579480595,3.2732149323045103,14.407700300216675
-2.1845294941946283,-4.411132825183055,-0.14478908575799038,-5.326315769950611,1.3761755385581393,-2.4117391161826824,60.46029372424896,3.5926929929748237,-18.46080698928028,25.801360361421448,102.53898686180364,64.67047993228815,-140.70507976520057,64.88572833880833,3.3669972882249573,14.41979455947876
-2.184493160217057,-4.411159497421937,-0.14476986349820703,-5.32627943597304,1.3761488663192571,-2.4117198939228994,60.426618608711124,3.5921553324865214,-18.494463501876997,25.808182624731778,102.53866757510833,64.67102704270917,-140.70477035873114,64.88563725900708,3.3200263551438454,14.446201801300049
-2.184581557317997,-4.411151389671897,-0.1446474542347383,-5.326367833073981,1.3761569740692972,-2.4115974846594304,60.57128642029756,3.5033905155150724,-18.305565695265507,25.838351182966864,102.53498503849323,64.6703170753835,-140.7025014738987,64.88666927829368,3.296570378053495,14.482604265213013
-2.1849335255088036,-4.411090917141258,-0.14465724037064076,-5.326719801264787,1.3762174465999362,-2.411607270795333,60.54038146635779,3.439597682867264,-18.3041842361145,25.752934746172436,102.53361054586195,64.66637813175608,-140.70014360983043,64.88751167816847,3.179503929206926,14.509589433670044
-2.1850686846932605,-4.411006104733869,-0.1443794608315117,-5.326854960449244,1.3763022590073246,-2.411329491256204,60.44125975548511,3.1268308430726846,-18.260181631253715,25.573122368728594,102.52545830342477,64.66509612473757,-140.69668964025698,64.89017956145894,3.4235276771466348,14.53531551361084
-2.1851512373628,-4.411022469388344,-0.1441308925839216,-5.326937513118783,1.3762858943528493,-2.4110809230086137,60.515941870039384,3.1818136815399707,-18.213433533730466,25.52813142945088,102.5184545776665,64.66481670496225,-140.69250745765044,64.89192094015539,3.4234533531288065,14.547762870788574
-2.185215593006802,-4.411189083830054,-0.14334086602415214,-5.327001868762785,1.3761192799111395,-2.4102908964488443,60.5339568683211,4.018793617173696,-18.599149242425117,25.289001291066196,102.49721928646272,64.66654636199148,-140.67932636224143,64.89642900094893,3.216562636291979,14.559834718704224
-2.1855440547133456,-4.411061742111499,-0.14168578028868145,-5.327330330469328,1.3762466216296954,-2.4086358107133736,60.5640319701912,4.713519666185521,-18.898042339804107,24.984864791009397,102.45125321628687,64.66572399972802,-140.6573728172508,64.90920031554796,3.2772283550825234,14.58363389968872
-2.185839088575808,-4.411152710126905,-0.1376669219255269,-5.327625364331791,1.376155653614289,-2.404616952350219,60.78842444947633,3.5825582007849603,-18.15345854361716,25.46363880896921,102.34235212510032,64.67088159452264,-140.60252192128263,64.93690475073991,3.275760326672418,14.614176750183105
-2.186048767759564,-4.4112502942428895,-0.1342579384685229,-5.327835043515547,1.3760580694983044,-2.4012079688932153,60.69757231092059,3.0274650073400124,-18.00085792371921,25.28872797080135,102.25014928720924,64.67571508109069,-140.5559588363666,64.96020873159931,3.204097001118739,14.631234884262085
-2.1862852808792783,-4.411372243012847,-0.13150281062763877,-5.328071556635261,1.3759361207283463,-2.398452841052331,60.824754964271584,2.6069471264484565,-17.68249224764711,25.3214860398996,102.17538075075741,64.67911273800011,-140.51691064990038,64.97886157097568,3.4470095365433506,14.643893957138062
-2.1875581721554616,-4.4122637736763615,-0.11235953423996745,-5.329344447911445,1.3750445900648323,-2.3793095646646596,60.84938245525504,3.233737877677571,-18.01781179142925,25.39052108297974,101.65703433157184,64.70570796551573,-140.24668943274378,65.10752544129116,3.1954516068275076,14.709206342697144
-2.187550978432151,-4.41252827567434,-0.10821666619463488,-5.329337254188134,1.374780088066854,-2.3751666966193272,60.57927915440587,3.485641355879122,-18.428713789169542,25.249824818338094,101.54596498250477,64.71449798443804,-140.1894247477226,65.13448045411432,3.1936008627329775,14.721512079238892
-2.187825147770431,-4.4124741114019566,-0.10015000251312736,-5.329611423526414,1.3748342523392376,-2.3671000329378193,60.49388370400974,3.3317151839333157,-18.47735966383399,25.177418033632254,101.32765533673458,64.72548210132713,-140.08375544879385,65.19102430034843,3.1063111932506553,14.745639562606812
-2.1882371882087694,-4.412914642395835,-0.09409757684461031,-5.330023463964753,1.3743937213453594,-2.3610476072693025,60.71900213231712,3.5626757946159917,-18.38198684489976,25.091619246082523,101.16358287213077,64.73386227029391,-139.99437039803976,65.23061599043706,3.1271886076730038,14.763066053390503
-2.1884389250893688,-4.413012812823915,-0.08549014648946217,-5.3302252008453515,1.3742955509172794,-2.3524401769141545,60.601478688239645,3.939461823031668,-18.715815383717228,24.74489457119991,100.93085417887562,64.74670704518535,-139.87894122154586,65.28976817172003,3.114553724708027,14.788846254348755
-2.1887902346888466,-4.412819614941915,-0.08104730801346331,-5.330576510444829,1.3744887487992794,-2.3479973384381556,60.62684312241391,3.193348960132741,-18.360640438321646,24.88154013577219,100.80942975425862,64.74939365705596,-139.82057410296252,65.32221065567141,2.991272613558869,14.803464412689209
-2.189334297765473,-4.412816533608453,-0.07330455218033397,-5.331120573521456,1.3744918301327407,-2.3402545826050263,61.29911125852189,3.611602162006672,-17.90952382809007,24.82324573126091,100.59842502206905,64.75625686987597,-139.71376581421904,65.37647277186541,2.9886069979221315,14.82838249206543
-2.1892271652687327,-4.412777406901254,-0.06998363278023331,-5.331013441024716,1.3745309568399398,-2.3369336632049253,61.42587697781619,3.550943924704613,-17.775176753085304,24.660740587682373,100.50903167936117,64.76242526780582,-139.67177404991605,65.39952233340573,2.9873530758637594,14.840590238571167
-2.1903115142480716,-4.412602592031098,-0.06374344913945545,-5.332097790004054,1.3747057717100961,-2.3306934795641476,61.3660890997433,3.165018621520806,-17.67858199829989,24.47346739813127,100.33642520353025,64.76008668240598,-139.58148447097167,65.44521391223623,2.985683999865855,14.864617586135864
-2.1905252293165796,-4.412592675510245,-0.057045679415026765,-5.332311505072562,1.3747156882309488,-2.323995709839719,61.585378013595665,3.3857970528483774,-17.58203104588763,24.604157057362244,100.15459717765648,64.76807331761547,-139.49075685325442,65.49180067600608,-0.14614118082053817,14.891593217849731
-2.1905704645951434,-4.412568865108862,-0.05436733209569278,-5.332356740351126,1.3747394986323318,-2.321317362520385,61.69445055317733,3.4179919968990258,-17.500553852773482,24.535885122305146,100.08196323210905,64.77151780626849,-139.45508407763796,65.51050161014005,-0.14710473966254956,14.903362035751343
-2.1907892499912984,-4.412127342576645,-0.04637052026353701,-5.3325755257472816,1.375181021164549,-2.3133205506882293,61.3851228094722,2.9497935578456462,-17.637864270014564,24.345452230882763,99.86423758205848,64.77882115874546,-139.35333591709633,65.56885454523628,-0.26213196095928915,14.943952560424805
-2.190735891903635,-4.411751801434975,-0.04154759662784041,-5.332522167659619,1.375556562306219,-2.3084976270525326,61.25784540343999,3.06571554790901,-17.828097481696194,24.721936093923112,99.73329077606363,64.78442475055337,-139.29531382925757,65.60451483459346,-0.23071379135236203,14.971447944641113
-2.1905222863460168,-4.411417234950962,-0.03924047434197256,-5.332308562102,1.3758911287902322,-2.306190504766665,61.15563241599435,3.0573972601868915,-17.93705983123674,24.833805407515186,99.67100465482298,64.78821160387643,-139.2718657712171,65.62234353800858,-0.12808666457837692,14.986396312713623
-2.191086039636024,-4.411192209313318,-0.03349805391751637,-5.332872315392008,1.3761161544278766,-2.3004480843422086,61.70103972060875,2.4824117745940786,-17.15458529471863,24.609707474864635,99.51333267841424,64.7893269682443,-139.19256698238516,65.66415547930248,-0.21420549555619495,15.022211074829102
-2.191097064502746,-4.410633610047183,-0.028773339941747383,-5.332883340258729,1.3766747536940105,-2.2957233703664395,61.22473988261293,1.8269045505558728,-17.356741296602298,24.537597915259074,99.384452038474,64.79288002545408,-139.13766149124547,65.70041560526634,4.0447607403631025,15.052430629730225
-2.191067574034175,-4.410317941756507,-0.02622630409776408,-5.332853849790158,1.3769904219846874,-2.2931763345224563,61.08825358839246,1.9915079308175818,-17.587513377636274,24.43066622218101,99.31503359261976,64.79504117208478,-139.1085755704802,65.72001360151987,4.044137798909927,15.0676748752594
-2.190782680759918,-4.410105055936648,-0.024092443264853797,-5.332568956515901,1.3772033078045463,-2.291042473689546,60.800195311780044,1.993414696895596,-17.88314616333587,24.560986929272218,99.25768157359613,64.7997845771691,-139.0859365482655,65.73576459578781,4.043440696721304,15.079699039459229
-2.1905383181132736,-4.409742135789664,-0.01815736381572508,-5.332324593869257,1.37756622795153,-2.285107394240417,60.351239512058015,2.3215695604987188,-18.523168261399327,24.345829277000718,99.09676607579298,64.80837093530705,-139.0135740825607,65.77876721887979,-0.30308519471652584,15.112025499343872
-2.1906977420518414,-4.409352836377192,-0.01601892883586664,-5.3324840178078246,1.377955527364002,-2.282968959260559,60.56059855945607,2.3542354222137156,-18.354980083390366,23.963924450603216,99.03772975499986,64.8075291821374,-138.9891375211874,65.79627160262369,-0.3033867048118717,15.123690128326416
-2.1911612687925053,-4.408395613682557,-0.008410276246641951,-5.332947544548488,1.378912750058637,-2.275360306671334,60.70019652797254,1.8846896300953921,-18.045610946829175,23.796072441450203,98.82848245079086,64.80762210817306,-138.89597583207345,65.85560265514988,3.044929397188569,15.16175627708435
-2.1903256795220103,-4.407967475338924,0.0018429005357612493,-5.332111955277993,1.3793408884022702,-2.265107129888931,60.400022430927166,2.1182641844465704,-18.50792808588268,23.739862811728024,98.5512750258883,64.82685917225601,-138.7703244104949,65.92806809560793,-0.26186638109402427,15.204777717590332
-2.190586772687281,-4.407373743364685,0.010867134579229942,-5.332373048443264,1.3799346203765084,-2.2560828958454624,60.524919210797414,1.0959470724178455,-17.95474756526145,23.913303835997144,98.30417745647294,64.83191278517718,-138.65246309202777,65.99448800654808,-0.40057864897268747,15.241504430770874
-2.1905990007493488,-4.406860448706446,0.018287921561885162,-5.332385276505332,1.3804479150347475,-2.248662108862807,60.38893781161428,0.6803011370464286,-17.96844585622712,23.5109274636636,98.10133244278884,64.83773349984075,-138.55744676532177,66.04901469396265,-0.2198464201739112,15.268917083740234
-2.1906025748599047,-4.406715552186254,0.021731361076437555,-5.332388850615888,1.3805928115549397,-2.2452186693482545,60.479861351556536,1.158843390612493,-18.113604660010715,23.355063096000695,98.00729021079691,64.84084351309555,-138.51168791179364,66.07369220224766,-0.44150892077691317,15.28075647354126
-2.1907609991312285,-4.406299350473698,0.033076899345685196,-5.332547274887212,1.3810090132674964,-2.233873131079007,60.29952665574218,0.9101812787314257,-18.22996113290788,23.373723492779856,97.69701835878688,64.8494633470656,-138.35766418880664,66.1547412535079,-0.726810283229482,15.321906805038452
-2.1905301832686557,-4.406101256364813,0.04428324757954008,-5.332316459024638,1.3812071073763807,-2.222666782845152,60.218790693976715,1.1317138109981477,-18.45750555601152,23.36376608723452,97.39139064653011,64.8624658706522,-138.20479897794797,66.23289090190374,-0.08351830395081006,15.36107087135315
-2.190382657414533,-4.405637369176822,0.05139921403006109,-5.332168933170516,1.3816709945643717,-2.215550816394631,59.6498399796401,1.0937760806300605,-19.052589185312833,23.213637212575176,97.1967266119805,64.86866384114417,-138.11267495277175,66.2847530304288,-0.31099470667730333,15.386942625045776
-2.1910661409693297,-4.405540611584204,0.054735383354475614,-5.332852416725313,1.3817677521569895,-2.2122146470702164,59.89065333840514,0.8371250469253783,-18.713161061296507,23.097994722313935,97.10415806251308,64.86428031718324,-138.05968192618008,66.30910096506594,-0.3118560064286191,15.39942479133606
-2.1908984824691293,-4.405724044209969,0.06168030612824982,-5.3326847582251125,1.3815843195312247,-2.2052697242964423,60.06524865027459,0.8467666917779629,-18.562635965528372,23.224522064952644,96.91492428141817,64.87349408437291,-137.9588920102673,66.35540922564628,-0.2115868153183884,15.423012971878052
-2.1915339855488694,-4.4058712501754815,0.0732141954161302,-5.333320261304852,1.3814371135657126,-2.193735835008562,60.20062275439031,0.1579101094108317,-18.17115994035632,23.12789583728967,96.5986994978624,64.8779444945898,-137.78372462912995,66.43431516645147,-0.333193357652231,15.465567111968994
-2.191697422968069,-4.4058483075773776,0.0836613641723887,-5.333483698724052,1.3814600561638168,-2.1832886662523037,60.20290135164846,0.8640668027287898,-18.531914074177706,22.869227699632305,96.31267218742691,64.88487743457671,-137.63070257131176,66.50631533482503,-0.2855071214251286,15.504164934158325
-2.19218964172513,-4.40622976324674,0.09390183336882771,-5.333975917481113,1.3810786004944537,-2.1730481970558646,60.127258602072445,0.20478303526881486,-18.346592018254498,22.98458925458535,96.03224821918624,64.88976961898655,-137.46960003044413,66.57445225355328,-0.17706096679420735,15.542892694473267
-2.1930801192576195,-4.406497836940419,0.10462697348874742,-5.334866395013602,1.3808105268007747,-2.1623230569359446,60.50067863548848,-0.41383188406716753,-17.721368081932166,23.10273641617931,95.73791387145165,64.8897457163126,-137.29804254144037,66.64699229556231,-0.4016132591610573,15.583894968032837
-2.19368254404292,-4.40676750084157,0.11148848255585778,-5.335468819798903,1.3805408628996236,-2.1554615478688346,60.25915912939395,-0.14526384462088807,-18.163920210694926,22.345415735769038,95.54975393962482,64.8895920618778,-137.18570479673946,66.69271012009827,-0.41367979927889476,15.608881711959839
-2.194080437208755,-4.406937176551508,0.11549401854187932,-5.335866712964738,1.3803711871896864,-2.151456011882813,60.28065629666235,-0.06515759882994387,-18.253187826624583,21.52361009414106,95.43990215037252,64.88897494900876,-137.11921995115895,66.7193390734421,-0.37301384803906057,15.62389087677002
-2.1946837296921746,-4.4073517098491335,0.12217585847665705,-5.336470005448158,1.3799566538920605,-2.1447741719480353,60.22707696174083,-0.8316434681428864,-18.044429222579236,21.1827097665761,95.25693274856532,64.88907387271041,-137.00638549240136,66.7627666699442,-0.44617027388665065,15.648597478866577
-2.1953210718680394,-4.4073318710213165,0.1254225359570388,-5.3371073476240225,1.379976492719877,-2.1415274944676534,60.291403087928295,-0.6323247317771947,-18.07767927893656,21.021948311453958,95.16744315584066,64.8843164607816,-136.9515024012815,66.78569218002544,-0.8459148209356648,15.661038875579834
-2.1961346046873484,-4.407909142542249,0.13214833275959073,-5.337920880443331,1.3793992211989448,-2.1348016976651016,60.34567408881347,-0.4641654472606207,-18.106441328237008,20.956072238495068,94.98341367316132,64.88276029181074,-136.83244209814026,66.8284334308506,-0.19664705544258254,15.685359716415405
-2.19756729366731,-4.408084197680417,0.13949516822373617,-5.339353569423293,1.3792241660607778,-2.127454862200956,60.302365238303814,-0.7403050674383493,-18.04580942620855,20.979327031941267,94.78151881360303,64.87278840954504,-136.70375400785272,66.87867754224209,-0.19904059141070451,15.712547302246094
-2.2004175252896587,-4.408941012062907,0.15301495900013987,-5.342203801045642,1.3783673516782873,-2.113935071424552,59.969657905449054,-0.6420966770036938,-18.42281594834421,20.98913615349871,94.41114128161409,64.85427839856706,-136.45434030791998,66.96745533670986,-0.20395554329944332,15.761603832244873
-2.2015141419744353,-4.409206791896747,0.15790722087332035,-5.343300417730418,1.3781015718444474,-2.109042809551372,59.790761554246856,-0.6087772178350076,-18.62968897852412,20.839767006948428,94.27724523076952,64.84645133781669,-136.3636471412505,66.99986506008581,-0.23380637511655156,15.779302597045898
-2.2030841330703033,-4.409371834605722,0.16465015034758237,-5.344870408826287,1.377936529135472,-2.1022998800771098,59.4863241167193,-0.46480872182316585,-18.99991132582501,20.75300770855802,94.0926303661464,64.83382049424618,-136.24093461457446,67.04590148332713,-0.36257504323756073,15.803581714630127
-2.2046555013933067,-4.4095931552119625,0.1685640811060614,-5.346441777149289,1.3777152085292315,-2.0983859493186308,59.88559924012407,-0.683354202491445,-18.475034636221675,21.109002204544183,93.98548541759743,64.82017864508836,-136.1605720094116,67.07230721903031,-0.26979324167353447,15.818860054016113
-2.2073283623609403,-4.409603614432155,0.17677590884568575,-5.349114638116923,1.377704749309039,-2.0901741215790066,59.911934080744814,-0.6886517214852642,-18.470290655478937,20.77146825453499,93.760800887429,64.79545156610517,-136.00535717398276,67.13016951025527,-0.30462152292272915,15.848017454147339
-2.208488934580997,-4.409746321007869,0.1802920067201584,-5.35027521033698,1.3775620427333244,-2.086658023704534,59.74301521410908,-0.6630954723985756,-18.64154275679904,20.812021210266764,93.66493097743573,64.7853146126214,-135.936208046739,67.15396065514365,-0.2633950418383737,15.860251188278198
-2.211668005818639,-4.410013622893302,0.18862206154485991,-5.353454281574622,1.3772947408478926,-2.078327968879832,59.92639966551163,-0.6971601639471525,-18.403246948963766,21.102663644015276,93.43807080286649,64.75624116090962,-135.768544990028,67.21106242901226,-0.34993908668399243,15.890008211135864
-2.2134182523077155,-4.409962928726113,0.19289048620385055,-5.355204528063698,1.3773454350150804,-2.074059544220842,59.8866431952155,-0.5821305707860185,-18.456419279141596,21.364095307565616,93.32184625474173,64.7389862530635,-135.68417198748963,67.24165558696271,-0.21937546560541854,15.90528392791748
-2.2149395835802617,-4.409852464878613,0.19710164488426066,-5.356725859336245,1.3774558988625816,-2.0698483855404315,59.778049196720765,-0.5311974343146738,-18.553542918366112,21.655720800010297,93.20729818891311,64.72369606687056,-135.60385167191433,67.27204496289593,-0.22019716662086797,15.919933795928955
-2.218070330261343,-4.410033766016457,0.20484127574761343,-5.359856606017326,1.3772745977247374,-2.062108754677079,59.80549472338584,-0.2800770559452826,-18.585044373207857,21.961244390644946,92.99769687535226,64.69390729689457,-135.44586599236243,67.3253908946807,-0.22198797502955525,15.947303771972656
-2.2214822981876554,-4.410059217905381,0.2138351469996401,-5.363268573943639,1.3772491458358131,-2.053114883425052,59.55045651346806,-0.340442394992149,-18.787614019991818,22.09411496168735,92.75464193109177,64.6603255994852,-135.2668082652069,67.38829820637729,-0.3741027146997533,15.978526592254639
-2.2247468698826727,-4.409923269679522,0.22190247660770093,-5.366533145638655,1.3773850940616714,-2.045047553816991,59.388351232555884,-0.2926700704322387,-18.934612679000505,22.30247805438933,92.53717109431393,64.62694783843273,-135.10590150596389,67.44581907039247,-0.3239974549839415,16.00670838356018
-2.2262231599716107,-4.4100415971928815,0.22541578425977657,-5.368009435727593,1.377266766548313,-2.0415342461649155,59.52063921499667,-0.36261708654030644,-18.74404878202352,22.520667183124743,92.44291013301147,64.61268103361239,-135.03208374614607,67.46961856781907,-0.8033877600366219,16.019266843795776
