dx1,dy1,dz1,dx2,dy2,dz2,azm1_cf,ele1_cf,azm2_cf,ele2_cf,azm1_an,ele1_an,azm2_an,ele2_an,tdoa_bias,time
2.2055873744617003,0.28792229949777726,-1.0043503788886083,-4.562344938644507,-0.7542837698544148,-1.2708357334923013,-176.06622459794377,22.253371193888082,6.657745873434105,17.370139088412717,-158.7840377528918,61.7114059282339,128.7342488204376,56.09180243210564,0.11721184683616981,8.043876647949219
2.2055340475121907,0.2880338803087363,-1.004372821428258,-4.562398265594017,-0.7541721890434558,-1.2708581760319508,-176.0135927569766,22.2749774460912,6.638798070522595,17.353978873075437,-158.7794387996245,61.709511214978704,128.7330259022455,56.09054907660915,0.11727676815670662,8.056108713150024
2.205599178254541,0.2879652787504764,-1.0043471756604805,-4.562333134851667,-0.7542407906017158,-1.2708325302641734,-176.0580281591781,22.227321750959668,6.623391882168388,17.398677931014184,-158.78197527670474,61.711231136909305,128.7337895458331,56.091391675026486,-0.24408730889518537,8.078890323638916
2.2055524927795176,0.288006845976373,-1.0043841610087056,-4.56237982032669,-0.7541992233758191,-1.2708695156123986,-176.05042202518547,22.263190132401988,6.6527320291481535,17.362805571010885,-158.78084656329486,61.70969718599928,128.73364385618524,56.090742128242084,0.018721138251870162,8.144286632537842
2.2056161621898394,0.2880117097666908,-1.0043567679856356,-4.562316150916369,-0.7541943595855013,-1.2708421225893285,-176.01024180010046,22.18799136499117,6.650332688460244,17.43944336150451,-158.77997575785452,61.71082913136497,128.73354322369823,56.09086187288898,0.018605702838490057,8.17408275604248
2.205628831400113,0.2879825732450695,-1.004358322548628,-4.5623034817060955,-0.7542234961071227,-1.2708436771523208,-176.05371059193953,22.21260646234702,6.636664113110194,17.412949870417147,-158.781314916449,61.711166239859175,128.73398035454213,56.09114089170092,0.018589993308229857,8.194393873214722
2.205549187596894,0.288002663598002,-1.004305420163225,-4.562383125509315,-0.7542034057541902,-1.270790774766918,-176.01917057204975,22.138369628841744,6.617711463250493,17.4893225786152,-158.77960888334394,61.71123963666525,128.73233024446031,56.0912992953588,-0.046944597500784724,8.214056968688965
2.2056570698444404,0.2879639855692813,-1.0043271405303271,-4.562275243261768,-0.7542420837829108,-1.27081249513402,-176.09445854543318,22.16807349300354,6.566239554584508,17.45823998592319,-158.78153531196648,61.71221225835942,128.73384506758208,56.09152585568362,-0.047137262550482006,8.233935832977295
2.2055968126398344,0.28797834595217425,-1.0043692445655252,-4.562335500466374,-0.7542277234000179,-1.2708545991692182,-176.07474778207663,22.22623083197782,6.654681842334383,17.397338021811752,-158.78178265831417,61.71066757553427,128.73400244286884,56.09111713798064,-0.04703560357781056,8.253983497619629
2.205613273196069,0.28793360079140357,-1.0043627113049576,-4.56231903991014,-0.7542724685607886,-1.2708480659086505,-176.07159480445054,22.256135185251264,6.716640543858727,17.363310464222025,-158.7836833113371,61.711329887186714,128.73450233685992,56.091604453098434,-0.22533989416781086,8.274976015090942
2.205597352290419,0.28800698643187334,-1.0043665200704428,-4.5623349608157895,-0.7541990829203188,-1.2708518746741357,-176.07371240123894,22.209605256319062,6.6763815193147735,17.412427438264668,-158.78041446494458,61.7104894332854,128.73363806967018,56.090848506194156,-0.18779712010330218,8.297996282577515
2.2055991478727495,0.28801915069949974,-1.0043541963614704,-4.562333165233459,-0.7541869186526924,-1.2708395509651633,-175.97015231735173,22.167438849937266,6.7389039786936324,17.456848814549577,-158.77962587129838,61.710647930067836,128.73330378249582,56.09080715381238,-0.24879494989886197,8.318148612976074
2.2055290898958404,0.2879861734452985,-1.0043835069571823,-4.562403223210367,-0.7542198959068936,-1.2708688615608752,-175.93032977882547,22.245385749737622,6.817203669229946,17.377858419226378,-158.78183939167684,61.7096471144798,128.7337105882306,56.09095703085449,-0.1782838094109107,8.360448122024536
2.205570857570472,0.2879797605356269,-1.0044447530762042,-4.562361455535736,-0.7542263088165653,-1.2709301076798971,-176.03099909846756,22.231629308330447,6.694501692630615,17.394845370715107,-158.7831559731287,61.70891894562517,128.7350992499161,56.09061368706065,0.12190444074104834,8.382986307144165
2.205558475305086,0.2880274533322254,-1.0043819718246028,-4.562373837801123,-0.7541786160199667,-1.2708673264282957,-176.00877635031216,22.200913666348544,6.706582493614643,17.42411219678955,-158.77984505121606,61.709629374744424,128.73341467650198,56.090549397540684,0.34712818849406357,8.409775733947754
2.2055570257211436,0.2879895431653591,-1.0043864953962283,-4.5623752873850645,-0.754216526186833,-1.2708718499999212,-176.02390659110262,22.2515964176792,6.658779087732909,17.375822056511026,-158.7816744811503,61.709839885357454,128.73390772068066,56.09089909886352,-0.17833699743706388,8.442629337310791
2.205605929869227,0.28799601970476196,-1.0043923044952794,-4.5623263832369805,-0.7542100496474302,-1.2708776590989723,-176.045310703545,22.244085554129303,6.671489979607336,17.380976439160133,-158.78136977741477,61.71016125724687,128.73425615715212,56.09078813086842,-0.11274555606848669,8.45263123512268
2.2055984228222534,0.2880033275425267,-1.0043606506150216,-4.562333890283955,-0.7542027418096654,-1.2708460052187145,-176.00986522260123,22.256743420409226,6.717775689031886,17.366592636629544,-158.7804731090636,61.710645244710825,128.73358641885994,56.090923282899894,0.051482746678637614,8.47521162033081
2.2056465116795367,0.2879946523228284,-1.0043385022963054,-4.562285801426672,-0.7542114170293637,-1.2708238568999983,-176.01660469053158,22.255963428134354,6.694617876591312,17.367444823322856,-158.78035668780203,61.71163083724582,128.73362427705973,56.091146731581695,0.0513991719707505,8.49758791923523
2.2056548153034328,0.2879897741165431,-1.0043962026257827,-4.562277497802775,-0.754216295235649,-1.2708815572294756,-176.09687508513005,22.200263043252384,6.68691600036095,17.420177958890083,-158.7816153225288,61.710625029155906,128.73471484534053,56.09081685607963,0.09829433359920037,8.551421880722046
2.2056270242230234,0.2878923359821809,-1.0043986943462093,-4.562305288883184,-0.7543137333700113,-1.2708840489499023,-176.10237341432892,22.19034047147179,6.593451758900746,17.43642535387868,-158.7862062946854,61.71110430410403,128.73566817945067,56.09177944321568,-0.5162488191017034,8.573793649673462
2.2056721123077603,0.2878986011681195,-1.0043238168848592,-4.562260200798448,-0.7543074681840727,-1.270809171488552,-176.04506638228884,22.13430672392131,6.59226176985746,17.493459688652482,-158.78444719199535,61.712968243232154,128.73462196868743,56.09219878878665,-0.5163232136757387,8.5940260887146
2.2056672917504976,0.2879483802342677,-1.0043536804276556,-4.56226502135571,-0.7542576891179243,-1.2708390350313485,-176.05367953666945,22.19718446842396,6.686709483742564,17.424779732484556,-158.78271398204006,61.71192406828784,128.73453894799306,56.09150664061352,-0.5163323487088212,8.613869428634644
2.205629267168341,0.288027974071458,-1.004383680869735,-4.562303045937867,-0.7541780952807341,-1.270869035473428,-176.13930975690192,22.23743757730308,6.626817148689275,17.383844871178844,-158.77968888417354,61.71029890975219,128.7339045661323,56.090521094415536,0.0936412070412902,8.67866063117981
2.205609630619815,0.28801474262806265,-1.004388474311377,-4.562322682486393,-0.7541913267241295,-1.2708738289150698,-176.06522167584248,22.232190839978912,6.714417954874385,17.388497986381516,-158.78043024089703,61.71011834882279,128.734005190487,56.09062535360999,0.1968993677748374,8.71889328956604
2.2055974297444227,0.28797036722343533,-1.0043716258804825,-4.562334883361785,-0.7542357021287568,-1.2708569804841754,-175.98931191093462,22.20112613874144,6.7120726305365395,17.42437502494854,-158.78219166465877,61.71069312030989,128.73413659388356,56.09118123749,-0.0798772986954619,8.751632928848267
2.205604920149888,0.28798322252325476,-1.0043671703422616,-4.56232739295632,-0.7542228468289374,-1.2708525249459546,-176.03453490921257,22.236971174552348,6.663689901637086,17.38851583965663,-158.78150179201796,61.710748839882754,128.7339658643214,56.091080577826325,0.19691990429154727,8.771572828292847
2.2055873751418944,0.2879877420046533,-1.0043247025924924,-4.562344937964314,-0.7542183273475388,-1.2708100571961853,-176.02098334576402,22.15190289642328,6.712212254022996,17.46997359174153,-158.78055907927114,61.711367224873136,128.73307739189664,56.091315996294846,0.0045951216666288985,8.792999267578125
2.2056327843958496,0.28796690196214514,-1.0043298579177524,-4.5622995287103585,-0.754239167390047,-1.2708152125214454,-176.03363961833276,22.211280640258884,6.666999215892069,17.4126833188093,-158.7815068598825,61.71189234648415,128.73369841902937,56.09148301601189,-0.1690793245322757,8.815268278121948
2.2055999284762566,0.2879256210169773,-1.0043468163030018,-4.5623323846299515,-0.7542804483352149,-1.2708321709066948,-175.99772458609038,22.199984106120446,6.709205920772552,17.424433155645556,-158.78379096621083,61.711573604976714,128.73423371143315,56.09179040391704,0.02335281221827934,8.838621854782104
2.2056700565034357,0.2879263326204316,-1.0043520205320102,-4.562262256602772,-0.7542797367317605,-1.2708373751357032,-176.04847011709768,22.242677987931806,6.688916097779166,17.37947533316595,-158.78369132979788,61.712166481988056,128.73477653926673,56.09173746573575,0.023221761516480033,8.920133829116821
2.2056400526857365,0.28799604690289143,-1.0043526235926257,-4.562292260420472,-0.7542100224493007,-1.2708379781963186,-176.05891849712515,22.211138979893622,6.670277247893997,17.411583544771684,-158.78056529222602,61.71127844215897,128.7338061357287,56.09104154957914,-0.23948056224770076,8.932841777801514
2.2056443552721596,0.28797671748887366,-1.0043335787976266,-4.562287957834048,-0.7542293518633184,-1.2708189334013196,-175.98554786603256,22.21617769736531,6.717377541419175,17.4076637784862,-158.7810966373785,61.71185395865712,128.73372774347516,56.0913586030652,-0.13626163872174368,8.95840835571289
2.2057122365325323,0.28790650312787436,-1.0043060458183062,-4.562220076573676,-0.7542995662243177,-1.2707914004219991,-176.06395865928658,22.211300390699638,6.61198749958087,17.4131419045664,-158.78366666972028,61.71365149929372,128.7344956015892,56.09222922823149,-0.1551313209560079,8.97091031074524
2.2056357650285245,0.2880141197553844,-1.0043629470708475,-4.562296548077684,-0.7541919495968078,-1.2708483016745404,-176.06250118128094,22.18933042717855,6.562738003177812,17.44043776382447,-158.7799324872537,61.71088412981854,128.73375045055846,56.09079407775673,-0.15502742054314522,8.990633249282837
2.205612117675934,0.28802616435500367,-1.0043820807537966,-4.562320195430274,-0.7541799049971885,-1.2708674353574896,-176.07813034186162,22.22074247782116,6.6487288140883205,17.40320277660758,-158.77978248804598,61.71017385113836,128.73378462643308,56.0905525386528,-0.15498967243970574,9.010515689849854
2.2055816299659665,0.2879881416532089,-1.004358363727782,-4.562350683140242,-0.7542179276989832,-1.270843718331475,-175.97987108320999,22.13300577380512,6.688947344126749,17.494216463928613,-158.78116854168982,61.71064780579181,128.73360735556486,56.09109289300732,-0.1033098961767065,9.030188083648682
2.205666307936924,0.2879434709650155,-1.0043657018324004,-4.562266005169285,-0.7542625983871767,-1.2708510564360933,-176.0946210005871,22.13817293949061,6.586820561561431,17.48806145731516,-158.78316150592914,61.71171959052794,128.73479198638083,56.091477291632295,0.0935983894965049,9.052368640899658
2.2056201808036056,0.28799269179807224,-1.004367501265233,-4.562312132302602,-0.7542133775541199,-1.270852855868926,-176.02017136895617,22.225019850189,6.6475937527638616,17.402333495603827,-158.78103710068993,61.7108165215069,128.73396576342466,56.090981169068414,0.09367014585853939,9.073245525360107
2.205659079377674,0.2879478560214889,-1.0043359322367131,-4.5622732337285345,-0.7542582133307032,-1.270821286840406,-176.01802630504176,22.19647676516648,6.659532951654837,17.429070210469614,-158.78243303185988,61.71219367209339,128.73418892571505,56.091629304509325,0.09361495373134598,9.093279123306274
2.205587745936005,0.28794465409582315,-1.0043852747288116,-4.562344567170204,-0.754261415256369,-1.2708706293325045,-176.059015037652,22.183189847775388,6.663221523081486,17.441515725409815,-158.7836457806439,61.710541902337944,128.73459355535007,56.09135071406189,-0.534955508420103,9.112934112548828
2.2055651530054945,0.28798507272103746,-1.0043888393270253,-4.562367160100714,-0.7542209966311546,-1.2708741939307182,-176.02531300178418,22.19887400374427,6.6552812679330575,17.42871007480442,-158.78190410861004,61.70991218728112,128.7340513491907,56.09092710200004,-0.5349252454437674,9.155942916870117
2.2055475720898174,0.28803206914766727,-1.0043544927438899,-4.562384741016391,-0.7541740002045249,-1.2708398473475828,-175.95802793817313,22.175713533113623,6.728642406737856,17.450332723342154,-158.77915621791502,61.71001999304942,128.73282376559413,56.090684736810026,-0.534900535541778,9.177469253540039
2.20560170822898,0.2880592996754329,-1.0043595988233942,-4.562330604877228,-0.7541467696767592,-1.2708449534270871,-176.01349643729677,22.203851218868888,6.665322637566096,17.42247224128452,-158.77787215205285,61.71023573875908,128.73296168767857,56.090369979662654,-0.535009205727174,9.210401058197021
2.2055547907287933,0.28801250263741424,-1.0043904903398073,-4.562377522377415,-0.7541935667147779,-1.2708758449435003,-176.0319340562328,22.232539268586734,6.678311251484338,17.393167698265785,-158.7806966639781,61.70954950813335,128.73370309882267,56.090643804513995,-0.02820328615663037,9.230619430541992
2.2055985049691156,0.2880438970795825,-1.0044114120000296,-4.562333808137092,-0.7541621722726096,-1.2708967666037225,-176.02148537405316,22.27257244953805,6.737418502062632,17.350262870656408,-158.7795339237211,61.7093172320363,128.73399445997828,56.09018576863666,-0.028296086460374514,9.250732660293579
2.2056070646789188,0.2880353738266254,-1.0044011444608851,-4.562325248427289,-0.7541706955255667,-1.270886499064578,-176.06269815754064,22.2455938139416,6.660837973452316,17.379211265651062,-158.77971867504044,61.70967415882309,128.73397202652913,56.09033667270098,0.08429435796472307,9.290850639343262
2.20566937666498,0.28792872626645033,-1.0043501674440611,-4.562262936441228,-0.7542773430857418,-1.270835522047754,-176.0421244685578,22.160467475605863,6.671439959784055,17.46318072938861,-158.7835489786549,61.71217616055533,128.73471366993164,56.09172576381417,0.0842155914667031,9.31315279006958
2.205637143890757,0.28797238833806577,-1.0043790638890981,-4.562295169215451,-0.7542336810141264,-1.270864418492791,-176.03944792075583,22.2266558582415,6.670011417549662,17.398314082706793,-158.78214281274572,61.71092762900297,128.73450217827047,56.09110571453099,-0.1784798101867353,9.332915544509888
2.2056301927685116,0.2880664454201371,-1.0044275247692664,-4.562302120337697,-0.754139623932055,-1.2709128793729594,-176.0110706789427,22.23325398938253,6.765070687691521,17.388698784637523,-158.778717997908,61.70913206284107,128.73422410641405,56.0898496375747,-0.1644246287447637,9.352783441543579
2.205633771387281,0.28794249915738673,-1.0043442387488706,-4.562298541718927,-0.7542635701948054,-1.2708295933525635,-176.1222121341774,22.231503591637754,6.65828302500644,17.387700709878022,-158.7828894884317,61.711822585835705,128.73422346735526,56.09163281231355,-0.028323753014614095,9.374708652496338
2.205609253934852,0.28801449673032,-1.0043988643150141,-4.562323059171356,-0.7541915726218722,-1.270884218918707,-176.04797572918915,22.26484717883227,6.678873188523692,17.35970568484981,-158.7806321110129,61.7099133033455,128.7341821209892,56.090559945531474,-0.06584009292959614,9.39558720588684
2.2055954428055564,0.28806328185729513,-1.0043892617714465,-4.562336870300652,-0.7541427874948969,-1.2708746163751394,-176.0305907433982,22.20816661749237,6.7301920209095725,17.413774040428333,-158.77824509849358,61.709559755961095,128.73338000613813,56.09013728721332,-0.07521017338599334,9.439678430557251
2.2057553628506925,0.28785986379464246,-1.004297556431784,-4.562176950255516,-0.7543462055575496,-1.270782911035477,-176.14190340873577,22.125306052459297,6.525286962842753,17.49925958617676,-158.7855573317189,61.71463406743425,128.73515935041158,56.09274380173875,0.06062378497238452,9.459172248840332
2.2056275044494202,0.28800099133365814,-1.0043781543290673,-4.562304808656788,-0.754205078018534,-1.2708635089327602,-176.13420214828653,22.239442746915635,6.6213394248369735,17.38244305069956,-158.78083298692925,61.71061258971235,128.7341019744202,56.09082730482284,0.02796815748338366,9.471806049346924
2.2056212716615864,0.2879997821876702,-1.0043849753839176,-4.562311041444621,-0.7542062871645219,-1.2708703299876105,-176.0133386587014,22.216167349887957,6.764244088725192,17.404506880939856,-158.7810275168703,61.71042684099128,128.73419043644296,56.09079584718756,0.02797905304048065,9.493761777877808
2.205602805166907,0.2879751961035254,-1.004346272308282,-4.562329507939301,-0.7542308732486667,-1.270831626911975,-176.06690635841133,22.21871809031203,6.687241856202666,17.402424641356628,-158.7814942872895,61.711203036240285,128.73368673339783,56.09129781531053,0.028025748507062964,9.516054630279541
2.205668233337962,0.28798328124828076,-1.004366073790067,-4.562264079768246,-0.7542227881039114,-1.27085142839376,-176.07565105426423,22.1982118551324,6.656588185836882,17.4246067243857,-158.78133290544577,61.71140234689089,128.73436395353124,56.091076501545146,0.027899247942581695,9.538291454315186
2.205658789772291,0.2879202178093328,-1.0043801653806956,-4.562273523333918,-0.7542858515428593,-1.2708655199843886,-176.08795485828077,22.185518907795004,6.66942332101801,17.43631055293716,-158.78451236901753,61.71155371971085,128.73524946286517,56.09161648000438,0.027932060602626763,9.559178113937378
2.2056218941646524,0.2879769215848663,-1.0043484796402862,-4.562310418941555,-0.7542291477673257,-1.270833834243979,-176.05535916941923,22.229652245387836,6.69651689700828,17.391593244488124,-158.78141115870167,61.711336283185005,128.73383073092188,56.09126291959879,0.027989538735869512,9.569774389266968
2.2055952953461806,0.2879778022993874,-1.0043602278677652,-4.5623370177600275,-0.7542282670528048,-1.2708455824714582,-176.02050330122321,22.249095207518213,6.687121656953868,17.37562392304581,-158.78164654931078,61.71083335947429,128.7338452394194,56.09118178020198,-0.07049027568038246,9.612181663513184
2.205627078458452,0.2880308225741258,-1.004337593515126,-4.562305234647756,-0.7541752467780662,-1.270822948118819,-175.9800989884123,22.190907179301252,6.725591700007496,17.432853315009638,-158.7787214464961,61.71115533766828,128.73307455462208,56.09079430052079,-0.22069698479125943,9.634564876556396
2.2056496796382743,0.28796564617748793,-1.0043717865680717,-4.562282633467934,-0.7542404231747042,-1.2708571411717646,-176.02020043599225,22.217557005736943,6.642549114606285,17.410144191826816,-158.7822910973288,61.71125102836852,128.7345367998949,56.091218594123625,0.032629284363935085,9.669692277908325
2.2056093326352166,0.28796650510624194,-1.0043670715882336,-4.5623229804709915,-0.7542395642459502,-1.2708524261919265,-176.11356116493792,22.215876463140887,6.576359181625393,17.410159362027443,-158.78225865938055,61.71093310157399,128.73418099802888,56.09124762500976,-0.18780828192086663,9.691237449645996
2.205623621288974,0.28800782276788367,-1.0043711218262732,-4.5623086918172335,-0.7541982465843085,-1.2708564764299661,-176.05569669428053,22.251697433741988,6.657498993703313,17.372764754920468,-158.78039937569764,61.71065491506382,128.7338800944445,56.0908056350412,-0.18784675523960992,9.714011192321777
2.205606117625476,0.2880242005826024,-1.0043910342794458,-4.562326195480733,-0.7541818687695897,-1.2708763888831387,-176.00364288777916,22.236104330270056,6.738462318271974,17.38717270546884,-158.7800501208611,61.70995493843882,128.73391935282982,56.09051464544521,-0.4317935357334779,9.734365701675415
2.2056417620003876,0.28802930606623384,-1.0043853086976136,-4.5622905511058205,-0.7541767632859583,-1.2708706633013065,-176.07776722987916,22.275917699549908,6.717319886636032,17.343396358255834,-158.77962850372117,61.71038087382348,128.73399965649577,56.09049502902004,0.056083424702702445,9.75540280342102
2.2056499026895757,0.28800578037247104,-1.0043786946010094,-4.562282410416633,-0.754200288979721,-1.2708640492047023,-176.05014393017856,22.238251836156163,6.709529304094667,17.383224859931243,-158.7805708943953,61.710786186535046,128.7342050427859,56.09077211863249,-0.12221126087993772,9.777787208557129
2.2056876780152335,0.2880807753832692,-1.0043486923230927,-4.562244635090974,-0.7541252939689229,-1.2708340469267856,-176.11824071658788,22.202644358271044,6.6379649208042695,17.417647053700893,-158.77648689926076,61.71113042117697,128.73310183193868,56.090212081256304,-0.12229758542497571,9.83968997001648
2.2056301724928487,0.28804508748849617,-1.0043705981464697,-4.56230214061336,-0.754160981863696,-1.2708559527501626,-176.04931209493427,22.23654666208263,6.718003790675638,17.384176443469283,-158.77866089124691,61.71042242774192,128.7334959310121,56.090435371244475,-0.12218429414814302,9.859691619873047
2.205607240767705,0.2880628666703555,-1.0043346372565465,-4.562325072338504,-0.7541432026818365,-1.2708199918602394,-175.95434644791916,22.20432912520326,6.790293533861981,17.416813166052574,-158.7772395388507,61.71074996514971,128.73253369826517,56.09049657873335,0.10775492752673088,9.879048585891724
2.205622048998775,0.28803485811305835,-1.00436437776247,-4.562310264107434,-0.7541712112391338,-1.270849732366163,-175.99380836328385,22.20052828293879,6.744486270587874,17.421992130541266,-158.7790365129381,61.71054759139698,128.73345148281652,56.09057968494772,0.1077308098230274,9.889076709747314
2.205644009577677,0.2879856707205825,-1.0043565885553811,-4.562288303528531,-0.7542203986316096,-1.270841943159074,-176.07528965574647,22.216362769205297,6.661509664421697,17.405989010333833,-158.7811057612849,61.71132619382889,128.73401615234127,56.09111870440417,0.10770475285186265,9.919796228408813
2.205614681116435,0.28795869662411294,-1.0043508614589858,-4.562317631989774,-0.7542473727280792,-1.2708362160626787,-176.0087796060683,22.23764193908425,6.7486864739359245,17.383401583555372,-158.78230950202013,61.711368322907525,128.7340283294274,56.0914307783598,0.10776742333504874,9.960542917251587
2.2055573875746335,0.2879691011064347,-1.004353361614999,-4.562374925531574,-0.7542369682457574,-1.270838716218692,-176.0119798539904,22.235623884016352,6.676934236395586,17.39034461888865,-158.78200889466225,61.71066094698828,128.73357630065527,56.09132004705502,0.10787047620021673,9.9707510471344
2.205625716802774,0.28801928260787696,-1.0043405188708725,-4.562306596303434,-0.7541867867443152,-1.2708258734745654,-175.9360800881704,22.206758188505702,6.674672593792465,17.42324019789076,-158.7793087371862,61.71117992948166,128.7332448993425,56.09089078511546,0.10773178930387317,9.993286609649658
2.205588680388315,0.2879646628491586,-1.0043445160121813,-4.562343632717893,-0.7542414065030335,-1.2708298706158743,-175.96826971433435,22.195503599885434,6.688859812152613,17.432038590010453,-158.78197928195627,61.71118339469257,128.73368203527917,56.09141698846288,0.10781494391521251,10.013176679611206
2.2056223988883783,0.28801788508685966,-1.0043615817814897,-4.56230991421783,-0.7541881842653325,-1.2708469363851826,-175.92830996576546,22.199105314072707,6.75412915865301,17.427023393673455,-158.77976524686505,61.71074617043708,128.73359684164924,56.090767607746116,-0.2253798581280524,10.033194780349731
2.205681060000222,0.28800756863335897,-1.0043567405922158,-4.562251253105987,-0.7541985007188331,-1.2708420951959087,-176.0606434288176,22.24739538384244,6.660854084984472,17.375691252230556,-158.78001589557192,61.71151227438752,128.73401709409953,56.09089253023493,-0.112882895297167,10.058472871780396
2.205608963826538,0.28795931678110787,-1.0043700860920883,-4.56232334927967,-0.7542467525710843,-1.2708554406957813,-176.08017875401157,22.227525954981854,6.6247606574655356,17.39765188813177,-158.78264515274918,61.71092986741274,128.7343105409567,56.09129984807852,0.08900792313279737,10.080221176147461
2.205614710561286,0.28800493883859907,-1.0043389282298216,-4.562317602544923,-0.754201130513593,-1.2708242828335146,-176.08368872365048,22.21681689770995,6.603804640757764,17.408320027318105,-158.7799647917808,61.711219724484685,128.7333063644636,56.09104645115153,-0.19251655340205165,10.090226173400879
2.2056310308123988,0.2880442941465371,-1.0043675651264166,-4.562301282293809,-0.7541617752056551,-1.2708529197301095,-176.10568463986877,22.24376746309123,6.666851724071126,17.376503796383982,-158.77864001604306,61.71049691480001,128.7334589292565,56.09046298858095,-0.004891150475247574,10.11310625076294
2.2056433417262804,0.28800496749268045,-1.004299985240017,-4.562288971379927,-0.7542011018595117,-1.27078533984371,-175.997407422775,22.142340205127915,6.697204927419454,17.48086167020508,-158.77918631246874,61.71226758888724,128.73283264872146,56.091295954762664,-0.00489326060554518,10.158190488815308
2.205625377758717,0.2879601743636689,-1.0043551555833936,-4.5623069353474905,-0.7542458949885232,-1.2708405101870865,-176.0076880996716,22.180556922220273,6.702066930934021,17.44370269830542,-158.78229524206085,61.71137893453699,128.73415526513799,56.09138612877531,-0.004855689507019978,10.178295612335205
2.2056381233210076,0.2880664891969558,-1.0043648138483172,-4.5622941897852005,-0.7541395801552363,-1.2708501684520102,-176.04451645744584,22.19470013153832,6.675598384326579,17.428854413446135,-158.77755267596393,61.71043804382859,128.73320968006968,56.09025786713799,-0.004910014323477263,10.1912362575531
2.2055611128970414,0.2879829904962234,-1.0043926314359337,-4.562371200209167,-0.7542230788559687,-1.2708779860396267,-176.03581506894264,22.21084622155349,6.66705536231252,17.415445217640908,-158.7820784295614,61.709814832671356,128.73411257091087,56.09092380793989,-0.22056951253165424,10.212782859802246
2.2055841820529456,0.2879322677476955,-1.0043787637568993,-4.5623481310532625,-0.7542738016044966,-1.2708641183605922,-176.0092847706971,22.204900985987734,6.65477719636505,17.42343483962998,-158.78410482132685,61.71073613311854,128.73459844882848,56.091517722979454,-0.2205963128083468,10.235895872116089
2.205597800385438,0.2880047202736606,-1.004402702882723,-4.562334512720771,-0.7542013490785315,-1.2708880574864159,-176.0190298029174,22.241992708160353,6.705418057553164,17.38293736910852,-158.78117824529653,61.70980460326826,128.73428165929195,56.090634525118176,-0.2206450272688838,10.256194353103638
2.2055972845477143,0.2879941314068418,-1.0043449411002212,-4.562335028558493,-0.7542119379453504,-1.2708302957039141,-175.9831768466997,22.20449131791193,6.726601548756399,17.419523181274172,-158.78061185624415,61.71101733977413,128.73341507837904,56.09111812783122,-0.22063269150042508,10.276555061340332
2.205609933755329,0.28802063038183345,-1.0043261891345185,-4.562322379350879,-0.7541854389703587,-1.2708115437382115,-175.96512381445683,22.230373212979128,6.723331271772963,17.394273749500513,-158.77902153992716,61.71129151327698,128.73288207593967,56.09097365295765,-0.22535230428434927,10.299633979797363
2.205611211106775,0.2880331596391993,-1.004376877074899,-4.562321101999434,-0.7541729097129928,-1.270862231678592,-176.00216377989287,22.231637645743007,6.715051369156208,17.392760895490138,-158.77936786133264,61.710208768517774,128.73361162583038,56.09051677196324,-0.22536555002765857,10.309353590011597
2.2056313943024692,0.28800413684271137,-1.0043744524085212,-4.562300918803739,-0.7542019325094808,-1.2708598070122141,-176.0082194662977,22.216309944365932,6.6794339415995525,17.409885379505017,-158.78061175680799,61.7106978807207,128.73402935504754,56.090819403559045,-0.22539464653621577,10.343462228775024
2.20562487200955,0.28803888866964855,-1.004393147689636,-4.5623074410966575,-0.7541671806825436,-1.2708785022933289,-175.99921766598808,22.212815357935057,6.727826229973432,17.41137085418739,-158.77936992225216,61.709979484283686,128.73391398858308,56.09035081302266,0.28600727710946305,10.355485200881958
2.2056233057305787,0.28787607890968925,-1.0043522284688746,-4.562309007375629,-0.7543299904425029,-1.2708375830725676,-176.07637386597276,22.15798870074237,6.601380673335024,17.46847939291667,-158.7861144386103,61.71211088239387,128.73503619128712,56.09224641466556,-0.20188241679168017,10.378468751907349
2.2056829546297636,0.2879870735688346,-1.0043667485510863,-4.5622493584764445,-0.7542189957833575,-1.2708521031547793,-176.08046791938185,22.215104996656823,6.591436180045958,17.411579424596383,-158.7811368255613,61.711504852013924,128.73442989299673,56.091031694030704,-0.047197439197847135,10.40069031715393
2.2056068745636987,0.28802464915696696,-1.0043997791999,-4.562325438542509,-0.7541814201952252,-1.270885133803593,-176.03966608702822,22.227522246134217,6.621227539727678,17.40134032332008,-158.78018740588274,61.70978766821277,128.73406798845141,56.09045285885293,-0.047071489384808984,10.41069507598877
2.205648838669229,0.28792212626168967,-1.004316922287691,-4.562283474436979,-0.7542839430905024,-1.270802276891384,-176.090048226812,22.136271229295836,6.5137222305646585,17.49348003301169,-158.78329303616238,61.712676134642855,128.73408712293428,56.09201256960658,-0.04710897370750322,10.431190490722656
2.2055837546667436,0.2879906927636154,-1.0043489821028821,-4.5623485584394645,-0.7542153765885767,-1.270834336706575,-176.05997236575408,22.214220378112216,6.596687891252823,17.41346735815286,-158.78087502056326,61.71083152506734,128.73343320459324,56.091128365397346,0.06559042409642579,10.45451545715332
2.2056687656204126,0.2880039970779539,-1.0043708224165604,-4.562263547485795,-0.7542020722742383,-1.2708561770202533,-176.12621740074422,22.17418918814729,6.6067040590374,17.448682203423658,-158.78046563715952,61.71114342928796,128.73421557573914,56.09083824119677,-0.07063533075781514,10.476437330245972
2.205631791504704,0.2880570152510556,-1.0043824998659687,-4.562300521601504,-0.7541490541011365,-1.2708678544696617,-176.05822088717366,22.25034960612477,6.69075958183336,17.37195077471766,-158.77832592052155,61.71010706092449,128.73357502422593,56.090238027473276,-0.08465832642933213,10.496208667755127
2.205643428337636,0.2879189434970666,-1.0044045770763352,-4.562288884768572,-0.7542871258551255,-1.2708899316800282,-176.06498951766,22.18218227096574,6.638851529299205,17.444084317478193,-158.78505205867796,61.71093307751088,128.73557755365158,56.091472195802815,-0.15971337693521104,10.53786563873291
2.2056256613941922,0.28797741980846675,-1.0044143701210697,-4.562306651712015,-0.7542286495437254,-1.2708997247247626,-176.0267138421935,22.210248401083582,6.709593163323252,17.414173931147666,-158.782582465839,61.71008041059181,128.73497026314274,56.09082650513573,-0.15969794947650895,10.557981967926025
2.2056156648465004,0.287951240759743,-1.0043787803785245,-4.562316648259708,-0.7542548285924491,-1.2708641349822174,-176.01555926403844,22.198865397418913,6.716440015917827,17.424794490401887,-158.78315983399096,61.71089345972418,128.73459322990962,56.09132262125515,-0.15966698407700175,10.568730354309082
2.2056671819979297,0.28796717204059763,-1.0043213474348316,-4.562265131108278,-0.7542388973115945,-1.2708067020385245,-176.00266961623112,22.137195871484394,6.647036147035431,17.489557452236706,-158.78125964139613,61.71240029324217,128.73377745125518,56.09153017082604,-0.15975852201099672,10.591331958770752
2.205655559943793,0.28801173264000496,-1.0043727724424925,-4.562276753162416,-0.7541943367121872,-1.2708581270461854,-176.05305115597773,22.201394253773554,6.667152944632932,17.422446442812024,-158.7801759648053,61.71090936796301,128.73407480774102,56.0907503728251,-0.15975676312218834,10.613245248794556
2.205613290031455,0.2880071254275968,-1.0043198150418717,-4.562319023074753,-0.7541989439245953,-1.2708051696455647,-176.00934346435423,22.184547619760103,6.672539787564164,17.440322344080318,-158.77951852336707,61.711561468487666,128.7329474718222,56.09114978880244,-0.15966932191121375,10.649341106414795
2.2055846232163887,0.28803718191061634,-1.004339390346517,-4.562347689889819,-0.7541688874415757,-1.27082474495021,-175.94941435040477,22.19678905561462,6.755551704736841,17.42732735078022,-158.77855979683312,61.710643419085685,128.73275382522783,56.090726117520255,-0.15962728516600588,10.669284582138062
2.2056229887437664,0.2879793637164707,-1.0043495292272857,-4.562309324362442,-0.7542267056357215,-1.2708348838309786,-175.99034309925253,22.203957995081016,6.727603834239405,17.419548756433965,-158.78131547468826,61.711306483660934,128.7338283693776,56.09123145602061,-0.15968402551687166,10.689337253570557
2.2056442451608387,0.2879604806105058,-1.0043677028898539,-4.562288067945369,-0.7542455887416863,-1.2708530574935468,-176.0718226585178,22.246194196223048,6.680745889979336,17.37554359983685,-158.7824666638922,61.71131936290789,128.73448954626963,56.091297855208914,-0.15972092258036374,10.733431339263916
2.2055873600663607,0.2880095563901821,-1.0043445667263848,-4.562344953039847,-0.7541965129620101,-1.2708299213300778,-176.01657533566228,22.2490396100765,6.7200840469786405,17.37322231305218,-158.77991851413307,61.71079794612594,128.73317008054437,56.090968022596996,-0.1596255160034623,10.77627944946289
2.205620352992751,0.28803012233472153,-1.0043517136581808,-4.5623119601134565,-0.7541759470174706,-1.2708370682618737,-175.96014672604386,22.248116577046815,6.756687907748109,17.37543102201027,-158.77902699621433,61.710817628691686,128.73327815969967,56.090710117678675,-0.15969342860271585,10.798678159713745
2.2056194356111285,0.2880429581234323,-1.0043006263339531,-4.56231287749508,-0.7541631112287598,-1.270785980937646,-175.9402136532028,22.216001085837753,6.708849287290827,17.410229078214464,-158.7775059425015,61.71170199939112,128.73225936123828,56.090915938269,-0.0986948187158605,10.80886435508728
2.205594174230913,0.2880215649810643,-1.0044047323431806,-4.562338138875296,-0.7541845043711278,-1.2708900869468736,-176.03878565837317,22.24068807471143,6.735678561139161,17.380964284377047,-158.78044899049928,61.70958935967849,128.7341031087571,56.0904534506512,-0.09865732253704618,10.838660717010498
2.205623327585129,0.28803314330319474,-1.0043955670931464,-4.56230898552108,-0.7541729260489974,-1.2708809216968393,-175.98732514407607,22.201946696906454,6.655508628345357,17.42780769164195,-158.7796818831365,61.70996422712066,128.73400945645602,56.09039269907387,-0.08932980782093258,10.869972705841064
2.205656848853545,0.2879588930471593,-1.0043693603020176,-4.562275464252663,-0.7542471763050328,-1.2708547149057106,-176.11981317507735,22.207888028899614,6.569937252548401,17.417957392523792,-158.78254083906324,61.711425973976056,128.73461864563967,56.09130077002096,0.03731003862224025,10.892044067382812
2.205595528124899,0.28798763595044763,-1.0043710969012607,-4.562336784981309,-0.7542184334017444,-1.2708564515049536,-176.05131198128257,22.259024824753997,6.7486792554440065,17.359877744776163,-158.78139218670094,61.71054167007622,128.73392114948786,56.09101236056295,0.03741562601331383,10.914910078048706
2.2055465448283655,0.2879736100324033,-1.004334725724372,-4.562385768277843,-0.7542324593197889,-1.270820080328065,-175.98931194219875,22.212837579447832,6.692710797021374,17.413017282996396,-158.78148631147235,61.71088002020049,128.73313733487313,56.09139862974619,0.03751568374023995,10.937298774719238
2.2055415249410255,0.2879988152565505,-1.0043376949015523,-4.562390788165183,-0.7542072540956416,-1.2708230495052453,-175.9799340337497,22.204974799251556,6.706794565631132,17.420638578024757,-158.78039286429257,61.7105633135482,128.7328716989846,56.091128055533005,0.21580465185109565,10.989083290100098
2.2055716631494926,0.28802982088318196,-1.00433590846145,-4.562360649956715,-0.7541762484690102,-1.270821263065143,-175.96255084782683,22.17570067828095,6.720854247419497,17.449801202195626,-158.7788646732765,61.710642954293284,128.7326918438884,56.09082466089228,0.21574047015354436,11.011565685272217
2.2055493233240995,0.2880266333847722,-1.0043278264219346,-4.562382989782109,-0.7541794359674199,-1.2708131810256276,-175.9705174464074,22.13278118825615,6.725033566049141,17.491805238233468,-158.77891527214155,61.71060427582713,128.73244295459895,56.0909131289816,-0.028187850882375187,11.031152725219727
2.2056313292174115,0.2880265725853199,-1.004365210911892,-4.562300983888797,-0.7541794967668722,-1.2708505655155848,-176.1029343019255,22.200591772243367,6.6550893367602635,17.420608403667607,-158.7794113517088,61.71069252761573,128.7336198647383,56.09065551627593,-0.028345438381265797,11.053791522979736
2.2056421177863106,0.28799355511692937,-1.0043547822814676,-4.562290195319897,-0.7542125142352628,-1.2708401368851605,-176.13223544996504,22.21089307269566,6.615870277500631,17.410640758711345,-158.78071453633086,61.71127743816335,128.73388443324123,56.09105200184397,-0.028354834987857735,11.08792757987976
2.2056428580854353,0.28799509377473953,-1.0043265641084083,-4.562289455020773,-0.7542109755774526,-1.2708119187121012,-176.03271796530922,22.208984582099145,6.694953363079704,17.4129634817978,-158.78012685287175,61.71182429950358,128.7333922523381,56.0912209848868,-0.3004746420260247,11.123563051223755
2.205666530416048,0.2879569848988802,-1.004355802852995,-4.56226578269016,-0.7542490844533118,-1.270841157456688,-176.04641455139424,22.235094981400106,6.709724246299706,17.385881475761693,-158.78235873773195,61.711803775996,128.73447338891802,56.09140685998007,-0.3005123497208646,11.133294582366943
2.2056398894385216,0.2880496828857427,-1.0043882639536135,-4.562292423667687,-0.7541563864664494,-1.2708736185573064,-176.0551330996679,22.21345515981583,6.711147713375601,17.407843591903006,-158.77874967663865,61.710135816717944,128.73380874461796,56.090272289365664,-0.3004932024519409,11.155490159988403
2.2056329525816993,0.2879931312473744,-1.0043534708406785,-4.562299360524508,-0.7542129381048177,-1.2708388254443714,-176.08778856348346,22.16550930026367,6.660593883662741,17.456014038073267,-158.78073124914815,61.711215040620615,128.73380647454505,56.09106635686498,-0.30045966878682906,11.175581693649292
2.205679601959784,0.28803491636243034,-1.0043680932197059,-4.5622527111464235,-0.7541711529897618,-1.2708534478233988,-176.09511895830576,22.161593895512652,6.600909117946338,17.46346152967854,-158.77896881539934,61.71104938632271,128.73389341112116,56.09054511670555,-0.05658826508091597,11.208270788192749
2.20559477955029,0.2880156169842681,-1.0043734097315697,-4.562337533555918,-0.754190452367924,-1.2708587643352627,-176.04684825033678,22.16650544623468,6.666770191072351,17.45815169277486,-158.78014927092752,61.71025753291672,128.7336413372808,56.09071760467159,-0.05642638050746562,11.231017589569092
2.205624138287653,0.28799844263849694,-1.0043951274189273,-4.562308174818555,-0.7542076267136951,-1.2708804820226203,-176.07193653310043,22.270050129743538,6.728823602415271,17.3493896414265,-158.78126784825275,61.710267898630256,128.73439698377356,56.090742382850785,0.17810884881174438,11.275425434112549
2.2055473413043822,0.28803842989469286,-1.004386439851676,-4.562384971801826,-0.7541676394574992,-1.270871794455369,-176.0044107810673,22.22316129642539,6.722823718945536,17.401275444131784,-158.77944752444165,61.70933991781345,128.7332939922553,56.09041231554698,-0.2064830399494335,11.31764030456543
2.205586718241198,0.2879873545406196,-1.0043772739485297,-4.56234559486501,-0.7542187148115725,-1.2708626285522227,-176.00323991438208,22.218387333409492,6.720849274018931,17.40583703681517,-158.78153823886697,61.71033509996153,128.73397125564983,56.09097627169659,-0.20654068346099663,11.32774829864502
2.2055811859690957,0.28802492737991964,-1.0044013058286951,-4.562351127137113,-0.7541811419722725,-1.270886660432388,-176.00377219511418,22.222055753098683,6.771168194984725,17.39952099798839,-158.78026178196927,61.709498834182554,128.73392147272997,56.09044442339233,-0.2065442851735173,11.352304458618164
2.205618586959236,0.2880492805034815,-1.0043679508527976,-4.562313726146972,-0.7541567888487106,-1.2708533054564906,-176.00550661454704,22.218103215707252,6.773647412699966,17.401797593530464,-158.77844646643206,61.71032380255123,128.73332746294886,56.09041270722681,-0.20661548245903694,11.37508773803711
2.2056666393195274,0.28807524980375915,-1.0043746208688058,-4.562265673786681,-0.754130819548433,-1.2708599754724987,-176.06809926666068,22.20692980929079,6.697780581230444,17.413715347448154,-158.7772630312155,61.710458577947556,128.73346603447774,56.09010135264452,-0.08472683651407964,11.460427284240723
2.2056594148042996,0.2880861339163614,-1.0043964625587467,-4.5622728983019085,-0.7541199354358308,-1.2708818171624396,-176.1108870951303,22.22302934224178,6.676031734215753,17.396943413544506,-158.77717799556592,61.70986899062204,128.73366754959105,56.08985094519858,-0.00026795567748649773,11.470269680023193
2.205628837631352,0.2879619814100678,-1.0043739276556793,-4.562303475474856,-0.7542440879421243,-1.2708592822593723,-176.13930690323315,22.231464941386598,6.574824369101862,17.393107611217747,-158.78254685036936,61.71103121141984,128.73447695380082,56.09124474483601,-0.15969366584112166,11.490400552749634
2.205635407182122,0.2880140483401807,-1.004353492198669,-4.562296905924086,-0.7541920210120114,-1.270838846802362,-176.05373781583307,22.187123969769555,6.597457822244332,17.44067987739673,-158.77976396918208,61.7110661622301,128.73358813730522,56.09085666837078,-0.1597171909173558,11.511785984039307
2.2056035474309823,0.2880052538255326,-1.0043687616438008,-4.562328765675226,-0.7542008155266595,-1.2708541162474938,-176.0622200984081,22.18399582239314,6.613222665889498,17.442969220161125,-158.78052077345808,61.710521791349315,128.73373647836297,56.090850130774626,-0.15965790552049697,11.536826372146606
2.205670198797834,0.2880343241470862,-1.0043785760440467,-4.562262114308374,-0.7541717452051059,-1.2708639306477396,-176.13051272916854,22.202296125539817,6.588510671767457,17.42166607342667,-158.77920915542336,61.710755219580754,128.73401630385803,56.09048408490042,-0.11756515065663153,11.559698581695557
2.2056454808334838,0.28804574998155763,-1.0043780817265924,-4.562286832272724,-0.7541603193706345,-1.2708634363302853,-176.1450770253178,22.24840929750264,6.613752931529584,17.373032436432634,-158.7787317246728,61.71042345057831,128.73371664738048,56.090377241244,-0.10344709092781468,11.569281578063965
2.2055904199108167,0.28797539203001266,-1.004393793589397,-4.562341893195391,-0.7542306773221795,-1.27087914819309,-176.09709629712574,22.247134404828426,6.643535057896065,17.376553023307192,-158.78238144570673,61.71014773684505,128.73441085835287,56.09098724563131,-0.16901244121264636,11.592987298965454
2.2056771038013516,0.2879858513973238,-1.004410464822063,-4.5622552093048565,-0.7542202179548683,-1.270895819425756,-176.13471405260952,22.248923547359272,6.648388459718128,17.371912945996083,-158.78200464553126,61.71060105611753,128.73514832382833,56.09075907272099,-0.08472689130326838,11.647743940353394
2.2056792482045577,0.28791698309590175,-1.0043603711087965,-4.56225306490165,-0.7542890862562903,-1.2708457257124894,-176.1091762561823,22.23014126501372,6.631952685510911,17.392003711577026,-158.78425256731427,61.712172203402616,128.7350841140288,56.091774799667036,-0.13162224972908732,11.682603120803833
2.2056056927368255,0.2879802766520211,-1.0043210728680159,-4.562326620369382,-0.7542257927001711,-1.2708064274717088,-176.08382316724965,22.17452727096338,6.6340169036331105,17.448149756872304,-158.78079386917628,61.7116829972234,128.7332202618247,56.09141128629802,-0.13149746348653046,11.693088293075562
2.205690268518449,0.2880260585584714,-1.004356337736648,-4.56224204458776,-0.7541800107937207,-1.270841692340341,-176.12953132806456,22.144488099684928,6.584064257886756,17.478984726551015,-158.77913692340485,61.711459239391544,128.73386332271414,56.0907087439684,-0.13167212697425246,11.715837955474854
2.205632104405353,0.2880779706895227,-1.0044055682596487,-4.562300208700855,-0.7541280986626695,-1.2708909228633416,-176.09484090311537,22.24869145344997,6.706945833914077,17.37077082641467,-158.77778269977074,61.70948547556503,128.73373399208697,56.08987763452542,-0.02836693880182084,11.769819736480713
2.205588147824032,0.2879376065021929,-1.0043582307905583,-4.562344165282177,-0.7542684628499992,-1.2708435853942512,-176.0135670415272,22.205127021131073,6.676761200038874,17.420793614776443,-158.78347528996056,61.71113342373394,128.7342155331365,56.09159792425214,-0.02823982176053219,11.792108058929443
2.205637279945628,0.2879978369743769,-1.0043585978546574,-4.562295033160581,-0.7542082323778152,-1.2708439524583504,-176.1044163164881,22.201800517077828,6.6085166201956715,17.422199239314068,-158.78059844226598,61.7111190301595,128.73386933250484,56.09098505866359,-0.028347598213002367,11.817644596099854
2.205630502725005,0.288029418651069,-1.004389032214883,-4.562301810381203,-0.754176650701123,-1.270874386818576,-176.09776083027623,22.216280767448822,6.65418182444685,17.40610966774125,-158.77971730098398,61.71019459174823,128.73398747468403,56.09047145563988,-0.06119033836498078,11.827833890914917
2.2056623544139193,0.2879776448465172,-1.0044073427106095,-4.562269958692289,-0.7542284245056748,-1.2708926973143024,-176.0769963605641,22.203645527334942,6.718917086663459,17.416328971766223,-158.782359117863,61.71058265627887,128.73509015881737,56.09086402134817,-0.014320417709200672,11.850074768066406
2.205620420571331,0.2880456656942803,-1.004386422134276,-4.562311892534877,-0.7541604036579118,-1.270871776737969,-176.09558055415368,22.186154714032426,6.701634171924447,17.43312970917504,-158.77894573448083,61.71001057029473,128.73369419452976,56.090327776052845,-0.014258286890914018,11.869868516921997
2.205664687476796,0.2879949609145003,-1.004359514033764,-4.562267625629412,-0.7542111084376918,-1.270844868637457,-176.10139559888052,22.17986226819108,6.653550848278872,17.441223866955884,-158.78068417124067,61.71139870017173,128.734097889545,56.09100320994192,-0.014322504308135198,11.902162790298462
2.2056185556626615,0.2880174079994683,-1.004402718680603,-4.562313757443547,-0.7541886613527238,-1.270888073284296,-176.08811324154357,22.230871374979902,6.692082705004723,17.39018689975142,-158.78054711957728,61.70990673721339,128.73427628320331,56.0905040711588,-0.1409269497405714,11.967583656311035
2.2056856811862335,0.2879160027079692,-1.0043529576105614,-4.562246631919974,-0.7542900666442229,-1.2708383122142544,-176.12529422147654,22.22025887297709,6.575706761665077,17.404243001340003,-158.7841474699058,61.71238965116962,128.73501148518193,56.09183199105652,0.13579771659454698,11.990147113800049
2.2056057095295687,0.2880272464209656,-1.0043996056520017,-4.562326603576639,-0.7541788229312265,-1.2708849602556946,-176.03904393421257,22.200595393215313,6.638753336416482,17.427167534954677,-158.78006747861042,61.709757944615696,128.73402819215184,56.0904282216293,0.07491565618701435,12.015353918075562
2.20561032078937,0.2879947809733504,-1.0043823954698323,-4.562321992316838,-0.7542112883788418,-1.2708677500735253,-176.0751648488778,22.257212206757426,6.6433373233761,17.367389057769604,-158.7812357046413,61.710409275776186,128.73413053852065,56.0908645620864,-0.23004598159524692,12.037230253219604
2.2056227463051252,0.2879958475670862,-1.0043769000255156,-4.5623095668010825,-0.7542102217851059,-1.2708622546292085,-176.0735840855525,22.26139039607145,6.675565000528212,17.360925157506333,-158.78105763660088,61.71063213490821,128.7341070408624,56.09088773552142,-0.09400732846787507,12.047303199768066
2.2055754908590166,0.28803580478641294,-1.0043571974354089,-4.5623568222471915,-0.7541702645657792,-1.2708425520391018,-175.9278856704939,22.22721038516082,6.711168824608293,17.401814660894647,-158.77896934890123,61.710215110745374,128.73301184898946,56.090625003674084,-0.037626661953181095,12.067358493804932
2.205627223729026,0.28796193415371113,-1.004385424819963,-4.5623050893771815,-0.754244135198481,-1.270870779423656,-176.0722641780507,22.196524207322835,6.606646018865526,17.430728820133783,-158.7827626409618,61.710790492970446,128.7346623236583,56.09117031894252,-0.03770643129296625,12.087867259979248
2.205588980005964,0.28805310570906983,-1.004359913873051,-4.5623433331002445,-0.7541529636431223,-1.270845268476744,-176.0268701111407,22.195030322614826,6.65600149861759,17.43113385275798,-158.7781921440872,61.71015363503144,128.73295268887856,56.09043199310912,-0.037656845834709074,12.10775375366211
2.2055894165370296,0.28805079176055814,-1.0043853766554502,-4.562342896569178,-0.754155277591634,-1.2708707312591432,-176.0129721263377,22.247855838657877,6.708443330988393,17.376640472055765,-158.77876247330641,61.709678871683366,128.73341447341295,56.09028858256582,-0.03766074978816203,12.1322922706604
2.20574271380124,0.2879505427758323,-1.0044044024860463,-4.562189599304968,-0.7542555265763597,-1.2708897570897393,-176.14927777849695,22.23051119212588,6.5952706072918925,17.39237985665169,-158.78336635800758,61.711667107267864,128.73587431105682,56.09114068373096,-0.09422143440423092,12.199374914169312
2.2056466614886583,0.2879452390541383,-1.0043936834898988,-4.562285651617549,-0.7542608302980538,-1.2708790380935917,-176.1049577980689,22.24559085519905,6.633463262424706,17.377965487273368,-158.78363636488106,61.71096112621356,128.7351183642864,56.09127996998887,-5.072001999693679,12.209045886993408
2.2055854398911605,0.2880384869215996,-1.0044151458102777,-4.562346873215048,-0.7541675824305926,-1.2709005004139706,-176.10797378614402,22.201475987981976,6.574324632933214,17.426605258342548,-158.77988105421338,61.7091583744808,128.7340325632411,56.09021765049369,-0.9572400527348588,12.234510660171509
2.205665467767658,0.28799621993998015,-1.004398943175419,-4.56226684533855,-0.7542098494122119,-1.270884297779112,-176.20499278220376,22.21908911607687,6.620045774538497,17.398565818566826,-158.7813443195923,61.71062452443591,128.73475928444986,56.090732696630106,-0.16446654634544622,12.400498390197754
2.205575729651774,0.2880221881592143,-1.0043538824529272,-4.562356583454434,-0.7541838811929779,-1.2708392370566202,-176.03367162836216,22.188168411085627,6.713771606015266,17.433717143592542,-158.77953450802323,61.71039498252254,128.73310995903373,56.090782779231965,0.013986406925395656,12.45436429977417
2.2056307203923033,0.2879863457804162,-1.0044005504294025,-4.562301592713904,-0.7542197235717759,-1.2708859050330954,-176.07976847979347,22.1947442974653,6.661028376077037,17.428869162165658,-158.78190799239047,61.71032757346772,128.73466841829884,56.09082676513342,-0.17378304542505596,12.514260530471802
2.205672709691446,0.2879132319937584,-1.004351738916643,-4.562259603414763,-0.7542928373584338,-1.270837093520336,-176.07596466786487,22.129732880828485,6.649758153042907,17.493181414587568,-158.78428260608192,61.71230682374258,128.73493635958266,56.09186984374197,-0.173833660767448,12.54915976524353
2.205555650325038,0.2880217150468615,-1.0043355383222023,-4.56237666278117,-0.7541843543053306,-1.2708208929258953,-175.9765426908407,22.17995635248038,6.705842220678974,17.445719333839456,-158.77926767923336,61.71055725416856,128.73267101106092,56.0909108203733,-0.17364399562002353,12.57163405418396
2.2056158226937064,0.28799548630302424,-1.004294527437412,-4.562316490412502,-0.7542105830491679,-1.270779882041105,-175.9718213969429,22.18466148388497,6.708025411136165,17.439520668252413,-158.77958625832852,61.71217788036381,128.73266490281367,56.09143106337767,-0.27226934497968625,12.633936166763306
2.205627367104138,0.2879837171000747,-1.0043553800062797,-4.56230494600207,-0.7542223522521174,-1.2708407346099726,-176.04126993380643,22.12833764514256,6.6434210485425425,17.49748539421405,-158.78121196755342,61.71119973254834,128.7339078263742,56.09114894020663,-0.27229643719061425,12.653800964355469
2.2055671990547934,0.28798252132762875,-1.004378133972313,-4.562365114051415,-0.7542235480245634,-1.270863488576006,-176.01835699018957,22.19019333218746,6.63940179066517,17.438504355257063,-158.78182128365586,61.71016322040667,128.73391147298588,56.091022258164976,0.0140095971555394,12.710607767105103
2.205656127208684,0.2879737180336326,-1.0043834291856295,-4.562276185897524,-0.7542323513185596,-1.2708687837893224,-176.0410491168531,22.160932152091018,6.639775654747688,17.465916875779012,-158.7821175301957,61.71102086370775,128.7346866169191,56.091060682746786,0.03730523511233974,12.73080587387085
2.20559837622987,0.2880178330525544,-1.0043476069392963,-4.562333936876338,-0.7541882362996377,-1.2708329615429892,-176.08751788536898,22.22172327257092,6.681782443226589,17.398373015637887,-158.77956794156296,61.710780063431265,128.73320145479053,56.09086353918404,-0.1784157940107205,12.7517409324646
2.2055405692882557,0.28805129752253744,-1.0043735501240698,-4.562391743817952,-0.7541547718296547,-1.2708589047277628,-175.92109049057115,22.196136431319285,6.802057528049107,17.428150647913352,-158.77863603850122,61.70941806734043,128.732885711771,56.090369073348306,-0.08917805768761466,12.774092435836792
2.205741035890986,0.28794047898102254,-1.0043420399200305,-4.562191277215223,-0.7542655903711696,-1.2708273945237234,-176.17892834180878,22.145456703614528,6.598784111406948,17.47318770955771,-158.78269461401263,61.712953889289516,128.7349159358097,56.091649339411426,-0.10828169439179591,12.806028842926025
2.2056111039993405,0.288008537898756,-1.004340056384993,-4.562321209106868,-0.7541975314534362,-1.2708254109886858,-176.06662521672234,22.181665692882166,6.644380103564187,17.441982195119976,-158.77982819141354,61.711131848896095,128.7332613572225,56.09100369833155,-0.14559334209047092,12.847874641418457
2.2056407143360715,0.2880232914248736,-1.0043717712419853,-4.562291598770137,-0.7541827779273186,-1.2708571258456782,-176.1062581568154,22.207603553613616,6.62428204598166,17.415587402299177,-158.77966036707502,61.71068505290654,128.73383012062078,56.09064385038369,-0.04712978642419374,12.868326187133789
2.205654305147792,0.2879927754061025,-1.004355858897128,-4.562278007958416,-0.7542132939460896,-1.270841213500821,-176.1036095451401,22.21170618963027,6.635349126629333,17.4103962153517,-158.78074191724534,61.711384575561866,128.7339918391686,56.09105070709113,-0.2817326511383973,12.889713525772095
2.20568022698617,0.2879673081564141,-1.0043757272779277,-4.562252086120038,-0.754238761195778,-1.2708610818816206,-176.10548999977496,22.23305698725651,6.6513859827402495,17.38841566188144,-158.78221607993606,61.71146534963438,128.734786527132,56.09117106956113,-0.2817766386406322,12.909598350524902
2.205631370365307,0.28800350607677344,-1.004392249576129,-4.562300942740901,-0.7542025632754187,-1.270877604179822,-176.05566425472762,22.201221192754467,6.689595318440025,17.4217764952993,-158.78096574494353,61.71035459557737,128.73433887284676,56.09070935481573,-0.28169839164204635,12.95537805557251
2.205614438946431,0.28801047752898473,-1.0043963252083323,-4.562317874159777,-0.7541955918232074,-1.2708816798120253,-176.04599885082803,22.224812440078107,6.718597425187745,17.397122956573806,-158.78075862544563,61.71004803028552,128.73421826453924,56.09061585782443,-0.28166949914525485,12.993427991867065
2.2055629002121107,0.288011595032233,-1.004389067947476,-4.562369412894098,-0.7541944743199591,-1.270874422551169,-175.96680142370852,22.203765146710648,6.751563045769599,17.42130968389115,-158.78069371464878,61.709665872564436,128.73374256653386,56.090660812743614,0.11253515936776903,13.015794515609741
2.205614147544191,0.2879615809271971,-1.0043409501134988,-4.562318165562018,-0.754244488424995,-1.2708263047171917,-176.04233334174378,22.20328510926846,6.655355908204419,17.42136490048428,-158.781997128757,61.711533095743434,128.73382390461293,56.09146683115739,-0.09397667703863233,13.028361797332764
2.205650240790403,0.2879612756868102,-1.004356100868332,-4.5622820723158055,-0.7542447936653819,-1.2708414554720249,-176.07504342658356,22.162274458713203,6.659356601665108,17.460233918741906,-158.78220444490665,61.71159972356429,128.73432288134836,56.09136475288279,0.03732358395512492,13.051663875579834
2.2056338163600486,0.288022628595558,-1.0044066839674153,-4.56229849674616,-0.7541834407566341,-1.2708920385711082,-176.1140147464936,22.21977585024479,6.685426537150397,17.40000538698962,-158.78034419437284,61.7099384389526,128.73438568358293,56.09042337802624,-0.18318311502546214,13.073131322860718
2.2056527481627546,0.2880120636727436,-1.0043922980877027,-4.562279564943454,-0.7541940056794485,-1.2708776526913956,-176.13490179733043,22.23751676728875,6.673292058891646,17.38110835617802,-158.78052371828107,61.71049645517191,128.73438453572265,56.09061987608026,0.07483364703637152,13.099083662033081
2.20564899234222,0.28801287451388496,-1.0043908974377624,-4.562283320763988,-0.7541931948383072,-1.2708762520414554,-176.1474571348388,22.241196523807726,6.650504627886478,17.37809815504887,-158.78046952813798,61.7104796369921,128.73432685553544,56.090621559069206,0.07484059633368512,13.10885739326477
2.205624116051611,0.28803642887016817,-1.0043776380851612,-4.562308197054597,-0.754169640482024,-1.2708629926888542,-176.0538066215442,22.145317060268088,6.622176896080311,17.48169404328117,-158.77920161525353,61.710295770604915,128.73367292779534,56.09047693617454,0.07488220223221465,13.131652593612671
2.205661878583516,0.28803273081808656,-1.0043376866399394,-4.562270434522692,-0.7541733385341056,-1.2708230412436323,-176.06606977449496,22.176734094756192,6.682506102982788,17.443979081689463,-158.77855504851547,61.711485400622564,128.7332841233151,56.090768754002326,0.07481902197037993,13.199223041534424
2.205645981875055,0.28803328670552747,-1.0043852261927932,-4.562286331231153,-0.7541727826466647,-1.2708705807964862,-176.1149985046473,22.167598264530852,6.652161118971468,17.453538211498216,-158.7794341906191,61.71039172780949,128.73398137352518,56.09045505802877,0.07484139292494207,13.211262226104736
2.2056466179582457,0.28801768903744956,-1.004344626034706,-4.5622856951479624,-0.7541883803147426,-1.270829980638399,-176.0356836459302,22.187671478610994,6.695742106110124,17.434540720793272,-158.77940876726228,61.71132155022875,128.73347041382965,56.09087634710469,-0.06590233693353609,13.234172821044922
2.20559031665925,0.2879753935724516,-1.0043711656994463,-4.562341996446959,-0.7542306757797406,-1.2708565203031392,-175.9891834905245,22.222560344901204,6.749259056037072,17.40052287075208,-158.78196851333726,61.71058949457467,128.7340254350598,56.09113518975341,-0.05640670039045981,13.288925170898438
2.2055839150955645,0.2880243097043022,-1.0043591940629493,-4.562348398010643,-0.7541817596478899,-1.2708445486666422,-175.9773909208397,22.202863396730024,6.739628227037517,17.421152982466825,-158.77951502040065,61.71035527553643,128.7332304069385,56.09072546276342,-0.009488859183811371,13.332810401916504
2.2056600198253205,0.28789239274414635,-1.0043433058271942,-4.562272293280888,-0.7543136766080457,-1.2708286604308872,-176.07094290028354,22.184952040775645,6.574000560046184,17.443068001373263,-158.78511644909725,61.71251738919042,128.73494333188393,56.09213547109294,-0.00959139847729551,13.35470461845398
2.2056097245791237,0.2880020035957001,-1.0043251168444187,-4.562322588527085,-0.754204065756492,-1.2708104714481117,-176.01203737803414,22.11952714281978,6.596420141430233,17.510239551820735,-158.77985912146517,61.71146445802646,128.73307162515053,56.091166935654144,-0.009525603873962396,13.368335485458374
2.2056271543097874,0.2879659331524207,-1.0043353723416646,-4.562305158796421,-0.7542401361997715,-1.2708207269453575,-175.9892239999872,22.17729859984425,6.702326162769351,17.44747195392859,-158.7816650945271,61.71173620009103,128.73376594202136,56.0914575959802,-0.07523430619299898,13.39092230796814
2.205592953734393,0.2880568710355285,-1.0043647168121053,-4.562339359371816,-0.7541491983166636,-1.2708500714157982,-176.00495509597192,22.22954957217897,6.762333906365659,17.39118161411264,-158.7780975040713,61.71006820899031,128.73301826537212,56.09036227595781,-0.33793889925052056,13.411405324935913
2.2055922141108084,0.2879340505901157,-1.0043322355340791,-4.5623400989954,-0.7542720187620764,-1.270817590137772,-175.99463415817593,22.204346163241837,6.704533746468997,17.420125864944733,-158.7831548808101,61.71171216483809,128.73384028364407,56.09180275123097,-0.08454369398062944,13.434102296829224
2.2055691749446797,0.28804310230396807,-1.0043764573429914,-4.562363138161528,-0.754162967048224,-1.2708618119466843,-175.988045314226,22.185301804433106,6.725800257861198,17.43953397493059,-158.778999977694,61.709714765642694,128.73321573350563,56.09042718634278,-0.4176525544859726,13.466129064559937
2.2056554021054535,0.2879890273725123,-1.0042785258424836,-4.562276911000755,-0.7542170419796798,-1.2707638804461765,-175.98275199436168,22.09051293754757,6.661103329177796,17.535216707647706,-158.77949976583565,61.71293983605801,128.73272627594645,56.091593603069605,0.004475338357683434,13.488369941711426
2.2056948564392664,0.2880174324151399,-1.0043308516113514,-4.562237456666942,-0.7541886369370523,-1.2708162062150443,-176.05306549121474,22.219559564729725,6.63620586294572,17.404666393714578,-158.7790577033439,61.71207512809426,128.7335571011266,56.09096085011513,0.05130433910850618,13.508260488510132
2.205630611028928,0.2879685364966934,-1.0043793417467517,-4.56230170207728,-0.7542375328554988,-1.2708646963504446,-176.0904919539776,22.190981411180207,6.621291442800142,17.433890444607915,-158.7823401196714,61.71088877614956,128.73450708806692,56.091143509286546,-0.14562427406988876,13.530702352523804
2.2056465977103055,0.28794431831072986,-1.0043599027828622,-4.562285715395903,-0.7542617510414623,-1.2708452573865552,-176.04605458193802,22.20723483800089,6.632199831524188,17.41914502230021,-158.7830621746076,61.71162915190121,128.73455392922278,56.09151005205459,-0.14564441570536513,13.577455282211304
2.2056174473547174,0.28795627234461824,-1.0043035125371915,-4.562314865751491,-0.7542497970075739,-1.2707888671408845,-176.03353620657975,22.145193368125526,6.605777448658898,17.481973972274808,-158.7815501563647,61.71234258460033,128.73326872601498,56.091764120949236,-0.14558536782064202,13.587716817855835
2.2056686780004404,0.2880264822033334,-1.0043459007741893,-4.562263635105768,-0.7541795871488587,-1.2708312553778822,-176.0617776137103,22.19237318475642,6.619335917354258,17.433015136196616,-158.77897671079106,61.71144427180058,128.73353877640528,56.09077638116166,-0.14570594177840368,13.610608577728271
2.205587503380396,0.288098246932797,-1.0043267122750896,-4.562344809725812,-0.7541078224193951,-1.2708120668787826,-175.95198753613957,22.18752896644739,6.697276025889951,17.439603025071477,-158.77551325816734,61.71041520637844,128.7318715735927,56.09019796661103,-0.34262644927110353,13.65267038345337
2.205624593172554,0.2879046410510798,-1.004341399441906,-4.562307719933654,-0.7543014283011122,-1.2708267540455989,-176.03344773161956,22.172898660398268,6.603531688187229,17.455754740838476,-158.78460008088751,61.7120995004766,128.73453981209275,56.09203143277074,-0.0470627700728965,13.672497272491455
2.2056267700221874,0.2880531591452963,-1.0043600723328088,-4.562305543084021,-0.7541529102068958,-1.2708454269365017,-176.01759980142057,22.1962079045389,6.676232245857765,17.429014585532617,-158.77810534639505,61.710527647606014,128.73320390129285,56.09042405802921,-0.07995282433410811,13.714000463485718
2.2056372709874514,0.2880325928996691,-1.0044119070826,-4.562295042118757,-0.7541734764525231,-1.270897261686293,-176.0760074995485,22.22891874910874,6.668806908212639,17.39465111679704,-158.77997333431927,61.70978834341116,128.7343853716337,56.09028902117465,-0.07997423796004943,13.727019786834717
2.2056032324181962,0.2880567312658938,-1.0043603099923135,-4.562329080688012,-0.7541493380862984,-1.2708456645960065,-175.99819063718,22.223406384570808,6.68566569837564,17.4026136856517,-158.7779997385164,61.71025829325841,128.73301266700736,56.0903907532397,-0.23473848876853554,13.749553918838501
2.2056208429559674,0.288024654608668,-1.004343482777527,-4.562311470150241,-0.7541814147435241,-1.27082883738122,-176.03545072174603,22.149452445823243,6.644191502071287,17.476246816483616,-158.77912704346843,61.711028809283384,128.73320284175188,56.09081851638071,-0.0517809932612141,13.772447347640991
2.205555548288671,0.28804511883851736,-1.004399123571403,-4.562376764817538,-0.7541609505136748,-1.2708844781750959,-175.99663193611877,22.200115644796963,6.665660181477218,17.428898844989163,-158.77935253977356,61.70911839634446,128.73348863432835,56.090261131720574,-0.03759837516143749,13.800038814544678
2.2056120339943326,0.2879855468128175,-1.0043897105407456,-4.5623202791118755,-0.7542205225393747,-1.2708750651444385,-176.0854125394645,22.198572927771547,6.6751482963940365,17.423487530311505,-158.7817899808894,61.71035960885979,128.734369897745,56.09090877230829,0.12183452961072438,13.810580968856812
2.205510768353087,0.28809047582299946,-1.0042528008194687,-4.562421544753121,-0.7541155935291927,-1.2707381554231616,-175.94482513996257,22.137985747739865,6.790006289988011,17.481628211145427,-158.7746979716765,61.71115916901667,128.73019631471448,56.090771781056915,-0.1454169829495049,13.88773250579834
2.205508916512697,0.28810654000996216,-1.0041176401392264,-4.562423396593511,-0.75409952934223,-1.2706029947429194,-175.90935897837488,22.067718270497362,6.759181367616054,17.551735153034556,-158.7714945885574,61.71365274661243,128.7277055417225,56.09149506037834,-0.1782405638644704,13.908344507217407
2.205473589145045,0.28818784916217977,-1.0041112411544562,-4.5624587239611625,-0.7540182201900123,-1.270596595758149,-175.84133029940068,22.291213051187064,6.813018583876728,17.32899118483767,-158.76771943885078,61.712752252534585,128.72645098129556,56.09072982930265,-0.042135284032640996,13.928964376449585
2.2054624543277583,0.2883346844149628,-1.0035236627486286,-4.56246985877845,-0.7538713849372293,-1.2700090173523215,-175.77986896381017,22.440636180458302,6.635198276019814,17.17459379536631,-158.7502487590144,61.72292408173002,128.71473680396969,56.09310401042531,-0.042068993820295386,13.954943656921387
2.2056054478133604,0.2885345349246923,-1.0016859059911911,-4.562326865292848,-0.7536715344274998,-1.268171260594884,-175.6272855892753,23.128990110641315,6.34033676489293,16.448097322163175,-158.70704609929763,61.75866431630021,128.68216587843676,56.10308969090528,-0.04212052942916111,13.9893798828125
2.2050149508391597,0.2890487646417015,-0.9962244808706332,-4.562917362267048,-0.7531573047104907,-1.262709835474326,-175.39419742444142,23.70946289266515,6.491196193577636,15.693884582360022,-158.5839680487738,61.85546679054519,128.57943846046425,56.13368278935696,-0.04037006640301666,14.034021377563477
2.20447735040356,0.2895173928557534,-0.9899764095507035,-4.5634549627026475,-0.7526886764964387,-1.2564617641543965,-175.6065677672058,23.786722192370885,6.3588695959960875,15.40877570926011,-158.44709906463697,61.96871564586473,128.4639081361212,56.16977334278883,-0.2919500887563471,14.067299127578735
2.2037477252398094,0.28980217661713525,-0.9848779139681951,-4.564184587866398,-0.7524038927350569,-1.251363268571888,-175.80949421402343,23.717621002018593,6.089471305796544,15.316202797929954,-158.33962774079828,62.05918050702257,128.36861819808428,56.20017383006277,-0.3696969693136567,14.09024453163147
2.203111011610412,0.2900817223502619,-0.9793756246423585,-4.564821301495797,-0.7521243470019302,-1.2458609792460515,-176.02122695522,23.575236180668185,6.132932593931637,15.266858945981227,-158.22360275244412,62.158664147687126,128.26687638129445,56.23317109871868,-0.4287929699820747,14.11247968673706
2.2017663310141553,0.29068243911469127,-0.9706198287762018,-4.566165982092053,-0.7515236302375008,-1.2371051833798947,-176.48108461783144,23.600470344037404,5.720551134710278,14.955227449909952,-158.0302887780666,62.312639657107816,128.1006404233567,56.283995438156275,0.14249637119102898,14.145222425460815
2.200777707446116,0.2910291738403491,-0.9644638933792303,-4.567154605660092,-0.751176895511843,-1.2309492479829234,-176.7247976925636,23.889271998277135,5.523159060129547,14.46433747553611,-157.89640310195693,62.421319831381695,127.98401718936653,56.32037353050741,-0.2114595200636309,14.167928457260132
2.1997508427953765,0.2913891122094672,-0.9589446653655884,-4.568181470310831,-0.7508169571427249,-1.2254300199692814,-176.91855677570538,23.921542503366837,5.204048991032881,14.260408135880244,-157.7732291939726,62.51710135481327,127.87778276841985,56.352420170461734,-0.20886689777838363,14.187862634658813
2.198082203288117,0.29173520445848644,-0.9523518965031316,-4.569850109818091,-0.7504708648937057,-1.2188372511068246,-177.10927433940105,23.833773621050643,5.177944765442368,14.128308602156928,-157.62966506089953,62.62812317342279,127.74869789647603,56.39146087644382,-0.20492565817607966,14.21272587776184
2.1962216773089205,0.2921929529046756,-0.945663995345125,-4.571710635797288,-0.7500131164475166,-1.2121493499488178,-177.00798520273503,23.194896654639713,5.207301597519649,14.55764546516463,-157.47772580661302,62.7384033735182,127.6152089478414,56.429859524525746,-0.20064669260394918,14.239497900009155
2.1955400189468097,0.2922326781716938,-0.9433929336061397,-4.572392294159399,-0.7499733911804983,-1.2098782882098327,-177.04204949109487,22.741277834994428,5.273663889077188,14.933371693005782,-157.4314018864015,62.776448985098426,127.57077924240052,56.44403741684948,-0.19906894333046932,14.24895453453064
2.1942706395253078,0.2926211067320899,-0.938780150857036,-4.573661673580901,-0.7495849626201022,-1.2052655054607289,-177.06015202943274,21.91026885906236,4.971117087666225,15.632159173625324,-157.3217248287284,62.85218581417675,127.47777313826376,56.469668940440116,-0.19616569591349142,14.269150257110596
2.1898473361943496,0.29375592593928657,-0.9263740594847556,-4.578084976911859,-0.7484501434129055,-1.1928594140884485,-177.3059481228097,20.989033721825834,5.085378587855721,16.13977448616776,-157.02061527290329,63.045815423831314,127.21957629462754,56.5373467588554,-0.5618426909142138,14.328453540802002
2.18796271965694,0.29441845710072173,-0.9214425375075527,-4.579969593449269,-0.7477876122514704,-1.1879278921112455,-177.02521904459095,20.538438737079634,5.200072225987092,16.443853148152666,-156.88923394480813,63.119845188129474,127.11358330616449,56.5619477799096,-0.5578251960526557,14.353780508041382
2.1862469469623256,0.29489478087887927,-0.9170025665719832,-4.5816853661438826,-0.7473112884733129,-1.1834879211756761,-176.98042072821139,20.269193850436675,5.388906672168886,16.563772892159523,-156.77592992403243,63.18750298914394,127.01925525570924,56.585234173700044,0.4123637627737571,14.37765908241272
2.1855920285591344,0.29520676732707185,-0.9151266333592372,-4.582340284547073,-0.7469993020251202,-1.18161198796293,-176.8785370593813,20.16220421614548,5.502622328122823,16.60983869616209,-156.72224692601418,63.21576659328166,126.97859919788148,56.59392791604993,0.4137587952027717,14.387328386306763
2.1840308495921903,0.29555407213967644,-0.9109716530451204,-4.583901463514017,-0.7466519972125156,-1.1774570076488133,-176.8997827029012,19.80548979109773,5.429835420697333,16.837765707716734,-156.61981058901463,63.2805339310442,126.89156030174092,56.61662173557136,0.4171513300940841,14.409732818603516
2.180422329969601,0.29665200229116334,-0.8997660812193922,-4.587509983136607,-0.7455540670610288,-1.166251435823085,-176.68770668136696,18.991536132464866,5.8513058382913385,17.27737519313931,-156.33057863767118,63.459865733397685,126.65840135071176,56.675894569654425,0.4251247529492397,14.469083309173584
2.176974690054335,0.2984783918546834,-0.8786251164812954,-4.590957623051874,-0.7437276774975088,-1.1451104710849882,-176.61075463512975,19.038983659667274,5.411222873023037,16.5582954052374,-155.7739947965454,63.8337351874944,126.24022863057642,56.78932803242021,-0.23232376545178113,14.57184100151062
2.176021961253536,0.2990708646080485,-0.8715163373430592,-4.591910351852672,-0.7431352047441436,-1.1380016919467522,-176.42317702987324,18.947079938485274,5.677376232503407,16.407238219479314,-155.5829282398696,63.96188006672353,126.1004837984489,56.82742192137893,0.16434384708593353,14.604090452194214
2.175776761084178,0.29941523774305656,-0.8619013053889252,-4.592155552022031,-0.7427908316091355,-1.1283866599926182,-176.5190432762254,18.65826686266106,5.603829599078502,16.366250581097475,-155.34131479853255,64.1496443927954,125.92232659907133,56.883537992676416,0.16596148288343393,14.646092176437378
2.1755945312548746,0.2998254769540943,-0.8571595802616436,-4.592337781851334,-0.7423805923980978,-1.1236449348653366,-176.54557124561498,18.74796993813503,5.62783553204659,16.11108040618561,-155.20866775477052,64.23935264484251,125.83123592984265,56.90866355575248,0.1668012517981814,14.666216850280762
2.175638476361996,0.30002605516794073,-0.8517698883556551,-4.592293836744212,-0.7421800141842514,-1.1182552429593482,-176.68231695667927,18.872166287284486,5.500189323953815,15.800566493640687,-155.0694613608334,64.34632498343338,125.73191552248,56.939919899431445,-0.12353574208106721,14.688912391662598
2.1758763728702313,0.30021998082152973,-0.8468489944836184,-4.592055940235977,-0.7419860885306624,-1.1133343490873113,-177.04973555976005,18.705104973893878,5.49613896390915,15.77249521129259,-154.94019050816257,64.44574303978737,125.64213806384254,56.96832564511392,-0.12341172466483963,14.708871841430664
2.1757884803823306,0.3004925171768207,-0.8412084727795434,-4.5921438327238775,-0.7417135521753714,-1.1076938273832362,-177.03458060146164,18.67463233015029,5.649557355661531,15.598329903170292,-154.78895579868254,64.55589500022013,125.53624810682136,57.00024634441974,-0.12260967947502133,14.73182225227356
2.1759003774719266,0.3007236468531825,-0.8330459990129602,-4.592031935634282,-0.7414824224990096,-1.099531353616653,-176.60658539144893,18.562550282779274,5.761793236268391,15.450256430859538,-154.57525111785802,64.71921365699163,125.38580739822751,57.04803758304138,-0.2579247299933387,14.763611793518066
2.176100933301333,0.3009094175966976,-0.8272488158046972,-4.5918313798048755,-0.7412966517554945,-1.0937341704083903,-176.34330588943268,18.553405787480813,5.8158595461117955,15.271157882654371,-154.42018172947553,64.83612965182616,125.2791534180981,57.0816968337983,-0.4781497151598777,14.78581166267395
2.176244970841858,0.3009644753497121,-0.8219600808909845,-4.5916873422643505,-0.74124159400248,-1.0884454354946775,-176.41347536046538,18.46618516406528,5.7409680350336725,15.174852570551119,-154.2833331968858,64.94363903829534,125.1826155847067,57.113515966731434,-0.47778666450901675,14.806090831756592
2.176856319237575,0.3010548636800519,-0.8160264196064082,-4.591075993868634,-0.7411512056721402,-1.0825117742101011,-176.57723814241874,18.49517349135208,5.49908670230981,14.941622803182225,-154.12565916881147,65.06804970608927,125.07646300228659,57.14895559394931,-0.39848389660270866,14.828225135803223
2.1772661952659615,0.30111925296964975,-0.8063494284525616,-4.590666117840247,-0.7410868163825424,-1.0728347830562546,-176.38726699848675,18.27783347120178,5.647228654509594,14.823496585658031,-153.87067179241498,65.2665495668079,124.90006185319469,57.20733451214935,-0.5576310784275686,14.863436937332153
2.177769942579558,0.3011053670751233,-0.7990996040428214,-4.5901623705266505,-0.7411007022770688,-1.0655849586465143,-176.31887600228754,18.257207953577378,5.736611350556405,14.58827587479321,-153.67946691901764,65.41770856099338,124.76926225478802,57.25164549151788,-0.5577184015904622,14.88965630531311
2.178176679030954,0.3010865781216806,-0.7934724183168937,-4.589755634075254,-0.7411194912305116,-1.0599577729205867,-176.3569772162116,18.244434885564377,5.617356659331762,14.407987071830787,-153.52968564537667,65.53527090745708,124.66762160694009,57.28605936104357,-0.5437458118265197,14.909842729568481
2.178563219063627,0.3010721511768187,-0.7875397798665329,-4.589369094042581,-0.7411339181753734,-1.0540251344702258,-176.32718785459622,18.166868249304468,5.622533915388676,14.278331668707777,-153.36990765280908,65.65879063285402,124.55987116651856,57.32220971936341,-0.5907001945846546,14.930046796798706
2.1802299460861208,0.3009283177481089,-0.7658582735355763,-4.587702367020087,-0.7412777516040832,-1.0323436281392693,-176.4515935999438,17.903366931626554,5.771260668839095,13.758552313477283,-152.77510317663405,66.11340480796713,124.16610685850164,57.45478756557517,0.08426214825834455,15.004103183746338
2.1805983595788985,0.300798418427229,-0.7588063010333861,-4.58733395352731,-0.7414076509249631,-1.025291655637079,-176.33833005126857,17.713813631498706,5.924521075361182,13.696501507674153,-152.58131154160125,66.26066968013329,124.03704528182787,57.4985255043614,0.056232218587002336,15.027974128723145
2.1809155304754553,0.3006618980301917,-0.7530033892719155,-4.587016782630752,-0.7415441713220003,-1.0194887438756084,-176.29045271780262,17.669179864753914,6.015900896190691,13.533014866090841,-152.42146175875274,66.3823041831495,123.93093232171879,57.53475776453361,0.05630578851181278,15.047921895980835
2.1813838840877913,0.30042777815786575,-0.7463164901804675,-4.586548429018417,-0.7417782911943264,-1.0128018447841605,-176.08875398494598,17.391845533542835,5.948205020122939,13.591807866403501,-152.238976073545,66.52420350106102,123.80972558292498,57.57727008142611,0.056208292472139654,15.070642471313477
2.181790225684357,0.3003255253974181,-0.7399724565147014,-4.586142087421852,-0.741880543954774,-1.0064578111183944,-176.2223450135475,17.308972700242954,5.899154873931455,13.444120116834076,-152.05719533951134,66.65714896210457,123.69289680556828,57.61625472331122,-0.009539455889549853,15.092923641204834
2.181971742398417,0.300266710342059,-0.7363060401335471,-4.585960570707791,-0.7419393590101331,-1.00279139473724,-176.21532732500174,17.21881340969149,5.89420325991552,13.405174032072804,-151.95124071060076,66.73352152993142,123.62490883885302,57.63872454169392,-0.009478170881471293,15.105401039123535
2.182383147708968,0.2999714383904327,-0.7305338755096409,-4.58554916539724,-0.7422346309617593,-0.9970192301133338,-176.25802005362618,17.007381294354392,5.82756037549514,13.413350870441176,-151.79376277531705,66.85710927939641,123.52051826747784,57.676222463806894,0.1827935626114403,15.1256263256073
2.182696673897794,0.2998079947159337,-0.7234532732162011,-4.585235639208414,-0.7423980746362584,-0.9899386278198941,-176.2297496146364,16.91315154058201,5.88942213098175,13.254206216182586,-151.58760005255516,67.00483718639737,123.38887003647407,57.719966046445926,-0.042224109250216024,15.150001287460327
2.18299877679563,0.2996293407159546,-0.7173461687208436,-4.584933536310578,-0.7425767286362375,-0.9838315233245365,-176.24239027722274,16.792997898229412,5.87192282220006,13.157763236422548,-151.40949502509693,67.13293311253769,123.275567868222,57.75802163044395,-0.3283180206377865,15.170871257781982
2.1832146581734646,0.2994872765856075,-0.7109933293636701,-4.584717654932743,-0.7427187927665846,-0.977478683967363,-176.0903564441662,16.549777205021808,5.888019137575188,13.184571561217199,-151.21974325835498,67.26484512226484,123.15634660997866,57.79702131503815,0.04729778897052306,15.192423582077026
2.183394340837413,0.2993436794054811,-0.7070999093631398,-4.584537972268795,-0.7428623899467109,-0.9735852639668328,-176.0626649709171,16.3411503634073,5.883480337037084,13.25686523861237,-151.10531836452836,67.34672589143558,123.08398193896393,57.82149712679157,-0.1543577897036319,15.205579996109009
2.183599675734025,0.299195368350367,-0.700399142238507,-4.584332637372183,-0.7430107010018252,-0.9668844968421999,-175.95251013271658,16.170564309704027,5.890552439913509,13.195776627161287,-150.90100249513674,67.48561730812966,122.95750810175664,57.862455257779246,-0.20564909637422524,15.228095293045044
2.1838748790484472,0.2989770544731254,-0.6941763996474022,-4.584057434057761,-0.7432290148790668,-0.9606617542510951,-175.97287982467589,16.098994600348547,5.929165849583491,13.042036205384905,-150.7131535262647,67.61620513679206,122.84105257810889,57.90129488497884,-0.36502004795306053,15.248847723007202
2.1840316692755475,0.29877606421805203,-0.6833850867338029,-4.583900643830661,-0.74343000513414,-0.9498704413374959,-175.94411499593826,15.74784523900948,5.936962566888393,13.01062842297048,-150.37247139875439,67.83789115631367,122.63464522154938,57.96641014806527,-0.4205193210510223,15.285556077957153
2.184316632268649,0.2985605693307771,-0.6767956117985643,-4.58361568083756,-0.743645500021415,-0.9432809664022572,-175.81805445699965,15.392662788332773,6.12562332832266,13.126247284844727,-150.16561277300167,67.97581811143293,122.51018286336546,58.007119390314344,-0.542362558816889,15.307852983474731
2.184557035452199,0.29852491322966174,-0.6705561719707934,-4.583375277654009,-0.7436811561225304,-0.9370415265744864,-175.89759681613816,15.179776065438965,6.089090251828544,13.112697974954326,-149.95758267394586,68.10407433900279,122.39008106313432,58.043776329447574,-0.5422276099550363,15.328644275665283
2.1847472516429063,0.2983657401061734,-0.6631187316275224,-4.583185061463301,-0.7438403292460187,-0.9296040862312154,-175.91756361575767,15.064945220138107,6.06782350538789,12.961560784091086,-149.7131590328169,68.25752722154097,122.24716339371021,58.088538857290715,-0.41987322908847213,15.353297233581543
2.184907710715861,0.29824000206869,-0.6600278206862582,-4.583024602390347,-0.7439660672835021,-0.9265131752899511,-175.97693108130366,15.040344336058956,6.02183548564807,12.87433571680982,-149.61372732286216,68.32264132940122,122.18871082740633,58.10778238942908,-0.4198623807344255,15.363632678985596
2.1851061927091724,0.2981303054510759,-0.6502684413051544,-4.582826120397035,-0.7440757639011162,-0.9167537959088473,-175.9848964020614,14.618642178445546,6.02521276618663,12.945316027227367,-149.27963187252203,68.52215602985757,121.99891828941911,58.16516825763158,-0.4193324930500433,15.396023035049438
2.18515389124493,0.29805731060606494,-0.6467936623639668,-4.582778421861278,-0.7441487587461272,-0.9132790169676598,-175.8692679498747,14.729139057950606,6.026791626178859,12.718237352077297,-149.16110250121145,68.59338841347038,121.931376790571,58.185892154716804,-0.4190946590327065,15.407341480255127
2.185273070979778,0.297956833493384,-0.6389925536994084,-4.58265924212643,-0.7442492358588082,-0.9054779083031014,-175.71337716929864,14.607978801623215,6.009559972162352,12.57065382811774,-148.88812945898997,68.75250367121309,121.77879654877582,58.231641828401756,-0.5922061556409295,15.432473182678223
2.1855418530418613,0.29780728934446576,-0.635204974611647,-4.582390460064347,-0.7443987800077264,-0.90169032921534,-175.7164249226246,14.511884134728097,6.115703436807992,12.523011495178816,-148.75939904543543,68.83258013878634,121.70674777588846,58.25500418699961,-0.5079003351930433,15.444871187210083
2.185897767080722,0.29779759802732275,-0.6281591372038502,-4.582034546025486,-0.7444084713248693,-0.8946444918075431,-175.88380365068633,14.36124285371762,6.11746694341246,12.407105485871895,-148.50169573583926,68.97690408102986,121.56883528562157,58.295421074783896,-0.5079801968150455,15.467292547225952
2.1861135442691615,0.2977222354630179,-0.6220365626039718,-4.581818768837047,-0.7444838338891742,-0.8885219172076647,-175.96820814406684,14.134351064137391,6.06578885284174,12.410479981826994,-148.27891641257318,69.10232647142595,121.4488270893641,58.33110069536514,-0.5078591988517966,15.487115859985352
2.1862648950068975,0.2974893085646582,-0.6149424960509626,-4.581667418099311,-0.7447167607875339,-0.8814278506546556,-176.19051895272685,13.875667767745043,6.065664721889857,12.395672138754398,-148.0261355118339,69.24865029330633,121.31033132881268,58.373821405604325,-0.5074971438543932,15.509784460067749
2.186704877763875,0.297319329266524,-0.597340279272022,-4.581227435342333,-0.7448867400856681,-0.863825633875715,-176.17968923438985,13.628314668438263,6.071775121025567,12.005888275866496,-147.35747012091795,69.60610289944225,120.96108313145946,58.47494595595657,-0.5068852508372808,15.564088582992554
2.186839496159653,0.29734943901940175,-0.5900649604128303,-4.581092816946556,-0.7448566303327904,-0.8565503150165232,-176.23971793046832,13.552805806391087,6.046127880012817,11.8142139592788,-147.0678189239957,69.75177970299586,120.8147159257442,58.515396489106514,-0.1781656365884392,15.586765766143799
2.1869655892900886,0.2972917587403321,-0.5836750049922703,-4.58096672381612,-0.74491431061186,-0.8501603595959633,-176.3460244914761,13.20663936403055,6.00629127768188,11.922211628089762,-146.81482410737786,69.88070796875078,120.68670051745629,58.551718866503464,0.04729909863707649,15.606670618057251
2.186878242547602,0.2970867668106294,-0.5763534015258731,-4.581054070558606,-0.7451193025415627,-0.842838756129566,-176.14659056292328,12.97958693469911,6.116930211904047,11.892295197038237,-146.52973360868816,70.02844576765294,120.53976351596424,58.59453156217554,-0.08798725031040355,15.629414558410645
2.187017282125866,0.29705815980956873,-0.5690741339698548,-4.580915030980342,-0.7451479095426234,-0.8355594885735478,-175.94383090514117,12.915616264556359,6.212806816794674,11.70057309750156,-146.23045971558878,70.1742995010378,120.39269332060205,58.635229267914895,-0.08771423413893187,15.652116298675537
2.1870713557218484,0.29706977151461955,-0.5605756174765897,-4.58086095738436,-0.7451362978375725,-0.8270609720802826,-175.84183286249223,12.610992785941402,6.2778396407932835,11.698825751549723,-145.87260223427913,70.34283513775318,120.21941623962125,58.681992185100114,-0.08721347880578012,15.679132223129272
2.187271947241266,0.29686729800740114,-0.5566780911086713,-4.580660365864942,-0.745338771344791,-0.8231634457123642,-176.0160314908358,12.656247108485418,6.156735693478241,11.506765552722685,-145.71867557537595,70.42410880389203,120.14276918385856,58.70575446289598,-0.08726865140224804,15.691996335983276
2.1873876041161386,0.29678566624804353,-0.5504381333646908,-4.58054470899007,-0.7454204031041486,-0.8169234879683838,-175.93021146281666,12.444924472257906,6.20351194632425,11.493782608867354,-145.45492562985032,70.54924601437297,120.01627210722116,58.74093248793771,-0.3263166100809629,15.711926221847534
2.1874323460078586,0.296773368465667,-0.5436369692431818,-4.5804999670983495,-0.7454327008865251,-0.8101223238468748,-175.7816434219021,12.288764399132795,6.3362853457093,11.402936630461646,-145.15877867825324,70.68373180622562,119.87684293103298,58.778256683338505,-0.09604167428102262,15.733977794647217
2.187558216791841,0.2966497555744093,-0.5398062900026206,-4.580374096314367,-0.7455563137777828,-0.8062916446063135,-175.73596304149444,12.134608516325681,6.369977073597957,11.418103776213076,-144.99706286170309,70.76169556195892,119.79983683136483,58.80056840248333,-0.38219121863197625,15.746623992919922
2.1877139324797765,0.29663896281018126,-0.5335988178126296,-4.580218380626431,-0.7455671065420109,-0.8000841724163226,-175.73926162351586,12.02244610655806,6.3122863427811735,11.307564011519803,-144.72033781036944,70.88479863093518,119.67265465646206,58.83454361209282,-0.3820817397446725,15.76694393157959
2.1880014648538473,0.29642852949582166,-0.5230852345404259,-4.579930848252361,-0.7457775398563705,-0.7895705891441188,-175.86936947263928,11.745809138070248,6.194858171814742,11.197853009112881,-144.25503528631094,71.09561279489311,119.45855263404648,58.89395119576086,-0.3819059026964484,15.801193475723267
2.188605757787413,0.2957545025870712,-0.497114674923419,-4.579326555318795,-0.7464515667651209,-0.7636000295271119,-175.85447476316472,11.188506110515336,6.272352560737077,10.79588599216252,-143.06790482117438,71.61452843452135,118.92671259141748,59.040975783195904,-0.49392697421125753,15.88742733001709
2.1890591737670957,0.2953045564657416,-0.4845799576007823,-4.578873139339112,-0.7469015128864506,-0.7510653122044753,-175.93041161280314,10.904802650091275,6.181914125127177,10.619344113606378,-142.47713006448342,71.86601392685577,118.67004077987973,59.11277062791565,-0.27815582771250913,15.929821729660034
2.1891917060700807,0.2949786205954275,-0.47861478904009225,-4.578740607036128,-0.7472274487567646,-0.7451001436437852,-175.91981675257156,10.835375086682891,6.2220757087287275,10.46651365801044,-142.19736397511085,71.98642256619539,118.54809274563011,59.14793188145256,-0.7330990877180117,15.949837446212769
2.1893573876603,0.2947769315158059,-0.472611881784902,-4.578574925445908,-0.7474291378363862,-0.7390972363885949,-175.85865523301766,10.639365600430615,6.197040982035087,10.449571874685466,-141.90362754359595,72.1055572412149,118.42400346405566,59.181860429368484,-0.59698616848946,15.970298051834106
2.189734085505532,0.29413665719302545,-0.46231393930017073,-4.578198227600676,-0.7480694121591667,-0.7287992939038637,-176.20865374638984,10.367746125154923,5.910445329444784,10.335464162539017,-141.40901356291295,72.31432973046357,118.21372329244483,59.2431465580878,-0.21697764635924477,16.005213022232056
2.1898604172033425,0.29392547586653517,-0.4558014792188817,-4.578071895902865,-0.748280593485657,-0.7222868338225746,-176.07244059800271,10.296019321040582,6.0409552979044125,10.167195513403666,-141.07758173006522,72.4421504398874,118.07784686257646,59.27951350512677,-0.1886932377650048,16.027050018310547
2.190071850331257,0.2935692612100385,-0.4478786598200821,-4.577860462774951,-0.7486368081421536,-0.7143640144237751,-176.03933892881025,10.149754191589988,6.12274779242142,10.01558959073455,-140.67388983725766,72.59900890202574,117.91330437385554,59.32473844136029,-0.7844807257265649,16.05369210243225
2.190066196109256,0.29348605564570507,-0.44510889560976097,-4.577866116996952,-0.7487200137064871,-0.7115942502134539,-176.03915474092446,10.065633304400988,6.118445351318534,9.997820742009436,-140.52845711093957,72.65256320500447,117.85487020580914,59.339971174336846,-0.7843178041707835,16.063570976257324
2.190118429675044,0.29318189609042855,-0.4389671034466053,-4.577813883431164,-0.7490241732617635,-0.7054524580502982,-175.96547228116611,9.975093662104372,6.193144728083247,9.8613685208049,-140.21028153069875,72.77334187544186,117.72653263540661,59.375049721019195,-0.7840539614093789,16.083792209625244
2.1901459359222306,0.292827115549366,-0.43147787565885176,-4.577786377183978,-0.7493789538028262,-0.6979632302625447,-175.92935535690467,9.916582966774502,6.15485130937193,9.651013119304922,-139.8149707594242,72.91962845544977,117.56928292774496,59.417456759230646,-2.608773730084178,16.10908317565918
2.190113329862578,0.29245015395420304,-0.41848475800538365,-4.57781898324363,-0.7497559153979891,-0.6849701126090766,-175.9370018633279,9.574701732743419,6.10998216492996,9.515471743212718,-139.09655730060405,73.16760862942319,117.29271895869873,59.4879017982548,-0.6375217172379006,16.15159821510315
2.1900454690755478,0.2922365063650368,-0.4121072025716852,-4.577886844030661,-0.7499695629871553,-0.6785925571753781,-175.98741508892772,9.376838536605648,6.033700073803562,9.47978485710345,-138.73779429376845,73.2887762373345,117.15649379537224,59.52254638990001,-0.6370766744476528,16.17238998413086
2.190050438251968,0.2921657641658353,-0.4079407327306762,-4.57788187485424,-0.7500403051863569,-0.6744260873343692,-175.94480063658474,9.234286205245786,6.040378762686903,9.471306965195534,-138.49577907284055,73.36679848985962,117.06690542480071,59.54439983837011,-0.392935059087399,16.185364484786987
2.189983845032248,0.2920958004840616,-0.40130144232498544,-4.57794846807396,-0.7501102688681305,-0.6677867969286784,-175.98897949833324,9.132335854259688,5.958829986910562,9.330348520986757,-138.1025323162873,73.48951150559128,116.9231067153097,59.578553138543896,-0.3925393948288969,16.20642876625061
2.1900215622221406,0.29185428892188087,-0.39482677733441973,-4.577910750884068,-0.7503517804303113,-0.6613121319381127,-176.22066156789924,8.993820036568172,5.753787944576708,9.225562798979366,-137.72439964279235,73.61210926049165,116.78464408217866,59.61375582282336,-0.3923130460856279,16.22640609741211
2.189831861696232,0.29178275012866806,-0.3874145650423608,-4.578100451409976,-0.7504233192235241,-0.6538999196460538,-176.26399227194526,8.671180009914949,5.66977161332701,9.276767274829755,-137.27109475378646,73.74697441902008,116.62271479026924,59.651356663056404,-0.39166995228653967,16.249355792999268
2.189680782883468,0.2917231881927722,-0.38085912075600703,-4.57825153022274,-0.75048288115942,-0.6473444753597,-176.06899619812452,8.500808051245073,5.855898590940237,9.20392469375595,-136.86327577272354,73.86560887796276,116.4791950486101,59.68443333211605,-0.3911448570320011,16.269556283950806
2.1889074094296097,0.29216690871982953,-0.3557530751051329,-4.579024903676599,-0.7500391606323625,-0.6222384297088258,-176.14941441370758,7.439415079004703,5.843731819989319,9.3179599049447,-135.197484416082,74.3006995761833,115.91946921216609,59.802019805084925,-0.44064479633536724,16.348650217056274
2.1884407018005483,0.2924959823623287,-0.34186236130947945,-4.579491611305659,-0.7497100869898634,-0.6083477159131724,-175.92739641202462,7.350934811126284,5.999553934928531,8.892586243550959,-134.22831095414602,74.53482493772185,115.60688751272342,59.86512654024247,-0.1955137425391844,16.394246578216553
2.1883411367816192,0.2924790587852966,-0.3390723361575778,-4.579591176324589,-0.7497270105668955,-0.6055576907612708,-175.84190345185573,7.234447417189601,6.172199171582983,8.893980942594027,-134.03546267631833,74.58288345647341,115.54466599583041,59.878639240254245,-0.5612082121711812,16.403825759887695
2.187943731450007,0.2928136164849034,-0.3287329844557,-4.579988581656201,-0.7493924528672887,-0.5952183390593929,-175.97508022163822,6.7254202508075025,5.958425539782709,9.023486058196797,-133.28335717357837,74.75220595971251,115.30987496594122,59.92398373008458,-0.3491781640698912,16.438966751098633
2.1878289867831517,0.2929427991992929,-0.3257259089269908,-4.580103326323056,-0.7492632701528993,-0.5922112635306838,-175.97630528893092,6.532176523742982,5.944161089514172,9.104855486783713,-133.05919952225298,74.8004393332295,115.24116666136221,59.93674020430425,-0.3489316129385629,16.449381113052368
2.1876315946252882,0.2932007359634849,-0.319462212878159,-4.58030071848092,-0.7490053333887072,-0.585947567481852,-175.985599435456,6.389217121899593,5.962604151889759,9.007815689287556,-132.58812591404205,74.90067864772047,115.09813162635658,59.96337825563046,-0.3485028533025769,16.47116231918335
2.1875694009558297,0.2932282158761359,-0.3157652132704527,-4.580362912150378,-0.7489778534760563,-0.5822505678741456,-176.09687196891107,6.345585708418123,5.885443682082115,8.907787636357082,-132.3151597330285,74.96204181431729,115.01493273559188,59.980499738267824,-0.17003697916743965,16.4839129447937
2.187349330680574,0.29361522798325757,-0.30867273987363697,-4.580582982425635,-0.7485908413689346,-0.5751580944773299,-176.3011312665463,6.09178593719866,5.805612324535128,8.875927227487455,-131.76308994591994,75.07208574373406,114.85163133779601,60.00932352183701,-0.16960249827945173,16.509113550186157
2.1869443912328324,0.29384425678350784,-0.29183169618193094,-4.580987921873375,-0.7483618125686843,-0.5583170507856239,-176.1644876205424,5.716158313781531,5.897344562350304,8.620830919625297,-130.46275435210063,75.34233686744912,114.46910867441986,60.08491625936034,-0.16864571667220307,16.567030429840088
2.186797240958759,0.294128596092397,-0.2857343954231545,-4.5811350721474495,-0.7480774732597951,-0.5522197500268474,-176.120824614513,5.639154338932746,5.850058786054852,8.47887383601017,-129.96651201989917,75.43456784424049,114.32834757840095,60.109752006822376,-0.16837296823158665,16.588008165359497
2.18649995633156,0.2943301826266845,-0.2754304262232523,-4.5814323567746476,-0.7478758867255076,-0.5419157808269452,-176.13057509895398,5.394478490370446,5.869469923972731,8.328730325439974,-129.13110843092156,75.59347477216606,114.0921379708092,60.15448458453013,-1.2468599771241458,16.622804641723633
2.1863647922088028,0.2944640703988598,-0.2693953347879212,-4.581567520897405,-0.7477419989533324,-0.5358806893916142,-175.9583170305634,5.251316618852706,6.041876480873724,8.242639387306086,-128.63180784121133,75.68512599439451,113.95346813274254,60.180369639297595,-0.5615924674726935,16.643005847930908
2.1862969395146847,0.2946107498596488,-0.26327879090288475,-4.581635373591523,-0.7475953194925433,-0.5297641455065777,-175.9176861302935,5.044971748757888,6.11666115743236,8.21118430279854,-128.11818485906366,75.77710263303977,113.81285340053998,60.20642970766083,-0.44417236291983286,16.663023710250854
2.1862058692528663,0.29455823004252163,-0.25645036789785813,-4.581726443853342,-0.7476478393096705,-0.5229357225015511,-175.7563826372863,4.785037122413272,6.224908947681532,8.220301503151713,-127.55049769685046,75.88286073900183,113.6573638551159,60.237784500390326,-0.14367554419489625,16.685221433639526
2.1861165247572663,0.2946453434552985,-0.24412596928710684,-4.581815788348941,-0.7475607258968936,-0.5106113238907998,-175.82274259720774,4.49841240624031,6.108582600865134,8.046073998236855,-126.49197372360466,76.06709913802435,113.3746049840256,60.29197414946186,-0.14349949119246297,16.724493741989136
2.18605209949275,0.2945456221813741,-0.2379955581828398,-4.5818802136134575,-0.747660447170818,-0.5044809127865327,-175.7955139603724,4.424536286542656,6.183896127110438,7.879868967075266,-125.96372281952415,76.15997146844953,113.23468690483448,60.32031311772224,-0.1433438799184814,16.74423885345459
2.186096375172153,0.29454689826627833,-0.23108457684188555,-4.581835937934056,-0.7476591710859138,-0.4975699314455785,-175.91839084357787,4.292787825756881,6.057597375013275,7.749108669795517,-125.35223288066129,76.26149970882085,113.07611196637333,60.35096072021719,0.2600493281235545,16.766257762908936
2.1861346762481686,0.2945133600952084,-0.22452356720674582,-4.58179763685804,-0.7476927092569837,-0.49100892181043876,-175.89468150069484,4.24991966634053,6.051048325713641,7.547246144472165,-124.7653146974493,76.35724555735725,112.92552136350605,60.3802810527298,-0.4907189649759989,16.78698229789734
2.186141909480231,0.29424712506840917,-0.21816368166206856,-4.581790403625978,-0.747958944283783,-0.4846490362657615,-175.84885830484683,4.008770096558546,6.076383983775883,7.5509826096184565,-124.20272634660955,76.45360053387283,112.78109018250825,60.41116814060545,-0.5798283688974695,16.807026386260986
2.1862169683917867,0.2941703193942747,-0.2110587709678331,-4.581715344714421,-0.7480357499579174,-0.47754412557152603,-175.92657145930747,3.685181464915662,5.942244804038777,7.613701008827666,-123.55105905633644,76.55536821037546,112.61778183001744,60.44307782815817,-0.29380030027396353,16.82895064353943
2.1863070442654,0.29390938955637136,-0.20384178154871646,-4.581625268840808,-0.7482966797958207,-0.4703271361524094,-176.05546164078976,3.501038690772113,5.839276099687818,7.519937567951272,-122.88983911407223,76.66105311338154,112.45308331902721,60.4774034135084,-0.5566973555517936,16.851624011993408
2.1863164115209344,0.29378461859990523,-0.20041555819640033,-4.581615901585274,-0.7484214507522869,-0.46690091280009327,-176.09174051019693,3.4066871757363586,5.815980046370854,7.482120958214589,-122.57228342270115,76.71052145381518,112.37463599560536,60.493594749078866,-0.4675671995530406,16.8621723651886
