dx1,dy1,dz1,dx2,dy2,dz2,azm1_cf,ele1_cf,azm2_cf,ele2_cf,azm1_an,ele1_an,azm2_an,ele2_an,tdoa_bias,time
-0.8259891801361141,3.647628146294679,-0.1254885850908436,-2.3426753988040874,-2.5689058905306537,-2.787646456648192,-78.38109456282274,4.405672988263051,49.69895931090507,39.593767163169716,116.98169473004842,82.24096200763432,84.86354812634394,65.05757654032357,0.0808013456949972,3.020003318786621
-0.8259641989006754,3.647592912659702,-0.12554135847149295,-2.3426504175686484,-2.568941124165631,-2.7876992300288412,-78.44730914304581,4.332821610792859,49.59092014300841,39.64649404608939,116.9862156155017,82.24034752800817,84.86489532476034,65.05715349214039,5.162059840232662,3.0350468158721924
-0.8259968439195211,3.6476181093619733,-0.12545962304570235,-2.3426830625874944,-2.5689159274633595,-2.787617494603051,-78.49268070978937,4.2730253529723665,49.55561606356767,39.748328891164476,116.97934552170368,82.24129992230114,84.86352760197583,65.05796840270006,5.044688486549044,3.0618088245391846
-0.8259437893646044,3.6475385416351953,-0.12552491970633245,-2.3426300080325775,-2.5689954951901375,-2.787682791263681,-78.54182479471919,4.224124911508727,49.4789361681694,39.78348640855881,116.9843432889173,82.2403456274444,84.86641739645837,65.05756890902893,5.101135508673806,3.073878765106201
-0.82602778493104,3.6477423165456404,-0.1255289586289958,-2.342714003599013,-2.5687917202796924,-2.7876868301863444,-78.38239759960167,4.279404958663219,49.616585000079105,39.67760000842909,116.98599297491708,82.24086752488971,84.86045902472246,65.05662486464847,8.037891559416465,3.1002843379974365
-0.8260083277789787,3.64762354014882,-0.125445185741207,-2.3426945464469515,-2.5689104966765126,-2.7876030572985555,-78.19943945076722,4.316966728409663,49.86488866204678,39.7042220639556,116.97841112876507,82.24154104415322,84.86313383368443,65.05813380990203,8.038020277807588,3.1283905506134033
-0.8258731193232147,3.6476210215693854,-0.1254889793393403,-2.3425593379911875,-2.5689130152559474,-2.7876468508966887,-78.35243052854469,4.32338558044703,49.696342247663004,39.670505856744526,116.9758736733857,82.2394442103192,84.86638586153724,65.05705460886475,8.038008876060449,3.143430709838867
-0.825941115895322,3.6476440274100006,-0.12544815717014637,-2.342627334563295,-2.568890009415332,-2.787606028727495,-78.44548462661439,4.327771895259916,49.59256594605304,39.650970820203916,116.97494293581286,82.24057468243302,84.86429639633367,65.05764567476201,8.0379697583183,3.1557235717773438
-0.8259535800845932,3.6477012256369896,-0.12546720036429743,-2.3426397987525664,-2.568832811188343,-2.7876250719216458,-78.38971662444001,4.278785983867863,49.53651174696749,39.57531567234375,116.97662455096443,82.24044501567595,84.86290687999436,65.05714735070119,5.096160361817924,3.179621458053589
-0.8259476948779174,3.647644979866816,-0.1254573379588846,-2.3426339135458907,-2.568889056958517,-2.787615209516233,-78.36993141772518,4.124159799510575,49.526163577526724,39.76508609550669,116.97618445725035,82.2405928033451,84.86413746371754,65.05757956723231,5.185383254348412,3.19193172454834
-0.8260503101016516,3.647669517838841,-0.12542130981520794,-2.342736528769625,-2.5688645189864916,-2.7875791813725566,-78.12499028306678,4.274693091801344,49.84183949366087,39.63769846393674,116.97749008700697,82.242142163479,84.86121990420881,65.05828089242692,5.157204597713512,3.2180981636047363
-0.8260652860436191,3.6475855434511386,-0.12553876694372204,-2.3427515047115923,-2.568948493374194,-2.7876966385010706,-78.17646511632144,4.285700281092299,49.83954846352788,39.69025410391841,116.9912679905364,82.24172288706785,84.86268790806841,65.0577179449326,5.157408964275458,3.233471155166626
-0.8261343324924364,3.6476470260221894,-0.12548368408282617,-2.3428205511604094,-2.5688870108031434,-2.7876415556401746,-78.16669179228509,4.332681144221925,49.8555746810465,39.63007446997977,116.98838683610028,82.24286455275113,84.85979664285165,65.05820917384665,5.157302038514884,3.2607579231262207
-0.8260971495782565,3.6477161633378374,-0.12546122120143277,-2.34278336824623,-2.5688178734874954,-2.7876190927587814,-78.17501448121895,4.33026573613739,49.84698485737114,39.63244672272748,116.98318522203056,82.24234529819262,84.85926829296551,65.05780847045803,8.014454223256616,3.2740533351898193
-0.8260315325872927,3.6477109028271792,-0.1254780611367638,-2.3427177512552655,-2.5688231339981535,-2.7876359326941125,-78.2297260413052,4.329809510156919,49.845729935750015,39.70307819453869,116.98157271468772,82.24137069404485,84.86091996945514,65.05735497063353,5.18531883073891,3.2982895374298096
-0.8260030130576661,3.6476772431020863,-0.1254837519151767,-2.342689231725639,-2.5688567937232465,-2.787641623472525,-78.25518761550886,4.43419420342627,49.85233525608685,39.58916955258271,116.98118249000234,82.24104498022685,84.86225330376261,65.05737611230313,5.218208351573541,3.337942361831665
-0.8259849456893158,3.6476114850353967,-0.12551064644303384,-2.342671164357289,-2.568922551789936,-2.787668518000382,-78.35089265056186,4.383189809481863,49.72166011777273,39.61747985894225,116.98393319968757,82.24079252856532,84.86400509086123,65.05744228833481,5.035341662224564,3.3897857666015625
-0.8260376164677055,3.647656339186952,-0.1255185155360196,-2.3427238351356783,-2.568877697638381,-2.787676387093368,-78.21747787019517,4.380146121863383,49.847430085942804,39.614461595877806,116.9867521484675,82.24130892506716,84.8619089225181,65.05733063706137,5.0352928051145245,3.414125442504883
-0.8258929770325152,3.6475830866075496,-0.12555751902447107,-2.3425791957004884,-2.568950950217783,-2.7877153905818197,-78.42775268208894,4.423249476295174,49.68881168313659,39.61464843710724,116.98431592740125,82.23931622419182,84.86676606366845,65.05670889174668,5.0353854164267045,3.4384617805480957
-0.8258679254814392,3.6475282120625856,-0.1255115383647295,-2.342554144149412,-2.569005824762747,-2.787669409922078,-78.56777333495175,4.394206160529234,49.51364117280664,39.607754637462314,116.97926054061887,82.23946752906872,84.86836512762103,65.057400811194,5.068278315231947,3.453542470932007
-0.825990570736219,3.647671075242988,-0.12548502756481178,-2.3426767894041918,-2.5688629615823446,-2.7876428991221602,-78.25385379903194,4.37724974626594,49.8304135145059,39.64235742162041,116.98076312728786,82.24088820589414,84.86266563868186,65.05734259784042,5.138454805247653,3.4772932529449463
-0.8259204531506301,3.6476467644699087,-0.12544485556730028,-2.3426066718186034,-2.568887272355424,-2.7876027271246486,-78.36360332880622,4.313075210990869,49.72995965217633,39.74655605671295,116.9735093355523,82.24031778599759,84.86471808747922,65.05756073834961,5.105604713160536,3.5003867149353027
-0.8259276407237577,3.647521220837284,-0.12550225451658722,-2.3426138593917307,-2.569012815988049,-2.7876601260739355,-78.4224213845114,4.249612644497438,49.647344469289514,39.8095579894131,116.98150889478948,82.24034327458993,84.86710237099584,65.05782890273242,5.105835635453047,3.512781858444214
-0.825949675871098,3.647550893629577,-0.12552046869515684,-2.342635894539071,-2.568983143195756,-2.7876783402525054,-78.47783168243541,4.294874287303056,49.58182185547744,39.730136835056854,116.98401488107541,82.24042167311691,84.86603125340184,65.05756257912056,5.166800303247403,3.5351197719573975
-0.826036306362925,3.6476285668639243,-0.12550433796221663,-2.342722525030898,-2.5689054699614084,-2.787662209519565,-78.27465179835157,4.33695597777788,49.73918895110948,39.60939097331958,116.98568678122845,82.24147019787276,84.86246656154427,65.05764501232137,5.316833154700467,3.5595693588256836
-0.8260601670271883,3.647699771600114,-0.12546282254852312,-2.342746385695161,-2.568834265225219,-2.7876206941058714,-78.30090228599379,4.392814916467722,49.80510794608629,39.65038248823104,116.98169025843539,82.24188981238255,84.86045264385523,65.05771831458875,5.147801571974963,3.5948805809020996
-0.8261253947601015,3.6477066441854196,-0.12550234704439994,-2.3428116134280748,-2.568827392639913,-2.7876602186017485,-78.327956027281,4.272096821839461,49.69957845737948,39.72885220178411,116.98889276693872,82.24244797278462,84.85885635271902,65.05759510569283,5.218211076258866,3.6170194149017334
-0.8260703363977109,3.647747162610336,-0.1254657526359806,-2.3427565550656837,-2.5687868742149966,-2.787623624193329,-78.19698238897645,4.358864164864397,49.82254594897578,39.58613742750562,116.98179128841905,82.24187298638016,84.85928728941315,65.05743330200058,0.2823738269146383,3.6429877281188965
-0.8259482564747587,3.6475857339801356,-0.1254716169500283,-2.3426344751427317,-2.5689483028451967,-2.7876294885073767,-78.35156421558142,4.373024033173497,49.701350793821646,39.603473112269754,116.97853397006125,82.24065984898951,84.86531070864606,65.05782064237758,5.171408504325564,3.6568832397460938
-0.8259710209906943,3.6475674215453813,-0.12548370524608982,-2.342657239658667,-2.5689666152799515,-2.787641576803438,-78.47170661323212,4.341896071073062,49.62352559547287,39.70746125531903,116.98118908821674,82.24092386583948,84.8651590078596,65.05792804659343,5.241827406485726,3.6791000366210938
-0.8259478954982951,3.647527843936611,-0.1254613511325303,-2.342634114166268,-2.569006192888722,-2.787619222689879,-78.47292502980832,4.310002827471661,49.61624112295836,39.74486460375392,116.97836247893247,82.24088811350943,84.8664447789596,65.05829428931908,8.094460982728489,3.69061017036438
-0.8259838778518007,3.6475263625578243,-0.12554172328508362,-2.3426700965197735,-2.5690076742675085,-2.787699594842432,-78.53711946890142,4.467134904746376,49.580123494095304,39.55198737698351,116.98826835540365,82.24078776855714,84.86574889501965,65.05767378445604,5.21847088612062,3.7139933109283447
-0.8259179972667698,3.6475843475983423,-0.12553713944637448,-2.3426042159347427,-2.5689496892269905,-2.787695011003723,-78.57578414495448,4.517094297541485,49.55804849021493,39.49848083501456,116.98354701670554,82.23979066731307,84.86613170471513,65.05702641025437,0.2403963242081839,3.731161117553711
-0.8259553928050853,3.6475911268168733,-0.1255088297676153,-2.3426416114730584,-2.5689429100084595,-2.7876667013249636,-78.39074789518666,4.605480670104203,49.81510367435288,39.464094038321264,116.98253882562503,82.24047081210433,84.86509014220032,65.05744794863621,5.185499625095703,3.7561285495758057
-0.8259818952126832,3.6476927009017452,-0.12551292809805153,-2.342668113880656,-2.5688413359235875,-2.7876707996554,-78.50961585177174,4.421063546817505,49.62326877830902,39.64302385638558,116.98277924321674,82.2405127546375,84.86248005236159,65.05688184988506,5.208811527224265,3.781879186630249
-0.8260539246518863,3.6476866780584083,-0.12541909911230667,-2.342740143319859,-2.5688473587669245,-2.787576970669655,-78.38256725106179,4.37884546052255,49.71233412809929,39.65459669692238,116.9771961475387,82.24215878492288,84.86079496433001,65.05821012799643,5.208787288152427,3.794306993484497
-0.8260270130586322,3.6475594978181833,-0.12543737478850703,-2.3427132317266053,-2.5689745390071494,-2.7875952463458553,-78.41830149812378,4.231816073777838,49.63855115746058,39.820852276150454,116.97955740189967,82.24202031412678,84.86394983779596,65.05871501076186,0.20756668811123813,3.826636552810669
-0.8261387981832811,3.647698124268323,-0.12553388382110703,-2.342825016851254,-2.56883591255701,-2.7876917553784555,-78.29652628646016,4.329451246918448,49.75729851330275,39.67974241480131,116.9928632297195,82.2424208677243,84.85875634638143,65.05739924350164,5.194788092460408,3.838632106781006
-0.8259906679841229,3.647656054305739,-0.12546141806104671,-2.3426768866520957,-2.5688779825195938,-2.7876192896183953,-78.29002816129918,4.417461128738855,49.77703882939523,39.55844348683909,116.9786349944509,82.24110112649683,84.86292646506382,65.05767618463554,5.269833272226698,3.853928327560425
-0.826011546112875,3.6475372328740105,-0.12545502281962262,-2.342697764780848,-2.5689968039513222,-2.787612894376971,-78.37018523723985,4.30844611124722,49.710904018100294,39.73847511842285,116.98086185292308,82.24174957993922,84.86477206922841,65.05860645095393,5.0964252214504,3.878067970275879
-0.8259508163021423,3.647538753779997,-0.12552180397660923,-2.3426370349701156,-2.5689952830453358,-2.7876796755339575,-78.3958017031961,4.388533798055514,49.63368639772631,39.54974571088541,116.98439011721909,82.24046044120222,84.86624562963445,65.0576328834061,5.096443877195476,3.910814046859741
-0.826134117312344,3.6478979642222726,-0.1255315033207341,-2.342820335980317,-2.56863607260306,-2.7876893748780827,-78.21721807244157,4.436873241458387,49.84648132622573,39.535666384480486,116.98936859105383,82.24182753705607,84.85492728371102,65.05611385904196,5.203858469019146,3.935948133468628
-0.8260665030706869,3.6477382680389243,-0.12548387655524615,-2.34275272173866,-2.5687957687864085,-2.787641748112595,-78.29403149240709,4.39598971349355,49.760766758989114,39.57845684082135,116.9835398494106,82.24171591576116,84.85957660203633,65.05729044225518,5.2040573698294015,3.9613170623779297
-0.8261384384397474,3.6477127275894325,-0.12546969162647603,-2.3428246571077205,-2.5688213092359002,-2.7876275631838245,-78.22565630111393,4.394443895365924,49.85126822724544,39.61205356851225,116.98620783785063,82.2428394409073,84.85838822036828,65.05794630874634,5.11496725272738,3.975865602493286
-0.8259975869512892,3.6476607269187924,-0.12545228785279955,-2.342683805619262,-2.5688733099065404,-2.787610159410148,-78.35617398953192,4.3471093803788285,49.7379475381506,39.699570672599606,116.97800775425216,82.24124566678303,84.86266104777442,65.05777114965699,5.2088300110080255,4.000808238983154
-0.8259314646105198,3.6475560733476784,-0.12546733596363646,-2.342617683278493,-2.5689779634776544,-2.787625207520985,-78.4917941840034,4.347336996593819,49.607908381089345,39.7033258426279,116.97768995947979,82.24055016308299,84.86627901366349,65.0579728397144,5.208981096615745,4.013808488845825
-0.8261571034507291,3.6477183625350698,-0.12554636076638237,-2.342843322118702,-2.568815674290263,-2.7877042323237307,-78.20644723433388,4.371171515086265,49.8329399719958,39.59940440209178,116.99474682854577,82.24251719677898,84.85794982040139,65.05723293300665,5.152543830248467,4.0592546463012695
-0.8260444383181593,3.6475765036921066,-0.12548623690552985,-2.3427306569861326,-2.568957533133226,-2.7876441084628785,-78.1568398052169,4.3899833577795135,49.939125609893345,39.639451884514905,116.98508141140377,82.24185131641207,84.86327765468832,65.05820089177959,11.130001249843863,4.074113607406616
-0.8259784158892438,3.647585377816871,-0.12546402996125833,-2.3426646345572166,-2.568948659008462,-2.787621901518607,-78.25959122342746,4.367649841238841,49.80083250034472,39.62234816254885,116.97933199294185,82.24111434123287,84.8646064054915,65.05804542760931,5.194872720592667,4.1011621952056885
-0.8260328807647599,3.6475561784565094,-0.12552383646578852,-2.342719099432733,-2.5689778583688234,-2.787681708023137,-78.393725241121,4.296944045518652,49.63083072515287,39.68293154638532,116.9885516673311,82.24148289688598,84.86399843375304,65.05789904853003,5.246579547861737,4.112521409988403
-0.8260264941491151,3.6476182118015785,-0.1254609453478767,-2.342712712817088,-2.5689158250237543,-2.787618816905225,-78.2876145326197,4.271257316103944,49.689922526975955,39.65688653012628,116.9810010907866,82.24168211385232,84.86283841368268,65.05809853554248,5.2464441398946775,4.136805534362793
-0.8259845407903907,3.647578828445822,-0.12546271286603353,-2.342670759458364,-2.568955208379511,-2.787620584423382,-78.34906831109473,4.432784270361932,49.75763669184384,39.58742599080024,116.97961410830872,82.24122281276392,84.8645912148674,65.05813052746716,0.3295246322457106,4.151587724685669
-0.8260283906976253,3.6476543348639203,-0.1254357754957956,-2.3427146093655984,-2.5688797019614125,-2.787593647053144,-78.19308236550108,4.350664140864711,49.88853883023447,39.677976152825735,116.97803782311362,82.24178965441345,84.86204824686241,65.05812728710471,5.175996909096556,4.1789960861206055
-0.8260802760907402,3.647583846142659,-0.12553170328571317,-2.3427664947587132,-2.568950190682674,-2.7876895748430615,-78.25784977241936,4.342242303673674,49.81478478681273,39.68207289515989,116.99135884479422,82.24197671919092,84.86236322546804,65.05787241962666,0.06684809344635889,4.191006422042847
-0.8260132098737856,3.647559912225803,-0.12548465276527623,-2.3426994285417586,-2.5689741245995297,-2.787642524322625,-78.2630637909428,4.380912097590579,49.83632243947006,39.65619742030656,116.9835670212931,82.24149542802466,84.86432782216357,65.05817184411632,5.162092407680078,4.2175657749176025
-0.8259534756486224,3.6475245656830033,-0.1255460974432165,-2.3426396943165955,-2.5690094711423295,-2.7877039690005647,-78.46569076381955,4.410367518640465,49.59335091976282,39.55753312437631,116.98716880148545,82.2403591807975,84.86649676504413,65.0574938475145,5.143398517819415,4.254969835281372
-0.8260470075159185,3.647532418130367,-0.1254905705173185,-2.3427332261838916,-2.5690016186949656,-2.787648442074667,-78.44581470433695,4.264330224717423,49.61078500181761,39.773769362233374,116.98631193721035,82.24197504922529,84.86409199151028,65.05845373065661,0.32494041788430117,4.27921986579895
-0.8259612738516038,3.6475624345683646,-0.12554229392183214,-2.3426474925195766,-2.568971602256968,-2.7877001654791806,-78.3672464450656,4.29715638483922,49.65012064867116,39.671188782265396,116.98661852209821,82.24038577178385,84.86556469004104,65.05732608632374,7.995932368846466,4.320906162261963
-0.8258899951861278,3.647488728362389,-0.12552608373128007,-2.342576213854101,-2.5690453084629437,-2.7876839552886286,-78.5206444396921,4.310550967792785,49.48957397141818,39.63752758248892,116.9824444661455,82.23976274308696,84.86864982160311,65.05761649833019,7.996015371343839,4.333459138870239
-0.8260762907724097,3.6477605017599046,-0.12550441035199628,-2.342762509440383,-2.568773535065428,-2.787662281909345,-78.29940496430314,4.376800948303258,49.75637892584883,39.609678665823466,116.98576015952717,82.24163605541546,84.85893985372546,65.05698923740331,5.232189057763114,4.361023664474487
-0.8261266886240461,3.6475675045608247,-0.1255364229760318,-2.342812907292019,-2.568966532264508,-2.78769429453338,-78.33951052432809,4.299729525161774,49.67650847352738,39.67102191752521,116.99446553450822,82.24260106996766,84.86161302679619,65.05815578985923,5.096461566047294,4.376119613647461
-0.8260015575963615,3.6475096474566153,-0.12546244371193732,-2.3426877762643343,-2.5690243893687175,-2.7876203152692858,-78.52280790755077,4.273080511637694,49.553880811200024,39.784862190266786,116.98150603292399,82.24163969851298,84.86555760433161,65.05866116109397,5.040168243353633,4.41548490524292
-0.8260612883032321,3.6477384046016357,-0.12552920449230154,-2.342747506971205,-2.568795632223697,-2.78768707604965,-78.12054799842477,4.416437283554628,49.96072904263072,39.58471806897908,116.98779994390685,82.24131940634243,84.85975788351179,65.05681032533077,5.10086384734015,4.4546098709106445
-0.8261190346242726,3.6477825774887984,-0.12552317664957768,-2.3428052532922456,-2.5687514593365344,-2.787681048206926,-78.01212931625453,4.3665112091574585,50.07373411474593,39.667689683680265,116.98950158546386,82.24200503984856,84.85753799018092,65.05686681157823,0.18384072570070753,4.494326114654541
-0.8260319511669063,3.6476988499788146,-0.12555503062400858,-2.342718169834879,-2.5688351868465182,-2.787712902181357,-78.17402290719144,4.441541569305474,49.92013220319582,39.563795342639736,116.98946863306959,82.24085371862367,84.86125412694737,65.05666381913844,5.288602254745276,4.51918888092041
-0.8260180865696392,3.64765249690523,-0.12554894580620402,-2.3427043052376124,-2.5688815399201026,-2.7877068173635524,-78.26231962588425,4.410051588345505,49.81269316694157,39.5836591970466,116.98884671750935,82.24084160586095,84.86248049995896,65.05695577480816,5.213597853731348,4.531997203826904
-0.8259400955962859,3.647521746541899,-0.12551192774968517,-2.342626314264259,-2.5690122902834336,-2.7876697993070336,-78.42771450619925,4.34067499266891,49.64745808331003,39.68153725825188,116.98310826361475,82.2404366805984,84.86681597128484,65.05778915789503,5.2043712995660645,4.557980298995972
-0.8263588432890847,3.647910519523365,-0.12553111199190659,-2.3430450619570578,-2.5686235173019676,-2.787688983549255,-78.0326185358557,4.36803246903086,50.0074818782792,39.61433542070262,117.00070492581648,82.24476637342461,84.84945761824551,65.0571282425155,5.20390729928857,4.576001882553101
-0.8260247609747462,3.6476310590196226,-0.12554090536433446,-2.3427109796427192,-2.56890297780571,-2.7876987769216828,-78.19998649549223,4.391376881148944,49.82643167091357,39.54586599117837,116.98870999749867,82.2410467427915,84.86273637089991,65.05720670401902,5.091642471653154,4.61414361000061
-0.825970639020793,3.647513715394097,-0.1255340541855789,-2.342656857688766,-2.569020321431236,-2.7876919257429273,-78.3293660398366,4.378025259998784,49.774717726250806,39.66613571339912,116.98701173908428,82.24070282788131,84.8662949436906,65.05776766505772,5.091803937517167,4.640964508056641
-0.82592063049419,3.6475579702564644,-0.1254063907026379,-2.3426068491621628,-2.5689760665688683,-2.7875642622599863,-78.51134414519377,4.267708991897928,49.547961320795075,39.765925193416,116.97101267957409,82.24084149185921,84.8664092014114,65.05851831566265,5.091644457217958,4.6535422801971436
-0.8262051061534152,3.6478030734430678,-0.12554002591317448,-2.3428913248213883,-2.568730963382265,-2.787697897470523,-78.25917657434245,4.289535700561402,49.71383304293253,39.63472323684793,116.99530512475337,82.24296491594042,84.85515778176268,65.05698417572701,0.12754398094794173,4.69502854347229
-0.826146957105999,3.6478000116938474,-0.12547150123600648,-2.342833175773972,-2.5687340251314854,-2.7876293727933548,-77.9761376861427,4.480336509381324,50.16603877854106,39.573235044874075,116.98550987528625,82.24269933201211,84.85647422906841,65.0574076717842,5.044459131410011,4.723531246185303
-0.8262270068036,3.6478114043820127,-0.12550091387425102,-2.342913225471573,-2.56872263244332,-2.7876587854315993,-77.96497361388265,4.468281590463496,50.14802001974925,39.55588831616359,116.99239686048517,82.24351393236185,84.85443057068186,65.05742856637214,5.044483285614113,4.735174179077148
-0.8260101511710212,3.647733658058013,-0.1254766909875312,-2.342696369838994,-2.5688003787673197,-2.7876345625448797,-78.24340917445276,4.304415926547129,49.809378543071006,39.71019352756472,116.97999293259238,82.24103542102057,84.86096688297776,65.0571183493609,5.0445234080629895,4.775609731674194
-0.8261039295042629,3.6477776144249043,-0.12558683623720188,-2.342790148172236,-2.5687564224004285,-2.7877447077945505,-78.1679261111848,4.646683109544277,50.025606074150915,39.396845300125975,116.9951615458366,82.2413593766544,84.85807493939876,65.05618792028882,5.133692308142484,4.831063985824585
-0.8260055730345717,3.6475429195887368,-0.1255759059770033,-2.3426917917025447,-2.568991117236596,-2.787733777534352,-78.37364727536136,4.490819381561292,49.77778738672414,39.56449897061009,116.99255077362993,82.24078234353259,84.86496603591397,65.0573303153213,5.218472054628155,4.855213642120361
-0.8259767206024258,3.6476679083590913,-0.12549818829077453,-2.342662939270399,-2.5688661284662415,-2.787656059848123,-78.3003337177504,4.475449128691166,49.80442936621601,39.52352032864652,116.9814139391245,82.24061880129736,84.86306803614487,65.05716391033215,5.265140798394311,4.892728090286255
-0.826003633449977,3.647601538316242,-0.1255034191513701,-2.34268985211795,-2.5689324985090907,-2.7876612907087184,-78.31558314464583,4.306354221398321,49.710661341590516,39.67023038907924,116.98432211029336,82.24111907648306,84.86375669430818,65.05766946963385,5.162036025485141,4.916926145553589
-0.8260189577992048,3.64760399805687,-0.12545780756270286,-2.342705176467178,-2.5689300387684626,-2.7876156791200515,-78.35060758221167,4.279714955443299,49.69027564179551,39.72886345682625,116.98051422553047,82.24164415113025,84.8632890650137,65.05818483836552,5.157318279615149,4.929822206497192
-0.8260294378185296,3.6477483491691536,-0.12554046082381193,-2.3427156564865026,-2.568785687656179,-2.7876983323811606,-78.19210814880742,4.4273903854370475,49.88071404576944,39.55648939585494,116.9871364499236,82.24078978607197,84.86031777623194,65.05647887655583,5.157146488520315,4.956708669662476
-0.8260148249353092,3.647554731713215,-0.12556891675472717,-2.3427010436032822,-2.568979305112118,-2.7877267883120758,-78.27306124028142,4.419537608713325,49.80210667757726,39.568737867238816,116.99215004877107,82.24092269035319,84.86450881769129,65.05736922143906,5.157459220528663,4.972270250320435
-0.825984819644696,3.647490211029895,-0.12551159385461422,-2.3426710383126688,-2.569043825795438,-2.7876694654119625,-78.4403728185867,4.38002925668136,49.66533329401201,39.66475906140722,116.98585103487213,82.24111698286966,84.86639719243604,65.0582127501284,5.157516221697613,4.996954679489136
-0.826084817341336,3.647638972025397,-0.12555988429924742,-2.3427710360093092,-2.5688950647999356,-2.7877177558565958,-78.31824083221072,4.407412804494164,49.737980939964956,39.564747998964236,116.99357713679932,82.24168193337813,84.86121133464671,65.05725744437868,5.237104617583384,5.035178899765015
-0.825946089683371,3.6476401267601717,-0.12551351262499177,-2.342632308351344,-2.568893910065161,-2.78767138418234,-78.3827497779796,4.575076491344599,49.764240872266214,39.431136137898754,116.98178926609896,82.24017948993456,84.86434800415392,65.05704046861803,5.161964592267416,5.063000202178955
-0.8259289573492674,3.647406891383801,-0.12552750105808863,-2.3426151760172402,-2.5691271454415316,-2.787685372615437,-78.46516367120157,4.502944880864161,49.73176868781697,39.60106740262306,116.9858245080381,82.24049233033509,84.86935781284917,65.05831829086547,5.1623294542384,5.089844465255737
-0.8259544792608566,3.6475112131238543,-0.12547957458657494,-2.3426406979288297,-2.5690228237014785,-2.7876374461439233,-78.47200980602207,4.434388986844886,49.70486238839431,39.677179737503586,116.98077336596205,82.24088930096501,84.86664443895751,65.05825082125655,5.2419071093941305,5.115772485733032
-0.8260352206202508,3.6476617546503145,-0.12545448794175743,-2.3427214392882236,-2.5688722821750183,-2.787612359499106,-78.30195747524671,4.423160220157027,49.78040482976016,39.571850380889344,116.98014759247064,82.24172453412568,84.8617693409383,65.05792531405588,5.105622164402215,5.152388572692871
-0.8264188148023364,3.647796860114807,-0.12548309656508944,-2.3431050334703096,-2.568737176710526,-2.787640968122438,-77.83747715010709,4.353709795894847,50.19114066964396,39.61913667309792,117.0007087945552,82.24621789936072,84.85023495608736,65.0586320406332,5.147772348083466,5.18146276473999
-0.8261979338243575,3.647698380274775,-0.1254802475576035,-2.3428841524923305,-2.568835656550558,-2.787638119114952,-77.99543849877948,4.495403075902058,50.083010194983,39.46593726502268,116.99054090165602,82.24358915011929,84.85730280145823,65.0582219199308,5.147856060931112,5.19404935836792
-0.8259425112628618,3.6476868196964665,-0.12547226852888213,-2.342628729930835,-2.5688472171288663,-2.7876301400862307,-78.32965000028031,4.4742621776735705,49.77879088189527,39.528567091605865,116.97677917181775,82.24030164622245,84.86345474692926,65.05713555537834,0.27774055493829897,5.219421148300171
-0.8261421572332301,3.6477439200974753,-0.12557633271994934,-2.3428283759012034,-2.5687901167278575,-2.7877342042772977,-78.25264220698705,4.361396306421054,49.787580204029844,39.6159074605528,116.99658743163147,82.2420330458665,84.85783547003682,65.05669568712938,0.2777744759087053,5.2347941398620605
-0.8259079824989131,3.6476910105060854,-0.12549917633710048,-2.342594201166886,-2.5688430263192474,-2.787657047894449,-78.40943221403938,4.332517412479913,49.56372452340426,39.55765212667106,116.97762972903307,82.23963943401647,84.8642117920691,65.05667137882746,5.288543540415267,5.259669542312622
-0.8259856439862729,3.6476898295386517,-0.1255171278157957,-2.342671862654246,-2.568844207286681,-2.7876749993731442,-78.4842425046862,4.238631949589435,49.47334018769939,39.68023827206632,116.9834350154298,82.24053989056105,84.86245528010953,65.05687649259318,5.100908977877228,5.27259087562561
-0.826058133492475,3.6477325065932877,-0.1255070604210748,-2.342744352160448,-2.568801530232045,-2.7876649319784232,-78.2571838913442,4.334817911232067,49.764786031801506,39.6259349031596,116.98551343975778,82.24145374200795,84.85991663708906,65.05705471727038,0.2683420157758398,5.30259108543396
-0.825939190764917,3.6477095127696058,-0.12542180145149467,-2.34262540943289,-2.568824524055727,-2.787579673008843,-78.39042215699406,4.315646884494589,49.61982911963386,39.63184322772066,116.97122234532559,82.24055959455617,84.86301526296674,65.0574787400544,5.049198324831338,5.316425800323486
-0.8260227323634097,3.64757567873979,-0.12550328571605324,-2.3427089510313825,-2.568958358085543,-2.787661157273402,-78.36724812692123,4.217465144535138,49.614392441891496,39.743445861526254,116.98568132368258,82.24144354072706,84.86382187125626,65.05793003140151,5.312218355902261,5.345970630645752
-0.8261328212168038,3.647618338259375,-0.12552713696738774,-2.342819039884777,-2.5689156985659576,-2.787685008524736,-78.21322958007512,4.36065423400538,49.8166185075233,39.59935091459108,116.9930856579971,82.24260962029743,84.86045678544352,65.05795135809633,5.312199874399746,5.35860276222229
-0.8260336155489105,3.6476449381251896,-0.12546729586905808,-2.342719834216884,-2.568889098700143,-2.7876251674264063,-78.28551907404209,4.321371378883472,49.722191222488945,39.623454709230565,116.98159896274905,82.24165704762116,84.86215548242602,65.05789750418325,5.241716535201792,5.37201714515686
-0.8258817326431456,3.6474777270119474,-0.12548279388742706,-2.3425679513111186,-2.5690563098133854,-2.7876406654447754,-78.50248524182219,4.2744498617037125,49.535855074129344,39.72750975834823,116.97785919521375,82.23999614971544,84.8689986714156,65.05808066374921,5.232555574140578,5.396995544433594
-0.8259520490681658,3.6475565157247143,-0.12550171352870737,-2.342638267736139,-2.5689775211006185,-2.7876595850860557,-78.53397376397129,4.313591653177423,49.564595064334476,39.75388485854182,116.98217769774689,82.24057299240664,84.86583948811715,65.05772573698533,7.855161920674476,5.413899183273315
-0.826050010037898,3.6476007819229794,-0.12553240705272017,-2.342736228705871,-2.5689332549023534,-2.787690278610069,-78.31983005910588,4.37720450794949,49.75446883810481,39.63142796226748,116.98961642297299,82.24152501697964,84.8627340382849,65.05760934286064,5.190219061673652,5.441527843475342
-0.82592664849729,3.6476283893047268,-0.12543795463431834,-2.342612867165263,-2.568905647520606,-2.7875958261916667,-78.40151624073236,4.285746763489057,49.64310457037298,39.72152225173414,116.97341516475277,82.2404999520841,84.86492639131696,65.05777821838495,5.307377008272763,5.45423698425293
-0.8259872703380482,3.647476494551469,-0.12550118049765657,-2.342673489006021,-2.569057542273864,-2.787659052055005,-78.45680087036581,4.3969081267813115,49.684482132735816,39.68670918731123,116.98514324268757,82.24126221603659,84.86659593656557,65.0584172157644,0.1842623213054697,5.497581243515015
-0.8260446461177322,3.647652912488047,-0.12549184391822368,-2.3427308647857052,-2.568881124337286,-2.787649715475572,-78.32409109481861,4.436160013994253,49.78070854064649,39.58386966965766,116.98449967674448,82.24160379989118,84.86177612708279,65.05765393271328,0.1840006261499787,5.512088775634766
-0.8259347364411733,3.6476106717710692,-0.12556164083319318,-2.3426209551091466,-2.5689233650542636,-2.7877195123905416,-78.37300975190546,4.394654795734861,49.68920953491544,39.58636927279294,116.98645924670252,82.23976284688294,84.86525830410771,65.05669294872833,5.218336907829402,5.536811828613281
-0.826150820487207,3.6477199516888863,-0.12550112307343197,-2.34283703915518,-2.5688140851364465,-2.7876589946307804,-78.24016577787565,4.319188911845221,49.77886535211834,39.64808151642899,116.98987775828023,82.24275639148722,84.8580018171991,65.05764519212893,5.218197463158766,5.551286697387695
-0.8260866954216592,3.6476311255073757,-0.12551004768245205,-2.3427729140896325,-2.568902911317957,-2.7876679192398006,-78.09952763948068,4.460075488895441,49.99354025875302,39.53420916738492,116.98881109350262,82.24208811780483,84.86125318787748,65.05781613321442,5.218320978183224,5.576617479324341
-0.8260930758824927,3.647674990437174,-0.12556002453582274,-2.342779294550466,-2.568859046388159,-2.787717896093171,-78.15459374730781,4.446452534553212,49.89231512689648,39.4949168684016,116.99347246376327,82.24169121404934,84.86031047377561,65.0570643084641,5.218284467174357,5.603070020675659
-0.8261567082899646,3.6476738979548387,-0.12554080221510927,-2.3428429269579376,-2.568860138870494,-2.7876986737724576,-78.11175199810991,4.401712026259541,49.90712919268461,39.525418497900155,116.99484207535062,82.24267418367461,84.85882674047498,65.05757290575337,5.218294187538316,5.614996433258057
-0.826056584929749,3.6476940271248623,-0.12542425512218539,-2.342742803597722,-2.5688400097004704,-2.787582126679534,-78.28193923566852,4.35716143208689,49.79576739926362,39.66425426264672,116.97773750932032,82.24213656842784,84.86059557786837,65.05812411137859,5.2181634304376345,5.656497001647949
-0.8259877663503341,3.6475808692934386,-0.12553804972041818,-2.3426739850183074,-2.568953167531894,-2.7876959212777668,-78.34589385591825,4.46315402583298,49.71658042358395,39.485318304503096,116.98727888011341,82.2407160589109,84.86458025238542,65.05737863680797,7.855156546575293,5.671776056289673
-0.8259802593066696,3.6476438504779627,-0.1254928428541518,-2.3426664779746424,-2.56889018634737,-2.7876507144115004,-78.32059442664489,4.302341915884772,49.674820613524,39.634287135372205,116.98142459864894,82.24077021820764,84.86345210002673,65.05738948336324,5.237025473703117,5.698967933654785
-0.82606743729154,3.6478035731461564,-0.1254887395857719,-2.342753655959513,-2.5687304636791763,-2.78764661114312,-78.27428167364796,4.298514070370869,49.720970125132375,39.64506560600638,116.9830887543929,82.24151386573857,84.85827584172955,65.05682588505958,5.19457603100393,5.711896896362305
-0.8260953430080178,3.6476855762611304,-0.1255470567122326,-2.3427815616759906,-2.5688484605642024,-2.787704928269581,-78.20478584403466,4.368243501877859,49.81378812279667,39.57322158910732,116.99213330322837,82.24178575240218,84.86003141237228,65.05713703511208,5.152576265363923,5.738739013671875
-0.8260638512045879,3.647795120311473,-0.12550438114862372,-2.3427500698725607,-2.5687389165138597,-2.7876622527059722,-78.16322945840237,4.298333184210004,49.826066192828485,39.6375390973447,116.98459514845771,82.24137676381658,84.85854727805884,65.05670624627817,0.25416973801885057,5.752157211303711
-0.8260593447123934,3.6477146807296545,-0.12553983209064223,-2.342745563380366,-2.5688193560956782,-2.7876977036479906,-78.24914809225035,4.509175837306359,49.877303330577746,39.50718547909174,116.98911999245959,82.24128212460985,84.86028485512215,65.05684717694947,0.25431412914812856,5.777210712432861
-0.8259667483593471,3.6476947287530517,-0.1255217412842955,-2.34265296702732,-2.568839308072281,-2.787679612841644,-78.33434741641153,4.467700348436689,49.753010501112115,39.512500812997104,116.98285041416202,82.24024332586328,84.8628042738372,65.0567069645747,0.18392970295608446,5.789107084274292
-0.8260810749061414,3.6476001686022657,-0.12550797960004584,-2.3427672935741146,-2.568933868223067,-2.7876658511573944,-78.32866305641319,4.286560606577577,49.71472564853024,39.72555595054954,116.98878239743607,82.24211373651632,84.86199045600844,65.05800880177516,5.265283499164598,5.813741683959961
-0.8260066526014707,3.6477132503188514,-0.12541992820312747,-2.3426928712694437,-2.5688207865064814,-2.787577799760476,-78.26141613548351,4.366395023961578,49.83290415076591,39.67121504665588,116.97444730668391,82.24145482920797,84.86137140687914,65.05780115356401,5.204040064786364,5.828860521316528
-0.8259270875916553,3.647474907133961,-0.12554514761583815,-2.3426133062596284,-2.5690591296913716,-2.7877030191731866,-78.46797792533786,4.24499105596597,49.516687715923396,39.70278706767809,116.98646579983621,82.24015349117207,84.86808638692143,65.0576947607825,5.340520850230947,5.870969295501709
-0.8260519198090106,3.647659959697265,-0.125497124975252,-2.3427381384769834,-2.5688740771280676,-2.7876549965326003,-78.23441955573801,4.352427407833794,49.78490778268649,39.59446622653699,116.98529535913006,82.24164249356379,84.86147566114663,65.05759101715746,5.176031679796994,5.895968675613403
-0.8261634261753532,3.647692171823056,-0.12549076513714472,-2.3428496448433265,-2.568841865002277,-2.787648636694493,-78.20221041217734,4.276033307225279,49.801662546064506,39.69188081577186,116.98991023344732,82.24307408708856,84.85824149578438,65.05798896622854,5.232313546659267,5.933996200561523
-0.8260831733481497,3.647552828683415,-0.12550164236003986,-2.3427693920161228,-2.568981208141918,-2.7876595139173883,-78.16356186651566,4.424677999401761,49.97340805933968,39.644033058682375,116.98897132319769,82.2423172093604,84.86286502734228,65.05838716660885,8.258699082736111,5.9737207889556885
-0.8259740839929786,3.647657842592634,-0.125509896193524,-2.342660302660952,-2.5688761942326988,-2.7876677677508725,-78.42699159157957,4.259111479748689,49.60972673561839,39.754963084927404,116.98260027844853,82.24052707130751,84.86334369067158,65.05709864750266,5.232320380618141,6.0013322830200195
-0.826006684418763,3.647743077912126,-0.1255110541682169,-2.342692903086736,-2.568790958913207,-2.7876689257255656,-78.33368799757369,4.217042103131155,49.642510488858875,39.7390156627025,116.98310691342705,82.24071571160457,84.8609095520656,65.05669675977137,5.17120559570245,6.012648105621338
-0.8260791558043079,3.6476023483320654,-0.12547776147914833,-2.3427653744722807,-2.5689316884932674,-2.787635633036497,-78.18596747282923,4.39133650775073,49.91079742079474,39.63981676871802,116.98563023136151,82.24230052714503,84.86195030412047,65.05828805514844,5.171426289346268,6.039937257766724
-0.8260349224384056,3.647650492367078,-0.1255249561773689,-2.3427211411063786,-2.568883544458255,-2.7876828277347174,-78.22368828426787,4.426833118656164,49.8437349544826,39.54829172221662,116.98734548977421,82.24124286706632,84.86209555617265,65.05729069028607,5.171366057714231,6.05376410484314
-0.8259069754758921,3.6475755270763592,-0.12549175151780625,-2.3425931941438654,-2.5689585097489736,-2.7876496230751546,-78.49343691348149,4.31419882690728,49.57070074039161,39.70535752271609,116.97857745818294,82.23999675113222,84.86649876299235,65.05748415415079,5.180807346656307,6.077113151550293
-0.8261014382416914,3.647714146429885,-0.1255196588204841,-2.3427876569096644,-2.568819890395448,-2.7876775303778327,-78.25395821602838,4.34930749783898,49.78966706481272,39.634966301337485,116.9892773903951,82.24198569641084,84.85928931209409,65.05725709283064,5.194743423943512,6.088380813598633
-0.8260797484535813,3.6477276622469597,-0.12550541718523447,-2.3427659671215544,-2.568806374578373,-2.787663288742583,-78.23123032740095,4.34256908197563,49.80554559213419,39.63486684052811,116.98653418475108,82.24176465852241,84.85950747433726,65.05720734716162,5.227549571344175,6.11069130897522
-0.826068771050926,3.6476614396102396,-0.1254406365905926,-2.342754989718899,-2.568872597215093,-2.787598508147941,-78.20980075554156,4.326744099411584,49.825416472911414,39.653046538502636,116.98049345312434,82.2422689427587,84.86097673114584,65.05822902156847,5.194768437828436,6.137850284576416
-0.8260801771706119,3.6476335650754614,-0.12550241094463813,-2.342766395838585,-2.5689004717498714,-2.7876602825019865,-78.30080669649422,4.385219326209478,49.785542922525366,39.636241685748885,116.98767562068713,82.24205037741702,84.86134604875794,65.05784524205023,0.23096534715120365,6.150466680526733
-0.8259841531933294,3.6474836239409347,-0.12549763302574216,-2.3426703718613027,-2.569050412884398,-2.7876555045830904,-78.45031357796805,4.212797852560805,49.580573640667296,39.813724476820695,116.98452074439749,82.2412270388054,84.86652308811746,65.05839171079806,5.1950522086621085,6.179703950881958
-0.8261391693275744,3.647691586710964,-0.12547930526221104,-2.342825387995547,-2.568842450114369,-2.7876371768195596,-78.31239626313571,4.177401658650727,49.66519269765391,39.803017993615654,116.98752549423129,82.2428377575687,84.85880080695463,65.05798967829978,5.166615476957201,6.192060708999634
-0.8259193549304402,3.6475851808263897,-0.12554066625583507,-2.342605573598413,-2.568948855998943,-2.7876985378131836,-78.37892262486861,4.445032366735498,49.692708181814375,39.522429667918786,116.98395673928137,82.23978087122393,84.86608862112449,65.05699233029847,8.09441029118654,6.218867540359497
-0.8260468117586017,3.6475071495027334,-0.12546561438728687,-2.342733030426575,-2.5690268873225994,-2.787623485944635,-78.41069244449972,4.266106784719373,49.63103386019094,39.750037908124014,116.98418857217088,82.24222199408838,84.86455956915286,65.05886532712073,5.016728838240139,6.231173992156982
-0.8261136689118453,3.6476902944799,-0.12550294677158827,-2.3427998875798184,-2.568843742345433,-2.787660818328937,-78.19208905895894,4.293571803621455,49.81667262996162,39.6708915404251,116.98859616421825,82.24233351744134,84.85945157295087,65.05763738936749,5.241691697796147,6.256692886352539
-0.8260715636802645,3.6476339439534553,-0.1254781148246791,-2.3427577823482375,-2.5689000928718775,-2.7876359863820275,-78.28709779114536,4.258702391136924,49.68751682653349,39.674022765066596,116.9847982391844,82.24211084986726,84.8615051069356,65.05804426433781,5.185450450700603,6.2699103355407715
-0.825978891764352,3.647527631824737,-0.12555493638079365,-2.342665110432325,-2.5690064050005956,-2.787712807938142,-78.48929009199625,4.359097226552086,49.58271320122969,39.65251821226547,116.98931324060032,82.24062297341953,84.86585803012149,65.05750907665595,5.152790423481031,6.294245958328247
-0.8260375173578018,3.64768814720999,-0.1254955927106224,-2.342723736025775,-2.5688458896153428,-2.787653464267971,-78.33314307270601,4.310990066643874,49.68888562143557,39.65987352912451,116.98397612623793,82.24138575083914,84.86125321781414,65.05735495574116,8.023883522906024,6.3091044425964355
-0.8259531264713831,3.6474623509433175,-0.12554557576785375,-2.3426393451393563,-2.5690716858820153,-2.7877034473252023,-78.33523352102576,4.335313014680685,49.72132715920402,39.66513640425498,116.98803737670956,82.24052913106529,84.86772915201759,65.0578977917979,8.024237639574647,6.333359479904175
-0.8261011666047404,3.647725095259407,-0.12554810523811835,-2.3427873852727137,-2.568808941565926,-2.7877059767954666,-78.33678229139389,4.350394161780576,49.72519363851821,39.65898975741542,116.99194127053883,82.24174667811707,84.85911946536231,65.0569004331588,5.147825282678072,6.3579089641571045
-0.8261195963797672,3.6475558374170984,-0.12557666539675597,-2.34280581504774,-2.5689781994082344,-2.7877345369541042,-78.2329909305811,4.39549738223023,49.85054575430035,39.619545724914225,116.99829889603531,82.2422487564962,84.86206324457989,65.05779345938853,0.18422428203177432,6.370925664901733
-0.8260780269504651,3.6475985982888313,-0.12548476258305843,-2.3427642456184383,-2.5689354385365015,-2.787642634140407,-78.26473018852897,4.314969803998147,49.76486618746705,39.66376628473185,116.98632857119975,82.24224536011882,84.86206006463675,65.05823659979721,5.101059510800717,6.399409532546997
-0.8260646541300221,3.6476604221565965,-0.12549596069322455,-2.3427508727979953,-2.5688736146687363,-2.787653832250573,-78.2375323061412,4.420392466098405,49.88693849448518,39.63455899686937,116.98582710516199,82.2418179745931,84.86116903199763,65.05766155622736,5.21826047128002,6.414385795593262
-0.8261888645055153,3.6477691371474186,-0.12557426804996036,-2.3428750831734884,-2.568764899677914,-2.787732139607309,-78.12314031842904,4.419820238972027,49.98078076571438,39.61613352657588,116.99840411006217,82.24259613227717,84.85625082806898,65.05678087437867,5.232251351557144,6.430235385894775
-0.8261114825766742,3.6476834809788206,-0.12550698967826707,-2.3427977012446473,-2.5688505558465122,-2.7876648612356156,-78.19080333196078,4.317988191644037,49.85245798682407,39.68071234955577,116.98899058578846,82.24229413621028,84.85964212984534,65.05763014443498,5.283929831326463,6.456406831741333
-0.8260797696506725,3.6477193916401216,-0.12548361855497114,-2.3427659883186456,-2.568814645185211,-2.7876414901123194,-78.27034418165233,4.302832500688297,49.80495749469276,39.745064996937515,116.984481270017,82.24194498909476,84.85963962922862,65.05747898038487,5.283850618866076,6.469140529632568
-0.8260726949684871,3.647713488845658,-0.1254651923248063,-2.34275891363646,-2.5688205479796746,-2.7876230638821546,-78.07022514085699,4.273086456146635,49.966887278527146,39.73742618923146,116.98236458533088,82.24200067147243,84.8598947199507,65.05766713487667,5.260388228085125,6.492584466934204
-0.8260868135749151,3.6477744345072485,-0.1254943846284439,-2.342773032242888,-2.5687596023180843,-2.787652256185792,-78.23247276312046,4.264351215293731,49.80729969256854,39.75635013669607,116.98508919803673,82.24180928211241,84.85840712183668,65.05705105421524,5.260315277583346,6.533552169799805
-0.8261280340874142,3.647719260358359,-0.12550319610131444,-2.342814252755387,-2.568814776466974,-2.787661067658663,-78.24577136756467,4.351388532561951,49.81856172825774,39.66012231734977,116.98892303991957,82.2424420941429,84.85854780018636,65.05751820724866,5.157199619072067,6.563411474227905
-0.8262148865833232,3.6478500929258,-0.12546999290865607,-2.342901105251296,-2.568683943899533,-2.7876278644660046,-77.85968765407763,4.433245984229896,50.21068621989512,39.55015924701197,116.98809822999621,82.24347071672871,84.85390755512594,65.05743027782165,5.372824770799763,6.577956438064575
-0.8261122211804712,3.6477025826103877,-0.1255300882679834,-2.342798439848444,-2.568831454214945,-2.7876879598253317,-78.2130920215528,4.355654530346717,49.86375632655081,39.67055718096429,116.99104904239687,82.2420846990597,84.85928087662805,65.05727946792435,5.039942752991987,6.618415117263794
-0.8261729082117499,3.647638948611678,-0.12558461544132235,-2.342859126879723,-2.568895088213655,-2.787742486998671,-78.2413629665416,4.263599289457511,49.72878704527313,39.66742117424988,117.00058265798314,82.24266789459075,84.85919911813113,65.05743782762427,5.040092249263303,6.644048452377319
-0.8261176849487717,3.6476223354313957,-0.12548292838073397,-2.342803903616745,-2.568911701393937,-2.7876407999380826,-78.29427101388069,4.253715730471229,49.711538072129386,39.725007131429216,116.9878273728491,82.2427177201653,84.86066859158898,65.05829481194222,5.269937048450746,6.656513929367065
-0.8260288503575006,3.647666067418207,-0.12548414128560703,-2.3427150690254734,-2.5688679694071257,-2.7876420128429555,-78.19853313571046,4.325468312461316,49.85541764089287,39.6801418158005,116.98271883203095,82.241414449789,84.86187349660467,65.05756966378813,5.152549002408595,6.6713221073150635
-0.8260323025453953,3.6475846665452454,-0.12550758176840932,-2.342718521213368,-2.5689493702800874,-2.787665453325758,-78.23389399122298,4.350913954845164,49.8214474637041,39.64361685871163,116.98646740448243,82.24151438012308,84.86342846479351,65.05787565066768,5.152690203230717,6.695313215255737
-0.8260337649619334,3.6476943001580855,-0.12549711473866884,-2.342719983629906,-2.5688397366672473,-2.787654986296017,-78.32385350444804,4.251674113402411,49.717451714058754,39.77443003389677,116.98384243863374,82.24130825559746,84.86122137837364,65.05728188141782,5.161897588360421,6.708109140396118
-0.8259136446915929,3.647545429638259,-0.12553728452115293,-2.342599863359566,-2.568988607187074,-2.7876951560785015,-78.39888785562225,4.330534026067741,49.62620159700428,39.62969393677977,116.98392476388976,82.2398389127293,84.86699931919783,65.05725430261833,5.002595996112478,6.732766389846802
-0.8259107024731673,3.6475149261670685,-0.12553378745293622,-2.3425969211411406,-2.5690191106582643,-2.7876916590102847,-78.59119007066575,4.331245737864778,49.47178186483866,39.67882159716797,116.98388409296508,82.23990899613585,84.86766345819763,65.05747135098447,0.19827393716398456,6.758522033691406
-0.8260250523796051,3.647716922037662,-0.12554674015774664,-2.342711271047578,-2.5688171147876706,-2.787704611715095,-78.48938607587193,4.321781365650372,49.57051550108001,39.69617053912239,116.98801262044867,82.24077274857983,84.86104713179179,65.05659698716902,0.19800313706345118,6.772247314453125
-0.8259576699501447,3.6476372839146314,-0.12545511346559274,-2.3426438886181176,-2.5688967529107014,-2.787612985022941,-78.36336423884146,4.229894678044849,49.619332418292295,39.72353362977951,116.97659108193339,82.24076187552053,84.8640541222986,65.05769983873874,0.19805187795914714,6.7965593338012695
-0.8259745099272437,3.6475190934577046,-0.12549856676161797,-2.3426607285952166,-2.569014943367628,-2.7876564383189666,-78.367742533355,4.3515228748959895,49.73993275197636,39.70957557147141,116.98358294216986,82.24099541161932,84.86605006206679,65.05810722622319,0.19826608044834915,6.809278964996338
-0.8260874913215455,3.6477581846569667,-0.12552691625845838,-2.3427737099895185,-2.568775852168366,-2.787684787815807,-78.35878845492208,4.260465623730687,49.682989684835086,39.7656091038806,116.98862064963694,82.24162802888365,84.85875638742586,65.05683319246108,5.105531402021917,6.835328817367554
-0.8260260119987934,3.6476399457212314,-0.1255016835861808,-2.3427122306667663,-2.5688940911041014,-2.7876595551435295,-78.29668360073137,4.421996510390008,49.764378778061214,39.5457943382929,116.98472026466777,82.24132201465062,84.86247806284176,65.05754834206381,5.246434396509643,6.851383686065674
-0.8260173349447335,3.647723223701666,-0.1255252240874527,-2.3427035536127065,-2.568810813123667,-2.7876830956448013,-78.24070815438131,4.47846292389397,49.8627713793001,39.520347907123096,116.98537029065119,82.24080874483407,84.86107259542645,65.05673440235827,0.12291003487018193,6.876303434371948
-0.8260131901271712,3.647601541287866,-0.12554387163018005,-2.342699408795144,-2.568932495537467,-2.7877017431875286,-78.2695826281582,4.393831778646117,49.79690952757285,39.59529385781051,116.98885664999682,82.24095338524803,84.86359052877457,65.05731078671094,0.12310856614267562,6.888633728027344
-0.8259055611056663,3.647474069168897,-0.1255652910809374,-2.342591779773639,-2.5690599676564356,-2.7877231626382857,-78.47800162235217,4.436530246345985,49.56360476647733,39.49331814653635,116.98738420054521,82.23972576060369,84.86863089963799,65.05739385371669,5.2091583965881725,6.917792558670044
-0.8261149232899583,3.647748038947714,-0.12553583736524132,-2.3428011419579313,-2.568785997877619,-2.78769370892259,-78.2634039105362,4.447371382390567,49.812604982938446,39.533753187991216,116.99107670840986,82.24195411215733,84.85833108224966,65.0569424027611,5.039876468966639,6.93062162399292
-0.8259185282589292,3.647622185409179,-0.12549022065278934,-2.3426047469269022,-2.568911851416154,-2.7876480922101377,-78.4041273271986,4.273853677821116,49.62153374046103,39.715061059161684,116.97831487405868,82.24003244831381,84.86530949835337,65.05725529925633,-0.059962897977811735,6.960541009902954
-0.8259417773711937,3.647528983473776,-0.12548326893326794,-2.342627996039167,-2.5690050533515567,-2.7876411404906163,-78.43271283088842,4.390711245538076,49.701486942133684,39.6852145385821,116.98022130775011,82.24064590497436,84.86659479750978,65.0580377442526,-0.05981534440348124,6.972945213317871
-0.8259493262926441,3.6476297082027496,-0.1255252652852703,-2.342635544960617,-2.568904328622583,-2.787683136842619,-78.3478749594046,4.435851317238231,49.749418156068906,39.571728174451195,116.98328737823789,82.24016605418184,84.86449418351317,65.05700556148426,0.21686967541968238,6.9902215003967285
-0.8260002016740824,3.647592373821611,-0.1254863821269604,-2.3426864203420554,-2.568941663003722,-2.787644253684309,-78.36552597225986,4.274174022315212,49.64680064200504,39.6988466720743,116.98258103408438,82.2412218440456,84.86399332152986,65.0578823972833,5.171422787379972,7.01466178894043
-0.826039666434117,3.647605656716438,-0.12547473014704236,-2.34272588510209,-2.5689283801088947,-2.7876326017043906,-78.2379006225654,4.407965554765279,49.83390082557567,39.58022487031161,116.98324591319698,82.241791241106,84.86279860538845,65.05810529247992,5.2699342745050375,7.0442023277282715
-0.8261878730550105,3.647570802690228,-0.12549251952014173,-2.3428740917229836,-2.5689632341351047,-2.78765039107749,-78.31340336782428,4.295125860347594,49.71374802878309,39.693645376100534,116.99317583203587,82.24371785985872,84.86006552465071,65.05887138788202,5.270044068808634,7.056663513183594
-0.8261269986963942,3.647728927672879,-0.1255113117716356,-2.342813217364367,-2.568805109152454,-2.787669183328984,-78.31769378871324,4.256205112308922,49.71050004416022,39.75416692235815,116.98953506130583,82.24234327712725,84.85839276967046,65.05736968062462,5.161880712827799,7.071795225143433
-0.8260077760162048,3.6476761109183737,-0.12547966653463608,-2.342693994684178,-2.568857925906959,-2.7876375380919844,-78.26595476406014,4.288820108198079,49.752482662269244,39.68650181824102,116.98103620733255,82.24114054703759,84.86215926365486,65.05744744796007,5.166599625645777,7.096157550811768
-0.8260033372769968,3.6475281027696544,-0.12546812915199282,-2.34268955594497,-2.5690059340556783,-2.7876260007093414,-78.35142712353206,4.275027524258159,49.674283616183075,39.714123742564865,116.9818874677119,82.24157151767038,84.86516072019803,65.05849408850516,5.213738474892514,7.110938549041748
-0.8260463113582359,3.647697817110619,-0.12553724403258681,-2.342732530026209,-2.5688362197147137,-2.787695115589935,-78.30781551468024,4.4385295728832075,49.75382396066084,39.52459133115039,116.98844537344051,82.24117479988213,84.86091614664309,65.05691833421892,0.2355677520254127,7.137847661972046
-0.8259874333228012,3.647565824734489,-0.12551261007494122,-2.3426736519907743,-2.568968212090844,-2.7876704816322895,-78.41079740786009,4.45639687139026,49.720321050353206,39.58635370002877,116.98494621865073,82.24093660342757,84.86484903607568,65.05772860313301,0.23573996171538347,7.150370836257935
-0.8260508100013344,3.647598278610956,-0.12552124120044644,-2.3427370286693074,-2.568935758214377,-2.787679112757795,-78.34728199139167,4.318153959043458,49.68658088936505,39.66492042570936,116.9885793693994,82.24162307729394,84.862749289395,65.05774115433523,0.23571405558916636,7.192725658416748
-0.826071357391416,3.647642107672651,-0.12550734078962414,-2.3427575760593893,-2.5688919291526817,-2.7876652123469725,-78.23308114559676,4.400276822585279,49.83382716306785,39.58772716046707,116.9875856780175,82.24187473071296,84.86138961899492,65.05769804442814,0.21687704532764096,7.229035139083862
-0.8260027959204028,3.6476223540963377,-0.12547551215288766,-2.342689014588376,-2.568911682728995,-2.787633383710236,-78.29594732301814,4.572489331032082,49.892034662851145,39.49020025364585,116.9811757713526,82.24125228393024,84.86332769525421,65.05781087918501,5.138528477746164,7.255364656448364
-0.8259218558298389,3.647592184277087,-0.12545964520588707,-2.3426080744978117,-2.568941852548246,-2.7876175167632353,-78.39247359933617,4.4122766451203805,49.71920756495175,39.622594874698905,116.97588262984264,82.2403794693419,84.86578063544422,65.05777075320778,5.1573080800239754,7.2681660652160645
-0.826125387184871,3.6477681629736955,-0.12558600908912163,-2.342811605852844,-2.5687658738516372,-2.7877438806464703,-78.08569534575696,4.488005098148284,49.997250550909,39.48479144432313,116.99632563587474,82.24167494230186,84.85776127356725,65.05636127082182,5.138405101038517,7.295587062835693
-0.8260246530825719,3.6477021038675086,-0.1254585515835746,-2.342710871750545,-2.568831932957824,-2.787616423140923,-78.23465491299662,4.368758618346149,49.83323583950552,39.63388977414215,116.97940165489504,82.24144470238276,84.86122606591697,65.05757356230899,5.260387305308321,7.313170433044434
-0.8258181344080939,3.6475269889388944,-0.1254995878333152,-2.342504353076067,-2.5690070478864384,-2.7876574593906636,-78.5440405747208,4.314262844494015,49.51429971597856,39.69398364172149,116.97552489748126,82.23889878128435,84.8695296930995,65.0572864333096,5.26062026124417,7.328470945358276
-0.8259137983670397,3.6475341850876255,-0.12555812939148212,-2.3426000170350125,-2.5689998517377073,-2.7877160009488304,-78.55857587909897,4.399590690334172,49.539053461997256,39.62449919338181,116.98618531983492,82.23972134160348,84.86724594264616,65.05711868215457,5.260672930290907,7.352804899215698
-0.8260453091237168,3.6475706562510197,-0.12553845633818247,-2.34273152779169,-2.568963380574313,-2.787696327895531,-78.32958434595243,4.3541957968990515,49.73170538381319,39.647859469735145,116.99043380534235,82.24150190359131,84.86344479783271,65.0577198372193,5.26064481393,7.387691974639893
-0.8259709434898213,3.6475938154473346,-0.12546107525298167,-2.3426571621577943,-2.568940221377998,-2.7876189468103303,-78.33850917203516,4.2091191307729705,49.622247667063405,39.72505321882488,116.97852511755688,82.24101370255265,84.86460982114872,65.05798440681308,5.260540399085426,7.4178855419158936
-0.8259938232197692,3.6475792889881187,-0.12554611342394506,-2.3426800418877423,-2.568954747837214,-2.7877039849812935,-78.44775739717002,4.311208718681286,49.59986760056651,39.69231239396831,116.98842015123718,82.2407422593464,84.86448177890738,65.05733748244461,5.260620254522715,7.43100905418396
-0.8260053696894181,3.6476037747088768,-0.12554547956839002,-2.342691588357391,-2.568930262116456,-2.7877033511257383,-78.35194839545659,4.48218639783522,49.777165801344054,39.547511423656104,116.98858130898886,82.24083226535113,84.86373049348504,65.05724231886637,5.232434859156928,7.4553680419921875
-0.8260278574114372,3.6476177596884765,-0.1254583741112875,-2.3427140760794103,-2.5689162771368563,-2.787616245668636,-78.37238713110773,4.304965687303504,49.71156909034105,39.74939200568906,116.98082105392244,82.24171993448716,84.86281208033814,65.05813381518861,5.213601098644444,7.467595100402832
-0.8259557318948867,3.6474807675965524,-0.125520600832113,-2.34264195056286,-2.5690532692287804,-2.7876784723894614,-78.46785567959247,4.33492823136006,49.59913163949606,39.67930530172599,116.98539754832673,82.2406933099637,84.86727149158816,65.05804201403646,0.2593257775168718,7.49157190322876
-0.8259750725358987,3.6476408590477476,-0.12550946580384797,-2.342661291203872,-2.568893177777585,-2.787667337361196,-78.25685380648373,4.261651231275437,49.74432804198523,39.70318062282219,116.98286430713443,82.2405898702664,84.8636545198577,65.05721707880512,0.2590767437671575,7.515506982803345
-0.8260082127121791,3.6475714325399693,-0.12550270195318922,-2.342694431380152,-2.5689626042853635,-2.7876605735105375,-78.33566558583439,4.305542336086426,49.71306744460981,39.701306969134386,116.98494022433758,82.24126745349987,84.86424206417624,65.05789267376691,0.2779576014318281,7.527572393417358
-0.8259936686793807,3.647688477879565,-0.12548333802095255,-2.3426798873473538,-2.568845558945768,-2.787641209578301,-78.2281358532596,4.71124358343171,50.02846275930863,39.37727190176443,116.9804910928508,82.24089358064539,84.8622486619487,65.05726254683299,5.232263108322693,7.555031061172485
-0.8259077547760947,3.6475841685410213,-0.1254819097509115,-2.3425939734440675,-2.5689498682843115,-2.78763978130826,-78.33136667092288,4.542115551840928,49.831610498007024,39.49829174376981,116.9775036416749,82.24005435774515,84.86629690519968,65.05753087759837,5.232397868889037,7.56691312789917
-0.8259327678806145,3.6476815692104267,-0.12549378092970628,-2.3426189865485876,-2.568852467614906,-2.787651652487055,-78.40923100959026,4.375723660601206,49.707519121568346,39.686573081211264,116.97850732988785,82.24003198241743,84.86381430705639,65.05690658273227,0.15108080191023587,7.595249652862549
-0.8260900868711367,3.6476831164934476,-0.1255260514886129,-2.3427763055391098,-2.5688509203318852,-2.7876839230459614,-78.23031568241508,4.468687896374595,49.86340956476215,39.52367741067139,116.9898005653336,82.24187467105568,84.86017289012096,65.05733768189602,5.171332922696502,7.60797905921936
-0.825979607118648,3.6475756571236913,-0.12551644927334157,-2.342665825786621,-2.5689583797016415,-2.78767432083069,-78.27986764648132,4.35903103932937,49.80987355600214,39.67596959954334,116.98477904119336,82.24077842453771,84.86484260137576,65.05758885166937,5.274679270716959,7.631875038146973
-0.8260510084918611,3.6475735525317803,-0.1255555001058531,-2.342737227159834,-2.5689604842935525,-2.7877133716632017,-78.34771581573982,4.608308945978618,49.86140832973618,39.468603480756556,116.9923868315662,82.24144623630724,84.8632789194975,65.05755820220183,5.0917483215260075,7.6558568477630615
-0.8260213845299647,3.647573874204705,-0.12549689440566186,-2.3427076031979377,-2.5689601626206278,-2.78765476596301,-78.29572805544319,4.7797622204485934,50.01380461074855,39.34612521274213,116.98500045285482,82.24147681477915,84.86387988693944,65.05799910081316,5.227765284962526,7.668659925460815
-0.826039972653958,3.6476153104068234,-0.12553339912846534,-2.342726191321931,-2.5689187264185094,-2.787691270685814,-78.25693349539837,4.473874828427267,49.873520224648026,39.56262616388864,116.98897996004354,82.24134527090303,84.86268259485742,65.05745713340134,5.227728288008566,7.694504976272583
-0.8259255541792274,3.647530667423281,-0.1254851543597531,-2.3426117728472002,-2.569003369402052,-2.7876430259171014,-78.41096311945994,4.409740374380118,49.660525819671975,39.57248220644918,116.97955006985656,82.24041317265086,84.86694122661794,65.05792920778455,5.227796133881954,7.707200050354004
-0.8259435729998135,3.6475848680544503,-0.12551148979870402,-2.3426297916677865,-2.5689491687708825,-2.7876693613560524,-78.44618384504142,4.32319040452692,49.62103217169849,39.69803608133002,116.98229118674128,82.2403125224888,84.86549170790484,65.0574041729688,5.232425219357522,7.733844757080078
-0.826082375868487,3.6478114069120777,-0.12550116060425426,-2.34276859453646,-2.568722629913255,-2.787659032161603,-78.2615579324604,4.408170347135757,49.78555438400893,39.55216032345224,116.98498035814202,82.24160019775753,84.8577916931741,65.05672363447849,5.227417948292123,7.769893646240234
-0.8259943275789079,3.6476297859054676,-0.1255566427124603,-2.342680546246881,-2.568904250919865,-2.7877145142698088,-78.3103243724115,4.39988723112181,49.78214829884289,39.62129118178387,116.98873640784734,82.24053427588773,84.86349039442074,65.05690946411569,5.143253998189209,7.794232606887817
-0.826114575217727,3.6477017933316134,-0.12550036605759493,-2.3428007938857,-2.5688322434937194,-2.7876582376149432,-78.14636366850542,4.466000672431948,49.908665664590714,39.476063027450124,116.98821131010283,82.24233255734076,84.85920053812391,65.05759361132145,5.143145654677246,7.8210577964782715
-0.8260597788097406,3.6477410159882817,-0.12552819941338617,-2.3427459974777136,-2.568793020837051,-2.7876860709707345,-78.19493843923202,4.379920617640886,49.84567170053911,39.58451479809379,116.98758237968461,82.24129953824959,84.85974015004247,65.05679624740736,5.241611533526301,7.83577036857605
-0.8260923605999961,3.6477458962765588,-0.12556436984982786,-2.342778579267969,-2.568788140548774,-2.7877222414071765,-78.24744282015142,4.39302164013225,49.812161467985625,39.59275875389535,116.99279984417007,82.24145572977716,84.85893708571146,65.05656088426574,5.24163531342176,7.8509461879730225
-0.8260211524586929,3.647681317927562,-0.1255126511589986,-2.342707371126666,-2.568852718897771,-2.787670522716347,-78.19115124220491,4.367721482798327,49.85516628554836,39.60768745218917,116.98494229000801,82.24106501913562,84.86179156663874,65.05714860218659,5.138464597121782,7.878360748291016
-0.8259708030549677,3.6476119643770732,-0.1255386439907006,-2.3426570217229408,-2.5689220724482595,-2.787696515548049,-78.32087325436675,4.374964364630964,49.73365120789835,39.60593242359916,116.98599660615925,82.24040213612622,84.86436300195896,65.05709013376352,5.23709916751073,7.890649795532227
-0.8260605143589672,3.647703924200253,-0.12552603584664582,-2.3427467330269405,-2.5688301126250797,-2.787683907403994,-78.27767755711764,4.459893561443594,49.783909801719275,39.49295253250535,116.98796373022887,82.2414267070263,84.86045035278187,65.05706024751521,5.236976413054997,7.917431831359863
-0.8260391500517887,3.647619993245557,-0.1254501051122704,-2.342725368719762,-2.5689140435797757,-2.787607976669619,-78.22950286146589,4.298298743086508,49.91858474885972,39.84510190940938,116.98054158577888,82.24192278700392,84.86249424296402,65.0582571024364,5.2370551400577465,7.946730375289917
-0.8260739100513921,3.6477058552799435,-0.1254950556261657,-2.342760128719365,-2.5688281815453893,-2.787652927183514,-78.1938988496401,4.426124743530811,49.887942195734205,39.56994243970763,116.98552719913849,82.24182214207485,84.86005815046262,65.0574231243932,5.236959161997259,7.975565195083618
-0.826062018351573,3.6476332660322073,-0.12553149265517943,-2.342748237019546,-2.5689007707931255,-2.787689364212528,-78.1748104750293,4.436605471617069,49.880412184422426,39.518205686511635,116.98965259813646,82.24160119007023,84.86181415066287,65.0574677419899,0.1840598726412952,7.988247871398926
-0.8260256204463527,3.64761113326769,-0.12551994277408157,-2.342711839114326,-2.5689229035576426,-2.7876778143314302,-78.27346372534578,4.367809460502978,49.788458585941434,39.62779993342944,116.98695982835517,82.24126413601302,84.86307972400874,65.05754904990141,0.18407626765604235,8.012539386749268
-0.8262345400433802,3.6477534800275566,-0.1255643731475578,-2.342920758711353,-2.568780556797776,-2.787722244704906,-78.18176173874355,4.224169212463097,49.744849997803854,39.67094077513537,117.00000238098949,82.24331431699667,84.85548401765426,65.05720258415643,0.1933289752056182,8.05483078956604
-0.8260340040997698,3.6476676991921773,-0.1255269805234653,-2.342720222767743,-2.5688663376331555,-2.787684852080814,-78.21673660690233,4.415760048943934,49.87476948085844,39.59736729149893,116.9872409521106,82.2411688729746,84.86178091059946,65.05715519899502,5.185415563851398,8.094027280807495
-0.8260448871049118,3.6476090724777066,-0.12553618250976825,-2.342731105772885,-2.568924964347626,-2.7876940540671167,-78.25429603642223,4.352869032838124,49.80933023893065,39.653476186119136,116.98960510743207,82.24140727410465,84.86269506774234,65.05749328616585,-0.02234269321310034,8.106168031692505
-0.8260866295754101,3.647759096569777,-0.12555004275957288,-2.342772848243383,-2.568774940255556,-2.7877079143169214,-78.19452786412681,4.580151849240891,49.94611218793421,39.42274618380153,116.99087390892927,82.2414471731615,84.858790510025,65.05659154173593,-0.022554475818582276,8.131492853164673
-0.8259813105931735,3.6475584186235612,-0.12556212798491587,-2.3426675292611465,-2.5689756182017716,-2.787719999542264,-78.40389112857694,4.344907105981329,49.632669057822156,39.626890083463074,116.98969183337906,82.24051851284628,84.86520558929274,65.05725065928307,0.17478594201328868,8.157543420791626
-0.8259414811326038,3.6475480449020874,-0.12550196961288987,-2.342627699800577,-2.5689859919232454,-2.7876598411702385,-78.52442071501012,4.3918614666199565,49.5516202250556,39.60653680996337,116.98178757939928,82.24045467511519,84.86625220132015,65.05772635151064,5.237167667660913,8.16961407661438
-0.8260882578021582,3.647569317156056,-0.12556788567763535,-2.3427744764701313,-2.568964719669277,-2.7877257572349836,-78.2510756444275,4.414763845136114,49.83779905933894,39.59688330591518,116.99560522197862,82.24186086654925,84.86251389534957,65.05764238622146,5.199684216173534,8.193922281265259
-0.8259884704220806,3.6475945707069397,-0.12550690671553744,-2.3426746890900536,-2.568939466118393,-2.787664778272886,-78.35322495001773,4.328226114907379,49.719269542097194,39.69911739827358,116.98399587508305,82.24091256334853,84.86425104987025,65.05760573395304,5.1995785112177195,8.209829330444336
-0.8259937618957063,3.647551117811238,-0.12552793490560704,-2.3426799805636795,-2.5689829190140947,-2.7876858064629553,-78.30076514472434,4.394200425495058,49.811449747805085,39.654080293145846,116.98702526993122,82.24095002330364,84.86501274276098,65.05770054473084,5.199659979415882,8.23379921913147
-0.8260453240537651,3.647677140724681,-0.12551622153088188,-2.3427315427217383,-2.5688568961006517,-2.7876740930882304,-78.36738771757032,4.403877559504598,49.72963470533264,39.62264786020685,116.9866055354603,82.24137026748436,84.8613170877268,65.05725714913433,5.199473280021195,8.245856285095215
-0.8260350193527979,3.64764780421241,-0.12549437831854027,-2.342721238020771,-2.5688862326129227,-2.787652249875889,-78.24265034283506,4.362313778677111,49.79797101986173,39.60750266669099,116.98433488448548,82.24147225760328,84.86210391147979,65.05761466921034,0.04794592317038848,8.269698143005371
-0.8260980714236503,3.6476895274193235,-0.12546707512059363,-2.3427842900916236,-2.5688445094060093,-2.787624946677942,-78.07934567626451,4.397404118340504,50.053535987975124,39.68070444546924,116.98421967351203,82.2423883691364,84.85977941987935,65.05792578673051,0.04788426662430334,8.294286727905273
-0.8260353241917091,3.6476408303920733,-0.12552463822337367,-2.342721542859682,-2.5688932064332595,-2.7876825097807223,-78.2098453180647,4.386351786418134,49.88416152660707,39.64407855988511,116.98748018962856,82.24127699992958,84.86227601808238,65.05735801786517,5.288675291340505,8.308978080749512
-0.8260332296265052,3.6475866195437288,-0.12550386650234122,-2.342719448294478,-2.568947417281604,-2.7876617380596898,-78.30960960667323,4.326948623951012,49.758015168139394,39.69579366780229,116.98611429785244,82.2415480937251,84.86336332852039,65.05790478826995,5.288746448489715,8.346782445907593
-0.8259928012852642,3.647556533707124,-0.12548917203789636,-2.3426790199532372,-2.5689775031182087,-2.787647043595245,-78.44535619823829,4.329862205152078,49.61298576445576,39.67673594086037,116.98301991822481,82.2412022649381,84.86487483237305,65.05804919055021,5.096409781622754,8.370980024337769
-0.8260414922547963,3.6476542848445335,-0.12551864022714118,-2.3427277109227695,-2.5688797519807993,-2.7876765117844897,-78.31804003505354,4.42224529616267,49.80853463338001,39.63442631097252,116.98699497420286,82.24136490500463,84.86185948272575,65.05736143870219,5.096290442238164,8.395153760910034
-0.8261399512799139,3.6478015757614908,-0.12551161526924823,-2.342826169947887,-2.568732461063842,-2.7876694868265965,-78.27663180012922,4.36569219884873,49.78698923401669,39.63974995043385,116.98913545113182,82.24231285572384,84.85666186279153,65.0569618784034,5.20399798951932,8.408216714859009
-0.8259964355127543,3.6475920697728434,-0.12549833723006254,-2.3426826541807273,-2.5689419670524893,-2.787656208787411,-78.27842976155192,4.303733848236829,49.72471779239799,39.642541675601116,116.98358674598553,82.24108659396857,84.86410335622739,65.05774633967363,7.934878380140807,8.432413578033447
-0.8261126113225592,3.6476490461135147,-0.12559121926553588,-2.3427988299905325,-2.568884990711818,-2.787749090822884,-78.28121058913878,4.405731120714176,49.772870056455204,39.56641036754819,116.99798696187929,82.24179542932211,84.86041054962953,65.05701382900382,5.185506500891502,8.474950313568115
-0.8260995534623243,3.647650894825673,-0.12551425152500198,-2.3427857721302976,-2.5688831419996596,-2.7876721230823502,-78.22618495630616,4.541466128502128,49.93954417657451,39.5113541164795,116.9895944701305,82.2421734749461,84.86057098107347,65.05770923991088,5.161995127976327,8.486926555633545
-0.825912040348959,3.647653416403205,-0.12545973597157958,-2.342598259016932,-2.568880620422128,-2.787617607528928,-78.47350257932129,4.351411846205598,49.52406113655332,39.56071109273502,116.97446370475582,82.24008091275837,84.8648031777751,65.05732803604037,5.236970229104131,8.511290550231934
-0.8261628216282735,3.6477243098820944,-0.12547306179817197,-2.3428490402962465,-2.5688097269432384,-2.7876309333555205,-78.29428726869446,4.2544800547850015,49.67211947870128,39.673602065023104,116.98762446334487,82.24310565456439,84.85759823453134,65.05795642704018,5.2369446300039435,8.53609824180603
-0.8260903459727356,3.6476688607214602,-0.12548313868689492,-2.3427765646407086,-2.5688651761038725,-2.7876410102442435,-78.27397518083964,4.3385355871114095,49.78811745641084,39.67364683396202,116.98573979640635,82.24222702331687,84.8603881107207,65.05786043319566,5.237014505685391,8.548060894012451
-0.8260920612543157,3.647668341896272,-0.12548415689075584,-2.342778279922289,-2.5688656949290607,-2.7876420284481043,-78.21874995201537,4.3967446662584555,49.83819396426482,39.580010105428116,116.98593771912083,82.24224376744304,84.86035989119753,65.05786190493626,5.09157156639991,8.574962377548218
-0.8260818846341487,3.64766207939814,-0.1255085501016692,-2.342768103302122,-2.5688719574271928,-2.7876664216590177,-78.19437556229262,4.344991943222298,49.853213206179575,39.64493332915476,116.98794678870289,82.24195034429104,84.86075344228607,65.0576085156284,0.1323982563187167,8.601094245910645
-0.8260503935042993,3.6477182504915957,-0.12552817654184714,-2.3427366121722724,-2.568815786333737,-2.7876860480991956,-78.17378583664471,4.4326321167553715,49.889962881758684,39.53638018453579,116.98744082432466,82.24123812809933,84.86040642822516,65.05689743340045,5.194726533064843,8.613194465637207
-0.8259661947279175,3.647602745181836,-0.12554148075064178,-2.3426524133958906,-2.568931291643497,-2.7876993523079903,-78.36026154031738,4.33182665750835,49.637557754883915,39.593841169551716,116.98618216706316,82.24034603873913,84.86465552615981,65.05709867880425,0.2310015246934971,8.625585079193115
-0.8260642401422471,3.6477578693874158,-0.125472960501261,-2.34275045881022,-2.568776167437917,-2.7876308320586096,-78.24592714891398,4.31633582553052,49.76165883398758,39.63374910861105,116.98203667321039,82.24171096795783,84.85922813123908,65.05726258186279,0.146298494590829,8.652415037155151
-0.8261278077715488,3.6476430994354447,-0.1255814467117949,-2.342814026439522,-2.568890937389888,-2.7877393182691432,-78.32712027344061,4.243278040975106,49.64010740283475,39.69234133644772,116.99788207196971,82.242083209763,84.86016098226962,65.05722378266663,0.10433424018342174,8.689423322677612
-0.8260656020599402,3.647645126751728,-0.12550162914611676,-2.342751820727913,-2.5688889100736048,-2.787659500703465,-78.18255021582944,4.336070138559302,49.8427692902785,39.627316986955485,116.9866731860967,82.24183159040558,84.86145600752111,65.05770785287702,5.237054722667711,8.714284896850586
-0.8259143067219163,3.6475521283356325,-0.1255590160162438,-2.3426005253898894,-2.5689819084897003,-2.787716887573592,-78.37735460591203,4.383274409950917,49.70409247259602,39.627451922869405,116.98602939781458,82.23967240357742,84.86688206209328,65.0569967861984,5.23718681820917,8.729116678237915
-0.8261363391283603,3.6476518312681145,-0.1255521470616897,-2.3428225577963335,-2.5688822055572182,-2.787710018619038,-78.17333631255958,4.445927491501221,49.90831466080189,39.5432096416341,116.99526089402544,82.24238358551541,84.85975024393258,65.057502409936,5.237095801831649,8.755619764328003
-0.8261413786634919,3.647727768298495,-0.12549721988681897,-2.342827597331465,-2.5688062685268376,-2.7876550914441673,-78.19623708650596,4.3834397431950185,49.85780861651272,39.59891969482512,116.98888383616955,82.24263829045165,84.85806191553893,65.05758810157985,2.478189794271291,8.767860651016235
-0.8260195356528424,3.6476554935085224,-0.12549253827764809,-2.342705754320815,-2.5688785433168104,-2.7876504098349963,-78.23970634979939,4.356588322941639,49.81676577327236,39.63686616520125,116.98323854709976,82.24125971997377,84.86230976467094,65.05750838645751,5.166642814551453,8.792341709136963
-0.8261990408112916,3.647669950902651,-0.1254639009140624,-2.3428852594792646,-2.568864085922682,-2.787621772471411,-78.17354011253612,4.400780296629674,49.89153462251898,39.58793006189291,116.9893928447057,82.24379986762672,84.85781417180313,65.05857399973071,5.147890820602363,8.831369876861572
-0.826253182928574,3.6476390555621148,-0.1255102223338354,-2.342939401596547,-2.568894981263218,-2.7876680938911838,-78.03973420670826,4.38510662055731,49.986564999301116,39.561960243222146,116.99727671472516,82.24426596725519,84.85722854866565,65.05857197236743,5.147982678765912,8.859920501708984
-0.8261207198603668,3.6475785623690697,-0.12545214634580318,-2.34280693852834,-2.568955474456263,-2.7876100179031518,-77.99142133115147,4.3994082456668915,50.01144563310752,39.501913726983766,116.98556691489297,82.24310025455178,84.86141732479784,65.05889956189216,5.1480017398446165,8.871799945831299
-0.8267341015769145,3.6475842824665,-0.125167305504724,-2.3434203202448876,-2.5689497543588327,-2.7873251770620726,-77.37174519559522,4.917487173007427,50.921845986452006,39.13644756281284,116.98856765181523,82.25324965254009,84.8466537972415,65.06469362793965,5.194929198428309,8.910155534744263
-0.8261376958544535,3.646128268284536,-0.12341768775290343,-2.3428239145224268,-2.570405768540797,-2.785575559310252,-77.2592278266496,6.2816846785921445,51.75790324880664,38.02617960999415,116.80443160154809,82.26196252982743,84.88679342123709,65.08869095536133,0.17578271642645893,8.949118375778198
-0.826110547406264,3.6444500910684288,-0.11952331631240658,-2.342796766074237,-2.572083945756904,-2.781681187869755,-77.16238733713395,5.558684472553335,51.64890897996375,38.651249053900486,116.43547275389162,82.29404833922911,84.91522890023938,65.13838306776151,0.10100381220492238,8.989405870437622
-0.8261880931559782,3.6429588302168803,-0.11575649492996352,-2.3428743118239512,-2.5735752066084525,-2.777914366487312,-77.02449115165871,5.537918244344642,51.490515687767605,38.16002808556456,116.07866584067436,82.32582379524217,84.93781362549808,65.18613176932087,7.973889828325086,9.015733480453491
-0.8258955033530104,3.6420206864678404,-0.11316685944612098,-2.3425817220209835,-2.5745133503574924,-2.7753247310034697,-76.7824006265736,5.34581716105558,51.51629281263932,38.046061764136404,115.8128342330311,82.342641828591,84.95976093594135,65.21673567631075,0.1197090377781862,9.029706478118896
-0.8264313532460004,3.640188285055363,-0.10759756706595802,-2.3431175719139734,-2.5763457517699697,-2.7697554386233065,-75.98043659293077,5.488989141138524,51.99714030048155,37.21790372817822,115.29186006519322,82.39341945014455,84.97614978084954,65.28707437953652,0.17571551788868556,9.056357145309448
-0.8268896135281318,3.6390417564958994,-0.10484670242973401,-2.343575832196105,-2.5774922803294333,-2.7670045739870823,-75.4549525412797,5.458484655584182,52.63738158174437,37.33691024048896,115.04480887794938,82.42158551903424,84.9845462599207,65.32432536614219,0.17600369818218553,9.06875205039978
-0.826772168682745,3.6368533578139375,-0.09870115185521727,-2.3434583873507178,-2.5796806790113953,-2.7608590234125656,-75.67097290960223,4.542835309350195,52.25424497917397,38.222869956782816,114.42475609104528,82.46752750346958,85.02285331270453,65.39967492819035,0.2460946738704859,9.093572854995728
-0.8279335984011449,3.6349895711068867,-0.09096247041327041,-2.344619817069118,-2.581544465718446,-2.753120341970619,-74.71595975558297,3.536349590114177,52.650537692644996,38.714874179066236,113.68274087931448,82.53942414617747,85.02253255816171,65.49533291359438,0.1274508869001969,9.121355772018433
-0.8281045711426835,3.633404796280328,-0.08646511021485569,-2.3447907898106566,-2.583129240545005,-2.748622981772204,-74.95523088314759,3.2886732322685783,52.262613004566255,38.71652651625713,113.22747932856419,82.57525619373584,85.0444198243393,65.55174192921464,0.26804406291216454,9.136632680892944
-0.828689651713332,3.632221726785255,-0.08229054015294937,-2.345375870381305,-2.5843123100400778,-2.7444484117102976,-74.80273710035735,3.271003809086203,52.33757936121193,38.49833606335452,112.81682840364742,82.61311603589348,85.0488717283741,65.60437143565296,0.15497466670742632,9.151619911193848
-0.8297055951985361,3.628193458231066,-0.07160430709793485,-2.346391813866509,-2.588340578594267,-2.7337621786552835,-74.41631782620682,3.581459052844145,53.37127805769813,38.601988055634656,111.73602237524388,82.70476917913022,85.09222549221113,65.74328437954084,0.14110927191744782,9.190500736236572
-0.8308081314487192,3.6266323823991917,-0.06492628550698984,-2.3474943501166923,-2.589901654426141,-2.7270841570643385,-73.81651164874516,3.1141305786216735,54.06102233737686,39.24981640381307,111.05492610331737,82.76436834588827,85.08883451526117,65.82640351135105,0.0038294359372090803,9.215242147445679
-0.8311097673328651,3.6251364090745235,-0.06176287734156628,-2.347795986000838,-2.5913976277508093,-2.7239207488989146,-73.93633671908178,2.982962860198136,53.901384610433865,39.28293966364035,110.72759171733532,82.7915261981329,85.10799923494929,65.86953896893654,0.02782171890025964,9.227792263031006
-0.8323395558980144,3.6211007030174773,-0.05221499369295711,-2.3490257745659875,-2.5954333338078555,-2.7143728652503056,-73.85469899518317,2.991933270684153,54.041711991073825,39.03674926544334,109.73134154986387,82.8751634486002,85.1486870465943,65.99833697361903,0.10384882291377817,9.267586708068848
-0.8338629378122475,3.6188446640110015,-0.046039758411305726,-2.350549156480221,-2.5976893728143313,-2.7081976299686543,-73.27276897027275,1.5412331893031612,53.85113425880292,40.00351511590629,109.1002102976691,82.93733568195319,85.15024516313517,66.0829932507626,-0.07884104929796099,9.29456114768982
-0.833865718412548,3.617634215963077,-0.043338382885938206,-2.350551937080521,-2.598899820862256,-2.7054962544432866,-73.58800861329163,1.4394295615293815,53.50480262718303,40.01270862463697,108.7952123255049,82.95561436083351,85.1717083608882,66.11826253574569,-0.07856941950523,9.307213544845581
-0.8350126114269227,3.6153058623476957,-0.03836766536760805,-2.3516988300948958,-2.601228174477637,-2.7005255369249563,-73.28103274413921,1.6634729534211559,54.2765312197444,40.18810982041703,108.27714323455837,83.00529151237657,85.1856032425408,66.18931815797976,-0.07756244590829686,9.33179521560669
-0.8350438407099452,3.6138394770818594,-0.03554661070134514,-2.3517300593779185,-2.6026945597434734,-2.6977044822586937,-73.2176941432885,1.844794802323622,54.58183312152447,40.140501336814864,107.95601256318471,83.02491079959961,85.21169485491967,66.2275922959627,0.09194905122163854,9.346915245056152
-0.8362640093670042,3.6101614813721574,-0.02782961272211598,-2.3529502280349774,-2.6063725554531754,-2.6899874842794644,-73.49097176031728,1.8600579528346632,54.42110132623713,40.023151495626685,107.10820739894025,83.092678106311,85.24868615434634,66.33570779494156,0.14504782876533628,9.387402534484863
-0.8371957208104417,3.608258132577148,-0.02350344516179048,-2.3538819394784145,-2.6082759042481847,-2.685661316719139,-73.18536451627578,1.8693021616200942,54.650250808168835,39.766996787008225,106.63301173551737,83.13308717640095,85.26015519919166,66.39655043071994,-0.032576783930259534,9.412361860275269
-0.8374947069331025,3.6071253061336237,-0.02078178370037767,-2.3541809256010753,-2.609408730691709,-2.682939655257726,-73.23623289768142,1.3450886000282678,54.26331052157926,40.00981964634365,106.31944025620571,83.15394360505351,85.27313228001528,66.4330604699083,0.14124594905351273,9.427635908126831
-0.8381050658349842,3.605394152646837,-0.015871796214828066,-2.3547912845029573,-2.611139884178496,-2.6780296677721767,-72.9498255167422,0.5454476488823002,54.172954071452544,40.574656033115396,105.74826292080074,83.19106342509197,85.28831907348626,66.49734709830227,0.04266143336590966,9.454383850097656
-0.8383545430104897,3.60458559685654,-0.013337743267958058,-2.3550407616784628,-2.611948439968793,-2.6754956148253064,-73.01029590666153,0.15069764388924445,53.9610919119859,40.90813893776297,105.44771184074055,83.20873832738533,85.29602687177473,66.52969990033124,0.0659371424634676,9.468919515609741
-0.8389100121537916,3.6032627373378867,-0.009227798147374733,-2.3555962308217646,-2.613271299487446,-2.671385669704723,-72.82938780080025,0.6149289471246965,54.44302449033299,40.46737626936052,104.96217844304728,83.23924657237201,85.30507268056795,66.5829941447981,1.8982634410136257e-05,9.492674350738525
-0.8394736316720921,3.600369874863845,-0.0014640430857684184,-2.356159850340065,-2.6161641619614877,-2.663621914643117,-73.07034806150256,1.2224233997869398,54.82319917669472,40.139340178636104,104.01889200812118,83.28986465746378,85.34276780555578,66.6838865257367,4.362948627090191e-05,9.534971714019775
-0.8395514760435066,3.5998738648253377,0.000557304704018935,-2.3562376947114796,-2.616660171999995,-2.6616005668533296,-73.0896693589643,1.3673723992233175,54.8288145968576,39.87756153879406,103.76644410150338,83.30087806059113,85.3488944970158,66.70824543763439,0.0746938100327279,9.547211647033691
-0.8396101216759018,3.599244861438423,0.005867007119528089,-2.356296340343875,-2.61728917538691,-2.6562908644378203,-72.99335509244715,0.7455808176190244,54.669460687928954,40.31655716129651,103.08945029254974,83.32476624704825,85.35434111725567,66.76739584097876,0.030267339011353034,9.571515798568726
-0.8397858535970477,3.598789289287453,0.008699207541291248,-2.3564720722650208,-2.6177447475378797,-2.6534586640160573,-72.91250386574718,0.29892930629987025,54.39674197839994,40.41796970853803,102.73171125368292,83.33965885535326,85.35619848409944,66.80041267910076,0.13254376322813988,9.585880041122437
-0.840033613318329,3.5982947983889435,0.014407012126898822,-2.356719831986302,-2.6182392384363893,-2.6477508594304497,-72.55713355234784,0.402433902374423,54.70782010779899,39.99658704579694,101.99975214404824,83.3658715391558,85.35356130172026,66.86387790071727,0.0314182276204904,9.612013339996338
-0.8398465293848045,3.597660111709884,0.020921978007871406,-2.3565327480527776,-2.618873925115449,-2.641235893549477,-73.2160888865802,0.13525767264371533,53.8053769746652,39.82355956657315,101.14423157984679,83.38779140691574,85.36391939226708,66.93461875218541,-0.03257928458295822,9.64043641090393
-0.8392976922307922,3.5974124209644884,0.023691742297805685,-2.3559839108987655,-2.6191216158608444,-2.638466129259543,-73.40623908055925,0.1395280003362873,53.70073679227852,39.833184575579644,100.76566151015864,83.38966120258105,85.37975055375378,66.96235322297498,-0.034037386483382726,9.652377605438232
-0.8391568538001104,3.597210397099884,0.026968705794933268,-2.355843072468083,-2.6193236397254487,-2.6351891657624154,-73.35331852249057,-0.33310233962105695,53.63705840403025,40.31749939989672,100.33050785685955,83.3987095545747,85.38368289100025,66.99705603160832,0.10500305641470886,9.666735410690308
-0.839498579207447,3.5968436597564426,0.03289139453076406,-2.35618479787542,-2.61969037706889,-2.6292664770265843,-72.98354009700192,-0.042338524355683436,54.25325816927828,40.03463967237422,99.55593633779291,83.42295321881008,85.37568754088453,67.06270442879719,0.10209118783103088,9.690849542617798
-0.8394264573920451,3.596874471810926,0.03680431034825865,-2.356112676060018,-2.6196595650144068,-2.62535356120909,-72.7829203971977,0.23527182442998468,54.71374197130779,39.85364714329953,99.03276992741664,83.43293435139356,85.37204551631962,67.10301995507707,0.09964455982259457,9.706010580062866
-0.8387742191994545,3.5970655107774987,0.043104695515028546,-2.3554604378674275,-2.619468526047834,-2.61905317604232,-73.22657794285757,0.2940883252724133,54.22379261220412,39.45803621921809,98.17483491607437,83.43938066369874,85.37678962269061,67.16460157554616,0.053087064020233665,9.730026960372925
-0.838174820504219,3.5971702162415036,0.050000920205101385,-2.3548610391721922,-2.619363820583829,-2.612156951352247,-73.44116960607815,-0.5834223105895641,53.522842793868094,39.88749095790464,97.23672160178782,83.44683761127486,85.38136113770456,67.23333273086686,0.08138107020776175,9.755728006362915
-0.8381202478463008,3.597671819406585,0.05360009100699306,-2.354806466514274,-2.618862217418748,-2.6085577805503553,-73.38276558341781,-0.5424708486226724,53.58398667909267,39.709695568072014,96.75018166014193,83.45232669553229,85.36731832440904,67.26772520777195,0.07838244833345032,9.768486499786377
-0.8373893343399494,3.597925945702415,0.0644712301917171,-2.3540755530079225,-2.6186080911229177,-2.597686641365631,-73.38273047969699,-0.7430102769910703,53.624199674653894,39.72357750916209,95.26964830476041,83.4620022205644,85.36701828223994,67.37694137426107,0.07111995535594584,9.807211875915527
-0.836795976103027,3.5987503332523025,0.07224809646902994,-2.353482194771,-2.6177837035730303,-2.5899097750883184,-73.3757302480874,-0.7905878313877924,53.60981182531145,39.49795539306216,94.2072642966269,83.46293795897057,85.35440756648863,67.45098463581482,0.11649135768285213,9.833038091659546
-0.8358744999445324,3.5991062031699714,0.07669123351292995,-2.3525607186125055,-2.6174278336553614,-2.5854666380444185,-73.63727817701258,-0.5496429297310891,53.55672883033636,39.25460360809537,93.5934610005495,83.4541183745555,85.36490221346774,67.49132010250304,0.13168946102127377,9.848240852355957
-0.8349576995365773,3.6014219188480125,0.09348347593060524,-2.3516439182045503,-2.6151121179773202,-2.568674395626743,-73.32773140792828,-0.34773054560484074,53.9320454249528,38.47267929111218,91.31045588983422,83.44939926353449,85.31572901102287,67.65047234458517,0.11744818769635357,9.902549982070923
-0.8341632298527348,3.6030796660170545,0.1029164734019396,-2.350849448520708,-2.6134543708082782,-2.5592413981554087,-73.07911237175016,-0.7098745489406144,54.14037216472701,38.69339890213337,90.03176454372749,83.43677759832234,85.28705841383362,67.73672529478718,0.17446427787053054,9.932161569595337
-0.8338275042909313,3.603673382011724,0.10688986019855656,-2.3505137229589046,-2.6128606548136086,-2.555268011358792,-73.33835501993593,-0.8157948866159324,53.85077193406414,38.68413956131506,89.494730340564,83.43084671246511,85.27727864872664,67.77377922588721,0.03491183043674928,9.944246292114258
-0.8323517886497396,3.605034308993187,0.11474529873348716,-2.349038007317713,-2.611499727832146,-2.5474125728238612,-73.91896335849869,-0.6578773343276996,53.35265822683069,38.25662357975986,88.43695530353732,83.40455299268805,85.27521596152863,67.84219688911955,0.013375178431179968,9.968418598175049
-0.8313383245665542,3.6072754435665244,0.1279164720855956,-2.3480245432345273,-2.6092585932588084,-2.5342413994717528,-74.02121904072452,-0.7167596059564549,53.20560051803428,37.835450165570485,86.6796655905868,83.37772461301758,85.23341837945573,67.96447950731756,0.12335433222442838,10.007187128067017
-0.8302605944834405,3.6091255380368596,0.13713873425323087,-2.3469468131514137,-2.607408498788473,-2.5250191373041178,-74.06661919193593,-1.0741452545611514,52.97484179890792,37.78943642158473,85.46378986643619,83.34881303453406,85.20727111741797,68.04695341420125,0.11437108885001734,10.03455138206482
-0.8293520505266858,3.610056110337386,0.14198119991104602,-2.3460382691946586,-2.6064779264879467,-2.5201766716463023,-74.09867935237862,-1.4882002492731758,52.804657745390095,38.06314138422983,84.83244295835442,83.32745091444679,85.20364894034391,68.08901106005769,0.10960349033553607,10.04897165298462
-0.8289570686213257,3.611953686943887,0.15031044069999439,-2.345643287289299,-2.604580349881446,-2.511847430857354,-74.10287837791634,-1.1504793300443508,53.027308262208514,37.6261153886779,83.74779437909775,83.30540002095621,85.1587439228467,68.16516493835863,0.20451760745628134,10.07346773147583
-0.828199738380949,3.61272722040976,0.1545566822050491,-2.344885957048922,-2.603806816415573,-2.5076011893522994,-74.35319491403432,-1.1217827247787036,52.75399379174324,37.3714260815906,83.20260817761243,83.28557366958697,85.15533847532274,68.20266581899106,0.20040730717618693,10.085886240005493
-0.8273433693160717,3.6143417033226197,0.16297331167242812,-2.3440295879840445,-2.602192333502713,-2.4991845598849203,-74.33448699565248,-0.4062965473690565,53.22182598892278,36.683031963145034,82.12455375324396,83.25391737042607,85.1289806435413,68.27968223083882,0.19233008137148788,10.111797332763672
-0.8269033428501544,3.615147045622469,0.16709447501704616,-2.3435895615181277,-2.601386991202864,-2.4950633965403024,-74.39761627346917,-0.397022622380128,53.24220241502332,36.67488095501988,81.60123865942771,83.237213213222,85.11620434379483,68.3172856962465,0.07573860765546536,10.124289989471436
-0.8257143719753233,3.6182554699971754,0.1810098104183872,-2.3424005906432965,-2.5982785668281574,-2.481148061138961,-74.31339544149291,-0.3695747158171784,53.4123358302609,36.33049278484694,79.85448957556271,83.17993039437552,85.05524292302954,68.44362488519863,0.06173045070475869,10.167586326599121
-0.824652623337492,3.6196834878447386,0.18870814299852956,-2.341338842005465,-2.596850548980594,-2.473449728558819,-74.69469997958018,-0.5942527960683944,52.996073683492355,36.364831091269345,78.90716257844265,83.14058008637477,85.03921910329895,68.51370683982668,0.007379645464139717,10.19197416305542
-0.8241796131768526,3.6203386612072332,0.1925325678972552,-2.340865831844826,-2.5961953756180995,-2.4696253036600933,-74.64651293340047,-0.9077179071250308,52.9156800576839,36.51919044891497,78.4391637706932,83.1213421309345,85.0309701761141,68.54918291093607,0.06477976117385298,10.20419454574585
-0.8235023586025325,3.621582882435775,0.1998682640519998,-2.3401885772705056,-2.5949511543895576,-2.4622896075053484,-74.6982991235064,-1.0750005362409691,52.754656816800455,36.34794150872237,77.54411769670669,83.08664092459439,85.00889745464683,68.6185072110598,0.05797653776260647,10.228520631790161
-0.8222675744703263,3.6229697732408903,0.2073505795892499,-2.338953793138299,-2.5935642635844425,-2.4548072919680983,-75.00088496533886,-1.156695183247081,52.53636110206236,36.359374862824865,76.65580593344694,83.04118579058397,84.99867810847743,68.68614130043389,0.13511665691778152,10.252500057220459
-0.8216237944782834,3.623978777026026,0.2126063206726927,-2.3383100131462564,-2.592555259799307,-2.4495515508846557,-75.0221842476488,-0.6523104227545606,52.83010110864665,35.90967507908718,76.03406057565739,83.01147756683594,84.9843034012077,68.7345790112761,0.20975333757999826,10.269627809524536
-0.8211461457409146,3.625215183180019,0.22058327853382004,-2.3378323644088876,-2.591318853645314,-2.441574593023528,-74.87719473797769,-0.5667989114640835,52.97351338749099,35.50537212193547,75.08388195902029,82.97311143438547,84.95524568560273,68.81240559282776,0.20259978251698385,10.295480251312256
-0.8202172938692951,3.6257641264435403,0.22514842716949685,-2.336903512537268,-2.5907699103817925,-2.4370094443878516,-74.94213495629224,-0.800871698680351,52.80346940448159,35.51401164492943,74.56123358029727,82.94122752789616,84.96095628872642,68.85498915276176,0.06716794000764015,10.309666633605957
-0.8193634815671786,3.627138280966566,0.23713469308203367,-2.3360497002351517,-2.589395755858767,-2.425023178475315,-75.1689552775781,-0.8062695824809847,52.53658588458384,35.03490010854554,73.16336263629081,82.87806707641944,84.93232970797919,68.97485835327181,-0.24784995379042307,10.34823489189148
-0.818331437221453,3.6277086754819043,0.24463922886577016,-2.335017655889426,-2.5888253613434284,-2.4175186426915785,-75.23898224288467,-0.884868925932464,52.592573248721486,35.11672850305449,72.31310544389225,82.83011959395817,84.93558430558103,69.04964438737103,-0.04273019819915547,10.37142038345337
-0.817968943197156,3.6278999585708513,0.2487351624516107,-2.334655161865129,-2.5886340782544814,-2.413422709105738,-75.24183154542439,-0.9142790074422182,52.62889153496404,35.09038285718095,71.84561518108991,82.80655961224257,84.93451622758893,69.09220723930157,-0.1161334408650676,10.384053945541382
-0.8164506839118328,3.628301269299412,0.26206816605100086,-2.333136902579806,-2.5882327675259207,-2.4000897055063475,-75.4234478680575,-1.5890328465216481,52.22061086697375,35.277141414431924,70.3541636860907,82.72245967543776,84.94630601517352,69.2309389808882,0.09475014462696985,10.424697160720825
-0.8160054026820771,3.6284863960116045,0.27116504313549333,-2.33269162135005,-2.5880476408137283,-2.3909928284218553,-75.46975070405722,-1.4967080544206752,52.21047583454394,34.86424604442445,69.33382390446053,82.67102539573274,84.9393799321534,69.32917849238876,0.036894905423823676,10.451226711273193
-0.815664822885322,3.628509897190509,0.27528062562639316,-2.332351041553295,-2.5880241396348236,-2.3868772459309553,-75.24605415701326,-1.9236172435347383,52.31557950747908,35.20326638869255,68.88125848327417,82.6452069450174,84.94180217440835,69.3734416317258,0.03411516452581731,10.463321208953857
-0.8151007756402611,3.628293272452609,0.2838922624539831,-2.331786994308234,-2.5882407643727237,-2.3782656091033654,-75.16561918502529,-1.7669354669872552,52.62111486127967,35.055250251455895,67.93436852561601,82.59257433450058,84.94917820140681,69.4685512121124,0.15544112043098357,10.487683057785034
-0.8142009351093478,3.628285930772975,0.2936720640026154,-2.330887153777321,-2.5882481060523577,-2.368485807554733,-75.18100400913409,-2.4095783584388117,52.37673444628958,35.327652390980845,66.89042448809538,82.52614192626407,84.95934544819725,69.57418161963943,0.14888774712861919,10.51498818397522
-0.8139209727120851,3.628094719975238,0.29805008549331974,-2.330607191380058,-2.5884393168500948,-2.3641077860640287,-75.19269502981385,-2.4343070309599195,52.33976878025047,35.14910306195089,66.42074637793826,82.4978460657892,84.96502630997819,69.62328362004153,0.14628991599444063,10.527062892913818
-0.8134678672182918,3.6273106942305,0.3070048175524229,-2.3301540858862646,-2.589223342594833,-2.3551530540049255,-75.17352549129981,-2.585975647382756,52.396681685587545,35.14188932435173,65.4588193322389,82.44112975769815,84.98315367318145,69.72685688852953,0.1416341516151407,10.55251955986023
-0.8131133086463824,3.6271823208979255,0.31241394202306066,-2.3297995273143552,-2.5893517159274073,-2.349743929534288,-75.32887200066345,-3.0274644389960534,51.978378233819576,35.16513556434758,64.89477070377467,82.40384897967354,84.98783594307201,69.78704644008664,0.13824236478337149,10.567167043685913
-0.8127467013995833,3.626782650838062,0.32221423410244215,-2.329432920067556,-2.5897513859872707,-2.3399436374549065,-75.27425152566778,-3.4568444214006964,51.83954505694524,35.147316263501054,63.8715549755689,82.33870263255959,84.99234793226685,69.89860821742074,0.1324474799322024,10.593766689300537
-0.8122029322684141,3.6263688061050456,0.32643553662971386,-2.328889150936387,-2.590165230720287,-2.3357223349276346,-75.45033029525483,-3.7873357115809085,51.559247529070575,35.332657511234345,63.44902005122556,82.30522364121613,85.0122462438513,69.9464727441491,-0.05746821118852896,10.605515718460083
-0.8120251479549567,3.6259761917788813,0.3358654469279895,-2.3287113666229295,-2.5905578450464515,-2.326292424629359,-75.39135295240415,-4.308131689886168,51.359372662863095,35.36015246828812,62.48060604188658,82.24177595239512,85.01164871327005,70.05505621842065,0.08245913670317684,10.631629943847656
-0.8120905471136062,3.6257756763919735,0.34018989309573,-2.328776765781579,-2.5907583604333593,-2.3219679784616183,-75.38148072936862,-4.381683103742981,51.37254985519562,35.34544199311622,62.03454806768909,82.21400315735274,85.00740229424143,70.10573224016791,0.09408360299382634,10.643527030944824
-0.8115156249799014,3.6251633261438516,0.35414662496493615,-2.328201843647874,-2.591370710681481,-2.3080112465924123,-75.37712549312393,-4.356857878761265,51.497016802832945,35.00531150890798,60.65612779225797,82.11064191482804,85.016926254783,70.26588189163083,-0.022070835717809878,10.68262767791748
